<?xml version="1.0" encoding="UTF-8"?>

<!-- DTD for the XMLBIF 0.3 format -->
<!DOCTYPE BIF [
<!ELEMENT BIF ( NETWORK )*>
<!ATTLIST BIF VERSION CDATA #REQUIRED>
   <!ELEMENT NETWORK ( NAME, ( PROPERTY | VARIABLE | DEFINITION )* )>
      <!ELEMENT NAME (#PCDATA)>
        <!ELEMENT VARIABLE ( NAME, ( OUTCOME |  PROPERTY )* ) >
          <!ATTLIST VARIABLE TYPE (nature|decision|utility) "nature">
           <!ELEMENT OUTCOME (#PCDATA)>
            <!ELEMENT DEFINITION ( FOR | GIVEN | TABLE | PROPERTY )* >
              <!ELEMENT FOR (#PCDATA)>
                <!ELEMENT GIVEN (#PCDATA)>
                  <!ELEMENT TABLE (#PCDATA)>
                    <!ELEMENT PROPERTY (#PCDATA)>
                      ]>
<BIF VERSION="0.3">
<NETWORK>
<NAME>Reco</NAME>
<VARIABLE TYPE="nature">
	<NAME>v1</NAME>
	<OUTCOME>2</OUTCOME>
	<OUTCOME>0</OUTCOME>
	<OUTCOME>1</OUTCOME>
	<OUTCOME>3</OUTCOME>
</VARIABLE>

<VARIABLE TYPE="nature">
	<NAME>v2</NAME>
	<OUTCOME>1</OUTCOME>
	<OUTCOME>2</OUTCOME>
	<OUTCOME>3</OUTCOME>
	<OUTCOME>0</OUTCOME>
</VARIABLE>

<VARIABLE TYPE="nature">
	<NAME>v3</NAME>
	<OUTCOME>0</OUTCOME>
	<OUTCOME>1</OUTCOME>
	<OUTCOME>2</OUTCOME>
</VARIABLE>

<VARIABLE TYPE="nature">
	<NAME>v4</NAME>
	<OUTCOME>0</OUTCOME>
	<OUTCOME>3</OUTCOME>
</VARIABLE>

<VARIABLE TYPE="nature">
	<NAME>v5</NAME>
	<OUTCOME>3</OUTCOME>
	<OUTCOME>1</OUTCOME>
	<OUTCOME>4</OUTCOME>
	<OUTCOME>0</OUTCOME>
	<OUTCOME>2</OUTCOME>
</VARIABLE>

<VARIABLE TYPE="nature">
	<NAME>v6</NAME>
	<OUTCOME>0</OUTCOME>
	<OUTCOME>1</OUTCOME>
</VARIABLE>

<VARIABLE TYPE="nature">
	<NAME>v7</NAME>
	<OUTCOME>0</OUTCOME>
	<OUTCOME>1</OUTCOME>
</VARIABLE>

<VARIABLE TYPE="nature">
	<NAME>v8</NAME>
	<OUTCOME>1</OUTCOME>
	<OUTCOME>0</OUTCOME>
</VARIABLE>

<VARIABLE TYPE="nature">
	<NAME>v9</NAME>
	<OUTCOME>0</OUTCOME>
	<OUTCOME>3</OUTCOME>
	<OUTCOME>1</OUTCOME>
	<OUTCOME>2</OUTCOME>
</VARIABLE>

<VARIABLE TYPE="nature">
	<NAME>v10</NAME>
	<OUTCOME>2</OUTCOME>
	<OUTCOME>0</OUTCOME>
	<OUTCOME>1</OUTCOME>
</VARIABLE>

<VARIABLE TYPE="nature">
	<NAME>v11</NAME>
	<OUTCOME>0</OUTCOME>
	<OUTCOME>1</OUTCOME>
</VARIABLE>

<VARIABLE TYPE="nature">
	<NAME>v12</NAME>
	<OUTCOME>2</OUTCOME>
	<OUTCOME>1</OUTCOME>
	<OUTCOME>0</OUTCOME>
</VARIABLE>

<VARIABLE TYPE="nature">
	<NAME>v13</NAME>
	<OUTCOME>1</OUTCOME>
	<OUTCOME>0</OUTCOME>
</VARIABLE>

<VARIABLE TYPE="nature">
	<NAME>v14</NAME>
	<OUTCOME>1</OUTCOME>
	<OUTCOME>0</OUTCOME>
</VARIABLE>

<VARIABLE TYPE="nature">
	<NAME>v15</NAME>
	<OUTCOME>0</OUTCOME>
	<OUTCOME>1</OUTCOME>
</VARIABLE>

<VARIABLE TYPE="nature">
	<NAME>v16</NAME>
	<OUTCOME>3</OUTCOME>
	<OUTCOME>2</OUTCOME>
	<OUTCOME>1</OUTCOME>
	<OUTCOME>0</OUTCOME>
</VARIABLE>

<VARIABLE TYPE="nature">
	<NAME>v17</NAME>
	<OUTCOME>0</OUTCOME>
	<OUTCOME>1</OUTCOME>
</VARIABLE>

<VARIABLE TYPE="nature">
	<NAME>v18</NAME>
	<OUTCOME>1</OUTCOME>
	<OUTCOME>0</OUTCOME>
</VARIABLE>

<VARIABLE TYPE="nature">
	<NAME>v19</NAME>
	<OUTCOME>1</OUTCOME>
	<OUTCOME>0</OUTCOME>
</VARIABLE>

<VARIABLE TYPE="nature">
	<NAME>v20</NAME>
	<OUTCOME>1</OUTCOME>
	<OUTCOME>0</OUTCOME>
</VARIABLE>

<VARIABLE TYPE="nature">
	<NAME>v21</NAME>
	<OUTCOME>1</OUTCOME>
	<OUTCOME>0</OUTCOME>
</VARIABLE>

<VARIABLE TYPE="nature">
	<NAME>v22</NAME>
	<OUTCOME>1</OUTCOME>
	<OUTCOME>2</OUTCOME>
	<OUTCOME>0</OUTCOME>
</VARIABLE>

<VARIABLE TYPE="nature">
	<NAME>v23</NAME>
	<OUTCOME>8</OUTCOME>
	<OUTCOME>0</OUTCOME>
	<OUTCOME>3</OUTCOME>
	<OUTCOME>1</OUTCOME>
	<OUTCOME>2</OUTCOME>
	<OUTCOME>9</OUTCOME>
	<OUTCOME>7</OUTCOME>
	<OUTCOME>6</OUTCOME>
	<OUTCOME>4</OUTCOME>
	<OUTCOME>5</OUTCOME>
</VARIABLE>

<VARIABLE TYPE="nature">
	<NAME>v24</NAME>
	<OUTCOME>1</OUTCOME>
	<OUTCOME>0</OUTCOME>
</VARIABLE>

<VARIABLE TYPE="nature">
	<NAME>v25</NAME>
	<OUTCOME>3</OUTCOME>
	<OUTCOME>2</OUTCOME>
	<OUTCOME>6</OUTCOME>
	<OUTCOME>5</OUTCOME>
	<OUTCOME>0</OUTCOME>
	<OUTCOME>7</OUTCOME>
</VARIABLE>

<VARIABLE TYPE="nature">
	<NAME>v26</NAME>
	<OUTCOME>4</OUTCOME>
	<OUTCOME>1</OUTCOME>
	<OUTCOME>3</OUTCOME>
	<OUTCOME>0</OUTCOME>
	<OUTCOME>5</OUTCOME>
	<OUTCOME>2</OUTCOME>
</VARIABLE>

<VARIABLE TYPE="nature">
	<NAME>v32</NAME>
	<OUTCOME>999</OUTCOME>
	<OUTCOME>-1</OUTCOME>
</VARIABLE>

<VARIABLE TYPE="nature">
	<NAME>v33</NAME>
	<OUTCOME>1</OUTCOME>
	<OUTCOME>0</OUTCOME>
</VARIABLE>

<VARIABLE TYPE="nature">
	<NAME>v36</NAME>
	<OUTCOME>1</OUTCOME>
	<OUTCOME>2</OUTCOME>
	<OUTCOME>0</OUTCOME>
</VARIABLE>

<VARIABLE TYPE="nature">
	<NAME>v37</NAME>
	<OUTCOME>999</OUTCOME>
	<OUTCOME>-1</OUTCOME>
</VARIABLE>

<VARIABLE TYPE="nature">
	<NAME>v38</NAME>
	<OUTCOME>0</OUTCOME>
	<OUTCOME>1</OUTCOME>
</VARIABLE>

<VARIABLE TYPE="nature">
	<NAME>v39</NAME>
	<OUTCOME>0</OUTCOME>
	<OUTCOME>1</OUTCOME>
</VARIABLE>

<VARIABLE TYPE="nature">
	<NAME>v40</NAME>
	<OUTCOME>0</OUTCOME>
	<OUTCOME>1</OUTCOME>
</VARIABLE>

<VARIABLE TYPE="nature">
	<NAME>v41</NAME>
	<OUTCOME>0</OUTCOME>
	<OUTCOME>1</OUTCOME>
</VARIABLE>

<VARIABLE TYPE="nature">
	<NAME>v42</NAME>
	<OUTCOME>0</OUTCOME>
	<OUTCOME>1</OUTCOME>
	<OUTCOME>2</OUTCOME>
	<OUTCOME>3</OUTCOME>
</VARIABLE>

<VARIABLE TYPE="nature">
	<NAME>v44</NAME>
	<OUTCOME>1</OUTCOME>
	<OUTCOME>0</OUTCOME>
</VARIABLE>

<VARIABLE TYPE="nature">
	<NAME>v45</NAME>
	<OUTCOME>2</OUTCOME>
	<OUTCOME>1</OUTCOME>
	<OUTCOME>0</OUTCOME>
</VARIABLE>

<VARIABLE TYPE="nature">
	<NAME>v46</NAME>
	<OUTCOME>0</OUTCOME>
	<OUTCOME>1</OUTCOME>
</VARIABLE>

<VARIABLE TYPE="nature">
	<NAME>v47</NAME>
	<OUTCOME>0</OUTCOME>
	<OUTCOME>2</OUTCOME>
	<OUTCOME>1</OUTCOME>
</VARIABLE>

<VARIABLE TYPE="nature">
	<NAME>v48</NAME>
	<OUTCOME>2</OUTCOME>
	<OUTCOME>0</OUTCOME>
	<OUTCOME>1</OUTCOME>
</VARIABLE>

<VARIABLE TYPE="nature">
	<NAME>v49</NAME>
	<OUTCOME>3</OUTCOME>
	<OUTCOME>4</OUTCOME>
	<OUTCOME>2</OUTCOME>
	<OUTCOME>1</OUTCOME>
	<OUTCOME>0</OUTCOME>
</VARIABLE>

<VARIABLE TYPE="nature">
	<NAME>v50</NAME>
	<OUTCOME>1</OUTCOME>
	<OUTCOME>0</OUTCOME>
</VARIABLE>

<VARIABLE TYPE="nature">
	<NAME>v51</NAME>
	<OUTCOME>1</OUTCOME>
	<OUTCOME>0</OUTCOME>
</VARIABLE>

<VARIABLE TYPE="nature">
	<NAME>v52</NAME>
	<OUTCOME>0</OUTCOME>
	<OUTCOME>1</OUTCOME>
</VARIABLE>

<VARIABLE TYPE="nature">
	<NAME>v53</NAME>
	<OUTCOME>1</OUTCOME>
	<OUTCOME>0</OUTCOME>
</VARIABLE>

<VARIABLE TYPE="nature">
	<NAME>v54</NAME>
	<OUTCOME>0</OUTCOME>
	<OUTCOME>2</OUTCOME>
</VARIABLE>

<VARIABLE TYPE="nature">
	<NAME>v55</NAME>
	<OUTCOME>3</OUTCOME>
	<OUTCOME>4</OUTCOME>
	<OUTCOME>2</OUTCOME>
	<OUTCOME>1</OUTCOME>
	<OUTCOME>0</OUTCOME>
</VARIABLE>

<VARIABLE TYPE="nature">
	<NAME>v56</NAME>
	<OUTCOME>2</OUTCOME>
	<OUTCOME>4</OUTCOME>
	<OUTCOME>3</OUTCOME>
	<OUTCOME>0</OUTCOME>
	<OUTCOME>1</OUTCOME>
</VARIABLE>

<VARIABLE TYPE="nature">
	<NAME>v57</NAME>
	<OUTCOME>1</OUTCOME>
	<OUTCOME>0</OUTCOME>
</VARIABLE>

<VARIABLE TYPE="nature">
	<NAME>v58</NAME>
	<OUTCOME>1</OUTCOME>
	<OUTCOME>0</OUTCOME>
	<OUTCOME>2</OUTCOME>
</VARIABLE>

<VARIABLE TYPE="nature">
	<NAME>v59</NAME>
	<OUTCOME>1</OUTCOME>
	<OUTCOME>2</OUTCOME>
	<OUTCOME>0</OUTCOME>
</VARIABLE>

<VARIABLE TYPE="nature">
	<NAME>v60</NAME>
	<OUTCOME>0</OUTCOME>
	<OUTCOME>1</OUTCOME>
</VARIABLE>

<VARIABLE TYPE="nature">
	<NAME>v61</NAME>
	<OUTCOME>1</OUTCOME>
	<OUTCOME>2</OUTCOME>
	<OUTCOME>0</OUTCOME>
</VARIABLE>

<VARIABLE TYPE="nature">
	<NAME>v62</NAME>
	<OUTCOME>2</OUTCOME>
	<OUTCOME>1</OUTCOME>
	<OUTCOME>0</OUTCOME>
</VARIABLE>

<VARIABLE TYPE="nature">
	<NAME>v63</NAME>
	<OUTCOME>1</OUTCOME>
	<OUTCOME>0</OUTCOME>
</VARIABLE>

<VARIABLE TYPE="nature">
	<NAME>v64</NAME>
	<OUTCOME>0</OUTCOME>
	<OUTCOME>1</OUTCOME>
</VARIABLE>

<VARIABLE TYPE="nature">
	<NAME>v65</NAME>
	<OUTCOME>999</OUTCOME>
	<OUTCOME>0</OUTCOME>
</VARIABLE>

<VARIABLE TYPE="nature">
	<NAME>v66</NAME>
	<OUTCOME>0</OUTCOME>
	<OUTCOME>1</OUTCOME>
	<OUTCOME>2</OUTCOME>
</VARIABLE>

<VARIABLE TYPE="nature">
	<NAME>v67</NAME>
	<OUTCOME>999</OUTCOME>
	<OUTCOME>0</OUTCOME>
</VARIABLE>

<VARIABLE TYPE="nature">
	<NAME>v68</NAME>
	<OUTCOME>0</OUTCOME>
	<OUTCOME>1</OUTCOME>
</VARIABLE>

<VARIABLE TYPE="nature">
	<NAME>v69</NAME>
	<OUTCOME>0</OUTCOME>
	<OUTCOME>1</OUTCOME>
</VARIABLE>

<VARIABLE TYPE="nature">
	<NAME>v70</NAME>
	<OUTCOME>999</OUTCOME>
	<OUTCOME>-1</OUTCOME>
</VARIABLE>

<VARIABLE TYPE="nature">
	<NAME>v71</NAME>
	<OUTCOME>0</OUTCOME>
	<OUTCOME>1</OUTCOME>
</VARIABLE>

<VARIABLE TYPE="nature">
	<NAME>v72</NAME>
	<OUTCOME>0</OUTCOME>
	<OUTCOME>1</OUTCOME>
</VARIABLE>

<VARIABLE TYPE="nature">
	<NAME>v73</NAME>
	<OUTCOME>0</OUTCOME>
	<OUTCOME>1</OUTCOME>
</VARIABLE>

<VARIABLE TYPE="nature">
	<NAME>v79</NAME>
	<OUTCOME>0</OUTCOME>
	<OUTCOME>1</OUTCOME>
</VARIABLE>

<VARIABLE TYPE="nature">
	<NAME>v80</NAME>
	<OUTCOME>1</OUTCOME>
	<OUTCOME>0</OUTCOME>
</VARIABLE>

<VARIABLE TYPE="nature">
	<NAME>v82</NAME>
	<OUTCOME>1</OUTCOME>
	<OUTCOME>0</OUTCOME>
</VARIABLE>

<VARIABLE TYPE="nature">
	<NAME>v83</NAME>
	<OUTCOME>0</OUTCOME>
	<OUTCOME>1</OUTCOME>
</VARIABLE>

<VARIABLE TYPE="nature">
	<NAME>v84</NAME>
	<OUTCOME>2</OUTCOME>
	<OUTCOME>1</OUTCOME>
</VARIABLE>

<VARIABLE TYPE="nature">
	<NAME>v85</NAME>
	<OUTCOME>1</OUTCOME>
	<OUTCOME>0</OUTCOME>
</VARIABLE>

<VARIABLE TYPE="nature">
	<NAME>v86</NAME>
	<OUTCOME>0</OUTCOME>
	<OUTCOME>1</OUTCOME>
</VARIABLE>

<VARIABLE TYPE="nature">
	<NAME>v87</NAME>
	<OUTCOME>0</OUTCOME>
	<OUTCOME>1</OUTCOME>
</VARIABLE>

<VARIABLE TYPE="nature">
	<NAME>v88</NAME>
	<OUTCOME>0</OUTCOME>
	<OUTCOME>2</OUTCOME>
	<OUTCOME>3</OUTCOME>
	<OUTCOME>1</OUTCOME>
	<OUTCOME>4</OUTCOME>
</VARIABLE>

<VARIABLE TYPE="nature">
	<NAME>v89</NAME>
	<OUTCOME>1</OUTCOME>
	<OUTCOME>0</OUTCOME>
</VARIABLE>

<VARIABLE TYPE="nature">
	<NAME>v92</NAME>
	<OUTCOME>0</OUTCOME>
	<OUTCOME>1</OUTCOME>
</VARIABLE>

<VARIABLE TYPE="nature">
	<NAME>v93</NAME>
	<OUTCOME>-1</OUTCOME>
	<OUTCOME>0</OUTCOME>
</VARIABLE>

<VARIABLE TYPE="nature">
	<NAME>v94</NAME>
	<OUTCOME>1</OUTCOME>
	<OUTCOME>0</OUTCOME>
</VARIABLE>

<VARIABLE TYPE="nature">
	<NAME>v95</NAME>
	<OUTCOME>0</OUTCOME>
	<OUTCOME>1</OUTCOME>
</VARIABLE>

<VARIABLE TYPE="nature">
	<NAME>v96</NAME>
	<OUTCOME>0</OUTCOME>
	<OUTCOME>1</OUTCOME>
</VARIABLE>

<VARIABLE TYPE="nature">
	<NAME>v97</NAME>
	<OUTCOME>1</OUTCOME>
	<OUTCOME>0</OUTCOME>
</VARIABLE>

<VARIABLE TYPE="nature">
	<NAME>v99</NAME>
	<OUTCOME>0</OUTCOME>
	<OUTCOME>-1</OUTCOME>
</VARIABLE>

<VARIABLE TYPE="nature">
	<NAME>v100</NAME>
	<OUTCOME>-1</OUTCOME>
	<OUTCOME>0</OUTCOME>
</VARIABLE>

<VARIABLE TYPE="nature">
	<NAME>v101</NAME>
	<OUTCOME>-1</OUTCOME>
	<OUTCOME>0</OUTCOME>
</VARIABLE>

<VARIABLE TYPE="nature">
	<NAME>v102</NAME>
	<OUTCOME>999</OUTCOME>
	<OUTCOME>-1</OUTCOME>
</VARIABLE>

<VARIABLE TYPE="nature">
	<NAME>v103</NAME>
	<OUTCOME>999</OUTCOME>
	<OUTCOME>-1</OUTCOME>
</VARIABLE>

<VARIABLE TYPE="nature">
	<NAME>v190</NAME>
	<OUTCOME>175</OUTCOME>
	<OUTCOME>212</OUTCOME>
	<OUTCOME>173</OUTCOME>
	<OUTCOME>246</OUTCOME>
	<OUTCOME>157</OUTCOME>
	<OUTCOME>249</OUTCOME>
	<OUTCOME>181</OUTCOME>
	<OUTCOME>214</OUTCOME>
	<OUTCOME>224</OUTCOME>
	<OUTCOME>290</OUTCOME>
	<OUTCOME>240</OUTCOME>
	<OUTCOME>183</OUTCOME>
	<OUTCOME>185</OUTCOME>
	<OUTCOME>159</OUTCOME>
	<OUTCOME>266</OUTCOME>
	<OUTCOME>236</OUTCOME>
	<OUTCOME>174</OUTCOME>
	<OUTCOME>269</OUTCOME>
	<OUTCOME>233</OUTCOME>
	<OUTCOME>228</OUTCOME>
	<OUTCOME>150</OUTCOME>
	<OUTCOME>220</OUTCOME>
	<OUTCOME>34</OUTCOME>
	<OUTCOME>5</OUTCOME>
	<OUTCOME>135</OUTCOME>
	<OUTCOME>222</OUTCOME>
	<OUTCOME>202</OUTCOME>
	<OUTCOME>200</OUTCOME>
	<OUTCOME>281</OUTCOME>
	<OUTCOME>223</OUTCOME>
	<OUTCOME>172</OUTCOME>
	<OUTCOME>211</OUTCOME>
	<OUTCOME>267</OUTCOME>
	<OUTCOME>156</OUTCOME>
	<OUTCOME>169</OUTCOME>
	<OUTCOME>221</OUTCOME>
	<OUTCOME>167</OUTCOME>
	<OUTCOME>178</OUTCOME>
	<OUTCOME>192</OUTCOME>
	<OUTCOME>197</OUTCOME>
	<OUTCOME>184</OUTCOME>
	<OUTCOME>232</OUTCOME>
	<OUTCOME>8</OUTCOME>
	<OUTCOME>243</OUTCOME>
	<OUTCOME>257</OUTCOME>
	<OUTCOME>151</OUTCOME>
	<OUTCOME>163</OUTCOME>
	<OUTCOME>196</OUTCOME>
	<OUTCOME>44</OUTCOME>
	<OUTCOME>179</OUTCOME>
	<OUTCOME>208</OUTCOME>
	<OUTCOME>153</OUTCOME>
	<OUTCOME>204</OUTCOME>
	<OUTCOME>263</OUTCOME>
	<OUTCOME>30</OUTCOME>
	<OUTCOME>74</OUTCOME>
	<OUTCOME>235</OUTCOME>
	<OUTCOME>57</OUTCOME>
	<OUTCOME>271</OUTCOME>
	<OUTCOME>323</OUTCOME>
	<OUTCOME>182</OUTCOME>
	<OUTCOME>253</OUTCOME>
	<OUTCOME>260</OUTCOME>
	<OUTCOME>237</OUTCOME>
	<OUTCOME>251</OUTCOME>
	<OUTCOME>278</OUTCOME>
	<OUTCOME>35</OUTCOME>
	<OUTCOME>42</OUTCOME>
	<OUTCOME>38</OUTCOME>
	<OUTCOME>213</OUTCOME>
	<OUTCOME>36</OUTCOME>
	<OUTCOME>2</OUTCOME>
	<OUTCOME>3</OUTCOME>
	<OUTCOME>288</OUTCOME>
	<OUTCOME>154</OUTCOME>
	<OUTCOME>270</OUTCOME>
	<OUTCOME>168</OUTCOME>
	<OUTCOME>41</OUTCOME>
	<OUTCOME>275</OUTCOME>
	<OUTCOME>201</OUTCOME>
	<OUTCOME>218</OUTCOME>
	<OUTCOME>61</OUTCOME>
	<OUTCOME>11</OUTCOME>
	<OUTCOME>43</OUTCOME>
	<OUTCOME>9</OUTCOME>
	<OUTCOME>21</OUTCOME>
	<OUTCOME>320</OUTCOME>
	<OUTCOME>165</OUTCOME>
	<OUTCOME>162</OUTCOME>
</VARIABLE>

<DEFINITION>
	<FOR>v1</FOR>
	<GIVEN>v61</GIVEN>
	<TABLE>0.999939501492296 2.01661692344922e-05 2.01661692344922e-05 2.01661692344922e-05 0.997201492537313 0.000932835820895522 0.000932835820895522 0.000932835820895522 0.00357142857142857 0.775 0.0892857142857143 0.132142857142857 </TABLE>
</DEFINITION>

<DEFINITION>
	<FOR>v2</FOR>
	<GIVEN>v190</GIVEN>
	<TABLE>0.999985717278284 4.76090723848337e-06 4.76090723848337e-06 4.76090723848337e-06 0.999957441979232 1.41860069227714e-05 1.41860069227714e-05 1.41860069227714e-05 0.999979037983175 6.98733894183739e-06 6.98733894183739e-06 6.98733894183739e-06 5.24054082381302e-06 0.999984278377528 5.24054082381302e-06 5.24054082381302e-06 0.999919751765461 2.67494115129467e-05 2.67494115129467e-05 2.67494115129467e-05 7.47049155834454e-06 0.999977588525325 7.47049155834454e-06 7.47049155834454e-06 0.997899159663865 0.000700280112044818 0.000700280112044818 0.000700280112044818 0.999964594250106 1.18019166312609e-05 1.18019166312609e-05 1.18019166312609e-05 0.99994923857868 1.69204737732656e-05 1.69204737732656e-05 1.69204737732656e-05 0.000233863423760524 0.000233863423760524 0.999298409728718 0.000233863423760524 4.0703353956366e-05 0.999877889938131 4.0703353956366e-05 4.0703353956366e-05 0.999933125278645 2.22915737851092e-05 2.22915737851092e-05 2.22915737851092e-05 0.999946328896522 1.78903678259625e-05 1.78903678259625e-05 1.78903678259625e-05 0.999897246198109 3.425126729689e-05 3.425126729689e-05 3.425126729689e-05 1.56045190687223e-05 0.999953186442794 1.56045190687223e-05 1.56045190687223e-05 0.999398556535686 0.000200481154771451 0.000200481154771451 0.000200481154771451 0.998598130841121 0.000467289719626168 0.000467289719626168 0.000467289719626168 7.93474465991684e-06 0.99997619576602 7.93474465991684e-06 7.93474465991684e-06 0.998598130841121 0.000467289719626168 0.000467289719626168 0.000467289719626168 0.998318385650224 0.000560538116591928 0.000560538116591928 0.000560538116591928 0.991666666666667 0.00277777777777778 0.00277777777777778 0.00277777777777778 0.998318385650224 0.000560538116591928 0.000560538116591928 0.000560538116591928 0.999298409728718 0.000233863423760524 0.000233863423760524 0.000233863423760524 0.997899159663865 0.000700280112044818 0.000700280112044818 0.000700280112044818 0.00277777777777778 0.00277777777777778 0.00277777777777778 0.991666666666667 0.999947335159048 1.75549469840601e-05 1.75549469840601e-05 1.75549469840601e-05 0.999688019966722 0.000103993344425957 0.000103993344425957 0.000103993344425957 0.999532127261385 0.000155957579538366 0.000155957579538366 0.000155957579538366 0.0001220703125 0.9996337890625 0.0001220703125 0.0001220703125 0.997201492537313 0.000932835820895522 0.000932835820895522 0.000932835820895522 0.999799411607382 6.6862797539449e-05 6.6862797539449e-05 6.6862797539449e-05 0.999473684210526 0.000175438596491228 0.000175438596491228 0.000175438596491228 0.00139664804469274 0.995810055865922 0.00139664804469274 0.00139664804469274 0.999504623513871 0.000165125495376486 0.000165125495376486 0.000165125495376486 0.998598130841121 0.000467289719626168 0.000467289719626168 0.000467289719626168 0.99957888826502 0.000140370578326783 0.000140370578326783 0.000140370578326783 0.999438622754491 0.000187125748502994 0.000187125748502994 0.000187125748502994 0.998318385650224 0.000560538116591928 0.000560538116591928 0.000560538116591928 0.995810055865922 0.00139664804469274 0.00139664804469274 0.00139664804469274 0.997899159663865 0.000700280112044818 0.000700280112044818 0.000700280112044818 0.999064837905237 0.000311720698254364 0.000311720698254364 0.000311720698254364 0.999352331606218 0.000215889464594128 0.000215889464594128 0.000215889464594128 0.991666666666667 0.00277777777777778 0.00277777777777778 0.00277777777777778 0.000350631136044881 0.998948106591865 0.000350631136044881 0.000350631136044881 0.000700280112044818 0.997899159663865 0.000700280112044818 0.000700280112044818 0.995810055865922 0.00139664804469274 0.00139664804469274 0.00139664804469274 0.999398556535686 0.000200481154771451 0.000200481154771451 0.000200481154771451 0.999473684210526 0.000175438596491228 0.000175438596491228 0.000175438596491228 0.999064837905237 0.000311720698254364 0.000311720698254364 0.000311720698254364 0.999532127261385 0.000155957579538366 0.000155957579538366 0.000155957579538366 0.999064837905237 0.000311720698254364 0.000311720698254364 0.000311720698254364 0.999298409728718 0.000233863423760524 0.000233863423760524 0.000233863423760524 0.999532127261385 0.000155957579538366 0.000155957579538366 0.000155957579538366 0.000700280112044818 0.997899159663865 0.000700280112044818 0.000700280112044818 0.991666666666667 0.00277777777777778 0.00277777777777778 0.00277777777777778 0.995810055865922 0.00139664804469274 0.00139664804469274 0.00139664804469274 0.997899159663865 0.000700280112044818 0.000700280112044818 0.000700280112044818 0.995810055865922 0.00139664804469274 0.00139664804469274 0.00139664804469274 0.00139664804469274 0.995810055865922 0.00139664804469274 0.00139664804469274 0.995810055865922 0.00139664804469274 0.00139664804469274 0.00139664804469274 0.999158249158249 0.000280583613916947 0.000280583613916947 0.000280583613916947 0.00139664804469274 0.995810055865922 0.00139664804469274 0.00139664804469274 0.00139664804469274 0.995810055865922 0.00139664804469274 0.00139664804469274 0.000560538116591928 0.998318385650224 0.000560538116591928 0.000560538116591928 0.000700280112044818 0.997899159663865 0.000700280112044818 0.000700280112044818 0.000350631136044881 0.998948106591865 0.000350631136044881 0.000350631136044881 0.991666666666667 0.00277777777777778 0.00277777777777778 0.00277777777777778 0.998318385650224 0.000560538116591928 0.000560538116591928 0.000560538116591928 0.997899159663865 0.000700280112044818 0.000700280112044818 0.000700280112044818 0.997201492537313 0.000932835820895522 0.000932835820895522 0.000932835820895522 0.998318385650224 0.000560538116591928 0.000560538116591928 0.000560538116591928 0.991666666666667 0.00277777777777778 0.00277777777777778 0.00277777777777778 0.997201492537313 0.000932835820895522 0.000932835820895522 0.000932835820895522 0.00277777777777778 0.00277777777777778 0.991666666666667 0.00277777777777778 0.991666666666667 0.00277777777777778 0.00277777777777778 0.00277777777777778 0.000700280112044818 0.997899159663865 0.000700280112044818 0.000700280112044818 0.995810055865922 0.00139664804469274 0.00139664804469274 0.00139664804469274 0.995810055865922 0.00139664804469274 0.00139664804469274 0.00139664804469274 0.00139664804469274 0.995810055865922 0.00139664804469274 0.00139664804469274 0.997899159663865 0.000700280112044818 0.000700280112044818 0.000700280112044818 0.998318385650224 0.000560538116591928 0.000560538116591928 0.000560538116591928 0.995810055865922 0.00139664804469274 0.00139664804469274 0.00139664804469274 0.991666666666667 0.00277777777777778 0.00277777777777778 0.00277777777777778 0.991666666666667 0.00277777777777778 0.00277777777777778 0.00277777777777778 0.995810055865922 0.00139664804469274 0.00139664804469274 0.00139664804469274 0.991666666666667 0.00277777777777778 0.00277777777777778 0.00277777777777778 0.991666666666667 0.00277777777777778 0.00277777777777778 0.00277777777777778 0.991666666666667 0.00277777777777778 0.00277777777777778 0.00277777777777778 0.995810055865922 0.00139664804469274 0.00139664804469274 0.00139664804469274 </TABLE>
</DEFINITION>

<DEFINITION>
	<FOR>v3</FOR>
	<GIVEN>v190</GIVEN>
	<TABLE>0.999987304247364 6.34787631797782e-06 6.34787631797782e-06 1.89146758970285e-05 0.999962170648206 1.89146758970285e-05 0.999981367096155 9.31645192244985e-06 9.31645192244985e-06 0.99998602522447 6.98738776508402e-06 6.98738776508402e-06 0.999928668235965 3.56658820172623e-05 3.56658820172623e-05 0.999980078689178 9.96065541112605e-06 9.96065541112605e-06 0.998132586367881 0.000933706816059757 0.000933706816059757 1.57358888416812e-05 0.999968528222317 1.57358888416812e-05 2.25606316976875e-05 0.999954878736605 2.25606316976875e-05 0.000311817898347365 0.000311817898347365 0.999376364203305 0.999891457722783 5.4271138608488e-05 5.4271138608488e-05 0.99994055580324 2.97220983801456e-05 2.97220983801456e-05 0.999952292352464 2.385382376795e-05 2.385382376795e-05 0.999908663287208 4.56683563958533e-05 4.56683563958533e-05 2.08060254249631e-05 0.99995838794915 2.08060254249631e-05 0.000267308206361935 0.999465383587276 0.000267308206361935 0.998753894080997 0.000623052959501558 0.000623052959501558 1.05796595465558e-05 0.999978840680907 1.05796595465558e-05 0.000623052959501558 0.998753894080997 0.000623052959501558 0.000747384155455904 0.998505231689088 0.000747384155455904 0.992592592592593 0.0037037037037037 0.0037037037037037 0.000747384155455904 0.998505231689088 0.000747384155455904 0.999376364203305 0.000311817898347365 0.000311817898347365 0.998132586367881 0.000933706816059757 0.000933706816059757 0.992592592592593 0.0037037037037037 0.0037037037037037 2.34065959787468e-05 0.999953186808042 2.34065959787468e-05 0.000138657792567942 0.999722684414864 0.000138657792567942 0.999584113121231 0.000207943439384487 0.000207943439384487 0.000162760416666667 0.000162760416666667 0.999674479166667 0.00124378109452736 0.997512437810945 0.00124378109452736 0.999821699206561 8.91503967192654e-05 8.91503967192654e-05 0.000233918128654971 0.99953216374269 0.000233918128654971 0.00186219739292365 0.996275605214153 0.00186219739292365 0.999559665345663 0.000220167327168648 0.000220167327168648 0.998753894080997 0.000623052959501558 0.000623052959501558 0.000187160771102377 0.999625678457795 0.000187160771102377 0.999500998003992 0.000249500998003992 0.000249500998003992 0.998505231689088 0.000747384155455904 0.000747384155455904 0.996275605214153 0.00186219739292365 0.00186219739292365 0.998132586367881 0.000933706816059757 0.000933706816059757 0.999168744804655 0.000415627597672485 0.000415627597672485 0.000287852619458837 0.999424294761082 0.000287852619458837 0.0037037037037037 0.992592592592593 0.0037037037037037 0.999064983637214 0.000467508181393174 0.000467508181393174 0.998132586367881 0.000933706816059757 0.000933706816059757 0.996275605214153 0.00186219739292365 0.00186219739292365 0.999465383587276 0.000267308206361935 0.000267308206361935 0.99953216374269 0.000233918128654971 0.000233918128654971 0.000415627597672485 0.999168744804655 0.000415627597672485 0.999584113121231 0.000207943439384487 0.000207943439384487 0.000415627597672485 0.999168744804655 0.000415627597672485 0.999376364203305 0.000311817898347365 0.000311817898347365 0.000207943439384487 0.999584113121231 0.000207943439384487 0.000933706816059757 0.998132586367881 0.000933706816059757 0.0037037037037037 0.992592592592593 0.0037037037037037 0.00186219739292365 0.996275605214153 0.00186219739292365 0.000933706816059757 0.998132586367881 0.000933706816059757 0.996275605214153 0.00186219739292365 0.00186219739292365 0.00186219739292365 0.996275605214153 0.00186219739292365 0.00186219739292365 0.996275605214153 0.00186219739292365 0.999251777029555 0.000374111485222596 0.000374111485222596 0.996275605214153 0.00186219739292365 0.00186219739292365 0.996275605214153 0.00186219739292365 0.00186219739292365 0.998505231689088 0.000747384155455904 0.000747384155455904 0.998132586367881 0.000933706816059757 0.000933706816059757 0.000467508181393174 0.999064983637214 0.000467508181393174 0.992592592592593 0.0037037037037037 0.0037037037037037 0.000747384155455904 0.998505231689088 0.000747384155455904 0.998132586367881 0.000933706816059757 0.000933706816059757 0.00124378109452736 0.997512437810945 0.00124378109452736 0.998505231689088 0.000747384155455904 0.000747384155455904 0.992592592592593 0.0037037037037037 0.0037037037037037 0.997512437810945 0.00124378109452736 0.00124378109452736 0.0037037037037037 0.992592592592593 0.0037037037037037 0.992592592592593 0.0037037037037037 0.0037037037037037 0.000933706816059757 0.998132586367881 0.000933706816059757 0.996275605214153 0.00186219739292365 0.00186219739292365 0.00186219739292365 0.996275605214153 0.00186219739292365 0.00186219739292365 0.996275605214153 0.00186219739292365 0.000933706816059757 0.998132586367881 0.000933706816059757 0.000747384155455904 0.998505231689088 0.000747384155455904 0.996275605214153 0.00186219739292365 0.00186219739292365 0.0037037037037037 0.992592592592593 0.0037037037037037 0.0037037037037037 0.992592592592593 0.0037037037037037 0.00186219739292365 0.996275605214153 0.00186219739292365 0.992592592592593 0.0037037037037037 0.0037037037037037 0.0037037037037037 0.992592592592593 0.0037037037037037 0.992592592592593 0.0037037037037037 0.0037037037037037 0.996275605214153 0.00186219739292365 0.00186219739292365 </TABLE>
</DEFINITION>

<DEFINITION>
	<FOR>v4</FOR>
	<GIVEN>v50</GIVEN>
	<GIVEN>v16</GIVEN>
	<TABLE>0.999971962092749 2.80379072506028e-05 0.999856032248776 0.000143967751223726 0.5 0.5 0.0012987012987013 0.998701298701299 0.999942136326814 5.78636731859738e-05 0.999755022048016 0.000244977951984321 0.99811320754717 0.00188679245283019 0.714988644965935 0.285011355034065 </TABLE>
</DEFINITION>

<DEFINITION>
	<FOR>v5</FOR>
	<TABLE>0.547043580683157 0.0909776207302709 0.349634864546525 0.00499411071849234 0.00734982332155477 </TABLE>
</DEFINITION>

<DEFINITION>
	<FOR>v6</FOR>
	<GIVEN>v190</GIVEN>
	<TABLE>0.999990478185523 9.52181447696673e-06 0.999971627986154 2.83720138455428e-05 0.999986025322116 1.39746778836748e-05 0.999989518918352 1.0481081647626e-05 0.999946501176974 5.34988230258934e-05 0.999985059016883 1.49409831166891e-05 0.00140056022408964 0.99859943977591 0.999976396166738 2.36038332625218e-05 0.999966159052453 3.38409475465313e-05 0.999532273152479 0.000467726847521048 0.999918593292087 8.1406707912732e-05 0.99995541685243 4.45831475702185e-05 0.999964219264348 3.5780735651925e-05 0.999931497465406 6.850253459378e-05 0.999968790961863 3.12090381374446e-05 0.999599037690457 0.000400962309542903 0.999065420560748 0.000934579439252336 0.99998413051068 1.58694893198337e-05 0.999065420560748 0.000934579439252336 0.00112107623318386 0.998878923766816 0.994444444444445 0.00555555555555556 0.00112107623318386 0.998878923766816 0.000467726847521048 0.999532273152479 0.00140056022408964 0.99859943977591 0.00555555555555556 0.994444444444445 0.999964890106032 3.51098939681202e-05 0.999792013311148 0.000207986688851913 0.999688084840923 0.000311915159076731 0.999755859375 0.000244140625 0.998134328358209 0.00186567164179104 0.999866274404921 0.000133725595078898 0.999649122807018 0.000350877192982456 0.997206703910615 0.00279329608938547 0.999669749009247 0.000330250990752972 0.999065420560748 0.000934579439252336 0.999719258843346 0.000280741156653565 0.999625748502994 0.000374251497005988 0.00112107623318386 0.998878923766816 0.997206703910615 0.00279329608938547 0.99859943977591 0.00140056022408964 0.999376558603491 0.000623441396508728 0.999568221070812 0.000431778929188256 0.00555555555555556 0.994444444444445 0.99929873772791 0.000701262272089762 0.99859943977591 0.00140056022408964 0.997206703910615 0.00279329608938547 0.000400962309542903 0.999599037690457 0.999649122807018 0.000350877192982456 0.000623441396508728 0.999376558603491 0.000311915159076731 0.999688084840923 0.000623441396508728 0.999376558603491 0.999532273152479 0.000467726847521048 0.999688084840923 0.000311915159076731 0.99859943977591 0.00140056022408964 0.00555555555555556 0.994444444444445 0.997206703910615 0.00279329608938547 0.99859943977591 0.00140056022408964 0.997206703910615 0.00279329608938547 0.997206703910615 0.00279329608938547 0.997206703910615 0.00279329608938547 0.999438832772166 0.000561167227833895 0.997206703910615 0.00279329608938547 0.997206703910615 0.00279329608938547 0.998878923766816 0.00112107623318386 0.99859943977591 0.00140056022408964 0.99929873772791 0.000701262272089762 0.00555555555555556 0.994444444444445 0.00112107623318386 0.998878923766816 0.00140056022408964 0.99859943977591 0.998134328358209 0.00186567164179104 0.00112107623318386 0.998878923766816 0.00555555555555556 0.994444444444445 0.00186567164179104 0.998134328358209 0.994444444444445 0.00555555555555556 0.994444444444445 0.00555555555555556 0.99859943977591 0.00140056022408964 0.997206703910615 0.00279329608938547 0.00279329608938547 0.997206703910615 0.997206703910615 0.00279329608938547 0.99859943977591 0.00140056022408964 0.00112107623318386 0.998878923766816 0.997206703910615 0.00279329608938547 0.00555555555555556 0.994444444444445 0.00555555555555556 0.994444444444445 0.00279329608938547 0.997206703910615 0.00555555555555556 0.994444444444445 0.994444444444445 0.00555555555555556 0.00555555555555556 0.994444444444445 0.00279329608938547 0.997206703910615 </TABLE>
</DEFINITION>

<DEFINITION>
	<FOR>v7</FOR>
	<GIVEN>v83</GIVEN>
	<TABLE>0.999940905330339 5.90946696607966e-05 0.913793103448276 0.0862068965517241 </TABLE>
</DEFINITION>

<DEFINITION>
	<FOR>v8</FOR>
	<GIVEN>v94</GIVEN>
	<GIVEN>v56</GIVEN>
	<GIVEN>v18</GIVEN>
	<TABLE>0.938790132063049 0.0612098679369505 0.5 0.5 0.5 0.5 0.5 0.5 0.335133161677107 0.664866838322893 0.5 0.5 0.5 0.5 0.5 0.5 0.814061384725196 0.185938615274804 0.5 0.5 0.644127568230604 0.355872431769396 0.000471253534401508 0.999528746465599 0.921987784564131 0.078012215435869 2.47512499381219e-05 0.999975248750062 0.539447731755424 0.460552268244576 0.000157183275699466 0.999842816724301 0.5 0.5 0.00103950103950104 0.998960498960499 0.746913580246914 0.253086419753086 0.00819672131147541 0.991803278688525 </TABLE>
</DEFINITION>

<DEFINITION>
	<FOR>v9</FOR>
	<GIVEN>v33</GIVEN>
	<TABLE>0.956210746685276 0.000174459176552687 0.0155268667131891 0.0280879274249826 0.987423834490577 0.000318832365027632 0.00485333711208729 0.00740399603230835 </TABLE>
</DEFINITION>

<DEFINITION>
	<FOR>v10</FOR>
	<GIVEN>v50</GIVEN>
	<GIVEN>v20</GIVEN>
	<TABLE>0.960752304186648 3.4010135020236e-05 0.0392136856783321 0.899840510366826 0.000318979266347687 0.0998405103668261 0.0274137385248496 0.967964545742323 0.00462171573282684 0.271960107403145 0.727656309934791 0.000383582662063675 </TABLE>
</DEFINITION>

<DEFINITION>
	<FOR>v11</FOR>
	<GIVEN>v55</GIVEN>
	<GIVEN>v20</GIVEN>
	<TABLE>0.999916680553241 8.33194467588735e-05 0.999597099113618 0.00040290088638195 0.999981719132756 1.82808672443421e-05 0.999825235931492 0.000174764068507515 0.927799459621735 0.0722005403782648 0.428774928774929 0.571225071225071 0.892809587217044 0.107190412782956 0.877643504531722 0.122356495468278 0.997835497835498 0.00216450216450216 0.5 0.5 </TABLE>
</DEFINITION>

<DEFINITION>
	<FOR>v12</FOR>
	<GIVEN>v3</GIVEN>
	<TABLE>0.98995983935743 4.0980247520695e-05 0.00999918039504958 0.999851687059696 7.41564701520208e-05 7.41564701520208e-05 0.00314465408805031 0.993710691823899 0.00314465408805031 </TABLE>
</DEFINITION>

<DEFINITION>
	<FOR>v13</FOR>
	<GIVEN>v3</GIVEN>
	<TABLE>0.999938529628719 6.14703712810425e-05 0.999888765294772 0.000111234705228031 0.00471698113207547 0.995283018867925 </TABLE>
</DEFINITION>

<DEFINITION>
	<FOR>v14</FOR>
	<GIVEN>v49</GIVEN>
	<GIVEN>v41</GIVEN>
	<TABLE>0.104854642957945 0.895145357042055 0.999597099113618 0.00040290088638195 0.0370435025487047 0.962956497451295 0.992957746478873 0.00704225352112676 0.00142450142450142 0.998575498575499 0.5 0.5 0.32670744138634 0.67329255861366 0.994505494505494 0.00549450549450549 0.508460236886633 0.491539763113367 0.5 0.5 </TABLE>
</DEFINITION>

<DEFINITION>
	<FOR>v15</FOR>
	<GIVEN>v14</GIVEN>
	<TABLE>0.985935984481086 0.0140640155189137 0.999932966885641 6.70331143584931e-05 </TABLE>
</DEFINITION>

<DEFINITION>
	<FOR>v16</FOR>
	<GIVEN>v26</GIVEN>
	<GIVEN>v3</GIVEN>
	<TABLE>0.85585681833517 0.144131935853894 5.62290546771328e-06 5.62290546771328e-06 0.830551857123181 0.125625545199945 1.14778935769708e-05 0.0438111197832974 0.0574484944532488 0.000396196513470681 0.94175911251981 0.000396196513470681 0.776694045174538 0.222279260780287 0.000513347022587269 0.000513347022587269 0.32599517490953 0.499698431845597 0.000301568154402895 0.17400482509047 0.25 0.25 0.25 0.25 0.469938905859484 0.289988891974452 6.94251596778673e-05 0.240002777006387 0.25 0.314639693559971 5.98515681110845e-05 0.435300454871918 0.25 0.25 0.25 0.25 0.00115207373271889 0.996543778801843 0.00115207373271889 0.00115207373271889 0.00153374233128834 0.664110429447853 0.00153374233128834 0.332822085889571 0.25 0.25 0.25 0.25 0.0131578947368421 0.960526315789474 0.0131578947368421 0.0131578947368421 0.0131578947368421 0.960526315789474 0.0131578947368421 0.0131578947368421 0.25 0.25 0.25 0.25 0.0131578947368421 0.960526315789474 0.0131578947368421 0.0131578947368421 0.25 0.25 0.25 0.25 0.25 0.25 0.25 0.25 </TABLE>
</DEFINITION>

<DEFINITION>
	<FOR>v17</FOR>
	<GIVEN>v24</GIVEN>
	<TABLE>0.995489929568763 0.00451007043123687 0.973551637279597 0.026448362720403 </TABLE>
</DEFINITION>

<DEFINITION>
	<FOR>v18</FOR>
	<GIVEN>v49</GIVEN>
	<GIVEN>v10</GIVEN>
	<TABLE>0.999986613477551 1.33865224491981e-05 0.5 0.5 0.999707773232028 0.000292226767971946 0.714128843338214 0.285871156661786 0.141597536138294 0.858402463861706 0.664835164835165 0.335164835164835 0.5 0.5 0.000950570342205323 0.999049429657795 0.5 0.5 0.999663526244953 0.000336473755047106 0.5 0.5 0.995867768595041 0.00413223140495868 0.5 0.5 0.418280871670702 0.581719128329298 0.5 0.5 </TABLE>
</DEFINITION>

<DEFINITION>
	<FOR>v19</FOR>
	<GIVEN>v13</GIVEN>
	<TABLE>0.999940610523815 5.938947618482e-05 0.00704225352112676 0.992957746478873 </TABLE>
</DEFINITION>

<DEFINITION>
	<FOR>v20</FOR>
	<GIVEN>v26</GIVEN>
	<TABLE>0.90980664842313 0.0901933515768696 0.739179954441913 0.260820045558087 0.712880833011955 0.287119166988045 0.996062992125984 0.00393700787401575 0.961538461538461 0.0384615384615385 0.928571428571429 0.0714285714285714 </TABLE>
</DEFINITION>

<DEFINITION>
	<FOR>v21</FOR>
	<GIVEN>v22</GIVEN>
	<TABLE>0.999937421777222 6.25782227784731e-05 0.999886647018817 0.000113352981183405 0.00149700598802395 0.998502994011976 </TABLE>
</DEFINITION>

<DEFINITION>
	<FOR>v22</FOR>
	<GIVEN>v89</GIVEN>
	<GIVEN>v50</GIVEN>
	<TABLE>0.999937419819143 3.12900904283613e-05 3.12900904283613e-05 6.25039064941559e-05 0.930120632539534 0.0698168635539721 0.00172711571675302 0.996545768566494 0.00172711571675302 0.000416146483562214 0.909280066583437 0.0903037869330004 </TABLE>
</DEFINITION>

<DEFINITION>
	<FOR>v23</FOR>
	<GIVEN>v14</GIVEN>
	<TABLE>0.723666343355965 0.102909796314258 0.0291949563530553 0.050533462657614 0.00785645004849661 0.0369544131910766 0.0117361784675073 0.00979631425800194 0.0253152279340446 0.0020368574199806 0.92533851722751 0.0311167716852125 0.00457165839924923 0.00564418822898512 0.00349912856951334 0.00671671805872101 0.00618045314385306 0.00698485051615498 0.00564418822898512 0.00430352594181526 </TABLE>
</DEFINITION>

<DEFINITION>
	<FOR>v24</FOR>
	<GIVEN>v55</GIVEN>
	<GIVEN>v50</GIVEN>
	<TABLE>0.921444377388855 0.0785556226111446 0.810435931307794 0.189564068692206 0.98118574187151 0.0188142581284902 0.961949144873767 0.0380508551262329 0.991129381220251 0.00887061877974902 0.985047410649161 0.0149525893508388 0.795748613678373 0.204251386321627 0.999075785582255 0.000924214417744917 0.00381679389312977 0.99618320610687 0.00495049504950495 0.995049504950495 </TABLE>
</DEFINITION>

<DEFINITION>
	<FOR>v25</FOR>
	<GIVEN>v79</GIVEN>
	<TABLE>0.919174219536757 0.0481168177240685 0.020563947633434 0.00992950654582075 0.00219536757301108 2.01409869083585e-05 0.763565891472868 0.0565891472868217 0.037984496124031 0.010077519379845 0.112403100775194 0.0193798449612403 </TABLE>
</DEFINITION>

<DEFINITION>
	<FOR>v26</FOR>
	<GIVEN>v25</GIVEN>
	<TABLE>0.933300444711367 0.0187965624240344 0.0476241545479244 7.14970042755209e-06 7.14970042755209e-06 0.000264538915819427 0.000135391280801516 0.000135391280801516 0.999323043595992 0.000135391280801516 0.000135391280801516 0.000135391280801516 0.998442367601246 0.000311526479750779 0.000311526479750779 0.000311526479750779 0.000311526479750779 0.000311526479750779 0.000658761528326746 0.000658761528326746 0.996706192358366 0.000658761528326746 0.000658761528326746 0.000658761528326746 0.00131233595800525 0.00131233595800525 0.00131233595800525 0.993438320209974 0.00131233595800525 0.00131233595800525 0.0128205128205128 0.0128205128205128 0.0128205128205128 0.0128205128205128 0.935897435897436 0.0128205128205128 </TABLE>
</DEFINITION>

<DEFINITION>
	<FOR>v32</FOR>
	<TABLE>0.000117785630153121 0.999882214369847 </TABLE>
</DEFINITION>

<DEFINITION>
	<FOR>v33</FOR>
	<GIVEN>v61</GIVEN>
	<GIVEN>v56</GIVEN>
	<TABLE>0.245745358572989 0.754254641427011 0.0709941017449005 0.9290058982551 0.145470461483211 0.854529538516789 0.00138504155124654 0.998614958448753 0.109945255474453 0.890054744525547 0.599778270509978 0.400221729490022 0.5 0.5 0.666402535657686 0.333597464342314 0.5 0.5 0.66304347826087 0.33695652173913 0.00276243093922652 0.997237569060774 0.03125 0.96875 0.00367647058823529 0.996323529411765 0.5 0.5 0.03125 0.96875 </TABLE>
</DEFINITION>

<DEFINITION>
	<FOR>v36</FOR>
	<GIVEN>v3</GIVEN>
	<TABLE>0.999918039504959 4.0980247520695e-05 4.0980247520695e-05 7.41564701520208e-05 0.999851687059696 7.41564701520208e-05 0.00314465408805031 0.00314465408805031 0.993710691823899 </TABLE>
</DEFINITION>

<DEFINITION>
	<FOR>v37</FOR>
	<TABLE>0.000117785630153121 0.999882214369847 </TABLE>
</DEFINITION>

<DEFINITION>
	<FOR>v38</FOR>
	<GIVEN>v39</GIVEN>
	<TABLE>0.999939061547837 6.0938452163315e-05 0.984210526315789 0.0157894736842105 </TABLE>
</DEFINITION>

<DEFINITION>
	<FOR>v39</FOR>
	<GIVEN>v20</GIVEN>
	<GIVEN>v6</GIVEN>
	<TABLE>0.997235306164243 0.00276469383575671 0.00119904076738609 0.998800959232614 0.978001086366105 0.0219989136338946 0.00684931506849315 0.993150684931507 </TABLE>
</DEFINITION>

<DEFINITION>
	<FOR>v40</FOR>
	<GIVEN>v56</GIVEN>
	<GIVEN>v47</GIVEN>
	<GIVEN>v8</GIVEN>
	<TABLE>0.15146759004563 0.84853240995437 0.82158777329654 0.17841222670346 0.737560572036402 0.262439427963598 0.785035629453682 0.214964370546318 0.0033112582781457 0.996688741721854 0.999124343257443 0.000875656742556918 0.765322912381736 0.234677087618264 0.989673894367891 0.0103261056321089 0.0161290322580645 0.983870967741935 0.9661487236404 0.0338512763596004 0.983870967741935 0.0161290322580645 0.822896281800391 0.177103718199609 0.794169378242899 0.205830621757101 0.903347221735934 0.0966527782640664 0.806341812970262 0.193658187029738 0.723738495715646 0.276261504284354 0.996688741721854 0.0033112582781457 0.5 0.5 0.5 0.5 0.999306518723994 0.000693481276005548 0.5 0.5 0.5 0.5 0.5 0.5 0.5 0.5 0.814620604565083 0.185379395434917 0.811850311850312 0.188149688149688 0.400662251655629 0.599337748344371 0.983870967741935 0.0161290322580645 0.983870967741935 0.0161290322580645 0.5 0.5 </TABLE>
</DEFINITION>

<DEFINITION>
	<FOR>v41</FOR>
	<GIVEN>v10</GIVEN>
	<TABLE>0.995467527629455 0.00453247237054514 0.999883639748662 0.000116360251338143 0.0012987012987013 0.998701298701299 </TABLE>
</DEFINITION>

<DEFINITION>
	<FOR>v42</FOR>
	<GIVEN>v61</GIVEN>
	<GIVEN>v3</GIVEN>
	<TABLE>0.987026306885468 1.05735070208087e-05 0.0129525461004906 1.05735070208087e-05 1.88950192729197e-05 0.997222432166881 0.00273977779457335 1.88950192729197e-05 0.000791139240506329 0.000791139240506329 0.000791139240506329 0.997626582278481 0.956640625 0.000390625 0.042578125 0.000390625 0.00153374233128834 0.995398773006135 0.00153374233128834 0.00153374233128834 0.25 0.25 0.25 0.25 0.00211864406779661 0.99364406779661 0.00211864406779661 0.00211864406779661 0.00274725274725275 0.991758241758242 0.00274725274725275 0.00274725274725275 0.25 0.25 0.25 0.25 </TABLE>
</DEFINITION>

<DEFINITION>
	<FOR>v44</FOR>
	<GIVEN>v13</GIVEN>
	<TABLE>0.999940610523815 5.938947618482e-05 0.00704225352112676 0.992957746478873 </TABLE>
</DEFINITION>

<DEFINITION>
	<FOR>v45</FOR>
	<GIVEN>v3</GIVEN>
	<TABLE>0.999918039504959 4.0980247520695e-05 4.0980247520695e-05 7.41564701520208e-05 0.999851687059696 7.41564701520208e-05 0.00314465408805031 0.00314465408805031 0.993710691823899 </TABLE>
</DEFINITION>

<DEFINITION>
	<FOR>v46</FOR>
	<GIVEN>v82</GIVEN>
	<GIVEN>v10</GIVEN>
	<TABLE>0.999593216096126 0.000406783903873834 0.998508887033282 0.00149111296671836 0.9521625163827 0.0478374836173001 0.429133858267717 0.570866141732283 0.997630331753554 0.0023696682464455 0.928571428571429 0.0714285714285714 </TABLE>
</DEFINITION>

<DEFINITION>
	<FOR>v47</FOR>
	<GIVEN>v33</GIVEN>
	<GIVEN>v8</GIVEN>
	<TABLE>0.138873601174097 0.838928636947349 0.0221977618785544 0.290117572291071 0.572291070861138 0.137591356847792 0.99853924377774 5.61829316253722e-05 0.00140457329063431 0.998940634804221 4.0744815222263e-05 0.00101862038055657 </TABLE>
</DEFINITION>

<DEFINITION>
	<FOR>v48</FOR>
	<GIVEN>v50</GIVEN>
	<GIVEN>v14</GIVEN>
	<TABLE>0.867920830883794 0.000195963158926122 0.13188320595728 0.980244213595772 3.64497904137051e-05 0.0197193366138145 0.000923361034164358 0.953831948291782 0.0452446906740536 5.7740054275651e-05 0.983948264911369 0.0159939950343553 </TABLE>
</DEFINITION>

<DEFINITION>
	<FOR>v49</FOR>
	<GIVEN>v3</GIVEN>
	<TABLE>0.960437669043521 2.4588148512417e-05 2.4588148512417e-05 0.0394885665109417 2.4588148512417e-05 4.44938820912125e-05 0.960444938820912 4.44938820912125e-05 4.44938820912125e-05 0.0394215795328142 0.00188679245283019 0.00188679245283019 0.992452830188679 0.00188679245283019 0.00188679245283019 </TABLE>
</DEFINITION>

<DEFINITION>
	<FOR>v50</FOR>
	<GIVEN>v3</GIVEN>
	<TABLE>0.999938529628719 6.14703712810425e-05 0.000111234705228031 0.999888765294772 0.00471698113207547 0.995283018867925 </TABLE>
</DEFINITION>

<DEFINITION>
	<FOR>v51</FOR>
	<GIVEN>v39</GIVEN>
	<GIVEN>v14</GIVEN>
	<TABLE>0.999740798341109 0.000259201658890617 0.99996547199779 3.45280022097921e-05 0.815789473684211 0.184210526315789 0.998855835240275 0.0011441647597254 </TABLE>
</DEFINITION>

<DEFINITION>
	<FOR>v52</FOR>
	<GIVEN>v56</GIVEN>
	<GIVEN>v14</GIVEN>
	<TABLE>0.585738184859891 0.414261815140109 0.864324580080435 0.135675419919565 0.998812351543943 0.00118764845605701 0.999952745487194 4.7254512805973e-05 0.922125181950509 0.0778748180494905 0.972896774678596 0.0271032253214044 0.5 0.5 0.99792531120332 0.0020746887966805 0.571174377224199 0.428825622775801 0.693482688391039 0.306517311608961 </TABLE>
</DEFINITION>

<DEFINITION>
	<FOR>v53</FOR>
	<GIVEN>v13</GIVEN>
	<TABLE>0.999940610523815 5.938947618482e-05 0.00704225352112676 0.992957746478873 </TABLE>
</DEFINITION>

<DEFINITION>
	<FOR>v54</FOR>
	<GIVEN>v62</GIVEN>
	<GIVEN>v14</GIVEN>
	<TABLE>0.942428241504454 0.057571758495546 0.993724228555893 0.00627577144410712 0.5 0.5 0.599447513812155 0.400552486187845 0.961538461538461 0.0384615384615385 0.996062992125984 0.00393700787401575 </TABLE>
</DEFINITION>

<DEFINITION>
	<FOR>v55</FOR>
	<GIVEN>v62</GIVEN>
	<GIVEN>v16</GIVEN>
	<TABLE>0.18970793473572 0.785003425613439 0.0201020071557258 0.0051815575122434 5.07498287193281e-06 0.125009526228884 0.388695541724883 0.362784199161692 0.123485329607519 2.54032770227359e-05 0.000503778337531486 0.997984886649874 0.000503778337531486 0.000503778337531486 0.000503778337531486 0.0905196350654502 0.73312177707259 0.128599761999207 0.0476794922649742 7.93335977786593e-05 0.000664451827242525 0.040531561461794 0.957475083056478 0.000664451827242525 0.000664451827242525 0.00127388535031847 0.00127388535031847 0.994904458598726 0.00127388535031847 0.00127388535031847 0.2 0.2 0.2 0.2 0.2 0.2 0.2 0.2 0.2 0.2 0.2 0.2 0.2 0.2 0.2 0.000829875518672199 0.000829875518672199 0.000829875518672199 0.000829875518672199 0.996680497925311 0.2 0.2 0.2 0.2 0.2 0.0054054054054054 0.0054054054054054 0.0054054054054054 0.0054054054054054 0.978378378378378 </TABLE>
</DEFINITION>

<DEFINITION>
	<FOR>v56</FOR>
	<GIVEN>v18</GIVEN>
	<GIVEN>v3</GIVEN>
	<TABLE>0.481354890268642 1.22948300239749e-05 0.492420237290219 1.22948300239749e-05 0.0262002827810906 0.524457478005865 0.31683284457478 0.14791788856305 0.000117302052785924 0.0106744868035191 0.2 0.2 0.2 0.2 0.2 0.2 0.2 0.2 0.2 0.2 0.0436787920384351 0.824461221688401 0.129334248455731 2.74536719286205e-05 0.00249828414550446 0.000947867298578199 0.256872037914692 0.0578199052132701 0.683412322274881 0.000947867298578199 </TABLE>
</DEFINITION>

<DEFINITION>
	<FOR>v57</FOR>
	<GIVEN>v5</GIVEN>
	<TABLE>0.999956937386961 4.30626130393592e-05 0.999741066804764 0.000258933195235629 0.999932623635629 6.73763643713785e-05 0.00471698113207547 0.995283018867924 0.00320512820512821 0.996794871794872 </TABLE>
</DEFINITION>

<DEFINITION>
	<FOR>v58</FOR>
	<GIVEN>v190</GIVEN>
	<TABLE>0.999987304247364 6.34787631797782e-06 6.34787631797782e-06 1.89146758970285e-05 0.999962170648206 1.89146758970285e-05 9.31645192244985e-06 0.999981367096155 9.31645192244985e-06 0.99998602522447 6.98738776508402e-06 6.98738776508402e-06 3.56658820172623e-05 0.999928668235965 3.56658820172623e-05 0.999980078689178 9.96065541112605e-06 9.96065541112605e-06 0.998132586367881 0.000933706816059757 0.000933706816059757 0.999968528222317 1.57358888416812e-05 1.57358888416812e-05 0.999954878736605 2.25606316976875e-05 2.25606316976875e-05 0.000311817898347365 0.000311817898347365 0.999376364203305 0.999891457722783 5.4271138608488e-05 5.4271138608488e-05 2.97220983801456e-05 0.99994055580324 2.97220983801456e-05 0.999952292352464 2.385382376795e-05 2.385382376795e-05 0.999908663287208 4.56683563958533e-05 4.56683563958533e-05 0.99995838794915 2.08060254249631e-05 2.08060254249631e-05 0.999465383587276 0.000267308206361935 0.000267308206361935 0.998753894080997 0.000623052959501558 0.000623052959501558 0.999978840680907 1.05796595465558e-05 1.05796595465558e-05 0.998753894080997 0.000623052959501558 0.000623052959501558 0.998505231689088 0.000747384155455904 0.000747384155455904 0.0037037037037037 0.992592592592593 0.0037037037037037 0.998505231689088 0.000747384155455904 0.000747384155455904 0.999376364203305 0.000311817898347365 0.000311817898347365 0.998132586367881 0.000933706816059757 0.000933706816059757 0.0037037037037037 0.992592592592593 0.0037037037037037 2.34065959787468e-05 0.999953186808042 2.34065959787468e-05 0.000138657792567942 0.999722684414864 0.000138657792567942 0.999584113121231 0.000207943439384487 0.000207943439384487 0.999674479166667 0.000162760416666667 0.000162760416666667 0.997512437810945 0.00124378109452736 0.00124378109452736 8.91503967192654e-05 0.999821699206561 8.91503967192654e-05 0.000233918128654971 0.99953216374269 0.000233918128654971 0.00186219739292365 0.00186219739292365 0.996275605214153 0.000220167327168648 0.999559665345663 0.000220167327168648 0.998753894080997 0.000623052959501558 0.000623052959501558 0.000187160771102377 0.999625678457795 0.000187160771102377 0.000249500998003992 0.999500998003992 0.000249500998003992 0.000747384155455904 0.998505231689088 0.000747384155455904 0.00186219739292365 0.996275605214153 0.00186219739292365 0.998132586367881 0.000933706816059757 0.000933706816059757 0.999168744804655 0.000415627597672485 0.000415627597672485 0.000287852619458837 0.999424294761082 0.000287852619458837 0.0037037037037037 0.992592592592593 0.0037037037037037 0.999064983637214 0.000467508181393174 0.000467508181393174 0.998132586367881 0.000933706816059757 0.000933706816059757 0.00186219739292365 0.996275605214153 0.00186219739292365 0.000267308206361935 0.999465383587276 0.000267308206361935 0.000233918128654971 0.99953216374269 0.000233918128654971 0.999168744804655 0.000415627597672485 0.000415627597672485 0.000207943439384487 0.999584113121231 0.000207943439384487 0.000415627597672485 0.999168744804655 0.000415627597672485 0.999376364203305 0.000311817898347365 0.000311817898347365 0.999584113121231 0.000207943439384487 0.000207943439384487 0.998132586367881 0.000933706816059757 0.000933706816059757 0.992592592592593 0.0037037037037037 0.0037037037037037 0.996275605214153 0.00186219739292365 0.00186219739292365 0.000933706816059757 0.998132586367881 0.000933706816059757 0.00186219739292365 0.996275605214153 0.00186219739292365 0.00186219739292365 0.00186219739292365 0.996275605214153 0.996275605214153 0.00186219739292365 0.00186219739292365 0.000374111485222596 0.999251777029555 0.000374111485222596 0.996275605214153 0.00186219739292365 0.00186219739292365 0.996275605214153 0.00186219739292365 0.00186219739292365 0.998505231689088 0.000747384155455904 0.000747384155455904 0.000933706816059757 0.000933706816059757 0.998132586367881 0.999064983637214 0.000467508181393174 0.000467508181393174 0.992592592592593 0.0037037037037037 0.0037037037037037 0.998505231689088 0.000747384155455904 0.000747384155455904 0.998132586367881 0.000933706816059757 0.000933706816059757 0.997512437810945 0.00124378109452736 0.00124378109452736 0.998505231689088 0.000747384155455904 0.000747384155455904 0.0037037037037037 0.992592592592593 0.0037037037037037 0.997512437810945 0.00124378109452736 0.00124378109452736 0.0037037037037037 0.0037037037037037 0.992592592592593 0.0037037037037037 0.0037037037037037 0.992592592592593 0.000933706816059757 0.000933706816059757 0.998132586367881 0.996275605214153 0.00186219739292365 0.00186219739292365 0.996275605214153 0.00186219739292365 0.00186219739292365 0.996275605214153 0.00186219739292365 0.00186219739292365 0.000933706816059757 0.998132586367881 0.000933706816059757 0.000747384155455904 0.998505231689088 0.000747384155455904 0.00186219739292365 0.996275605214153 0.00186219739292365 0.992592592592593 0.0037037037037037 0.0037037037037037 0.992592592592593 0.0037037037037037 0.0037037037037037 0.996275605214153 0.00186219739292365 0.00186219739292365 0.0037037037037037 0.992592592592593 0.0037037037037037 0.0037037037037037 0.992592592592593 0.0037037037037037 0.992592592592593 0.0037037037037037 0.0037037037037037 0.00186219739292365 0.996275605214153 0.00186219739292365 </TABLE>
</DEFINITION>

<DEFINITION>
	<FOR>v59</FOR>
	<GIVEN>v62</GIVEN>
	<GIVEN>v58</GIVEN>
	<TABLE>0.990797739088838 1.25885922177323e-05 0.00918967231894457 0.904553068372164 3.04553068372164e-05 0.0954164763209989 0.240412979351032 0.75811209439528 0.00147492625368732 0.996124031007752 0.00193798449612403 0.00193798449612403 0.940695296523517 0.00204498977505112 0.0572597137014315 0.933333333333333 0.0333333333333333 0.0333333333333333 0.00245098039215686 0.995098039215686 0.00245098039215686 0.127853881278539 0.867579908675799 0.0045662100456621 0.333333333333333 0.333333333333333 0.333333333333333 </TABLE>
</DEFINITION>

<DEFINITION>
	<FOR>v60</FOR>
	<GIVEN>v63</GIVEN>
	<GIVEN>v24</GIVEN>
	<TABLE>0.999952673923332 4.73260766682442e-05 0.998583569405099 0.00141643059490085 0.962195338907668 0.0378046610923323 0.808390022675737 0.191609977324263 </TABLE>
</DEFINITION>

<DEFINITION>
	<FOR>v61</FOR>
	<GIVEN>v55</GIVEN>
	<TABLE>0.941820859799319 0.0580870845990979 9.20556015833563e-05 0.989033055298116 0.0109448784147579 2.20662871265281e-05 0.977910555857324 0.0219083831251132 0.000181061017562919 0.943314849044978 0.0560690080098583 0.000616142945163278 0.0028735632183908 0.0028735632183908 0.994252873563218 </TABLE>
</DEFINITION>

<DEFINITION>
	<FOR>v62</FOR>
	<GIVEN>v25</GIVEN>
	<TABLE>0.99997140119829 1.42994008551042e-05 1.42994008551042e-05 0.877606282155429 0.122122935282968 0.000270782561603033 0.998753894080997 0.000623052959501558 0.000623052959501558 0.689064558629776 0.30961791831357 0.00131752305665349 0.0026246719160105 0.0026246719160105 0.994750656167979 0.0256410256410256 0.0256410256410256 0.948717948717949 </TABLE>
</DEFINITION>

<DEFINITION>
	<FOR>v63</FOR>
	<GIVEN>v71</GIVEN>
	<GIVEN>v42</GIVEN>
	<TABLE>0.999976155276837 2.38447231627641e-05 0.0155919885067185 0.984408011493281 0.921725239616613 0.0782747603833866 0.00177935943060498 0.998220640569395 0.998442367601246 0.00155763239875389 0.286666666666667 0.713333333333333 0.5 0.5 0.5 0.5 </TABLE>
</DEFINITION>

<DEFINITION>
	<FOR>v64</FOR>
	<GIVEN>v71</GIVEN>
	<GIVEN>v14</GIVEN>
	<TABLE>0.983494159471813 0.0165058405281869 0.992362006925114 0.00763799307488628 0.650537634408602 0.349462365591398 0.997354497354497 0.00264550264550265 </TABLE>
</DEFINITION>

<DEFINITION>
	<FOR>v65</FOR>
	<TABLE>0.000117785630153121 0.999882214369847 </TABLE>
</DEFINITION>

<DEFINITION>
	<FOR>v66</FOR>
	<GIVEN>v41</GIVEN>
	<GIVEN>v40</GIVEN>
	<TABLE>0.951274851810885 0.0296378229671857 0.0190873252219292 0.942408002858164 0.0197927831368346 0.0377992140050018 0.886328725038403 0.112135176651306 0.00153609831029186 0.696618357487923 0.093719806763285 0.209661835748792 </TABLE>
</DEFINITION>

<DEFINITION>
	<FOR>v67</FOR>
	<TABLE>0.000117785630153121 0.999882214369847 </TABLE>
</DEFINITION>

<DEFINITION>
	<FOR>v68</FOR>
	<GIVEN>v64</GIVEN>
	<GIVEN>v60</GIVEN>
	<GIVEN>v20</GIVEN>
	<TABLE>0.985233364061593 0.0147666359384069 0.91386723998925 0.0861327600107498 0.000904159132007233 0.999095840867993 0.0121951219512195 0.98780487804878 0.22318339100346 0.77681660899654 0.00769230769230769 0.992307692307692 0.5 0.5 0.5 0.5 </TABLE>
</DEFINITION>

<DEFINITION>
	<FOR>v69</FOR>
	<GIVEN>v58</GIVEN>
	<GIVEN>v6</GIVEN>
	<TABLE>0.999284364802198 0.000715635197801569 0.00127877237851662 0.998721227621483 7.03135986499789e-05 0.99992968640135 0.00145772594752187 0.998542274052478 0.996815286624204 0.00318471337579618 0.5 0.5 </TABLE>
</DEFINITION>

<DEFINITION>
	<FOR>v70</FOR>
	<TABLE>0.000117785630153121 0.999882214369847 </TABLE>
</DEFINITION>

<DEFINITION>
	<FOR>v71</FOR>
	<GIVEN>v26</GIVEN>
	<TABLE>0.990825893858508 0.00917410614149208 0.739179954441913 0.260820045558087 0.962784419591207 0.0372155804087929 0.948818897637795 0.0511811023622047 0.961538461538461 0.0384615384615385 0.928571428571429 0.0714285714285714 </TABLE>
</DEFINITION>

<DEFINITION>
	<FOR>v72</FOR>
	<GIVEN>v55</GIVEN>
	<GIVEN>v40</GIVEN>
	<GIVEN>v6</GIVEN>
	<TABLE>0.938730741761045 0.0612692582389552 0.000860585197934596 0.999139414802065 0.69691996970462 0.30308003029538 0.00354609929078014 0.99645390070922 0.977383848062701 0.0226161519372988 0.00053134962805526 0.999468650371945 0.926304100536266 0.0736958994637344 0.00155763239875389 0.998442367601246 0.952644973641156 0.0473550263588439 0.5 0.5 0.87037037037037 0.12962962962963 0.0031055900621118 0.996894409937888 0.956273764258555 0.0437262357414449 0.0238095238095238 0.976190476190476 0.865448504983389 0.134551495016611 0.5 0.5 0.997237569060773 0.00276243093922652 0.998220640569395 0.00177935943060498 0.5 0.5 0.5 0.5 </TABLE>
</DEFINITION>

<DEFINITION>
	<FOR>v73</FOR>
	<GIVEN>v57</GIVEN>
	<TABLE>0.999940369707812 5.96302921884317e-05 0.00476190476190476 0.995238095238095 </TABLE>
</DEFINITION>

<DEFINITION>
	<FOR>v79</FOR>
	<GIVEN>v6</GIVEN>
	<TABLE>0.999939357186173 6.06428138265616e-05 0.124489795918367 0.875510204081633 </TABLE>
</DEFINITION>

<DEFINITION>
	<FOR>v80</FOR>
	<GIVEN>v57</GIVEN>
	<TABLE>0.999940369707812 5.96302921884317e-05 0.00476190476190476 0.995238095238095 </TABLE>
</DEFINITION>

<DEFINITION>
	<FOR>v82</FOR>
	<GIVEN>v72</GIVEN>
	<GIVEN>v49</GIVEN>
	<TABLE>0.99913905337869 0.000860946621309479 0.999217060621878 0.000782939378122437 0.00142450142450142 0.998575498575499 0.999419279907085 0.000580720092915215 0.999153976311337 0.000846023688663283 0.963917525773196 0.0360824742268041 0.999490316004077 0.000509683995922528 0.5 0.5 0.476303317535545 0.523696682464455 0.5 0.5 </TABLE>
</DEFINITION>

<DEFINITION>
	<FOR>v83</FOR>
	<GIVEN>v6</GIVEN>
	<TABLE>0.999939357186173 6.06428138265616e-05 0.883673469387755 0.116326530612245 </TABLE>
</DEFINITION>

<DEFINITION>
	<FOR>v84</FOR>
	<GIVEN>v6</GIVEN>
	<TABLE>0.999939357186173 6.06428138265616e-05 0.00204081632653061 0.997959183673469 </TABLE>
</DEFINITION>

<DEFINITION>
	<FOR>v85</FOR>
	<GIVEN>v40</GIVEN>
	<GIVEN>v5</GIVEN>
	<TABLE>0.158478130617136 0.841521869382864 0.285252755606233 0.714747244393767 0.0832986429106652 0.916701357089335 0.274774774774775 0.725225225225225 0.0033112582781457 0.996688741721854 0.0598097792952079 0.940190220704792 0.244110479285134 0.755889520714866 0.014305898975627 0.985694101024373 0.400990099009901 0.599009900990099 0.18944099378882 0.81055900621118 </TABLE>
</DEFINITION>

<DEFINITION>
	<FOR>v86</FOR>
	<GIVEN>v61</GIVEN>
	<TABLE>0.999959667661531 4.03323384689844e-05 0.998134328358209 0.00186567164179104 0.607142857142857 0.392857142857143 </TABLE>
</DEFINITION>

<DEFINITION>
	<FOR>v87</FOR>
	<GIVEN>v49</GIVEN>
	<TABLE>0.99688963981261 0.0031103601873896 0.999930516953863 6.94830461367426e-05 0.997159090909091 0.00284090909090909 0.859141791044776 0.140858208955224 0.947635135135135 0.0523648648648649 </TABLE>
</DEFINITION>

<DEFINITION>
	<FOR>v88</FOR>
	<GIVEN>v89</GIVEN>
	<GIVEN>v20</GIVEN>
	<TABLE>0.984298386533492 0.00839561360620242 0.00392540336662709 0.000293357546972131 0.00308723894670671 0.843738765727981 0.0336728579988017 0.115158777711204 0.00011983223487118 0.007309766327142 0.902803738317757 0.0910547396528705 0.00560747663551402 0.000267022696929239 0.000267022696929239 0.29469387755102 0.0824489795918367 0.621224489795918 0.000816326530612245 0.000816326530612245 </TABLE>
</DEFINITION>

<DEFINITION>
	<FOR>v89</FOR>
	<GIVEN>v16</GIVEN>
	<GIVEN>v13</GIVEN>
	<TABLE>0.999981101409835 1.88985901651737e-05 0.0294117647058824 0.970588235294118 0.999909305278433 9.06947215672048e-05 0.5 0.5 0.5 0.5 0.00188679245283019 0.99811320754717 0.000293255131964809 0.999706744868035 0.5 0.5 </TABLE>
</DEFINITION>

<DEFINITION>
	<FOR>v92</FOR>
	<GIVEN>v96</GIVEN>
	<TABLE>0.999705014749263 0.000294985250737463 0.433333333333333 0.566666666666667 </TABLE>
</DEFINITION>

<DEFINITION>
	<FOR>v93</FOR>
	<GIVEN>v4</GIVEN>
	<TABLE>0.999939751777323 6.0248222677431e-05 0.00261780104712042 0.99738219895288 </TABLE>
</DEFINITION>

<DEFINITION>
	<FOR>v94</FOR>
	<GIVEN>v22</GIVEN>
	<TABLE>0.999561952440551 0.000438047559449312 0.000113352981183405 0.999886647018817 0.00149700598802395 0.998502994011976 </TABLE>
</DEFINITION>

<DEFINITION>
	<FOR>v95</FOR>
	<GIVEN>v50</GIVEN>
	<GIVEN>v20</GIVEN>
	<TABLE>0.999540863177227 0.000459136822773186 0.000478468899521531 0.999521531100478 9.49667616334283e-05 0.999905033238367 0.000575373993095512 0.999424626006905 </TABLE>
</DEFINITION>

<DEFINITION>
	<FOR>v96</FOR>
	<GIVEN>v61</GIVEN>
	<TABLE>0.999959667661531 4.03323384689844e-05 0.998134328358209 0.00186567164179104 0.692857142857143 0.307142857142857 </TABLE>
</DEFINITION>

<DEFINITION>
	<FOR>v97</FOR>
	<GIVEN>v50</GIVEN>
	<TABLE>0.99990780011064 9.21998893601328e-05 0.000163025758069775 0.99983697424193 </TABLE>
</DEFINITION>

<DEFINITION>
	<FOR>v99</FOR>
	<GIVEN>v50</GIVEN>
	<TABLE>0.99990780011064 9.21998893601328e-05 0.000163025758069775 0.99983697424193 </TABLE>
</DEFINITION>

<DEFINITION>
	<FOR>v100</FOR>
	<GIVEN>v9</GIVEN>
	<TABLE>0.999970018588475 2.99814115248546e-05 0.9 0.1 0.146017699115044 0.853982300884956 0.0891891891891892 0.910810810810811 </TABLE>
</DEFINITION>

<DEFINITION>
	<FOR>v101</FOR>
	<GIVEN>v52</GIVEN>
	<TABLE>0.999935806907177 6.41930928232122e-05 0.711126961483595 0.288873038516405 </TABLE>
</DEFINITION>

<DEFINITION>
	<FOR>v102</FOR>
	<TABLE>0.000117785630153121 0.999882214369847 </TABLE>
</DEFINITION>

<DEFINITION>
	<FOR>v103</FOR>
	<TABLE>0.000117785630153121 0.999882214369847 </TABLE>
</DEFINITION>

<DEFINITION>
	<FOR>v190</FOR>
	<GIVEN>v5</GIVEN>
	<TABLE>0.254070384631389 0.0852649415171007 0.173112672117394 0.230816573590135 9.67699169423803e-07 9.67699169423803e-07 0.00172347222074379 0.102489986732844 9.67699169423803e-07 9.67699169423803e-07 9.67699169423803e-07 9.67699169423803e-07 9.67699169423803e-07 9.67699169423803e-07 0.077513671170016 9.67699169423803e-07 0.00258472448153098 9.67699169423803e-07 0.00258472448153098 9.67699169423803e-07 9.67699169423803e-07 0.00215409835113738 9.67699169423803e-07 0.00172347222074379 9.67699169423803e-07 9.67699169423803e-07 9.67699169423803e-07 9.67699169423803e-07 9.67699169423803e-07 9.67699169423803e-07 0.0180872651757003 0.0068909857854669 0.000862219959956608 9.67699169423803e-07 9.67699169423803e-07 9.67699169423803e-07 9.67699169423803e-07 0.00215409835113738 9.67699169423803e-07 0.00172347222074379 9.67699169423803e-07 0.00559910739428612 9.67699169423803e-07 9.67699169423803e-07 0.00172347222074379 9.67699169423803e-07 9.67699169423803e-07 0.0068909857854669 0.00387660287271175 0.00775223804625408 9.67699169423803e-07 9.67699169423803e-07 9.67699169423803e-07 9.67699169423803e-07 0.000431593829563016 0.000862219959956608 9.67699169423803e-07 9.67699169423803e-07 9.67699169423803e-07 9.67699169423803e-07 9.67699169423803e-07 9.67699169423803e-07 9.67699169423803e-07 9.67699169423803e-07 9.67699169423803e-07 9.67699169423803e-07 0.000431593829563016 9.67699169423803e-07 9.67699169423803e-07 0.0012928460903502 0.00215409835113738 9.67699169423803e-07 9.67699169423803e-07 0.000431593829563016 9.67699169423803e-07 9.67699169423803e-07 9.67699169423803e-07 9.67699169423803e-07 0.000862219959956608 9.67699169423803e-07 0.00215409835113738 0.000862219959956608 0.000431593829563016 0.000431593829563016 9.67699169423803e-07 9.67699169423803e-07 9.67699169423803e-07 9.67699169423803e-07 9.67699169423803e-07 5.81872348844111e-06 5.81872348844111e-06 5.81872348844111e-06 5.81872348844111e-06 0.271885673720899 5.81872348844111e-06 5.81872348844111e-06 5.81872348844111e-06 5.81872348844111e-06 5.81872348844111e-06 0.178669723436073 5.81872348844111e-06 5.81872348844111e-06 0.212331038816704 5.81872348844111e-06 5.81872348844111e-06 5.81872348844111e-06 5.81872348844111e-06 5.81872348844111e-06 5.81872348844111e-06 5.81872348844111e-06 5.81872348844111e-06 0.0310778021517639 5.81872348844111e-06 0.00259515067584473 5.81872348844111e-06 0.0699177814371083 5.81872348844111e-06 5.81872348844111e-06 5.81872348844111e-06 5.81872348844111e-06 5.81872348844111e-06 5.81872348844111e-06 0.0440244619135454 5.81872348844111e-06 5.81872348844111e-06 5.81872348844111e-06 5.81872348844111e-06 0.00518448262820102 5.81872348844111e-06 5.81872348844111e-06 5.81872348844111e-06 0.00259515067584473 5.81872348844111e-06 5.81872348844111e-06 5.81872348844111e-06 0.0362564660564765 5.81872348844111e-06 5.81872348844111e-06 5.81872348844111e-06 0.0233098062946951 5.81872348844111e-06 0.0466137938659017 0.0103631465329136 5.81872348844111e-06 5.81872348844111e-06 5.81872348844111e-06 0.00518448262820102 5.81872348844111e-06 5.81872348844111e-06 5.81872348844111e-06 0.00518448262820102 5.81872348844111e-06 5.81872348844111e-06 5.81872348844111e-06 5.81872348844111e-06 5.81872348844111e-06 0.0129524784852699 5.81872348844111e-06 5.81872348844111e-06 5.81872348844111e-06 0.00259515067584473 0.00777381458055732 5.81872348844111e-06 5.81872348844111e-06 5.81872348844111e-06 5.81872348844111e-06 0.00518448262820102 5.81872348844111e-06 0.0103631465329136 5.81872348844111e-06 5.81872348844111e-06 5.81872348844111e-06 5.81872348844111e-06 0.00518448262820102 0.00259515067584473 5.81872348844111e-06 0.00259515067584473 0.00518448262820102 1.5140756038512e-06 1.5140756038512e-06 1.5140756038512e-06 1.5140756038512e-06 1.5140756038512e-06 0.253336644111987 1.5140756038512e-06 1.5140756038512e-06 0.111846278932092 0.00808667780016927 1.5140756038512e-06 0.0848957331835408 0.105782406138668 1.5140756038512e-06 1.5140756038512e-06 0.00943420508759684 1.5140756038512e-06 0.238513843950284 1.5140756038512e-06 0.00337033229417278 1.5140756038512e-06 1.5140756038512e-06 1.5140756038512e-06 1.5140756038512e-06 1.5140756038512e-06 0.107803697069809 1.5140756038512e-06 0.012129259662452 0.0154980778810209 0.00202280500674521 1.5140756038512e-06 1.5140756038512e-06 1.5140756038512e-06 1.5140756038512e-06 1.5140756038512e-06 0.0134767869498796 1.5140756038512e-06 1.5140756038512e-06 1.5140756038512e-06 1.5140756038512e-06 0.00606538686902792 1.5140756038512e-06 1.5140756038512e-06 1.5140756038512e-06 1.5140756038512e-06 1.5140756038512e-06 1.5140756038512e-06 1.5140756038512e-06 1.5140756038512e-06 1.5140756038512e-06 1.5140756038512e-06 1.5140756038512e-06 1.5140756038512e-06 1.5140756038512e-06 1.5140756038512e-06 1.5140756038512e-06 0.00269656865045899 1.5140756038512e-06 0.00134904136303142 0.00134904136303142 0.0067391505127417 1.5140756038512e-06 0.00134904136303142 1.5140756038512e-06 0.00269656865045899 0.00539162322531413 1.5140756038512e-06 1.5140756038512e-06 0.00269656865045899 1.5140756038512e-06 1.5140756038512e-06 1.5140756038512e-06 1.5140756038512e-06 1.5140756038512e-06 1.5140756038512e-06 0.00269656865045899 1.5140756038512e-06 1.5140756038512e-06 1.5140756038512e-06 1.5140756038512e-06 1.5140756038512e-06 1.5140756038512e-06 1.5140756038512e-06 1.5140756038512e-06 1.5140756038512e-06 1.5140756038512e-06 0.000675277719317636 1.5140756038512e-06 1.5140756038512e-06 0.000105999576001696 0.000105999576001696 0.000105999576001696 0.000105999576001696 0.000105999576001696 0.000105999576001696 0.000105999576001696 0.000105999576001696 0.000105999576001696 0.000105999576001696 0.000105999576001696 0.000105999576001696 0.000105999576001696 0.000105999576001696 0.000105999576001696 0.000105999576001696 0.000105999576001696 0.000105999576001696 0.000105999576001696 0.000105999576001696 0.0472758108967564 0.000105999576001696 0.000105999576001696 0.000105999576001696 0.000105999576001696 0.000105999576001696 0.000105999576001696 0.000105999576001696 0.000105999576001696 0.000105999576001696 0.000105999576001696 0.000105999576001696 0.000105999576001696 0.000105999576001696 0.000105999576001696 0.000105999576001696 0.000105999576001696 0.000105999576001696 0.000105999576001696 0.000105999576001696 0.000105999576001696 0.000105999576001696 0.000105999576001696 0.000105999576001696 0.000105999576001696 0.0944456222175111 0.000105999576001696 0.000105999576001696 0.000105999576001696 0.000105999576001696 0.000105999576001696 0.566143735425058 0.000105999576001696 0.000105999576001696 0.000105999576001696 0.000105999576001696 0.000105999576001696 0.000105999576001696 0.000105999576001696 0.000105999576001696 0.000105999576001696 0.000105999576001696 0.000105999576001696 0.235955056179775 0.000105999576001696 0.000105999576001696 0.000105999576001696 0.000105999576001696 0.000105999576001696 0.000105999576001696 0.000105999576001696 0.000105999576001696 0.000105999576001696 0.000105999576001696 0.0472758108967564 0.000105999576001696 0.000105999576001696 0.000105999576001696 0.000105999576001696 0.000105999576001696 0.000105999576001696 0.000105999576001696 0.000105999576001696 0.000105999576001696 0.000105999576001696 0.000105999576001696 0.000105999576001696 0.000105999576001696 0.000105999576001696 7.20253529242293e-05 7.20253529242293e-05 7.20253529242293e-05 7.20253529242293e-05 7.20253529242293e-05 7.20253529242293e-05 7.20253529242293e-05 7.20253529242293e-05 7.20253529242293e-05 7.20253529242293e-05 7.20253529242293e-05 7.20253529242293e-05 7.20253529242293e-05 7.20253529242293e-05 7.20253529242293e-05 7.20253529242293e-05 7.20253529242293e-05 7.20253529242293e-05 7.20253529242293e-05 7.20253529242293e-05 7.20253529242293e-05 7.20253529242293e-05 7.20253529242293e-05 7.20253529242293e-05 7.20253529242293e-05 7.20253529242293e-05 7.20253529242293e-05 7.20253529242293e-05 7.20253529242293e-05 7.20253529242293e-05 7.20253529242293e-05 7.20253529242293e-05 7.20253529242293e-05 7.20253529242293e-05 0.192379717660617 7.20253529242293e-05 0.480841256122155 7.20253529242293e-05 7.20253529242293e-05 7.20253529242293e-05 7.20253529242293e-05 7.20253529242293e-05 7.20253529242293e-05 0.256482281763181 7.20253529242293e-05 7.20253529242293e-05 7.20253529242293e-05 7.20253529242293e-05 7.20253529242293e-05 7.20253529242293e-05 7.20253529242293e-05 7.20253529242293e-05 7.20253529242293e-05 7.20253529242293e-05 7.20253529242293e-05 7.20253529242293e-05 7.20253529242293e-05 7.20253529242293e-05 7.20253529242293e-05 7.20253529242293e-05 7.20253529242293e-05 7.20253529242293e-05 7.20253529242293e-05 7.20253529242293e-05 7.20253529242293e-05 7.20253529242293e-05 7.20253529242293e-05 7.20253529242293e-05 7.20253529242293e-05 7.20253529242293e-05 7.20253529242293e-05 7.20253529242293e-05 7.20253529242293e-05 7.20253529242293e-05 7.20253529242293e-05 7.20253529242293e-05 0.0641745894554883 7.20253529242293e-05 7.20253529242293e-05 7.20253529242293e-05 7.20253529242293e-05 7.20253529242293e-05 7.20253529242293e-05 7.20253529242293e-05 7.20253529242293e-05 7.20253529242293e-05 7.20253529242293e-05 7.20253529242293e-05 7.20253529242293e-05 </TABLE>
</DEFINITION>

</NETWORK>
</BIF>
