<?xml version="1.0" encoding="UTF-8"?>

<!-- DTD for the XMLBIF 0.3 format -->
<!DOCTYPE BIF [
<!ELEMENT BIF ( NETWORK )*>
<!ATTLIST BIF VERSION CDATA #REQUIRED>
   <!ELEMENT NETWORK ( NAME, ( PROPERTY | VARIABLE | DEFINITION )* )>
      <!ELEMENT NAME (#PCDATA)>
        <!ELEMENT VARIABLE ( NAME, ( OUTCOME |  PROPERTY )* ) >
          <!ATTLIST VARIABLE TYPE (nature|decision|utility) "nature">
           <!ELEMENT OUTCOME (#PCDATA)>
            <!ELEMENT DEFINITION ( FOR | GIVEN | TABLE | PROPERTY )* >
              <!ELEMENT FOR (#PCDATA)>
                <!ELEMENT GIVEN (#PCDATA)>
                  <!ELEMENT TABLE (#PCDATA)>
                    <!ELEMENT PROPERTY (#PCDATA)>
                      ]>
<BIF VERSION="0.3">
<NETWORK>
<NAME>Reco</NAME>
<VARIABLE TYPE="nature">
	<NAME>v1</NAME>
	<OUTCOME>0</OUTCOME>
	<OUTCOME>1</OUTCOME>
	<OUTCOME>2</OUTCOME>
</VARIABLE>

<VARIABLE TYPE="nature">
	<NAME>v2</NAME>
	<OUTCOME>1</OUTCOME>
	<OUTCOME>3</OUTCOME>
	<OUTCOME>0</OUTCOME>
	<OUTCOME>2</OUTCOME>
	<OUTCOME>8</OUTCOME>
</VARIABLE>

<VARIABLE TYPE="nature">
	<NAME>v3</NAME>
	<OUTCOME>0</OUTCOME>
	<OUTCOME>1</OUTCOME>
</VARIABLE>

<VARIABLE TYPE="nature">
	<NAME>v4</NAME>
	<OUTCOME>1</OUTCOME>
	<OUTCOME>0</OUTCOME>
</VARIABLE>

<VARIABLE TYPE="nature">
	<NAME>v5</NAME>
	<OUTCOME>1</OUTCOME>
	<OUTCOME>0</OUTCOME>
</VARIABLE>

<VARIABLE TYPE="nature">
	<NAME>v6</NAME>
	<OUTCOME>1</OUTCOME>
	<OUTCOME>0</OUTCOME>
</VARIABLE>

<VARIABLE TYPE="nature">
	<NAME>v7</NAME>
	<OUTCOME>1</OUTCOME>
	<OUTCOME>0</OUTCOME>
	<OUTCOME>3</OUTCOME>
</VARIABLE>

<VARIABLE TYPE="nature">
	<NAME>v8</NAME>
	<OUTCOME>0</OUTCOME>
	<OUTCOME>1</OUTCOME>
</VARIABLE>

<VARIABLE TYPE="nature">
	<NAME>v9</NAME>
	<OUTCOME>1</OUTCOME>
	<OUTCOME>0</OUTCOME>
</VARIABLE>

<VARIABLE TYPE="nature">
	<NAME>v10</NAME>
	<OUTCOME>1</OUTCOME>
	<OUTCOME>0</OUTCOME>
</VARIABLE>

<VARIABLE TYPE="nature">
	<NAME>v11</NAME>
	<OUTCOME>1</OUTCOME>
	<OUTCOME>0</OUTCOME>
</VARIABLE>

<VARIABLE TYPE="nature">
	<NAME>v12</NAME>
	<OUTCOME>0</OUTCOME>
	<OUTCOME>1</OUTCOME>
</VARIABLE>

<VARIABLE TYPE="nature">
	<NAME>v13</NAME>
	<OUTCOME>1</OUTCOME>
	<OUTCOME>0</OUTCOME>
</VARIABLE>

<VARIABLE TYPE="nature">
	<NAME>v14</NAME>
	<OUTCOME>0</OUTCOME>
	<OUTCOME>1</OUTCOME>
</VARIABLE>

<VARIABLE TYPE="nature">
	<NAME>v15</NAME>
	<OUTCOME>1</OUTCOME>
	<OUTCOME>0</OUTCOME>
</VARIABLE>

<VARIABLE TYPE="nature">
	<NAME>v16</NAME>
	<OUTCOME>1</OUTCOME>
	<OUTCOME>0</OUTCOME>
</VARIABLE>

<VARIABLE TYPE="nature">
	<NAME>v17</NAME>
	<OUTCOME>0</OUTCOME>
	<OUTCOME>1</OUTCOME>
	<OUTCOME>2</OUTCOME>
	<OUTCOME>-1</OUTCOME>
</VARIABLE>

<VARIABLE TYPE="nature">
	<NAME>v18</NAME>
	<OUTCOME>0</OUTCOME>
	<OUTCOME>1</OUTCOME>
</VARIABLE>

<VARIABLE TYPE="nature">
	<NAME>v19</NAME>
	<OUTCOME>4</OUTCOME>
	<OUTCOME>12</OUTCOME>
	<OUTCOME>9</OUTCOME>
	<OUTCOME>0</OUTCOME>
	<OUTCOME>13</OUTCOME>
	<OUTCOME>7</OUTCOME>
	<OUTCOME>2</OUTCOME>
	<OUTCOME>3</OUTCOME>
	<OUTCOME>1</OUTCOME>
	<OUTCOME>11</OUTCOME>
	<OUTCOME>5</OUTCOME>
	<OUTCOME>6</OUTCOME>
	<OUTCOME>8</OUTCOME>
	<OUTCOME>10</OUTCOME>
</VARIABLE>

<VARIABLE TYPE="nature">
	<NAME>v21</NAME>
	<OUTCOME>0</OUTCOME>
	<OUTCOME>1</OUTCOME>
</VARIABLE>

<VARIABLE TYPE="nature">
	<NAME>v23</NAME>
	<OUTCOME>1</OUTCOME>
	<OUTCOME>0</OUTCOME>
	<OUTCOME>2</OUTCOME>
</VARIABLE>

<VARIABLE TYPE="nature">
	<NAME>v24</NAME>
	<OUTCOME>1</OUTCOME>
	<OUTCOME>2</OUTCOME>
	<OUTCOME>8</OUTCOME>
	<OUTCOME>0</OUTCOME>
	<OUTCOME>3</OUTCOME>
</VARIABLE>

<VARIABLE TYPE="nature">
	<NAME>v25</NAME>
	<OUTCOME>1</OUTCOME>
	<OUTCOME>0</OUTCOME>
</VARIABLE>

<VARIABLE TYPE="nature">
	<NAME>v26</NAME>
	<OUTCOME>1</OUTCOME>
	<OUTCOME>0</OUTCOME>
</VARIABLE>

<VARIABLE TYPE="nature">
	<NAME>v27</NAME>
	<OUTCOME>2</OUTCOME>
	<OUTCOME>0</OUTCOME>
	<OUTCOME>1</OUTCOME>
</VARIABLE>

<VARIABLE TYPE="nature">
	<NAME>v28</NAME>
	<OUTCOME>0</OUTCOME>
	<OUTCOME>1</OUTCOME>
	<OUTCOME>2</OUTCOME>
</VARIABLE>

<VARIABLE TYPE="nature">
	<NAME>v29</NAME>
	<OUTCOME>-1</OUTCOME>
	<OUTCOME>0</OUTCOME>
</VARIABLE>

<VARIABLE TYPE="nature">
	<NAME>v30</NAME>
	<OUTCOME>-1</OUTCOME>
	<OUTCOME>0</OUTCOME>
</VARIABLE>

<VARIABLE TYPE="nature">
	<NAME>v31</NAME>
	<OUTCOME>0</OUTCOME>
	<OUTCOME>1</OUTCOME>
</VARIABLE>

<VARIABLE TYPE="nature">
	<NAME>v32</NAME>
	<OUTCOME>1</OUTCOME>
	<OUTCOME>0</OUTCOME>
</VARIABLE>

<VARIABLE TYPE="nature">
	<NAME>v33</NAME>
	<OUTCOME>0</OUTCOME>
	<OUTCOME>1</OUTCOME>
</VARIABLE>

<VARIABLE TYPE="nature">
	<NAME>v34</NAME>
	<OUTCOME>-1</OUTCOME>
	<OUTCOME>0</OUTCOME>
</VARIABLE>

<VARIABLE TYPE="nature">
	<NAME>v35</NAME>
	<OUTCOME>0</OUTCOME>
	<OUTCOME>1</OUTCOME>
</VARIABLE>

<VARIABLE TYPE="nature">
	<NAME>v36</NAME>
	<OUTCOME>0</OUTCOME>
	<OUTCOME>1</OUTCOME>
	<OUTCOME>-1</OUTCOME>
</VARIABLE>

<VARIABLE TYPE="nature">
	<NAME>v37</NAME>
	<OUTCOME>0</OUTCOME>
	<OUTCOME>1</OUTCOME>
</VARIABLE>

<VARIABLE TYPE="nature">
	<NAME>v38</NAME>
	<OUTCOME>2</OUTCOME>
	<OUTCOME>0</OUTCOME>
	<OUTCOME>1</OUTCOME>
</VARIABLE>

<VARIABLE TYPE="nature">
	<NAME>v39</NAME>
	<OUTCOME>1</OUTCOME>
	<OUTCOME>0</OUTCOME>
</VARIABLE>

<VARIABLE TYPE="nature">
	<NAME>v40</NAME>
	<OUTCOME>-1</OUTCOME>
	<OUTCOME>0</OUTCOME>
</VARIABLE>

<VARIABLE TYPE="nature">
	<NAME>v41</NAME>
	<OUTCOME>1</OUTCOME>
	<OUTCOME>0</OUTCOME>
</VARIABLE>

<VARIABLE TYPE="nature">
	<NAME>v42</NAME>
	<OUTCOME>0</OUTCOME>
	<OUTCOME>1</OUTCOME>
</VARIABLE>

<VARIABLE TYPE="nature">
	<NAME>v43</NAME>
	<OUTCOME>1</OUTCOME>
	<OUTCOME>0</OUTCOME>
</VARIABLE>

<VARIABLE TYPE="nature">
	<NAME>v44</NAME>
	<OUTCOME>1</OUTCOME>
	<OUTCOME>0</OUTCOME>
</VARIABLE>

<VARIABLE TYPE="nature">
	<NAME>v45</NAME>
	<OUTCOME>-1</OUTCOME>
	<OUTCOME>0</OUTCOME>
</VARIABLE>

<VARIABLE TYPE="nature">
	<NAME>v46</NAME>
	<OUTCOME>1</OUTCOME>
	<OUTCOME>3</OUTCOME>
	<OUTCOME>0</OUTCOME>
	<OUTCOME>2</OUTCOME>
	<OUTCOME>7</OUTCOME>
</VARIABLE>

<VARIABLE TYPE="nature">
	<NAME>v93</NAME>
	<OUTCOME>7</OUTCOME>
	<OUTCOME>14</OUTCOME>
	<OUTCOME>4</OUTCOME>
	<OUTCOME>15</OUTCOME>
	<OUTCOME>9</OUTCOME>
	<OUTCOME>11</OUTCOME>
	<OUTCOME>13</OUTCOME>
	<OUTCOME>6</OUTCOME>
	<OUTCOME>12</OUTCOME>
	<OUTCOME>8</OUTCOME>
	<OUTCOME>1</OUTCOME>
	<OUTCOME>5</OUTCOME>
	<OUTCOME>3</OUTCOME>
	<OUTCOME>10</OUTCOME>
	<OUTCOME>0</OUTCOME>
	<OUTCOME>21</OUTCOME>
	<OUTCOME>32</OUTCOME>
	<OUTCOME>2</OUTCOME>
	<OUTCOME>31</OUTCOME>
</VARIABLE>

<VARIABLE TYPE="nature">
	<NAME>v51</NAME>
	<OUTCOME>2</OUTCOME>
	<OUTCOME>1</OUTCOME>
	<OUTCOME>3</OUTCOME>
	<OUTCOME>0</OUTCOME>
</VARIABLE>

<VARIABLE TYPE="nature">
	<NAME>v52</NAME>
	<OUTCOME>0</OUTCOME>
	<OUTCOME>1</OUTCOME>
</VARIABLE>

<VARIABLE TYPE="nature">
	<NAME>v53</NAME>
	<OUTCOME>0</OUTCOME>
	<OUTCOME>1</OUTCOME>
</VARIABLE>

<DEFINITION>
	<FOR>v1</FOR>
	<GIVEN>v93</GIVEN>
	<TABLE>0.999968476136435 1.57619317823592e-05 1.57619317823592e-05 7.9779171253969e-06 0.999984044165749 7.9779171253969e-06 0.999791209938407 0.000104395030796534 0.000104395030796534 1.45585837409737e-05 1.45585837409737e-05 0.999970882832518 0.999964234620887 1.78826895565093e-05 1.78826895565093e-05 9.23105326317733e-05 0.999815378934736 9.23105326317733e-05 2.53138922640745e-05 0.999949372215472 2.53138922640745e-05 0.999906942117997 4.65289410013028e-05 4.65289410013028e-05 8.31255195344971e-05 0.999833748960931 8.31255195344971e-05 0.999818247909851 9.08760450745184e-05 9.08760450745184e-05 0.999630860095976 0.000184569952011812 0.000184569952011812 0.999917644636607 4.11776816965205e-05 4.11776816965205e-05 0.000417188151856487 0.999165623696287 0.000417188151856487 0.000365096750638919 0.999269806498722 0.000365096750638919 0.998792270531401 0.000603864734299517 0.000603864734299517 0.991341991341991 0.00432900432900433 0.00432900432900433 0.00145560407569141 0.997088791848617 0.00145560407569141 0.00174520069808028 0.996509598603839 0.00174520069808028 0.00432900432900433 0.991341991341991 0.00432900432900433 </TABLE>
</DEFINITION>

<DEFINITION>
	<FOR>v2</FOR>
	<TABLE>0.186251718535183 0.425471816022997 0.104011998500187 0.281739782527184 0.00252468441444819 </TABLE>
</DEFINITION>

<DEFINITION>
	<FOR>v3</FOR>
	<GIVEN>v2</GIVEN>
	<TABLE>0.999932894913435 6.71050865655617e-05 0.999970624522649 2.9375477351507e-05 0.000120163422254266 0.999879836577746 0.999955638363943 4.43616360571378e-05 0.00495049504950495 0.995049504950495 </TABLE>
</DEFINITION>

<DEFINITION>
	<FOR>v4</FOR>
	<GIVEN>v27</GIVEN>
	<TABLE>0.999976054786648 2.3945213351851e-05 0.000217202432667246 0.999782797567333 0.000609756097560976 0.999390243902439 </TABLE>
</DEFINITION>

<DEFINITION>
	<FOR>v5</FOR>
	<GIVEN>v1</GIVEN>
	<TABLE>0.999950782557338 4.92174426616793e-05 0.999951114587407 4.88854125928823e-05 0.000138274336283186 0.999861725663717 </TABLE>
</DEFINITION>

<DEFINITION>
	<FOR>v6</FOR>
	<GIVEN>v1</GIVEN>
	<TABLE>0.999950782557338 4.92174426616793e-05 0.3200527962456 0.6799472037544 0.000138274336283186 0.999861725663717 </TABLE>
</DEFINITION>

<DEFINITION>
	<FOR>v7</FOR>
	<GIVEN>v30</GIVEN>
	<GIVEN>v28</GIVEN>
	<TABLE>0.582452695809513 0.417528055282863 1.92489076244923e-05 0.227074358757778 0.772897485711068 2.81555311540952e-05 6.35525897680331e-05 6.35525897680331e-05 0.999872894820464 0.674839720060686 0.325111339499829 4.89404394851466e-05 0.333333333333333 0.666597323347895 6.93433187712364e-05 0.000167757087736957 0.999664485824526 0.000167757087736957 </TABLE>
</DEFINITION>

<DEFINITION>
	<FOR>v8</FOR>
	<GIVEN>v5</GIVEN>
	<TABLE>0.999963210948422 3.67890515782503e-05 0.000207382828701783 0.999792617171298 </TABLE>
</DEFINITION>

<DEFINITION>
	<FOR>v9</FOR>
	<GIVEN>v5</GIVEN>
	<TABLE>0.999963210948422 3.67890515782503e-05 0.000207382828701783 0.999792617171298 </TABLE>
</DEFINITION>

<DEFINITION>
	<FOR>v10</FOR>
	<GIVEN>v1</GIVEN>
	<TABLE>0.999950782557338 4.92174426616793e-05 4.88854125928823e-05 0.999951114587407 0.000138274336283186 0.999861725663717 </TABLE>
</DEFINITION>

<DEFINITION>
	<FOR>v11</FOR>
	<GIVEN>v1</GIVEN>
	<TABLE>0.999950782557338 4.92174426616793e-05 0.0352463824794681 0.964753617520532 0.000138274336283186 0.999861725663717 </TABLE>
</DEFINITION>

<DEFINITION>
	<FOR>v12</FOR>
	<GIVEN>v24</GIVEN>
	<TABLE>0.999970186631686 2.98133683143522e-05 0.999970658998885 2.9341001114958e-05 0.999916888297872 8.31117021276596e-05 0.00301204819277108 0.996987951807229 0.954545454545454 0.0454545454545455 </TABLE>
</DEFINITION>

<DEFINITION>
	<FOR>v13</FOR>
	<GIVEN>v4</GIVEN>
	<TABLE>0.999964083040011 3.59169599885066e-05 0.000240269101393561 0.999759730898606 </TABLE>
</DEFINITION>

<DEFINITION>
	<FOR>v14</FOR>
	<GIVEN>v5</GIVEN>
	<TABLE>0.999963210948422 3.67890515782503e-05 0.000207382828701783 0.999792617171298 </TABLE>
</DEFINITION>

<DEFINITION>
	<FOR>v15</FOR>
	<GIVEN>v93</GIVEN>
	<TABLE>0.999976357102326 2.36428976735389e-05 1.19668756880954e-05 0.999988033124312 0.999843407453805 0.000156592546194801 2.18378756114605e-05 0.999978162124389 0.999973175965665 2.6824034334764e-05 0.00013846579894766 0.999861534201052 3.79708383961118e-05 0.999962029161604 0.999930206588498 6.97934115019542e-05 0.000124688279301746 0.999875311720698 0.999863685932388 0.000136314067611778 0.000276854928017719 0.999723145071982 0.999938233477455 6.17665225447807e-05 0.000625782227784731 0.999374217772215 0.000547645125958379 0.999452354874042 0.000905797101449275 0.999094202898551 0.993506493506494 0.00649350649350649 0.00218340611353712 0.997816593886463 0.00261780104712042 0.997382198952879 0.00649350649350649 0.993506493506494 </TABLE>
</DEFINITION>

<DEFINITION>
	<FOR>v16</FOR>
	<GIVEN>v93</GIVEN>
	<TABLE>0.999976357102326 2.36428976735389e-05 0.999988033124312 1.19668756880954e-05 0.000156592546194801 0.999843407453805 2.18378756114605e-05 0.999978162124389 0.999973175965665 2.6824034334764e-05 0.999861534201052 0.00013846579894766 0.999962029161604 3.79708383961118e-05 6.97934115019542e-05 0.999930206588498 0.000124688279301746 0.999875311720698 0.000136314067611778 0.999863685932388 0.999723145071982 0.000276854928017719 0.999938233477455 6.17665225447807e-05 0.999374217772215 0.000625782227784731 0.000547645125958379 0.999452354874042 0.000905797101449275 0.999094202898551 0.993506493506494 0.00649350649350649 0.997816593886463 0.00218340611353712 0.00261780104712042 0.997382198952879 0.00649350649350649 0.993506493506494 </TABLE>
</DEFINITION>

<DEFINITION>
	<FOR>v17</FOR>
	<GIVEN>v1</GIVEN>
	<TABLE>0.999630869180037 2.46087213308396e-05 2.46087213308396e-05 0.000319913377300915 2.44427062964411e-05 0.999926671881111 2.44427062964411e-05 2.44427062964411e-05 6.91371681415929e-05 6.91371681415929e-05 0.999792588495575 6.91371681415929e-05 </TABLE>
</DEFINITION>

<DEFINITION>
	<FOR>v18</FOR>
	<GIVEN>v5</GIVEN>
	<TABLE>0.999963210948422 3.67890515782503e-05 0.000207382828701783 0.999792617171298 </TABLE>
</DEFINITION>

<DEFINITION>
	<FOR>v19</FOR>
	<GIVEN>v1</GIVEN>
	<TABLE>0.137914305401263 0.136437782121412 0.251606597949742 0.0271750594124844 0.0437121201468086 0.0419402922109881 0.0496182132662101 0.0366248084035268 0.0614303995050131 0.0691083205602351 0.00266477296696806 0.130826993657981 0.0106379986781601 0.000302335719207458 0.0530965417062406 0.220871277725013 0.426776635566233 0.0102729202748757 0.0193656070171518 0.0152592323593497 0.0137926699815632 0.017605732163808 0.0190722945415945 0.113225599195486 0.00323342086150064 0.0668822280574334 0.020538856919381 6.98363037041175e-06 0.0166126738305942 0.231490992414665 0.52684497471555 0.00167904551201011 0.00831621365360303 0.00416798356510746 0.00167904551201011 0.00333833754740834 0.00831621365360303 0.17009718710493 1.97534766118837e-05 0.0174423198482933 0.00997550568900126 1.97534766118837e-05 </TABLE>
</DEFINITION>

<DEFINITION>
	<FOR>v21</FOR>
	<GIVEN>v26</GIVEN>
	<GIVEN>v10</GIVEN>
	<TABLE>0.821887130486712 0.178112869513288 0.999440089585666 0.000559910414333707 0.925419240953222 0.0745807590467785 0.999971534301167 2.84656988329063e-05 </TABLE>
</DEFINITION>

<DEFINITION>
	<FOR>v23</FOR>
	<GIVEN>v93</GIVEN>
	<GIVEN>v30</GIVEN>
	<TABLE>0.26625220661601 0.733736828832385 1.09645516046621e-05 0.999943954042315 2.8022978842651e-05 2.8022978842651e-05 5.77850972234261e-06 0.718702146716362 0.281292074773916 1.28804564833778e-05 1.28804564833778e-05 0.999974239087033 0.547585486818063 0.452362307491517 5.22056904202558e-05 0.333333333333333 0.333333333333333 0.333333333333333 1.00362307931633e-05 0.999979927538414 1.00362307931633e-05 2.64991917746509e-05 0.999947001616451 2.64991917746509e-05 0.258878638068174 0.741108386209402 1.29757224233459e-05 0.999942484111236 2.87579443821356e-05 2.87579443821356e-05 4.61616581267599e-05 0.421040483774177 0.578913354567696 0.333333333333333 0.333333333333333 0.333333333333333 1.74037139525575e-05 0.728153988061052 0.271828608224995 4.64058657014247e-05 4.64058657014247e-05 0.999907188268597 0.267213522247079 0.732750967650296 3.55101026241966e-05 0.999865074546313 6.7462726843419e-05 6.7462726843419e-05 6.54493095097847e-05 0.716342692584593 0.283591858105897 0.000113882245757886 0.000113882245757886 0.999772235508484 0.234395340870161 0.76553614251456 6.85166152792052e-05 0.999730203696209 0.000134898151895319 0.000134898151895319 0.333333333333333 0.333333333333333 0.333333333333333 0.999815378934736 9.23105326317733e-05 9.23105326317733e-05 0.600922437045731 0.399056972841641 2.05901126279161e-05 0.333333333333333 0.333333333333333 0.333333333333333 0.333333333333333 0.333333333333333 0.333333333333333 0.000208724692131079 0.000208724692131079 0.999582550615738 0.000182648401826484 0.458264840182648 0.541552511415525 0.333333333333333 0.333333333333333 0.333333333333333 0.333333333333333 0.333333333333333 0.333333333333333 0.999395587790873 0.000302206104563312 0.000302206104563312 0.00217864923747277 0.995642701525055 0.00217864923747277 0.333333333333333 0.333333333333333 0.333333333333333 0.000729394602479942 0.99854121079504 0.000729394602479942 0.333333333333333 0.333333333333333 0.333333333333333 0.333333333333333 0.333333333333333 0.333333333333333 0.000874890638670166 0.000874890638670166 0.99825021872266 0.00217864923747277 0.995642701525055 0.00217864923747277 0.333333333333333 0.333333333333333 0.333333333333333 </TABLE>
</DEFINITION>

<DEFINITION>
	<FOR>v24</FOR>
	<GIVEN>v1</GIVEN>
	<TABLE>0.990471503100699 1.96869770646717e-05 1.96869770646717e-05 0.0094694359681071 1.96869770646717e-05 1.95541650371529e-05 0.999628470864294 1.95541650371529e-05 0.000312866640594447 1.95541650371529e-05 5.53097345132743e-05 5.53097345132743e-05 0.998119469026549 5.53097345132743e-05 0.0017146017699115 </TABLE>
</DEFINITION>

<DEFINITION>
	<FOR>v25</FOR>
	<GIVEN>v1</GIVEN>
	<TABLE>0.119352298454572 0.880647701545428 0.0449256941728588 0.955074305827141 0.000138274336283186 0.999861725663717 </TABLE>
</DEFINITION>

<DEFINITION>
	<FOR>v26</FOR>
	<GIVEN>v25</GIVEN>
	<GIVEN>v1</GIVEN>
	<TABLE>0.438144329896907 0.561855670103093 0.222524483133841 0.777475516866159 0.5 0.5 0.221343542167328 0.778656457832672 0.0580693043967856 0.941930695603214 6.91467293597013e-05 0.99993085327064 </TABLE>
</DEFINITION>

<DEFINITION>
	<FOR>v27</FOR>
	<GIVEN>v93</GIVEN>
	<TABLE>0.999968476136435 1.57619317823592e-05 1.57619317823592e-05 0.999984044165749 7.9779171253969e-06 7.9779171253969e-06 0.000104395030796534 0.999791209938407 0.000104395030796534 0.999970882832518 1.45585837409737e-05 1.45585837409737e-05 0.999964234620887 1.78826895565093e-05 1.78826895565093e-05 0.999815378934736 9.23105326317733e-05 9.23105326317733e-05 0.999949372215472 2.53138922640745e-05 2.53138922640745e-05 4.65289410013028e-05 0.999906942117997 4.65289410013028e-05 8.31255195344971e-05 8.31255195344971e-05 0.999833748960931 9.08760450745184e-05 0.999818247909851 9.08760450745184e-05 0.999630860095976 0.000184569952011812 0.000184569952011812 0.999917644636607 4.11776816965205e-05 4.11776816965205e-05 0.999165623696287 0.000417188151856487 0.000417188151856487 0.000365096750638919 0.000365096750638919 0.999269806498722 0.000603864734299517 0.998792270531401 0.000603864734299517 0.991341991341991 0.00432900432900433 0.00432900432900433 0.997088791848617 0.00145560407569141 0.00145560407569141 0.00174520069808028 0.00174520069808028 0.996509598603839 0.00432900432900433 0.00432900432900433 0.991341991341991 </TABLE>
</DEFINITION>

<DEFINITION>
	<FOR>v28</FOR>
	<GIVEN>v1</GIVEN>
	<TABLE>0.999934376743118 3.28116284411195e-05 3.28116284411195e-05 0.186286012253943 0.813681397470995 3.25902750619215e-05 9.21828908554572e-05 9.21828908554572e-05 0.999815634218289 </TABLE>
</DEFINITION>

<DEFINITION>
	<FOR>v29</FOR>
	<GIVEN>v93</GIVEN>
	<TABLE>0.999976357102326 2.36428976735389e-05 0.999988033124312 1.19668756880954e-05 0.999843407453805 0.000156592546194801 0.999978162124389 2.18378756114605e-05 0.999973175965665 2.6824034334764e-05 0.999861534201052 0.00013846579894766 0.999962029161604 3.79708383961118e-05 0.999930206588498 6.97934115019542e-05 0.999875311720698 0.000124688279301746 0.999863685932388 0.000136314067611778 0.000276854928017719 0.999723145071982 0.999938233477455 6.17665225447807e-05 0.000625782227784731 0.999374217772215 0.999452354874042 0.000547645125958379 0.000905797101449275 0.999094202898551 0.993506493506494 0.00649350649350649 0.997816593886463 0.00218340611353712 0.00261780104712042 0.997382198952879 0.993506493506494 0.00649350649350649 </TABLE>
</DEFINITION>

<DEFINITION>
	<FOR>v30</FOR>
	<GIVEN>v93</GIVEN>
	<GIVEN>v34</GIVEN>
	<TABLE>0.838565084268888 0.161434915731112 8.27403607479728e-05 0.999917259639252 0.832688560086611 0.167311439913389 3.49919518510743e-05 0.999965008048149 0.999908642426457 9.13575735428467e-05 0.999452354874042 0.000547645125958379 0.819879532943297 0.180120467056703 9.46431951542684e-05 0.999905356804846 0.825386370208527 0.174613629791473 8.12083807048887e-05 0.999918791619295 0.999918791619295 8.12083807048887e-05 0.999530516431925 0.000469483568075117 0.854221488782838 0.145778511217162 0.000127713920817369 0.999872286079183 0.796749002631356 0.203250997368644 0.000196309383588536 0.999803690616412 0.732207045291157 0.267792954708843 0.000469483568075117 0.999530516431925 0.79995066600888 0.20004933399112 0.000398406374501992 0.999601593625498 0.00013846579894766 0.999861534201052 0.5 0.5 0.999963248805586 3.67511944138185e-05 0.999806576402321 0.000193423597678917 0.000313087038196619 0.999686912961803 0.5 0.5 0.999671268902038 0.000328731097961867 0.998360655737705 0.00163934426229508 0.000453309156844968 0.999546690843155 0.5 0.5 0.996732026143791 0.00326797385620915 0.5 0.5 0.99890590809628 0.00109409190371991 0.5 0.5 0.00131233595800525 0.998687664041995 0.5 0.5 0.996732026143791 0.00326797385620915 0.5 0.5 </TABLE>
</DEFINITION>

<DEFINITION>
	<FOR>v31</FOR>
	<GIVEN>v10</GIVEN>
	<TABLE>0.999926177469364 7.38225306363502e-05 5.41770506013653e-05 0.999945822949399 </TABLE>
</DEFINITION>

<DEFINITION>
	<FOR>v32</FOR>
	<GIVEN>v28</GIVEN>
	<TABLE>0.999958554376658 4.14456233421751e-05 6.00744923705395e-05 0.99993992550763 0.000138274336283186 0.999861725663717 </TABLE>
</DEFINITION>

<DEFINITION>
	<FOR>v33</FOR>
	<GIVEN>v26</GIVEN>
	<GIVEN>v10</GIVEN>
	<TABLE>0.866079426694536 0.133920573305464 0.999440089585666 0.000559910414333707 0.953662842012357 0.0463371579876434 0.999971534301167 2.84656988329063e-05 </TABLE>
</DEFINITION>

<DEFINITION>
	<FOR>v34</FOR>
	<GIVEN>v19</GIVEN>
	<TABLE>0.880198866673794 0.119801133326205 0.846703638189033 0.153296361810967 0.901077957707155 0.0989220422928452 0.953237410071942 0.0467625899280575 0.647274466050367 0.352725533949633 0.869214208826695 0.130785791173305 0.838598223099704 0.161401776900296 0.856247626281808 0.143752373718192 0.89036083774918 0.10963916225082 0.8060341096009 0.1939658903991 0.998220640569395 0.00177935943060498 0.825110950562494 0.174889049437506 0.0680580762250454 0.931941923774955 0.966666666666667 0.0333333333333333 </TABLE>
</DEFINITION>

<DEFINITION>
	<FOR>v35</FOR>
	<GIVEN>v10</GIVEN>
	<TABLE>0.999926177469364 7.38225306363502e-05 5.41770506013653e-05 0.999945822949399 </TABLE>
</DEFINITION>

<DEFINITION>
	<FOR>v36</FOR>
	<GIVEN>v93</GIVEN>
	<TABLE>0.999968476136435 1.57619317823592e-05 1.57619317823592e-05 0.999984044165749 7.9779171253969e-06 7.9779171253969e-06 0.000104395030796534 0.999791209938407 0.000104395030796534 0.999970882832518 1.45585837409737e-05 1.45585837409737e-05 0.998944921316166 1.78826895565093e-05 0.00103719599427754 9.23105326317733e-05 0.999815378934736 9.23105326317733e-05 0.999949372215472 2.53138922640745e-05 2.53138922640745e-05 4.65289410013028e-05 0.999906942117997 4.65289410013028e-05 8.31255195344971e-05 0.999833748960931 8.31255195344971e-05 9.08760450745184e-05 0.999818247909851 9.08760450745184e-05 0.999630860095976 0.000184569952011812 0.000184569952011812 4.11776816965205e-05 0.999917644636607 4.11776816965205e-05 0.999165623696287 0.000417188151856487 0.000417188151856487 0.000365096750638919 0.999269806498722 0.000365096750638919 0.000603864734299517 0.998792270531401 0.000603864734299517 0.00432900432900433 0.991341991341991 0.00432900432900433 0.00145560407569141 0.997088791848617 0.00145560407569141 0.00174520069808028 0.996509598603839 0.00174520069808028 0.00432900432900433 0.991341991341991 0.00432900432900433 </TABLE>
</DEFINITION>

<DEFINITION>
	<FOR>v37</FOR>
	<GIVEN>v10</GIVEN>
	<TABLE>0.999926177469364 7.38225306363502e-05 5.41770506013653e-05 0.999945822949399 </TABLE>
</DEFINITION>

<DEFINITION>
	<FOR>v38</FOR>
	<GIVEN>v10</GIVEN>
	<GIVEN>v7</GIVEN>
	<TABLE>0.577190398677105 2.58377903521691e-05 0.422783763532543 0.054244753044807 0.944092400341558 0.00166284661363534 0.333333333333333 0.333333333333333 0.333333333333333 0.791426532740546 5.48877545419617e-05 0.208518579504912 0.0381412018653145 0.961838434439082 2.03636956034781e-05 6.35525897680331e-05 0.999872894820464 6.35525897680331e-05 </TABLE>
</DEFINITION>

<DEFINITION>
	<FOR>v39</FOR>
	<GIVEN>v10</GIVEN>
	<TABLE>0.999926177469364 7.38225306363502e-05 5.41770506013653e-05 0.999945822949399 </TABLE>
</DEFINITION>

<DEFINITION>
	<FOR>v40</FOR>
	<GIVEN>v29</GIVEN>
	<TABLE>0.999968049076618 3.19509233816857e-05 0.00141643059490085 0.998583569405099 </TABLE>
</DEFINITION>

<DEFINITION>
	<FOR>v41</FOR>
	<GIVEN>v5</GIVEN>
	<TABLE>0.999963210948422 3.67890515782503e-05 0.000207382828701783 0.999792617171298 </TABLE>
</DEFINITION>

<DEFINITION>
	<FOR>v42</FOR>
	<GIVEN>v3</GIVEN>
	<TABLE>0.999965027628174 3.49723718262573e-05 0.000293255131964809 0.999706744868035 </TABLE>
</DEFINITION>

<DEFINITION>
	<FOR>v43</FOR>
	<GIVEN>v16</GIVEN>
	<TABLE>0.99995656328729 4.34367127095821e-05 0.000111333778668448 0.999888666221332 </TABLE>
</DEFINITION>

<DEFINITION>
	<FOR>v44</FOR>
	<GIVEN>v23</GIVEN>
	<GIVEN>v1</GIVEN>
	<TABLE>0.999968596909936 3.14030900640623e-05 0.5 0.5 0.5 0.5 0.947402775869177 0.0525972241308231 0.975446873546415 0.024553126453585 4.60999446800664e-05 0.99995390005532 0.5 0.5 0.999968018421389 3.19815786107202e-05 0.5 0.5 </TABLE>
</DEFINITION>

<DEFINITION>
	<FOR>v45</FOR>
	<GIVEN>v28</GIVEN>
	<GIVEN>v23</GIVEN>
	<TABLE>0.999968596909936 3.14030900640623e-05 0.999971275923479 2.87240765209398e-05 0.0378973105134474 0.962102689486553 0.5 0.5 0.999959002951787 4.09970482125287e-05 0.999960851863451 3.91481365487003e-05 0.5 0.5 0.99995390005532 4.60999446800664e-05 0.5 0.5 </TABLE>
</DEFINITION>

<DEFINITION>
	<FOR>v46</FOR>
	<GIVEN>v2</GIVEN>
	<TABLE>0.999892631861495 2.68420346262247e-05 2.68420346262247e-05 2.68420346262247e-05 2.68420346262247e-05 1.17501909406028e-05 0.999952999236238 1.17501909406028e-05 1.17501909406028e-05 1.17501909406028e-05 4.80653689017063e-05 4.80653689017063e-05 0.999807738524393 4.80653689017063e-05 4.80653689017063e-05 1.77446544228551e-05 1.77446544228551e-05 1.77446544228551e-05 0.999929021382309 1.77446544228551e-05 0.00198019801980198 0.00198019801980198 0.00198019801980198 0.00198019801980198 0.992079207920792 </TABLE>
</DEFINITION>

<DEFINITION>
	<FOR>v93</FOR>
	<GIVEN>v2</GIVEN>
	<TABLE>0.746886677168024 7.0636933226907e-06 7.0636933226907e-06 7.0636933226907e-06 7.0636933226907e-06 7.0636933226907e-06 7.0636933226907e-06 0.25299324004549 7.0636933226907e-06 7.0636933226907e-06 7.0636933226907e-06 7.0636933226907e-06 7.0636933226907e-06 7.0636933226907e-06 7.0636933226907e-06 7.0636933226907e-06 7.0636933226907e-06 7.0636933226907e-06 7.0636933226907e-06 3.09215551068494e-06 0.645969839115149 3.09215551068494e-06 0.35397759424117 3.09215551068494e-06 3.09215551068494e-06 3.09215551068494e-06 3.09215551068494e-06 3.09215551068494e-06 3.09215551068494e-06 3.09215551068494e-06 3.09215551068494e-06 3.09215551068494e-06 3.09215551068494e-06 3.09215551068494e-06 3.09215551068494e-06 3.09215551068494e-06 3.09215551068494e-06 3.09215551068494e-06 1.26487812899227e-05 1.26487812899227e-05 0.201887198168456 1.26487812899227e-05 1.26487812899227e-05 0.228323151064395 1.26487812899227e-05 1.26487812899227e-05 1.26487812899227e-05 1.26487812899227e-05 1.26487812899227e-05 0.511908827584462 1.26487812899227e-05 0.0576910914633375 1.26487812899227e-05 1.26487812899227e-05 1.26487812899227e-05 1.26487812899227e-05 1.26487812899227e-05 4.66964590075135e-06 4.66964590075135e-06 4.66964590075135e-06 4.66964590075135e-06 0.435192319366422 4.66964590075135e-06 0.307430807521866 4.66964590075135e-06 0.0936077217264615 0.0856226272361767 0.0421482239001817 4.66964590075135e-06 0.0186365567898986 4.66964590075135e-06 0.0128695441024707 4.66964590075135e-06 4.66964590075135e-06 0.00444083325161453 4.66964590075135e-06 0.000521104742053153 0.000521104742053153 0.000521104742053153 0.000521104742053153 0.000521104742053153 0.000521104742053153 0.000521104742053153 0.000521104742053153 0.000521104742053153 0.000521104742053153 0.000521104742053153 0.000521104742053153 0.000521104742053153 0.000521104742053153 0.000521104742053153 0.198540906722251 0.594580510682647 0.000521104742053153 0.198540906722251 </TABLE>
</DEFINITION>

<DEFINITION>
	<FOR>v51</FOR>
	<GIVEN>v30</GIVEN>
	<GIVEN>v1</GIVEN>
	<TABLE>0.304202109561075 0.351565158217081 0.207026199387547 0.137206532834297 0.355594357236706 0.300411451490215 0.226972546850149 0.117021644422931 0.28489037178265 0.417588179218303 0.263155386081983 0.0343660629170639 0.3190912324382 0.362840120931887 0.19424684332207 0.123821803307843 0.291284403669725 0.29929107589658 0.271267723102586 0.138156797331109 0.199421238047308 0.546678409662808 0.132989431303473 0.120910920986412 </TABLE>
</DEFINITION>

<DEFINITION>
	<FOR>v52</FOR>
	<GIVEN>v51</GIVEN>
	<TABLE>0.999950144580716 4.98554192840762e-05 0.415170111000812 0.584829888999188 7.01754385964912e-05 0.999929824561404 0.281374369859379 0.718625630140621 </TABLE>
</DEFINITION>

<DEFINITION>
	<FOR>v53</FOR>
	<GIVEN>v52</GIVEN>
	<TABLE>0.99993626513703 6.37348629700446e-05 6.12970454824077e-05 0.999938702954518 </TABLE>
</DEFINITION>

</NETWORK>
</BIF>
