<?xml version="1.0" encoding="UTF-8"?>

<!-- DTD for the XMLBIF 0.3 format -->
<!DOCTYPE BIF [
<!ELEMENT BIF ( NETWORK )*>
<!ATTLIST BIF VERSION CDATA #REQUIRED>
   <!ELEMENT NETWORK ( NAME, ( PROPERTY | VARIABLE | DEFINITION )* )>
      <!ELEMENT NAME (#PCDATA)>
        <!ELEMENT VARIABLE ( NAME, ( OUTCOME |  PROPERTY )* ) >
          <!ATTLIST VARIABLE TYPE (nature|decision|utility) "nature">
           <!ELEMENT OUTCOME (#PCDATA)>
            <!ELEMENT DEFINITION ( FOR | GIVEN | TABLE | PROPERTY )* >
              <!ELEMENT FOR (#PCDATA)>
                <!ELEMENT GIVEN (#PCDATA)>
                  <!ELEMENT TABLE (#PCDATA)>
                    <!ELEMENT PROPERTY (#PCDATA)>
                      ]>
<BIF VERSION="0.3">
<NETWORK>
<NAME>Reco</NAME>
<VARIABLE TYPE="nature">
	<NAME>v1</NAME>
	<OUTCOME>0</OUTCOME>
	<OUTCOME>2</OUTCOME>
	<OUTCOME>1</OUTCOME>
</VARIABLE>

<VARIABLE TYPE="nature">
	<NAME>v2</NAME>
	<OUTCOME>1</OUTCOME>
	<OUTCOME>2</OUTCOME>
	<OUTCOME>0</OUTCOME>
	<OUTCOME>3</OUTCOME>
	<OUTCOME>8</OUTCOME>
</VARIABLE>

<VARIABLE TYPE="nature">
	<NAME>v3</NAME>
	<OUTCOME>0</OUTCOME>
	<OUTCOME>1</OUTCOME>
</VARIABLE>

<VARIABLE TYPE="nature">
	<NAME>v4</NAME>
	<OUTCOME>1</OUTCOME>
	<OUTCOME>0</OUTCOME>
</VARIABLE>

<VARIABLE TYPE="nature">
	<NAME>v5</NAME>
	<OUTCOME>1</OUTCOME>
	<OUTCOME>0</OUTCOME>
</VARIABLE>

<VARIABLE TYPE="nature">
	<NAME>v6</NAME>
	<OUTCOME>1</OUTCOME>
	<OUTCOME>0</OUTCOME>
</VARIABLE>

<VARIABLE TYPE="nature">
	<NAME>v7</NAME>
	<OUTCOME>0</OUTCOME>
	<OUTCOME>1</OUTCOME>
	<OUTCOME>3</OUTCOME>
</VARIABLE>

<VARIABLE TYPE="nature">
	<NAME>v8</NAME>
	<OUTCOME>0</OUTCOME>
	<OUTCOME>1</OUTCOME>
</VARIABLE>

<VARIABLE TYPE="nature">
	<NAME>v9</NAME>
	<OUTCOME>1</OUTCOME>
	<OUTCOME>0</OUTCOME>
</VARIABLE>

<VARIABLE TYPE="nature">
	<NAME>v10</NAME>
	<OUTCOME>1</OUTCOME>
	<OUTCOME>0</OUTCOME>
</VARIABLE>

<VARIABLE TYPE="nature">
	<NAME>v11</NAME>
	<OUTCOME>1</OUTCOME>
	<OUTCOME>0</OUTCOME>
</VARIABLE>

<VARIABLE TYPE="nature">
	<NAME>v12</NAME>
	<OUTCOME>0</OUTCOME>
	<OUTCOME>1</OUTCOME>
</VARIABLE>

<VARIABLE TYPE="nature">
	<NAME>v13</NAME>
	<OUTCOME>1</OUTCOME>
	<OUTCOME>0</OUTCOME>
</VARIABLE>

<VARIABLE TYPE="nature">
	<NAME>v14</NAME>
	<OUTCOME>0</OUTCOME>
	<OUTCOME>1</OUTCOME>
</VARIABLE>

<VARIABLE TYPE="nature">
	<NAME>v15</NAME>
	<OUTCOME>1</OUTCOME>
	<OUTCOME>0</OUTCOME>
</VARIABLE>

<VARIABLE TYPE="nature">
	<NAME>v16</NAME>
	<OUTCOME>1</OUTCOME>
	<OUTCOME>0</OUTCOME>
</VARIABLE>

<VARIABLE TYPE="nature">
	<NAME>v17</NAME>
	<OUTCOME>0</OUTCOME>
	<OUTCOME>2</OUTCOME>
	<OUTCOME>1</OUTCOME>
	<OUTCOME>-1</OUTCOME>
</VARIABLE>

<VARIABLE TYPE="nature">
	<NAME>v18</NAME>
	<OUTCOME>0</OUTCOME>
	<OUTCOME>1</OUTCOME>
</VARIABLE>

<VARIABLE TYPE="nature">
	<NAME>v19</NAME>
	<OUTCOME>9</OUTCOME>
	<OUTCOME>12</OUTCOME>
	<OUTCOME>5</OUTCOME>
	<OUTCOME>7</OUTCOME>
	<OUTCOME>4</OUTCOME>
	<OUTCOME>11</OUTCOME>
	<OUTCOME>3</OUTCOME>
	<OUTCOME>1</OUTCOME>
	<OUTCOME>6</OUTCOME>
	<OUTCOME>2</OUTCOME>
	<OUTCOME>0</OUTCOME>
	<OUTCOME>13</OUTCOME>
	<OUTCOME>10</OUTCOME>
</VARIABLE>

<VARIABLE TYPE="nature">
	<NAME>v21</NAME>
	<OUTCOME>0</OUTCOME>
	<OUTCOME>1</OUTCOME>
</VARIABLE>

<VARIABLE TYPE="nature">
	<NAME>v23</NAME>
	<OUTCOME>999</OUTCOME>
	<OUTCOME>0</OUTCOME>
</VARIABLE>

<VARIABLE TYPE="nature">
	<NAME>v24</NAME>
	<OUTCOME>1</OUTCOME>
	<OUTCOME>8</OUTCOME>
	<OUTCOME>2</OUTCOME>
	<OUTCOME>0</OUTCOME>
	<OUTCOME>3</OUTCOME>
</VARIABLE>

<VARIABLE TYPE="nature">
	<NAME>v25</NAME>
	<OUTCOME>0</OUTCOME>
	<OUTCOME>1</OUTCOME>
</VARIABLE>

<VARIABLE TYPE="nature">
	<NAME>v26</NAME>
	<OUTCOME>0</OUTCOME>
	<OUTCOME>1</OUTCOME>
</VARIABLE>

<VARIABLE TYPE="nature">
	<NAME>v27</NAME>
	<OUTCOME>2</OUTCOME>
	<OUTCOME>0</OUTCOME>
	<OUTCOME>1</OUTCOME>
</VARIABLE>

<VARIABLE TYPE="nature">
	<NAME>v28</NAME>
	<OUTCOME>0</OUTCOME>
	<OUTCOME>2</OUTCOME>
	<OUTCOME>1</OUTCOME>
</VARIABLE>

<VARIABLE TYPE="nature">
	<NAME>v29</NAME>
	<OUTCOME>999</OUTCOME>
	<OUTCOME>-1</OUTCOME>
</VARIABLE>

<VARIABLE TYPE="nature">
	<NAME>v30</NAME>
	<OUTCOME>999</OUTCOME>
	<OUTCOME>-1</OUTCOME>
</VARIABLE>

<VARIABLE TYPE="nature">
	<NAME>v31</NAME>
	<OUTCOME>0</OUTCOME>
	<OUTCOME>1</OUTCOME>
</VARIABLE>

<VARIABLE TYPE="nature">
	<NAME>v32</NAME>
	<OUTCOME>1</OUTCOME>
	<OUTCOME>0</OUTCOME>
</VARIABLE>

<VARIABLE TYPE="nature">
	<NAME>v33</NAME>
	<OUTCOME>0</OUTCOME>
	<OUTCOME>1</OUTCOME>
</VARIABLE>

<VARIABLE TYPE="nature">
	<NAME>v34</NAME>
	<OUTCOME>999</OUTCOME>
	<OUTCOME>-1</OUTCOME>
</VARIABLE>

<VARIABLE TYPE="nature">
	<NAME>v35</NAME>
	<OUTCOME>0</OUTCOME>
	<OUTCOME>1</OUTCOME>
</VARIABLE>

<VARIABLE TYPE="nature">
	<NAME>v36</NAME>
	<OUTCOME>0</OUTCOME>
	<OUTCOME>1</OUTCOME>
	<OUTCOME>-1</OUTCOME>
</VARIABLE>

<VARIABLE TYPE="nature">
	<NAME>v37</NAME>
	<OUTCOME>0</OUTCOME>
	<OUTCOME>1</OUTCOME>
</VARIABLE>

<VARIABLE TYPE="nature">
	<NAME>v38</NAME>
	<OUTCOME>0</OUTCOME>
	<OUTCOME>2</OUTCOME>
	<OUTCOME>1</OUTCOME>
</VARIABLE>

<VARIABLE TYPE="nature">
	<NAME>v39</NAME>
	<OUTCOME>1</OUTCOME>
	<OUTCOME>0</OUTCOME>
</VARIABLE>

<VARIABLE TYPE="nature">
	<NAME>v40</NAME>
	<OUTCOME>999</OUTCOME>
	<OUTCOME>-1</OUTCOME>
</VARIABLE>

<VARIABLE TYPE="nature">
	<NAME>v41</NAME>
	<OUTCOME>1</OUTCOME>
	<OUTCOME>0</OUTCOME>
</VARIABLE>

<VARIABLE TYPE="nature">
	<NAME>v42</NAME>
	<OUTCOME>0</OUTCOME>
	<OUTCOME>1</OUTCOME>
</VARIABLE>

<VARIABLE TYPE="nature">
	<NAME>v43</NAME>
	<OUTCOME>1</OUTCOME>
	<OUTCOME>0</OUTCOME>
</VARIABLE>

<VARIABLE TYPE="nature">
	<NAME>v44</NAME>
	<OUTCOME>1</OUTCOME>
	<OUTCOME>0</OUTCOME>
</VARIABLE>

<VARIABLE TYPE="nature">
	<NAME>v45</NAME>
	<OUTCOME>999</OUTCOME>
	<OUTCOME>-1</OUTCOME>
</VARIABLE>

<VARIABLE TYPE="nature">
	<NAME>v46</NAME>
	<OUTCOME>1</OUTCOME>
	<OUTCOME>2</OUTCOME>
	<OUTCOME>0</OUTCOME>
	<OUTCOME>3</OUTCOME>
	<OUTCOME>7</OUTCOME>
</VARIABLE>

<VARIABLE TYPE="nature">
	<NAME>v93</NAME>
	<OUTCOME>7</OUTCOME>
	<OUTCOME>8</OUTCOME>
	<OUTCOME>5</OUTCOME>
	<OUTCOME>15</OUTCOME>
	<OUTCOME>4</OUTCOME>
	<OUTCOME>14</OUTCOME>
	<OUTCOME>9</OUTCOME>
	<OUTCOME>13</OUTCOME>
	<OUTCOME>6</OUTCOME>
	<OUTCOME>11</OUTCOME>
	<OUTCOME>32</OUTCOME>
	<OUTCOME>12</OUTCOME>
	<OUTCOME>31</OUTCOME>
	<OUTCOME>10</OUTCOME>
	<OUTCOME>21</OUTCOME>
	<OUTCOME>20</OUTCOME>
</VARIABLE>

<VARIABLE TYPE="nature">
	<NAME>v51</NAME>
	<OUTCOME>0</OUTCOME>
	<OUTCOME>1</OUTCOME>
	<OUTCOME>2</OUTCOME>
	<OUTCOME>3</OUTCOME>
</VARIABLE>

<VARIABLE TYPE="nature">
	<NAME>v52</NAME>
	<OUTCOME>1</OUTCOME>
	<OUTCOME>0</OUTCOME>
</VARIABLE>

<VARIABLE TYPE="nature">
	<NAME>v53</NAME>
	<OUTCOME>1</OUTCOME>
	<OUTCOME>0</OUTCOME>
</VARIABLE>

<DEFINITION>
	<FOR>v1</FOR>
	<GIVEN>v93</GIVEN>
	<TABLE>0.999959152829688 2.04235851561383e-05 2.04235851561383e-05 0.999727780046277 0.000136109976861304 0.000136109976861304 0.999866050498962 6.69747505190543e-05 6.69747505190543e-05 1.9505724930267e-05 0.999960988550139 1.9505724930267e-05 0.999631472268288 0.000184263865855906 0.000184263865855906 1.23196708183957e-05 1.23196708183957e-05 0.999975360658363 0.999947593218563 2.6203390718759e-05 2.6203390718759e-05 3.53069943155739e-05 3.53069943155739e-05 0.999929386011369 0.999869817093016 6.50914534921565e-05 6.50914534921565e-05 0.000173520735727919 0.000173520735727919 0.999652958528544 0.000670690811535882 0.000670690811535882 0.998658618376928 0.000121787845573012 0.000121787845573012 0.999756424308854 0.00229885057471264 0.00229885057471264 0.995402298850575 0.000865800865800866 0.000865800865800866 0.998268398268398 0.996810207336523 0.00159489633173844 0.00159489633173844 0.97979797979798 0.0101010101010101 0.0101010101010101 </TABLE>
</DEFINITION>

<DEFINITION>
	<FOR>v2</FOR>
	<TABLE>0.208364427860697 0.265733830845771 0.088339552238806 0.428980099502488 0.00858208955223881 </TABLE>
</DEFINITION>

<DEFINITION>
	<FOR>v3</FOR>
	<GIVEN>v2</GIVEN>
	<TABLE>0.999925384271004 7.46157289956723e-05 0.999941493096185 5.85069038146501e-05 0.000175994368180218 0.99982400563182 0.999963757610902 3.62423890982894e-05 0.00181159420289855 0.998188405797101 </TABLE>
</DEFINITION>

<DEFINITION>
	<FOR>v4</FOR>
	<GIVEN>v27</GIVEN>
	<TABLE>0.999970445679158 2.95543208417071e-05 0.00028328611898017 0.99971671388102 0.000815660685154976 0.999184339314845 </TABLE>
</DEFINITION>

<DEFINITION>
	<FOR>v5</FOR>
	<GIVEN>v1</GIVEN>
	<TABLE>0.999938890246883 6.11097531165974e-05 0.00015600624024961 0.99984399375975 0.999936780882539 6.32191174611202e-05 </TABLE>
</DEFINITION>

<DEFINITION>
	<FOR>v6</FOR>
	<GIVEN>v1</GIVEN>
	<TABLE>0.999938890246883 6.11097531165974e-05 0.00015600624024961 0.99984399375975 0.320584144645341 0.679415855354659 </TABLE>
</DEFINITION>

<DEFINITION>
	<FOR>v7</FOR>
	<GIVEN>v26</GIVEN>
	<GIVEN>v1</GIVEN>
	<TABLE>0.404566663905685 0.595405726276264 2.7609818051299e-05 5.20101939980236e-05 5.20101939980236e-05 0.999895979612004 0.774163547691959 0.22581376885562 2.26834524214585e-05 0.243377612056242 0.756544705973744 7.76819700147596e-05 0.333333333333333 0.333333333333333 0.333333333333333 0.625408132977145 0.374295043039478 0.000296823983377857 </TABLE>
</DEFINITION>

<DEFINITION>
	<FOR>v8</FOR>
	<GIVEN>v5</GIVEN>
	<TABLE>0.999953388645474 4.66113545259625e-05 0.000233972859148339 0.999766027140852 </TABLE>
</DEFINITION>

<DEFINITION>
	<FOR>v9</FOR>
	<GIVEN>v5</GIVEN>
	<TABLE>0.999953388645474 4.66113545259625e-05 0.000233972859148339 0.999766027140852 </TABLE>
</DEFINITION>

<DEFINITION>
	<FOR>v10</FOR>
	<GIVEN>v1</GIVEN>
	<TABLE>0.999938890246883 6.11097531165974e-05 0.00015600624024961 0.99984399375975 6.32191174611202e-05 0.999936780882539 </TABLE>
</DEFINITION>

<DEFINITION>
	<FOR>v11</FOR>
	<GIVEN>v1</GIVEN>
	<TABLE>0.999938890246883 6.11097531165974e-05 0.00015600624024961 0.99984399375975 0.041029207232267 0.958970792767733 </TABLE>
</DEFINITION>

<DEFINITION>
	<FOR>v12</FOR>
	<GIVEN>v24</GIVEN>
	<TABLE>0.999962951985774 3.70480142264375e-05 0.999906208966423 9.379103357719e-05 0.999962066611031 3.79333889689705e-05 0.00354609929078014 0.99645390070922 0.954545454545454 0.0454545454545455 </TABLE>
</DEFINITION>

<DEFINITION>
	<FOR>v13</FOR>
	<GIVEN>v4</GIVEN>
	<TABLE>0.999955669828886 4.43301711144605e-05 0.000315457413249211 0.999684542586751 </TABLE>
</DEFINITION>

<DEFINITION>
	<FOR>v14</FOR>
	<GIVEN>v5</GIVEN>
	<TABLE>0.999953388645474 4.66113545259625e-05 0.000233972859148339 0.999766027140852 </TABLE>
</DEFINITION>

<DEFINITION>
	<FOR>v15</FOR>
	<GIVEN>v10</GIVEN>
	<TABLE>0.999908340971586 9.16590284142988e-05 6.74854906195168e-05 0.99993251450938 </TABLE>
</DEFINITION>

<DEFINITION>
	<FOR>v16</FOR>
	<GIVEN>v93</GIVEN>
	<TABLE>0.999969364622266 3.06353777342075e-05 0.000204164965291956 0.999795835034708 0.999899537874221 0.000100462125778581 2.92585873954005e-05 0.999970741412605 0.000276395798783858 0.999723604201216 0.999981520493772 1.84795062275936e-05 0.999960694913922 3.93050860781385e-05 0.999947039508527 5.29604914733609e-05 9.76371802382347e-05 0.999902362819762 0.999739718896408 0.000260281103591879 0.998993963782696 0.00100603621730382 0.000182681768359518 0.99981731823164 0.00344827586206897 0.996551724137931 0.0012987012987013 0.998701298701299 0.997607655502392 0.00239234449760766 0.0151515151515152 0.984848484848485 </TABLE>
</DEFINITION>

<DEFINITION>
	<FOR>v17</FOR>
	<GIVEN>v1</GIVEN>
	<TABLE>0.999541676851626 3.05548765582987e-05 3.05548765582987e-05 0.000397213395257883 7.8003120124805e-05 0.999765990639626 7.8003120124805e-05 7.8003120124805e-05 3.16095587305601e-05 3.16095587305601e-05 0.999905171323808 3.16095587305601e-05 </TABLE>
</DEFINITION>

<DEFINITION>
	<FOR>v18</FOR>
	<GIVEN>v5</GIVEN>
	<TABLE>0.999953388645474 4.66113545259625e-05 0.000233972859148339 0.999766027140852 </TABLE>
</DEFINITION>

<DEFINITION>
	<FOR>v19</FOR>
	<GIVEN>v52</GIVEN>
	<GIVEN>v1</GIVEN>
	<TABLE>0.320630833601545 0.106883075083912 0.0186583291185802 0.0523702239183411 0.146333164743207 0.0609775162076417 0.0358729136971815 0.0710193572118258 0.129118580164605 0.0380247367695066 0.0193756034760219 9.19582509540669e-06 0.000726470182537128 0.635328982055524 0.273712342963111 1.81808265003727e-05 0.00285438976055852 0.00569059869461666 0.0439794193044016 0.00285438976055852 0.00285438976055852 0.0283802701670818 0.00427249422758759 1.81808265003727e-05 1.81808265003727e-05 1.81808265003727e-05 0.555254933059663 0.159378644399869 0.00583103979101553 0.0116527499183654 0.0480384382143024 0.0953398329990204 0.010197322386528 0.0225684564071465 0.0749638475532957 0.010197322386528 0.00655875355693427 9.32966366562485e-06 9.32966366562485e-06 0.262542433188764 0.160529681594815 0.0120111167742122 0.0502658986219431 0.166530431688576 0.0600171175243059 0.025512804485176 0.0615173050477463 0.127525556079125 0.0472655235750623 0.025512804485176 0.000759710348408936 9.6165866887207e-06 0.360751226744802 0.18177004271543 3.53020086842941e-05 0.00829597204080912 0.060613548910933 0.352490556712677 0.00829597204080912 0.00829597204080912 0.00829597204080912 0.00554241536343418 0.00278885868605924 0.00278885868605924 3.53020086842941e-05 0.408830968318622 0.272557364726914 0.00317931111539985 0.0166482137959756 0.0681469593393534 0.0911233227356296 0.0111021950451503 0.024571097725726 0.0705238245182785 0.0190250789749007 0.0142713486170505 1.015754349968e-05 1.015754349968e-05 </TABLE>
</DEFINITION>

<DEFINITION>
	<FOR>v21</FOR>
	<GIVEN>v26</GIVEN>
	<GIVEN>v10</GIVEN>
	<TABLE>0.905516213194186 0.0944837868058144 0.999964460871419 3.55391285805672e-05 0.790108353722475 0.209891646277525 0.999332443257677 0.000667556742323097 </TABLE>
</DEFINITION>

<DEFINITION>
	<FOR>v23</FOR>
	<TABLE>7.77363184079602e-05 0.999922263681592 </TABLE>
</DEFINITION>

<DEFINITION>
	<FOR>v24</FOR>
	<GIVEN>v1</GIVEN>
	<TABLE>0.989635785871425 2.4443901246639e-05 2.4443901246639e-05 0.010290882424835 2.4443901246639e-05 6.2402496099844e-05 0.997878315132605 6.2402496099844e-05 6.2402496099844e-05 0.00193447737909516 2.52876469844481e-05 2.52876469844481e-05 0.999898849412062 2.52876469844481e-05 2.52876469844481e-05 </TABLE>
</DEFINITION>

<DEFINITION>
	<FOR>v25</FOR>
	<GIVEN>v1</GIVEN>
	<TABLE>0.857675384991445 0.142324615008555 0.99984399375975 0.00015600624024961 0.951005183967632 0.0489948160323682 </TABLE>
</DEFINITION>

<DEFINITION>
	<FOR>v26</FOR>
	<GIVEN>v25</GIVEN>
	<GIVEN>v1</GIVEN>
	<TABLE>0.775097969362309 0.224902030637692 0.999921984709003 7.80152909970354e-05 0.93774513062554 0.0622548693744599 0.512881064834693 0.487118935165307 0.5 0.5 0.759354838709677 0.240645161290323 </TABLE>
</DEFINITION>

<DEFINITION>
	<FOR>v27</FOR>
	<GIVEN>v93</GIVEN>
	<TABLE>0.999959152829688 2.04235851561383e-05 2.04235851561383e-05 0.000136109976861304 0.999727780046277 0.000136109976861304 0.999866050498962 6.69747505190543e-05 6.69747505190543e-05 0.999960988550139 1.9505724930267e-05 1.9505724930267e-05 0.000184263865855906 0.999631472268288 0.000184263865855906 0.999975360658363 1.23196708183957e-05 1.23196708183957e-05 0.999947593218563 2.6203390718759e-05 2.6203390718759e-05 0.999929386011369 3.53069943155739e-05 3.53069943155739e-05 6.50914534921565e-05 0.999869817093016 6.50914534921565e-05 0.999652958528544 0.000173520735727919 0.000173520735727919 0.998658618376928 0.000670690811535882 0.000670690811535882 0.000121787845573012 0.000121787845573012 0.999756424308854 0.00229885057471264 0.00229885057471264 0.995402298850575 0.000865800865800866 0.000865800865800866 0.998268398268398 0.996810207336523 0.00159489633173844 0.00159489633173844 0.0101010101010101 0.97979797979798 0.0101010101010101 </TABLE>
</DEFINITION>

<DEFINITION>
	<FOR>v28</FOR>
	<GIVEN>v1</GIVEN>
	<TABLE>0.999918520329178 4.07398354110649e-05 4.07398354110649e-05 0.000104004160166407 0.999791991679667 0.000104004160166407 0.182871833775867 4.21460783074135e-05 0.817086020145825 </TABLE>
</DEFINITION>

<DEFINITION>
	<FOR>v29</FOR>
	<TABLE>7.77363184079602e-05 0.999922263681592 </TABLE>
</DEFINITION>

<DEFINITION>
	<FOR>v30</FOR>
	<TABLE>7.77363184079602e-05 0.999922263681592 </TABLE>
</DEFINITION>

<DEFINITION>
	<FOR>v31</FOR>
	<GIVEN>v10</GIVEN>
	<TABLE>0.999908340971586 9.16590284142988e-05 6.74854906195168e-05 0.99993251450938 </TABLE>
</DEFINITION>

<DEFINITION>
	<FOR>v32</FOR>
	<GIVEN>v28</GIVEN>
	<TABLE>0.999948068134607 5.19318653926049e-05 0.00015600624024961 0.99984399375975 7.73634535045645e-05 0.999922636546495 </TABLE>
</DEFINITION>

<DEFINITION>
	<FOR>v33</FOR>
	<GIVEN>v26</GIVEN>
	<GIVEN>v10</GIVEN>
	<TABLE>0.951236178407256 0.0487638215927444 0.999964460871419 3.55391285805672e-05 0.872596994058022 0.127403005941978 0.999332443257677 0.000667556742323097 </TABLE>
</DEFINITION>

<DEFINITION>
	<FOR>v34</FOR>
	<TABLE>7.77363184079602e-05 0.999922263681592 </TABLE>
</DEFINITION>

<DEFINITION>
	<FOR>v35</FOR>
	<GIVEN>v10</GIVEN>
	<TABLE>0.999908340971586 9.16590284142988e-05 6.74854906195168e-05 0.99993251450938 </TABLE>
</DEFINITION>

<DEFINITION>
	<FOR>v36</FOR>
	<GIVEN>v93</GIVEN>
	<TABLE>0.999959152829688 2.04235851561383e-05 2.04235851561383e-05 0.000136109976861304 0.999727780046277 0.000136109976861304 6.69747505190543e-05 0.999866050498962 6.69747505190543e-05 0.999960988550139 1.9505724930267e-05 1.9505724930267e-05 0.000184263865855906 0.999631472268288 0.000184263865855906 0.999975360658363 1.23196708183957e-05 1.23196708183957e-05 0.998689830464062 2.6203390718759e-05 0.00128396614521919 0.999929386011369 3.53069943155739e-05 3.53069943155739e-05 6.50914534921565e-05 0.999869817093016 6.50914534921565e-05 0.000173520735727919 0.999652958528544 0.000173520735727919 0.000670690811535882 0.998658618376928 0.000670690811535882 0.000121787845573012 0.999756424308854 0.000121787845573012 0.00229885057471264 0.995402298850575 0.00229885057471264 0.000865800865800866 0.998268398268398 0.000865800865800866 0.00159489633173844 0.996810207336523 0.00159489633173844 0.0101010101010101 0.97979797979798 0.0101010101010101 </TABLE>
</DEFINITION>

<DEFINITION>
	<FOR>v37</FOR>
	<GIVEN>v10</GIVEN>
	<TABLE>0.999908340971586 9.16590284142988e-05 6.74854906195168e-05 0.99993251450938 </TABLE>
</DEFINITION>

<DEFINITION>
	<FOR>v38</FOR>
	<GIVEN>v32</GIVEN>
	<GIVEN>v7</GIVEN>
	<TABLE>0.943758395077776 0.0538584860695871 0.0023831188526366 2.88275822306783e-05 0.608694398800773 0.391276773616997 0.333333333333333 0.333333333333333 0.333333333333333 0.954564550008079 0.0442397802552916 0.0011956697366295 0.000127665007021575 0.815907059874888 0.18396527511809 0.999895979612004 5.20101939980236e-05 5.20101939980236e-05 </TABLE>
</DEFINITION>

<DEFINITION>
	<FOR>v39</FOR>
	<GIVEN>v10</GIVEN>
	<TABLE>0.999908340971586 9.16590284142988e-05 6.74854906195168e-05 0.99993251450938 </TABLE>
</DEFINITION>

<DEFINITION>
	<FOR>v40</FOR>
	<TABLE>7.77363184079602e-05 0.999922263681592 </TABLE>
</DEFINITION>

<DEFINITION>
	<FOR>v41</FOR>
	<GIVEN>v5</GIVEN>
	<TABLE>0.999953388645474 4.66113545259625e-05 0.000233972859148339 0.999766027140852 </TABLE>
</DEFINITION>

<DEFINITION>
	<FOR>v42</FOR>
	<GIVEN>v3</GIVEN>
	<TABLE>0.999956959628131 4.30403718688129e-05 0.000400962309542903 0.999599037690457 </TABLE>
</DEFINITION>

<DEFINITION>
	<FOR>v43</FOR>
	<GIVEN>v16</GIVEN>
	<TABLE>0.999945313354479 5.46866455211637e-05 0.00013437248051599 0.999865627519484 </TABLE>
</DEFINITION>

<DEFINITION>
	<FOR>v44</FOR>
	<GIVEN>v7</GIVEN>
	<TABLE>0.951632607729898 0.0483673922701022 0.895371807534923 0.104628192465077 0.00015600624024961 0.99984399375975 </TABLE>
</DEFINITION>

<DEFINITION>
	<FOR>v45</FOR>
	<TABLE>7.77363184079602e-05 0.999922263681592 </TABLE>
</DEFINITION>

<DEFINITION>
	<FOR>v46</FOR>
	<GIVEN>v2</GIVEN>
	<TABLE>0.999880614833607 2.98462915982689e-05 2.98462915982689e-05 2.98462915982689e-05 2.98462915982689e-05 2.34027615258601e-05 0.999906388953896 2.34027615258601e-05 2.34027615258601e-05 2.34027615258601e-05 7.03977472720873e-05 7.03977472720873e-05 0.999718409010912 7.03977472720873e-05 7.03977472720873e-05 1.44969556393157e-05 1.44969556393157e-05 1.44969556393157e-05 0.999942012177443 1.44969556393157e-05 0.00072463768115942 0.00072463768115942 0.00072463768115942 0.00072463768115942 0.997101449275362 </TABLE>
</DEFINITION>

<DEFINITION>
	<FOR>v93</FOR>
	<GIVEN>v2</GIVEN>
	<TABLE>0.761089762721982 9.32696612445904e-06 9.32696612445904e-06 9.32696612445904e-06 9.32696612445904e-06 9.32696612445904e-06 9.32696612445904e-06 9.32696612445904e-06 0.238779659752276 9.32696612445904e-06 9.32696612445904e-06 9.32696612445904e-06 9.32696612445904e-06 9.32696612445904e-06 9.32696612445904e-06 9.32696612445904e-06 7.31336297683127e-06 0.0895228761993915 7.31336297683127e-06 7.31336297683127e-06 7.31336297683127e-06 7.31336297683127e-06 0.465137198689445 0.345198045869413 7.31336297683127e-06 7.31336297683127e-06 7.31336297683127e-06 0.100054118886029 7.31336297683127e-06 7.31336297683127e-06 7.31336297683127e-06 7.31336297683127e-06 2.19992960225273e-05 2.19992960225273e-05 0.547364484336501 2.19992960225273e-05 0.198895635339669 2.19992960225273e-05 2.19992960225273e-05 2.19992960225273e-05 2.19992960225273e-05 0.211215241112284 2.19992960225273e-05 2.19992960225273e-05 2.19992960225273e-05 0.0422606476592749 2.19992960225273e-05 2.19992960225273e-05 4.53029863728617e-06 4.53029863728617e-06 4.53029863728617e-06 0.387073245868368 4.53029863728617e-06 0.61286332995071 4.53029863728617e-06 4.53029863728617e-06 4.53029863728617e-06 4.53029863728617e-06 4.53029863728617e-06 4.53029863728617e-06 4.53029863728617e-06 4.53029863728617e-06 4.53029863728617e-06 4.53029863728617e-06 0.000226449275362319 0.000226449275362319 0.000226449275362319 0.000226449275362319 0.000226449275362319 0.000226449275362319 0.000226449275362319 0.000226449275362319 0.000226449275362319 0.000226449275362319 0.561820652173913 0.000226449275362319 0.163269927536232 0.000226449275362319 0.235733695652174 0.0364583333333333 </TABLE>
</DEFINITION>

<DEFINITION>
	<FOR>v51</FOR>
	<GIVEN>v5</GIVEN>
	<TABLE>0.143586277617228 0.340472639134893 0.30784469096672 0.20809639228116 0.0487833411324286 0.321127749181095 0.212564342536266 0.417524567150211 </TABLE>
</DEFINITION>

<DEFINITION>
	<FOR>v52</FOR>
	<GIVEN>v51</GIVEN>
	<TABLE>0.726208574034661 0.273791425965339 0.60579693442434 0.39420306557566 6.65513110608279e-05 0.999933448688939 0.999919987197952 8.00128020483277e-05 </TABLE>
</DEFINITION>

<DEFINITION>
	<FOR>v53</FOR>
	<GIVEN>v52</GIVEN>
	<TABLE>0.999928026486253 7.19735137469411e-05 8.45022815616022e-05 0.999915497718438 </TABLE>
</DEFINITION>

</NETWORK>
</BIF>
