<?xml version="1.0" encoding="UTF-8"?>

<!-- DTD for the XMLBIF 0.3 format -->
<!DOCTYPE BIF [
<!ELEMENT BIF ( NETWORK )*>
<!ATTLIST BIF VERSION CDATA #REQUIRED>
   <!ELEMENT NETWORK ( NAME, ( PROPERTY | VARIABLE | DEFINITION )* )>
      <!ELEMENT NAME (#PCDATA)>
        <!ELEMENT VARIABLE ( NAME, ( OUTCOME |  PROPERTY )* ) >
          <!ATTLIST VARIABLE TYPE (nature|decision|utility) "nature">
           <!ELEMENT OUTCOME (#PCDATA)>
            <!ELEMENT DEFINITION ( FOR | GIVEN | TABLE | PROPERTY )* >
              <!ELEMENT FOR (#PCDATA)>
                <!ELEMENT GIVEN (#PCDATA)>
                  <!ELEMENT TABLE (#PCDATA)>
                    <!ELEMENT PROPERTY (#PCDATA)>
                      ]>
<BIF VERSION="0.3">
<NETWORK>
<NAME>Reco</NAME>
<VARIABLE TYPE="nature">
	<NAME>V1</NAME>
	<OUTCOME>f</OUTCOME>
	<OUTCOME>t</OUTCOME>
</VARIABLE>

<VARIABLE TYPE="nature">
	<NAME>V2</NAME>
	<OUTCOME>f</OUTCOME>
	<OUTCOME>t</OUTCOME>
</VARIABLE>

<VARIABLE TYPE="nature">
	<NAME>V3</NAME>
	<OUTCOME>f</OUTCOME>
	<OUTCOME>t</OUTCOME>
</VARIABLE>

<VARIABLE TYPE="nature">
	<NAME>V4</NAME>
	<OUTCOME>f</OUTCOME>
	<OUTCOME>t</OUTCOME>
</VARIABLE>

<VARIABLE TYPE="nature">
	<NAME>V5</NAME>
	<OUTCOME>f</OUTCOME>
	<OUTCOME>t</OUTCOME>
</VARIABLE>

<VARIABLE TYPE="nature">
	<NAME>V6</NAME>
	<OUTCOME>f</OUTCOME>
	<OUTCOME>t</OUTCOME>
</VARIABLE>

<VARIABLE TYPE="nature">
	<NAME>V7</NAME>
	<OUTCOME>f</OUTCOME>
	<OUTCOME>t</OUTCOME>
</VARIABLE>

<VARIABLE TYPE="nature">
	<NAME>V8</NAME>
	<OUTCOME>f</OUTCOME>
	<OUTCOME>t</OUTCOME>
</VARIABLE>

<VARIABLE TYPE="nature">
	<NAME>V9</NAME>
	<OUTCOME>f</OUTCOME>
	<OUTCOME>t</OUTCOME>
</VARIABLE>

<VARIABLE TYPE="nature">
	<NAME>V10</NAME>
	<OUTCOME>f</OUTCOME>
	<OUTCOME>t</OUTCOME>
</VARIABLE>

<VARIABLE TYPE="nature">
	<NAME>V11</NAME>
	<OUTCOME>f</OUTCOME>
	<OUTCOME>t</OUTCOME>
</VARIABLE>

<VARIABLE TYPE="nature">
	<NAME>V12</NAME>
	<OUTCOME>f</OUTCOME>
	<OUTCOME>t</OUTCOME>
</VARIABLE>

<VARIABLE TYPE="nature">
	<NAME>V13</NAME>
	<OUTCOME>l</OUTCOME>
	<OUTCOME>g</OUTCOME>
</VARIABLE>

<VARIABLE TYPE="nature">
	<NAME>V14</NAME>
	<OUTCOME>f</OUTCOME>
	<OUTCOME>t</OUTCOME>
</VARIABLE>

<VARIABLE TYPE="nature">
	<NAME>V15</NAME>
	<OUTCOME>n</OUTCOME>
	<OUTCOME>b</OUTCOME>
	<OUTCOME>w</OUTCOME>
</VARIABLE>

<VARIABLE TYPE="nature">
	<NAME>V16</NAME>
	<OUTCOME>f</OUTCOME>
	<OUTCOME>t</OUTCOME>
</VARIABLE>

<VARIABLE TYPE="nature">
	<NAME>V17</NAME>
	<OUTCOME>f</OUTCOME>
	<OUTCOME>t</OUTCOME>
</VARIABLE>

<VARIABLE TYPE="nature">
	<NAME>V18</NAME>
	<OUTCOME>f</OUTCOME>
	<OUTCOME>t</OUTCOME>
</VARIABLE>

<VARIABLE TYPE="nature">
	<NAME>V19</NAME>
	<OUTCOME>f</OUTCOME>
	<OUTCOME>t</OUTCOME>
</VARIABLE>

<VARIABLE TYPE="nature">
	<NAME>V20</NAME>
	<OUTCOME>f</OUTCOME>
	<OUTCOME>t</OUTCOME>
</VARIABLE>

<VARIABLE TYPE="nature">
	<NAME>V21</NAME>
	<OUTCOME>t</OUTCOME>
	<OUTCOME>f</OUTCOME>
</VARIABLE>

<VARIABLE TYPE="nature">
	<NAME>V22</NAME>
	<OUTCOME>f</OUTCOME>
	<OUTCOME>t</OUTCOME>
</VARIABLE>

<VARIABLE TYPE="nature">
	<NAME>V23</NAME>
	<OUTCOME>f</OUTCOME>
	<OUTCOME>t</OUTCOME>
</VARIABLE>

<VARIABLE TYPE="nature">
	<NAME>V24</NAME>
	<OUTCOME>t</OUTCOME>
	<OUTCOME>f</OUTCOME>
</VARIABLE>

<VARIABLE TYPE="nature">
	<NAME>V25</NAME>
	<OUTCOME>f</OUTCOME>
	<OUTCOME>t</OUTCOME>
</VARIABLE>

<VARIABLE TYPE="nature">
	<NAME>V26</NAME>
	<OUTCOME>f</OUTCOME>
	<OUTCOME>t</OUTCOME>
</VARIABLE>

<VARIABLE TYPE="nature">
	<NAME>V27</NAME>
	<OUTCOME>f</OUTCOME>
	<OUTCOME>t</OUTCOME>
</VARIABLE>

<VARIABLE TYPE="nature">
	<NAME>V28</NAME>
	<OUTCOME>999</OUTCOME>
	<OUTCOME>f</OUTCOME>
</VARIABLE>

<VARIABLE TYPE="nature">
	<NAME>V29</NAME>
	<OUTCOME>f</OUTCOME>
	<OUTCOME>t</OUTCOME>
</VARIABLE>

<VARIABLE TYPE="nature">
	<NAME>V30</NAME>
	<OUTCOME>t</OUTCOME>
	<OUTCOME>f</OUTCOME>
</VARIABLE>

<VARIABLE TYPE="nature">
	<NAME>V31</NAME>
	<OUTCOME>f</OUTCOME>
	<OUTCOME>t</OUTCOME>
</VARIABLE>

<VARIABLE TYPE="nature">
	<NAME>V32</NAME>
	<OUTCOME>f</OUTCOME>
	<OUTCOME>t</OUTCOME>
</VARIABLE>

<VARIABLE TYPE="nature">
	<NAME>V33</NAME>
	<OUTCOME>f</OUTCOME>
	<OUTCOME>t</OUTCOME>
</VARIABLE>

<VARIABLE TYPE="nature">
	<NAME>V34</NAME>
	<OUTCOME>f</OUTCOME>
	<OUTCOME>t</OUTCOME>
</VARIABLE>

<VARIABLE TYPE="nature">
	<NAME>V35</NAME>
	<OUTCOME>t</OUTCOME>
	<OUTCOME>f</OUTCOME>
</VARIABLE>

<VARIABLE TYPE="nature">
	<NAME>V36</NAME>
	<OUTCOME>n</OUTCOME>
	<OUTCOME>t</OUTCOME>
</VARIABLE>

<VARIABLE TYPE="nature">
	<NAME>V37</NAME>
	<OUTCOME>won</OUTCOME>
	<OUTCOME>nowin</OUTCOME>
</VARIABLE>

<DEFINITION>
	<FOR>V1</FOR>
	<GIVEN>V31</GIVEN>
	<GIVEN>V21</GIVEN>
	<TABLE>0.999384993849939 0.000615006150061501 0.872313956118525 0.127686043881475 0.947284345047923 0.0527156549520767 0.81095406360424 0.18904593639576 </TABLE>
</DEFINITION>

<DEFINITION>
	<FOR>V2</FOR>
	<GIVEN>V34</GIVEN>
	<GIVEN>V18</GIVEN>
	<GIVEN>V7</GIVEN>
	<TABLE>0.716428922774225 0.283571077225775 0.999508357915438 0.000491642084562439 0.752569750367107 0.247430249632893 0.999475341028332 0.000524658971668416 0.728043143297381 0.271956856702619 0.996732026143791 0.00326797385620915 0.98780487804878 0.0121951219512195 0.999812944257389 0.000187055742611298 </TABLE>
</DEFINITION>

<DEFINITION>
	<FOR>V3</FOR>
	<GIVEN>V34</GIVEN>
	<GIVEN>V18</GIVEN>
	<GIVEN>V7</GIVEN>
	<TABLE>0.991883915395967 0.00811608460403345 0.857915437561455 0.142084562438545 0.799559471365639 0.200440528634361 0.856768100734523 0.143231899265477 0.999229583975347 0.000770416024653313 0.996732026143791 0.00326797385620915 0.999892078566803 0.000107921433196633 0.969884025439581 0.030115974560419 </TABLE>
</DEFINITION>

<DEFINITION>
	<FOR>V4</FOR>
	<GIVEN>V34</GIVEN>
	<GIVEN>V27</GIVEN>
	<GIVEN>V6</GIVEN>
	<TABLE>0.874346793349169 0.125653206650831 0.791075514874142 0.208924485125858 0.917910447761194 0.082089552238806 0.33419689119171 0.66580310880829 0.984961529494055 0.0150384705059454 0.933054995680968 0.0669450043190325 0.99811320754717 0.00188679245283019 0.5 0.5 </TABLE>
</DEFINITION>

<DEFINITION>
	<FOR>V5</FOR>
	<GIVEN>V23</GIVEN>
	<GIVEN>V7</GIVEN>
	<TABLE>0.787000264760392 0.212999735239608 0.398980948161276 0.601019051838724 0.997737556561086 0.00226244343891403 0.99645390070922 0.00354609929078014 </TABLE>
</DEFINITION>

<DEFINITION>
	<FOR>V6</FOR>
	<GIVEN>V35</GIVEN>
	<GIVEN>V32</GIVEN>
	<TABLE>0.480312433126471 0.519687566873529 0.5 0.5 0.613750899928006 0.386249100071994 0.998498498498498 0.0015015015015015 </TABLE>
</DEFINITION>

<DEFINITION>
	<FOR>V7</FOR>
	<TABLE>0.625078173858662 0.374921826141338 </TABLE>
</DEFINITION>

<DEFINITION>
	<FOR>V8</FOR>
	<GIVEN>V10</GIVEN>
	<GIVEN>V7</GIVEN>
	<GIVEN>V6</GIVEN>
	<TABLE>0.999853672812409 0.000146327187591454 0.99979381443299 0.000206185567010309 0.459493670886076 0.540506329113924 0.641592920353982 0.358407079646018 0.999553969669938 0.000446030330062444 0.71297192642788 0.28702807357212 0.190413368513632 0.809586631486368 0.666365280289331 0.333634719710669 </TABLE>
</DEFINITION>

<DEFINITION>
	<FOR>V9</FOR>
	<GIVEN>V22</GIVEN>
	<GIVEN>V8</GIVEN>
	<TABLE>0.999873769250189 0.000126230749810654 0.000442869796279894 0.99955713020372 0.000467726847521048 0.999532273152479 0.00210970464135021 0.99789029535865 </TABLE>
</DEFINITION>

<DEFINITION>
	<FOR>V10</FOR>
	<GIVEN>V31</GIVEN>
	<GIVEN>V30</GIVEN>
	<TABLE>0.962222222222222 0.0377777777777778 0.661309642643242 0.338690357356758 0.991803278688525 0.00819672131147541 0.803360581289737 0.196639418710263 </TABLE>
</DEFINITION>

<DEFINITION>
	<FOR>V11</FOR>
	<GIVEN>V31</GIVEN>
	<GIVEN>V20</GIVEN>
	<GIVEN>V1</GIVEN>
	<TABLE>0.757410120590556 0.242589879409444 0.126352015732547 0.873647984267453 0.276344086021505 0.723655913978495 0.216814159292035 0.783185840707965 0.0727155727155727 0.927284427284427 0.134854771784232 0.865145228215768 0.0741827326068734 0.925817267393127 0.00442477876106195 0.995575221238938 </TABLE>
</DEFINITION>

<DEFINITION>
	<FOR>V12</FOR>
	<GIVEN>V31</GIVEN>
	<GIVEN>V23</GIVEN>
	<GIVEN>V5</GIVEN>
	<TABLE>0.817151016294305 0.182848983705695 0.993725992317542 0.00627400768245839 0.618226600985222 0.381773399014778 0.5 0.5 0.977412158393754 0.0225878416062465 0.998800959232614 0.00119904076738609 0.570796460176991 0.429203539823009 0.5 0.5 </TABLE>
</DEFINITION>

<DEFINITION>
	<FOR>V13</FOR>
	<GIVEN>V31</GIVEN>
	<GIVEN>V20</GIVEN>
	<TABLE>0.605965621840243 0.394034378159757 0.901384083044983 0.0986159169550173 0.991159135559921 0.00884086444007859 0.999234303215927 0.000765696784073507 </TABLE>
</DEFINITION>

<DEFINITION>
	<FOR>V14</FOR>
	<GIVEN>V16</GIVEN>
	<GIVEN>V1</GIVEN>
	<TABLE>0.999907424551009 9.25754489909276e-05 0.993313521545319 0.00668647845468053 0.99802371541502 0.00197628458498024 0.528985507246377 0.471014492753623 </TABLE>
</DEFINITION>

<DEFINITION>
	<FOR>V15</FOR>
	<GIVEN>V35</GIVEN>
	<GIVEN>V13</GIVEN>
	<GIVEN>V11</GIVEN>
	<TABLE>0.999832369457715 8.38152711424021e-05 8.38152711424021e-05 0.451553316540722 0.141225860621327 0.407220822837951 0.999737222441204 0.000131388779398239 0.000131388779398239 0.678837848449156 0.320769532783667 0.000392618767177071 0.531857813547954 0.274312541918176 0.19382964453387 0.662023357253412 0.0474180385535388 0.290558604193049 0.759368836291913 0.143984220907298 0.0966469428007889 0.861450692746536 0.137734311328443 0.000814995925020375 </TABLE>
</DEFINITION>

<DEFINITION>
	<FOR>V16</FOR>
	<GIVEN>V37</GIVEN>
	<GIVEN>V34</GIVEN>
	<GIVEN>V18</GIVEN>
	<GIVEN>V2</GIVEN>
	<TABLE>0.9998274076631 0.000172592336900242 0.690193164933135 0.309806835066865 0.999560246262093 0.000439753737906772 0.99740932642487 0.00259067357512953 0.999504459861249 0.000495540138751239 0.996551724137931 0.00344827586206897 0.999930565199278 6.94348007221219e-05 0.5 0.5 0.929477794045876 0.070522205954124 0.932432432432432 0.0675675675675676 0.705242610150586 0.294757389849414 0.113793103448276 0.886206896551724 0.99792531120332 0.0020746887966805 0.614832535885168 0.385167464114833 0.993353432917637 0.00664656708236261 0.00442477876106195 0.995575221238938 </TABLE>
</DEFINITION>

<DEFINITION>
	<FOR>V17</FOR>
	<GIVEN>V35</GIVEN>
	<GIVEN>V23</GIVEN>
	<TABLE>0.988231338264963 0.011768661735037 0.34037558685446 0.65962441314554 0.997139224411952 0.00286077558804832 0.996644295302013 0.00335570469798658 </TABLE>
</DEFINITION>

<DEFINITION>
	<FOR>V18</FOR>
	<GIVEN>V13</GIVEN>
	<GIVEN>V5</GIVEN>
	<TABLE>0.394290375203915 0.605709624796085 0.462935507783543 0.537064492216457 0.0175363558597092 0.982463644140291 0.0891758917589176 0.910824108241082 </TABLE>
</DEFINITION>

<DEFINITION>
	<FOR>V19</FOR>
	<GIVEN>V31</GIVEN>
	<GIVEN>V30</GIVEN>
	<TABLE>0.997777777777778 0.00222222222222222 0.999900179676582 9.98203234178479e-05 0.729508196721312 0.270491803278689 0.988646684831971 0.0113533151680291 </TABLE>
</DEFINITION>

<DEFINITION>
	<FOR>V20</FOR>
	<GIVEN>V5</GIVEN>
	<TABLE>0.821209258384506 0.178790741615494 0.914431082331175 0.0855689176688252 </TABLE>
</DEFINITION>

<DEFINITION>
	<FOR>V21</FOR>
	<GIVEN>V18</GIVEN>
	<GIVEN>V10</GIVEN>
	<GIVEN>V7</GIVEN>
	<TABLE>0.40320987654321 0.59679012345679 0.0270718232044199 0.97292817679558 0.366057838660578 0.633942161339422 0.0924528301886792 0.907547169811321 0.136363636363636 0.863636363636364 0.00749659245797365 0.992503407542026 0.299599198396794 0.700400801603206 0.112631578947368 0.887368421052632 </TABLE>
</DEFINITION>

<DEFINITION>
	<FOR>V22</FOR>
	<GIVEN>V34</GIVEN>
	<GIVEN>V21</GIVEN>
	<GIVEN>V10</GIVEN>
	<GIVEN>V2</GIVEN>
	<TABLE>0.999512195121951 0.00048780487804878 0.0367483296213808 0.963251670378619 0.998054474708171 0.00194552529182879 0.989795918367347 0.0102040816326531 0.908113091579594 0.0918869084204057 0.999133448873484 0.000866551126516464 0.868943374197315 0.131056625802685 0.998800959232614 0.00119904076738609 0.379841897233202 0.620158102766798 0.970588235294118 0.0294117647058824 0.999641062455133 0.000358937544867193 0.989795918367347 0.0102040816326531 0.649225418906102 0.350774581093898 0.99740932642487 0.00259067357512953 0.999861149680644 0.000138850319355735 0.997607655502392 0.00239234449760766 </TABLE>
</DEFINITION>

<DEFINITION>
	<FOR>V23</FOR>
	<TABLE>0.943402126328956 0.0565978736710444 </TABLE>
</DEFINITION>

<DEFINITION>
	<FOR>V24</FOR>
	<GIVEN>V8</GIVEN>
	<GIVEN>V4</GIVEN>
	<GIVEN>V3</GIVEN>
	<TABLE>0.387254351487928 0.612745648512072 0.99867374005305 0.0013262599469496 0.299227799227799 0.700772200772201 0.5 0.5 0.154570509875976 0.845429490124024 0.996124031007752 0.00387596899224806 0.768585131894484 0.231414868105516 0.944444444444444 0.0555555555555556 </TABLE>
</DEFINITION>

<DEFINITION>
	<FOR>V25</FOR>
	<GIVEN>V35</GIVEN>
	<GIVEN>V27</GIVEN>
	<TABLE>0.999885662016922 0.000114337983077979 0.998338870431894 0.00166112956810631 0.990018148820327 0.00998185117967332 0.702898550724638 0.297101449275362 </TABLE>
</DEFINITION>

<DEFINITION>
	<FOR>V26</FOR>
	<GIVEN>V20</GIVEN>
	<GIVEN>V11</GIVEN>
	<GIVEN>V1</GIVEN>
	<TABLE>0.577320348236683 0.422679651763317 0.0031055900621118 0.996894409937888 0.000174034110685694 0.999825965889314 0.000455788514129444 0.999544211485871 0.00230414746543779 0.997695852534562 0.02 0.98 0.000346981263011797 0.999653018736988 0.00248756218905473 0.997512437810945 </TABLE>
</DEFINITION>

<DEFINITION>
	<FOR>V27</FOR>
	<GIVEN>V30</GIVEN>
	<GIVEN>V26</GIVEN>
	<GIVEN>V1</GIVEN>
	<TABLE>0.702764976958525 0.297235023041475 0.5 0.5 0.617216117216117 0.382783882783883 0.993827160493827 0.00617283950617284 0.919799837706248 0.0802001622937517 0.5 0.5 0.984201657070636 0.0157983429293639 0.885438972162741 0.114561027837259 </TABLE>
</DEFINITION>

<DEFINITION>
	<FOR>V28</FOR>
	<TABLE>0.000312695434646654 0.999687304565353 </TABLE>
</DEFINITION>

<DEFINITION>
	<FOR>V29</FOR>
	<GIVEN>V32</GIVEN>
	<GIVEN>V7</GIVEN>
	<TABLE>0.999869417602507 0.000130582397492818 0.999776085982983 0.000223914017017465 0.949704142011834 0.0502958579881657 0.463636363636364 0.536363636363636 </TABLE>
</DEFINITION>

<DEFINITION>
	<FOR>V30</FOR>
	<GIVEN>V18</GIVEN>
	<GIVEN>V7</GIVEN>
	<TABLE>0.140566741237882 0.859433258762118 0.0282051282051282 0.971794871794872 0.0287918705306737 0.971208129469326 0.00248207391064534 0.997517926089355 </TABLE>
</DEFINITION>

<DEFINITION>
	<FOR>V31</FOR>
	<GIVEN>V20</GIVEN>
	<GIVEN>V7</GIVEN>
	<TABLE>0.860906682366794 0.139093317633206 0.982255712202236 0.0177442877977637 0.153910149750416 0.846089850249584 0.57624633431085 0.42375366568915 </TABLE>
</DEFINITION>

<DEFINITION>
	<FOR>V32</FOR>
	<GIVEN>V35</GIVEN>
	<GIVEN>V11</GIVEN>
	<TABLE>0.999846484494934 0.000153515505066012 0.999647141848977 0.000352858151023289 0.0015015015015015 0.998498498498498 0.999640028797696 0.000359971202303816 </TABLE>
</DEFINITION>

<DEFINITION>
	<FOR>V33</FOR>
	<GIVEN>V27</GIVEN>
	<GIVEN>V15</GIVEN>
	<GIVEN>V10</GIVEN>
	<TABLE>0.590513313759239 0.409486686240761 0.54711014176663 0.45288985823337 0.999437570303712 0.000562429696287964 0.517191977077364 0.482808022922636 0.98573092603378 0.0142690739662202 0.236762481089259 0.763237518910741 0.143281807372176 0.856718192627824 0.168965517241379 0.831034482758621 0.00684931506849315 0.993150684931507 0.0384615384615385 0.961538461538461 0.02 0.98 0.0384615384615385 0.961538461538461 </TABLE>
</DEFINITION>

<DEFINITION>
	<FOR>V34</FOR>
	<GIVEN>V18</GIVEN>
	<GIVEN>V10</GIVEN>
	<GIVEN>V8</GIVEN>
	<GIVEN>V6</GIVEN>
	<TABLE>0.768266854924109 0.231733145075891 0.837695230054875 0.162304769945125 0.840983606557377 0.159016393442623 0.998583569405099 0.00141643059490085 0.585235920852359 0.414764079147641 0.606904231625835 0.393095768374165 0.967836257309941 0.0321637426900585 0.784444444444444 0.215555555555556 0.0441147573197092 0.955885242680291 0.275126390293225 0.724873609706775 0.0332650972364381 0.966734902763562 0.531219512195122 0.468780487804878 0.0399107585523054 0.960089241447695 0.0366269165247019 0.963373083475298 0.722723852520692 0.277276147479308 0.00067842605156038 0.99932157394844 </TABLE>
</DEFINITION>

<DEFINITION>
	<FOR>V35</FOR>
	<GIVEN>V31</GIVEN>
	<GIVEN>V20</GIVEN>
	<GIVEN>V11</GIVEN>
	<GIVEN>V1</GIVEN>
	<TABLE>0.969012722267688 0.0309872777323116 0.00194552529182879 0.998054474708171 0.620789779326365 0.379210220673635 0.549521665728756 0.450478334271244 0.00194552529182879 0.998054474708171 0.0102040816326531 0.989795918367347 0.286032689450223 0.713967310549777 0.454802259887006 0.545197740112994 0.00442477876106195 0.995575221238938 0.00769230769230769 0.992307692307692 0.377862595419847 0.622137404580153 0.461630695443645 0.538369304556355 0.00282485875706215 0.997175141242938 0.5 0.5 0.427569035762789 0.572430964237211 0.286666666666667 0.713333333333333 </TABLE>
</DEFINITION>

<DEFINITION>
	<FOR>V36</FOR>
	<GIVEN>V35</GIVEN>
	<GIVEN>V27</GIVEN>
	<GIVEN>V11</GIVEN>
	<TABLE>0.554957788445622 0.445042211554378 0.999815157116451 0.000184842883548983 0.00105708245243129 0.998942917547569 0.996124031007752 0.00387596899224806 0.999248120300752 0.00075187969924812 0.999810677773571 0.000189322226429383 0.5 0.5 0.996350364963504 0.00364963503649635 </TABLE>
</DEFINITION>

<DEFINITION>
	<FOR>V37</FOR>
	<GIVEN>V33</GIVEN>
	<GIVEN>V32</GIVEN>
	<GIVEN>V21</GIVEN>
	<GIVEN>V10</GIVEN>
	<TABLE>0.999540863177227 0.000459136822773186 0.999421965317919 0.000578034682080925 0.891710512187265 0.108289487812735 0.00017749378771743 0.999822506212283 0.992307692307692 0.00769230769230769 0.5 0.5 0.0180722891566265 0.981927710843373 0.00344827586206897 0.996551724137931 0.999687695190506 0.000312304809494066 0.999411071849234 0.000588928150765607 0.0880317524933849 0.911968247506615 0.000178507675830061 0.99982149232417 0.5 0.5 0.984848484848485 0.0151515151515152 0.5 0.5 0.00282485875706215 0.997175141242938 </TABLE>
</DEFINITION>

</NETWORK>
</BIF>
