<?xml version="1.0" encoding="UTF-8"?>

<!-- DTD for the XMLBIF 0.3 format -->
<!DOCTYPE BIF [
<!ELEMENT BIF ( NETWORK )*>
<!ATTLIST BIF VERSION CDATA #REQUIRED>
   <!ELEMENT NETWORK ( NAME, ( PROPERTY | VARIABLE | DEFINITION )* )>
      <!ELEMENT NAME (#PCDATA)>
        <!ELEMENT VARIABLE ( NAME, ( OUTCOME |  PROPERTY )* ) >
          <!ATTLIST VARIABLE TYPE (nature|decision|utility) "nature">
           <!ELEMENT OUTCOME (#PCDATA)>
            <!ELEMENT DEFINITION ( FOR | GIVEN | TABLE | PROPERTY )* >
              <!ELEMENT FOR (#PCDATA)>
                <!ELEMENT GIVEN (#PCDATA)>
                  <!ELEMENT TABLE (#PCDATA)>
                    <!ELEMENT PROPERTY (#PCDATA)>
                      ]>
<BIF VERSION="0.3">
<NETWORK>
<NAME>Reco</NAME>
<VARIABLE TYPE="nature">
	<NAME>GoodStudent</NAME>
	<OUTCOME>True</OUTCOME>
	<OUTCOME>False</OUTCOME>
</VARIABLE>

<VARIABLE TYPE="nature">
	<NAME>Age</NAME>
	<OUTCOME>Adult</OUTCOME>
	<OUTCOME>Senior</OUTCOME>
	<OUTCOME>Adolescent</OUTCOME>
</VARIABLE>

<VARIABLE TYPE="nature">
	<NAME>SocioEcon</NAME>
	<OUTCOME>Middle</OUTCOME>
	<OUTCOME>Prole</OUTCOME>
	<OUTCOME>UpperMiddle</OUTCOME>
</VARIABLE>

<VARIABLE TYPE="nature">
	<NAME>RiskAversion</NAME>
	<OUTCOME>Normal</OUTCOME>
	<OUTCOME>Psychopath</OUTCOME>
	<OUTCOME>Adventurous</OUTCOME>
</VARIABLE>

<VARIABLE TYPE="nature">
	<NAME>VehicleYear</NAME>
	<OUTCOME>Current</OUTCOME>
	<OUTCOME>Older</OUTCOME>
</VARIABLE>

<VARIABLE TYPE="nature">
	<NAME>ThisCarDam</NAME>
	<OUTCOME>Severe</OUTCOME>
	<OUTCOME>Mild</OUTCOME>
	<OUTCOME>None</OUTCOME>
	<OUTCOME>Moderate</OUTCOME>
</VARIABLE>

<VARIABLE TYPE="nature">
	<NAME>RuggedAuto</NAME>
	<OUTCOME>Tank</OUTCOME>
	<OUTCOME>EggShell</OUTCOME>
	<OUTCOME>Football</OUTCOME>
</VARIABLE>

<VARIABLE TYPE="nature">
	<NAME>Accident</NAME>
	<OUTCOME>None</OUTCOME>
	<OUTCOME>Mild</OUTCOME>
	<OUTCOME>Moderate</OUTCOME>
</VARIABLE>

<VARIABLE TYPE="nature">
	<NAME>MakeModel</NAME>
	<OUTCOME>FamilySedan</OUTCOME>
	<OUTCOME>Luxury</OUTCOME>
	<OUTCOME>SportsCar</OUTCOME>
	<OUTCOME>SuperLuxury</OUTCOME>
</VARIABLE>

<VARIABLE TYPE="nature">
	<NAME>DrivQuality</NAME>
	<OUTCOME>Normal</OUTCOME>
	<OUTCOME>Excellent</OUTCOME>
	<OUTCOME>Poor</OUTCOME>
</VARIABLE>

<VARIABLE TYPE="nature">
	<NAME>Mileage</NAME>
	<OUTCOME>FiveThou</OUTCOME>
	<OUTCOME>FiftyThou</OUTCOME>
	<OUTCOME>TwentyThou</OUTCOME>
	<OUTCOME>Domino</OUTCOME>
</VARIABLE>

<VARIABLE TYPE="nature">
	<NAME>Antilock</NAME>
	<OUTCOME>True</OUTCOME>
	<OUTCOME>False</OUTCOME>
</VARIABLE>

<VARIABLE TYPE="nature">
	<NAME>DrivingSkill</NAME>
	<OUTCOME>Normal</OUTCOME>
	<OUTCOME>Expert</OUTCOME>
	<OUTCOME>SubStandard</OUTCOME>
</VARIABLE>

<VARIABLE TYPE="nature">
	<NAME>SeniorTrain</NAME>
	<OUTCOME>True</OUTCOME>
	<OUTCOME>False</OUTCOME>
</VARIABLE>

<VARIABLE TYPE="nature">
	<NAME>ThisCarCost</NAME>
	<OUTCOME>Million</OUTCOME>
	<OUTCOME>HundredThou</OUTCOME>
	<OUTCOME>TenThou</OUTCOME>
	<OUTCOME>Thousand</OUTCOME>
</VARIABLE>

<VARIABLE TYPE="nature">
	<NAME>Theft</NAME>
	<OUTCOME>False</OUTCOME>
	<OUTCOME>True</OUTCOME>
</VARIABLE>

<VARIABLE TYPE="nature">
	<NAME>CarValue</NAME>
	<OUTCOME>FiftyThou</OUTCOME>
	<OUTCOME>FiveThou</OUTCOME>
	<OUTCOME>Million</OUTCOME>
	<OUTCOME>TenThou</OUTCOME>
	<OUTCOME>TwentyThou</OUTCOME>
</VARIABLE>

<VARIABLE TYPE="nature">
	<NAME>HomeBase</NAME>
	<OUTCOME>Rural</OUTCOME>
	<OUTCOME>Suburb</OUTCOME>
	<OUTCOME>City</OUTCOME>
	<OUTCOME>Secure</OUTCOME>
</VARIABLE>

<VARIABLE TYPE="nature">
	<NAME>AntiTheft</NAME>
	<OUTCOME>False</OUTCOME>
	<OUTCOME>True</OUTCOME>
</VARIABLE>

<VARIABLE TYPE="nature">
	<NAME>PropCost</NAME>
	<OUTCOME>Million</OUTCOME>
	<OUTCOME>HundredThou</OUTCOME>
	<OUTCOME>Thousand</OUTCOME>
	<OUTCOME>TenThou</OUTCOME>
</VARIABLE>

<VARIABLE TYPE="nature">
	<NAME>OtherCarCost</NAME>
	<OUTCOME>HundredThou</OUTCOME>
	<OUTCOME>Million</OUTCOME>
	<OUTCOME>Thousand</OUTCOME>
</VARIABLE>

<VARIABLE TYPE="nature">
	<NAME>OtherCar</NAME>
	<OUTCOME>False</OUTCOME>
	<OUTCOME>True</OUTCOME>
</VARIABLE>

<VARIABLE TYPE="nature">
	<NAME>MedCost</NAME>
	<OUTCOME>HundredThou</OUTCOME>
	<OUTCOME>Million</OUTCOME>
	<OUTCOME>Thousand</OUTCOME>
	<OUTCOME>TenThou</OUTCOME>
</VARIABLE>

<VARIABLE TYPE="nature">
	<NAME>Cushioning</NAME>
	<OUTCOME>Excellent</OUTCOME>
	<OUTCOME>Good</OUTCOME>
	<OUTCOME>Poor</OUTCOME>
</VARIABLE>

<VARIABLE TYPE="nature">
	<NAME>Airbag</NAME>
	<OUTCOME>False</OUTCOME>
	<OUTCOME>True</OUTCOME>
</VARIABLE>

<VARIABLE TYPE="nature">
	<NAME>ILiCost</NAME>
	<OUTCOME>TenThou</OUTCOME>
	<OUTCOME>Million</OUTCOME>
	<OUTCOME>Thousand</OUTCOME>
</VARIABLE>

<VARIABLE TYPE="nature">
	<NAME>DrivHist</NAME>
	<OUTCOME>Many</OUTCOME>
	<OUTCOME>One</OUTCOME>
	<OUTCOME>Zero</OUTCOME>
</VARIABLE>

<DEFINITION>
	<FOR>GoodStudent</FOR>
	<GIVEN>ThisCarDam</GIVEN>
	<GIVEN>SocioEcon</GIVEN>
	<TABLE>0.99995947150847 4.05284915295453e-05 0.5 0.5 0.999830680663732 0.000169319336268202 0.999979764458295 2.02355417054515e-05 0.5 0.5 0.999960358360422 3.9641639578213e-05 0.5 0.5 0.762133815551537 0.237866184448463 0.35014167278833 0.64985832721167 0.623554301833568 0.376445698166432 0.720856324649019 0.279143675350981 0.5 0.5 </TABLE>
</DEFINITION>

<DEFINITION>
	<FOR>Age</FOR>
	<GIVEN>SocioEcon</GIVEN>
	<GIVEN>GoodStudent</GIVEN>
	<TABLE>0.999972278819632 1.386059018393e-05 1.386059018393e-05 9.98901208670463e-05 0.494555988412746 0.505344121466387 0.999936075686387 3.19621568063413e-05 3.19621568063413e-05 9.14996797511209e-05 0.380547168084912 0.619361332235337 0.99992946072726 3.5269636370049e-05 3.5269636370049e-05 0.000107631040792164 0.707243569045313 0.292648799913895 </TABLE>
</DEFINITION>

<DEFINITION>
	<FOR>SocioEcon</FOR>
	<GIVEN>Airbag</GIVEN>
	<GIVEN>MakeModel</GIVEN>
	<GIVEN>RuggedAuto</GIVEN>
	<TABLE>0.781040066754352 0.150720579292008 0.0682393539536397 0.333333333333333 0.333333333333333 0.333333333333333 0.333333333333333 0.333333333333333 0.333333333333333 0.457206260536295 0.282460826452257 0.260332913011448 0.333333333333333 0.333333333333333 0.333333333333333 0.333333333333333 0.333333333333333 0.333333333333333 0.0231618575396552 0.0198563000711613 0.956981842389183 0.333333333333333 0.333333333333333 0.333333333333333 0.333333333333333 0.333333333333333 0.333333333333333 0.167816091954023 0.829885057471264 0.00229885057471264 0.333333333333333 0.333333333333333 0.333333333333333 0.333333333333333 0.333333333333333 0.333333333333333 0.817413802207086 0.167326680394952 0.0152595173979619 0.687006830539022 0.262816726490678 0.0501764429703 0.614461315979754 0.250036153289949 0.135502530730296 0.683414659506993 0.255616704915963 0.0609686355770445 0.197662725913847 0.581193096888164 0.221144177197989 0.227038997109935 0.591862778215666 0.181098224674399 0.000123961819759514 0.0358249659104996 0.964051072269741 0.045981403642848 0.0368105973761304 0.917207998981022 0.0362936945977588 0.0122093995651447 0.951496905837097 0.333333333333333 0.333333333333333 0.333333333333333 0.973333333333333 0.0133333333333333 0.0133333333333333 0.496598639455782 0.00680272108843537 0.496598639455782 </TABLE>
</DEFINITION>

<DEFINITION>
	<FOR>RiskAversion</FOR>
	<GIVEN>OtherCar</GIVEN>
	<GIVEN>AntiTheft</GIVEN>
	<GIVEN>HomeBase</GIVEN>
	<GIVEN>SocioEcon</GIVEN>
	<TABLE>0.518306240749072 0.458213519558172 0.0234802396927551 0.406585021555835 0.296707489222082 0.296707489222082 0.270897120329791 0.18156530787857 0.547537571791639 0.45944170771757 0.520243959652827 0.0203143326296036 0.742615710602231 0.246330193255214 0.0110540961425544 0.930799863921074 0.0547717676252226 0.0144283684537031 0.333333333333333 0.333333333333333 0.333333333333333 0.333333333333333 0.333333333333333 0.333333333333333 0.333333333333333 0.333333333333333 0.333333333333333 0.333333333333333 0.333333333333333 0.333333333333333 0.333333333333333 0.333333333333333 0.333333333333333 0.333333333333333 0.333333333333333 0.333333333333333 0.633899302907451 0.17149011894727 0.194610578145279 0.216092675948219 0.02013329146167 0.763774032590111 0.0301824906661084 0.0301824906661084 0.939635018667783 0.591340052258305 0.19357969391564 0.215080253826055 0.734207331876669 0.0350084972080602 0.230784170915271 0.666538115439002 0.0556626815786091 0.277799202982389 0.333333333333333 0.333333333333333 0.333333333333333 0.333333333333333 0.333333333333333 0.333333333333333 0.333333333333333 0.333333333333333 0.333333333333333 0.333333333333333 0.333333333333333 0.333333333333333 0.333333333333333 0.333333333333333 0.333333333333333 0.333333333333333 0.333333333333333 0.333333333333333 0.422024803754214 0.571801790226562 0.00617340601922383 0.494452558485151 0.42065749353012 0.0848899479847285 0.548682930047669 0.192406023718805 0.258911046233526 0.390464854856841 0.580903259935198 0.0286318852079614 0.674335997416647 0.302333091143941 0.0233309114394123 0.850782629880017 0.140386138010841 0.00883123210914185 0.993127147766323 0.00343642611683849 0.00343642611683849 0.242922605493239 0.748952798628096 0.0081245958786652 0.435285788198132 0.560765732647115 0.00394847915475315 0.402290594197693 0.597669499980047 3.99058222594677e-05 0.899296912528931 0.10065941744181 4.36700292589196e-05 0.981356477017036 0.0185792349726776 6.42880102860816e-05 0.949318515272826 0.0200827208933325 0.0305987638338412 0.562989853858326 0.00538024760309038 0.431629898538583 0.18967237319925 3.99058222594677e-05 0.810287720978491 0.948165439636081 0.0172981385048183 0.034536421859101 0.971838297320096 0.00940886379858543 0.0187528388813185 0.714002478314746 0.000247831474597274 0.285749690210657 0.986394557823129 0.00680272108843537 0.00680272108843537 0.976857393663714 7.98020908147793e-05 0.0230628042454712 0.759644740494033 0.0402442409103525 0.200111018595615 0.943670529010979 0.0125417697348436 0.043787701254177 0.999936586448524 3.17067757379752e-05 3.17067757379752e-05 0.841548010222709 0.000365096750638919 0.158086893026652 </TABLE>
</DEFINITION>

<DEFINITION>
	<FOR>VehicleYear</FOR>
	<TABLE>0.597989112320853 0.402010887679147 </TABLE>
</DEFINITION>

<DEFINITION>
	<FOR>ThisCarDam</FOR>
	<GIVEN>RuggedAuto</GIVEN>
	<GIVEN>SocioEcon</GIVEN>
	<TABLE>0.173915340720389 0.471188973762869 7.5480812777392e-06 0.354888137435464 1.78164196123147e-05 1.78164196123147e-05 0.40217003990878 0.597794327251995 0.104674729217888 0.510748222473254 0.384560435909363 1.66123994949831e-05 0.459941211938499 0.369045824540247 3.7684654808562e-05 0.170975278866446 5.12400081984013e-05 5.12400081984013e-05 0.691791350686616 0.308106169296987 0.158340480274443 0.501822469982847 0.339729845626072 0.000107204116638079 0.333270392749245 0.360460725075529 0.000188821752265861 0.306080060422961 0.000113791533909877 0.000113791533909877 0.614588074647246 0.385184342284934 0.187543372657876 0.418632893823733 0.393650242886884 0.000173490631505899 </TABLE>
</DEFINITION>

<DEFINITION>
	<FOR>RuggedAuto</FOR>
	<GIVEN>Theft</GIVEN>
	<GIVEN>MakeModel</GIVEN>
	<GIVEN>VehicleYear</GIVEN>
	<TABLE>0.999952762228678 2.36188856609745e-05 2.36188856609745e-05 0.999738048461035 0.000130975769482646 0.000130975769482646 0.99998493646956 7.53176521981457e-06 7.53176521981457e-06 0.999918150194393 4.09249028033558e-05 4.09249028033558e-05 0.999862059452376 6.8970273811987e-05 6.8970273811987e-05 0.998811645870469 0.0005941770647653 0.0005941770647653 0.97979797979798 0.0101010101010101 0.0101010101010101 0.333333333333333 0.333333333333333 0.333333333333333 0.999791731750495 0.000104134124752681 0.000104134124752681 0.00395337880743153 0.901636657858621 0.0944099633339478 0.999952654877731 2.36725611343891e-05 2.36725611343891e-05 0.472133807651501 0.306172377207764 0.221693815140735 0.999879597856842 6.02010715790741e-05 6.02010715790741e-05 0.150493042115934 0.48225969956686 0.367247258317206 0.98974358974359 0.00512820512820513 0.00512820512820513 0.00680272108843537 0.333333333333333 0.659863945578231 </TABLE>
</DEFINITION>

<DEFINITION>
	<FOR>Accident</FOR>
	<GIVEN>MedCost</GIVEN>
	<GIVEN>ThisCarDam</GIVEN>
	<TABLE>0.999752076360481 0.000123961819759514 0.000123961819759514 0.213374033809957 0.662364554883165 0.124261411306878 0.827144337204864 0.123071050766127 0.0497846120290092 0.610808961860783 0.110039336411835 0.279151701727382 5.67569101538112e-05 5.67569101538112e-05 0.999886486179692 3.06795520785397e-05 3.06795520785397e-05 0.999938640895843 3.88636275309937e-05 3.88636275309937e-05 0.999922272744938 2.43646906902517e-05 2.43646906902517e-05 0.99995127061862 0.99993781674595 3.10916270248422e-05 3.10916270248422e-05 0.569496874188587 0.430483152575549 1.99732358639423e-05 0.965060542038665 0.0349167404984211 2.27174629137418e-05 0.962890354264441 0.0370898433632349 1.98023723242044e-05 0.000301659125188537 0.000301659125188537 0.999396681749623 9.42418245217227e-05 0.628875695033456 0.371030063142022 0.00018758206715438 0.108234852748077 0.891577565184768 0.000135226504394861 0.0390804597701149 0.96078431372549 </TABLE>
</DEFINITION>

<DEFINITION>
	<FOR>MakeModel</FOR>
	<GIVEN>Airbag</GIVEN>
	<GIVEN>OtherCar</GIVEN>
	<GIVEN>CarValue</GIVEN>
	<TABLE>0.631828720475293 0.289849297203304 0.0782857556875815 3.62266338211853e-05 0.447882600742753 0.512180588659165 0.0399229532731002 1.38573249819855e-05 0.048393118485111 0.927697798751531 0.0239016158418207 7.46692153758848e-06 0.000195160031225605 0.015807962529274 0.968188914910227 0.015807962529274 0.000889679715302491 0.000889679715302491 0.997330960854093 0.000889679715302491 0.438257817485641 0.561635822165497 5.31801744309721e-05 5.31801744309721e-05 0.170435295929367 0.825432472665674 0.00411939838817309 1.2833016785586e-05 0.25 0.25 0.25 0.25 0.0218589673616417 0.0458738129025216 0.921324091256413 0.0109431284794236 0.25 0.25 0.25 0.25 0.241246839136355 0.731423847500486 0.0272806846916942 4.86286714646956e-05 0.12603305785124 0.826544667453758 0.0473238882329791 9.83864620228257e-05 6.75493109970278e-05 0.956565793028911 0.0432991083490948 6.75493109970278e-05 0.25 0.25 0.25 0.25 0.25 0.25 0.25 0.25 0.362356260127682 0.623186778860233 0.0136711505046758 0.000785810507409071 0.263983612187822 0.67220695746038 0.0637971640253177 1.22663264805456e-05 0.25 0.25 0.25 0.25 0.00547149419075925 6.75493109970278e-05 0.988989462307485 0.00547149419075925 0.25 0.25 0.25 0.25 </TABLE>
</DEFINITION>

<DEFINITION>
	<FOR>DrivQuality</FOR>
	<GIVEN>OtherCar</GIVEN>
	<GIVEN>DrivingSkill</GIVEN>
	<GIVEN>Accident</GIVEN>
	<TABLE>0.662345937120443 1.99111960655477e-05 0.337634151683492 0.999954725523486 2.26372382569327e-05 2.26372382569327e-05 0.571418678411656 1.38502236811125e-05 0.428567471364663 0.333333333333333 0.333333333333333 0.333333333333333 0.333333333333333 0.333333333333333 0.333333333333333 0.555450087011549 0.000158202816010125 0.444391710172441 0.131492647836666 0.000105786522796996 0.868401565640537 0.999463663180477 0.00026816840976133 0.00026816840976133 0.0493096646942801 0.000151722045213169 0.950538613260507 0.333333333333333 0.333333333333333 0.333333333333333 0.333333333333333 0.333333333333333 0.333333333333333 0.333333333333333 0.333333333333333 0.333333333333333 0.289058336407986 0.710935807110939 5.85648107478141e-06 0.812368370668198 0.187604277782336 2.73515494652772e-05 0.228503342051729 0.771485033420517 1.162452775356e-05 0.333333333333333 0.333333333333333 0.333333333333333 0.333333333333333 0.333333333333333 0.333333333333333 0.333333333333333 0.333333333333333 0.333333333333333 </TABLE>
</DEFINITION>

<DEFINITION>
	<FOR>Mileage</FOR>
	<GIVEN>HomeBase</GIVEN>
	<GIVEN>RuggedAuto</GIVEN>
	<TABLE>0.479233842427293 0.520758293093414 3.93223964641301e-06 3.93223964641301e-06 0.519711728313808 0.480222456232723 3.29077267342372e-05 3.29077267342372e-05 0.25 0.25 0.25 0.25 0.643501059048406 1.29152244666012e-05 0.356473110502661 1.29152244666012e-05 0.25 0.25 0.25 0.25 0.25 0.25 0.25 0.25 0.25 0.25 0.25 0.25 0.456534422403734 0.543348891481914 5.8343057176196e-05 5.8343057176196e-05 0.99975969240628 8.01025312399872e-05 8.01025312399872e-05 8.01025312399872e-05 0.25 0.25 0.25 0.25 0.35034970351224 0.375893264406264 3.80112513303938e-05 0.273719020830166 0.999785284855425 7.1571714858288e-05 7.1571714858288e-05 7.1571714858288e-05 </TABLE>
</DEFINITION>

<DEFINITION>
	<FOR>Antilock</FOR>
	<GIVEN>Airbag</GIVEN>
	<GIVEN>MakeModel</GIVEN>
	<GIVEN>Age</GIVEN>
	<TABLE>0.999975287896011 2.47121039885336e-05 0.964572680788897 0.035427319211103 0.999746063991874 0.000253936008125952 0.999991555337871 8.44466212906821e-06 0.360873996687476 0.639126003312524 0.999925339704345 7.46602956547708e-05 0.999946586903109 5.34130968913578e-05 0.0291838217486074 0.970816178251393 0.999515972894482 0.000484027105517909 0.989795918367347 0.0102040816326531 0.0102040816326531 0.989795918367347 0.989795918367347 0.0102040816326531 0.999981044091443 1.89559085566971e-05 0.986749594375338 0.013250405624662 0.999791753436068 0.000208246563931695 0.999991008649679 8.9913503209912e-06 0.923938834695492 0.0760611653045083 0.999924528301887 7.54716981132076e-05 0.999895855030202 0.000104144969797959 0.179658302189002 0.820341697810998 0.9992 8e-04 0.993150684931507 0.00684931506849315 0.5 0.5 0.5 0.5 </TABLE>
</DEFINITION>

<DEFINITION>
	<FOR>DrivingSkill</FOR>
	<GIVEN>ILiCost</GIVEN>
	<GIVEN>Airbag</GIVEN>
	<TABLE>0.857093953256777 3.11206547785765e-05 0.142874926088445 0.852220595412396 9.76085895558809e-05 0.147681795998048 0.999886176085596 5.69119572022082e-05 5.69119572022082e-05 0.333333333333333 0.333333333333333 0.333333333333333 0.0493686758230543 0.936430175254425 0.0142011489225206 1.47551384769746e-05 0.999970489723046 1.47551384769746e-05 </TABLE>
</DEFINITION>

<DEFINITION>
	<FOR>SeniorTrain</FOR>
	<GIVEN>RuggedAuto</GIVEN>
	<GIVEN>Age</GIVEN>
	<TABLE>0.999990146424137 9.85357586268057e-06 0.999915454852891 8.4545147108556e-05 0.999909828674482 9.01713255184851e-05 0.958062532935184 0.0419374670648164 0.562966417910448 0.437033582089552 0.999639509733237 0.000360490266762797 0.000132872707945788 0.999867127292054 0.00058411214953271 0.999415887850467 0.00145772594752187 0.998542274052478 </TABLE>
</DEFINITION>

<DEFINITION>
	<FOR>ThisCarCost</FOR>
	<GIVEN>Airbag</GIVEN>
	<GIVEN>CarValue</GIVEN>
	<GIVEN>ThisCarDam</GIVEN>
	<TABLE>0.782842472389072 0.178308467351289 0.038800620034877 4.84402247626429e-05 0.185907707098221 0.794784489665118 0.0192677455535972 4.00576830636116e-05 0.673361387401173 0.255100739607243 0.0714741137464932 6.37592450905381e-05 0.456826544854714 0.538034513386626 0.00510721989595229 3.17218627077782e-05 0.950292527258222 0.0248426557929262 0.0248426557929262 2.21611559258931e-05 0.291872227519589 0.703132125533767 0.00498528253389163 1.03644127523735e-05 0.71550839381277 0.246334579576277 0.0352063631698556 0.00295066344109669 0.479991154186377 0.519989615784008 9.6150148071228e-06 9.6150148071228e-06 0.336047940995698 0.0820016390083999 0.581899200983405 5.12190124974391e-05 0.155618889753391 0.746938533879097 0.0974341192787795 8.45708873177497e-06 0.245901975247931 0.311470371281043 0.442607163347267 2.04901237603475e-05 0.198821416268884 0.59447123665174 0.20669504453521 1.23025441661336e-05 0.226426214049976 0.000117868929750118 0.773338048090523 0.000117868929750118 0.0555801035222825 0.898907966165888 0.0454803686403232 3.1561671506123e-05 0.281934808941746 0.246696399074992 0.471341261975553 2.75300077084022e-05 0.136428165814878 0.727001703577513 0.136428165814878 0.000141964792731403 0.25 0.25 0.25 0.25 0.000778816199376947 0.997663551401869 0.000778816199376947 0.000778816199376947 0.49896265560166 0.49896265560166 0.00103734439834025 0.00103734439834025 0.25 0.25 0.25 0.25 1.17696906925286e-05 0.975483734287463 1.17696906925286e-05 0.024492726331152 7.71581124039382e-06 0.992569673775501 7.71581124039382e-06 0.00741489460201846 9.8421321995197e-06 0.981073579780324 9.8421321995197e-06 0.0189067359552774 7.42258246489119e-06 0.978600694753719 7.42258246489119e-06 0.0213844600813515 4.59474361330638e-05 0.948401029222569 4.59474361330638e-05 0.0515070759051645 1.52429729894519e-05 0.98775989268947 1.52429729894519e-05 0.0122096213645509 2.4997500249975e-05 0.955929407059294 2.4997500249975e-05 0.044020597940206 1.78558674380401e-05 0.985661738447254 1.78558674380401e-05 0.0143025498178701 0.00103734439834025 0.6649377593361 0.00103734439834025 0.33298755186722 5.78569775514927e-05 0.972055079842629 5.78569775514927e-05 0.027829206202268 0.0015527950310559 0.746894409937888 0.0015527950310559 0.25 9.32487877657591e-05 0.96988064155166 9.32487877657591e-05 0.0299328608728087 0.000415973377703827 0.799084858569052 0.000415973377703827 0.200083194675541 8.01025312399872e-05 0.974126882409484 8.01025312399872e-05 0.0257129125280359 7.81005935645111e-05 0.837316463605123 7.81005935645111e-05 0.162527335207748 0.00051975051975052 0.998440748440748 0.00051975051975052 0.00051975051975052 0.25 0.25 0.25 0.25 0.25 0.25 0.25 0.25 0.25 0.25 0.25 0.25 0.25 0.25 0.25 0.25 </TABLE>
</DEFINITION>

<DEFINITION>
	<FOR>Theft</FOR>
	<GIVEN>Cushioning</GIVEN>
	<GIVEN>VehicleYear</GIVEN>
	<TABLE>0.999939664534814 6.03354651864366e-05 0.999581589958159 0.000418410041841004 0.999964929508312 3.50704916882935e-05 0.999788045782111 0.000211954217888936 0.120038970362014 0.879961029637986 0.036707605882029 0.963292394117971 </TABLE>
</DEFINITION>

<DEFINITION>
	<FOR>CarValue</FOR>
	<GIVEN>Airbag</GIVEN>
	<GIVEN>DrivingSkill</GIVEN>
	<TABLE>0.10769822447279 0.332299211589001 0.555361835779758 1.28196910454458e-05 0.00462790846740594 0.14014012143858 0.567230266230733 1.8682858477347e-05 0.292592246613732 1.8682858477347e-05 0.177318369757826 0.000118133490844654 0.81523922031896 0.000118133490844654 0.00720614294152392 0.430848505668155 0.261834421161113 0.307179663345929 6.87049124012367e-05 6.87049124012367e-05 0.680191226594662 0.270647603027754 8.85308308618476e-06 0.0491434642114116 8.85308308618476e-06 0.570693069306931 0.000396039603960396 0.428118811881188 0.000396039603960396 0.000396039603960396 </TABLE>
</DEFINITION>

<DEFINITION>
	<FOR>HomeBase</FOR>
	<GIVEN>Theft</GIVEN>
	<GIVEN>RuggedAuto</GIVEN>
	<GIVEN>SocioEcon</GIVEN>
	<TABLE>0.810875497441728 0.189113132461626 5.68504832291074e-06 5.68504832291074e-06 0.430168688498985 0.569805279325246 1.30160878846254e-05 1.30160878846254e-05 0.525750812672845 0.474224928436272 1.21294454417544e-05 1.21294454417544e-05 0.25 0.25 0.25 0.25 0.25 0.25 0.25 0.25 0.25 0.25 0.25 0.25 0.25 0.25 0.25 0.25 0.25 0.25 0.25 0.25 0.25 0.25 0.25 0.25 0.999966317869493 1.12273768356761e-05 1.12273768356761e-05 1.12273768356761e-05 0.999915321214858 2.82262617138986e-05 2.82262617138986e-05 2.82262617138986e-05 0.9999209444503 2.6351849899863e-05 2.6351849899863e-05 2.6351849899863e-05 0.742161000979875 1.88437476445315e-05 1.88437476445315e-05 0.257801311524836 0.136542994772983 2.56226299067336e-05 0.367146663933586 0.496284718663524 0.0463757237829723 5.36135535063264e-05 0.609961398241475 0.343609264422046 9.44465432565168e-05 9.44465432565168e-05 0.0204948998866641 0.979316207026823 5.69087184156613e-05 5.69087184156613e-05 0.553209651718643 0.446676530844525 8.67754251995835e-05 8.67754251995835e-05 0.762322110378341 0.23750433877126 </TABLE>
</DEFINITION>

<DEFINITION>
	<FOR>AntiTheft</FOR>
	<GIVEN>DrivQuality</GIVEN>
	<GIVEN>Accident</GIVEN>
	<GIVEN>SocioEcon</GIVEN>
	<TABLE>0.999973356069487 2.66439305126292e-05 0.99996383363472 3.61663652802893e-05 0.999946483998716 5.3516001284384e-05 0.999979605987682 2.03940123179834e-05 0.999830163043478 0.000169836956521739 0.999955912177057 4.40878229433031e-05 0.999965772179628 3.42278203723987e-05 0.999935483870968 6.45161290322581e-05 0.999950089838291 4.99101617089239e-05 0.232487100756545 0.767512899243455 0.283173508432141 0.716826491567859 0.70065499433178 0.29934500566822 0.999753208292201 0.000246791707798618 0.99868073878628 0.00131926121372032 0.999513145082765 0.000486854917234664 0.24513221944481 0.75486778055519 0.245822942643392 0.754177057356608 0.571808510638298 0.428191489361702 8.15660685154976e-05 0.999918433931485 0.000126806999746386 0.999873193000254 0.000199044585987261 0.999800955414013 0.5 0.5 0.5 0.5 0.5 0.5 4.80954213158907e-05 0.999951904578684 9.44643869261289e-05 0.999905535613074 0.000115713955102985 0.999884286044897 </TABLE>
</DEFINITION>

<DEFINITION>
	<FOR>PropCost</FOR>
	<GIVEN>ThisCarCost</GIVEN>
	<GIVEN>DrivQuality</GIVEN>
	<TABLE>0.660761017481419 2.61697895948917e-05 0.0226368679995813 0.316575944729404 3.58525742148286e-05 3.58525742148286e-05 0.0275706295712032 0.972357665280367 6.18046971569839e-05 6.18046971569839e-05 6.18046971569839e-05 0.999814585908529 0.384905685405778 0.596934444061232 0.00287188602658319 0.015287984506407 7.54534753870763e-06 7.54534753870763e-06 0.212605257598165 0.787379651706758 2.99293666946007e-05 0.93813599904226 2.99293666946007e-05 0.0618041422243505 8.43170320404722e-05 8.43170320404722e-05 0.384569983136594 0.615261382799326 0.000123213405618531 0.000123213405618531 0.496919664859537 0.502833908329226 0.000123946455131383 0.125061973227566 0.000123946455131383 0.874690133862172 0.00409836065573771 0.00409836065573771 0.00409836065573771 0.987704918032787 0.000223813786929275 0.000223813786929275 0.0861683079677708 0.913384064458371 0.00342465753424658 0.00342465753424658 0.00342465753424658 0.98972602739726 </TABLE>
</DEFINITION>

<DEFINITION>
	<FOR>OtherCarCost</FOR>
	<GIVEN>PropCost</GIVEN>
	<GIVEN>ThisCarCost</GIVEN>
	<GIVEN>VehicleYear</GIVEN>
	<TABLE>0.999960395255352 1.98023723242044e-05 1.98023723242044e-05 0.333333333333333 0.333333333333333 0.333333333333333 0.99996567996568 1.71600171600172e-05 1.71600171600172e-05 0.636196902846267 0.363785794618912 1.73025348213513e-05 0.333333333333333 0.333333333333333 0.333333333333333 0.333333333333333 0.333333333333333 0.333333333333333 0.333333333333333 0.333333333333333 0.333333333333333 0.333333333333333 0.333333333333333 0.333333333333333 0.333333333333333 0.333333333333333 0.333333333333333 0.333333333333333 0.333333333333333 0.333333333333333 0.999988622076585 5.68896170759875e-06 5.68896170759875e-06 0.999970111335276 1.49443323619517e-05 1.49443323619517e-05 0.000495294700346706 0.000495294700346706 0.999009410599307 0.333333333333333 0.333333333333333 0.333333333333333 0.333333333333333 0.333333333333333 0.333333333333333 0.333333333333333 0.333333333333333 0.333333333333333 0.999387817569636 0.000306091215182124 0.000306091215182124 0.333333333333333 0.333333333333333 0.333333333333333 0.923375312184494 5.31377862798236e-05 0.0765715500292258 0.819961982136812 0.0100252584433508 0.170012759419837 5.81835107930412e-05 5.81835107930412e-05 0.999883632978414 0.333333333333333 0.333333333333333 0.333333333333333 0.97979797979798 0.0101010101010101 0.0101010101010101 0.285925925925926 0.712592592592593 0.00148148148148148 0.999981947340392 9.02632980403838e-06 9.02632980403838e-06 0.333333333333333 0.333333333333333 0.333333333333333 0.748237954343172 2.40552308099396e-05 0.251737990426018 0.286572850035537 0.693771144278607 0.0196560056858564 2.71245287113136e-05 2.71245287113136e-05 0.999945750942577 0.333333333333333 0.333333333333333 0.333333333333333 0.998700454840806 0.000649772579597141 0.000649772579597141 0.999739685018873 0.000130157490563582 0.000130157490563582 </TABLE>
</DEFINITION>

<DEFINITION>
	<FOR>OtherCar</FOR>
	<GIVEN>MedCost</GIVEN>
	<GIVEN>DrivingSkill</GIVEN>
	<TABLE>0.999979041790669 2.09582093305948e-05 0.5 0.5 0.999876756223811 0.000123243776189302 0.999962020508925 3.79794910748196e-05 0.0892029215624008 0.910797078437599 0.998516320474777 0.00148367952522255 0.5 0.5 1.1316057485572e-05 0.999988683942515 0.5 0.5 0.5 0.5 7.50638042335986e-05 0.999924936195767 0.5 0.5 </TABLE>
</DEFINITION>

<DEFINITION>
	<FOR>MedCost</FOR>
	<GIVEN>VehicleYear</GIVEN>
	<TABLE>0.432164421737111 0.452786809103576 0.0119136089177891 0.103135160241523 3.45447008428907e-05 3.45447008428907e-05 0.999896365897471 3.45447008428907e-05 </TABLE>
</DEFINITION>

<DEFINITION>
	<FOR>Cushioning</FOR>
	<GIVEN>Airbag</GIVEN>
	<GIVEN>OtherCar</GIVEN>
	<GIVEN>MakeModel</GIVEN>
	<TABLE>0.543366817791211 0.45660354994518 2.96322636086171e-05 0.360585206407341 0.639404948262791 9.84532986777722e-06 0.357533449680047 0.642350203606748 0.000116346713205352 0.96078431372549 0.0196078431372549 0.0196078431372549 0.204329973870847 0.103994027622247 0.691675998506906 0.0136049979320403 0.0449509131674612 0.941444088900499 0.0164784118136032 0.028213779277297 0.9553078089091 0.00411522633744856 0.00411522633744856 0.991769547325103 0.948225246864158 0.0515078729650387 0.000266880170803309 0.0234454638124363 0.976510215840092 4.43203474715242e-05 0.000989119683481701 0.998021760633036 0.000989119683481701 0.333333333333333 0.333333333333333 0.333333333333333 0.135235710435251 0.00502547515954579 0.859738814405203 0.0184216054287567 0.167036560082564 0.814541834488679 0.0142047545447855 0.0883933171413851 0.897401928313829 0.00680272108843537 0.00680272108843537 0.986394557823129 </TABLE>
</DEFINITION>

<DEFINITION>
	<FOR>Airbag</FOR>
	<GIVEN>MedCost</GIVEN>
	<TABLE>0.755346587855991 0.244653412144009 0.999948712688481 5.12873115191302e-05 3.39466358883835e-05 0.999966053364112 0.85029266096353 0.14970733903647 </TABLE>
</DEFINITION>

<DEFINITION>
	<FOR>ILiCost</FOR>
	<GIVEN>MedCost</GIVEN>
	<TABLE>0.999928353931578 3.58230342109977e-05 3.58230342109977e-05 0.0115225493212979 0.400485519882381 0.587991930796321 2.26310905922556e-05 2.26310905922556e-05 0.999954737818815 0.00015008254539997 0.00015008254539997 0.9996998349092 </TABLE>
</DEFINITION>

<DEFINITION>
	<FOR>DrivHist</FOR>
	<GIVEN>DrivingSkill</GIVEN>
	<GIVEN>DrivQuality</GIVEN>
	<GIVEN>RiskAversion</GIVEN>
	<TABLE>0.73422597934894 0.105353905572633 0.160420115078427 0.862472780892615 0.0750132880681721 0.0625139310392127 0.266677638797454 0.24890278692122 0.484419574281325 0.333333333333333 0.333333333333333 0.333333333333333 0.333333333333333 0.333333333333333 0.333333333333333 0.333333333333333 0.333333333333333 0.333333333333333 0.713409131925645 0.0818985742645732 0.204692293809782 0.919782796495125 0.0501048994199679 0.0301123040849068 0.215740124278739 0.258433200177541 0.525826675543719 0.400775780283652 0.109930227810402 0.489293991905946 0.564694681125742 0.180399561063775 0.254905757810483 0.220041959767987 0.120078983092682 0.659879057139331 0.102721239483877 0.132696814940912 0.76458194557521 0.379409255124085 0.239710981609571 0.380879763266344 0.106654965628199 0.071113061284189 0.822231973087612 0.0911808669656203 0.0911808669656203 0.817638266068759 0.987878787878788 0.00606060606060606 0.00606060606060606 0.118115942028986 0.118115942028986 0.763768115942029 0.912111468381565 0.087352625937835 0.000535905680600214 0.999149659863946 0.000425170068027211 0.000425170068027211 0.565030839367123 0.217484580316439 0.217484580316439 0.333333333333333 0.333333333333333 0.333333333333333 0.333333333333333 0.333333333333333 0.333333333333333 0.333333333333333 0.333333333333333 0.333333333333333 0.854174420047141 0.0603523136087334 0.085473266344126 0.9989281886388 0.000535905680600214 0.000535905680600214 0.391257709841781 0.282649503888442 0.326092786269777 </TABLE>
</DEFINITION>

</NETWORK>
</BIF>
