<?xml version="1.0" encoding="UTF-8"?>

<!-- DTD for the XMLBIF 0.3 format -->
<!DOCTYPE BIF [
<!ELEMENT BIF ( NETWORK )*>
<!ATTLIST BIF VERSION CDATA #REQUIRED>
   <!ELEMENT NETWORK ( NAME, ( PROPERTY | VARIABLE | DEFINITION )* )>
      <!ELEMENT NAME (#PCDATA)>
        <!ELEMENT VARIABLE ( NAME, ( OUTCOME |  PROPERTY )* ) >
          <!ATTLIST VARIABLE TYPE (nature|decision|utility) "nature">
           <!ELEMENT OUTCOME (#PCDATA)>
            <!ELEMENT DEFINITION ( FOR | GIVEN | TABLE | PROPERTY )* >
              <!ELEMENT FOR (#PCDATA)>
                <!ELEMENT GIVEN (#PCDATA)>
                  <!ELEMENT TABLE (#PCDATA)>
                    <!ELEMENT PROPERTY (#PCDATA)>
                      ]>
<BIF VERSION="0.3">
<NETWORK>
<NAME>Reco</NAME>
<VARIABLE TYPE="nature">
	<NAME>GoodStudent</NAME>
	<OUTCOME>True</OUTCOME>
	<OUTCOME>False</OUTCOME>
</VARIABLE>

<VARIABLE TYPE="nature">
	<NAME>Age</NAME>
	<OUTCOME>Adolescent</OUTCOME>
	<OUTCOME>Adult</OUTCOME>
	<OUTCOME>Senior</OUTCOME>
</VARIABLE>

<VARIABLE TYPE="nature">
	<NAME>SocioEcon</NAME>
	<OUTCOME>UpperMiddle</OUTCOME>
	<OUTCOME>Middle</OUTCOME>
	<OUTCOME>Prole</OUTCOME>
	<OUTCOME>Wealthy</OUTCOME>
</VARIABLE>

<VARIABLE TYPE="nature">
	<NAME>RiskAversion</NAME>
	<OUTCOME>Normal</OUTCOME>
	<OUTCOME>Cautious</OUTCOME>
	<OUTCOME>Psychopath</OUTCOME>
	<OUTCOME>Adventurous</OUTCOME>
</VARIABLE>

<VARIABLE TYPE="nature">
	<NAME>VehicleYear</NAME>
	<OUTCOME>Current</OUTCOME>
	<OUTCOME>Older</OUTCOME>
</VARIABLE>

<VARIABLE TYPE="nature">
	<NAME>ThisCarDam</NAME>
	<OUTCOME>Mild</OUTCOME>
	<OUTCOME>Moderate</OUTCOME>
	<OUTCOME>None</OUTCOME>
	<OUTCOME>Severe</OUTCOME>
</VARIABLE>

<VARIABLE TYPE="nature">
	<NAME>RuggedAuto</NAME>
	<OUTCOME>Tank</OUTCOME>
	<OUTCOME>EggShell</OUTCOME>
	<OUTCOME>Football</OUTCOME>
</VARIABLE>

<VARIABLE TYPE="nature">
	<NAME>Accident</NAME>
	<OUTCOME>Mild</OUTCOME>
	<OUTCOME>Moderate</OUTCOME>
	<OUTCOME>None</OUTCOME>
	<OUTCOME>Severe</OUTCOME>
</VARIABLE>

<VARIABLE TYPE="nature">
	<NAME>MakeModel</NAME>
	<OUTCOME>Luxury</OUTCOME>
	<OUTCOME>FamilySedan</OUTCOME>
	<OUTCOME>SportsCar</OUTCOME>
	<OUTCOME>Economy</OUTCOME>
	<OUTCOME>SuperLuxury</OUTCOME>
</VARIABLE>

<VARIABLE TYPE="nature">
	<NAME>DrivQuality</NAME>
	<OUTCOME>Normal</OUTCOME>
	<OUTCOME>Excellent</OUTCOME>
	<OUTCOME>Poor</OUTCOME>
</VARIABLE>

<VARIABLE TYPE="nature">
	<NAME>Mileage</NAME>
	<OUTCOME>FiveThou</OUTCOME>
	<OUTCOME>TwentyThou</OUTCOME>
	<OUTCOME>FiftyThou</OUTCOME>
	<OUTCOME>Domino</OUTCOME>
</VARIABLE>

<VARIABLE TYPE="nature">
	<NAME>Antilock</NAME>
	<OUTCOME>True</OUTCOME>
	<OUTCOME>False</OUTCOME>
</VARIABLE>

<VARIABLE TYPE="nature">
	<NAME>DrivingSkill</NAME>
	<OUTCOME>Normal</OUTCOME>
	<OUTCOME>Expert</OUTCOME>
	<OUTCOME>SubStandard</OUTCOME>
</VARIABLE>

<VARIABLE TYPE="nature">
	<NAME>SeniorTrain</NAME>
	<OUTCOME>True</OUTCOME>
	<OUTCOME>False</OUTCOME>
</VARIABLE>

<VARIABLE TYPE="nature">
	<NAME>ThisCarCost</NAME>
	<OUTCOME>HundredThou</OUTCOME>
	<OUTCOME>TenThou</OUTCOME>
	<OUTCOME>Million</OUTCOME>
	<OUTCOME>Thousand</OUTCOME>
</VARIABLE>

<VARIABLE TYPE="nature">
	<NAME>Theft</NAME>
	<OUTCOME>True</OUTCOME>
	<OUTCOME>False</OUTCOME>
</VARIABLE>

<VARIABLE TYPE="nature">
	<NAME>CarValue</NAME>
	<OUTCOME>Million</OUTCOME>
	<OUTCOME>FiftyThou</OUTCOME>
	<OUTCOME>TenThou</OUTCOME>
	<OUTCOME>FiveThou</OUTCOME>
	<OUTCOME>TwentyThou</OUTCOME>
</VARIABLE>

<VARIABLE TYPE="nature">
	<NAME>HomeBase</NAME>
	<OUTCOME>City</OUTCOME>
	<OUTCOME>Rural</OUTCOME>
	<OUTCOME>Secure</OUTCOME>
	<OUTCOME>Suburb</OUTCOME>
</VARIABLE>

<VARIABLE TYPE="nature">
	<NAME>AntiTheft</NAME>
	<OUTCOME>True</OUTCOME>
	<OUTCOME>False</OUTCOME>
</VARIABLE>

<VARIABLE TYPE="nature">
	<NAME>PropCost</NAME>
	<OUTCOME>HundredThou</OUTCOME>
	<OUTCOME>Million</OUTCOME>
	<OUTCOME>TenThou</OUTCOME>
	<OUTCOME>Thousand</OUTCOME>
</VARIABLE>

<VARIABLE TYPE="nature">
	<NAME>OtherCarCost</NAME>
	<OUTCOME>HundredThou</OUTCOME>
	<OUTCOME>Million</OUTCOME>
	<OUTCOME>TenThou</OUTCOME>
</VARIABLE>

<VARIABLE TYPE="nature">
	<NAME>OtherCar</NAME>
	<OUTCOME>False</OUTCOME>
	<OUTCOME>True</OUTCOME>
</VARIABLE>

<VARIABLE TYPE="nature">
	<NAME>MedCost</NAME>
	<OUTCOME>HundredThou</OUTCOME>
	<OUTCOME>Thousand</OUTCOME>
	<OUTCOME>Million</OUTCOME>
	<OUTCOME>TenThou</OUTCOME>
</VARIABLE>

<VARIABLE TYPE="nature">
	<NAME>Cushioning</NAME>
	<OUTCOME>Poor</OUTCOME>
	<OUTCOME>Excellent</OUTCOME>
	<OUTCOME>Good</OUTCOME>
	<OUTCOME>Fair</OUTCOME>
</VARIABLE>

<VARIABLE TYPE="nature">
	<NAME>Airbag</NAME>
	<OUTCOME>False</OUTCOME>
	<OUTCOME>True</OUTCOME>
</VARIABLE>

<VARIABLE TYPE="nature">
	<NAME>ILiCost</NAME>
	<OUTCOME>HundredThou</OUTCOME>
	<OUTCOME>Million</OUTCOME>
	<OUTCOME>TenThou</OUTCOME>
	<OUTCOME>Thousand</OUTCOME>
</VARIABLE>

<VARIABLE TYPE="nature">
	<NAME>DrivHist</NAME>
	<OUTCOME>Many</OUTCOME>
	<OUTCOME>Zero</OUTCOME>
	<OUTCOME>One</OUTCOME>
</VARIABLE>

<DEFINITION>
	<FOR>GoodStudent</FOR>
	<GIVEN>SocioEcon</GIVEN>
	<GIVEN>Age</GIVEN>
	<TABLE>0.495469418575384 0.504530581424616 0.999961811655083 3.81883449171313e-05 0.999914456800684 8.55431993156544e-05 0.911592847960734 0.0884071520392661 0.999980966157829 1.90338421713807e-05 0.999953707990001 4.62920099990742e-05 0.81712176256885 0.18287823743115 0.999980530353179 1.94696468206067e-05 0.999877119685426 0.000122880314573605 0.74896265560166 0.25103734439834 0.999282639885222 0.000717360114777618 0.99802371541502 0.00197628458498024 </TABLE>
</DEFINITION>

<DEFINITION>
	<FOR>Age</FOR>
	<GIVEN>DrivQuality</GIVEN>
	<GIVEN>SocioEcon</GIVEN>
	<TABLE>0.108921195563795 0.613555794061209 0.277523010374996 0.121259107354241 0.621834308674703 0.256906583971057 0.15979313587212 0.730512458862247 0.109694405265632 0.105762217359592 0.657184536834427 0.237053245805981 0.279835878013177 0.545429439381386 0.174734682605437 0.29915335808435 0.544542007975327 0.156304633940323 0.34524760866933 0.599806271945756 0.0549461193849134 0.325596389426177 0.604126370083817 0.0702772404900064 0.116860511116386 0.521322889469104 0.361816599414511 0.121908059242162 0.53044816310829 0.347643777649548 0.139604494823102 0.658962657637764 0.201432847539133 0.112135176651306 0.38863287250384 0.499231950844854 </TABLE>
</DEFINITION>

<DEFINITION>
	<FOR>SocioEcon</FOR>
	<GIVEN>MakeModel</GIVEN>
	<GIVEN>VehicleYear</GIVEN>
	<TABLE>0.367673728464265 0.0841027120600115 0.541608276316874 0.00661528315884923 0.0502557085819389 0.29564622493383 0.653189628101027 0.000908438383203984 0.110652205142939 0.601960925154432 0.287350955322511 3.59143801177992e-05 0.00482389541128106 0.832941372541758 0.162225473130625 9.25891633643199e-06 0.948928244673899 3.26754672591818e-05 3.26754672591818e-05 0.0510064043915828 0.974705152079454 0.000155183116076971 0.000155183116076971 0.0249844816883923 0.564334406362431 0.102300700624882 0.291658776746828 0.0417061162658587 0.115793662277529 0.461619157864274 0.412422225437708 0.0101649544204891 0.00165562913907285 0.00165562913907285 0.00165562913907285 0.995033112582781 0.0119047619047619 0.0119047619047619 0.0119047619047619 0.964285714285714 </TABLE>
</DEFINITION>

<DEFINITION>
	<FOR>RiskAversion</FOR>
	<GIVEN>SeniorTrain</GIVEN>
	<GIVEN>DrivQuality</GIVEN>
	<GIVEN>Age</GIVEN>
	<TABLE>0.570060222199149 0.310274114837504 0.115901775516561 0.00376388744678642 0.682423414593456 0.112990845202594 0.20157758638667 0.00300815381727942 0.753115542104326 0.134635926651237 0.105794908314047 0.00645362293038989 0.359217410064182 0.534936087589666 0.0854457688366323 0.0204007335095194 0.44217843866171 0.335115241635688 0.189509293680297 0.0331970260223048 0.591578853366673 0.270092873727451 0.112564743704233 0.0257635292016432 0.114321608040201 0.742726791854007 0.123842898704047 0.0191087014017456 0.324519936578777 0.372085853543954 0.28223912149862 0.0211550883786482 0.504810335349093 0.287108301264431 0.1782572842221 0.029824079164376 0.25 0.25 0.25 0.25 0.25 0.25 0.25 0.25 0.204203328739531 2.65027032757341e-05 0.795743665853917 2.65027032757341e-05 0.25 0.25 0.25 0.25 0.25 0.25 0.25 0.25 0.242428491306786 0.000140213123948402 0.757291082445317 0.000140213123948402 0.25 0.25 0.25 0.25 0.25 0.25 0.25 0.25 0.165011803916123 3.4717400361061e-05 0.834918761283155 3.4717400361061e-05 </TABLE>
</DEFINITION>

<DEFINITION>
	<FOR>VehicleYear</FOR>
	<GIVEN>CarValue</GIVEN>
	<GIVEN>MakeModel</GIVEN>
	<TABLE>0.730813999629639 0.269186000370361 0.865004492362983 0.134995507637017 0.000434404865334492 0.999565595134665 0.744330829159711 0.255669170840289 0.5 0.5 1.52900522919788e-05 0.999984709947708 0.0301750531282642 0.969824946871736 0.00153374233128834 0.998466257668712 8.65650969529086e-05 0.999913434903047 0.5 0.5 0.5 0.5 0.5 0.5 0.916147729450086 0.0838522705499138 0.675957207207207 0.324042792792793 0.5 0.5 0.173654427368015 0.826345572631985 0.508286987587934 0.491713012412066 0.000624219725343321 0.999375780274657 0.140716731898239 0.859283268101761 0.5 0.5 0.5 0.5 0.5 0.5 0.5 0.5 0.400265957446808 0.599734042553192 0.881455399061033 0.118544600938967 </TABLE>
</DEFINITION>

<DEFINITION>
	<FOR>ThisCarDam</FOR>
	<TABLE>0.739390067770248 0.0767970225530497 0.0614653927341407 0.122347516942562 </TABLE>
</DEFINITION>

<DEFINITION>
	<FOR>RuggedAuto</FOR>
	<GIVEN>MedCost</GIVEN>
	<TABLE>0.168623467670461 0.465220725161573 0.366155807167966 0.00751010976314269 0.839399191218949 0.153090699017909 0.0178833186748754 0.753151568454999 0.228965112870126 0.000407996736026112 0.749490004079967 0.250101999184007 </TABLE>
</DEFINITION>

<DEFINITION>
	<FOR>Accident</FOR>
	<GIVEN>RuggedAuto</GIVEN>
	<GIVEN>ThisCarDam</GIVEN>
	<TABLE>0.914189237475881 0.0729114557278639 0.00687843921960981 0.00602086757664547 0.000185873605947955 0.276765799256506 0.553345724907063 0.169702602230483 0.00037821482602118 0.0366868381240545 0.472390317700454 0.490544629349471 0.000247770069375619 0.000247770069375619 0.0597125867195243 0.939791873141725 0.999980064325775 6.64522474150076e-06 6.64522474150076e-06 6.64522474150076e-06 6.4283877603497e-05 0.99980714836719 6.4283877603497e-05 6.4283877603497e-05 7.28226041363239e-05 0.104937372560443 0.894916982231285 7.28226041363239e-05 3.27525219441897e-05 3.27525219441897e-05 0.163533342067339 0.836401152888772 0.969813090728875 0.0301692095295409 8.84987079188644e-06 8.84987079188644e-06 8.16726559947729e-05 0.878226069911794 0.117690297288468 0.00400196014374387 9.82318271119843e-05 0.0708251473477407 0.919548133595285 0.00952848722986247 5.46687076317516e-05 5.46687076317516e-05 0.0656571178657337 0.934233544719003 </TABLE>
</DEFINITION>

<DEFINITION>
	<FOR>MakeModel</FOR>
	<GIVEN>RuggedAuto</GIVEN>
	<TABLE>0.782502351834431 4.70366886171214e-05 0.202539981185325 0.00921919096895579 0.00569143932267168 0.0865185636031649 0.63338405356056 0.0173615337796713 0.262492391965916 0.000243457090687766 0.610200895180597 0.193941917351931 0.175830123868013 0.017508067034454 0.00251899656500468 </TABLE>
</DEFINITION>

<DEFINITION>
	<FOR>DrivQuality</FOR>
	<GIVEN>Mileage</GIVEN>
	<GIVEN>Accident</GIVEN>
	<TABLE>0.612021455185686 0.115571387626418 0.272407157187897 0.142047205275159 0.843101004498675 0.0148517902261663 0.0676236718035325 0.92892829498276 0.00344803321370769 0.01859725980329 0.977236610402439 0.0041661297942705 0.642327583089219 0.0555856931033236 0.302086723807457 0.288183421516755 0.660670194003527 0.0511463844797178 0.0892599464028035 0.910533910533911 0.00020614306328592 0.0289138576779026 0.970936329588015 0.000149812734082397 0.595984419547846 0.164229209332209 0.239786371119945 0.102211904301283 0.885342103566131 0.0124459921325853 0.06434575615562 0.932009224131518 0.00364501971286171 0.0351854979451669 0.964758205258121 5.62967967122671e-05 0.502583664745827 0.300002705408111 0.197413629846062 0.0325612621685129 0.967103054716348 0.000335683115139308 0.0593272171253823 0.940061162079511 0.000611620795107034 0.000716845878136201 0.998566308243728 0.000716845878136201 </TABLE>
</DEFINITION>

<DEFINITION>
	<FOR>Mileage</FOR>
	<GIVEN>CarValue</GIVEN>
	<GIVEN>VehicleYear</GIVEN>
	<TABLE>0.411791193093597 0.0969039190112415 0.391916651139681 0.099388236755481 0.194453520666558 0.00820944290148668 0.519563796765234 0.277773239666721 0.387853949329359 0.134500745156483 0.402757078986587 0.0748882265275708 0.493787269636545 0.143823696068644 0.325146380291951 0.0372426540028601 0.442780715779117 0.107028655761899 0.35669044397983 0.0935001844791539 0.301020408163265 0.0969387755102041 0.505102040816327 0.0969387755102041 0.390914884577255 0.0963390454609829 0.430569324458292 0.0821767455034698 0.252755124531629 0.0058959664976857 0.538553375945926 0.202795533024759 0.569905213270142 0.00118483412322275 0.380331753554502 0.0485781990521327 0.452702702702703 0.00225225225225225 0.362612612612613 0.182432432432432 </TABLE>
</DEFINITION>

<DEFINITION>
	<FOR>Antilock</FOR>
	<GIVEN>MakeModel</GIVEN>
	<GIVEN>VehicleYear</GIVEN>
	<TABLE>0.621589316626824 0.378410683373176 0.999977569422637 2.24305773630613e-05 0.999928171239765 7.18287602355983e-05 0.999981482167327 1.8517832672864e-05 0.0118285191478238 0.988171480852176 0.695530726256983 0.304469273743017 0.0966672978602537 0.903332702139746 0.916003472724642 0.0839965272753581 0.0033112582781457 0.996688741721854 0.976190476190476 0.0238095238095238 </TABLE>
</DEFINITION>

<DEFINITION>
	<FOR>DrivingSkill</FOR>
	<GIVEN>DrivQuality</GIVEN>
	<GIVEN>RiskAversion</GIVEN>
	<TABLE>0.999977463011167 1.1268494416461e-05 1.1268494416461e-05 0.997926556446773 5.45643040323021e-05 0.00201887924919518 0.999947043715413 2.64781422935367e-05 2.64781422935367e-05 0.829885057471264 0.00229885057471264 0.167816091954023 1.97835677686114e-05 0.999960432864463 1.97835677686114e-05 0.315623692151809 0.681182404898786 0.00319390294940417 5.0314465408805e-05 0.999899371069182 5.0314465408805e-05 0.461421164989326 0.516315949984751 0.0222628850259225 6.19924369226954e-05 6.19924369226954e-05 0.999876015126155 0.661029221618826 5.17196793379881e-05 0.338919058701836 0.399991387848254 4.30607587305688e-05 0.599965551393016 0.813333333333333 0.00102564102564103 0.185641025641026 </TABLE>
</DEFINITION>

<DEFINITION>
	<FOR>SeniorTrain</FOR>
	<GIVEN>DrivQuality</GIVEN>
	<GIVEN>Age</GIVEN>
	<TABLE>0.999896179401993 0.000103820598006645 0.999979146682237 2.08533177628561e-05 0.373222591362126 0.626777408637874 0.999946068385287 5.39316147125445e-05 0.999970261107476 2.97388925236424e-05 0.758466540232999 0.241533459767001 0.999735589635114 0.000264410364886304 0.999941280093952 5.87199060481503e-05 0.201662971175166 0.798337028824834 </TABLE>
</DEFINITION>

<DEFINITION>
	<FOR>ThisCarCost</FOR>
	<GIVEN>CarValue</GIVEN>
	<GIVEN>ThisCarDam</GIVEN>
	<TABLE>0.998205900593603 0.00177933315613833 7.38312512920469e-06 7.38312512920469e-06 0.981707317073171 7.52785305630834e-05 0.0181421258657031 7.52785305630834e-05 9.25583117363939e-05 0.984912995186968 0.0149018881895594 9.25583117363939e-05 5.48125411094058e-05 0.999835562376672 5.48125411094058e-05 5.48125411094058e-05 0.999232015981606 4.71155839505475e-06 0.000758560901603815 4.71155839505475e-06 0.960278831875928 4.12473189242699e-05 0.0396386734862234 4.12473189242699e-05 0.264819205690575 4.93973523019166e-05 0.735081999604821 4.93973523019166e-05 0.0691649676447123 2.21611559258931e-05 0.930790710043436 2.21611559258931e-05 0.999947775224566 1.74082584778219e-05 1.74082584778219e-05 1.74082584778219e-05 0.987039350405996 0.000156152404747033 0.0126483447845097 0.000156152404747033 0.0427736450584485 0.956695005313496 0.00026567481402763 0.00026567481402763 0.000204750204750205 0.999385749385749 0.000204750204750205 0.000204750204750205 0.99869978622252 7.97677164098146e-06 0.00128426023419802 7.97677164098146e-06 0.942609782220636 8.92538379150304e-05 0.0572117101035345 8.92538379150304e-05 0.130486744893525 0.00010864841373316 0.869295958279009 0.00010864841373316 0.00413180983472761 5.10099979596001e-05 0.995766170169353 5.10099979596001e-05 0.998440748440748 0.00051975051975052 0.00051975051975052 0.00051975051975052 0.981707317073171 0.00609756097560976 0.00609756097560976 0.00609756097560976 0.00409836065573771 0.00409836065573771 0.00409836065573771 0.987704918032787 0.00409836065573771 0.00409836065573771 0.00409836065573771 0.987704918032787 </TABLE>
</DEFINITION>

<DEFINITION>
	<FOR>Theft</FOR>
	<GIVEN>ThisCarCost</GIVEN>
	<TABLE>0.999983197230904 1.68027690963471e-05 0.989101541733121 0.0108984582668793 0.995277585809721 0.00472241419027874 0.98 0.02 </TABLE>
</DEFINITION>

<DEFINITION>
	<FOR>CarValue</FOR>
	<GIVEN>MakeModel</GIVEN>
	<GIVEN>RuggedAuto</GIVEN>
	<TABLE>0.343544121182977 0.458054820870402 1.20221207020919e-05 0.198377013705218 1.20221207020919e-05 0.656911712979247 0.192613436510728 3.51741118536757e-05 0.150404502286317 3.51741118536757e-05 0.451373204598956 0.372051448261745 6.82337688922248e-06 0.176561700385521 6.82337688922248e-06 0.2 0.2 0.2 0.2 0.2 0.0165809830394465 0.71386152885216 4.80468937683179e-06 0.26954787872964 4.80468937683179e-06 0.069257191927866 0.386453413482181 2.1468441391155e-05 0.544246457707171 2.1468441391155e-05 0.041848583372039 0.00701346957733395 0.923176962378077 0.027914537854157 4.64468183929401e-05 0.0396143733567046 0.0396143733567046 0.86783523225241 0.052760736196319 0.000175284837861525 0.0550793274923041 0.0142315889178309 0.895121951219512 0.0355434525219039 2.36798484489699e-05 0.536734693877551 0.0775510204081633 0.0775510204081633 0.307142857142857 0.00102040816326531 0.469549591328039 0.190435337081908 0.0608776302823025 0.266952640426642 0.0121848008811083 0.499643281807372 0.196432818073722 0.000237812128418549 0.285612366230678 0.0180737217598098 0.00165289256198347 0.00165289256198347 0.00165289256198347 0.00165289256198347 0.993388429752066 0.0125 0.0125 0.0125 0.0125 0.95 0.00165289256198347 0.00165289256198347 0.00165289256198347 0.00165289256198347 0.993388429752066 </TABLE>
</DEFINITION>

<DEFINITION>
	<FOR>HomeBase</FOR>
	<GIVEN>RiskAversion</GIVEN>
	<GIVEN>SocioEcon</GIVEN>
	<TABLE>0.489614083087335 1.7999856001152e-05 0.398606811145511 0.111761105911153 9.27265309150254e-06 0.817783094098884 0.042144208300879 0.140063424947146 0.323509766400693 9.02624833014406e-06 0.579999638950067 0.0964815684009099 0.847353497164461 0.000472589792060492 0.000472589792060492 0.151701323251418 0.195364438534993 0.42164269309803 0.284328538619606 0.098664329747371 1.41394717493354e-05 0.787299926474747 0.0524998586052825 0.160186075448221 0.0213307333777228 0.228312565395225 0.628578902311424 0.121777798915628 0.998329621380846 0.000556792873051225 0.000556792873051225 0.000556792873051225 0.999905885305559 3.13715648136529e-05 3.13715648136529e-05 3.13715648136529e-05 1.61906612266045e-05 0.790638559678777 0.0590797228158798 0.150265526844116 0.950542344597413 2.08594075928244e-05 0.026720901126408 0.0227158948685857 0.998623853211009 0.000458715596330275 0.000458715596330275 0.000458715596330275 0.422661870503597 0.461031175059952 0.115707434052758 0.000599520383693046 0.000332005312084993 0.871513944223108 0.0215803452855246 0.106573705179283 0.207597173144876 0.754122497055359 0.0379858657243816 0.000294464075382803 0.742307692307692 0.25 0.00384615384615385 0.00384615384615385 </TABLE>
</DEFINITION>

<DEFINITION>
	<FOR>AntiTheft</FOR>
	<GIVEN>RiskAversion</GIVEN>
	<GIVEN>SocioEcon</GIVEN>
	<TABLE>0.117539059687522 0.882460940312477 0.904436037238975 0.0955639627610252 0.708831281366213 0.291168718633787 0.0916824196597354 0.908317580340265 0.806539344856763 0.193460655143237 0.999971721056501 2.82789434986709e-05 0.999952439836393 4.75601636069628e-05 0.321826280623608 0.678173719376392 6.27431296273058e-05 0.999937256870373 0.0466614856550742 0.953338514344926 4.17188151856487e-05 0.999958281184814 0.000917431192660551 0.999082568807339 0.883693045563549 0.116306954436451 0.99933598937583 0.000664010624169987 0.999411071849234 0.000588928150765607 0.5 0.5 </TABLE>
</DEFINITION>

<DEFINITION>
	<FOR>PropCost</FOR>
	<GIVEN>OtherCarCost</GIVEN>
	<GIVEN>ThisCarCost</GIVEN>
	<TABLE>0.704471591234193 0.295522686960005 2.86090290095554e-06 2.86090290095554e-06 0.000135208220659816 0.000135208220659816 0.980124391563007 0.0196051919956733 5.69087184156613e-05 0.94792852264967 0.0519576599134987 5.69087184156613e-05 0.00510204081632653 0.00510204081632653 0.00510204081632653 0.98469387755102 0.000247770069375619 0.927898909811695 0.071605550049554 0.000247770069375619 0.000141643059490085 0.000141643059490085 0.951983002832861 0.0477337110481586 5.24658971668415e-05 0.601941238195173 0.397953830010493 5.24658971668415e-05 0.0192307692307692 0.0192307692307692 0.0192307692307692 0.942307692307692 0.000285062713797035 0.000285062713797035 0.999144811858609 0.000285062713797035 0.000123213405618531 0.000123213405618531 0.567890586495811 0.431862986692952 6.46830530401035e-05 6.46830530401035e-05 0.807309184993532 0.192561448900388 0.0192307692307692 0.0192307692307692 0.0192307692307692 0.942307692307692 </TABLE>
</DEFINITION>

<DEFINITION>
	<FOR>OtherCarCost</FOR>
	<GIVEN>Accident</GIVEN>
	<TABLE>0.99997429669327 1.28516533652054e-05 1.28516533652054e-05 0.975498029189304 0.0154468946415255 0.00905507616917013 0.534387814879906 0.244756883421207 0.220855301698887 0.175014251974917 0.433015717892337 0.391970030132747 </TABLE>
</DEFINITION>

<DEFINITION>
	<FOR>OtherCar</FOR>
	<GIVEN>SocioEcon</GIVEN>
	<TABLE>0.896228885688097 0.103771114311903 0.50499704122559 0.49500295877441 0.800289945929002 0.199710054070998 0.948362720403023 0.0516372795969773 </TABLE>
</DEFINITION>

<DEFINITION>
	<FOR>MedCost</FOR>
	<GIVEN>ThisCarDam</GIVEN>
	<TABLE>0.999671312122009 9.39108222831599e-06 0.000309905713534428 9.39108222831599e-06 0.970795660036166 0.0015370705244123 0.0217902350813743 0.00587703435804702 0.755648441030276 0.039877993673746 0.124830546769092 0.0796430185268866 0.56850170261067 0.109931895573212 0.179852440408627 0.141713961407491 </TABLE>
</DEFINITION>

<DEFINITION>
	<FOR>Cushioning</FOR>
	<GIVEN>Airbag</GIVEN>
	<GIVEN>RuggedAuto</GIVEN>
	<TABLE>0.999819668189469 6.01106035104592e-05 6.01106035104592e-05 6.01106035104592e-05 3.025535519787e-05 0.51775989350115 0.198263342611642 0.28394650853201 0.32074853699013 2.18359682068303e-05 0.575443270154599 0.103786356887064 0.301093210586881 5.75373993095512e-05 0.6987917146145 5.75373993095512e-05 1.3869625520111e-05 0.69371705963939 1.3869625520111e-05 0.30625520110957 3.21957501609787e-05 0.0981648422408242 0.304475209272376 0.597327752736639 </TABLE>
</DEFINITION>

<DEFINITION>
	<FOR>Airbag</FOR>
	<GIVEN>MakeModel</GIVEN>
	<GIVEN>VehicleYear</GIVEN>
	<TABLE>0.999958783282499 4.12167175006183e-05 0.205935130770266 0.794064869229734 0.999928171239765 7.18287602355983e-05 0.0511277360097774 0.948872263990223 0.999934649065482 6.53509345183636e-05 0.571384233395407 0.428615766604593 0.999905320961939 9.46790380609733e-05 0.102807119085516 0.897192880914484 0.996688741721854 0.0033112582781457 0.5 0.5 </TABLE>
</DEFINITION>

<DEFINITION>
	<FOR>ILiCost</FOR>
	<GIVEN>Accident</GIVEN>
	<TABLE>0.999971083779928 9.63874002390408e-06 9.63874002390408e-06 9.63874002390408e-06 0.998481943112816 0.00135826142537552 7.98977309044423e-05 7.98977309044423e-05 0.906942003514938 0.0408611599297012 0.0324253075571177 0.0197715289982425 0.77504275592475 0.114402638651356 0.0694478377718055 0.0411067676520889 </TABLE>
</DEFINITION>

<DEFINITION>
	<FOR>DrivHist</FOR>
	<GIVEN>DrivingSkill</GIVEN>
	<GIVEN>RiskAversion</GIVEN>
	<TABLE>0.896532684268055 0.029624871820876 0.073842443911069 0.492455780964338 0.201436154981387 0.306108064054274 0.954053766868558 0.0107321219849113 0.0352141111465307 0.148856392950881 0.60779902512186 0.243344581927259 0.028508121154569 0.81549844698993 0.155993431855501 0.00352442849290264 0.985966954441103 0.0105086170659941 0.278993710691824 0.418465408805031 0.302540880503145 0.000589970501474926 0.99882005899705 0.000589970501474926 0.988717376480069 6.19924369226954e-05 0.0112206310830079 0.652264291017075 0.0696362286562732 0.278099480326652 0.999856476498027 7.17617509867241e-05 7.17617509867241e-05 0.333333333333333 0.443425076452599 0.223241590214067 </TABLE>
</DEFINITION>

</NETWORK>
</BIF>
