<?xml version="1.0" encoding="UTF-8"?>

<!-- DTD for the XMLBIF 0.3 format -->
<!DOCTYPE BIF [
<!ELEMENT BIF ( NETWORK )*>
<!ATTLIST BIF VERSION CDATA #REQUIRED>
   <!ELEMENT NETWORK ( NAME, ( PROPERTY | VARIABLE | DEFINITION )* )>
      <!ELEMENT NAME (#PCDATA)>
        <!ELEMENT VARIABLE ( NAME, ( OUTCOME |  PROPERTY )* ) >
          <!ATTLIST VARIABLE TYPE (nature|decision|utility) "nature">
           <!ELEMENT OUTCOME (#PCDATA)>
            <!ELEMENT DEFINITION ( FOR | GIVEN | TABLE | PROPERTY )* >
              <!ELEMENT FOR (#PCDATA)>
                <!ELEMENT GIVEN (#PCDATA)>
                  <!ELEMENT TABLE (#PCDATA)>
                    <!ELEMENT PROPERTY (#PCDATA)>
                      ]>
<BIF VERSION="0.3">
<NETWORK>
<NAME>Reco</NAME>
<VARIABLE TYPE="nature">
	<NAME>GoodStudent</NAME>
	<OUTCOME>False</OUTCOME>
	<OUTCOME>True</OUTCOME>
</VARIABLE>

<VARIABLE TYPE="nature">
	<NAME>Age</NAME>
	<OUTCOME>Adolescent</OUTCOME>
	<OUTCOME>Senior</OUTCOME>
	<OUTCOME>Adult</OUTCOME>
</VARIABLE>

<VARIABLE TYPE="nature">
	<NAME>SocioEcon</NAME>
	<OUTCOME>Wealthy</OUTCOME>
	<OUTCOME>Middle</OUTCOME>
	<OUTCOME>UpperMiddle</OUTCOME>
</VARIABLE>

<VARIABLE TYPE="nature">
	<NAME>RiskAversion</NAME>
	<OUTCOME>Cautious</OUTCOME>
	<OUTCOME>Psychopath</OUTCOME>
	<OUTCOME>Normal</OUTCOME>
	<OUTCOME>Adventurous</OUTCOME>
</VARIABLE>

<VARIABLE TYPE="nature">
	<NAME>VehicleYear</NAME>
	<OUTCOME>Current</OUTCOME>
	<OUTCOME>Older</OUTCOME>
</VARIABLE>

<VARIABLE TYPE="nature">
	<NAME>ThisCarDam</NAME>
	<OUTCOME>None</OUTCOME>
	<OUTCOME>Moderate</OUTCOME>
	<OUTCOME>Mild</OUTCOME>
	<OUTCOME>Severe</OUTCOME>
</VARIABLE>

<VARIABLE TYPE="nature">
	<NAME>RuggedAuto</NAME>
	<OUTCOME>Football</OUTCOME>
	<OUTCOME>Tank</OUTCOME>
	<OUTCOME>EggShell</OUTCOME>
</VARIABLE>

<VARIABLE TYPE="nature">
	<NAME>Accident</NAME>
	<OUTCOME>None</OUTCOME>
	<OUTCOME>Severe</OUTCOME>
	<OUTCOME>Moderate</OUTCOME>
	<OUTCOME>Mild</OUTCOME>
</VARIABLE>

<VARIABLE TYPE="nature">
	<NAME>MakeModel</NAME>
	<OUTCOME>SportsCar</OUTCOME>
	<OUTCOME>FamilySedan</OUTCOME>
	<OUTCOME>Luxury</OUTCOME>
	<OUTCOME>Economy</OUTCOME>
	<OUTCOME>SuperLuxury</OUTCOME>
</VARIABLE>

<VARIABLE TYPE="nature">
	<NAME>DrivQuality</NAME>
	<OUTCOME>Poor</OUTCOME>
	<OUTCOME>Excellent</OUTCOME>
	<OUTCOME>Normal</OUTCOME>
</VARIABLE>

<VARIABLE TYPE="nature">
	<NAME>Mileage</NAME>
	<OUTCOME>Domino</OUTCOME>
	<OUTCOME>FiveThou</OUTCOME>
	<OUTCOME>TwentyThou</OUTCOME>
</VARIABLE>

<VARIABLE TYPE="nature">
	<NAME>Antilock</NAME>
	<OUTCOME>False</OUTCOME>
	<OUTCOME>True</OUTCOME>
</VARIABLE>

<VARIABLE TYPE="nature">
	<NAME>DrivingSkill</NAME>
	<OUTCOME>SubStandard</OUTCOME>
	<OUTCOME>Expert</OUTCOME>
</VARIABLE>

<VARIABLE TYPE="nature">
	<NAME>SeniorTrain</NAME>
	<OUTCOME>True</OUTCOME>
	<OUTCOME>False</OUTCOME>
</VARIABLE>

<VARIABLE TYPE="nature">
	<NAME>ThisCarCost</NAME>
	<OUTCOME>TenThou</OUTCOME>
	<OUTCOME>Million</OUTCOME>
	<OUTCOME>HundredThou</OUTCOME>
	<OUTCOME>Thousand</OUTCOME>
</VARIABLE>

<VARIABLE TYPE="nature">
	<NAME>Theft</NAME>
	<OUTCOME>True</OUTCOME>
	<OUTCOME>False</OUTCOME>
</VARIABLE>

<VARIABLE TYPE="nature">
	<NAME>CarValue</NAME>
	<OUTCOME>TenThou</OUTCOME>
	<OUTCOME>FiveThou</OUTCOME>
	<OUTCOME>Million</OUTCOME>
	<OUTCOME>FiftyThou</OUTCOME>
	<OUTCOME>TwentyThou</OUTCOME>
</VARIABLE>

<VARIABLE TYPE="nature">
	<NAME>HomeBase</NAME>
	<OUTCOME>Secure</OUTCOME>
	<OUTCOME>Rural</OUTCOME>
	<OUTCOME>Suburb</OUTCOME>
</VARIABLE>

<VARIABLE TYPE="nature">
	<NAME>AntiTheft</NAME>
	<OUTCOME>True</OUTCOME>
	<OUTCOME>False</OUTCOME>
</VARIABLE>

<VARIABLE TYPE="nature">
	<NAME>PropCost</NAME>
	<OUTCOME>Thousand</OUTCOME>
	<OUTCOME>TenThou</OUTCOME>
	<OUTCOME>Million</OUTCOME>
	<OUTCOME>HundredThou</OUTCOME>
</VARIABLE>

<VARIABLE TYPE="nature">
	<NAME>OtherCarCost</NAME>
	<OUTCOME>TenThou</OUTCOME>
	<OUTCOME>HundredThou</OUTCOME>
	<OUTCOME>Thousand</OUTCOME>
</VARIABLE>

<VARIABLE TYPE="nature">
	<NAME>OtherCar</NAME>
	<OUTCOME>False</OUTCOME>
	<OUTCOME>True</OUTCOME>
</VARIABLE>

<VARIABLE TYPE="nature">
	<NAME>MedCost</NAME>
	<OUTCOME>HundredThou</OUTCOME>
	<OUTCOME>Thousand</OUTCOME>
	<OUTCOME>Million</OUTCOME>
	<OUTCOME>TenThou</OUTCOME>
</VARIABLE>

<VARIABLE TYPE="nature">
	<NAME>Cushioning</NAME>
	<OUTCOME>Fair</OUTCOME>
	<OUTCOME>Good</OUTCOME>
	<OUTCOME>Poor</OUTCOME>
	<OUTCOME>Excellent</OUTCOME>
</VARIABLE>

<VARIABLE TYPE="nature">
	<NAME>Airbag</NAME>
	<OUTCOME>False</OUTCOME>
	<OUTCOME>True</OUTCOME>
</VARIABLE>

<VARIABLE TYPE="nature">
	<NAME>ILiCost</NAME>
	<OUTCOME>HundredThou</OUTCOME>
	<OUTCOME>Million</OUTCOME>
	<OUTCOME>TenThou</OUTCOME>
	<OUTCOME>Thousand</OUTCOME>
</VARIABLE>

<VARIABLE TYPE="nature">
	<NAME>DrivHist</NAME>
	<OUTCOME>Many</OUTCOME>
	<OUTCOME>Zero</OUTCOME>
	<OUTCOME>One</OUTCOME>
</VARIABLE>

<DEFINITION>
	<FOR>GoodStudent</FOR>
	<TABLE>0.0949338962337518 0.905066103766248 </TABLE>
</DEFINITION>

<DEFINITION>
	<FOR>Age</FOR>
	<GIVEN>Airbag</GIVEN>
	<GIVEN>OtherCarCost</GIVEN>
	<GIVEN>GoodStudent</GIVEN>
	<TABLE>0.71162999048099 0.123019206002576 0.165350803516434 0.210491433221122 0.29128360598723 0.498224960791648 0.333333333333333 0.333333333333333 0.333333333333333 0.333333333333333 0.333333333333333 0.333333333333333 0.998912452419793 0.000543773790103317 0.000543773790103317 0.999853447644171 7.327617791456e-05 7.327617791456e-05 0.000113340133741358 0.999773319732517 0.000113340133741358 1.75577210078132e-05 0.999964884557984 1.75577210078132e-05 0.000447427293064877 0.99910514541387 0.000447427293064877 1.42298114549982e-05 0.99997154037709 1.42298114549982e-05 0.333333333333333 0.333333333333333 0.333333333333333 0.333333333333333 0.333333333333333 0.333333333333333 </TABLE>
</DEFINITION>

<DEFINITION>
	<FOR>SocioEcon</FOR>
	<GIVEN>ILiCost</GIVEN>
	<GIVEN>Cushioning</GIVEN>
	<GIVEN>Antilock</GIVEN>
	<TABLE>0.99997508067631 1.24596618447775e-05 1.24596618447775e-05 0.999975804207648 1.2097896175855e-05 1.2097896175855e-05 0.999982595831702 8.70208414915372e-06 8.70208414915372e-06 0.417317668286482 2.0503988025671e-05 0.582661827725493 0.999978785468046 1.06072659771944e-05 1.06072659771944e-05 0.445100654092843 6.35041595224487e-05 0.554835841747634 0.333333333333333 0.333333333333333 0.333333333333333 0.333333333333333 0.333333333333333 0.333333333333333 0.333333333333333 0.333333333333333 0.333333333333333 0.333333333333333 0.333333333333333 0.333333333333333 8.60859309763005e-06 0.999982782813805 8.60859309763005e-06 2.13006155877905e-05 0.948835921358127 0.051142778026285 0.333333333333333 0.333333333333333 0.333333333333333 0.00115340253748558 0.00115340253748558 0.997693194925029 0.333333333333333 0.333333333333333 0.333333333333333 0.333333333333333 0.333333333333333 0.333333333333333 0.0853576052718032 0.914623069936422 1.93247917753686e-05 0.0751363114012567 0.924839238123182 2.44504755617497e-05 0.333333333333333 0.333333333333333 0.333333333333333 0.333333333333333 0.333333333333333 0.333333333333333 0.999868998493483 6.55007532586625e-05 6.55007532586625e-05 0.608322026232474 0.000452284034373587 0.391225689733152 1.39254431772291e-05 0.999972149113646 1.39254431772291e-05 1.29716828164118e-05 0.999974056634367 1.29716828164118e-05 0.333333333333333 0.333333333333333 0.333333333333333 0.333333333333333 0.333333333333333 0.333333333333333 0.999387817569636 0.000306091215182124 0.000306091215182124 0.998268398268398 0.000865800865800866 0.000865800865800866 0.333333333333333 0.333333333333333 0.333333333333333 0.333333333333333 0.333333333333333 0.333333333333333 0.333333333333333 0.333333333333333 0.333333333333333 0.333333333333333 0.333333333333333 0.333333333333333 </TABLE>
</DEFINITION>

<DEFINITION>
	<FOR>RiskAversion</FOR>
	<GIVEN>AntiTheft</GIVEN>
	<GIVEN>HomeBase</GIVEN>
	<GIVEN>SeniorTrain</GIVEN>
	<GIVEN>SocioEcon</GIVEN>
	<TABLE>0.302170762635107 0.0282742588007971 0.660844755751464 0.00871022281263209 0.228189274839993 0.0380444913937737 0.722565711800162 0.0112005219660722 0.441020408163265 0.000204081632653061 0.558571428571428 0.000204081632653061 0.453258052573121 0.0800629396519808 0.466586449463162 9.25583117363939e-05 0.50864588407209 0.0877983438869947 0.403433999025816 0.000121773015099854 0.00172413793103448 0.00172413793103448 0.994827586206897 0.00172413793103448 0.242515281300678 0.0553973138176223 0.538910141793838 0.163177263087862 0.263280961784683 0.0414107766758534 0.673428311017556 0.0218799505219071 0.575689038501999 0.0076267620450242 0.32574163686093 0.0909425625920471 0.516402197131523 0.0989472078120232 0.38457430576747 7.62892889838267e-05 0.339852967870757 0.163414412779089 0.496687239063351 4.53802868034126e-05 0.00115207373271889 0.16705069124424 0.830645161290323 0.00115207373271889 0.315484093685273 0.0344282755324234 0.630954909979287 0.0191327208030166 0.241294133904512 0.0423029088647827 0.711410903060872 0.00499205416983348 0.230810234541578 0.000533049040511727 0.69136460554371 0.0772921108742004 0.531168643332369 0.0521405843216662 0.416618455308071 7.23170378941279e-05 0.606965790778384 0.160758552305404 0.232151710461081 0.000123946455131383 0.25 0.25 0.25 0.25 0.0943722859043073 0.219719494542467 0.680264856617503 0.00564336293572239 0.0878924332968605 0.454528238363774 0.448468142412255 0.00911118592711051 0.0870221327967807 0.0725352112676056 0.840342052313883 0.000100603621730382 0.237039703764657 0.451810327093191 0.311098539395186 5.14297469656449e-05 0.151556583929323 0.636201093815734 0.212137147665124 0.0001051745898191 0.000346740638002774 0.100208044382802 0.899098474341193 0.000346740638002774 0.082340749916623 0.521427890799943 0.245283243603792 0.150948115679642 0.0550006029665956 0.694627567632753 0.248914660127829 0.00145716927282229 0.269994445987226 0.369966675923355 0.359969452929742 6.94251596778673e-05 0.125597468027387 0.725519958661672 0.148850277741894 3.22955690479266e-05 0.0411575986639712 0.917662828513668 0.0411575986639712 2.19741583897337e-05 0.00025693730729702 0.814234326824255 0.185251798561151 0.00025693730729702 0.176715117385183 0.204111335185115 0.612314980404094 0.00685856702560785 0.0669491525423729 0.531465281574631 0.393685073810826 0.00790049207217059 0.091109709962169 0.091109709962169 0.817465321563682 0.000315258511979823 0.273252058776037 0.33719522041014 0.389512352656225 4.03681575972873e-05 0.150046274872744 0.716450717260527 0.133387320684868 0.00011568718186025 0.00229357798165138 0.00229357798165138 0.993119266055046 0.00229357798165138 </TABLE>
</DEFINITION>

<DEFINITION>
	<FOR>VehicleYear</FOR>
	<GIVEN>Airbag</GIVEN>
	<GIVEN>CarValue</GIVEN>
	<GIVEN>MakeModel</GIVEN>
	<GIVEN>SocioEcon</GIVEN>
	<TABLE>0.897016579243726 0.102983420756274 0.841985268326903 0.158014731673097 0.5 0.5 0.5 0.5 0.999168053244592 0.000831946755407654 0.5 0.5 0.5 0.5 0.5 0.5 0.5 0.5 0.789372150122764 0.210627849877236 0.692209123526397 0.307790876473603 0.5 0.5 0.5 0.5 0.996688741721854 0.00331125827814569 0.5 0.5 0.00668859161815031 0.99331140838185 7.24532676423707e-05 0.999927546732358 0.5 0.5 0.872712213647933 0.127287786352067 0.731990709204811 0.268009290795189 0.5 0.5 0.790115497517215 0.209884502482785 0.743428712738663 0.256571287261337 0.5 0.5 0.645130079552784 0.354869920447216 0.301899251619395 0.698100748380605 0.5 0.5 0.666625524561837 0.333374475438163 0.000208246563931695 0.999791753436068 0.5 0.5 0.0294348316259007 0.970565168374099 0.143196955280685 0.856803044719315 0.5 0.5 0.901908247287936 0.0980917527120638 0.803881845510391 0.196118154489609 0.5 0.5 0.950853707781274 0.0491462922187259 0.927179857822461 0.0728201421775385 0.5 0.5 0.855746426511121 0.144253573488879 0.849283170486714 0.150716829513286 0.5 0.5 0.825992465951898 0.174007534048102 0.00166112956810631 0.998338870431894 0.5 0.5 0.5 0.5 0.5 0.5 0.5 0.5 0.5 0.5 0.5 0.5 0.5 0.5 0.5 0.5 0.5 0.5 0.5 0.5 0.5 0.5 0.5 0.5 0.5 0.5 0.5 0.5 0.5 0.5 0.5 0.5 0.5 0.5 0.5 0.5 0.5 0.5 0.5 0.5 0.5 0.5 0.5 0.5 0.5 0.5 0.5 0.5 0.5 0.5 0.5 0.5 0.5 0.5 0.5 0.5 0.5 0.5 0.5 0.5 0.5 0.5 0.5 0.5 0.5 0.5 0.5 0.5 0.5 0.5 0.5 0.5 0.5 0.5 0.5 0.5 0.5 0.5 0.5 0.5 0.5 0.5 0.5 0.5 0.5 0.5 0.5 0.5 0.5 0.5 0.5 0.5 6.05987153072355e-05 0.999939401284693 0.000475737392959087 0.999524262607041 0.999722376457524 0.000277623542476402 0.044821410804895 0.955178589195105 0.0694643766492292 0.930535623350771 0.99982462293932 0.000175377060680463 0.0377939881775877 0.962206011822412 0.0537954268511218 0.946204573148878 0.999833388870377 0.000166611129623459 0.0316118167146165 0.968388183285384 0.0474678538338117 0.952532146166188 0.999899010300949 0.000100989699050697 0.0185779533390939 0.981422046660906 0.0976264022110226 0.902373597788977 0.99969715324046 0.000302846759539673 4.21905324445195e-05 0.999957809467556 0.00166112956810631 0.998338870431894 0.999888913574761 0.000111086425238836 0.14297048556014 0.85702951443986 0.083564686285397 0.916435313714603 0.998891352549889 0.00110864745011086 0.0800279981334578 0.919972001866542 0.0408787920010883 0.959121207998912 0.999965280188876 3.47198111242275e-05 0.109254642727094 0.890745357272905 0.0952595100788318 0.904740489921168 0.999967322397229 3.26776027710607e-05 0.0339509659925432 0.966049034007457 0.0910330202968797 0.90896697970312 0.99987657368551 0.000123426314490249 3.36677664803717e-05 0.99996633223352 0.000151469251741896 0.999848530748258 0.999583680266445 0.00041631973355537 0.0303346575988149 0.969665342401185 0.0209676453563801 0.97903235464362 0.999629903774981 0.000370096225018505 3.78759184910234e-05 0.999962124081509 1.43674032355392e-05 0.999985632596764 0.999777876499334 0.00022212350066637 0.0079625416644622 0.992037458335538 8.52500383625173e-06 0.999991474996164 0.999722376457524 0.000277623542476402 4.44404941782953e-05 0.999955559505822 0.0103429317572675 0.989657068242732 0.99969715324046 0.000302846759539673 0.5 0.5 0.5 0.5 0.999583680266445 0.00041631973355537 0.5 0.5 0.5 0.5 0.5 0.5 0.00331125827814569 0.996688741721854 0.5 0.5 0.5 0.5 0.111207109355715 0.888792890644285 0.0271122320302648 0.972887767969735 0.999743721168631 0.000256278831368529 0.095824517983314 0.904175482016686 0.000831946755407654 0.999168053244592 0.996688741721854 0.00331125827814569 </TABLE>
</DEFINITION>

<DEFINITION>
	<FOR>ThisCarDam</FOR>
	<GIVEN>GoodStudent</GIVEN>
	<TABLE>0.0727033352837917 0.318461088355764 0.000146284376828555 0.608689291983616 0.162661879334684 0.602605413367704 0.234717363284846 1.53440127662186e-05 </TABLE>
</DEFINITION>

<DEFINITION>
	<FOR>RuggedAuto</FOR>
	<GIVEN>ThisCarDam</GIVEN>
	<TABLE>0.641617108187661 0.358322820928696 6.00708836426984e-05 0.374250100522718 1.60836349014877e-05 0.62573381584238 0.522464810214843 4.35786813091036e-05 0.477491611103848 0.757488386993433 0.242351433605638 0.000160179400929041 </TABLE>
</DEFINITION>

<DEFINITION>
	<FOR>Accident</FOR>
	<GIVEN>HomeBase</GIVEN>
	<GIVEN>ThisCarDam</GIVEN>
	<TABLE>0.877259864801132 3.93019965414243e-05 0.033996227008332 0.0887046061939947 0.543999706587119 1.22255367010612e-05 0.313377182258301 0.142610885617879 0.25 0.25 0.25 0.25 0.930308136735676 0.000120365912373616 0.00589792970630717 0.0636735676456427 0.653993394385227 0.293687134063954 0.0522819396487014 3.75319021167993e-05 0.380947524568886 0.322204709809012 0.296838494344521 9.2712775820508e-06 0.129389084375234 0.1051321404507 0.765460058396346 1.87167777195478e-05 0.0922569027611045 0.901860744297719 0.00582232893157263 6.00240096038415e-05 6.89655172413793e-05 0.764758620689655 0.235103448275862 6.89655172413793e-05 1.69365219158594e-05 0.437385678477068 0.5625804484791 1.69365219158594e-05 2.60715403066013e-05 0.0888778809052039 0.911069976014183 2.60715403066013e-05 0.25 0.25 0.25 0.25 </TABLE>
</DEFINITION>

<DEFINITION>
	<FOR>MakeModel</FOR>
	<GIVEN>RuggedAuto</GIVEN>
	<GIVEN>ThisCarDam</GIVEN>
	<TABLE>0.203370470929688 1.8724838498268e-05 0.633667259619886 1.8724838498268e-05 0.162924819773429 0.313043104559715 8.59512656323864e-06 0.601839357084533 8.59512656323864e-06 0.0851003481026258 0.315305696888815 1.66819584619234e-05 0.472449745600133 1.66819584619234e-05 0.212211193594128 0.177669697610488 4.22922393740749e-05 0.708014379361387 4.22922393740749e-05 0.114231338549376 0.621659681475272 0.20523051131601 3.35289186923722e-05 3.35289186923722e-05 0.173042749371333 0.2 0.2 0.2 0.2 0.2 0.2 0.2 0.2 0.2 0.2 0.51566424322538 0.412557832121613 0.000132187706543291 0.000132187706543291 0.0715135492399207 0.2 0.2 0.2 0.2 0.2 0.0610769823930086 0.365819303431436 0.176126461894358 0.396972111553785 5.14072741292893e-06 0.0460162453226248 0.258483161449302 0.0887286666058228 0.606753673450762 1.82531714885461e-05 0.2 0.2 0.2 0.2 0.2 </TABLE>
</DEFINITION>

<DEFINITION>
	<FOR>DrivQuality</FOR>
	<GIVEN>Airbag</GIVEN>
	<GIVEN>SeniorTrain</GIVEN>
	<GIVEN>RiskAversion</GIVEN>
	<TABLE>0.999947328224171 2.6335887914461e-05 2.6335887914461e-05 0.193406539415825 0.806568894784681 2.45657994939445e-05 8.28672053035011e-06 0.999983426558939 8.28672053035011e-06 0.99961081922553 0.000194590387234871 0.000194590387234871 5.4103771032841e-05 5.4103771032841e-05 0.999891792457934 8.10438447199935e-05 0.564146203095875 0.435772753059405 8.10438447199935e-05 0.264608153010779 0.735310803144501 0.333333333333333 0.333333333333333 0.333333333333333 0.999937630585961 3.11847070196776e-05 3.11847070196776e-05 0.345728960431551 0.654242345987203 2.86935812458753e-05 1.28042612581467e-05 0.999974391477484 1.28042612581467e-05 0.999750592343185 0.000124703828407532 0.000124703828407532 0.333333333333333 0.333333333333333 0.333333333333333 4.36700292589196e-05 0.999912659941482 4.36700292589196e-05 0.00011832919181162 0.999763341616377 0.00011832919181162 0.333333333333333 0.333333333333333 0.333333333333333 </TABLE>
</DEFINITION>

<DEFINITION>
	<FOR>Mileage</FOR>
	<GIVEN>Airbag</GIVEN>
	<GIVEN>PropCost</GIVEN>
	<GIVEN>ThisCarDam</GIVEN>
	<TABLE>0.999929386011369 3.53069943155739e-05 3.53069943155739e-05 0.999970945013438 1.45274932810344e-05 1.45274932810344e-05 0.999964750876822 1.76245615890305e-05 1.76245615890305e-05 0.999725989861625 0.00013700506918756 0.00013700506918756 0.999910598542756 4.47007286218765e-05 4.47007286218765e-05 0.0637995762976594 0.936194744046301 5.67965604003022e-06 0.999791731750495 0.000104134124752681 0.000104134124752681 0.999791731750495 0.000104134124752681 0.000104134124752681 0.190044777673644 0.000104134124752681 0.809851088201604 0.0587497514492421 0.656372841432264 0.284877407118494 0.300013015749056 0.000130157490563582 0.69985682676038 0.068370002365744 0.000236574402649633 0.931393423231606 0.0436094763844877 0.000150897842160857 0.956239625773352 0.2177710590409 8.39842109683379e-05 0.782144956748131 0.345233668030247 0.000123961819759514 0.654642370149994 0.000335683115139308 0.000335683115139308 0.999328633769721 0.999896367687445 5.18161562775273e-05 5.18161562775273e-05 0.999963706970076 1.81465149618016e-05 1.81465149618016e-05 0.999947394723691 2.63026381546069e-05 2.63026381546069e-05 0.999537358315984 0.000231320842007865 0.000231320842007865 0.999895849606832 5.20751965838671e-05 5.20751965838671e-05 0.999938731121527 3.06344392365898e-05 3.06344392365898e-05 0.999850153592568 7.49232037161909e-05 7.49232037161909e-05 0.999803517044896 9.82414775518224e-05 9.82414775518224e-05 0.1990494969412 5.05586733404115e-05 0.800899944385459 0.366665013309525 1.65335714167617e-05 0.633318453119058 0.410486385700968 3.2147105153181e-05 0.589481467193879 0.0778664815457596 0.000115700566932778 0.922017817887308 0.192823986952704 0.000125454773554134 0.807050558273742 0.320286148485859 3.70658660439601e-05 0.679676785648097 0.409078954289622 5.26011256640892e-05 0.590868444584714 0.000371609067261241 0.000371609067261241 0.999256781865478 </TABLE>
</DEFINITION>

<DEFINITION>
	<FOR>Antilock</FOR>
	<GIVEN>MakeModel</GIVEN>
	<GIVEN>ThisCarDam</GIVEN>
	<TABLE>0.867309458218549 0.132690541781451 0.971399291969443 0.0286007080305571 0.943915418008682 0.0560845819913177 0.859126249537208 0.140873750462792 0.529397354238119 0.470602645761881 0.693920998271574 0.306079001728426 0.546600296547342 0.453399703452658 0.327089337175792 0.672910662824208 0.63473982802943 0.36526017197057 0.927490578521907 0.0725094214780933 0.728731579423199 0.271268420576801 0.602132234366601 0.397867765633399 0.5 0.5 0.228448778213745 0.771551221786255 0.0938994675570797 0.90610053244292 0.5 0.5 0.112637957152132 0.887362042847868 0.406089063920024 0.593910936079976 0.165173308182033 0.834826691817967 0.129972247918594 0.870027752081406 </TABLE>
</DEFINITION>

<DEFINITION>
	<FOR>DrivingSkill</FOR>
	<GIVEN>SeniorTrain</GIVEN>
	<GIVEN>DrivQuality</GIVEN>
	<GIVEN>RiskAversion</GIVEN>
	<TABLE>0.683339520804181 0.316660479195819 0.999949804236522 5.01957634775625e-05 0.5 0.5 0.664208605747301 0.335791394252699 0.5 0.5 0.0207247366718194 0.979275263328181 0.0432308698495749 0.956769130150425 0.5 0.5 0.5 0.5 0.5 0.5 0.5 0.5 0.5 0.5 0.5 0.5 0.5 0.5 0.5 0.5 0.5 0.5 0.5 0.5 0.151148770848684 0.848851229151316 0.340191224176199 0.659808775823801 0.5 0.5 0.86489557407207 0.13510442592793 0.30364447750093 0.69635552249907 0.322790390125634 0.677209609874366 0.5 0.5 </TABLE>
</DEFINITION>

<DEFINITION>
	<FOR>SeniorTrain</FOR>
	<GIVEN>Airbag</GIVEN>
	<GIVEN>Mileage</GIVEN>
	<GIVEN>Age</GIVEN>
	<TABLE>0.875725948994192 0.124274051005808 0.424006754955115 0.575993245044885 0.915497627914095 0.0845023720859052 0.956489308801591 0.0435106911984087 0.655089371722145 0.344910628277855 0.961731573865465 0.0382684261345349 0.896456787167824 0.103543212832176 0.513328396890041 0.486671603109959 0.90785498489426 0.0921450151057402 0.5 0.5 0.836531270699344 0.163468729300656 0.5 0.5 0.5 0.5 0.5 0.5 0.5 0.5 0.5 0.5 0.816263037736694 0.183736962263306 0.5 0.5 </TABLE>
</DEFINITION>

<DEFINITION>
	<FOR>ThisCarCost</FOR>
	<GIVEN>CarValue</GIVEN>
	<GIVEN>Accident</GIVEN>
	<TABLE>0.579035397153631 0.0657158496533269 0.32359202043547 0.0316567327575721 0.631923615276945 0.104029194161168 0.22000599880024 0.0440411917616477 0.227461325683844 0.0758375166478844 0.651598196906055 0.045102960762217 0.238109393579073 0.071640903686088 0.666171224732461 0.0240784780023781 0.0353046419293172 0.771543061614627 0.172552816038429 0.0205994804176266 0.0322721114766789 0.861896006709245 0.0838816850525772 0.0219501967614993 0.0359742993728345 0.519286434805491 0.40262488487347 0.042114380948204 0.0327267789244976 0.510727865290603 0.358636610537751 0.0979087452471483 0.507815558413959 0.289706951512779 0.187922934958895 0.0145545551143672 0.55645295241259 0.312287185449714 0.111307200398638 0.0199526617390582 0.29868942688888 0.181680843693468 0.482670028097456 0.0369597013201955 0.234241332733003 0.207226474561009 0.513394867176947 0.045137325529041 0.0183698743234566 0.772429134941748 0.177988257957986 0.0312127327768095 0.0215910204881874 0.815630820507793 0.145108322713459 0.0176698362905597 0.0488477687725808 0.458963968362465 0.429669954106044 0.0625183087589103 0.0590107737512243 0.352840352595495 0.529138099902057 0.0590107737512243 0.19234465086483 0.0257847533632287 0.346092248558616 0.435778347213325 0.299875311720698 0.050498753117207 0.349750623441397 0.299875311720698 0.200016123831022 0.0516768784263141 0.329006772009029 0.419300225733634 0.20049504950495 0.00247524752475247 0.398514851485148 0.398514851485148 </TABLE>
</DEFINITION>

<DEFINITION>
	<FOR>Theft</FOR>
	<GIVEN>ThisCarCost</GIVEN>
	<GIVEN>Antilock</GIVEN>
	<GIVEN>ThisCarDam</GIVEN>
	<TABLE>0.999958113428835 4.18865711652844e-05 0.619658810688442 0.380341189311558 0.479173446143833 0.520826553856167 0.999880753637014 0.000119246362985929 0.000115713955102985 0.999884286044897 7.30033581544751e-05 0.999926996641845 9.95024875621891e-05 0.999900497512438 0.000325309043591412 0.999674690956409 0.995678766121526 0.00432123387847361 0.983378828730762 0.0166211712692379 0.440487260554212 0.559512739445788 0.999865338001616 0.000134661998384056 6.70510929328148e-05 0.999932948907067 1.84685849370221e-05 0.999981531415063 3.97551085314463e-05 0.999960244891469 0.000114025085518814 0.999885974914481 0.999937507811524 6.24921884764404e-05 0.9999807344045 1.92655954995569e-05 0.999976073120544 2.39268794563813e-05 0.99972602739726 0.000273972602739726 0.00013238019592269 0.999867619804077 3.41133929180596e-05 0.999965886607082 4.83699332494921e-05 0.99995163006675 0.000742942050520059 0.99925705794948 0.996894409937888 0.0031055900621118 0.984256773248719 0.0157432267512814 0.999599679743795 0.000400320256204964 0.996124031007752 0.00387596899224806 0.000410846343467543 0.999589153656532 0.000183755972069092 0.999816244027931 0.000188182160331201 0.999811817839669 0.00259067357512953 0.99740932642487 </TABLE>
</DEFINITION>

<DEFINITION>
	<FOR>CarValue</FOR>
	<GIVEN>Airbag</GIVEN>
	<GIVEN>MakeModel</GIVEN>
	<TABLE>0.768561872909699 0.133792915159375 0.0976179100402703 1.3650945327964e-05 1.3650945327964e-05 0.00463080290289137 0.877802096532658 0.117521022923626 2.30388204123949e-05 2.30388204123949e-05 0.00168405177830841 0.372845712370659 0.62545347911692 8.37836705626074e-06 8.37836705626074e-06 0.0925166136954637 0.395897139555042 0.511470673215834 5.77867668303958e-05 5.77867668303958e-05 0.2687432867884 0.462083780880773 0.2687432867884 0.000214822771213749 0.000214822771213749 6.20925178515989e-05 0.229804408568767 0.344675566594225 0.400558832660664 0.0248990996584911 2.82445982205903e-05 0.324841124135009 0.0508685213952832 0.624233865273266 2.82445982205903e-05 2.67701780216838e-05 0.222219247757998 0.327961450943649 0.448427252041226 0.00136527907910588 1.33770316366798e-05 0.282937596147415 0.311698214166277 0.353835863821818 0.051514948832854 3.51432085749429e-05 0.186294148655772 0.189808469513267 0.321595501669302 0.302266736953084 </TABLE>
</DEFINITION>

<DEFINITION>
	<FOR>HomeBase</FOR>
	<GIVEN>Airbag</GIVEN>
	<GIVEN>OtherCarCost</GIVEN>
	<GIVEN>ThisCarDam</GIVEN>
	<TABLE>0.515272808134716 0.179048658701761 0.305678533163523 0.374874464884878 0.323225731806086 0.301899803309036 1.75134415664022e-05 0.248428168619415 0.751554317939018 0.568508875076992 0.431435130746402 5.5994176605633e-05 0.333333333333333 0.333333333333333 0.333333333333333 0.333333333333333 0.333333333333333 0.333333333333333 0.333333333333333 0.333333333333333 0.333333333333333 0.333333333333333 0.333333333333333 0.333333333333333 0.499308437067773 0.00138312586445367 0.499308437067773 0.532371004968118 3.91190392363963e-05 0.467589875992646 0.000223863890754421 0.000223863890754421 0.999552272218491 0.990867579908676 0.0045662100456621 0.0045662100456621 0.237713082330174 0.651612168815277 0.110674748854549 0.16712897443155 0.741824700443438 0.0910463251250118 3.65457003983481e-05 0.831524321163615 0.168439133135987 0.094215081885547 0.905722647736472 6.22703779811943e-05 0.272289819206709 0.56430879219083 0.163401388602461 0.245182436137787 0.671245105916262 0.0835724579459515 2.05140829179232e-05 0.886228896137198 0.113750589779884 0.174057315233786 0.825641025641026 0.000301659125188537 0.333333333333333 0.333333333333333 0.333333333333333 0.333333333333333 0.333333333333333 0.333333333333333 0.333333333333333 0.333333333333333 0.333333333333333 0.333333333333333 0.333333333333333 0.333333333333333 </TABLE>
</DEFINITION>

<DEFINITION>
	<FOR>AntiTheft</FOR>
	<GIVEN>SeniorTrain</GIVEN>
	<GIVEN>SocioEcon</GIVEN>
	<GIVEN>Age</GIVEN>
	<TABLE>0.999963308138255 3.66918617450649e-05 0.546453190261129 0.453546809738871 2.16835075241771e-05 0.999978316492476 0.999964252520197 3.57474798026739e-05 0.725315173009865 0.274684826990135 3.64033491081179e-05 0.999963596650892 0.5 0.5 0.483786218285543 0.516213781714457 0.5 0.5 0.999661475964794 0.0003385240352065 0.294617692517502 0.705382307482498 0.000305064063453325 0.999694935936547 0.999521531100478 0.000478468899521531 0.350182362293089 0.649817637706911 0.000495540138751239 0.999504459861249 0.5 0.5 0.166975023126735 0.833024976873265 0.5 0.5 </TABLE>
</DEFINITION>

<DEFINITION>
	<FOR>PropCost</FOR>
	<GIVEN>OtherCarCost</GIVEN>
	<GIVEN>ThisCarCost</GIVEN>
	<TABLE>0.122333314766334 0.677783657327466 0.0982704840416643 0.101612543864535 7.40850496369833e-06 0.568624981478738 0.33747962661135 0.0938879834049489 0.999969661421463 1.01128595121557e-05 1.01128595121557e-05 1.01128595121557e-05 0.000110766504209127 0.616858661940629 0.186198493575543 0.196832077979619 0.0442462600690449 0.439182968929804 0.19614499424626 0.320425776754891 2.20439114716515e-05 0.0793801252094171 0.743871792610881 0.17672603826823 0.999878895527208 4.03681575972873e-05 4.03681575972873e-05 4.03681575972873e-05 0.000109027474923681 0.010575665067597 0.329808111644134 0.659507195813345 0.0726779252110977 0.550361881785283 0.202955367913148 0.17400482509047 8.78734622144112e-05 0.194112478031634 0.712917398945518 0.0928822495606327 0.999456915278783 0.000181028240405503 0.000181028240405503 0.000181028240405503 0.00229357798165138 0.33256880733945 0.442660550458716 0.222477064220183 </TABLE>
</DEFINITION>

<DEFINITION>
	<FOR>OtherCarCost</FOR>
	<GIVEN>Antilock</GIVEN>
	<GIVEN>MakeModel</GIVEN>
	<TABLE>0.995743228319579 2.00791117000984e-05 0.00423669256872076 0.976476721076467 3.25807187306552e-05 0.0234906982048024 0.979903716238374 1.3117678695578e-05 0.02008316608293 9.63112780506597e-05 9.63112780506597e-05 0.999807377443899 0.984702689365902 0.000246730816679003 0.0150505798174192 0.999475478625754 0.000262260687123 0.000262260687123 0.999879467245224 6.02663773880552e-05 6.02663773880552e-05 0.999887596245715 5.62018771426966e-05 5.62018771426966e-05 2.22950527277997e-05 0.999955409894544 2.22950527277997e-05 0.0152406248023778 0.984696136090558 6.32391070638083e-05 </TABLE>
</DEFINITION>

<DEFINITION>
	<FOR>OtherCar</FOR>
	<GIVEN>ThisCarCost</GIVEN>
	<TABLE>0.999935140744584 6.48592554157478e-05 0.517274832571822 0.482725167428178 0.758801672085462 0.241198327914538 0.99967804249839 0.000321957501609788 </TABLE>
</DEFINITION>

<DEFINITION>
	<FOR>MedCost</FOR>
	<GIVEN>Airbag</GIVEN>
	<GIVEN>HomeBase</GIVEN>
	<GIVEN>Accident</GIVEN>
	<TABLE>0.943806243201371 8.24076210567953e-06 0.0561772752744174 8.24076210567953e-06 0.25 0.25 0.25 0.25 0.968753381668651 2.70533492046315e-05 0.0311925116329402 2.70533492046315e-05 0.999814034217704 6.19885940986858e-05 6.19885940986858e-05 6.19885940986858e-05 2.03832042397065e-05 0.275927435792907 0.724031797798614 2.03832042397065e-05 1.97644082536169e-05 0.307395841568503 0.692564629614989 1.97644082536169e-05 2.90124173146106e-05 0.0445920854125566 0.955349889752814 2.90124173146106e-05 0.25 0.25 0.25 0.25 0.25 0.25 0.25 0.25 0.999956478848721 1.45070504265073e-05 1.45070504265073e-05 1.45070504265073e-05 0.999974532242181 8.48925260620055e-06 8.48925260620055e-06 8.48925260620055e-06 0.25 0.25 0.25 0.25 3.60386334150209e-05 3.60386334150209e-05 0.626243332852818 0.373684589880352 0.25 0.25 0.25 0.25 6.19885940986858e-05 6.19885940986858e-05 0.809385073146541 0.190490949665262 7.82962730974006e-05 7.82962730974006e-05 0.571327904791732 0.428515502662073 1.17830041947495e-05 0.252262336805392 0.455872649290663 0.29185323089975 1.318495859923e-05 0.24177258583408 0.446825061969305 0.311389167238015 8.74584572328144e-06 0.0747332517054399 0.78083785202029 0.144420150428546 0.25 0.25 0.25 0.25 0.25 0.25 0.25 0.25 8.53533629224991e-05 8.53533629224991e-05 8.53533629224991e-05 0.999743939911232 3.94508442480669e-05 3.94508442480669e-05 3.94508442480669e-05 0.999881647467256 0.25 0.25 0.25 0.25 </TABLE>
</DEFINITION>

<DEFINITION>
	<FOR>Cushioning</FOR>
	<GIVEN>ILiCost</GIVEN>
	<GIVEN>Airbag</GIVEN>
	<GIVEN>RuggedAuto</GIVEN>
	<TABLE>0.132289744727561 0.473649485017633 0.394054931452461 5.83880234486302e-06 0.0150743931088489 0.0601801096319499 0.924706342991386 3.91542678151918e-05 0.614012913443382 0.368413839312907 0.0175580191265152 1.52281171955899e-05 0.484155994063651 0.412919804320343 0.102910460067059 1.37415489473973e-05 0.0719007233724121 0.556809678223996 0.371227238712896 6.23596906959342e-05 0.740134508131415 0.209225758072831 0.0506280170595679 1.1716736185968e-05 1.49013530428563e-05 0.999955295940871 1.49013530428563e-05 1.49013530428563e-05 0.000649350649350649 0.998051948051948 0.000649350649350649 0.000649350649350649 2.49775202317914e-05 0.999925067439305 2.49775202317914e-05 2.49775202317914e-05 4.2165626581211e-05 0.983681902513071 0.0162337662337662 4.2165626581211e-05 0.000208159866777685 0.919442131557036 0.0801415487094088 0.000208159866777685 3.73301478273854e-05 0.996304315365089 0.00362102433925638 3.73301478273854e-05 0.591585778165558 2.72657868906097e-05 0.342921801723198 0.0654651543243538 0.1765605875153 0.000305997552019584 0.558445532435741 0.26468788249694 0.282170790496335 1.2297702789119e-05 0.00355403610605539 0.71426287569482 0.609184719907704 3.20471734393026e-05 0.0307973336751698 0.359985899243687 0.253010536879077 0.000125439036628199 0.168715504264927 0.578148519819368 0.267769483549028 1.01423992859751e-05 0.00487849405655402 0.727341879995132 0.00051975051975052 0.998440748440748 0.00051975051975052 0.00051975051975052 0.00342465753424658 0.98972602739726 0.00342465753424658 0.00342465753424658 0.0014792899408284 0.995562130177515 0.0014792899408284 0.0014792899408284 0.0014792899408284 0.995562130177515 0.0014792899408284 0.0014792899408284 0.00257731958762887 0.992268041237113 0.00257731958762887 0.00257731958762887 0.00206611570247934 0.993801652892562 0.00206611570247934 0.00206611570247934 </TABLE>
</DEFINITION>

<DEFINITION>
	<FOR>Airbag</FOR>
	<GIVEN>Antilock</GIVEN>
	<GIVEN>MakeModel</GIVEN>
	<TABLE>0.882507077886874 0.117492922113126 0.848450786824357 0.151549213175643 0.939376647908386 0.0606233520916139 0.999855533082924 0.00014446691707599 0.688749074759437 0.311250925240563 0.0003933910306845 0.999606608969316 9.03995660820828e-05 0.999909600433918 8.43028157140449e-05 0.999915697184286 3.34425790916996e-05 0.999966557420908 9.48586605957124e-05 0.999905141339404 </TABLE>
</DEFINITION>

<DEFINITION>
	<FOR>ILiCost</FOR>
	<GIVEN>ThisCarCost</GIVEN>
	<GIVEN>RuggedAuto</GIVEN>
	<TABLE>0.803004155807565 0.180055645558921 1.7609354088892e-05 0.0169225892794252 0.928260869565217 0.038558352402746 0.00011441647597254 0.0330663615560641 0.79885100074129 0.188621200889548 3.70644922164566e-05 0.0124907338769459 1.45883176752057e-05 0.508388282663243 0.491582540701406 1.45883176752057e-05 0.000118990956687292 0.331389814374108 0.668372203712518 0.000118990956687292 8.71292649775206e-06 0.242994807095807 0.756987767051197 8.71292649775206e-06 0.995807641330029 1.44067308246413e-05 1.44067308246413e-05 0.00416354520832133 0.995682356925161 8.46596681341009e-05 8.46596681341009e-05 0.00414832373857094 0.995933772624906 2.08524480774043e-05 2.08524480774043e-05 0.00402452247893903 0.920873296314992 0.0425290257445734 0.0304139323573952 0.00618374558303887 0.947095435684647 0.0508298755186722 0.00103734439834025 0.00103734439834025 0.635309807139926 0.0444193680755027 0.315244152646697 0.00502667213787444 </TABLE>
</DEFINITION>

<DEFINITION>
	<FOR>DrivHist</FOR>
	<GIVEN>Airbag</GIVEN>
	<GIVEN>Mileage</GIVEN>
	<GIVEN>DrivQuality</GIVEN>
	<TABLE>0.999933273279285 3.33633603576552e-05 3.33633603576552e-05 0.999973240209262 1.33798953692182e-05 1.33798953692182e-05 4.25658706848849e-05 4.25658706848849e-05 0.99991486825863 5.05893661152426e-05 0.99989882126777 5.05893661152426e-05 1.12707805015497e-05 0.999977458438997 1.12707805015497e-05 0.000119431506031291 0.999761136987937 0.000119431506031291 0.751608244715767 0.248260470001313 0.000131285282919785 0.648391918607454 0.351559863059935 4.82183326100583e-05 0.000192789666473877 0.125120493541546 0.87468671679198 0.999948131434944 2.59342825280739e-05 2.59342825280739e-05 0.999980362700914 9.81864954294186e-06 9.81864954294186e-06 0.333333333333333 0.333333333333333 0.333333333333333 0.333333333333333 0.333333333333333 0.333333333333333 0.333333333333333 0.333333333333333 0.333333333333333 0.333333333333333 0.333333333333333 0.333333333333333 0.999900452939127 4.97735304365139e-05 4.97735304365139e-05 0.999957382428775 2.1308785612308e-05 2.1308785612308e-05 0.333333333333333 0.333333333333333 0.333333333333333 </TABLE>
</DEFINITION>

</NETWORK>
</BIF>
