<?xml version="1.0" encoding="UTF-8"?>

<!-- DTD for the XMLBIF 0.3 format -->
<!DOCTYPE BIF [
<!ELEMENT BIF ( NETWORK )*>
<!ATTLIST BIF VERSION CDATA #REQUIRED>
   <!ELEMENT NETWORK ( NAME, ( PROPERTY | VARIABLE | DEFINITION )* )>
      <!ELEMENT NAME (#PCDATA)>
        <!ELEMENT VARIABLE ( NAME, ( OUTCOME |  PROPERTY )* ) >
          <!ATTLIST VARIABLE TYPE (nature|decision|utility) "nature">
           <!ELEMENT OUTCOME (#PCDATA)>
            <!ELEMENT DEFINITION ( FOR | GIVEN | TABLE | PROPERTY )* >
              <!ELEMENT FOR (#PCDATA)>
                <!ELEMENT GIVEN (#PCDATA)>
                  <!ELEMENT TABLE (#PCDATA)>
                    <!ELEMENT PROPERTY (#PCDATA)>
                      ]>
<BIF VERSION="0.3">
<NETWORK>
<NAME>Reco</NAME>
<VARIABLE TYPE="nature">
	<NAME>GoodStudent</NAME>
	<OUTCOME>True</OUTCOME>
	<OUTCOME>False</OUTCOME>
</VARIABLE>

<VARIABLE TYPE="nature">
	<NAME>Age</NAME>
	<OUTCOME>Adult</OUTCOME>
	<OUTCOME>Senior</OUTCOME>
	<OUTCOME>Adolescent</OUTCOME>
</VARIABLE>

<VARIABLE TYPE="nature">
	<NAME>SocioEcon</NAME>
	<OUTCOME>UpperMiddle</OUTCOME>
	<OUTCOME>Middle</OUTCOME>
	<OUTCOME>Prole</OUTCOME>
	<OUTCOME>Wealthy</OUTCOME>
</VARIABLE>

<VARIABLE TYPE="nature">
	<NAME>RiskAversion</NAME>
	<OUTCOME>Normal</OUTCOME>
	<OUTCOME>Psychopath</OUTCOME>
	<OUTCOME>Cautious</OUTCOME>
	<OUTCOME>Adventurous</OUTCOME>
</VARIABLE>

<VARIABLE TYPE="nature">
	<NAME>VehicleYear</NAME>
	<OUTCOME>Current</OUTCOME>
	<OUTCOME>Older</OUTCOME>
</VARIABLE>

<VARIABLE TYPE="nature">
	<NAME>ThisCarDam</NAME>
	<OUTCOME>Mild</OUTCOME>
	<OUTCOME>None</OUTCOME>
	<OUTCOME>Severe</OUTCOME>
	<OUTCOME>Moderate</OUTCOME>
</VARIABLE>

<VARIABLE TYPE="nature">
	<NAME>RuggedAuto</NAME>
	<OUTCOME>Tank</OUTCOME>
	<OUTCOME>Football</OUTCOME>
	<OUTCOME>EggShell</OUTCOME>
</VARIABLE>

<VARIABLE TYPE="nature">
	<NAME>Accident</NAME>
	<OUTCOME>Mild</OUTCOME>
	<OUTCOME>None</OUTCOME>
	<OUTCOME>Severe</OUTCOME>
	<OUTCOME>Moderate</OUTCOME>
</VARIABLE>

<VARIABLE TYPE="nature">
	<NAME>MakeModel</NAME>
	<OUTCOME>SportsCar</OUTCOME>
	<OUTCOME>Luxury</OUTCOME>
	<OUTCOME>FamilySedan</OUTCOME>
	<OUTCOME>Economy</OUTCOME>
	<OUTCOME>SuperLuxury</OUTCOME>
</VARIABLE>

<VARIABLE TYPE="nature">
	<NAME>DrivQuality</NAME>
	<OUTCOME>Normal</OUTCOME>
	<OUTCOME>Excellent</OUTCOME>
	<OUTCOME>Poor</OUTCOME>
</VARIABLE>

<VARIABLE TYPE="nature">
	<NAME>Mileage</NAME>
	<OUTCOME>FiftyThou</OUTCOME>
	<OUTCOME>TwentyThou</OUTCOME>
	<OUTCOME>FiveThou</OUTCOME>
	<OUTCOME>Domino</OUTCOME>
</VARIABLE>

<VARIABLE TYPE="nature">
	<NAME>Antilock</NAME>
	<OUTCOME>False</OUTCOME>
	<OUTCOME>True</OUTCOME>
</VARIABLE>

<VARIABLE TYPE="nature">
	<NAME>DrivingSkill</NAME>
	<OUTCOME>Normal</OUTCOME>
	<OUTCOME>Expert</OUTCOME>
	<OUTCOME>SubStandard</OUTCOME>
</VARIABLE>

<VARIABLE TYPE="nature">
	<NAME>SeniorTrain</NAME>
	<OUTCOME>True</OUTCOME>
	<OUTCOME>False</OUTCOME>
</VARIABLE>

<VARIABLE TYPE="nature">
	<NAME>ThisCarCost</NAME>
	<OUTCOME>HundredThou</OUTCOME>
	<OUTCOME>TenThou</OUTCOME>
	<OUTCOME>Million</OUTCOME>
	<OUTCOME>Thousand</OUTCOME>
</VARIABLE>

<VARIABLE TYPE="nature">
	<NAME>Theft</NAME>
	<OUTCOME>True</OUTCOME>
	<OUTCOME>False</OUTCOME>
</VARIABLE>

<VARIABLE TYPE="nature">
	<NAME>CarValue</NAME>
	<OUTCOME>TenThou</OUTCOME>
	<OUTCOME>FiveThou</OUTCOME>
	<OUTCOME>FiftyThou</OUTCOME>
	<OUTCOME>Million</OUTCOME>
	<OUTCOME>TwentyThou</OUTCOME>
</VARIABLE>

<VARIABLE TYPE="nature">
	<NAME>HomeBase</NAME>
	<OUTCOME>City</OUTCOME>
	<OUTCOME>Suburb</OUTCOME>
	<OUTCOME>Rural</OUTCOME>
	<OUTCOME>Secure</OUTCOME>
</VARIABLE>

<VARIABLE TYPE="nature">
	<NAME>AntiTheft</NAME>
	<OUTCOME>False</OUTCOME>
	<OUTCOME>True</OUTCOME>
</VARIABLE>

<VARIABLE TYPE="nature">
	<NAME>PropCost</NAME>
	<OUTCOME>Million</OUTCOME>
	<OUTCOME>HundredThou</OUTCOME>
	<OUTCOME>Thousand</OUTCOME>
	<OUTCOME>TenThou</OUTCOME>
</VARIABLE>

<VARIABLE TYPE="nature">
	<NAME>OtherCarCost</NAME>
	<OUTCOME>HundredThou</OUTCOME>
	<OUTCOME>Million</OUTCOME>
	<OUTCOME>TenThou</OUTCOME>
</VARIABLE>

<VARIABLE TYPE="nature">
	<NAME>OtherCar</NAME>
	<OUTCOME>False</OUTCOME>
	<OUTCOME>True</OUTCOME>
</VARIABLE>

<VARIABLE TYPE="nature">
	<NAME>MedCost</NAME>
	<OUTCOME>HundredThou</OUTCOME>
	<OUTCOME>Thousand</OUTCOME>
	<OUTCOME>TenThou</OUTCOME>
	<OUTCOME>Million</OUTCOME>
</VARIABLE>

<VARIABLE TYPE="nature">
	<NAME>Cushioning</NAME>
	<OUTCOME>Poor</OUTCOME>
	<OUTCOME>Fair</OUTCOME>
	<OUTCOME>Excellent</OUTCOME>
	<OUTCOME>Good</OUTCOME>
</VARIABLE>

<VARIABLE TYPE="nature">
	<NAME>Airbag</NAME>
	<OUTCOME>False</OUTCOME>
	<OUTCOME>True</OUTCOME>
</VARIABLE>

<VARIABLE TYPE="nature">
	<NAME>ILiCost</NAME>
	<OUTCOME>HundredThou</OUTCOME>
	<OUTCOME>Million</OUTCOME>
	<OUTCOME>Thousand</OUTCOME>
	<OUTCOME>TenThou</OUTCOME>
</VARIABLE>

<VARIABLE TYPE="nature">
	<NAME>DrivHist</NAME>
	<OUTCOME>Many</OUTCOME>
	<OUTCOME>Zero</OUTCOME>
	<OUTCOME>One</OUTCOME>
</VARIABLE>

<DEFINITION>
	<FOR>GoodStudent</FOR>
	<GIVEN>SocioEcon</GIVEN>
	<GIVEN>Age</GIVEN>
	<TABLE>0.999960396039604 3.96039603960396e-05 0.99991957535789 8.04246421103426e-05 0.440382165605096 0.559617834394904 0.999980728464059 1.92715359414145e-05 0.999955771782397 4.42282176028306e-05 0.893631030767389 0.106368969232611 0.999980512140936 1.94878590638033e-05 0.999886800996151 0.000113199003848766 0.787171166995017 0.212828833004983 0.999075785582255 0.000924214417744917 0.997925311203319 0.0020746887966805 0.461783439490446 0.538216560509554 </TABLE>
</DEFINITION>

<DEFINITION>
	<FOR>Age</FOR>
	<GIVEN>DrivQuality</GIVEN>
	<GIVEN>SocioEcon</GIVEN>
	<TABLE>0.58159529806885 0.29504617968094 0.12335852225021 0.626643882662378 0.262367861151597 0.110988256186025 0.72328240714832 0.118212173783275 0.158505419068405 0.657184536834427 0.210795040116703 0.132020423048869 0.568408394429574 0.167617052639746 0.26397455293068 0.534627869457889 0.16935875755632 0.296013372985791 0.599148207300419 0.0691850103002106 0.33166678239937 0.499505440158259 0.25024727992087 0.25024727992087 0.463246254020554 0.435004314740723 0.101749431238723 0.503486424369912 0.371664524171244 0.124849051458845 0.638012332245194 0.203378413389295 0.158609254365511 0.498850574712644 0.416091954022989 0.0850574712643678 </TABLE>
</DEFINITION>

<DEFINITION>
	<FOR>SocioEcon</FOR>
	<GIVEN>MakeModel</GIVEN>
	<GIVEN>VehicleYear</GIVEN>
	<TABLE>0.956419359513114 3.62266338211853e-05 3.62266338211853e-05 0.0435081872192436 0.988850080601827 0.000134336378291241 0.000134336378291241 0.0108812466415905 0.389326387206203 0.0815968015507633 0.524210483805832 0.00486632743720217 0.0572147576604142 0.286472883685868 0.656301272670835 1.10859828832424e-05 0.109928803590775 0.602112676056338 0.287919826652221 3.86937006655317e-05 0.00760645418038421 0.828850258673709 0.163534242610615 9.04453529177671e-06 0.56116098755356 0.120434605182616 0.281626198734952 0.0367782085288717 0.105505554774293 0.441604556321193 0.45004218815919 0.00284770074532415 0.0015527950310559 0.0015527950310559 0.0015527950310559 0.995341614906832 0.00609756097560976 0.00609756097560976 0.00609756097560976 0.981707317073171 </TABLE>
</DEFINITION>

<DEFINITION>
	<FOR>RiskAversion</FOR>
	<GIVEN>SeniorTrain</GIVEN>
	<GIVEN>DrivQuality</GIVEN>
	<GIVEN>Age</GIVEN>
	<TABLE>0.672759921181431 0.204043689217535 0.120521431446914 0.00267495815411997 0.824571686203787 0.110414788097385 0.0552299368800721 0.00978358881875564 0.607172973542743 0.127147675766839 0.259960999262148 0.00571835142827026 0.484236862836635 0.160716890847022 0.326678434919616 0.0283678113967263 0.616899464024687 0.119904174110768 0.233920740620432 0.0292756212441124 0.331362320423882 0.0885043972251051 0.556522095373354 0.0236111869776588 0.31342879010141 0.264063396900312 0.396087122903246 0.0264206900950316 0.476597805035507 0.186087798579729 0.267430600387347 0.0698837959974177 0.146946564885496 0.10430376414846 0.724993419320874 0.0237562516451698 0.25 0.25 0.25 0.25 0.245045540986888 0.754904413972575 2.50225202682414e-05 2.50225202682414e-05 0.25 0.25 0.25 0.25 0.25 0.25 0.25 0.25 0.227284199899041 0.77246340232206 0.000126198889449773 0.000126198889449773 0.25 0.25 0.25 0.25 0.25 0.25 0.25 0.25 0.165558593264571 0.834379271778302 3.10674785634398e-05 3.10674785634398e-05 0.25 0.25 0.25 0.25 </TABLE>
</DEFINITION>

<DEFINITION>
	<FOR>VehicleYear</FOR>
	<GIVEN>CarValue</GIVEN>
	<GIVEN>MakeModel</GIVEN>
	<TABLE>0.912676577958838 0.0873234220411618 0.5 0.5 0.5 0.5 0.649018232819074 0.350981767180926 0.5 0.5 0.000464684014869888 0.99953531598513 0.206268358227611 0.793731641772389 0.522298422262745 0.477701577737255 0.124050232165471 0.875949767834529 0.5 0.5 0.000998003992015968 0.999001996007984 1.46515853015296e-05 0.999985348414698 0.0257702744478412 0.974229725552159 9.80199960792001e-05 0.999901980003921 0.5 0.5 0.000350631136044881 0.999649368863955 0.743273030294885 0.256726969705115 0.819267073847862 0.180732926152138 0.725936411149826 0.274063588850174 0.5 0.5 0.5 0.5 0.5 0.5 0.5 0.5 0.599601593625498 0.400398406374502 0.79940119760479 0.20059880239521 </TABLE>
</DEFINITION>

<DEFINITION>
	<FOR>ThisCarDam</FOR>
	<GIVEN>ThisCarCost</GIVEN>
	<TABLE>0.894263339705537 0.0128869436898414 0.00416708589059932 0.0886826307140222 0.0111940298507463 0.391514648977336 0.597153123272526 0.000138197899391929 0.00189524465885596 0.282161727544222 0.696588559614059 0.0193544681828624 0.01 0.49 0.49 0.01 </TABLE>
</DEFINITION>

<DEFINITION>
	<FOR>RuggedAuto</FOR>
	<TABLE>0.156464096581861 0.358886049698182 0.484649853719957 </TABLE>
</DEFINITION>

<DEFINITION>
	<FOR>Accident</FOR>
	<GIVEN>RuggedAuto</GIVEN>
	<GIVEN>ThisCarDam</GIVEN>
	<TABLE>0.906948852313824 0.00444682264373755 0.00798951952173592 0.0806148055207026 0.000315258511979823 0.287831021437579 0.69640605296343 0.0154476670870113 0.000231267345050879 0.122340425531915 0.877197039777983 0.000231267345050879 0.00016926201760325 0.503893026404875 0.203283683141503 0.292654028436019 0.972081526452732 8.67302688638335e-06 8.67302688638335e-06 0.0279011274934952 8.71383757406762e-05 0.916085744161729 0.012635064482398 0.0711920529801324 5.7696745903531e-05 0.0582160166166628 0.94166858989153 5.7696745903531e-05 9.13408841797589e-05 0.0790098648154914 9.13408841797589e-05 0.920807453416149 0.999980108738894 6.63042036865137e-06 6.63042036865137e-06 6.63042036865137e-06 7.49175906502847e-05 0.895489961042853 7.49175906502847e-05 0.104360203775847 3.40924587481249e-05 0.175132960589118 0.821525978453566 0.00330696849856812 6.29247420085578e-05 6.29247420085578e-05 6.29247420085578e-05 0.999811225773974 </TABLE>
</DEFINITION>

<DEFINITION>
	<FOR>MakeModel</FOR>
	<GIVEN>RuggedAuto</GIVEN>
	<TABLE>0.173301775147929 0.807384615384615 4.73372781065089e-05 0.0121183431952663 0.00714792899408284 0.167805180063977 0.626271798575998 0.183283458879373 0.0195232690124858 0.00311629346816634 0.020646443035073 0.0763505769083824 0.645999847176588 0.256987850538703 1.52823412546802e-05 </TABLE>
</DEFINITION>

<DEFINITION>
	<FOR>DrivQuality</FOR>
	<GIVEN>Accident</GIVEN>
	<TABLE>0.592360443504454 0.161366403896687 0.246273152598859 0.073227885178676 0.922437024018746 0.00433509080257762 0.0209941083727491 0.975935607003568 0.00307028462368268 0.112315375624269 0.877377536924875 0.0103070874508554 </TABLE>
</DEFINITION>

<DEFINITION>
	<FOR>Mileage</FOR>
	<GIVEN>CarValue</GIVEN>
	<GIVEN>VehicleYear</GIVEN>
	<TABLE>0.414007701829184 0.105934534451932 0.390627148947875 0.0894306147710081 0.522938443670151 0.0351335656213705 0.279036004645761 0.162891986062718 0.413574564509276 0.0949228154652316 0.393747344568758 0.0977552754567342 0.542103142626914 0.00587869020584573 0.267397992821039 0.184620174346202 0.316555740432612 0.0836106489184692 0.449667221297837 0.150166389351082 0.327888079624686 0.145933231383323 0.490662502267956 0.0355161867240351 0.395517858283816 0.0996901156475625 0.395517858283816 0.109274167784806 0.441096003979439 0.0133062510363124 0.248756425136793 0.296841319847455 0.453619909502262 0.00113122171945701 0.498868778280543 0.0463800904977376 0.25 0.25 0.25 0.25 </TABLE>
</DEFINITION>

<DEFINITION>
	<FOR>Antilock</FOR>
	<GIVEN>MakeModel</GIVEN>
	<GIVEN>VehicleYear</GIVEN>
	<TABLE>0.995580350673815 0.00441964932618461 0.306555615260613 0.693444384739387 0.405500363460141 0.594499636539859 2.21719657664849e-05 0.999977828034233 0.00162513542795233 0.998374864572048 1.80890705835534e-05 0.999981910929416 0.889716384411345 0.110283615588655 0.0942905357896217 0.905709464210378 0.996894409937888 0.0031055900621118 0.25609756097561 0.74390243902439 </TABLE>
</DEFINITION>

<DEFINITION>
	<FOR>DrivingSkill</FOR>
	<GIVEN>DrivQuality</GIVEN>
	<GIVEN>RiskAversion</GIVEN>
	<TABLE>0.999977544994218 1.1227502891082e-05 1.1227502891082e-05 0.999947344864808 2.63275675960298e-05 2.63275675960298e-05 0.999881817644626 5.90911776871713e-05 5.90911776871713e-05 0.995753715498938 0.00212314225053079 0.00212314225053079 1.85794177210486e-05 0.999962841164558 1.85794177210486e-05 5.32056397978186e-05 0.999893588720404 5.32056397978186e-05 0.288646469956846 0.710543033011325 0.000810497031828437 0.465783664459161 0.511195206559445 0.0230211289813939 6.62822297342083e-05 6.62822297342083e-05 0.999867435540532 0.418085705619827 4.33294336843017e-05 0.581870964946488 0.671730902500133 5.33077456154379e-05 0.328215789754251 0.734311328443358 0.000814995925020375 0.264873675631622 </TABLE>
</DEFINITION>

<DEFINITION>
	<FOR>SeniorTrain</FOR>
	<GIVEN>DrivQuality</GIVEN>
	<GIVEN>Age</GIVEN>
	<TABLE>0.999978812661553 2.11873384465443e-05 0.356912976313079 0.643087023686921 0.999894603709949 0.00010539629005059 0.999970823364649 2.91766353504114e-05 0.756574096829688 0.243425903170312 0.999945379069259 5.46209307406598e-05 0.999936224489796 6.37755102040816e-05 0.161421425593997 0.838578574406002 0.999736842105263 0.000263157894736842 </TABLE>
</DEFINITION>

<DEFINITION>
	<FOR>ThisCarCost</FOR>
	<GIVEN>CarValue</GIVEN>
	<TABLE>0.848561239547467 0.151315789473684 6.14854894244958e-05 6.14854894244958e-05 0.826598107377366 2.41405948242565e-05 0.173353611432986 2.41405948242565e-05 0.814672553723649 1.27609616660712e-05 0.185301924353019 1.27609616660712e-05 0.846808412508071 0.151761830089475 0.00140669679918827 2.30606032653814e-05 0.79635761589404 0.00165562913907285 0.00165562913907285 0.200331125827815 </TABLE>
</DEFINITION>

<DEFINITION>
	<FOR>Theft</FOR>
	<GIVEN>ThisCarCost</GIVEN>
	<TABLE>0.999849079384244 0.000150920615756112 0.982034273079049 0.0179657269209508 0.998047323684815 0.00195267631518493 0.98 0.02 </TABLE>
</DEFINITION>

<DEFINITION>
	<FOR>CarValue</FOR>
	<GIVEN>MakeModel</GIVEN>
	<TABLE>0.862862360191737 0.0491212052042913 0.0228714905272769 0.0650992923989957 4.56516776991554e-05 1.14508187335394e-05 0.183224550555365 0.390770640100767 0.425981907706401 1.14508187335394e-05 1.17295173303619e-05 0.295888804175708 0.682962876077649 0.0211248607119817 1.17295173303619e-05 0.0474858474858475 0.315551115551116 0.16986346986347 0.458741258741259 0.00835830835830836 0.00198019801980198 0.00198019801980198 0.00198019801980198 0.00198019801980198 0.992079207920792 </TABLE>
</DEFINITION>

<DEFINITION>
	<FOR>HomeBase</FOR>
	<GIVEN>RiskAversion</GIVEN>
	<GIVEN>SocioEcon</GIVEN>
	<TABLE>0.512831276921954 0.114495875009126 1.8252172008469e-05 0.372654595896912 9.30578820026056e-06 0.143541782989019 0.80819839940443 0.048250511818351 0.32087668692696 0.0994557192404107 8.58487002506782e-06 0.579659008962604 0.877599243856333 0.121455576559546 0.000472589792060492 0.000472589792060492 0.999907005579665 3.09981401115933e-05 3.09981401115933e-05 3.09981401115933e-05 1.61072095870111e-05 0.160830487726306 0.784501642935378 0.0546517621287288 0.956642227459195 0.0251592912629833 2.18207209566204e-05 0.0181766605568648 0.998329621380846 0.000556792873051225 0.000556792873051225 0.000556792873051225 0.190862218909181 0.111349235929929 0.411510746676606 0.286277798484284 1.41139276237791e-05 0.147250606898888 0.798523683170553 0.0542115960029357 0.00633316904879251 0.134080827994086 0.252365697387876 0.607220305569246 0.930497925311203 0.0674273858921162 0.00103734439834025 0.00103734439834025 0.352752293577982 0.000458715596330275 0.646330275229358 0.000458715596330275 0.000354609929078014 0.113829787234043 0.817375886524823 0.0684397163120567 0.109250851305335 0.0184449489216799 0.817536889897843 0.0547673098751419 0.492424242424242 0.00757575757575758 0.492424242424242 0.00757575757575758 </TABLE>
</DEFINITION>

<DEFINITION>
	<FOR>AntiTheft</FOR>
	<GIVEN>RiskAversion</GIVEN>
	<GIVEN>SocioEcon</GIVEN>
	<TABLE>0.903007957946996 0.0969920420530043 0.106030150753769 0.893969849246231 0.31264379657292 0.68735620342708 0.787334593572779 0.212665406427221 0.999938003719777 6.19962802231866e-05 0.944301269248115 0.0556987307518845 0.999956358558087 4.36414419132408e-05 0.998886414253898 0.00111358574610245 0.226674121008821 0.773325878991179 2.82278552475583e-05 0.999971772144752 4.92853622474125e-05 0.999950714637753 0.33402489626556 0.66597510373444 0.0596330275229358 0.940366972477064 0.000709219858156028 0.999290780141844 0.000567536889897843 0.999432463110102 0.0151515151515152 0.984848484848485 </TABLE>
</DEFINITION>

<DEFINITION>
	<FOR>PropCost</FOR>
	<GIVEN>OtherCarCost</GIVEN>
	<GIVEN>ThisCarCost</GIVEN>
	<TABLE>0.301495225570359 0.698499056549831 2.8589399050832e-06 2.8589399050832e-06 0.00013262599469496 0.00013262599469496 0.0128647214854111 0.986870026525199 0.944437697352441 6.0723828030119e-05 6.0723828030119e-05 0.0554408549914987 0.00675675675675676 0.00675675675675676 0.97972972972973 0.00675675675675676 0.925231243576567 0.00025693730729702 0.00025693730729702 0.0742548818088386 0.000135208220659816 0.000135208220659816 0.045565170362358 0.954164413196322 0.570264223311315 5.32708288940976e-05 5.32708288940976e-05 0.429629235030897 0.01 0.01 0.97 0.01 0.000242013552758955 0.000242013552758955 0.0118586640851888 0.987657308809293 0.000147666863555818 0.000147666863555818 0.382900177200236 0.616804489072652 5.8837373499647e-05 5.8837373499647e-05 0.214697575900212 0.785184749352789 0.0192307692307692 0.0192307692307692 0.942307692307692 0.0192307692307692 </TABLE>
</DEFINITION>

<DEFINITION>
	<FOR>OtherCarCost</FOR>
	<GIVEN>Accident</GIVEN>
	<TABLE>0.999974363904377 1.28180478113183e-05 1.28180478113183e-05 0.5203280609256 0.241944932630346 0.237727006444054 0.145465106630155 0.447182806406107 0.407352086963737 0.985761343109128 0.00903198384868771 0.00520667304218468 </TABLE>
</DEFINITION>

<DEFINITION>
	<FOR>OtherCar</FOR>
	<GIVEN>SocioEcon</GIVEN>
	<TABLE>0.897153775200949 0.102846224799051 0.508420498651404 0.491579501348595 0.784164018293156 0.215835981706844 0.947284345047923 0.0527156549520767 </TABLE>
</DEFINITION>

<DEFINITION>
	<FOR>MedCost</FOR>
	<GIVEN>Cushioning</GIVEN>
	<GIVEN>Accident</GIVEN>
	<TABLE>0.999956316617159 1.45611276137224e-05 1.45611276137224e-05 1.45611276137224e-05 0.990312319259688 0.000144592249855408 0.000144592249855408 0.0093984962406015 0.951084598698482 0.0139913232104121 0.0209327548806941 0.0139913232104121 0.992976939203354 0.00010482180293501 0.00010482180293501 0.00681341719077568 0.999971847903607 9.38403213092602e-06 9.38403213092602e-06 9.38403213092602e-06 0.788701839639014 0.022301284276293 0.038962165914613 0.15003471017008 0.433688833124216 0.132559598494354 0.204830614805521 0.22892095357591 0.959778194314277 7.81005935645111e-05 7.81005935645111e-05 0.0400656044985942 0.99997770047275 7.43317575000743e-06 7.43317575000743e-06 7.43317575000743e-06 0.472745098039216 0.0795424836601307 0.221764705882353 0.225947712418301 0.320796460176991 0.1849828426946 0.208100054180964 0.286120642947444 0.962156862745098 0.0042483660130719 0.00843137254901961 0.0251633986928105 0.999971780110622 9.40662979267788e-06 9.40662979267788e-06 9.40662979267788e-06 0.961714770797963 0.016383701188455 0.00551782682512733 0.016383701188455 0.84514265503419 0.0226951190756897 0.018922423956614 0.113239801933506 0.994660503665923 7.96939751354798e-05 7.96939751354798e-05 0.00518010838380618 </TABLE>
</DEFINITION>

<DEFINITION>
	<FOR>Cushioning</FOR>
	<GIVEN>Airbag</GIVEN>
	<GIVEN>RuggedAuto</GIVEN>
	<TABLE>0.999822736941621 5.90876861262113e-05 5.90876861262113e-05 5.90876861262113e-05 0.311164790355465 0.102672635404663 2.21611559258931e-05 0.586140413083946 3.17783144782001e-05 0.296714122282954 0.497298843269353 0.205955256133215 0.261732638065892 5.92557478075373e-05 5.92557478075373e-05 0.738148850438493 3.08603876064683e-05 0.592550302431799 0.100018516232564 0.307400320948031 1.36559785874256e-05 0.298915715300158 0.701056972742667 1.36559785874256e-05 </TABLE>
</DEFINITION>

<DEFINITION>
	<FOR>Airbag</FOR>
	<GIVEN>MakeModel</GIVEN>
	<GIVEN>VehicleYear</GIVEN>
	<TABLE>0.999927546732358 7.24532676423707e-05 0.623589468027942 0.376410531972058 0.99995961553994 4.0384460059769e-05 0.213316482639351 0.786683517360649 0.999922612598669 7.73874013310633e-05 0.0557324264679281 0.944267573532072 0.999897980004081 0.0001020199959192 0.090071719870623 0.909928280129377 0.996894409937888 0.0031055900621118 0.25609756097561 0.74390243902439 </TABLE>
</DEFINITION>

<DEFINITION>
	<FOR>ILiCost</FOR>
	<GIVEN>Accident</GIVEN>
	<TABLE>0.999971159392425 9.61353585848875e-06 9.61353585848875e-06 9.61353585848875e-06 0.88725834797891 0.0619507908611599 0.0239894551845343 0.0268014059753954 0.787714712471994 0.101630570077172 0.0508464027881504 0.0598083146626836 0.999760918074594 7.96939751354798e-05 7.96939751354798e-05 7.96939751354798e-05 </TABLE>
</DEFINITION>

<DEFINITION>
	<FOR>DrivHist</FOR>
	<GIVEN>DrivingSkill</GIVEN>
	<GIVEN>RiskAversion</GIVEN>
	<TABLE>0.894079737725532 0.0274961545802598 0.0784241076942077 0.948562910709412 0.0121139593961916 0.0393231298943965 0.507576289842853 0.223447855921684 0.268975854235462 0.0762205830698981 0.645240604144714 0.278538812785388 0.0314549542017353 0.817364323802092 0.151180721996173 0.291194466613461 0.425272678903964 0.283532854482575 0.0033601529023706 0.98773081784272 0.00890902925490921 0.000616142945163278 0.998767714109673 0.000616142945163278 0.9974812752701 6.62822297342083e-05 0.00245244250016571 0.999851090760182 7.44546199091654e-05 7.44546199091654e-05 0.581275221953188 0.0931396287328491 0.325585149313963 0.543859649122807 0.273182957393484 0.182957393483709 </TABLE>
</DEFINITION>

</NETWORK>
</BIF>
