<?xml version="1.0" encoding="UTF-8"?>

<!-- DTD for the XMLBIF 0.3 format -->
<!DOCTYPE BIF [
<!ELEMENT BIF ( NETWORK )*>
<!ATTLIST BIF VERSION CDATA #REQUIRED>
   <!ELEMENT NETWORK ( NAME, ( PROPERTY | VARIABLE | DEFINITION )* )>
      <!ELEMENT NAME (#PCDATA)>
        <!ELEMENT VARIABLE ( NAME, ( OUTCOME |  PROPERTY )* ) >
          <!ATTLIST VARIABLE TYPE (nature|decision|utility) "nature">
           <!ELEMENT OUTCOME (#PCDATA)>
            <!ELEMENT DEFINITION ( FOR | GIVEN | TABLE | PROPERTY )* >
              <!ELEMENT FOR (#PCDATA)>
                <!ELEMENT GIVEN (#PCDATA)>
                  <!ELEMENT TABLE (#PCDATA)>
                    <!ELEMENT PROPERTY (#PCDATA)>
                      ]>
<BIF VERSION="0.3">
<NETWORK>
<NAME>Reco</NAME>
<VARIABLE TYPE="nature">
	<NAME>GoodStudent</NAME>
	<OUTCOME>True</OUTCOME>
	<OUTCOME>False</OUTCOME>
</VARIABLE>

<VARIABLE TYPE="nature">
	<NAME>Age</NAME>
	<OUTCOME>Adult</OUTCOME>
	<OUTCOME>Adolescent</OUTCOME>
	<OUTCOME>Senior</OUTCOME>
</VARIABLE>

<VARIABLE TYPE="nature">
	<NAME>SocioEcon</NAME>
	<OUTCOME>Middle</OUTCOME>
	<OUTCOME>Prole</OUTCOME>
	<OUTCOME>UpperMiddle</OUTCOME>
	<OUTCOME>Wealthy</OUTCOME>
</VARIABLE>

<VARIABLE TYPE="nature">
	<NAME>RiskAversion</NAME>
	<OUTCOME>Psychopath</OUTCOME>
	<OUTCOME>Normal</OUTCOME>
	<OUTCOME>Cautious</OUTCOME>
	<OUTCOME>Adventurous</OUTCOME>
</VARIABLE>

<VARIABLE TYPE="nature">
	<NAME>VehicleYear</NAME>
	<OUTCOME>Older</OUTCOME>
	<OUTCOME>Current</OUTCOME>
</VARIABLE>

<VARIABLE TYPE="nature">
	<NAME>ThisCarDam</NAME>
	<OUTCOME>Mild</OUTCOME>
	<OUTCOME>None</OUTCOME>
	<OUTCOME>Moderate</OUTCOME>
	<OUTCOME>Severe</OUTCOME>
</VARIABLE>

<VARIABLE TYPE="nature">
	<NAME>RuggedAuto</NAME>
	<OUTCOME>EggShell</OUTCOME>
	<OUTCOME>Tank</OUTCOME>
	<OUTCOME>Football</OUTCOME>
</VARIABLE>

<VARIABLE TYPE="nature">
	<NAME>Accident</NAME>
	<OUTCOME>Mild</OUTCOME>
	<OUTCOME>None</OUTCOME>
	<OUTCOME>Moderate</OUTCOME>
	<OUTCOME>Severe</OUTCOME>
</VARIABLE>

<VARIABLE TYPE="nature">
	<NAME>MakeModel</NAME>
	<OUTCOME>FamilySedan</OUTCOME>
	<OUTCOME>SportsCar</OUTCOME>
	<OUTCOME>Economy</OUTCOME>
	<OUTCOME>Luxury</OUTCOME>
	<OUTCOME>SuperLuxury</OUTCOME>
</VARIABLE>

<VARIABLE TYPE="nature">
	<NAME>DrivQuality</NAME>
	<OUTCOME>Normal</OUTCOME>
	<OUTCOME>Excellent</OUTCOME>
	<OUTCOME>Poor</OUTCOME>
</VARIABLE>

<VARIABLE TYPE="nature">
	<NAME>Mileage</NAME>
	<OUTCOME>Domino</OUTCOME>
	<OUTCOME>FiveThou</OUTCOME>
	<OUTCOME>FiftyThou</OUTCOME>
	<OUTCOME>TwentyThou</OUTCOME>
</VARIABLE>

<VARIABLE TYPE="nature">
	<NAME>Antilock</NAME>
	<OUTCOME>True</OUTCOME>
	<OUTCOME>False</OUTCOME>
</VARIABLE>

<VARIABLE TYPE="nature">
	<NAME>DrivingSkill</NAME>
	<OUTCOME>Normal</OUTCOME>
	<OUTCOME>Expert</OUTCOME>
	<OUTCOME>SubStandard</OUTCOME>
</VARIABLE>

<VARIABLE TYPE="nature">
	<NAME>SeniorTrain</NAME>
	<OUTCOME>True</OUTCOME>
	<OUTCOME>False</OUTCOME>
</VARIABLE>

<VARIABLE TYPE="nature">
	<NAME>ThisCarCost</NAME>
	<OUTCOME>HundredThou</OUTCOME>
	<OUTCOME>TenThou</OUTCOME>
	<OUTCOME>Million</OUTCOME>
	<OUTCOME>Thousand</OUTCOME>
</VARIABLE>

<VARIABLE TYPE="nature">
	<NAME>Theft</NAME>
	<OUTCOME>True</OUTCOME>
	<OUTCOME>False</OUTCOME>
</VARIABLE>

<VARIABLE TYPE="nature">
	<NAME>CarValue</NAME>
	<OUTCOME>FiveThou</OUTCOME>
	<OUTCOME>FiftyThou</OUTCOME>
	<OUTCOME>TenThou</OUTCOME>
	<OUTCOME>Million</OUTCOME>
	<OUTCOME>TwentyThou</OUTCOME>
</VARIABLE>

<VARIABLE TYPE="nature">
	<NAME>HomeBase</NAME>
	<OUTCOME>Rural</OUTCOME>
	<OUTCOME>Secure</OUTCOME>
	<OUTCOME>Suburb</OUTCOME>
	<OUTCOME>City</OUTCOME>
</VARIABLE>

<VARIABLE TYPE="nature">
	<NAME>AntiTheft</NAME>
	<OUTCOME>False</OUTCOME>
	<OUTCOME>True</OUTCOME>
</VARIABLE>

<VARIABLE TYPE="nature">
	<NAME>PropCost</NAME>
	<OUTCOME>Million</OUTCOME>
	<OUTCOME>HundredThou</OUTCOME>
	<OUTCOME>TenThou</OUTCOME>
	<OUTCOME>Thousand</OUTCOME>
</VARIABLE>

<VARIABLE TYPE="nature">
	<NAME>OtherCarCost</NAME>
	<OUTCOME>HundredThou</OUTCOME>
	<OUTCOME>TenThou</OUTCOME>
	<OUTCOME>Million</OUTCOME>
	<OUTCOME>Thousand</OUTCOME>
</VARIABLE>

<VARIABLE TYPE="nature">
	<NAME>OtherCar</NAME>
	<OUTCOME>True</OUTCOME>
	<OUTCOME>False</OUTCOME>
</VARIABLE>

<VARIABLE TYPE="nature">
	<NAME>MedCost</NAME>
	<OUTCOME>HundredThou</OUTCOME>
	<OUTCOME>TenThou</OUTCOME>
	<OUTCOME>Million</OUTCOME>
	<OUTCOME>Thousand</OUTCOME>
</VARIABLE>

<VARIABLE TYPE="nature">
	<NAME>Cushioning</NAME>
	<OUTCOME>Excellent</OUTCOME>
	<OUTCOME>Poor</OUTCOME>
	<OUTCOME>Fair</OUTCOME>
	<OUTCOME>Good</OUTCOME>
</VARIABLE>

<VARIABLE TYPE="nature">
	<NAME>Airbag</NAME>
	<OUTCOME>True</OUTCOME>
	<OUTCOME>False</OUTCOME>
</VARIABLE>

<VARIABLE TYPE="nature">
	<NAME>ILiCost</NAME>
	<OUTCOME>HundredThou</OUTCOME>
	<OUTCOME>Million</OUTCOME>
	<OUTCOME>TenThou</OUTCOME>
	<OUTCOME>Thousand</OUTCOME>
</VARIABLE>

<VARIABLE TYPE="nature">
	<NAME>DrivHist</NAME>
	<OUTCOME>Many</OUTCOME>
	<OUTCOME>Zero</OUTCOME>
	<OUTCOME>One</OUTCOME>
</VARIABLE>

<DEFINITION>
	<FOR>GoodStudent</FOR>
	<GIVEN>SocioEcon</GIVEN>
	<GIVEN>Age</GIVEN>
	<TABLE>0.999998091231499 1.90876850073869e-06 0.895302285218397 0.104697714781603 0.999995347149198 4.65285080168619e-06 0.999998060037946 1.93996205434222e-06 0.798748997050481 0.201251002949519 0.999988153062433 1.1846937566639e-05 0.999995917467523 4.08253247654585e-06 0.497983919356774 0.502016080643226 0.999991833401388 8.16659861167823e-06 0.999919263684806 8.07363151945745e-05 0.662779628748215 0.337220371251785 0.999760651029201 0.000239348970799426 </TABLE>
</DEFINITION>

<DEFINITION>
	<FOR>Age</FOR>
	<GIVEN>DrivQuality</GIVEN>
	<GIVEN>SocioEcon</GIVEN>
	<TABLE>0.617893617630754 0.122961330360949 0.259145052008297 0.727892144539724 0.160824185544165 0.11128366991611 0.581820086722296 0.127268180082261 0.290911733195443 0.632279670015519 0.132402189005963 0.235318140978518 0.5482108410207 0.296838415619381 0.154950743359919 0.599177163082719 0.337684699292789 0.0631381376244917 0.522791795852175 0.293971070615965 0.18323713353186 0.590716286514606 0.299719887955182 0.109563825530212 0.528969785976272 0.135649729457097 0.335380484566631 0.630116704865776 0.163507995468795 0.206375299665428 0.496938677538239 0.113538504715692 0.389522817746069 0.539229449383872 0.146155046014662 0.314615504601466 </TABLE>
</DEFINITION>

<DEFINITION>
	<FOR>SocioEcon</FOR>
	<GIVEN>MakeModel</GIVEN>
	<GIVEN>VehicleYear</GIVEN>
	<TABLE>0.828369481235193 0.164817771365589 0.00677521412276494 3.75332764536363e-05 0.591651314687657 0.297654572859731 0.110081302050821 0.000612810401790472 1.44667553960998e-05 1.44667553960998e-05 0.98086048261096 0.0191105838782478 3.5852060059371e-06 3.5852060059371e-06 0.956393139349787 0.0435996902382011 0.436295589001215 0.454724830063701 0.105370521227014 0.00360905970807014 0.105306079624578 0.284242002251006 0.565808550008584 0.0446433681158314 0.293289509661977 0.655159777848501 0.051190993809701 0.000359718679821239 0.0913943051813514 0.524279139471465 0.377609306286903 0.00671724906028122 0.00146198830409357 0.00146198830409357 0.00146198830409357 0.995614035087719 0.000161186331399097 0.000161186331399097 0.000161186331399097 0.999516441005803 </TABLE>
</DEFINITION>

<DEFINITION>
	<FOR>RiskAversion</FOR>
	<GIVEN>SeniorTrain</GIVEN>
	<GIVEN>DrivQuality</GIVEN>
	<GIVEN>Age</GIVEN>
	<TABLE>0.202373282359693 0.668445019509791 0.124918664758 0.00426303337251647 0.112018790216198 0.597603894992297 0.285480882515835 0.0048964322756704 0.114575632449197 0.781879406408338 0.0960754791828198 0.00746948195964587 0.174129047177167 0.46613949475694 0.333955671903304 0.0257757861625897 0.0890611027517925 0.348047667750106 0.53725147388769 0.0256397556104117 0.119271147061354 0.606561397470097 0.234510799414852 0.0396566560536959 0.258622501997201 0.319926058516485 0.401015418991729 0.020436020494585 0.114975333063228 0.143717676779714 0.717706570699969 0.0236004194570891 0.164453186882822 0.474322754396156 0.339348893700164 0.0218751650208586 0.25 0.25 0.25 0.25 0.25 0.25 0.25 0.25 0.750088729292149 0.249906051337725 2.60968506320657e-06 2.60968506320657e-06 0.25 0.25 0.25 0.25 0.25 0.25 0.25 0.25 0.799166155390708 0.200805956829717 1.39438897874951e-05 1.39438897874951e-05 0.25 0.25 0.25 0.25 0.25 0.25 0.25 0.25 0.84712873585189 0.152864437557173 3.41329546850894e-06 3.41329546850894e-06 </TABLE>
</DEFINITION>

<DEFINITION>
	<FOR>VehicleYear</FOR>
	<GIVEN>MakeModel</GIVEN>
	<GIVEN>RuggedAuto</GIVEN>
	<TABLE>0.88103517965325 0.11896482034675 0.5 0.5 0.458271327987917 0.541728672012083 0.202077467468229 0.797922532531771 0.205445482238614 0.794554517761386 0.194518131245493 0.805481868754507 0.587213149101816 0.412786850898184 0.591196498054475 0.408803501945525 0.611538972248041 0.388461027751959 0.313678752540313 0.686321247459687 0.782546223973513 0.217453776026487 0.62627045327593 0.37372954672407 0.00471698113207547 0.995283018867925 0.119781312127237 0.880218687872763 0.0921142080217539 0.907885791978246 </TABLE>
</DEFINITION>

<DEFINITION>
	<FOR>ThisCarDam</FOR>
	<TABLE>0.734472394751169 0.0637354029399673 0.0802907745469495 0.121501427761914 </TABLE>
</DEFINITION>

<DEFINITION>
	<FOR>RuggedAuto</FOR>
	<GIVEN>ThisCarDam</GIVEN>
	<TABLE>0.479069990255144 0.172216696355071 0.348713313389785 0.501038715769594 0.120127841940873 0.378833442289533 0.49362855330681 0.180603125180188 0.325768321513002 0.571462319867706 0.0833161869489343 0.34522149318336 </TABLE>
</DEFINITION>

<DEFINITION>
	<FOR>Accident</FOR>
	<GIVEN>RuggedAuto</GIVEN>
	<GIVEN>ThisCarDam</GIVEN>
	<TABLE>0.999934871334703 6.57865306025783e-07 6.3812934684501e-05 6.57865306025783e-07 7.24868798747427e-06 0.857672011365943 0.142313491258082 7.24868798747427e-06 5.84043920102792e-06 0.00112720476579839 0.9988611143558 5.84043920102792e-06 3.33382229393644e-06 0.165627625385056 0.000483404232620784 0.833885636560029 0.909692992408992 0.00325198193384038 0.0797623143423933 0.00729271131477428 3.02334018623776e-05 0.493439351795864 0.0247006893215625 0.481829725480711 1.59632207394164e-05 0.534081476278654 0.240613626205223 0.225288934295383 2.28665508094759e-05 0.0603905606878258 2.28665508094759e-05 0.939563706210555 0.97479239948954 0.000304577152917614 0.0249021195677716 9.03789771268885e-07 9.58699236875407e-06 0.910697166085056 0.0727173371169997 0.0165759098055758 8.84987079188644e-06 0.105782505575419 0.893350207086977 0.000858437466812985 5.51864197258339e-06 0.0712622237919693 5.51864197258339e-06 0.928726738924086 </TABLE>
</DEFINITION>

<DEFINITION>
	<FOR>MakeModel</FOR>
	<GIVEN>RuggedAuto</GIVEN>
	<TABLE>0.628383993988352 0.0197497651700169 0.272577118166447 0.0791298140146534 0.000159308660529776 4.66548474386489e-06 0.185317719511057 0.00959223663338621 0.800391900718485 0.00469347765232808 0.191465022326175 0.165120136083351 0.0160131830746332 0.624273867743993 0.00312779077184776 </TABLE>
</DEFINITION>

<DEFINITION>
	<FOR>DrivQuality</FOR>
	<GIVEN>Antilock</GIVEN>
	<GIVEN>Accident</GIVEN>
	<TABLE>0.602523000005715 0.141877930362783 0.255599069631502 0.079730532706199 0.912186880293235 0.00808258700056557 0.122692590834348 0.859137099492938 0.0181703096727143 0.0199675375768285 0.975064182976561 0.0049682794466101 0.566255732790789 0.179265645370568 0.254478621838643 0.0379931036664452 0.958179114865079 0.00382778146847616 0.0606687133220558 0.929285967880041 0.0100453187979032 0.0266271018793274 0.969535113748764 0.003837784371909 </TABLE>
</DEFINITION>

<DEFINITION>
	<FOR>Mileage</FOR>
	<GIVEN>DrivQuality</GIVEN>
	<GIVEN>Accident</GIVEN>
	<TABLE>0.101355548267856 0.396194626455941 0.403830783965807 0.0986190413103959 0.0311638839358081 0.426041497811639 0.385192089479656 0.157602528772897 0.049787829105989 0.494189410743563 0.348370141768734 0.107652618381715 0.0845717637856864 0.366151740320688 0.394309737974189 0.154966757919437 0.202735309098129 0.30622555832765 0.4504281878847 0.0406109446895206 0.0436793780832689 0.402219953584518 0.40815504800071 0.145945620331503 0.095368128948456 0.42454094585818 0.421140107457047 0.0589508177363169 0.0266499564983221 0.477178191158802 0.341055226415876 0.155116625927 0.09879243430873 0.39407298524002 0.402513042114265 0.104621538336985 0.0388 0.5956 0.25 0.1156 0.00784753363228699 0.453715566944266 0.353779628443306 0.184657270980141 0.0203826955074875 0.599417637271215 0.200083194675541 0.180116472545757 </TABLE>
</DEFINITION>

<DEFINITION>
	<FOR>Antilock</FOR>
	<GIVEN>MakeModel</GIVEN>
	<GIVEN>Accident</GIVEN>
	<GIVEN>VehicleYear</GIVEN>
	<TABLE>0.999999353471406 6.46528594020128e-07 0.998922512239294 0.00107748776070636 0.999994196910435 5.80308956488435e-06 0.999976326878462 2.3673121537806e-05 0.999994665016378 5.33498362160028e-06 0.999976416206783 2.35837932173011e-05 0.999996406006282 3.59399371769898e-06 0.99881996445325 0.0011800355467498 0.667196656066879 0.332803343933121 0.00940610585806913 0.990593894141931 0.726577953605467 0.273422046394533 0.0021092651424405 0.99789073485756 0.628356696503969 0.371643303496031 0.0094124358243012 0.990587564175699 0.832417222876587 0.167582777123413 0.0209094600081202 0.97909053999188 0.896432111000991 0.103567888999009 0.0957308560804421 0.904269143919558 0.924324657703219 0.0756753422967806 0.129376282569492 0.870623717430508 0.86975311034456 0.13024688965544 0.0788767249695902 0.92112327503041 0.953259261182212 0.0467407388177877 0.223482996997416 0.776517003002584 0.999999207356995 7.92643004687691e-07 0.595320843209866 0.404679156790134 0.999993246984779 6.75301522129631e-06 0.591473714300564 0.408526285699436 0.999993225024051 6.77497594883538e-06 0.531355267896867 0.468644732103133 0.999995603274681 4.39672531898242e-06 0.781827635236943 0.218172364763057 0.915800415800416 0.0841995841995842 0.000115713955102985 0.999884286044897 0.98780487804878 0.0121951219512195 0.0841995841995842 0.915800415800416 0.5 0.5 0.118208516886931 0.881791483113069 0.993827160493827 0.00617283950617284 0.000693481276005548 0.999306518723994 </TABLE>
</DEFINITION>

<DEFINITION>
	<FOR>DrivingSkill</FOR>
	<GIVEN>DrivQuality</GIVEN>
	<GIVEN>RiskAversion</GIVEN>
	<GIVEN>Age</GIVEN>
	<TABLE>0.999996486068139 1.75696593067364e-06 1.75696593067364e-06 0.999970036106492 1.49819467541612e-05 1.49819467541612e-05 0.999995737997669 2.13100116565764e-06 2.13100116565764e-06 0.999998936147012 5.31926494141628e-07 5.31926494141628e-07 0.999994383268881 2.80836555932813e-06 2.80836555932813e-06 0.999995047236977 2.47638151133564e-06 2.47638151133564e-06 0.995690624404045 2.84635112018148e-06 0.00430652924483458 0.995543876357266 5.8787910854012e-06 0.00445024485164871 0.996559381939883 3.12783460010635e-05 0.00340933971411592 0.873738637311317 8.3395880243516e-05 0.12617796680844 0.925316889345666 0.000342583076396026 0.0743405275779376 0.912344189786892 0.000402090872537193 0.087253719340571 2.83762808343762e-06 0.999994324743833 2.83762808343762e-06 1.00205421113282e-05 0.999979958915777 1.00205421113282e-05 7.8400012544002e-06 0.999984319997491 7.8400012544002e-06 1.06001486140836e-06 0.999997879970277 1.06001486140836e-06 2.56416173706573e-06 0.999994871676526 2.56416173706573e-06 4.29061171251185e-06 0.999991418776575 4.29061171251185e-06 0.376637711265678 0.621922656380619 0.00143963235370273 0.214568227310858 0.784174287161854 0.00125748552728843 0.250993774385695 0.747673039053805 0.00133318656050098 0.509306649797765 0.45133896908007 0.0393543811221654 0.293237269847899 0.68417388883088 0.022588841321221 0.421855789397556 0.546828668547046 0.0313155420553989 0.555181370215105 3.87088283224755e-06 0.444814758902063 0.604449511175597 3.45458942204719e-05 0.395515942930183 0.292817990449224 2.55778679823922e-06 0.707179451763978 3.12915591019323e-06 3.12915591019323e-06 0.99999374168818 2.76372882292789e-05 2.76372882292789e-05 0.999944725423541 8.25961625822864e-06 8.25961625822864e-06 0.999983480767484 0.653273419459527 2.49641140860014e-06 0.346724084129064 0.749544792929209 5.5344324716222e-06 0.250449672638319 0.585414559506211 2.59342825280739e-05 0.414559506211261 0.756551555228998 4.89835904971834e-05 0.243399461180505 0.89062762914353 0.00016826518593303 0.109204105670537 0.608363490148774 0.000402090872537193 0.391234418978689 </TABLE>
</DEFINITION>

<DEFINITION>
	<FOR>SeniorTrain</FOR>
	<GIVEN>DrivQuality</GIVEN>
	<GIVEN>Age</GIVEN>
	<TABLE>0.999997866621155 2.13337884541537e-06 0.999989930317799 1.00696822008297e-05 0.366656529327762 0.633343470672238 0.999997035315324 2.96468467613785e-06 0.999994645305003 5.354694996573e-06 0.7641975958124 0.2358024041876 0.999993993416785 6.00658321520386e-06 0.999976167778837 2.38322211630124e-05 0.205435018442178 0.794564981557822 </TABLE>
</DEFINITION>

<DEFINITION>
	<FOR>ThisCarCost</FOR>
	<GIVEN>CarValue</GIVEN>
	<GIVEN>Theft</GIVEN>
	<GIVEN>ThisCarDam</GIVEN>
	<TABLE>0.999998797616395 4.00794535086355e-07 4.00794535086355e-07 4.00794535086355e-07 0.146627295824363 4.84862589942011e-06 0.853363006923838 4.84862589942011e-06 0.965527274376143 3.77866114478318e-06 0.0344651683015674 3.77866114478318e-06 0.00602896716585812 2.51102339269393e-06 0.993966010787356 2.51102339269393e-06 0.000173490631505899 0.000173490631505899 0.999479528105482 0.000173490631505899 0.00609756097560976 0.00609756097560976 0.981707317073171 0.00609756097560976 0.00609756097560976 0.00609756097560976 0.981707317073171 0.00609756097560976 0.0015527950310559 0.0015527950310559 0.995341614906832 0.0015527950310559 0.999999308399443 2.30533519112612e-07 2.30533519112612e-07 2.30533519112612e-07 0.250188962689317 2.36203361646243e-06 0.74980631324345 2.36203361646243e-06 0.947869373594177 2.07501597762303e-06 0.0521264763738681 2.07501597762303e-06 0.0471990578086538 1.10482099690208e-06 0.952798732549352 1.10482099690208e-06 0.154030710172745 0.000479846449136276 0.845009596928983 0.000479846449136276 0.00609756097560976 0.00609756097560976 0.981707317073171 0.00609756097560976 0.00308641975308642 0.00308641975308642 0.990740740740741 0.00308641975308642 0.0015527950310559 0.0015527950310559 0.995341614906832 0.0015527950310559 0.999997171103006 9.42965664734216e-07 9.42965664734216e-07 9.42965664734216e-07 0.00222609368950832 0.995533985952104 0.00222609368950832 1.38266688789337e-05 0.984304333891243 8.90281685125174e-06 0.0156778604750543 8.90281685125174e-06 1.09070284891584e-05 0.999967278914533 1.09070284891584e-05 1.09070284891584e-05 0.0912698412698413 0.907596371882086 0.000566893424036281 0.000566893424036281 0.00609756097560976 0.981707317073171 0.00609756097560976 0.00609756097560976 0.00609756097560976 0.981707317073171 0.00609756097560976 0.00609756097560976 0.25 0.25 0.25 0.25 0.999998860599689 3.79800103609468e-07 3.79800103609468e-07 3.79800103609468e-07 0.00758034885702922 0.981804321887843 0.0106105944963164 4.73475881138615e-06 0.992850866956796 3.43213300201809e-06 0.00714226877719965 3.43213300201809e-06 0.00506261427536482 0.991251825530985 0.0036826853417049 2.87485194512483e-06 0.0386647454370797 0.960854947166186 0.000240153698366955 0.000240153698366955 0.00124378109452736 0.996268656716418 0.00124378109452736 0.00124378109452736 0.000889679715302491 0.997330960854093 0.000889679715302491 0.000889679715302491 0.00124378109452736 0.996268656716418 0.00124378109452736 0.00124378109452736 0.999917772174104 2.74092752987611e-05 2.74092752987611e-05 2.74092752987611e-05 0.000297265160523187 0.0478596908442331 0.000297265160523187 0.951545778834721 0.999279538904899 0.000240153698366955 0.000240153698366955 0.000240153698366955 0.000215331610680448 0.000215331610680448 0.000215331610680448 0.999354005167959 0.25 0.25 0.25 0.25 0.25 0.25 0.25 0.25 0.25 0.25 0.25 0.25 0.25 0.25 0.25 0.25 </TABLE>
</DEFINITION>

<DEFINITION>
	<FOR>Theft</FOR>
	<GIVEN>HomeBase</GIVEN>
	<TABLE>0.996720192549485 0.0032798074505155 0.999811456583593 0.000188543416406705 0.999987515293765 1.24847062348623e-05 0.999994638472179 5.36152782096786e-06 </TABLE>
</DEFINITION>

<DEFINITION>
	<FOR>CarValue</FOR>
	<GIVEN>Mileage</GIVEN>
	<GIVEN>MakeModel</GIVEN>
	<GIVEN>VehicleYear</GIVEN>
	<TABLE>0.70522618149884 0.243985834423115 1.90910739683661e-06 0.0507841658632506 1.90910739683661e-06 0.78775772677947 0.109328403199228 8.03826212772799e-06 0.102897793497046 8.03826212772799e-06 0.0574917396925729 0.00577503232294211 0.701077431403534 0.235627065076857 2.87315040942393e-05 7.15281999928472e-06 7.15281999928472e-06 0.999971388720003 7.15281999928472e-06 7.15281999928472e-06 0.301755691620716 0.0311288522039173 0.0473664625689253 0.610270288555868 0.00947870505057339 0.114628723877279 9.88093473642607e-06 0.0849859196680006 0.794437033743392 0.00593844177659207 0.32154201260895 0.199356920568207 2.29671225640496e-06 0.47909647339833 2.29671225640496e-06 0.100897052541649 4.0682654950062e-06 4.0682654950062e-06 0.899090742661866 4.0682654950062e-06 0.00246913580246914 0.00246913580246914 0.00246913580246914 0.00246913580246914 0.990123456790123 0.000332778702163062 0.000332778702163062 0.000332778702163062 0.000332778702163062 0.998668885191348 0.00931550384588163 0.990683126294232 4.56619962054881e-07 4.56619962054881e-07 4.56619962054881e-07 0.794769076400261 0.0976912373036984 1.89320434301076e-06 0.107535899887354 1.89320434301076e-06 0.27761764810028 0.103402854006586 0.332856485251939 0.286115930738996 7.08190219893063e-06 1.78825296626461e-06 1.78825296626461e-06 0.999992846988135 1.78825296626461e-06 1.78825296626461e-06 0.46788144116429 0.401282950617388 0.0185951775255449 0.0977020140127281 0.0145384166800483 0.104629886332132 2.41077132628585e-06 0.0949868010269886 0.792181868588855 0.00819903328069816 0.203057003634376 0.698202336822669 5.57847378535706e-07 0.0987395438481986 5.57847378535706e-07 0.102855253698291 1.0495326955673e-06 1.0495326955673e-06 0.897141597703622 1.0495326955673e-06 0.000829875518672199 0.000829875518672199 0.000829875518672199 0.000829875518672199 0.996680497925311 6.94203401596668e-05 6.94203401596668e-05 6.94203401596668e-05 6.94203401596668e-05 0.999722318639361 0.296228602139274 0.70367894042872 4.55455330079864e-07 9.15465213460527e-05 4.55455330079864e-07 0.803915875604491 0.0897446291041751 1.88535175950453e-06 0.106335724587815 1.88535175950453e-06 0.152696381123461 0.0628793832566147 0.491007073088582 0.29340967778152 7.48474982223719e-06 1.80178556949937e-06 1.80178556949937e-06 0.999992792857722 1.80178556949937e-06 1.80178556949937e-06 0.493832940412026 0.157281262235403 0.024993127348156 0.314894077856732 0.00899859214768287 0.100376402715728 2.34518825998757e-06 0.0900575743717827 0.799242504192024 0.0103211735322053 0.306816616042017 0.495480599462793 5.57847378535706e-07 0.197701668800433 5.57847378535706e-07 0.11021766785163 1.00562648015648e-06 1.00562648015648e-06 0.88977931526893 1.00562648015648e-06 0.000554016620498615 0.000554016620498615 0.000554016620498615 0.000554016620498615 0.997783933518006 8.61697544161999e-05 8.61697544161999e-05 8.61697544161999e-05 8.61697544161999e-05 0.999655320982335 1.81026601859143e-06 0.999992758935926 1.81026601859143e-06 1.81026601859143e-06 1.81026601859143e-06 0.823865855059148 0.0995444278549826 7.65667470617511e-06 0.0765744037364573 7.65667470617511e-06 0.20555478405777 0.188890431884461 0.327760033328704 0.277766976808777 2.77739202888488e-05 7.11212261299385e-06 7.11212261299385e-06 0.999971551509548 7.11212261299385e-06 7.11212261299385e-06 0.0658270307901649 0.887320021518306 0.0139299389259834 0.0240562007531407 0.00886680801240467 0.0943446063864912 9.43351728692043e-06 0.0811376821848026 0.813178623649828 0.0113296542615914 0.0131480830906268 0.986845117349078 2.26652009836697e-06 2.26652009836697e-06 2.26652009836697e-06 0.0979153708793965 4.01276057864008e-06 4.01276057864008e-06 0.902072590838868 4.01276057864008e-06 0.2 0.2 0.2 0.2 0.2 0.000498753117206983 0.000498753117206983 0.000498753117206983 0.000498753117206983 0.998004987531172 </TABLE>
</DEFINITION>

<DEFINITION>
	<FOR>HomeBase</FOR>
	<GIVEN>RiskAversion</GIVEN>
	<GIVEN>SocioEcon</GIVEN>
	<TABLE>0.79804610958563 0.0488636438106597 0.15308860825857 1.63834514034064e-06 2.19111808373577e-06 0.0220185456234607 0.0256645661147971 0.952314697143658 3.16163545078598e-06 3.16163545078598e-06 3.16163545078598e-06 0.999990515093648 5.76435323956652e-05 5.76435323956652e-05 5.76435323956652e-05 0.999827069402813 0.799997945315506 0.0511065409946914 0.148894579742305 9.33947497207497e-07 8.79981133204504e-07 0.601035033808875 0.0988403608626631 0.300123725347329 1.82342000656431e-06 0.406930819444951 0.102463440428868 0.490603916706174 5.08854060655404e-05 5.08854060655404e-05 0.149857520863016 0.850040708324852 0.802629664246976 0.0482683449653837 0.149100591583507 1.39920413268933e-06 0.257889405527939 0.592742907120992 0.137227909218288 0.0121397781327812 0.404393676402642 0.299499881370113 0.0963056155642412 0.199800826663004 5.63952176855403e-05 5.63952176855403e-05 0.0650236859914279 0.934863523573201 0.838701460432469 0.0398788633533341 0.121391373259368 2.83029548284841e-05 0.801598173515982 0.0501304631441618 0.00629484670580561 0.141976516634051 0.598402366863905 0.0227810650887574 0.0114201183431953 0.367396449704142 0.299689440993789 0.0015527950310559 0.0015527950310559 0.697204968944099 </TABLE>
</DEFINITION>

<DEFINITION>
	<FOR>AntiTheft</FOR>
	<GIVEN>RiskAversion</GIVEN>
	<GIVEN>SocioEcon</GIVEN>
	<TABLE>0.9499813228654 0.0500186771345999 0.999995617763833 4.38223616747154e-06 0.999993676729098 6.32327090157197e-06 0.999884712935209 0.00011528706479133 0.103647625345094 0.896352374654906 0.299899330158361 0.700100669841639 0.903953174574231 0.0960468254257686 0.778444941990637 0.221555058009363 2.79840826537865e-06 0.999997201591735 4.46233344340423e-06 0.999995537666557 0.206197475056505 0.793802524943495 0.494586059102188 0.505413940897812 5.66059096569682e-05 0.999943394090343 6.52315720808872e-05 0.999934768427919 0.0417751479289941 0.958224852071006 0.5 0.5 </TABLE>
</DEFINITION>

<DEFINITION>
	<FOR>PropCost</FOR>
	<GIVEN>OtherCarCost</GIVEN>
	<GIVEN>ThisCarCost</GIVEN>
	<TABLE>0.301001777507161 0.698997791268395 2.15612222280677e-07 2.15612222280677e-07 1.06942721478376e-05 1.06942721478376e-05 0.984910381999401 0.0150682294563032 0.949039650412425 4.23434562422723e-06 0.0509518808963263 4.23434562422723e-06 0.000915750915750916 0.000915750915750916 0.000915750915750916 0.997252747252747 1.84461004943555e-05 1.84461004943555e-05 0.981055854792297 0.0189072530067144 1.04231811548885e-05 1.04231811548885e-05 0.60705649364186 0.392922659995831 4.16993311427285e-06 4.16993311427285e-06 0.790756926258903 0.209234733874869 0.0015527950310559 0.0015527950310559 0.0015527950310559 0.995341614906832 0.955794615556716 1.86441941979268e-05 0.0441680960548885 1.86441941979268e-05 9.96452628642034e-06 9.96452628642034e-06 0.948951731834669 0.0510283391127586 0.611061715907793 4.07850302624925e-06 0.388930127086154 4.07850302624925e-06 0.000708215297450425 0.000708215297450425 0.000708215297450425 0.997875354107649 0.25 0.25 0.25 0.25 0.0147058823529412 0.0147058823529412 0.0147058823529412 0.955882352941177 0.0147058823529412 0.0147058823529412 0.0147058823529412 0.955882352941177 0.25 0.25 0.25 0.25 </TABLE>
</DEFINITION>

<DEFINITION>
	<FOR>OtherCarCost</FOR>
	<GIVEN>Accident</GIVEN>
	<GIVEN>RuggedAuto</GIVEN>
	<TABLE>0.999998026279431 6.5790685617893e-07 6.5790685617893e-07 6.5790685617893e-07 0.999993964899858 2.01170004747612e-06 2.01170004747612e-06 2.01170004747612e-06 0.999997218523889 9.27158703609614e-07 9.27158703609614e-07 9.27158703609614e-07 0.598735998477966 0.198916739993817 0.202341316083617 5.94544460034721e-06 0.402114547199055 0.310004428371097 0.287862572883608 1.84515462395749e-05 0.503985157575959 0.302314552896935 0.193691969782688 8.3197444174515e-06 0.98841801990571 0.00578837087480356 0.00578837087480356 5.23834468308015e-06 0.943456184006994 0.0226141636962809 0.0339128387921178 1.68135046069003e-05 0.983047235530996 0.00811998471532289 0.00882543135122424 7.34840245730578e-06 0.20475988677978 0.398385652375546 0.396850462955559 3.99788911454752e-06 0.00384697300463234 0.4651642617539 0.530336510302966 0.000652254938501677 0.104405229372898 0.400955818382751 0.494350913494322 0.000288038750029392 </TABLE>
</DEFINITION>

<DEFINITION>
	<FOR>OtherCar</FOR>
	<GIVEN>SocioEcon</GIVEN>
	<TABLE>0.502448254302544 0.497551745697456 0.202078361407818 0.797921638592182 0.101655994994742 0.898344005005258 0.0509968217278243 0.949003178272176 </TABLE>
</DEFINITION>

<DEFINITION>
	<FOR>MedCost</FOR>
	<GIVEN>Cushioning</GIVEN>
	<GIVEN>ThisCarDam</GIVEN>
	<TABLE>0.99995070296106 7.35776700600688e-07 4.78254855390447e-05 7.35776700600688e-07 0.529464023734229 0.163278779382519 0.200314608939458 0.106942587943794 0.955498676789008 0.00984388783447833 0.0316568205512043 0.00300061482530942 0.308392410185699 0.218705505013414 0.283692540579428 0.189209544221459 0.999467754446382 0.000265435121054919 0.000177415184539298 8.93952480236774e-05 0.975861386138614 0.00635643564356436 0.013960396039604 0.00382178217821782 0.98729526448612 0.00476272947696571 0.00713790885249146 0.000804097184422782 0.943623810309732 0.0132172525719316 0.0308219178082192 0.0123370193101172 0.999574337155175 0.000121752787100623 0.000302966237668991 9.43820055043586e-07 0.809594878339989 0.0467804355881263 0.118582485898967 0.0250422001729178 0.966697285867794 0.00610939720614233 0.0255208152795591 0.00167250164650421 0.518862640278296 0.172643029814666 0.200944360370276 0.107549969536762 0.99923032110819 9.21771127916023e-07 0.000767835349554047 9.21771127916023e-07 0.940447650146737 0.0211734799322118 0.0324164014384326 0.00596246848261894 0.97308167255514 0.00549686138647824 0.0186687476417521 0.00275271841662951 0.877076687507975 0.0240972310833227 0.0890200331759602 0.00980604823274212 </TABLE>
</DEFINITION>

<DEFINITION>
	<FOR>Cushioning</FOR>
	<GIVEN>Airbag</GIVEN>
	<GIVEN>RuggedAuto</GIVEN>
	<TABLE>0.699194105895737 1.36084786265235e-06 0.300803172408537 1.36084786265235e-06 5.58147842200442e-06 0.297252796320689 5.58147842200442e-06 0.702736040722467 0.102313619775441 3.17892247243874e-06 0.604100174204952 0.293583027097135 0.503053699008988 3.03247170703897e-06 0.298325469123373 0.198617799395932 6.10575161802418e-06 0.999981682745146 6.10575161802418e-06 6.10575161802418e-06 2.2835846798871e-06 0.301764297523681 0.100242516693004 0.597990902198635 </TABLE>
</DEFINITION>

<DEFINITION>
	<FOR>Airbag</FOR>
	<GIVEN>MakeModel</GIVEN>
	<GIVEN>VehicleYear</GIVEN>
	<TABLE>0.950527479851039 0.0494725201489613 7.61255157503692e-06 0.999992387448425 0.381951275967826 0.618048724032174 7.1704120118742e-06 0.999992829587988 0.892756506991093 0.107243493008907 9.53816218690983e-06 0.999990461837813 0.801110309246003 0.198889690753997 4.09463520894924e-06 0.999995905364791 0.880116959064327 0.119883040935672 0.000322372662798195 0.999677627337202 </TABLE>
</DEFINITION>

<DEFINITION>
	<FOR>ILiCost</FOR>
	<GIVEN>Accident</GIVEN>
	<TABLE>0.999997092673926 9.69108691354388e-07 9.69108691354388e-07 9.69108691354388e-07 0.901896738940068 0.0512890118743213 0.0290115240463764 0.0178027251392343 0.998610464213631 0.00137401024685608 7.76276975624903e-06 7.76276975624903e-06 0.794948039049442 0.101747777427872 0.0629890264286233 0.0403151570940626 </TABLE>
</DEFINITION>

<DEFINITION>
	<FOR>DrivHist</FOR>
	<GIVEN>DrivingSkill</GIVEN>
	<GIVEN>RiskAversion</GIVEN>
	<TABLE>0.948990745147124 0.00837261050303026 0.042636644349846 0.902669580465276 0.0275753990847218 0.0697550204500023 0.495168212533192 0.203362723343348 0.30146906412346 0.0935625596943648 0.592817574021012 0.313619866284623 0.302347723944507 0.405364008465674 0.292288267589818 0.0292350621568256 0.818598976916462 0.152165960926712 0.00158881474420083 0.991385792535402 0.00702539272039692 5.90911776871713e-05 0.993499970454411 0.00644093836790167 0.999985106081931 7.44695903427835e-06 7.44695903427835e-06 0.989568587481047 6.29156364231202e-06 0.010425120955311 0.620494751523159 0.0977905013579975 0.281714747118843 0.268568491390388 0.472115137496787 0.259316371112824 </TABLE>
</DEFINITION>

</NETWORK>
</BIF>
