<?xml version="1.0" encoding="UTF-8"?>

<!-- DTD for the XMLBIF 0.3 format -->
<!DOCTYPE BIF [
<!ELEMENT BIF ( NETWORK )*>
<!ATTLIST BIF VERSION CDATA #REQUIRED>
   <!ELEMENT NETWORK ( NAME, ( PROPERTY | VARIABLE | DEFINITION )* )>
      <!ELEMENT NAME (#PCDATA)>
        <!ELEMENT VARIABLE ( NAME, ( OUTCOME |  PROPERTY )* ) >
          <!ATTLIST VARIABLE TYPE (nature|decision|utility) "nature">
           <!ELEMENT OUTCOME (#PCDATA)>
            <!ELEMENT DEFINITION ( FOR | GIVEN | TABLE | PROPERTY )* >
              <!ELEMENT FOR (#PCDATA)>
                <!ELEMENT GIVEN (#PCDATA)>
                  <!ELEMENT TABLE (#PCDATA)>
                    <!ELEMENT PROPERTY (#PCDATA)>
                      ]>
<BIF VERSION="0.3">
<NETWORK>
<NAME>Reco</NAME>
<VARIABLE TYPE="nature">
	<NAME>GoodStudent</NAME>
	<OUTCOME>True</OUTCOME>
	<OUTCOME>False</OUTCOME>
</VARIABLE>

<VARIABLE TYPE="nature">
	<NAME>Age</NAME>
	<OUTCOME>Adult</OUTCOME>
	<OUTCOME>Senior</OUTCOME>
	<OUTCOME>Adolescent</OUTCOME>
</VARIABLE>

<VARIABLE TYPE="nature">
	<NAME>SocioEcon</NAME>
	<OUTCOME>UpperMiddle</OUTCOME>
	<OUTCOME>Middle</OUTCOME>
	<OUTCOME>Prole</OUTCOME>
	<OUTCOME>Wealthy</OUTCOME>
</VARIABLE>

<VARIABLE TYPE="nature">
	<NAME>RiskAversion</NAME>
	<OUTCOME>Normal</OUTCOME>
	<OUTCOME>Psychopath</OUTCOME>
	<OUTCOME>Cautious</OUTCOME>
	<OUTCOME>Adventurous</OUTCOME>
</VARIABLE>

<VARIABLE TYPE="nature">
	<NAME>VehicleYear</NAME>
	<OUTCOME>Current</OUTCOME>
	<OUTCOME>Older</OUTCOME>
</VARIABLE>

<VARIABLE TYPE="nature">
	<NAME>ThisCarDam</NAME>
	<OUTCOME>Mild</OUTCOME>
	<OUTCOME>None</OUTCOME>
	<OUTCOME>Severe</OUTCOME>
	<OUTCOME>Moderate</OUTCOME>
</VARIABLE>

<VARIABLE TYPE="nature">
	<NAME>RuggedAuto</NAME>
	<OUTCOME>Tank</OUTCOME>
	<OUTCOME>Football</OUTCOME>
	<OUTCOME>EggShell</OUTCOME>
</VARIABLE>

<VARIABLE TYPE="nature">
	<NAME>Accident</NAME>
	<OUTCOME>Mild</OUTCOME>
	<OUTCOME>None</OUTCOME>
	<OUTCOME>Severe</OUTCOME>
	<OUTCOME>Moderate</OUTCOME>
</VARIABLE>

<VARIABLE TYPE="nature">
	<NAME>MakeModel</NAME>
	<OUTCOME>SportsCar</OUTCOME>
	<OUTCOME>Luxury</OUTCOME>
	<OUTCOME>FamilySedan</OUTCOME>
	<OUTCOME>Economy</OUTCOME>
	<OUTCOME>SuperLuxury</OUTCOME>
</VARIABLE>

<VARIABLE TYPE="nature">
	<NAME>DrivQuality</NAME>
	<OUTCOME>Normal</OUTCOME>
	<OUTCOME>Excellent</OUTCOME>
	<OUTCOME>Poor</OUTCOME>
</VARIABLE>

<VARIABLE TYPE="nature">
	<NAME>Mileage</NAME>
	<OUTCOME>FiftyThou</OUTCOME>
	<OUTCOME>TwentyThou</OUTCOME>
	<OUTCOME>FiveThou</OUTCOME>
	<OUTCOME>Domino</OUTCOME>
</VARIABLE>

<VARIABLE TYPE="nature">
	<NAME>Antilock</NAME>
	<OUTCOME>False</OUTCOME>
	<OUTCOME>True</OUTCOME>
</VARIABLE>

<VARIABLE TYPE="nature">
	<NAME>DrivingSkill</NAME>
	<OUTCOME>Normal</OUTCOME>
	<OUTCOME>Expert</OUTCOME>
	<OUTCOME>SubStandard</OUTCOME>
</VARIABLE>

<VARIABLE TYPE="nature">
	<NAME>SeniorTrain</NAME>
	<OUTCOME>True</OUTCOME>
	<OUTCOME>False</OUTCOME>
</VARIABLE>

<VARIABLE TYPE="nature">
	<NAME>ThisCarCost</NAME>
	<OUTCOME>HundredThou</OUTCOME>
	<OUTCOME>TenThou</OUTCOME>
	<OUTCOME>Million</OUTCOME>
	<OUTCOME>Thousand</OUTCOME>
</VARIABLE>

<VARIABLE TYPE="nature">
	<NAME>Theft</NAME>
	<OUTCOME>True</OUTCOME>
	<OUTCOME>False</OUTCOME>
</VARIABLE>

<VARIABLE TYPE="nature">
	<NAME>CarValue</NAME>
	<OUTCOME>TenThou</OUTCOME>
	<OUTCOME>FiveThou</OUTCOME>
	<OUTCOME>FiftyThou</OUTCOME>
	<OUTCOME>Million</OUTCOME>
	<OUTCOME>TwentyThou</OUTCOME>
</VARIABLE>

<VARIABLE TYPE="nature">
	<NAME>HomeBase</NAME>
	<OUTCOME>City</OUTCOME>
	<OUTCOME>Suburb</OUTCOME>
	<OUTCOME>Rural</OUTCOME>
	<OUTCOME>Secure</OUTCOME>
</VARIABLE>

<VARIABLE TYPE="nature">
	<NAME>AntiTheft</NAME>
	<OUTCOME>False</OUTCOME>
	<OUTCOME>True</OUTCOME>
</VARIABLE>

<VARIABLE TYPE="nature">
	<NAME>PropCost</NAME>
	<OUTCOME>Million</OUTCOME>
	<OUTCOME>HundredThou</OUTCOME>
	<OUTCOME>Thousand</OUTCOME>
	<OUTCOME>TenThou</OUTCOME>
</VARIABLE>

<VARIABLE TYPE="nature">
	<NAME>OtherCarCost</NAME>
	<OUTCOME>HundredThou</OUTCOME>
	<OUTCOME>Million</OUTCOME>
	<OUTCOME>TenThou</OUTCOME>
</VARIABLE>

<VARIABLE TYPE="nature">
	<NAME>OtherCar</NAME>
	<OUTCOME>False</OUTCOME>
	<OUTCOME>True</OUTCOME>
</VARIABLE>

<VARIABLE TYPE="nature">
	<NAME>MedCost</NAME>
	<OUTCOME>HundredThou</OUTCOME>
	<OUTCOME>Thousand</OUTCOME>
	<OUTCOME>TenThou</OUTCOME>
	<OUTCOME>Million</OUTCOME>
</VARIABLE>

<VARIABLE TYPE="nature">
	<NAME>Cushioning</NAME>
	<OUTCOME>Poor</OUTCOME>
	<OUTCOME>Fair</OUTCOME>
	<OUTCOME>Excellent</OUTCOME>
	<OUTCOME>Good</OUTCOME>
</VARIABLE>

<VARIABLE TYPE="nature">
	<NAME>Airbag</NAME>
	<OUTCOME>False</OUTCOME>
	<OUTCOME>True</OUTCOME>
</VARIABLE>

<VARIABLE TYPE="nature">
	<NAME>ILiCost</NAME>
	<OUTCOME>HundredThou</OUTCOME>
	<OUTCOME>Million</OUTCOME>
	<OUTCOME>Thousand</OUTCOME>
	<OUTCOME>TenThou</OUTCOME>
</VARIABLE>

<VARIABLE TYPE="nature">
	<NAME>DrivHist</NAME>
	<OUTCOME>Many</OUTCOME>
	<OUTCOME>Zero</OUTCOME>
	<OUTCOME>One</OUTCOME>
</VARIABLE>

<DEFINITION>
	<FOR>GoodStudent</FOR>
	<GIVEN>SocioEcon</GIVEN>
	<GIVEN>Age</GIVEN>
	<TABLE>0.999960731956334 3.92680436660645e-05 0.999919730293787 8.02697062128753e-05 0.446167649320687 0.553832350679313 0.999980710620732 1.92893792677752e-05 0.999956190309296 4.38096907035836e-05 0.892706194903997 0.107293805096003 0.999980225430097 1.97745699031046e-05 0.999889208951917 0.000110791048083315 0.788795550005676 0.211204449994324 0.999133448873484 0.000866551126516465 0.997816593886463 0.00218340611353712 0.5 0.5 </TABLE>
</DEFINITION>

<DEFINITION>
	<FOR>Age</FOR>
	<GIVEN>DrivQuality</GIVEN>
	<GIVEN>SocioEcon</GIVEN>
	<TABLE>0.584109497579703 0.28726422967785 0.128626272742447 0.627579657797901 0.260076986993607 0.112343355208492 0.716768743795771 0.11666760315409 0.16656365305014 0.717128642501777 0.205401563610519 0.0774697938877043 0.569181279667334 0.170923070887764 0.259895649444902 0.529025277859742 0.179187567620734 0.291787154519524 0.589596854863098 0.0695326494056343 0.340870495731268 0.585482330468004 0.17287488061127 0.241642788920726 0.471201399984783 0.435593091379442 0.0932055086357757 0.512629904952106 0.362180554014572 0.125189541033322 0.629583911947745 0.222239366352929 0.148176721699326 0.333333333333333 0.663608562691131 0.00305810397553517 </TABLE>
</DEFINITION>

<DEFINITION>
	<FOR>SocioEcon</FOR>
	<GIVEN>MakeModel</GIVEN>
	<GIVEN>VehicleYear</GIVEN>
	<TABLE>0.957884049852962 3.50091023666153e-05 3.50091023666153e-05 0.042045931942305 0.983564938535542 0.000133618385889898 0.000133618385889898 0.0161678246926777 0.393376580447897 0.0843112139492604 0.517333278241468 0.00497892736137509 0.0575561064140587 0.281981762648842 0.660008410428932 0.000453720508166969 0.108418562051595 0.602999542054648 0.288543733781102 3.81621126545566e-05 0.00690537548546332 0.83228376465464 0.160801785779101 9.0740807956154e-06 0.54152301764348 0.12781383086595 0.298164672480227 0.0324984790103427 0.10454031916396 0.439238808077955 0.45336110718825 0.00285976556983477 0.0015527950310559 0.0015527950310559 0.0015527950310559 0.995341614906832 0.00806451612903226 0.00806451612903226 0.00806451612903226 0.975806451612903 </TABLE>
</DEFINITION>

<DEFINITION>
	<FOR>RiskAversion</FOR>
	<GIVEN>SeniorTrain</GIVEN>
	<GIVEN>DrivQuality</GIVEN>
	<GIVEN>Age</GIVEN>
	<TABLE>0.667553475080506 0.207678445757182 0.120924057921563 0.00384402124074982 0.81989446398815 0.113358637289391 0.0600351786706166 0.00671172005184225 0.613641030906664 0.129402402710751 0.253234418318102 0.00372214806448301 0.478881498856854 0.162482555895365 0.330836723180617 0.0277992220671635 0.598798344739774 0.123229349037084 0.246418908164889 0.0315533980582524 0.346529343820472 0.0891177602992134 0.540578076013421 0.023774819866894 0.307774211468428 0.267776680451824 0.402212826368743 0.0222362817110055 0.505113968439509 0.157948568088837 0.273670368205728 0.0632670952659264 0.149065420560748 0.110614152202937 0.721028037383178 0.0192923898531375 0.25 0.25 0.25 0.25 0.239927764777699 0.760021365347441 2.54349374300539e-05 2.54349374300539e-05 0.25 0.25 0.25 0.25 0.25 0.25 0.25 0.25 0.221253071253071 0.778501228501228 0.000122850122850123 0.000122850122850123 0.25 0.25 0.25 0.25 0.25 0.25 0.25 0.25 0.149362750991944 0.850577131177107 3.00589154743297e-05 3.00589154743297e-05 0.25 0.25 0.25 0.25 </TABLE>
</DEFINITION>

<DEFINITION>
	<FOR>VehicleYear</FOR>
	<GIVEN>CarValue</GIVEN>
	<GIVEN>MakeModel</GIVEN>
	<TABLE>0.917716312785975 0.082283687214025 0.5 0.5 0.5 0.5 0.649018232819074 0.350981767180926 0.5 0.5 0.00041631973355537 0.999583680266445 0.203119186407045 0.796880813592955 0.517139387291389 0.482860612708611 0.114483435047951 0.885516564952049 0.5 0.5 0.00110864745011086 0.998891352549889 1.47379590874256e-05 0.999985262040913 0.0281345195236777 0.971865480476322 9.56754688097972e-05 0.99990432453119 0.5 0.5 0.000350631136044881 0.999649368863955 0.735508234267641 0.264491765732359 0.794720656073808 0.205279343926192 0.728555103206914 0.271444896793086 0.5 0.5 0.5 0.5 0.5 0.5 0.5 0.5 0.748756218905473 0.251243781094527 0.841386554621849 0.158613445378151 </TABLE>
</DEFINITION>

<DEFINITION>
	<FOR>ThisCarDam</FOR>
	<GIVEN>ThisCarCost</GIVEN>
	<TABLE>0.893643911747966 0.0121949178077606 0.00429374937225886 0.0898674210720145 0.0113700168444694 0.393177989893318 0.595311622683885 0.000140370578326783 0.00190223656905695 0.280435785104911 0.701925293982015 0.0157366843440166 0.0147058823529412 0.720588235294118 0.25 0.0147058823529412 </TABLE>
</DEFINITION>

<DEFINITION>
	<FOR>RuggedAuto</FOR>
	<TABLE>0.159019368218346 0.355664185460875 0.485316446320779 </TABLE>
</DEFINITION>

<DEFINITION>
	<FOR>Accident</FOR>
	<GIVEN>RuggedAuto</GIVEN>
	<GIVEN>ThisCarDam</GIVEN>
	<TABLE>0.910230819481745 0.00350221383465196 0.00872831530812223 0.0775386513754809 0.000301568154402895 0.304282267792521 0.680639324487334 0.0147768395657419 0.000239234449760766 0.126555023923445 0.872966507177034 0.000239234449760766 0.000163934426229508 0.558852459016393 0.17327868852459 0.267704918032787 0.972594685668153 8.77531678893608e-06 8.77531678893608e-06 0.0273877636982695 9.1743119266055e-05 0.902844036697248 0.0221100917431193 0.074954128440367 5.62936275613601e-05 0.0513960819635217 0.948491330781356 5.62936275613601e-05 9.05469032959073e-05 0.0696305686345527 9.05469032959073e-05 0.930188337558855 0.999980209515265 6.59682824497981e-06 6.59682824497981e-06 6.59682824497981e-06 7.5187969924812e-05 0.887894736842105 7.5187969924812e-05 0.111954887218045 3.46020761245675e-05 0.18439446366782 0.812214532871972 0.00335640138408305 6.29247420085578e-05 6.29247420085578e-05 6.29247420085578e-05 0.999811225773974 </TABLE>
</DEFINITION>

<DEFINITION>
	<FOR>MakeModel</FOR>
	<GIVEN>RuggedAuto</GIVEN>
	<TABLE>0.181695388914765 0.800698649278062 4.65766185374942e-05 0.0112249650675361 0.00633442012109921 0.169637650978759 0.622573927530196 0.185568513119534 0.0190753852561433 0.0031445231153686 0.0224494467760397 0.0755589469668066 0.644654711942007 0.257321632964517 1.52613506295307e-05 </TABLE>
</DEFINITION>

<DEFINITION>
	<FOR>DrivQuality</FOR>
	<GIVEN>Accident</GIVEN>
	<TABLE>0.587981624374576 0.158944041357954 0.25307433426747 0.0739557448822625 0.921666075020708 0.00437818009702994 0.0230775639423477 0.973839873364992 0.00308256269266017 0.112315375624269 0.873552226118372 0.0141323982573584 </TABLE>
</DEFINITION>

<DEFINITION>
	<FOR>Mileage</FOR>
	<GIVEN>CarValue</GIVEN>
	<GIVEN>VehicleYear</GIVEN>
	<TABLE>0.412761283450939 0.101218213287179 0.38879643189988 0.0972240713620024 0.499702734839477 0.0478596908442331 0.29756242568371 0.15487514863258 0.412245043503067 0.0970261018399658 0.397981742975325 0.0927471116816432 0.546355336569814 0.00653938120426056 0.25797043692486 0.189134845301065 0.322964669738863 0.0771889400921659 0.461213517665131 0.13863287250384 0.328457481527897 0.149088796637164 0.490072060781703 0.0323816610532362 0.398311923052095 0.0974920921825576 0.395729778581112 0.108466206184236 0.437163594845865 0.0147202740172892 0.241436959712934 0.306679171423911 0.498868778280543 0.00113122171945701 0.453619909502262 0.0463800904977376 0.200980392156863 0.200980392156863 0.397058823529412 0.200980392156863 </TABLE>
</DEFINITION>

<DEFINITION>
	<FOR>Antilock</FOR>
	<GIVEN>MakeModel</GIVEN>
	<GIVEN>VehicleYear</GIVEN>
	<TABLE>0.995728889511273 0.00427111048872707 0.310261892036344 0.689738107963656 0.392570861912239 0.607429138087761 2.21327077154619e-05 0.999977867292284 0.00160280873149138 0.998397191268509 1.81481615912308e-05 0.999981851838409 0.888359359156358 0.111640640843642 0.100338935178647 0.899661064821353 0.996894409937888 0.0031055900621118 0.0161290322580645 0.983870967741935 </TABLE>
</DEFINITION>

<DEFINITION>
	<FOR>DrivingSkill</FOR>
	<GIVEN>DrivQuality</GIVEN>
	<GIVEN>RiskAversion</GIVEN>
	<TABLE>0.999977306509628 1.13467451861434e-05 1.13467451861434e-05 0.999947593218562 2.6203390718759e-05 2.6203390718759e-05 0.997754535247887 5.90911776871713e-05 0.00218637357442534 0.925049309664694 0.0019723865877712 0.0729783037475345 1.87677120282266e-05 0.999962464575944 1.87677120282266e-05 5.29016558218272e-05 0.999894196688356 5.29016558218272e-05 0.294966584515642 0.704211905237683 0.000821510246675104 0.448165869218501 0.517065390749601 0.0347687400318979 6.53466640528001e-05 6.53466640528001e-05 0.999869306671894 0.413680512502583 4.13308534821244e-05 0.586278156643935 0.687677455990914 5.16235609932373e-05 0.312270920448092 0.698984302862419 0.000923361034164358 0.300092336103416 </TABLE>
</DEFINITION>

<DEFINITION>
	<FOR>SeniorTrain</FOR>
	<GIVEN>DrivQuality</GIVEN>
	<GIVEN>Age</GIVEN>
	<TABLE>0.999978674400751 2.13255992493389e-05 0.354629021667761 0.645370978332239 0.999897330595483 0.000102669404517454 0.999970308788598 2.96912114014252e-05 0.755349843712431 0.244650156287569 0.999945000549994 5.49994500054999e-05 0.999938279224787 6.17207752129367e-05 0.1706222576785 0.8293777423215 0.999733048585158 0.000266951414842499 </TABLE>
</DEFINITION>

<DEFINITION>
	<FOR>ThisCarCost</FOR>
	<GIVEN>CarValue</GIVEN>
	<TABLE>0.854944923371648 0.143738026819923 0.00125718390804598 5.98659003831418e-05 0.834158177974246 2.40246011916202e-05 0.165793772823371 2.40246011916202e-05 0.811267714109673 1.28363113575683e-05 0.188706613267611 1.28363113575683e-05 0.848233280917584 0.150332994172602 0.0014106003144945 2.31245953195819e-05 0.847426470588235 0.00183823529411765 0.00183823529411765 0.148897058823529 </TABLE>
</DEFINITION>

<DEFINITION>
	<FOR>Theft</FOR>
	<GIVEN>ThisCarCost</GIVEN>
	<TABLE>0.999849342127289 0.000150657872710837 0.981751824817518 0.0182481751824818 0.998040119898547 0.00195988010145262 0.970588235294118 0.0294117647058824 </TABLE>
</DEFINITION>

<DEFINITION>
	<FOR>CarValue</FOR>
	<GIVEN>MakeModel</GIVEN>
	<TABLE>0.863337771859743 0.0533067021748779 0.0200177541056369 0.0632933865956502 4.43852640923214e-05 1.15300357431108e-05 0.185933356393405 0.391167992620777 0.422875590914332 1.15300357431108e-05 1.17295173303619e-05 0.299407659374817 0.677684593278987 0.022884288311536 1.17295173303619e-05 0.0474858474858475 0.305561105561106 0.174025974025974 0.466233766233766 0.00669330669330669 0.00208333333333333 0.00208333333333333 0.00208333333333333 0.00208333333333333 0.991666666666667 </TABLE>
</DEFINITION>

<DEFINITION>
	<FOR>HomeBase</FOR>
	<GIVEN>RiskAversion</GIVEN>
	<GIVEN>SocioEcon</GIVEN>
	<TABLE>0.514566469773208 0.105028075548749 1.8230875811274e-05 0.380387223802231 9.42933655188021e-06 0.144240561234112 0.806858899407838 0.0488911100214989 0.314157074216184 0.102881191883577 8.64184728127485e-06 0.582953092052957 0.901911468812877 0.0970824949698189 0.000503018108651912 0.000503018108651912 0.999908458440132 3.05138532893934e-05 3.05138532893934e-05 3.05138532893934e-05 1.56553322061494e-05 0.158322374600789 0.786539545369153 0.0551224246978521 0.951260321599305 0.026445023902651 2.17296827466319e-05 0.0222729248152977 0.998329621380846 0.000556792873051225 0.000556792873051225 0.000556792873051225 0.181283455745052 0.109579235652932 0.422289306610233 0.286848001991784 1.41908383947324e-05 0.150777657944031 0.792884713628881 0.0563234375886927 0.0093984962406015 0.132823942974319 0.256249389708036 0.601528171077043 0.934824902723735 0.0632295719844358 0.000972762645914397 0.000972762645914397 0.352752293577982 0.000458715596330275 0.61697247706422 0.0298165137614679 0.000346740638002774 0.0891123439667129 0.865811373092926 0.0447295423023578 0.120162297128589 0.0202871410736579 0.779338327091136 0.0802122347066167 0.492424242424242 0.00757575757575758 0.492424242424242 0.00757575757575758 </TABLE>
</DEFINITION>

<DEFINITION>
	<FOR>AntiTheft</FOR>
	<GIVEN>RiskAversion</GIVEN>
	<GIVEN>SocioEcon</GIVEN>
	<TABLE>0.899620797783126 0.100379202216875 0.100799607739599 0.899200392260401 0.31582495074147 0.684175049258529 0.741448692152918 0.258551307847082 0.999938972293421 6.10277065787868e-05 0.948869685014716 0.051130314985284 0.999956540634507 4.34593654932638e-05 0.998886414253898 0.00111358574610245 0.215174903522968 0.784825096477032 2.83816767894647e-05 0.999971618323211 4.88233570940338e-05 0.999951176642906 0.437743190661479 0.562256809338521 0.0302752293577982 0.969724770642202 0.000693481276005548 0.999306518723994 0.000624219725343321 0.999375780274657 0.0151515151515152 0.984848484848485 </TABLE>
</DEFINITION>

<DEFINITION>
	<FOR>PropCost</FOR>
	<GIVEN>OtherCarCost</GIVEN>
	<GIVEN>ThisCarCost</GIVEN>
	<TABLE>0.302423727072466 0.697570566011893 2.8534578201865e-06 2.8534578201865e-06 0.000134336378291241 0.000134336378291241 0.0130306286942504 0.986700698549167 0.954642409033877 6.27352572145546e-05 6.27352572145546e-05 0.0452321204516939 0.00675675675675676 0.00675675675675676 0.97972972972973 0.00675675675675676 0.939067201604814 0.000250752256770311 0.000250752256770311 0.0604312938816449 0.000142612664004564 0.000142612664004564 0.0480604677695379 0.951654306902453 0.558832741699729 5.22029651284193e-05 5.22029651284193e-05 0.441062852370015 0.25 0.25 0.25 0.25 0.000250752256770311 0.000250752256770311 0.0122868605817452 0.987211634904714 0.000144592249855408 0.000144592249855408 0.388808559861191 0.610902255639098 5.90040122728345e-05 5.90040122728345e-05 0.226634411139958 0.773247580835497 0.0192307692307692 0.0192307692307692 0.942307692307692 0.0192307692307692 </TABLE>
</DEFINITION>

<DEFINITION>
	<FOR>OtherCarCost</FOR>
	<GIVEN>Accident</GIVEN>
	<TABLE>0.99997440720693 1.27963965347358e-05 1.27963965347358e-05 0.515560288723228 0.242929830789256 0.241509880487516 0.142047821377989 0.450970590685662 0.406981587936349 0.987036446711295 0.00775688024652003 0.00520667304218468 </TABLE>
</DEFINITION>

<DEFINITION>
	<FOR>OtherCar</FOR>
	<GIVEN>SocioEcon</GIVEN>
	<TABLE>0.893911560162708 0.106088439837292 0.509075961854653 0.490924038145347 0.785492268241511 0.214507731758489 0.946601941747573 0.0533980582524272 </TABLE>
</DEFINITION>

<DEFINITION>
	<FOR>MedCost</FOR>
	<GIVEN>Cushioning</GIVEN>
	<GIVEN>ThisCarDam</GIVEN>
	<TABLE>0.999098347418851 1.34575012111751e-05 1.34575012111751e-05 0.000874737578726382 0.974749421742483 0.0125289128758674 0.000192752505782575 0.0125289128758674 0.952860478692353 0.000145942790426153 0.0281669585522475 0.0188266199649737 0.991561712846348 0.000125944584382872 0.000125944584382872 0.00818639798488665 0.998775105658825 9.35033848225306e-06 9.35033848225306e-06 0.00120619366421064 0.811844863731656 0.0269392033542977 0.040356394129979 0.120859538784067 0.489744952178533 0.108873538788523 0.163283740701382 0.238097768331562 0.945847362514029 9.35278713056491e-05 9.35278713056491e-05 0.0539655817433595 0.999977742825771 7.41905807638662e-06 7.41905807638662e-06 7.41905807638662e-06 0.523972602739726 0.0535415970598062 0.219261610424323 0.203224189776144 0.338221779751876 0.171580640220554 0.213240925103385 0.276956654924184 0.954756543765832 0.00457359977483817 0.00907683647621728 0.0315930199831129 0.999973092239802 8.96925339934704e-06 8.96925339934704e-06 8.96925339934704e-06 0.961253504205046 0.000100120144173008 0.00650780937124549 0.0321385662795354 0.875843539115221 0.0240564858785304 0.00806048487878031 0.0920394901274681 0.971171010353445 0.00580149946447697 8.92538379150304e-05 0.0229382363441628 </TABLE>
</DEFINITION>

<DEFINITION>
	<FOR>Cushioning</FOR>
	<GIVEN>Airbag</GIVEN>
	<GIVEN>RuggedAuto</GIVEN>
	<TABLE>0.999821471078315 5.9509640561771e-05 5.9509640561771e-05 5.9509640561771e-05 0.309800664451827 0.0953802639849151 2.24476968663015e-05 0.594796623866391 3.12304809494066e-05 0.294597126795753 0.500718301061836 0.204653341661462 0.270857077729656 5.6986551173923e-05 5.6986551173923e-05 0.729028949167996 3.09750960227977e-05 0.593266014124644 0.0996468839053401 0.307056126873993 1.37324910738808e-05 0.30092007690195 0.699052458115902 1.37324910738808e-05 </TABLE>
</DEFINITION>

<DEFINITION>
	<FOR>Airbag</FOR>
	<GIVEN>MakeModel</GIVEN>
	<GIVEN>VehicleYear</GIVEN>
	<TABLE>0.999929981795267 7.00182047332306e-05 0.598877605558525 0.401122394441475 0.999958681100735 4.13188992645236e-05 0.208954893541676 0.791045106458324 0.999923675774691 7.63242253091131e-05 0.0555515226307575 0.944448477369242 0.999898600689515 0.000101399310484689 0.0904533258014405 0.90954667419856 0.996894409937888 0.0031055900621118 0.338709677419355 0.661290322580645 </TABLE>
</DEFINITION>

<DEFINITION>
	<FOR>ILiCost</FOR>
	<GIVEN>Accident</GIVEN>
	<TABLE>0.999971208107797 9.59729740105186e-06 9.59729740105186e-06 9.59729740105186e-06 0.900337238196663 0.0583067092651757 0.017128150514732 0.0242279020234292 0.787865533616596 0.106035991002249 0.0440514871282179 0.0620469882529368 0.999760918074594 7.96939751354798e-05 7.96939751354798e-05 7.96939751354798e-05 </TABLE>
</DEFINITION>

<DEFINITION>
	<FOR>DrivHist</FOR>
	<GIVEN>DrivingSkill</GIVEN>
	<GIVEN>RiskAversion</GIVEN>
	<TABLE>0.893363288740625 0.0298305930943709 0.0768061181650044 0.951381536609163 0.0119781611342924 0.0366403022565444 0.508266078039134 0.216895449633257 0.274838472327608 0.0687951349296845 0.657164576206765 0.27404028886355 0.0283955482987069 0.818215941294597 0.153388510406696 0.291435221922446 0.409511717716765 0.299053060360789 0.00230145969292853 0.990857214918503 0.00684132538856837 0.000616142945163278 0.998767714109673 0.000616142945163278 0.997516826765994 6.53466640528001e-05 0.0024178265699536 0.999859025868753 7.04870656234581e-05 7.04870656234581e-05 0.582230932549404 0.111873264739507 0.305895802711089 0.537154989384289 0.231422505307856 0.231422505307856 </TABLE>
</DEFINITION>

</NETWORK>
</BIF>
