<?xml version="1.0" encoding="UTF-8"?>

<!-- DTD for the XMLBIF 0.3 format -->
<!DOCTYPE BIF [
<!ELEMENT BIF ( NETWORK )*>
<!ATTLIST BIF VERSION CDATA #REQUIRED>
   <!ELEMENT NETWORK ( NAME, ( PROPERTY | VARIABLE | DEFINITION )* )>
      <!ELEMENT NAME (#PCDATA)>
        <!ELEMENT VARIABLE ( NAME, ( OUTCOME |  PROPERTY )* ) >
          <!ATTLIST VARIABLE TYPE (nature|decision|utility) "nature">
           <!ELEMENT OUTCOME (#PCDATA)>
            <!ELEMENT DEFINITION ( FOR | GIVEN | TABLE | PROPERTY )* >
              <!ELEMENT FOR (#PCDATA)>
                <!ELEMENT GIVEN (#PCDATA)>
                  <!ELEMENT TABLE (#PCDATA)>
                    <!ELEMENT PROPERTY (#PCDATA)>
                      ]>
<BIF VERSION="0.3">
<NETWORK>
<NAME>Reco</NAME>
<VARIABLE TYPE="nature">
	<NAME>V1</NAME>
	<OUTCOME>1</OUTCOME>
	<OUTCOME>0</OUTCOME>
</VARIABLE>

<VARIABLE TYPE="nature">
	<NAME>V2</NAME>
	<OUTCOME>1</OUTCOME>
	<OUTCOME>0</OUTCOME>
</VARIABLE>

<VARIABLE TYPE="nature">
	<NAME>V3</NAME>
	<OUTCOME>0</OUTCOME>
	<OUTCOME>1</OUTCOME>
</VARIABLE>

<VARIABLE TYPE="nature">
	<NAME>V4</NAME>
	<OUTCOME>1</OUTCOME>
	<OUTCOME>0</OUTCOME>
</VARIABLE>

<VARIABLE TYPE="nature">
	<NAME>V5</NAME>
	<OUTCOME>1</OUTCOME>
	<OUTCOME>0</OUTCOME>
</VARIABLE>

<VARIABLE TYPE="nature">
	<NAME>V6</NAME>
	<OUTCOME>1</OUTCOME>
	<OUTCOME>0</OUTCOME>
</VARIABLE>

<VARIABLE TYPE="nature">
	<NAME>V7</NAME>
	<OUTCOME>0</OUTCOME>
	<OUTCOME>1</OUTCOME>
</VARIABLE>

<VARIABLE TYPE="nature">
	<NAME>V8</NAME>
	<OUTCOME>0</OUTCOME>
	<OUTCOME>1</OUTCOME>
</VARIABLE>

<VARIABLE TYPE="nature">
	<NAME>V9</NAME>
	<OUTCOME>0</OUTCOME>
	<OUTCOME>1</OUTCOME>
	<OUTCOME>2</OUTCOME>
</VARIABLE>

<VARIABLE TYPE="nature">
	<NAME>V10</NAME>
	<OUTCOME>1</OUTCOME>
	<OUTCOME>2</OUTCOME>
	<OUTCOME>0</OUTCOME>
</VARIABLE>

<VARIABLE TYPE="nature">
	<NAME>V11</NAME>
	<OUTCOME>1</OUTCOME>
	<OUTCOME>0</OUTCOME>
</VARIABLE>

<VARIABLE TYPE="nature">
	<NAME>V12</NAME>
	<OUTCOME>1</OUTCOME>
	<OUTCOME>0</OUTCOME>
</VARIABLE>

<VARIABLE TYPE="nature">
	<NAME>V13</NAME>
	<OUTCOME>1</OUTCOME>
	<OUTCOME>0</OUTCOME>
</VARIABLE>

<VARIABLE TYPE="nature">
	<NAME>V14</NAME>
	<OUTCOME>1</OUTCOME>
	<OUTCOME>0</OUTCOME>
</VARIABLE>

<VARIABLE TYPE="nature">
	<NAME>V15</NAME>
	<OUTCOME>0</OUTCOME>
	<OUTCOME>1</OUTCOME>
</VARIABLE>

<VARIABLE TYPE="nature">
	<NAME>V16</NAME>
	<OUTCOME>1</OUTCOME>
	<OUTCOME>0</OUTCOME>
</VARIABLE>

<VARIABLE TYPE="nature">
	<NAME>V17</NAME>
	<OUTCOME>1</OUTCOME>
	<OUTCOME>0</OUTCOME>
</VARIABLE>

<VARIABLE TYPE="nature">
	<NAME>V18</NAME>
	<OUTCOME>1</OUTCOME>
	<OUTCOME>0</OUTCOME>
</VARIABLE>

<VARIABLE TYPE="nature">
	<NAME>V19</NAME>
	<OUTCOME>1</OUTCOME>
	<OUTCOME>0</OUTCOME>
</VARIABLE>

<VARIABLE TYPE="nature">
	<NAME>V20</NAME>
	<OUTCOME>0</OUTCOME>
	<OUTCOME>1</OUTCOME>
</VARIABLE>

<VARIABLE TYPE="nature">
	<NAME>V21</NAME>
	<OUTCOME>0</OUTCOME>
	<OUTCOME>1</OUTCOME>
</VARIABLE>

<VARIABLE TYPE="nature">
	<NAME>V22</NAME>
	<OUTCOME>1</OUTCOME>
	<OUTCOME>0</OUTCOME>
</VARIABLE>

<VARIABLE TYPE="nature">
	<NAME>V23</NAME>
	<OUTCOME>0</OUTCOME>
	<OUTCOME>1</OUTCOME>
</VARIABLE>

<VARIABLE TYPE="nature">
	<NAME>V24</NAME>
	<OUTCOME>1</OUTCOME>
	<OUTCOME>0</OUTCOME>
</VARIABLE>

<VARIABLE TYPE="nature">
	<NAME>V25</NAME>
	<OUTCOME>0</OUTCOME>
	<OUTCOME>1</OUTCOME>
</VARIABLE>

<VARIABLE TYPE="nature">
	<NAME>V26</NAME>
	<OUTCOME>1</OUTCOME>
	<OUTCOME>0</OUTCOME>
</VARIABLE>

<VARIABLE TYPE="nature">
	<NAME>V27</NAME>
	<OUTCOME>0</OUTCOME>
	<OUTCOME>1</OUTCOME>
</VARIABLE>

<DEFINITION>
	<FOR>V1</FOR>
	<GIVEN>V20</GIVEN>
	<GIVEN>V14</GIVEN>
	<GIVEN>V2</GIVEN>
	<TABLE>0.999993808279569 6.19172043143908e-06 0.999998073314246 1.9266857537002e-06 0.999997817670756 2.18232924364833e-06 0.999961375048281 3.86249517188103e-05 0.998103311010162 0.00189668898983749 0.832420599068733 0.167579400931267 0.961444398248918 0.0385556017510822 0.901486988847584 0.0985130111524164 </TABLE>
</DEFINITION>

<DEFINITION>
	<FOR>V2</FOR>
	<GIVEN>V23</GIVEN>
	<GIVEN>V21</GIVEN>
	<GIVEN>V16</GIVEN>
	<TABLE>0.917558484024859 0.0824415159751415 2.85791041022446e-06 0.99999714208959 1.80368673568775e-05 0.999981963132643 1.30422307431463e-05 0.999986957769257 0.86923242631912 0.13076757368088 1.0928245142395e-05 0.999989071754858 4.74518363860681e-05 0.999952548163614 3.77159236629705e-05 0.999962284076337 </TABLE>
</DEFINITION>

<DEFINITION>
	<FOR>V3</FOR>
	<GIVEN>V26</GIVEN>
	<GIVEN>V22</GIVEN>
	<GIVEN>V18</GIVEN>
	<GIVEN>V9</GIVEN>
	<GIVEN>V5</GIVEN>
	<TABLE>0.999996013553917 3.98644608331672e-06 0.999994712407864 5.28759213629297e-06 0.999999074569351 9.25430649152583e-07 0.999998909023467 1.09097653309477e-06 0.999995863153105 4.13684689529641e-06 0.999995280213712 4.71978628807688e-06 0.999978024875841 2.19751241594515e-05 0.999981757816776 1.82421832244883e-05 0.999974089236669 2.59107633310877e-05 0.999984121439233 1.58785607672521e-05 0.999969895839605 3.01041603949666e-05 0.999981498612396 1.85013876040703e-05 0.999994335753854 5.6642461454805e-06 0.999993766285579 6.23371442107494e-06 0.999998524764774 1.47523522625683e-06 0.999998259543792 1.74045620838134e-06 0.999994161129471 5.83887052888489e-06 0.999993961425587 6.03857441335249e-06 0.99998237512778 1.76248722196764e-05 0.999983850650819 1.6149349181228e-05 0.999974961189844 2.50388101557414e-05 0.9999808171878 1.91828122002686e-05 0.999973563157616 2.64368423835457e-05 0.999978117204254 2.18827957459845e-05 0.435565415224763 0.564434584775237 0.999991558759475 8.44124052470751e-06 0.731636086502053 0.268363913497947 0.99999810606778 1.89393221995371e-06 0.5 0.5 0.5 0.5 0.039117792724426 0.960882207275574 0.999974024624656 2.59753753441737e-05 0.0873270242761548 0.912672975723845 0.999970068841664 2.99311583358276e-05 0.5 0.5 0.5 0.5 0.261533796706629 0.738466203293371 0.999989403412101 1.05965878986966e-05 0.539481823007374 0.460518176992626 0.99999682807534 3.17192466044547e-06 0.5 0.5 0.5 0.5 0.0333614922404044 0.966638507759596 0.999979575997712 2.04240022874883e-05 0.0574800949853332 0.942519905014667 0.999970985899147 2.90141008530146e-05 0.5 0.5 0.5 0.5 </TABLE>
</DEFINITION>

<DEFINITION>
	<FOR>V4</FOR>
	<GIVEN>V19</GIVEN>
	<GIVEN>V18</GIVEN>
	<GIVEN>V13</GIVEN>
	<GIVEN>V12</GIVEN>
	<GIVEN>V3</GIVEN>
	<TABLE>0.999999530992486 4.69007514438396e-07 0.66893589121346 0.33106410878654 0.999995114181577 4.88581842344411e-06 0.76517047906776 0.23482952093224 0.999997576779734 2.42322026587573e-06 0.482972959899386 0.517027040100614 0.999977615615347 2.23843846532659e-05 0.457161981258367 0.542838018741633 0.999990349167133 9.65083286687641e-06 0.47382976433875 0.52617023566125 0.999980852448972 1.91475510282235e-05 0.520910062967803 0.479089937032197 0.999957428693061 4.2571306939123e-05 0.217865429234339 0.782134570765661 0.999914163090129 8.58369098712446e-05 0.200156168662155 0.799843831337845 0.999998753393885 1.24660611485231e-06 0.378994390193227 0.621005609806773 0.999997930197997 2.06980200274042e-06 0.604468388102211 0.395531611897789 0.999996734608578 3.26539142246981e-06 0.156131479140329 0.843868520859671 0.999991767785699 8.23221430100268e-06 0.443910989178479 0.556089010821521 0.999990258917961 9.74108203939294e-06 0.217119448037947 0.782880551962053 0.99999283267155 7.16732844999355e-06 0.330529303332651 0.669470696667349 0.999973383018366 2.66169816342827e-05 0.0950798812385127 0.904920118761487 0.999973337599317 2.66624006825575e-05 0.150045566983466 0.849954433016534 </TABLE>
</DEFINITION>

<DEFINITION>
	<FOR>V5</FOR>
	<GIVEN>V26</GIVEN>
	<GIVEN>V25</GIVEN>
	<GIVEN>V23</GIVEN>
	<GIVEN>V17</GIVEN>
	<GIVEN>V9</GIVEN>
	<GIVEN>V7</GIVEN>
	<TABLE>0.51921549125171 0.48078450874829 0.430185551574782 0.569814448425218 0.367211083329766 0.632788916670234 0.118313592394441 0.881686407605559 0.411829470041263 0.588170529958737 0.255523908433405 0.744476091566595 0.981596302350488 0.0184036976495124 0.979076688563859 0.0209233114361413 0.901674782946802 0.0983252170531976 0.597784098552841 0.402215901447159 0.99717540693539 0.00282459306460999 0.93070042600167 0.0692995739983299 4.31506908425604e-06 0.999995684930916 2.55297421496043e-05 0.99997447025785 1.34965516310583e-06 0.999998650344837 1.27029292954955e-05 0.999987297070705 6.20031993650872e-06 0.999993799680063 1.12976478297219e-05 0.99998870235217 4.52857531020741e-05 0.999954714246898 0.000200240288346015 0.999799759711654 2.12844755292385e-06 0.999997871552447 2.57824988397875e-05 0.99997421750116 1.50961625554784e-05 0.999984903837445 4.26876120549816e-05 0.999957312387945 0.998974288113434 0.00102571188656583 0.5 0.5 0.997280936856919 0.00271906314308142 0.5 0.5 0.995369145276528 0.00463085472347182 0.5 0.5 0.999983199489265 1.68005107355264e-05 0.5 0.5 0.999998699870247 1.30012975294934e-06 0.5 0.5 0.999991362780494 8.63721950629653e-06 0.5 0.5 2.13447171824973e-05 0.999978655282817 0.5 0.5 6.29017851526626e-06 0.999993709821485 0.5 0.5 3.25499641950394e-05 0.999967450035805 0.5 0.5 9.46790380609733e-05 0.999905320961939 0.5 0.5 4.96973431800336e-06 0.999995030265682 0.5 0.5 4.1007135241532e-05 0.999958992864759 0.5 0.5 0.747063141822302 0.252936858177698 0.696934790304142 0.303065209695858 0.581591388594268 0.418408611405733 0.412025896453742 0.587974103546258 0.5 0.5 0.5 0.5 0.9811951544767 0.0188048455232997 0.964793288619552 0.0352067113804481 0.920071805214229 0.0799281947857711 0.784554216554891 0.215445783445109 0.5 0.5 0.5 0.5 7.51551954786634e-06 0.999992484480452 2.75558004960044e-05 0.999972444199504 2.1620219229023e-06 0.999997837978077 1.44270998643853e-05 0.999985572900136 0.5 0.5 0.5 0.5 6.85213101274496e-05 0.999931478689873 0.000325309043591412 0.999674690956409 3.832445483463e-06 0.999996167554517 2.99311583358276e-05 0.999970068841664 0.5 0.5 0.5 0.5 0.5 0.5 0.5 0.5 0.5 0.5 0.5 0.5 0.5 0.5 0.5 0.5 0.5 0.5 0.5 0.5 0.5 0.5 0.5 0.5 0.5 0.5 0.5 0.5 0.5 0.5 0.5 0.5 0.5 0.5 0.5 0.5 0.5 0.5 0.5 0.5 0.5 0.5 0.5 0.5 0.5 0.5 0.5 0.5 0.5 0.5 0.5 0.5 </TABLE>
</DEFINITION>

<DEFINITION>
	<FOR>V6</FOR>
	<TABLE>0.622231975200276 0.377768024799724 </TABLE>
</DEFINITION>

<DEFINITION>
	<FOR>V7</FOR>
	<GIVEN>V16</GIVEN>
	<TABLE>0.856652103603241 0.143347896396759 0.880036724201249 0.119963275798751 </TABLE>
</DEFINITION>

<DEFINITION>
	<FOR>V8</FOR>
	<GIVEN>V7</GIVEN>
	<GIVEN>V6</GIVEN>
	<TABLE>0.335363025726807 0.664636974273193 0.486430594664149 0.513569405335851 0.371920261641489 0.628079738358511 0.454280811423669 0.545719188576331 </TABLE>
</DEFINITION>

<DEFINITION>
	<FOR>V9</FOR>
	<GIVEN>V20</GIVEN>
	<GIVEN>V7</GIVEN>
	<GIVEN>V6</GIVEN>
	<TABLE>0.276495514125562 0.723503417172964 1.06870147427368e-06 0.165376757074334 0.596723927779093 0.237899315146573 0.474204327175477 0.525789496439314 6.1763852087927e-06 0.11007516897227 0.146459478238898 0.743465352788832 0.169691827660867 0.830303536077073 4.63626206007668e-06 0.121718022056785 0.656436159063094 0.221845818880121 0.29609738632295 0.70387006477232 3.25489047293559e-05 0.0423001013495493 0.26377553741932 0.69392436123113 </TABLE>
</DEFINITION>

<DEFINITION>
	<FOR>V10</FOR>
	<GIVEN>V13</GIVEN>
	<GIVEN>V8</GIVEN>
	<GIVEN>V6</GIVEN>
	<TABLE>0.908471284717079 0.0915263641728442 2.35111007662268e-06 0.720413598155174 0.0897686528304694 0.189817749014357 0.917609866130675 0.082388705320345 1.4285489799446e-06 0.353918009106945 0.0573283220295071 0.588753668863549 0.911189177529198 0.0887800067794521 3.08156913500354e-05 0.00168113832128806 1.73313228998769e-05 0.998301530355812 0.927052291898219 0.0729423387724639 5.369329317075e-06 0.00017799802066201 0.00017799802066201 0.999644003958676 </TABLE>
</DEFINITION>

<DEFINITION>
	<FOR>V11</FOR>
	<GIVEN>V26</GIVEN>
	<GIVEN>V18</GIVEN>
	<GIVEN>V17</GIVEN>
	<GIVEN>V5</GIVEN>
	<GIVEN>V3</GIVEN>
	<TABLE>0.999998113841012 1.88615898811343e-06 0.5 0.5 0.999999093784266 9.06215733717569e-07 0.5 0.5 0.999999168309256 8.31690744113709e-07 0.5 0.5 0.999997335450762 2.66454923820537e-06 0.5 0.5 0.999994043151411 5.95684858882257e-06 0.5 0.5 0.999995476300337 4.52369966253201e-06 0.5 0.5 0.5 0.5 0.5 0.5 0.5 0.5 0.5 0.5 0.521151392191244 0.478848607808756 0.999994893842996 5.10615700411556e-06 0.69818793303071 0.30181206696929 0.5 0.5 0.885159672045225 0.114840327954775 0.999996075137566 3.9248624335717e-06 0.801116682714552 0.198883317285448 0.5 0.5 0.0772894703416741 0.922710529658326 0.999996598107187 3.40189281316124e-06 0.68417444038859 0.31582555961141 0.5 0.5 0.5 0.5 0.5 0.5 0.5 0.5 0.5 0.5 </TABLE>
</DEFINITION>

<DEFINITION>
	<FOR>V12</FOR>
	<GIVEN>V23</GIVEN>
	<GIVEN>V9</GIVEN>
	<GIVEN>V7</GIVEN>
	<GIVEN>V5</GIVEN>
	<GIVEN>V3</GIVEN>
	<TABLE>0.884737413375637 0.115262586624363 0.741314259522833 0.258685740477167 0.0648858506384625 0.935114149361537 0.5 0.5 1.03543250015531e-05 0.999989645674998 7.3823620605649e-06 0.999992617637939 9.28384425422879e-06 0.999990716155746 0.5 0.5 0.998810403871282 0.00118959612871774 0.998999321785659 0.0010006782143407 0.994109662836909 0.00589033716309093 0.5 0.5 1.25046892584719e-05 0.999987495310742 1.15995824150331e-05 0.999988400417585 4.61114236440936e-06 0.999995388857636 0.5 0.5 0.999488316109294 0.000511683890706442 0.5 0.5 0.555623511234147 0.444376488765853 0.5 0.5 9.35891436593355e-06 0.999990641085634 0.5 0.5 8.02503811893106e-06 0.999991974961881 0.5 0.5 0.5 0.5 0.5 0.5 0.317574811935042 0.682425188064958 0.5 0.5 0.5 0.5 0.5 0.5 2.3945213351851e-05 0.999976054786648 0.5 0.5 0.5 0.5 0.5 0.5 0.997488672439553 0.00251132756044707 0.5 0.5 0.5 0.5 0.5 0.5 9.08149735728427e-06 0.999990918502643 0.5 0.5 0.5 0.5 0.5 0.5 0.769697269909563 0.230302730090437 0.5 0.5 0.5 0.5 0.5 0.5 1.78667143112382e-05 0.999982133285689 0.5 0.5 </TABLE>
</DEFINITION>

<DEFINITION>
	<FOR>V13</FOR>
	<GIVEN>V16</GIVEN>
	<GIVEN>V8</GIVEN>
	<TABLE>0.929108830430053 0.0708911695699474 0.789968216534179 0.210031783465821 0.853480718540978 0.146519281459022 0.667363898067133 0.332636101932867 </TABLE>
</DEFINITION>

<DEFINITION>
	<FOR>V14</FOR>
	<GIVEN>V23</GIVEN>
	<GIVEN>V10</GIVEN>
	<GIVEN>V2</GIVEN>
	<TABLE>0.259397550924852 0.740602449075148 0.9376795237873 0.0623204762127004 0.5 0.5 0.5 0.5 0.5 0.5 0.972879015238927 0.0271209847610735 0.359281377919279 0.640718622080721 0.952766132558319 0.047233867441681 0.331175847686556 0.668824152313444 0.921739000388837 0.0782609996111626 0.5 0.5 0.978861142722178 0.0211388572778219 </TABLE>
</DEFINITION>

<DEFINITION>
	<FOR>V15</FOR>
	<GIVEN>V21</GIVEN>
	<GIVEN>V20</GIVEN>
	<GIVEN>V10</GIVEN>
	<GIVEN>V8</GIVEN>
	<GIVEN>V6</GIVEN>
	<TABLE>0.993755546082228 0.00624445391777181 0.995178008523227 0.00482199147677341 0.946848978841288 0.0531510211587123 0.987829606312089 0.0121703936879114 0.5 0.5 0.5 0.5 0.5 0.5 0.5 0.5 0.5 0.5 0.971359197187025 0.0286408028129753 0.5 0.5 0.922573075735902 0.0774269242640982 0.898430294591027 0.101569705408973 0.951810050632347 0.0481899493676533 0.681596638155979 0.318403361844021 0.881479920525017 0.118520079474983 0.902980255211261 0.0970197447887391 0.975192080131998 0.0248079198680022 0.79112949622799 0.20887050377201 0.924031995780776 0.0759680042192238 0.5 0.5 0.850736354128389 0.149263645871612 0.5 0.5 0.629650929862879 0.370349070137121 0.994845360824742 0.00515463917525773 0.727057710501419 0.272942289498581 0.829614960840952 0.170385039159048 0.952589399320128 0.0474106006798716 0.5 0.5 0.5 0.5 0.5 0.5 0.5 0.5 0.5 0.5 0.735150030618494 0.264849969381506 0.5 0.5 0.843942789088385 0.156057210911615 0.994845360824742 0.00515463917525773 0.777136258660508 0.222863741339492 0.688958822026616 0.311041177973384 0.818141648781719 0.181858351218281 0.5 0.5 0.713649851632047 0.286350148367952 0.726118817063596 0.273881182936404 0.934954692219561 0.0650453077804395 0.5 0.5 0.666538164996145 0.333461835003855 0.5 0.5 0.685275922237693 0.314724077762307 </TABLE>
</DEFINITION>

<DEFINITION>
	<FOR>V16</FOR>
	<GIVEN>V6</GIVEN>
	<TABLE>0.999316982580824 0.000683017419176272 7.35304930954867e-06 0.99999264695069 </TABLE>
</DEFINITION>

<DEFINITION>
	<FOR>V17</FOR>
	<GIVEN>V25</GIVEN>
	<GIVEN>V23</GIVEN>
	<GIVEN>V9</GIVEN>
	<GIVEN>V7</GIVEN>
	<TABLE>0.846586407012906 0.153413592987094 0.782421088571529 0.21757891142847 0.47127228140823 0.52872771859177 0.662905566984472 0.337094433015528 0.607181452916455 0.392818547083545 0.694729110861488 0.305270889138512 0.908648002391153 0.0913519976088473 0.903409635092424 0.0965903649075759 0.622195246032501 0.377804753967499 0.672182062552218 0.327817937447782 0.708853415843325 0.291146584156675 0.790716786964911 0.209283213035089 0.759681534834146 0.240318465165854 0.5 0.5 0.268846437561313 0.731153562438687 0.5 0.5 0.417956967625176 0.582043032374824 0.5 0.5 0.816009474710882 0.183990525289118 0.5 0.5 0.441365907828984 0.558634092171016 0.5 0.5 0.557482943823487 0.442517056176513 0.5 0.5 </TABLE>
</DEFINITION>

<DEFINITION>
	<FOR>V18</FOR>
	<GIVEN>V23</GIVEN>
	<GIVEN>V17</GIVEN>
	<GIVEN>V14</GIVEN>
	<GIVEN>V9</GIVEN>
	<GIVEN>V5</GIVEN>
	<TABLE>0.737787929584782 0.262212070415218 0.595625827072291 0.404374172927709 0.836500420273464 0.163499579726536 0.821566666774886 0.178433333225114 0.633734741912529 0.366265258087471 0.646927068474984 0.353072931525016 0.52216495736843 0.47783504263157 0.566275301742357 0.433724698257643 0.632352446674563 0.367647553325437 0.83365968278833 0.16634031721167 0.488098189933052 0.511901810066948 0.462030323005933 0.537969676994067 0.999992756247736 7.24375226367258e-06 0.999526963103122 0.000473036896877956 0.999999241487595 7.58512405470392e-07 0.999991706613147 8.29338685332316e-06 0.999996433895114 3.56610488627692e-06 0.999803536345776 0.000196463654223969 0.999993577969868 6.42203013216538e-06 0.999733048585158 0.000266951414842499 0.999998811292719 1.1887072808321e-06 0.999988136196465 1.18638035354135e-05 0.999922275765584 7.7724234416291e-05 0.996551724137931 0.00344827586206897 0.5 0.5 0.999993522057395 6.47794260542851e-06 0.5 0.5 0.999997890944983 2.10905501680917e-06 0.5 0.5 0.999992468178052 7.53182194772915e-06 0.5 0.5 0.999988787477855 1.12125221447312e-05 0.5 0.5 0.999996442420577 3.55757942296062e-06 0.5 0.5 0.999866488651535 0.000133511348464619 0.5 0.5 0.999945181449402 5.48185505975222e-05 0.5 0.5 0.999997073987161 2.92601283934434e-06 0.5 0.5 0.999981564101619 1.84358983813281e-05 0.5 0.5 0.999893730074389 0.000106269925611052 0.5 0.5 0.999993762552862 6.23744713763551e-06 0.5 0.5 0.999641062455133 0.000358937544867193 </TABLE>
</DEFINITION>

<DEFINITION>
	<FOR>V19</FOR>
	<GIVEN>V21</GIVEN>
	<GIVEN>V18</GIVEN>
	<GIVEN>V14</GIVEN>
	<GIVEN>V7</GIVEN>
	<GIVEN>V2</GIVEN>
	<TABLE>0.846341354396473 0.153658645603527 0.870223991126653 0.129776008873347 1.04303565095855e-05 0.99998956964349 4.29136662861655e-06 0.999995708633371 0.81123409969818 0.18876590030182 0.546130995718904 0.453869004281096 4.0239181696001e-06 0.99999597608183 7.62078951379363e-05 0.999923792104862 0.542963793561333 0.457036206438667 0.629412478020979 0.370587521979021 3.73775883979966e-05 0.999962622411602 1.78361217136946e-05 0.999982163878286 0.540906991019954 0.459093008980046 0.444984302586336 0.555015697413664 1.0286160998992e-05 0.999989713839001 0.000240269101393561 0.999759730898606 0.5 0.5 1.57779972672509e-06 0.999998422200273 0.5 0.5 0.5 0.5 0.5 0.5 3.43383009408694e-05 0.999965661699059 0.5 0.5 0.5 0.5 0.5 0.5 1.89386765652816e-05 0.999981061323435 0.5 0.5 0.5 0.5 0.5 0.5 0.000325309043591412 0.999674690956409 0.5 0.5 0.5 0.5 </TABLE>
</DEFINITION>

<DEFINITION>
	<FOR>V20</FOR>
	<GIVEN>V10</GIVEN>
	<GIVEN>V8</GIVEN>
	<TABLE>0.923531556717008 0.0764684432829925 0.871095611867853 0.128904388132147 2.77854959711031e-05 0.999972214504029 2.2873873461732e-05 0.999977126126538 0.848940657023296 0.151059342976704 0.781065127394774 0.218934872605226 </TABLE>
</DEFINITION>

<DEFINITION>
	<FOR>V21</FOR>
	<GIVEN>V22</GIVEN>
	<GIVEN>V16</GIVEN>
	<GIVEN>V13</GIVEN>
	<GIVEN>V8</GIVEN>
	<GIVEN>V7</GIVEN>
	<TABLE>0.999798407734458 0.000201592265541928 0.999994342931493 5.65706850709962e-06 0.827122168182393 0.172877831817607 0.999985586208885 1.44137911153392e-05 0.999100445625398 0.00089955437460212 0.999929942552893 7.00574471066274e-05 0.764359591491576 0.235640408508424 0.999944794081926 5.52059180744176e-05 0.994272486005711 0.00572751399428887 0.999990264987052 9.73501294756722e-06 0.339188447692081 0.660811552307919 0.999930872390433 6.91276095672612e-05 0.987005928137637 0.0129940718623628 0.999937003905758 6.2996094242157e-05 0.362254506322303 0.637745493677697 0.999927672501085 7.23274989150875e-05 0.5 0.5 0.5 0.5 0.881110121630488 0.118889878369512 0.999994589739983 5.41026001709642e-06 0.5 0.5 0.5 0.5 0.824104151307001 0.175895848692999 0.99998001998002 1.998001998002e-05 0.5 0.5 0.5 0.5 0.711458158037891 0.288541841962109 0.999987182445077 1.28175549232228e-05 0.5 0.5 0.5 0.5 0.568505984642191 0.431494015357809 0.999972541051129 2.74589488714372e-05 </TABLE>
</DEFINITION>

<DEFINITION>
	<FOR>V22</FOR>
	<GIVEN>V23</GIVEN>
	<GIVEN>V9</GIVEN>
	<GIVEN>V8</GIVEN>
	<GIVEN>V6</GIVEN>
	<TABLE>0.999995693849957 4.30615004349212e-06 0.999990103125433 9.89687456701174e-06 0.238795637394028 0.761204362605972 0.177773652015869 0.822226347984131 0.999998152752583 1.84724741662449e-06 0.999997271710365 2.72828963522768e-06 0.352941479869199 0.647058520130801 0.264879770840841 0.735120229159159 0.5 0.5 0.999994252939621 5.74706037861634e-06 0.5 0.5 0.213249930283769 0.786750069716231 0.99996640010752 3.35998924803441e-05 0.999940652818991 5.93471810089021e-05 0.307979517815234 0.692020482184766 0.164299769013603 0.835700230986397 0.999991089408871 8.91059112861547e-06 0.999989064106209 1.09358937905995e-05 0.43054279956391 0.56945720043609 0.306518077608621 0.693481922391379 0.5 0.5 0.99997346213046 2.65378695398333e-05 0.5 0.5 0.236229126340999 0.763770873659001 </TABLE>
</DEFINITION>

<DEFINITION>
	<FOR>V23</FOR>
	<GIVEN>V20</GIVEN>
	<GIVEN>V10</GIVEN>
	<GIVEN>V8</GIVEN>
	<TABLE>0.996247429464506 0.00375257053549395 0.989487039830528 0.0105129601694724 0.5 0.5 0.5 0.5 0.989743639503969 0.0102563604960314 0.972006487372196 0.0279935126278037 1.98688654877806e-05 0.999980131134512 8.48075716199942e-06 0.999991519242838 1.38931340131707e-05 0.999986106865987 1.14371983438937e-05 0.999988562801656 5.45315737812193e-05 0.999945468426219 1.49124638372752e-05 0.999985087536163 </TABLE>
</DEFINITION>

<DEFINITION>
	<FOR>V24</FOR>
	<GIVEN>V6</GIVEN>
	<TABLE>0.999995535833862 4.46416613840701e-06 7.35304930954867e-06 0.99999264695069 </TABLE>
</DEFINITION>

<DEFINITION>
	<FOR>V25</FOR>
	<GIVEN>V21</GIVEN>
	<GIVEN>V20</GIVEN>
	<GIVEN>V15</GIVEN>
	<GIVEN>V8</GIVEN>
	<TABLE>0.99999893330375 1.06669624970933e-06 0.99999905248656 9.47513440478153e-07 0.999882986192371 0.0001170138076293 0.99998357046627 1.64295337298327e-05 0.999994151294319 5.8487056814327e-06 0.999994944234911 5.05576508893091e-06 0.99993380113862 6.61988613795843e-05 0.999986571052561 1.34289474390997e-05 0.999274310595065 0.000725689404934688 0.0361128565486358 0.963887143451364 0.99792531120332 0.0020746887966805 0.114398774572377 0.885601225427623 0.999025341130604 0.000974658869395711 0.150084291187739 0.849915708812261 0.997607655502392 0.00239234449760766 0.199276208265235 0.800723791734765 </TABLE>
</DEFINITION>

<DEFINITION>
	<FOR>V26</FOR>
	<GIVEN>V14</GIVEN>
	<GIVEN>V2</GIVEN>
	<TABLE>0.999990206256243 9.79374375648836e-06 0.999996983026507 3.01697349287089e-06 0.000122221316879134 0.999877778683121 0.9999391801484 6.08198515995621e-05 </TABLE>
</DEFINITION>

<DEFINITION>
	<FOR>V27</FOR>
	<GIVEN>V25</GIVEN>
	<GIVEN>V19</GIVEN>
	<GIVEN>V13</GIVEN>
	<GIVEN>V7</GIVEN>
	<GIVEN>V4</GIVEN>
	<TABLE>0.747323662419375 0.252676337580625 0.494520626132618 0.505479373867382 0.5 0.5 0.5 0.5 0.10203983153246 0.89796016846754 0.418689517219008 0.581310482780992 0.5 0.5 0.5 0.5 0.837344675093961 0.162655324906039 0.740443008007905 0.259556991992095 0.769325869402495 0.230674130597505 0.646149161885837 0.353850838114163 0.339586226225206 0.660413773774794 0.528533767542839 0.471466232457161 0.206315134782543 0.793684865217457 0.563210822458997 0.436789177541003 0.5 0.5 0.5 0.5 0.5 0.5 0.5 0.5 0.5 0.5 0.5 0.5 0.5 0.5 0.5 0.5 2.31514708129407e-06 0.999997684852919 0.5 0.5 0.5 0.5 0.5 0.5 4.44140454977482e-06 0.99999555859545 0.5 0.5 0.5 0.5 0.5 0.5 </TABLE>
</DEFINITION>

</NETWORK>
</BIF>
