<?xml version="1.0" encoding="UTF-8"?>

<!-- DTD for the XMLBIF 0.3 format -->
<!DOCTYPE BIF [
<!ELEMENT BIF ( NETWORK )*>
<!ATTLIST BIF VERSION CDATA #REQUIRED>
   <!ELEMENT NETWORK ( NAME, ( PROPERTY | VARIABLE | DEFINITION )* )>
      <!ELEMENT NAME (#PCDATA)>
        <!ELEMENT VARIABLE ( NAME, ( OUTCOME |  PROPERTY )* ) >
          <!ATTLIST VARIABLE TYPE (nature|decision|utility) "nature">
           <!ELEMENT OUTCOME (#PCDATA)>
            <!ELEMENT DEFINITION ( FOR | GIVEN | TABLE | PROPERTY )* >
              <!ELEMENT FOR (#PCDATA)>
                <!ELEMENT GIVEN (#PCDATA)>
                  <!ELEMENT TABLE (#PCDATA)>
                    <!ELEMENT PROPERTY (#PCDATA)>
                      ]>
<BIF VERSION="0.3">
<NETWORK>
<NAME>Reco</NAME>
<VARIABLE TYPE="nature">
	<NAME>GoodStudent</NAME>
	<OUTCOME>True</OUTCOME>
	<OUTCOME>False</OUTCOME>
</VARIABLE>

<VARIABLE TYPE="nature">
	<NAME>Age</NAME>
	<OUTCOME>Adolescent</OUTCOME>
	<OUTCOME>Adult</OUTCOME>
	<OUTCOME>Senior</OUTCOME>
</VARIABLE>

<VARIABLE TYPE="nature">
	<NAME>SocioEcon</NAME>
	<OUTCOME>Prole</OUTCOME>
	<OUTCOME>Middle</OUTCOME>
	<OUTCOME>Wealthy</OUTCOME>
	<OUTCOME>UpperMiddle</OUTCOME>
</VARIABLE>

<VARIABLE TYPE="nature">
	<NAME>RiskAversion</NAME>
	<OUTCOME>Cautious</OUTCOME>
	<OUTCOME>Normal</OUTCOME>
	<OUTCOME>Adventurous</OUTCOME>
	<OUTCOME>Psychopath</OUTCOME>
</VARIABLE>

<VARIABLE TYPE="nature">
	<NAME>VehicleYear</NAME>
	<OUTCOME>Current</OUTCOME>
	<OUTCOME>Older</OUTCOME>
</VARIABLE>

<VARIABLE TYPE="nature">
	<NAME>ThisCarDam</NAME>
	<OUTCOME>Mild</OUTCOME>
	<OUTCOME>Moderate</OUTCOME>
	<OUTCOME>Severe</OUTCOME>
	<OUTCOME>None</OUTCOME>
</VARIABLE>

<VARIABLE TYPE="nature">
	<NAME>RuggedAuto</NAME>
	<OUTCOME>Football</OUTCOME>
	<OUTCOME>EggShell</OUTCOME>
	<OUTCOME>Tank</OUTCOME>
</VARIABLE>

<VARIABLE TYPE="nature">
	<NAME>Accident</NAME>
	<OUTCOME>Mild</OUTCOME>
	<OUTCOME>Moderate</OUTCOME>
	<OUTCOME>Severe</OUTCOME>
	<OUTCOME>None</OUTCOME>
</VARIABLE>

<VARIABLE TYPE="nature">
	<NAME>MakeModel</NAME>
	<OUTCOME>Luxury</OUTCOME>
	<OUTCOME>FamilySedan</OUTCOME>
	<OUTCOME>SuperLuxury</OUTCOME>
	<OUTCOME>Economy</OUTCOME>
	<OUTCOME>SportsCar</OUTCOME>
</VARIABLE>

<VARIABLE TYPE="nature">
	<NAME>DrivQuality</NAME>
	<OUTCOME>Normal</OUTCOME>
	<OUTCOME>Excellent</OUTCOME>
	<OUTCOME>Poor</OUTCOME>
</VARIABLE>

<VARIABLE TYPE="nature">
	<NAME>Mileage</NAME>
	<OUTCOME>FiftyThou</OUTCOME>
	<OUTCOME>FiveThou</OUTCOME>
	<OUTCOME>Domino</OUTCOME>
	<OUTCOME>TwentyThou</OUTCOME>
</VARIABLE>

<VARIABLE TYPE="nature">
	<NAME>Antilock</NAME>
	<OUTCOME>True</OUTCOME>
	<OUTCOME>False</OUTCOME>
</VARIABLE>

<VARIABLE TYPE="nature">
	<NAME>DrivingSkill</NAME>
	<OUTCOME>Normal</OUTCOME>
	<OUTCOME>Expert</OUTCOME>
	<OUTCOME>SubStandard</OUTCOME>
</VARIABLE>

<VARIABLE TYPE="nature">
	<NAME>SeniorTrain</NAME>
	<OUTCOME>True</OUTCOME>
	<OUTCOME>False</OUTCOME>
</VARIABLE>

<VARIABLE TYPE="nature">
	<NAME>ThisCarCost</NAME>
	<OUTCOME>HundredThou</OUTCOME>
	<OUTCOME>Thousand</OUTCOME>
	<OUTCOME>TenThou</OUTCOME>
	<OUTCOME>Million</OUTCOME>
</VARIABLE>

<VARIABLE TYPE="nature">
	<NAME>Theft</NAME>
	<OUTCOME>True</OUTCOME>
	<OUTCOME>False</OUTCOME>
</VARIABLE>

<VARIABLE TYPE="nature">
	<NAME>CarValue</NAME>
	<OUTCOME>FiveThou</OUTCOME>
	<OUTCOME>FiftyThou</OUTCOME>
	<OUTCOME>TwentyThou</OUTCOME>
	<OUTCOME>Million</OUTCOME>
	<OUTCOME>TenThou</OUTCOME>
</VARIABLE>

<VARIABLE TYPE="nature">
	<NAME>HomeBase</NAME>
	<OUTCOME>Secure</OUTCOME>
	<OUTCOME>Suburb</OUTCOME>
	<OUTCOME>City</OUTCOME>
	<OUTCOME>Rural</OUTCOME>
</VARIABLE>

<VARIABLE TYPE="nature">
	<NAME>AntiTheft</NAME>
	<OUTCOME>True</OUTCOME>
	<OUTCOME>False</OUTCOME>
</VARIABLE>

<VARIABLE TYPE="nature">
	<NAME>PropCost</NAME>
	<OUTCOME>Million</OUTCOME>
	<OUTCOME>Thousand</OUTCOME>
	<OUTCOME>HundredThou</OUTCOME>
	<OUTCOME>TenThou</OUTCOME>
</VARIABLE>

<VARIABLE TYPE="nature">
	<NAME>OtherCarCost</NAME>
	<OUTCOME>HundredThou</OUTCOME>
	<OUTCOME>TenThou</OUTCOME>
	<OUTCOME>Million</OUTCOME>
</VARIABLE>

<VARIABLE TYPE="nature">
	<NAME>OtherCar</NAME>
	<OUTCOME>False</OUTCOME>
	<OUTCOME>True</OUTCOME>
</VARIABLE>

<VARIABLE TYPE="nature">
	<NAME>MedCost</NAME>
	<OUTCOME>HundredThou</OUTCOME>
	<OUTCOME>Thousand</OUTCOME>
	<OUTCOME>Million</OUTCOME>
	<OUTCOME>TenThou</OUTCOME>
</VARIABLE>

<VARIABLE TYPE="nature">
	<NAME>Cushioning</NAME>
	<OUTCOME>Poor</OUTCOME>
	<OUTCOME>Good</OUTCOME>
	<OUTCOME>Excellent</OUTCOME>
	<OUTCOME>Fair</OUTCOME>
</VARIABLE>

<VARIABLE TYPE="nature">
	<NAME>Airbag</NAME>
	<OUTCOME>False</OUTCOME>
	<OUTCOME>True</OUTCOME>
</VARIABLE>

<VARIABLE TYPE="nature">
	<NAME>ILiCost</NAME>
	<OUTCOME>HundredThou</OUTCOME>
	<OUTCOME>TenThou</OUTCOME>
	<OUTCOME>Million</OUTCOME>
	<OUTCOME>Thousand</OUTCOME>
</VARIABLE>

<VARIABLE TYPE="nature">
	<NAME>DrivHist</NAME>
	<OUTCOME>Many</OUTCOME>
	<OUTCOME>One</OUTCOME>
	<OUTCOME>Zero</OUTCOME>
</VARIABLE>

<DEFINITION>
	<FOR>GoodStudent</FOR>
	<GIVEN>ThisCarDam</GIVEN>
	<GIVEN>Age</GIVEN>
	<TABLE>0.999965988708251 3.40112917488606e-05 0.99998997453532 1.00254646802879e-05 0.999973274894436 2.6725105564167e-05 0.674245319067635 0.325754680932365 0.99362145274668 0.00637854725331945 0.94195356285028 0.0580464371497198 0.738000793335978 0.261999206664022 0.985598666984051 0.0144013330159486 0.97797223898612 0.0220277610138805 0.710132607956477 0.289867392043523 0.988899061570153 0.0111009384298466 0.981620405101275 0.0183795948987247 </TABLE>
</DEFINITION>

<DEFINITION>
	<FOR>Age</FOR>
	<GIVEN>HomeBase</GIVEN>
	<GIVEN>RiskAversion</GIVEN>
	<TABLE>0.999914802981896 4.25985090521832e-05 4.25985090521832e-05 0.333333333333333 0.333333333333333 0.333333333333333 0.999891792457934 5.4103771032841e-05 5.4103771032841e-05 0.333333333333333 0.333333333333333 0.333333333333333 0.343527912561878 0.583492623633779 0.0729794638043425 1.543138434949e-05 0.779979321944972 0.220005246670679 0.365503374982048 0.634353008760592 0.000143616257360333 0.130121183612212 0.48923683444213 0.380641981945658 0.415174765558397 0.391791499208379 0.193033735233224 1.50959346647948e-05 0.768096251679423 0.231888652385912 0.508381859890595 0.491441679901182 0.000176460208223046 0.333333333333333 0.333333333333333 0.333333333333333 0.363273617876111 0.550840694570571 0.0858856875533174 1.64033922215114e-05 0.726752292374063 0.273231304233715 0.413144767856164 0.586800416598147 5.48155456887573e-05 0.11751124073399 0.494991580299637 0.387497178966373 </TABLE>
</DEFINITION>

<DEFINITION>
	<FOR>SocioEcon</FOR>
	<TABLE>0.315326074880569 0.483307410287746 0.00947116987001444 0.191895344961671 </TABLE>
</DEFINITION>

<DEFINITION>
	<FOR>RiskAversion</FOR>
	<GIVEN>DrivHist</GIVEN>
	<GIVEN>AntiTheft</GIVEN>
	<GIVEN>SocioEcon</GIVEN>
	<TABLE>0.157859405641877 0.65168954593453 0.118034394327953 0.0724166540956404 0.0807726207407704 0.648549708539492 0.024042987920915 0.246634682798822 0.388728323699422 0.444219653179191 0.0835260115606936 0.0835260115606936 0.389819537073362 0.44442918791683 0.0659278148293448 0.0998234601804629 0.25 0.25 0.25 0.25 0.25 0.25 0.25 0.25 0.25 0.25 0.25 0.25 0.25 0.25 0.25 0.25 0.367731386076516 0.311822417346116 0.320423797150793 2.23994265746797e-05 0.367691977282489 0.273767479597194 0.222223547940629 0.136316995179688 0.498275862068966 0.498275862068966 0.00172413793103448 0.00172413793103448 0.729062703406379 0.0625406812757648 0.208342373616837 5.4241701019744e-05 0.047638167217761 0.460297590930562 0.0703117619272556 0.421752479924421 1.1421261821006e-05 0.0833409475078807 0.00220430353145415 0.914443327698844 0.130650994575045 0.608047016274864 0.087251356238698 0.174050632911392 0.244000499958337 0.529976668610949 0.0420173318890093 0.184005499541705 0.321329120702581 0.285343258005783 0.390730427332119 0.0025971939595159 0.29289412054727 0.322476272648835 0.316559842228522 0.0680697645753729 0.795454545454545 0.200413223140496 0.00206611570247934 0.00206611570247934 0.63277319380157 0.149778627490441 0.217397866773999 5.03119339907426e-05 0.0494343018770892 0.604847004371304 0.0741193108768321 0.271599382874775 7.08415981864551e-05 0.129285916690281 7.08415981864551e-05 0.870572400113347 0.399584487534626 0.599030470914127 0.000692520775623269 0.000692520775623269 0.272724084724365 0.552146163557301 0.0740987515780614 0.101031000140272 </TABLE>
</DEFINITION>

<DEFINITION>
	<FOR>VehicleYear</FOR>
	<GIVEN>RiskAversion</GIVEN>
	<GIVEN>SocioEcon</GIVEN>
	<TABLE>0.999942455978824 5.75440211761998e-05 0.999946859389946 5.31406100542034e-05 0.998960498960499 0.00103950103950104 0.999954115811691 4.58841883087088e-05 0.316411444258568 0.683588555741432 0.160168102395982 0.839831897604018 0.604499274310595 0.395500725689405 0.604510548150764 0.395489451849236 0.0710587945273019 0.928941205472698 0.0425739068861745 0.957426093113825 0.00617283950617284 0.993827160493827 0.153507090839402 0.846492909160598 0.314234472342836 0.685765527657164 0.191724964248444 0.808275035751556 0.570796460176991 0.429203539823009 0.628525526597644 0.371474473402356 </TABLE>
</DEFINITION>

<DEFINITION>
	<FOR>ThisCarDam</FOR>
	<GIVEN>DrivHist</GIVEN>
	<GIVEN>CarValue</GIVEN>
	<TABLE>0.835234794797913 0.116832801183708 0.0479129351296628 1.94688887158321e-05 0.954686066131849 7.40060981024836e-06 0.0452991326485302 7.40060981024836e-06 0.637747875354108 0.127832861189802 0.234065155807365 0.000354107648725212 0.888225410952684 0.111729179910998 2.27045681591136e-05 2.27045681591136e-05 0.000119846596356663 0.668863854266539 0.330896452540748 0.000119846596356663 0.721775181766196 0.145841842986684 0.0563883669634834 0.075994608283637 0.800585589236505 1.01313016696385e-05 0.0875445777273464 0.111859701734479 0.380848532910389 0.238104678826328 0.261895321173672 0.119151467089611 0.762269345956912 0.166674717418607 2.41522558206937e-05 0.07103178436866 9.41265060240964e-05 0.604386295180723 0.242940512048193 0.15257906626506 0.25 0.25 0.25 0.25 0.644176975809629 1.9698999290836e-05 0.184402332361516 0.171400992829564 0.25 0.25 0.25 0.25 0.720391445722861 3.12656328164082e-05 3.12656328164082e-05 0.279546023011506 9.20471281296024e-05 9.20471281296024e-05 0.480578055964654 0.519237849779087 </TABLE>
</DEFINITION>

<DEFINITION>
	<FOR>RuggedAuto</FOR>
	<GIVEN>OtherCarCost</GIVEN>
	<GIVEN>MakeModel</GIVEN>
	<GIVEN>VehicleYear</GIVEN>
	<TABLE>0.609237257144636 0.331932805801296 0.0588299370540681 0.749728680124133 0.157342062500367 0.0929292573755009 0.307121013543032 0.692867179105711 1.18073512568925e-05 0.133864662684143 0.866130444780399 4.89253545865074e-06 0.47343841214244 0.315820198482195 0.210741389375365 0.25068870523416 0.25068870523416 0.49862258953168 0.0445060494702684 0.951604237852707 0.00388971267702491 0.0814307907104792 0.906160895129098 0.0124083141604232 0.716379796371837 0.208967598580572 0.0746526050475906 0.850508662154684 0.126463201804793 0.0230281360405227 0.000170852554245686 0.599863317956604 0.399965829489151 0.00014808233377758 0.599881534132978 0.399970383533245 0.000226603217765692 0.979152503965556 0.020620892816678 0.000346860908775581 0.999306278182449 0.000346860908775581 0.00546448087431694 0.497267759562842 0.497267759562842 0.00546448087431694 0.497267759562842 0.497267759562842 0.000583771161704612 0.893753648569761 0.105662580268535 0.000652315720808871 0.939986953685584 0.0593607305936073 0.001230012300123 0.554735547355474 0.444034440344403 0.0022075055187638 0.200883002207506 0.796909492273731 0.547102588284607 0.226448705857697 0.226448705857697 0.333333333333333 0.36584484782805 0.300821818838616 0.224200650966877 0.775607888186866 0.00019146084625694 0.0626409855977789 0.905951761235468 0.0314072531667534 0.989071038251366 0.00546448087431694 0.00546448087431694 0.978494623655914 0.010752688172043 0.010752688172043 0.125216788067985 0.812001387443635 0.0627818244883802 0.0593607305936073 0.881278538812786 0.0593607305936073 0.454484267205115 0.212182399461551 0.333333333333333 0.618594823032224 0.23824617010037 0.143159006867406 </TABLE>
</DEFINITION>

<DEFINITION>
	<FOR>Accident</FOR>
	<GIVEN>Antilock</GIVEN>
	<GIVEN>ThisCarDam</GIVEN>
	<TABLE>0.967975426718117 0.0299294524277361 0.000195307876233991 0.00189981297791245 0.0245740498034076 0.919287898645697 0.0105941459152468 0.0455439056356488 0.0323648193852367 0.140060578864707 0.545714606237379 0.281859995512677 0.0240485465987414 0.386050344620917 0.0312406353011687 0.558660473479173 0.946333107446728 0.0488103305473985 0.00182591672313832 0.00303064528273473 0.106791856791857 0.794752544752545 0.0197437697437697 0.0787118287118287 0.24822852081488 0.170283436669619 0.510407440212578 0.0710806023029229 0.0957731958762887 0.475154639175258 0.237628865979381 0.191443298969072 </TABLE>
</DEFINITION>

<DEFINITION>
	<FOR>MakeModel</FOR>
	<GIVEN>SocioEcon</GIVEN>
	<TABLE>0.665216242402889 0.20014093191227 0.00177926539240729 0.129322645996653 0.00354091429578085 0.248043215907132 0.631009712085512 0.00231021205677835 0.117016263433136 0.00162059651744153 0.317302052785924 0.0357771260997067 0.176539589442815 0.141348973607038 0.329032258064516 0.403560573165436 0.0573454913880446 2.8947749312491e-05 0.161557388913012 0.377507598784194 </TABLE>
</DEFINITION>

<DEFINITION>
	<FOR>DrivQuality</FOR>
	<GIVEN>Accident</GIVEN>
	<GIVEN>VehicleYear</GIVEN>
	<GIVEN>RiskAversion</GIVEN>
	<TABLE>0.411609665393954 0.242636771462356 0.34575356314369 0.680424244725418 0.232081608889901 0.0874941463846806 0.263215557381539 0.578745549164613 0.158038893453848 0.512449868720967 0.271473498946882 0.21607663233215 0.333333333333333 0.333333333333333 0.333333333333333 0.886280401506739 4.35473686502493e-06 0.113715243756396 0.507176102605546 1.49658031398255e-05 0.492808931591314 0.660509059600409 7.68739958334294e-06 0.339483253000008 0.0835447932526161 0.823630343894246 0.0928248628531381 0.176213857064921 0.771363388384665 0.0524227545504141 0.074373795761079 0.777263969171484 0.148362235067437 0.139317253196257 0.771978384078028 0.088704362725715 0.333333333333333 0.333333333333333 0.333333333333333 0.627726667823873 5.78603251750275e-05 0.372215471850952 0.442285866880299 6.67601308498565e-05 0.557647372988851 0.495366389605427 9.55383586509984e-05 0.504538072035922 0.00682569840264584 0.776933361480543 0.216240940116811 0.0127850270199025 0.949123500724924 0.0380914722551733 0.111880046136102 0.886966551326413 0.00115340253748558 0.000281293952180028 0.891420534458509 0.108298171589311 0.333333333333333 0.333333333333333 0.333333333333333 0.206226516371444 0.000107353730542136 0.793666129898014 0.282643131930301 0.000226295541977823 0.717130572527721 0.135697900123522 0.000176460208223046 0.864125639668255 0.00926722078914684 0.779688544950798 0.211044234260055 0.0112229549924795 0.910910563461761 0.0778664815457596 0.00512820512820513 0.98974358974359 0.00512820512820513 0.000204123290467442 0.921208409879567 0.0785874668299653 0.333333333333333 0.333333333333333 0.333333333333333 0.271332848954549 8.07297973682086e-05 0.728586421248083 0.333333333333333 0.000192789666473877 0.666473877000193 0.189930143666798 0.000131804402267036 0.809938051930935 </TABLE>
</DEFINITION>

<DEFINITION>
	<FOR>Mileage</FOR>
	<GIVEN>Airbag</GIVEN>
	<GIVEN>CarValue</GIVEN>
	<TABLE>0.509772086754074 0.461983825511579 3.0633500796471e-05 0.0282134542335498 0.464393737211992 0.491081754292323 2.22400142336091e-05 0.0445022684814518 0.40843179377014 0.515843179377014 0.000268528464017186 0.0754564983888292 0.499985048741104 0.466494228814066 1.4951258895999e-05 0.0335057711859339 0.451566459341166 0.495335176226676 5.75904169546187e-05 0.0530407740152039 0.515155939726667 0.228974418876299 0.252336175680411 0.00353346571662189 0.387672349479152 0.495157635876323 0.0674269846094333 0.0497430300350916 0.368110236220472 0.446850393700787 0.131889763779528 0.0531496062992126 0.361364433532094 0.228077867414942 0.406962469309014 0.00359522974394949 0.269809825673534 0.34904912836767 0.333201267828843 0.0479397781299525 </TABLE>
</DEFINITION>

<DEFINITION>
	<FOR>Antilock</FOR>
	<GIVEN>HomeBase</GIVEN>
	<GIVEN>MakeModel</GIVEN>
	<GIVEN>VehicleYear</GIVEN>
	<TABLE>0.557818212737012 0.442181787262988 0.94956884022866 0.05043115977134 0.5 0.5 0.5 0.5 0.5 0.5 0.0121951219512195 0.98780487804878 0.392612479170524 0.607387520829476 0.87901675363911 0.12098324636089 0.0953986513288378 0.904601348671162 0.624902419984387 0.375097580015613 0.442819441389927 0.557180558610073 0.954934462411603 0.0450655375883969 0.996046363145229 0.00395363685477138 0.998559795170869 0.00144020482913125 0.273242630385488 0.726757369614513 0.748447204968944 0.251552795031056 0.243020675154772 0.756979324845228 0.819416717298846 0.180583282701154 0.127579265223956 0.872420734776044 0.473692864189411 0.526307135810589 0.11211689871447 0.88788310128553 0.908009698591196 0.091990301408804 0.86946481934257 0.13053518065743 0.981763435973185 0.0182365640268151 0.5 0.5 0.5 0.5 0.5 0.5 0.5 0.5 0.181962744207179 0.818037255792821 0.239482485477909 0.760517514522091 0.281108140041042 0.718891859958958 0.91775265225212 0.08224734774788 0.926150662714613 0.0738493372853867 0.994451273350531 0.00554872664946936 0.666320166320166 0.333679833679834 0.00617283950617284 0.993827160493827 0.127896358863143 0.872103641136857 0.622713328030906 0.377286671969094 0.104964167103653 0.895035832896347 0.297434166103984 0.702565833896016 </TABLE>
</DEFINITION>

<DEFINITION>
	<FOR>DrivingSkill</FOR>
	<GIVEN>HomeBase</GIVEN>
	<GIVEN>DrivQuality</GIVEN>
	<GIVEN>Accident</GIVEN>
	<TABLE>0.991030648727964 2.06667080000827e-05 0.00894868456403579 0.999768598866134 0.000115700566932778 0.000115700566932778 0.00229885057471264 0.00229885057471264 0.995402298850575 0.00343642611683849 0.00343642611683849 0.993127147766323 0.999747570364761 0.000126214817619589 0.000126214817619589 0.989549781690645 7.15768377353089e-05 0.0103786414716198 0.000693000693000693 0.000693000693000693 0.998613998613999 0.000769822940723634 0.000769822940723634 0.998460354118553 0.837914295817662 3.2147105153181e-05 0.162053557077185 0.653717794686958 0.00013349352556401 0.346148711787478 0.000330360092500826 0.000330360092500826 0.999339279814998 0.000533333333333333 0.000533333333333333 0.998933333333333 0.980267729875874 0.0189967484871081 0.000735521637017536 0.855839952927332 0.118681965283907 0.0254780817887614 0.000693000693000693 0.599445599445599 0.3998613998614 0.000301659125188537 0.651885369532428 0.347812971342383 0.134430880651062 0.865531787807519 3.73315414193452e-05 0.24379037551387 0.751200469824161 0.00500915466196842 9.25668795704897e-05 0.999814866240859 9.25668795704897e-05 0.000111969544283955 0.935281603403874 0.0646064270518419 0.560789947950143 0.0653458857927836 0.373864166257073 0.333333333333333 0.240758598521376 0.425908068145291 0.000110192837465565 0.492011019283747 0.507878787878788 8.26514587982478e-05 0.428547813868915 0.571369534672287 0.982550230408182 0.0174426472368824 7.12235493543585e-06 0.916413593637021 0.0834417932031815 0.000144613159797542 0.000462320850670365 0.732778548312529 0.266759130836801 0.000365096750638919 0.788974078130705 0.210660825118656 0.0598777520621922 0.940062904278678 5.9343659130022e-05 0.123644590061627 0.876277400733287 7.80092050862002e-05 0.000147688672278836 0.999704622655442 0.000147688672278836 0.000173520735727919 0.999652958528544 0.000173520735727919 0.426531082370751 0.180109915424359 0.39335900220489 0.142970454094785 0.228633749752132 0.628395796153083 0.000223863890754421 0.806133870606671 0.193642265502574 0.000165261940175178 0.595108246570815 0.40472649148901 0.979659298683901 0.0203370806857474 3.62063035174424e-06 0.864468069718666 0.135459608013307 7.23222680263253e-05 0.000433463372345037 0.99913307325531 0.000433463372345037 0.000266880170803309 0.999466239658393 0.000266880170803309 0.206019967218 0.793950230964089 2.98018179108926e-05 0.382070682257378 0.617896564147915 3.27535947070191e-05 7.01311452416018e-05 0.999859737709517 7.01311452416018e-05 6.6124446207763e-05 0.999867751107585 6.6124446207763e-05 0.900288632563291 0.0997007167886166 1.06506480919364e-05 0.802502968849913 0.197405681921988 9.13492280990226e-05 8.16793269623458e-05 0.999836641346075 8.16793269623458e-05 7.80092050862002e-05 0.999843981589828 7.80092050862002e-05 </TABLE>
</DEFINITION>

<DEFINITION>
	<FOR>SeniorTrain</FOR>
	<GIVEN>Mileage</GIVEN>
	<GIVEN>RiskAversion</GIVEN>
	<GIVEN>Age</GIVEN>
	<TABLE>0.991375834416021 0.00862416558397921 0.9971296679884 0.00287033201159969 0.862596978358514 0.137403021641486 0.5 0.5 0.999269941143709 0.000730058856291301 0.591254752851711 0.408745247148289 0.981375358166189 0.0186246418338109 0.999933235411938 6.67645880624917e-05 0.5 0.5 0.999910217274196 8.97827258035554e-05 0.999977931765017 2.20682349825661e-05 0.138576896530087 0.861423103469913 0.988939986203725 0.011060013796275 0.999968146779639 3.18532203605784e-05 0.906117800195249 0.0938821998047511 0.5 0.5 0.997064161417743 0.00293583858225686 0.637029988169333 0.362970011830667 0.99996596092314 3.40390768602355e-05 0.99429210309521 0.00570789690478993 0.5 0.5 0.999910984511305 8.90154886950329e-05 0.999978299552971 2.17004470292088e-05 0.121972562524699 0.878027437475301 0.99972602739726 0.000273972602739726 0.99970255800119 0.000297441998810232 0.996551724137931 0.00344827586206897 0.5 0.5 0.999950164457291 4.98355427090601e-05 0.661486702979814 0.338513297020186 0.981963555224991 0.0180364447750093 0.999684542586751 0.000315457413249211 0.5 0.5 0.999583680266445 0.00041631973355537 0.999880296863778 0.000119703136222169 0.137403021641486 0.862596978358514 0.00041631973355537 0.999583680266445 0.000578034682080925 0.999421965317919 0.000945179584120983 0.999054820415879 0.5 0.5 0.000135244793075467 0.999864755206925 9.91866693116445e-05 0.999900813330688 0.000433651344319167 0.999566348655681 0.00148367952522255 0.998516320474777 0.5 0.5 0.00259067357512953 0.99740932642487 0.00103950103950104 0.998960498960499 0.000155424308361828 0.999844575691638 </TABLE>
</DEFINITION>

<DEFINITION>
	<FOR>ThisCarCost</FOR>
	<GIVEN>DrivQuality</GIVEN>
	<GIVEN>Accident</GIVEN>
	<GIVEN>RuggedAuto</GIVEN>
	<TABLE>0.999989126810386 3.62439653797643e-06 3.62439653797643e-06 3.62439653797643e-06 0.999991823741674 2.72541944205213e-06 2.72541944205213e-06 2.72541944205213e-06 5.18134715025907e-05 0.455181347150259 0.544715025906736 5.18134715025907e-05 0.916556455612498 4.13291453132749e-05 0.0833608860968755 4.13291453132749e-05 0.868083961248655 0.00780409041980624 0.124058127018299 5.38213132400431e-05 0.000277469478357381 0.240011098779134 0.759433962264151 0.000277469478357381 0.000346740638002774 0.25 0.749306518723994 0.000346740638002774 0.000433275563258232 0.25 0.749133448873484 0.000433275563258232 0.000865051903114187 0.25 0.748269896193772 0.000865051903114187 0.874277456647399 0.12514450867052 0.000289017341040462 0.000289017341040462 0.904329147389293 0.095340383344349 0.000165234633179114 0.000165234633179114 0.00172413793103448 0.994827586206897 0.00172413793103448 0.00172413793103448 0.995674944097917 2.94221489937625e-05 0.00426621160409556 2.94221489937625e-05 0.999939966381174 2.00112062755143e-05 2.00112062755143e-05 2.00112062755143e-05 0.000865051903114187 0.25 0.748269896193772 0.000865051903114187 0.842043437402109 0.00378511015975775 0.154145348230135 2.61042079983293e-05 0.756801103395796 2.37800818034814e-05 0.243151336440597 2.37800818034814e-05 0.00016926201760325 0.0976641841570752 0.901997291807718 0.00016926201760325 9.13408841797589e-05 0.0790098648154914 0.920807453416149 9.13408841797589e-05 7.46491489997014e-05 0.118318901164527 0.881531800537474 7.46491489997014e-05 0.000111957008508733 0.129086430810569 0.870689655172414 0.000111957008508733 0.926600067727735 0.0732306129359973 8.46596681341009e-05 8.46596681341009e-05 0.775883137080649 0.224005776494112 5.55432126194179e-05 5.55432126194179e-05 0.000769230769230769 0.997692307692308 0.000769230769230769 0.000769230769230769 0.998476431325401 0.00150283984909415 1.03644127523734e-05 1.03644127523734e-05 0.993280528257432 7.75025575844003e-06 0.00223982391418917 0.0044718975726199 0.000108459869848156 0.234381778741866 0.359327548806941 0.406182212581345 0.975660756105721 8.36400133824021e-05 0.0241719638675142 8.36400133824021e-05 0.506364607441695 4.45077443475165e-05 0.0320900836745594 0.461500801139398 0.000216825672159584 0.000216825672159584 0.0626626192541197 0.936903729401561 0.000692520775623269 0.100415512465374 0.898199445983379 0.000692520775623269 4.95933346558223e-05 0.0286153540964094 0.0786054354294783 0.892729617139457 0.000138811771238201 0.000138811771238201 0.060105496946141 0.939616879511383 0.974496877168633 0.0251561415683553 0.000173490631505899 0.000173490631505899 0.196211988047108 0.0126999472666549 4.39444542098787e-05 0.791044120232027 0.000231267345050879 0.20004625346901 0.000231267345050879 0.799491211840888 </TABLE>
</DEFINITION>

<DEFINITION>
	<FOR>Theft</FOR>
	<GIVEN>ThisCarCost</GIVEN>
	<GIVEN>RuggedAuto</GIVEN>
	<TABLE>0.999987799224031 1.22007759693517e-05 0.999990450178582 9.54982141833947e-06 0.5 0.5 0.956747404844291 0.0432525951557093 0.999229583975347 0.000770416024653313 0.982562277580071 0.0174377224199288 0.973424657534247 0.0265753424657534 0.974675596483884 0.0253244035161155 0.798094882330967 0.201905117669033 0.5 0.5 0.987605417837976 0.012394582162024 0.802950819672131 0.197049180327869 </TABLE>
</DEFINITION>

<DEFINITION>
	<FOR>CarValue</FOR>
	<GIVEN>HomeBase</GIVEN>
	<GIVEN>Antilock</GIVEN>
	<GIVEN>MakeModel</GIVEN>
	<TABLE>0.496314406209889 0.491424729539759 1.22241916753255e-05 1.22241916753255e-05 0.0122364158670008 0.2 0.2 0.2 0.2 0.2 0.2 0.2 0.2 0.2 0.2 0.616463070851344 0.293215560984777 3.75869197519263e-05 3.75869197519263e-05 0.0902461943243751 0.307588856868396 0.192315081652257 0.0386167146974063 0.000192122958693564 0.461287223823247 3.49589232651634e-05 3.49589232651634e-05 3.49589232651634e-05 0.999860164306939 3.49589232651634e-05 0.2 0.2 0.2 0.2 0.2 0.00487804878048781 0.00487804878048781 0.00487804878048781 0.980487804878049 0.00487804878048781 5.37489922063961e-05 0.0108035474334856 0.0323031443160441 0.870787422735824 0.0860521365224402 7.24375226367258e-05 0.0869974646867077 0.0290474465773271 0.101484969214053 0.782397681999276 0.5300906721486 0.459608678095518 7.34187438052935e-06 7.34187438052935e-06 0.0102859660071216 0.650941874651062 0.349045718657596 4.13556378073241e-06 4.13556378073241e-06 4.13556378073241e-06 0.000829875518672199 0.332780082987552 0.498755186721992 0.000829875518672199 0.166804979253112 0.732592656887423 0.208332610016492 0.0208488846454301 1.73596042010242e-05 0.0382084888464543 0.36356201726488 0.145479327578373 9.08677873693776e-05 9.08677873693776e-05 0.490776919582008 2.32531101034763e-05 0.00467387513079874 0.00467387513079874 0.990605743518196 2.32531101034763e-05 0.00165289256198347 0.00165289256198347 0.00165289256198347 0.993388429752066 0.00165289256198347 0.000554016620498615 0.000554016620498615 0.997783933518006 0.000554016620498615 0.000554016620498615 2.33617568041117e-05 0.0514192267258498 0.0140404158392711 0.87375306623058 0.0607639294474945 2.94074400823408e-05 0.0294368475224232 0.023555359505955 0.123540655785914 0.823437729745626 8.25048471597706e-06 0.960364671424446 0.0396105771214059 8.25048471597706e-06 8.25048471597706e-06 1.68904653323199e-05 0.986420065872815 0.0135292627311882 1.68904653323199e-05 1.68904653323199e-05 0.2 0.2 0.2 0.2 0.2 0.2 0.2 0.2 0.2 0.2 0.000113571834185122 0.954116978989211 0.045542305508234 0.000113571834185122 0.000113571834185122 9.02486349893958e-06 0.0144488064618023 0.00542394296286269 0.980109200848337 9.02486349893958e-06 0.00031201248049922 0.0627145085803432 0.0627145085803432 0.873946957878315 0.00031201248049922 0.2 0.2 0.2 0.2 0.2 0.2 0.2 0.2 0.2 0.2 3.26743996079072e-05 0.222218591733377 0.0653814736154223 0.712334585851985 3.26743996079072e-05 6.77483825073676e-06 0.968808644693608 0.0135564513397243 6.77483825073676e-06 0.0176213542901663 2.70266618018675e-06 0.991881190794719 0.00486750179051634 2.70266618018675e-06 0.00324590208240429 0.000623052959501558 0.997507788161994 0.000623052959501558 0.000623052959501558 0.000623052959501558 3.0298439630359e-05 0.709013785790032 0.145462808665354 3.0298439630359e-05 0.145462808665354 0.000192122958693564 0.422862632084534 0.000192122958693564 0.000192122958693564 0.576560999039385 1.44917034997464e-05 0.0058111731033983 1.44917034997464e-05 0.985450329686255 0.00870951380334758 0.00012187690432663 0.00012187690432663 0.00012187690432663 0.999512492382693 0.00012187690432663 0.000829875518672199 0.000829875518672199 0.332780082987552 0.332780082987552 0.332780082987552 1.82465103548946e-05 0.0511084755040599 0.0328619651491652 0.83205911869355 0.0839521941428702 3.24622626197046e-05 0.0519720824541471 0.00652491478656062 0.155851322837202 0.785619217659471 </TABLE>
</DEFINITION>

<DEFINITION>
	<FOR>HomeBase</FOR>
	<GIVEN>RiskAversion</GIVEN>
	<GIVEN>SocioEcon</GIVEN>
	<TABLE>0.519306019104615 0.22652203936011 0.0607952583726551 0.193376683162619 0.0221330640875757 0.324821978956318 2.65703050271017e-05 0.653018386651079 0.00051975051975052 0.39968814968815 0.599272349272349 0.00051975051975052 0.284871983114619 0.145384050656144 0.176218225199596 0.393525741029641 1.07236305923734e-05 0.370619396903015 0.6293591558358 1.07236305923734e-05 8.71900394098978e-06 0.292409235168974 0.000566735256164336 0.70701531057092 0.000362844702467344 0.511248185776488 0.488026124818578 0.000362844702467344 2.20672610115632e-05 0.372870509312384 0.622848442051373 0.00425898137523171 0.516732404782448 0.0769444102058425 0.161746579563663 0.244576605448046 0.175650557620818 0.277615507169411 4.42556204637989e-05 0.546689679589308 0.00308641975308642 0.200617283950617 0.79320987654321 0.00308641975308642 0.374185511690303 0.0430241471828287 0.196339593714067 0.386450747412802 4.71965263356617e-05 0.999858410420993 4.71965263356617e-05 4.71965263356617e-05 9.66258261508136e-06 0.303028253391566 9.66258261508136e-06 0.696952421443203 0.00221238938053097 0.56858407079646 0.00221238938053097 0.426991150442478 8.92538379150304e-05 0.599875044626919 8.92538379150304e-05 0.399946447697251 </TABLE>
</DEFINITION>

<DEFINITION>
	<FOR>AntiTheft</FOR>
	<GIVEN>SocioEcon</GIVEN>
	<TABLE>0.787501101030565 0.212498898969435 0.756536980633297 0.243463019366703 0.552785923753666 0.447214076246334 0.538500506585613 0.461499493414387 </TABLE>
</DEFINITION>

<DEFINITION>
	<FOR>PropCost</FOR>
	<GIVEN>OtherCarCost</GIVEN>
	<GIVEN>ThisCarCost</GIVEN>
	<TABLE>0.314026092000569 0.000134071731112303 0.685837100110541 2.7361577778021e-06 0.233344899375434 0.0917765440666204 0.533136710617627 0.141741845940319 0.100363979509302 0.0356565111889997 0.181248314909679 0.682731194392019 0.931995661605206 0.000108459869848156 0.000108459869848156 0.0677874186550976 0.000462107208872458 0.998613678373383 0.000462107208872458 0.000462107208872458 0.000611246943765281 0.2059902200489 0.000611246943765281 0.79278728606357 0.000285062713797035 0.328677309007982 0.000285062713797035 0.670752565564424 0.00016926201760325 0.195159106296547 0.00016926201760325 0.804502369668246 0.982680195941218 0.0169699090272918 0.000174947515745276 0.000174947515745276 0.365618661257607 0.219574036511156 0.00050709939148073 0.414300202839757 0.0886117136659436 0.0990238611713666 0.000108459869848156 0.812255965292842 0.622963186481593 0.000150875075437538 0.000150875075437538 0.376735063367532 </TABLE>
</DEFINITION>

<DEFINITION>
	<FOR>OtherCarCost</FOR>
	<GIVEN>Accident</GIVEN>
	<TABLE>0.999975559384585 1.22203077073481e-05 1.22203077073481e-05 0.893338925001747 0.0344586566016635 0.0722024183965891 0.153778712958092 0.305277923899702 0.540943363142206 0.54075514503322 0.173229622427483 0.286015232539297 </TABLE>
</DEFINITION>

<DEFINITION>
	<FOR>OtherCar</FOR>
	<GIVEN>DrivHist</GIVEN>
	<GIVEN>RiskAversion</GIVEN>
	<GIVEN>SocioEcon</GIVEN>
	<TABLE>0.999952221691352 4.77783086478739e-05 0.999938003719777 6.19962802231866e-05 0.99925705794948 0.00074294205052006 0.999949683002918 5.03169970816142e-05 0.999988426193838 1.15738061618944e-05 0.999992278350038 7.72164996216391e-06 0.999349804941482 0.000650195058517555 0.999955865477977 4.41345220231265e-05 0.999936102236422 6.38977635782748e-05 0.999791753436068 0.000208246563931695 0.996551724137931 0.00344827586206897 0.99970255800119 0.000297441998810232 0.999895855030202 0.000104144969797959 0.999979695431472 2.03045685279188e-05 0.996551724137931 0.00344827586206897 0.999803536345776 0.000196463654223969 0.588532060323316 0.411467939676684 0.314653773768577 0.685346226231423 0.998269896193772 0.00173010380622837 0.801502743102489 0.198497256897511 0.999970068841664 2.99311583358276e-05 0.999966933403875 3.30665961245949e-05 0.999388004895961 0.000611995104039168 0.999962397533278 3.76024667218169e-05 0.644427728272191 0.355572271727809 0.23982357317462 0.76017642682538 0.994845360824742 0.00515463917525773 0.737623762376238 0.262376237623762 0.698902452682271 0.301097547317729 0.380905016941742 0.619094983058258 0.99740932642487 0.00259067357512953 0.771677609237039 0.228322390762961 0.676664056382146 0.323335943617854 0.42425836313907 0.57574163686093 0.799376299376299 0.200623700623701 0.849022305197995 0.150977694802005 0.999950164457291 4.98355427090601e-05 0.999918633034988 8.13669650122051e-05 0.998960498960499 0.00103950103950104 0.999946586903109 5.34130968913578e-05 0.658516448621872 0.341483551378128 0.392544286548569 0.607455713451431 0.5 0.5 0.7312713708424 0.2687286291576 0.711013419713096 0.288986580286904 0.370878741895434 0.629121258104566 0.5 0.5 0.933032616238723 0.0669673837612769 </TABLE>
</DEFINITION>

<DEFINITION>
	<FOR>MedCost</FOR>
	<GIVEN>Accident</GIVEN>
	<TABLE>0.999972504307658 9.16523078051105e-06 9.16523078051105e-06 9.16523078051105e-06 0.915967708114909 0.00927867477458587 0.0470224365695114 0.0277311805409939 0.827064702788006 0.172672277748553 0.000131509731720147 0.000131509731720147 0.606830335439961 0.0545697617890131 0.190690325717064 0.147909577053962 </TABLE>
</DEFINITION>

<DEFINITION>
	<FOR>Cushioning</FOR>
	<GIVEN>Airbag</GIVEN>
	<GIVEN>RuggedAuto</GIVEN>
	<GIVEN>VehicleYear</GIVEN>
	<TABLE>0.762849162011173 1.47015583651867e-05 1.47015583651867e-05 0.237121434872096 0.239483618713766 0.716765538627477 3.37063502763921e-05 0.0437171363084805 1.34661998384056e-05 1.34661998384056e-05 0.61342580123889 0.386547266361433 6.03718908476213e-05 0.475307896643323 0.321721806326974 0.202909925138855 0.972498868266184 0.000113173381620643 0.000113173381620643 0.0272747849705749 0.855341246290801 0.0363501483679525 0.000741839762611276 0.107566765578635 0.115794907088782 0.000172057811424639 0.14057123193393 0.743461803165864 0.0076795772603217 0.423683293653098 0.103841240346089 0.464795888740491 0.0027885272023674 5.69087184156613e-05 0.63379239699522 0.363362167083997 0.00522369524046074 0.00224316184917259 0.640822440932658 0.351710701977708 0.918789808917197 0.00159235668789809 0.00159235668789809 0.0780254777070064 0.132271944922547 0.867555938037866 8.60585197934595e-05 8.60585197934595e-05 </TABLE>
</DEFINITION>

<DEFINITION>
	<FOR>Airbag</FOR>
	<GIVEN>Antilock</GIVEN>
	<GIVEN>MakeModel</GIVEN>
	<GIVEN>VehicleYear</GIVEN>
	<TABLE>0.757611241217799 0.242388758782201 0.229548905071923 0.770451094928077 0.760226761900005 0.239773238099995 0.0790233852297105 0.920976614770289 0.907239819004525 0.0927601809954751 0.00819672131147541 0.991803278688525 0.57891770011274 0.42108229988726 0.130283633153074 0.869716366846926 0.85964035964036 0.14035964035964 0.554428500742207 0.445571499257793 0.968390415594964 0.0316095844050359 0.483227104998323 0.516772895001677 0.850690754516472 0.149309245483528 0.385057471264368 0.614942528735632 0.99792531120332 0.0020746887966805 0.253086419753086 0.746913580246914 0.940179289736812 0.0598207102631881 0.239815131804177 0.760184868195823 0.974934036939314 0.025065963060686 0.704246170384305 0.295753829615695 </TABLE>
</DEFINITION>

<DEFINITION>
	<FOR>ILiCost</FOR>
	<GIVEN>DrivingSkill</GIVEN>
	<GIVEN>Accident</GIVEN>
	<TABLE>0.999989250240078 3.5832533073428e-06 3.5832533073428e-06 3.5832533073428e-06 0.980240766418757 0.0181835371234085 3.15139291566873e-05 0.00154418252867768 0.25 0.25 0.25 0.25 0.25 0.25 0.25 0.25 0.999907692307692 3.07692307692308e-05 3.07692307692308e-05 3.07692307692308e-05 0.997585684529445 4.73395190304866e-05 4.73395190304866e-05 0.00231963643249385 0.842912887576461 0.060799409407298 0.0911727483653238 0.00511495465091753 0.916734569158688 0.0293848034222856 0.0513852108372377 0.00249541658178855 6.3500127000254e-05 0.460312420624841 0.47250444500889 0.0671196342392685 0.000228728270814273 0.0112076852698994 0.977355901189387 0.0112076852698994 0.000260145681581686 0.374869927159209 0.612122788761707 0.0127471383975026 0.000198255352894528 0.333267248215702 0.62827121332276 0.0382632831086439 </TABLE>
</DEFINITION>

<DEFINITION>
	<FOR>DrivHist</FOR>
	<GIVEN>AntiTheft</GIVEN>
	<GIVEN>MakeModel</GIVEN>
	<TABLE>0.541204069599689 0.149799907166961 0.30899602323335 0.705432992231171 0.294554038104873 1.29696639560069e-05 0.380726698262243 0.0489731437598736 0.570300157977883 0.632920501458168 0.367041624057872 3.7874483960156e-05 0.565271483160046 0.152048342664178 0.282680174175775 3.22341488572994e-05 0.558972375334429 0.440995390516713 3.94430639372066e-05 0.999921113872126 3.94430639372066e-05 0.00366300366300366 0.553113553113553 0.443223443223443 0.000116103564379426 0.999767792871241 0.000116103564379426 0.000103487529752665 0.499948256235124 0.499948256235124 </TABLE>
</DEFINITION>

</NETWORK>
</BIF>
