<?xml version="1.0" encoding="UTF-8"?>

<!-- DTD for the XMLBIF 0.3 format -->
<!DOCTYPE BIF [
<!ELEMENT BIF ( NETWORK )*>
<!ATTLIST BIF VERSION CDATA #REQUIRED>
   <!ELEMENT NETWORK ( NAME, ( PROPERTY | VARIABLE | DEFINITION )* )>
      <!ELEMENT NAME (#PCDATA)>
        <!ELEMENT VARIABLE ( NAME, ( OUTCOME |  PROPERTY )* ) >
          <!ATTLIST VARIABLE TYPE (nature|decision|utility) "nature">
           <!ELEMENT OUTCOME (#PCDATA)>
            <!ELEMENT DEFINITION ( FOR | GIVEN | TABLE | PROPERTY )* >
              <!ELEMENT FOR (#PCDATA)>
                <!ELEMENT GIVEN (#PCDATA)>
                  <!ELEMENT TABLE (#PCDATA)>
                    <!ELEMENT PROPERTY (#PCDATA)>
                      ]>
<BIF VERSION="0.3">
<NETWORK>
<NAME>Reco</NAME>
<VARIABLE TYPE="nature">
	<NAME>V1</NAME>
	<OUTCOME>1</OUTCOME>
	<OUTCOME>0</OUTCOME>
</VARIABLE>

<VARIABLE TYPE="nature">
	<NAME>V2</NAME>
	<OUTCOME>0</OUTCOME>
	<OUTCOME>1</OUTCOME>
</VARIABLE>

<VARIABLE TYPE="nature">
	<NAME>V3</NAME>
	<OUTCOME>0</OUTCOME>
	<OUTCOME>1</OUTCOME>
</VARIABLE>

<VARIABLE TYPE="nature">
	<NAME>V4</NAME>
	<OUTCOME>1</OUTCOME>
	<OUTCOME>0</OUTCOME>
</VARIABLE>

<VARIABLE TYPE="nature">
	<NAME>V5</NAME>
	<OUTCOME>0</OUTCOME>
	<OUTCOME>1</OUTCOME>
</VARIABLE>

<VARIABLE TYPE="nature">
	<NAME>V6</NAME>
	<OUTCOME>0</OUTCOME>
	<OUTCOME>1</OUTCOME>
</VARIABLE>

<VARIABLE TYPE="nature">
	<NAME>V7</NAME>
	<OUTCOME>0</OUTCOME>
	<OUTCOME>1</OUTCOME>
</VARIABLE>

<VARIABLE TYPE="nature">
	<NAME>V8</NAME>
	<OUTCOME>0</OUTCOME>
	<OUTCOME>1</OUTCOME>
</VARIABLE>

<VARIABLE TYPE="nature">
	<NAME>V9</NAME>
	<OUTCOME>1</OUTCOME>
	<OUTCOME>0</OUTCOME>
</VARIABLE>

<VARIABLE TYPE="nature">
	<NAME>V10</NAME>
	<OUTCOME>1</OUTCOME>
	<OUTCOME>0</OUTCOME>
</VARIABLE>

<VARIABLE TYPE="nature">
	<NAME>V11</NAME>
	<OUTCOME>1</OUTCOME>
	<OUTCOME>0</OUTCOME>
</VARIABLE>

<VARIABLE TYPE="nature">
	<NAME>V12</NAME>
	<OUTCOME>1</OUTCOME>
	<OUTCOME>0</OUTCOME>
</VARIABLE>

<VARIABLE TYPE="nature">
	<NAME>V13</NAME>
	<OUTCOME>1</OUTCOME>
	<OUTCOME>0</OUTCOME>
</VARIABLE>

<VARIABLE TYPE="nature">
	<NAME>V14</NAME>
	<OUTCOME>1</OUTCOME>
	<OUTCOME>0</OUTCOME>
</VARIABLE>

<VARIABLE TYPE="nature">
	<NAME>V15</NAME>
	<OUTCOME>0</OUTCOME>
	<OUTCOME>1</OUTCOME>
</VARIABLE>

<VARIABLE TYPE="nature">
	<NAME>V16</NAME>
	<OUTCOME>1</OUTCOME>
	<OUTCOME>0</OUTCOME>
</VARIABLE>

<VARIABLE TYPE="nature">
	<NAME>V17</NAME>
	<OUTCOME>1</OUTCOME>
	<OUTCOME>0</OUTCOME>
</VARIABLE>

<VARIABLE TYPE="nature">
	<NAME>V18</NAME>
	<OUTCOME>1</OUTCOME>
	<OUTCOME>0</OUTCOME>
</VARIABLE>

<VARIABLE TYPE="nature">
	<NAME>V19</NAME>
	<OUTCOME>1</OUTCOME>
	<OUTCOME>0</OUTCOME>
</VARIABLE>

<VARIABLE TYPE="nature">
	<NAME>V20</NAME>
	<OUTCOME>0</OUTCOME>
	<OUTCOME>1</OUTCOME>
</VARIABLE>

<VARIABLE TYPE="nature">
	<NAME>V21</NAME>
	<OUTCOME>0</OUTCOME>
	<OUTCOME>1</OUTCOME>
</VARIABLE>

<VARIABLE TYPE="nature">
	<NAME>V22</NAME>
	<OUTCOME>1</OUTCOME>
	<OUTCOME>0</OUTCOME>
</VARIABLE>

<VARIABLE TYPE="nature">
	<NAME>V23</NAME>
	<OUTCOME>0</OUTCOME>
	<OUTCOME>1</OUTCOME>
</VARIABLE>

<VARIABLE TYPE="nature">
	<NAME>V24</NAME>
	<OUTCOME>1</OUTCOME>
	<OUTCOME>0</OUTCOME>
</VARIABLE>

<VARIABLE TYPE="nature">
	<NAME>V25</NAME>
	<OUTCOME>0</OUTCOME>
	<OUTCOME>1</OUTCOME>
</VARIABLE>

<VARIABLE TYPE="nature">
	<NAME>V26</NAME>
	<OUTCOME>0</OUTCOME>
	<OUTCOME>1</OUTCOME>
</VARIABLE>

<VARIABLE TYPE="nature">
	<NAME>V27</NAME>
	<OUTCOME>0</OUTCOME>
	<OUTCOME>1</OUTCOME>
</VARIABLE>

<DEFINITION>
	<FOR>V1</FOR>
	<TABLE>0.9428617459806 0.0571382540193998 </TABLE>
</DEFINITION>

<DEFINITION>
	<FOR>V2</FOR>
	<GIVEN>V1</GIVEN>
	<TABLE>0.554054691044503 0.445945308955496 0.995478852698104 0.00452114730189597 </TABLE>
</DEFINITION>

<DEFINITION>
	<FOR>V3</FOR>
	<GIVEN>V9</GIVEN>
	<GIVEN>V8</GIVEN>
	<GIVEN>V5</GIVEN>
	<GIVEN>V2</GIVEN>
	<GIVEN>V1</GIVEN>
	<TABLE>0.520633671726573 0.479366328273427 0.349648010703023 0.650351989296977 0.4427446542284 0.5572553457716 0.664948453608247 0.335051546391753 0.763003318400353 0.236996681599647 0.601567382752662 0.398432617247338 0.692196049604484 0.307803950395516 0.5 0.5 0.68379724464795 0.31620275535205 0.454555385623771 0.545444614376229 0.57002108382244 0.42997891617756 0.0151515151515152 0.984848484848485 0.829695158956165 0.170304841043835 0.679475195299459 0.320524804700541 0.782575716600087 0.217424283399913 0.798136645962733 0.201863354037267 0.5 0.5 0.5 0.5 0.5 0.5 0.5 0.5 0.5 0.5 0.5 0.5 0.5 0.5 0.5 0.5 0.266777043779224 0.733222956220776 0.189837251356239 0.810162748643761 0.202729680450377 0.797270319549623 0.251937984496124 0.748062015503876 0.519427790847689 0.480572209152311 0.350467289719626 0.649532710280374 0.476897859958009 0.523102140041991 0.251937984496124 0.748062015503876 </TABLE>
</DEFINITION>

<DEFINITION>
	<FOR>V4</FOR>
	<GIVEN>V25</GIVEN>
	<GIVEN>V10</GIVEN>
	<GIVEN>V8</GIVEN>
	<GIVEN>V3</GIVEN>
	<GIVEN>V2</GIVEN>
	<TABLE>0.71182690396071 0.28817309603929 0.857839272321686 0.142160727678314 0.755191817300725 0.244808182699275 0.671646895907369 0.328353104092631 0.637783974411548 0.362216025588452 0.832806134675294 0.167193865324706 0.670638028116493 0.329361971883507 0.63170593244394 0.36829406755606 0.749857011629721 0.250142988370279 0.58320213730261 0.41679786269739 0.514193656372918 0.485806343627082 0.425603719814009 0.574396280185991 0.792337837493956 0.207662162506044 0.682913364918312 0.317086635081688 0.602865826335989 0.397134173664011 0.506947277009513 0.493052722990487 0.64514470050086 0.35485529949914 0.791389693529573 0.208610306470427 0.721264116551089 0.278735883448911 0.587422265358208 0.412577734641792 0.606057019175488 0.393942980824512 0.754898565396348 0.245101434603652 0.690832107502087 0.309167892497913 0.548659012274941 0.451340987725059 0.662866919822695 0.337133080177305 0.490740857225528 0.509259142774472 0.43074085933516 0.56925914066484 0.355512012267848 0.644487987732152 0.739241193289971 0.260758806710029 0.602232777671473 0.397767222328527 0.574492057284392 0.425507942715608 0.429259000912164 0.570740999087836 </TABLE>
</DEFINITION>

<DEFINITION>
	<FOR>V5</FOR>
	<GIVEN>V1</GIVEN>
	<TABLE>0.233438606621611 0.766561393378389 0.304180845892076 0.695819154107924 </TABLE>
</DEFINITION>

<DEFINITION>
	<FOR>V6</FOR>
	<GIVEN>V2</GIVEN>
	<GIVEN>V1</GIVEN>
	<TABLE>0.891098822215723 0.108901177784277 0.816745617033745 0.183254382966255 3.30318625346009e-06 0.999996696813747 0.00537634408602151 0.994623655913978 </TABLE>
</DEFINITION>

<DEFINITION>
	<FOR>V7</FOR>
	<GIVEN>V24</GIVEN>
	<GIVEN>V9</GIVEN>
	<GIVEN>V8</GIVEN>
	<GIVEN>V6</GIVEN>
	<GIVEN>V5</GIVEN>
	<GIVEN>V3</GIVEN>
	<TABLE>0.50111048935275 0.49888951064725 0.47440284412843 0.52559715587157 0.780884513931314 0.219115486068686 0.566619234421414 0.433380765578586 0.484397336022429 0.515602663977571 0.452055260981661 0.547944739018339 0.790498463922947 0.209501536077053 0.577631621059369 0.422368378940631 0.00861263186006142 0.991387368139939 8.87626486774365e-05 0.999911237351323 0.0116124751161248 0.988387524883875 0.0121674083893571 0.987832591610643 0.505995147677349 0.494004852322651 0.42224431190634 0.57775568809366 0.795340756205897 0.204659243794103 0.550948653310336 0.449051346689664 0.5 0.5 0.5 0.5 0.5 0.5 0.5 0.5 0.5 0.5 0.5 0.5 0.5 0.5 0.5 0.5 0.637985103880831 0.362014896119169 0.577148167915049 0.422851832084951 0.56929104419485 0.43070895580515 0.522292676685102 0.477707323314898 0.832324964915016 0.167675035084984 0.762928504767311 0.237071495232689 0.877780474976737 0.122219525023263 0.798997961219798 0.201002038780202 0.99693085250554 0.00306914749445959 0.992187619091172 0.00781238090882761 0.960756995117854 0.039243004882146 0.911517113466974 0.0884828865330258 0.993878912018292 0.00612108798170819 0.993090164596859 0.00690983540314108 0.966911788462905 0.0330882115370946 0.918391884485902 0.0816081155140981 0.5 0.5 0.5 0.5 0.100312256049961 0.899687743950039 0.0503512880562061 0.949648711943794 0.997312611974501 0.00268738802549894 0.994344439065182 0.00565556093481801 0.96255908098599 0.0374409190140099 0.907844392006293 0.0921556079937074 0.5 0.5 0.5 0.5 0.5 0.5 0.5 0.5 0.5 0.5 0.5 0.5 0.5 0.5 0.5 0.5 0.990582566798073 0.00941743320192729 0.997223776524771 0.0027762234752292 0.79440456834675 0.20559543165325 0.779157579505875 0.220842420494125 0.999954845118757 4.51548812426623e-05 0.999989801121877 1.01988781234064e-05 0.990138351709673 0.00986164829032693 0.96621567592637 0.0337843240736298 </TABLE>
</DEFINITION>

<DEFINITION>
	<FOR>V8</FOR>
	<GIVEN>V25</GIVEN>
	<GIVEN>V6</GIVEN>
	<GIVEN>V2</GIVEN>
	<TABLE>0.8332684373986 0.1667315626014 0.5 0.5 3.46620450606586e-05 0.999965337954939 0.424636457558017 0.575363542441983 0.908110357311325 0.0918896426886747 0.5 0.5 0.000954731059604594 0.999045268940395 0.436178107606679 0.563821892393321 </TABLE>
</DEFINITION>

<DEFINITION>
	<FOR>V9</FOR>
	<GIVEN>V25</GIVEN>
	<GIVEN>V8</GIVEN>
	<GIVEN>V6</GIVEN>
	<TABLE>0.99999443708904 5.56291096004717e-06 0.999986919555265 1.3080444735121e-05 0.103669724770642 0.896330275229358 0.53292205928991 0.46707794071009 0.999997888451094 2.1115489055842e-06 0.999994617694866 5.38230513364264e-06 0.145590751638079 0.854409248361921 0.754931872326338 0.245068127673662 </TABLE>
</DEFINITION>

<DEFINITION>
	<FOR>V10</FOR>
	<GIVEN>V9</GIVEN>
	<GIVEN>V8</GIVEN>
	<GIVEN>V6</GIVEN>
	<GIVEN>V3</GIVEN>
	<GIVEN>V2</GIVEN>
	<TABLE>0.707536963775995 0.292463036224005 0.5 0.5 0.638915275817904 0.361084724182096 0.5 0.5 0.994845360824742 0.00515463917525773 0.69709484133805 0.30290515866195 0.984848484848485 0.0151515151515152 0.743980138738281 0.256019861261719 0.0707409453168153 0.929259054683185 0.5 0.5 0.0623211628705505 0.937678837129449 0.5 0.5 0.0585600106188314 0.941439989381169 0.211987796093055 0.788012203906945 0.0454140153203907 0.954585984679609 0.313172515935815 0.686827484064185 0.5 0.5 0.5 0.5 0.5 0.5 0.5 0.5 0.5 0.5 0.5 0.5 0.5 0.5 0.5 0.5 0.512618959987381 0.487381040012619 0.5 0.5 0.510927860445848 0.489072139554152 0.5 0.5 0.185600245624808 0.814399754375192 0.261098546849425 0.738901453150575 0.136331806378199 0.863668193621801 0.349769268906602 0.650230731093398 </TABLE>
</DEFINITION>

<DEFINITION>
	<FOR>V11</FOR>
	<GIVEN>V10</GIVEN>
	<GIVEN>V8</GIVEN>
	<GIVEN>V5</GIVEN>
	<TABLE>0.793164592170225 0.206835407829775 0.852747534107951 0.147252465892049 0.809469058204303 0.190530941795697 0.865786297334343 0.134213702665657 0.710513349551935 0.289486650448065 0.772352157673643 0.227647842326357 0.837747922025467 0.162252077974533 0.884948303242208 0.115051696757792 </TABLE>
</DEFINITION>

<DEFINITION>
	<FOR>V12</FOR>
	<GIVEN>V9</GIVEN>
	<GIVEN>V8</GIVEN>
	<GIVEN>V5</GIVEN>
	<GIVEN>V3</GIVEN>
	<TABLE>0.896040387258829 0.103959612741171 0.748176674439995 0.251823325560005 0.991360276748818 0.00863972325118156 0.97730303175185 0.02269696824815 0.982856398831052 0.0171436011689477 0.968730521504259 0.0312694784957407 0.999203493709834 0.000796506290166497 0.999692994697181 0.000307005302818867 0.5 0.5 0.5 0.5 0.5 0.5 0.5 0.5 0.0547432344790991 0.945256765520901 0.0508129023302622 0.949187097669738 0.886226053350644 0.113773946649356 0.869400255332578 0.130599744667422 </TABLE>
</DEFINITION>

<DEFINITION>
	<FOR>V13</FOR>
	<GIVEN>V19</GIVEN>
	<GIVEN>V15</GIVEN>
	<GIVEN>V10</GIVEN>
	<GIVEN>V8</GIVEN>
	<GIVEN>V4</GIVEN>
	<TABLE>0.999912322316757 8.76776832429596e-05 0.991959247961401 0.0080407520385988 0.999765175107116 0.000234824892883722 0.994828733291668 0.00517126670833249 0.632512735532751 0.367487264467249 0.708222084696313 0.291777915303687 0.661907284768212 0.338092715231788 0.645132259211642 0.354867740788358 0.999512195121951 0.00048780487804878 0.998054474708171 0.00194552529182879 0.99987090111025 0.000129098889749548 0.981203007518797 0.018796992481203 0.231414868105516 0.768585131894484 0.77681660899654 0.22318339100346 0.52834177236343 0.47165822763657 0.522423393053293 0.477576606946707 0.999569221727254 0.000430778272746095 0.995219614135911 0.00478038586408926 0.999987934654087 1.20653459134673e-05 0.995691159494215 0.00430884050578539 0.556308971208398 0.443691028791602 0.587307502988538 0.412692497011462 0.62873983824355 0.37126016175645 0.431740777476369 0.568259222523631 0.997777777777778 0.00222222222222222 0.99740932642487 0.00259067357512953 0.999349804941482 0.000650195058517555 0.99932157394844 0.00067842605156038 0.5 0.5 0.00769230769230769 0.992307692307692 0.352627776774427 0.647372223225573 0.269864100783652 0.730135899216348 </TABLE>
</DEFINITION>

<DEFINITION>
	<FOR>V14</FOR>
	<GIVEN>V19</GIVEN>
	<GIVEN>V10</GIVEN>
	<GIVEN>V4</GIVEN>
	<GIVEN>V2</GIVEN>
	<TABLE>0.970355064216033 0.029644935783967 0.987670926497723 0.0123290735022769 0.88320688299107 0.11679311700893 0.934187815636387 0.0658121843636131 0.992216640713513 0.0077833592864866 0.994547839632697 0.00545216036730344 0.949624425643222 0.0503755743567783 0.980609485407438 0.0193905145925617 0.936813999199847 0.0631860008001531 0.973868318088773 0.0261316819112274 0.69301706818223 0.30698293181777 0.882706840073947 0.117293159926053 0.976837445764123 0.0231625542358768 0.987476197451296 0.0125238025487037 0.881795545718633 0.118204454281367 0.953703503810367 0.0462964961896332 </TABLE>
</DEFINITION>

<DEFINITION>
	<FOR>V15</FOR>
	<GIVEN>V10</GIVEN>
	<GIVEN>V8</GIVEN>
	<GIVEN>V6</GIVEN>
	<GIVEN>V3</GIVEN>
	<TABLE>0.999300886581693 0.000699113418306495 0.999996077108358 3.92289164188707e-06 0.994599292589486 0.0054007074105143 0.999993027763446 6.97223655404181e-06 0.999966828103231 3.31718967690573e-05 0.999978344666291 2.16553337086924e-05 0.933940160291574 0.0660598397084255 0.999988879250906 1.11207490936589e-05 0.999272998485727 0.000727001514272584 0.999993058736968 6.94126303222134e-06 0.994255848680936 0.00574415131906421 0.999979734932923 2.0265067077372e-05 0.997549638761178 0.00245036123882181 0.999980722519952 1.92774800478082e-05 0.779379945799458 0.220620054200542 0.999995502343279 4.49765672084844e-06 </TABLE>
</DEFINITION>

<DEFINITION>
	<FOR>V16</FOR>
	<GIVEN>V23</GIVEN>
	<TABLE>0.999384260914472 0.000615739085528145 0.973489844368241 0.0265101556317594 </TABLE>
</DEFINITION>

<DEFINITION>
	<FOR>V17</FOR>
	<GIVEN>V12</GIVEN>
	<GIVEN>V11</GIVEN>
	<GIVEN>V9</GIVEN>
	<GIVEN>V5</GIVEN>
	<TABLE>0.853474913218297 0.146525086781703 0.220857775600978 0.779142224399022 0.994921514312096 0.00507848568790397 0.690039009001351 0.309960990998649 0.999990019362437 9.98063756312753e-06 0.999996683316418 3.31668358175293e-06 0.999178981937603 0.000821018062397373 0.999962800386876 3.71996131240235e-05 0.942129706418975 0.057870293581025 0.485059617870996 0.514940382129005 0.992397403081722 0.00760259691827844 0.675070316251629 0.324929683748371 0.999943291368946 5.67086310536464e-05 0.999746063991874 0.000253936008125952 0.999957428693061 4.2571306939123e-05 0.999757869249395 0.000242130750605327 </TABLE>
</DEFINITION>

<DEFINITION>
	<FOR>V18</FOR>
	<GIVEN>V15</GIVEN>
	<GIVEN>V10</GIVEN>
	<GIVEN>V5</GIVEN>
	<GIVEN>V4</GIVEN>
	<GIVEN>V3</GIVEN>
	<TABLE>0.990795978181876 0.00920402181812374 0.468075664084412 0.531924335915588 0.942041544868976 0.0579584551310241 0.245844306154285 0.754155693845715 0.99468882293253 0.00531117706746967 0.556119235248535 0.443880764751465 0.981046636388458 0.0189533636115416 0.327875001103139 0.672124998896861 0.988193246775786 0.0118067532242144 0.596041282398473 0.403958717601527 0.98245854252244 0.0175414574775597 0.352920620254214 0.647079379745786 0.995112273624011 0.00488772637598918 0.720597224423264 0.279402775576736 0.988876111852465 0.0111238881475347 0.422190991542222 0.577809008457778 0.799765807962529 0.200234192037471 0.5 0.5 0.887543252595156 0.112456747404844 0.5 0.5 0.965176827945324 0.0348231720546756 0.5 0.5 0.926666666666667 0.0733333333333333 0.5 0.5 0.897723869421983 0.102276130578017 0.5 0.5 0.805305095407842 0.194694904592158 0.5 0.5 0.955815120927981 0.0441848790720189 0.5 0.5 0.888211445501325 0.111788554498675 0.5 0.5 </TABLE>
</DEFINITION>

<DEFINITION>
	<FOR>V19</FOR>
	<GIVEN>V25</GIVEN>
	<GIVEN>V18</GIVEN>
	<GIVEN>V10</GIVEN>
	<GIVEN>V9</GIVEN>
	<GIVEN>V4</GIVEN>
	<TABLE>0.836211710734609 0.163788289265391 0.706847337238827 0.293152662761173 0.775917256831913 0.224082743168087 0.609476565172768 0.390523434827232 0.895602923345905 0.104397076654095 0.740515211526766 0.259484788473234 0.80768614410769 0.19231385589231 0.732230522945571 0.267769477054429 0.573576728127525 0.426423271872475 0.389602759931002 0.610397240068998 0.528453838727707 0.471546161272293 0.421176718980928 0.578823281019072 0.627365880509802 0.372634119490198 0.490566279576508 0.509433720423492 0.604785517144595 0.395214482855405 0.491945788964182 0.508054211035818 0.87994081399548 0.12005918600452 0.727406167638175 0.272593832361824 0.828654707398234 0.171345292601766 0.69287260811048 0.30712739188952 0.939524304861891 0.0604756951381091 0.779161577468623 0.220838422531377 0.899001955627487 0.100998044372513 0.779861910241657 0.220138089758343 0.639826822446166 0.360173177553834 0.436570098707969 0.563429901292031 0.631906123263081 0.368093876736919 0.397341888175985 0.602658111824015 0.724589547562351 0.275410452437649 0.535625988544402 0.464374011455598 0.701514547628537 0.298485452371463 0.488178538832631 0.511821461167369 </TABLE>
</DEFINITION>

<DEFINITION>
	<FOR>V20</FOR>
	<GIVEN>V21</GIVEN>
	<GIVEN>V15</GIVEN>
	<GIVEN>V13</GIVEN>
	<GIVEN>V10</GIVEN>
	<TABLE>0.697910301285616 0.302089698714384 0.628202604381426 0.371797395618574 0.999690785405071 0.000309214594928881 0.999997712309149 2.28769085060921e-06 0.999873513786997 0.000126486213002783 0.999975061100304 2.49388996957454e-05 0.5 0.5 0.999975944190522 2.40558094779889e-05 0.000194024058983314 0.999805975941017 0.00320406949857964 0.99679593050142 0.5 0.5 0.99992029332058 7.97066794197354e-05 0.998845265588915 0.00115473441108545 0.999902969144188 9.70308558121483e-05 0.970588235294118 0.0294117647058824 0.999906173766185 9.38262338149747e-05 </TABLE>
</DEFINITION>

<DEFINITION>
	<FOR>V21</FOR>
	<GIVEN>V15</GIVEN>
	<GIVEN>V10</GIVEN>
	<GIVEN>V9</GIVEN>
	<GIVEN>V8</GIVEN>
	<GIVEN>V7</GIVEN>
	<TABLE>0.9990170869145 0.000982913085500206 0.997933979508763 0.00206602049123669 0.984392593882408 0.0156074061175924 0.961605090448746 0.0383949095512543 0.5 0.5 0.5 0.5 0.995424715777798 0.00457528422220168 0.983740998064782 0.0162590019352178 0.997973326206568 0.00202667379343165 0.999026522526344 0.000973477473655503 0.94058747597975 0.0594125240202502 0.868830474493206 0.131169525506794 0.5 0.5 0.5 0.5 0.969786655877079 0.0302133441229214 0.947676494353308 0.0523235056466918 0.999609679937549 0.00039032006245121 0.998800959232614 0.00119904076738609 0.891809161916825 0.108190838083175 0.860797918473547 0.139202081526453 0.5 0.5 0.5 0.5 0.823232323232323 0.176767676767677 0.748062015503876 0.251937984496124 0.999133448873484 0.000866551126516464 0.99740932642487 0.00259067357512953 0.81948492626267 0.18051507373733 0.68300807735393 0.31699192264607 0.5 0.5 0.5 0.5 0.830251558804558 0.169748441195442 0.612846347607053 0.387153652392947 </TABLE>
</DEFINITION>

<DEFINITION>
	<FOR>V22</FOR>
	<GIVEN>V25</GIVEN>
	<GIVEN>V10</GIVEN>
	<GIVEN>V3</GIVEN>
	<TABLE>0.477832913776554 0.522167086223446 0.170515143670722 0.829484856329278 0.419116871055575 0.580883128944425 0.160723599065078 0.839276400934922 0.519353695877724 0.480646304122276 0.192116566444195 0.807883433555805 0.460877191946277 0.539122808053723 0.183497858360072 0.816502141639928 </TABLE>
</DEFINITION>

<DEFINITION>
	<FOR>V23</FOR>
	<GIVEN>V21</GIVEN>
	<GIVEN>V15</GIVEN>
	<GIVEN>V8</GIVEN>
	<GIVEN>V6</GIVEN>
	<TABLE>0.999533033472835 0.00046696652716457 0.991476260360108 0.00852373963989164 0.999603276327193 0.000396723672806728 0.953180557798587 0.046819442201413 0.998442367601246 0.00155763239875389 0.929353778751369 0.0706462212486309 0.989795918367347 0.0102040816326531 0.864279967819791 0.135720032180209 0.9994708994709 0.000529100529100529 0.998583569405099 0.00141643059490085 0.991410723581468 0.00858927641853201 0.877485675766768 0.122514324233232 0.5 0.5 0.5 0.5 0.5 0.5 0.805242931649739 0.194757068350261 </TABLE>
</DEFINITION>

<DEFINITION>
	<FOR>V24</FOR>
	<GIVEN>V19</GIVEN>
	<GIVEN>V18</GIVEN>
	<GIVEN>V14</GIVEN>
	<GIVEN>V10</GIVEN>
	<GIVEN>V4</GIVEN>
	<TABLE>0.99999933677239 6.63227610430713e-07 0.0287360920337303 0.97126390796627 0.999999225335856 7.74664144360213e-07 0.111441498568956 0.888558501431044 0.999972685058727 2.73149412728763e-05 0.205106186905709 0.794893813094291 0.999885974914481 0.000114025085518814 0.311884334286622 0.688115665713378 0.999995218833969 4.78116603077158e-06 0.110588511337216 0.889411488662785 0.999990660664587 9.33933541289202e-06 0.333764008086867 0.666235991913133 0.999770326136886 0.000229673863114378 0.346176956587051 0.653823043412949 0.998583569405099 0.00141643059490085 0.578407350689127 0.421592649310873 0.999995650093523 4.34990647701074e-06 0.0995982401788114 0.900401759821189 0.999991410263018 8.5897369822536e-06 0.272622779519331 0.727377220480669 0.999922660479505 7.73395204949729e-05 0.373193191682077 0.626806808317923 0.999375780274657 0.000624219725343321 0.391803660953713 0.608196339046287 0.999992640240223 7.35975977744086e-06 0.274274299166128 0.725725700833872 0.999981355110564 1.86448894358056e-05 0.470375814453097 0.529624185546903 0.999822506212283 0.00017749378771743 0.456334857064884 0.543665142935116 0.999349804941482 0.000650195058517555 0.383486023020907 0.616513976979093 </TABLE>
</DEFINITION>

<DEFINITION>
	<FOR>V25</FOR>
	<GIVEN>V5</GIVEN>
	<TABLE>0.997040728004304 0.0029592719956956 0.0761830170121307 0.923816982987869 </TABLE>
</DEFINITION>

<DEFINITION>
	<FOR>V26</FOR>
	<GIVEN>V21</GIVEN>
	<GIVEN>V11</GIVEN>
	<GIVEN>V8</GIVEN>
	<GIVEN>V3</GIVEN>
	<TABLE>0.999999011547107 9.88452893300464e-07 0.999997906066126 2.09393387356827e-06 0.999998045294437 1.95470556270109e-06 0.999997042137706 2.95786229376305e-06 0.995885630264755 0.0041143697352454 0.999991192376121 8.80762387922986e-06 0.922495298451709 0.0775047015482907 0.999981585828454 1.84141715464221e-05 0.999363057324841 0.000636942675159236 0.998269896193772 0.00173010380622837 0.999976955339448 2.30446605521501e-05 0.999939679092774 6.03209072264447e-05 0.748704663212435 0.251295336787565 0.984848484848485 0.0151515151515152 0.643194866599122 0.356805133400878 0.99925705794948 0.000742942050520059 </TABLE>
</DEFINITION>

<DEFINITION>
	<FOR>V27</FOR>
	<GIVEN>V24</GIVEN>
	<GIVEN>V19</GIVEN>
	<GIVEN>V13</GIVEN>
	<GIVEN>V10</GIVEN>
	<GIVEN>V4</GIVEN>
	<TABLE>0.764382163488836 0.235617836511164 0.484536912751678 0.515463087248322 0.683880208970972 0.316119791029028 0.383518620725906 0.616481379274094 0.335051546391753 0.664948453608247 0.286666666666667 0.713333333333333 0.0572200499086318 0.942779950091368 0.532363261093911 0.467636738906089 0.856736440444151 0.143263559555849 0.734344042334412 0.265655957665588 0.725771339230937 0.274228660769063 0.563633953259346 0.436366046740654 0.00769230769230769 0.992307692307692 0.555363321799308 0.444636678200692 0.110924719256897 0.889075280743103 0.525375194572528 0.474624805427472 0.5 0.5 0.704490461588752 0.295509538411248 0.5 0.5 0.529525949665731 0.470474050334269 0.5 0.5 0.476934166266218 0.523065833733782 0.5 0.5 0.349207815828122 0.650792184171878 0.5 0.5 0.806519937028953 0.193480062971047 0.5 0.5 0.587365566603332 0.412634433396668 0.5 0.5 0.624756335282651 0.375243664717349 0.5 0.5 0.49840868856046 0.50159131143954 </TABLE>
</DEFINITION>

</NETWORK>
</BIF>
