<?xml version="1.0" encoding="UTF-8"?>

<!-- DTD for the XMLBIF 0.3 format -->
<!DOCTYPE BIF [
<!ELEMENT BIF ( NETWORK )*>
<!ATTLIST BIF VERSION CDATA #REQUIRED>
   <!ELEMENT NETWORK ( NAME, ( PROPERTY | VARIABLE | DEFINITION )* )>
      <!ELEMENT NAME (#PCDATA)>
        <!ELEMENT VARIABLE ( NAME, ( OUTCOME |  PROPERTY )* ) >
          <!ATTLIST VARIABLE TYPE (nature|decision|utility) "nature">
           <!ELEMENT OUTCOME (#PCDATA)>
            <!ELEMENT DEFINITION ( FOR | GIVEN | TABLE | PROPERTY )* >
              <!ELEMENT FOR (#PCDATA)>
                <!ELEMENT GIVEN (#PCDATA)>
                  <!ELEMENT TABLE (#PCDATA)>
                    <!ELEMENT PROPERTY (#PCDATA)>
                      ]>
<BIF VERSION="0.3">
<NETWORK>
<NAME>Reco</NAME>
<VARIABLE TYPE="nature">
	<NAME>V1</NAME>
	<OUTCOME>999</OUTCOME>
	<OUTCOME>1</OUTCOME>
</VARIABLE>

<VARIABLE TYPE="nature">
	<NAME>V2</NAME>
	<OUTCOME>2</OUTCOME>
	<OUTCOME>0</OUTCOME>
	<OUTCOME>1</OUTCOME>
</VARIABLE>

<VARIABLE TYPE="nature">
	<NAME>V3</NAME>
	<OUTCOME>0</OUTCOME>
	<OUTCOME>1</OUTCOME>
</VARIABLE>

<VARIABLE TYPE="nature">
	<NAME>V4</NAME>
	<OUTCOME>1</OUTCOME>
	<OUTCOME>0</OUTCOME>
</VARIABLE>

<VARIABLE TYPE="nature">
	<NAME>V5</NAME>
	<OUTCOME>0</OUTCOME>
	<OUTCOME>1</OUTCOME>
</VARIABLE>

<VARIABLE TYPE="nature">
	<NAME>V6</NAME>
	<OUTCOME>1</OUTCOME>
	<OUTCOME>0</OUTCOME>
</VARIABLE>

<VARIABLE TYPE="nature">
	<NAME>V7</NAME>
	<OUTCOME>0</OUTCOME>
	<OUTCOME>2</OUTCOME>
	<OUTCOME>1</OUTCOME>
</VARIABLE>

<VARIABLE TYPE="nature">
	<NAME>V8</NAME>
	<OUTCOME>1</OUTCOME>
	<OUTCOME>0</OUTCOME>
</VARIABLE>

<VARIABLE TYPE="nature">
	<NAME>V9</NAME>
	<OUTCOME>1</OUTCOME>
	<OUTCOME>2</OUTCOME>
	<OUTCOME>0</OUTCOME>
</VARIABLE>

<VARIABLE TYPE="nature">
	<NAME>V10</NAME>
	<OUTCOME>1</OUTCOME>
	<OUTCOME>0</OUTCOME>
</VARIABLE>

<VARIABLE TYPE="nature">
	<NAME>V11</NAME>
	<OUTCOME>1</OUTCOME>
	<OUTCOME>0</OUTCOME>
</VARIABLE>

<VARIABLE TYPE="nature">
	<NAME>V12</NAME>
	<OUTCOME>1</OUTCOME>
	<OUTCOME>0</OUTCOME>
</VARIABLE>

<VARIABLE TYPE="nature">
	<NAME>V13</NAME>
	<OUTCOME>1</OUTCOME>
	<OUTCOME>2</OUTCOME>
</VARIABLE>

<VARIABLE TYPE="nature">
	<NAME>V14</NAME>
	<OUTCOME>1</OUTCOME>
	<OUTCOME>0</OUTCOME>
</VARIABLE>

<VARIABLE TYPE="nature">
	<NAME>V15</NAME>
	<OUTCOME>1</OUTCOME>
	<OUTCOME>0</OUTCOME>
	<OUTCOME>2</OUTCOME>
</VARIABLE>

<VARIABLE TYPE="nature">
	<NAME>V16</NAME>
	<OUTCOME>999</OUTCOME>
	<OUTCOME>1</OUTCOME>
</VARIABLE>

<VARIABLE TYPE="nature">
	<NAME>V17</NAME>
	<OUTCOME>1</OUTCOME>
	<OUTCOME>0</OUTCOME>
</VARIABLE>

<VARIABLE TYPE="nature">
	<NAME>V18</NAME>
	<OUTCOME>1</OUTCOME>
	<OUTCOME>2</OUTCOME>
	<OUTCOME>0</OUTCOME>
</VARIABLE>

<VARIABLE TYPE="nature">
	<NAME>V19</NAME>
	<OUTCOME>1</OUTCOME>
	<OUTCOME>0</OUTCOME>
</VARIABLE>

<VARIABLE TYPE="nature">
	<NAME>V20</NAME>
	<OUTCOME>1</OUTCOME>
	<OUTCOME>0</OUTCOME>
	<OUTCOME>2</OUTCOME>
</VARIABLE>

<VARIABLE TYPE="nature">
	<NAME>V21</NAME>
	<OUTCOME>0</OUTCOME>
	<OUTCOME>1</OUTCOME>
</VARIABLE>

<VARIABLE TYPE="nature">
	<NAME>V22</NAME>
	<OUTCOME>0</OUTCOME>
	<OUTCOME>1</OUTCOME>
</VARIABLE>

<VARIABLE TYPE="nature">
	<NAME>V23</NAME>
	<OUTCOME>0</OUTCOME>
	<OUTCOME>1</OUTCOME>
	<OUTCOME>2</OUTCOME>
</VARIABLE>

<VARIABLE TYPE="nature">
	<NAME>V24</NAME>
	<OUTCOME>0</OUTCOME>
	<OUTCOME>1</OUTCOME>
</VARIABLE>

<VARIABLE TYPE="nature">
	<NAME>V25</NAME>
	<OUTCOME>0</OUTCOME>
	<OUTCOME>1</OUTCOME>
</VARIABLE>

<VARIABLE TYPE="nature">
	<NAME>V26</NAME>
	<OUTCOME>999</OUTCOME>
	<OUTCOME>0</OUTCOME>
</VARIABLE>

<VARIABLE TYPE="nature">
	<NAME>V27</NAME>
	<OUTCOME>1</OUTCOME>
	<OUTCOME>2</OUTCOME>
	<OUTCOME>0</OUTCOME>
</VARIABLE>

<DEFINITION>
	<FOR>V1</FOR>
	<TABLE>0.05 0.95 </TABLE>
</DEFINITION>

<DEFINITION>
	<FOR>V2</FOR>
	<GIVEN>V17</GIVEN>
	<TABLE>0.212121212121212 0.757575757575758 0.0303030303030303 0.259259259259259 0.259259259259259 0.481481481481481 </TABLE>
</DEFINITION>

<DEFINITION>
	<FOR>V3</FOR>
	<GIVEN>V8</GIVEN>
	<TABLE>0.772727272727273 0.227272727272727 0.0555555555555556 0.944444444444444 </TABLE>
</DEFINITION>

<DEFINITION>
	<FOR>V4</FOR>
	<GIVEN>V23</GIVEN>
	<TABLE>0.96875 0.03125 0.95 0.05 0.125 0.875 </TABLE>
</DEFINITION>

<DEFINITION>
	<FOR>V5</FOR>
	<GIVEN>V12</GIVEN>
	<GIVEN>V6</GIVEN>
	<TABLE>0.653846153846154 0.346153846153846 0.0238095238095238 0.976190476190476 0.5 0.5 0.9 0.1 </TABLE>
</DEFINITION>

<DEFINITION>
	<FOR>V6</FOR>
	<GIVEN>V8</GIVEN>
	<TABLE>0.590909090909091 0.409090909090909 0.0555555555555556 0.944444444444444 </TABLE>
</DEFINITION>

<DEFINITION>
	<FOR>V7</FOR>
	<TABLE>0.533333333333333 0.133333333333333 0.333333333333333 </TABLE>
</DEFINITION>

<DEFINITION>
	<FOR>V8</FOR>
	<GIVEN>V7</GIVEN>
	<TABLE>0.96875 0.03125 0.125 0.875 0.05 0.95 </TABLE>
</DEFINITION>

<DEFINITION>
	<FOR>V9</FOR>
	<GIVEN>V6</GIVEN>
	<TABLE>0.904761904761905 0.0476190476190476 0.0476190476190476 0.0256410256410256 0.487179487179487 0.487179487179487 </TABLE>
</DEFINITION>

<DEFINITION>
	<FOR>V10</FOR>
	<TABLE>0.85 0.15 </TABLE>
</DEFINITION>

<DEFINITION>
	<FOR>V11</FOR>
	<GIVEN>V7</GIVEN>
	<TABLE>0.96875 0.03125 0.125 0.875 0.95 0.05 </TABLE>
</DEFINITION>

<DEFINITION>
	<FOR>V12</FOR>
	<GIVEN>V20</GIVEN>
	<TABLE>0.977272727272727 0.0227272727272727 0.875 0.125 0.125 0.875 </TABLE>
</DEFINITION>

<DEFINITION>
	<FOR>V13</FOR>
	<TABLE>0.85 0.15 </TABLE>
</DEFINITION>

<DEFINITION>
	<FOR>V14</FOR>
	<GIVEN>V4</GIVEN>
	<TABLE>0.970588235294118 0.0294117647058824 0.166666666666667 0.833333333333333 </TABLE>
</DEFINITION>

<DEFINITION>
	<FOR>V15</FOR>
	<GIVEN>V6</GIVEN>
	<TABLE>0.619047619047619 0.333333333333333 0.0476190476190476 0.0256410256410256 0.487179487179487 0.487179487179487 </TABLE>
</DEFINITION>

<DEFINITION>
	<FOR>V16</FOR>
	<TABLE>0.05 0.95 </TABLE>
</DEFINITION>

<DEFINITION>
	<FOR>V17</FOR>
	<GIVEN>V5</GIVEN>
	<TABLE>0.928571428571429 0.0714285714285714 0.346153846153846 0.653846153846154 </TABLE>
</DEFINITION>

<DEFINITION>
	<FOR>V18</FOR>
	<GIVEN>V3</GIVEN>
	<TABLE>0.925925925925926 0.037037037037037 0.037037037037037 0.212121212121212 0.393939393939394 0.393939393939394 </TABLE>
</DEFINITION>

<DEFINITION>
	<FOR>V19</FOR>
	<GIVEN>V3</GIVEN>
	<TABLE>0.944444444444444 0.0555555555555556 0.409090909090909 0.590909090909091 </TABLE>
</DEFINITION>

<DEFINITION>
	<FOR>V20</FOR>
	<GIVEN>V10</GIVEN>
	<TABLE>0.843137254901961 0.0196078431372549 0.137254901960784 0.111111111111111 0.777777777777778 0.111111111111111 </TABLE>
</DEFINITION>

<DEFINITION>
	<FOR>V21</FOR>
	<GIVEN>V6</GIVEN>
	<TABLE>0.642857142857143 0.357142857142857 0.961538461538462 0.0384615384615385 </TABLE>
</DEFINITION>

<DEFINITION>
	<FOR>V22</FOR>
	<GIVEN>V21</GIVEN>
	<TABLE>0.970588235294118 0.0294117647058824 0.166666666666667 0.833333333333333 </TABLE>
</DEFINITION>

<DEFINITION>
	<FOR>V23</FOR>
	<GIVEN>V15</GIVEN>
	<TABLE>0.904761904761905 0.0476190476190476 0.0476190476190476 0.0256410256410256 0.717948717948718 0.256410256410256 0.933333333333333 0.0333333333333333 0.0333333333333333 </TABLE>
</DEFINITION>

<DEFINITION>
	<FOR>V24</FOR>
	<GIVEN>V15</GIVEN>
	<TABLE>0.928571428571429 0.0714285714285714 0.5 0.5 0.05 0.95 </TABLE>
</DEFINITION>

<DEFINITION>
	<FOR>V25</FOR>
	<GIVEN>V5</GIVEN>
	<TABLE>0.928571428571429 0.0714285714285714 0.0384615384615385 0.961538461538462 </TABLE>
</DEFINITION>

<DEFINITION>
	<FOR>V26</FOR>
	<TABLE>0.05 0.95 </TABLE>
</DEFINITION>

<DEFINITION>
	<FOR>V27</FOR>
	<GIVEN>V17</GIVEN>
	<TABLE>0.393939393939394 0.212121212121212 0.393939393939394 0.037037037037037 0.037037037037037 0.925925925925926 </TABLE>
</DEFINITION>

</NETWORK>
</BIF>
