<?xml version="1.0" encoding="UTF-8"?>

<!-- DTD for the XMLBIF 0.3 format -->
<!DOCTYPE BIF [
<!ELEMENT BIF ( NETWORK )*>
<!ATTLIST BIF VERSION CDATA #REQUIRED>
   <!ELEMENT NETWORK ( NAME, ( PROPERTY | VARIABLE | DEFINITION )* )>
      <!ELEMENT NAME (#PCDATA)>
        <!ELEMENT VARIABLE ( NAME, ( OUTCOME |  PROPERTY )* ) >
          <!ATTLIST VARIABLE TYPE (nature|decision|utility) "nature">
           <!ELEMENT OUTCOME (#PCDATA)>
            <!ELEMENT DEFINITION ( FOR | GIVEN | TABLE | PROPERTY )* >
              <!ELEMENT FOR (#PCDATA)>
                <!ELEMENT GIVEN (#PCDATA)>
                  <!ELEMENT TABLE (#PCDATA)>
                    <!ELEMENT PROPERTY (#PCDATA)>
                      ]>
<BIF VERSION="0.3">
<NETWORK>
<NAME>Reco</NAME>
<VARIABLE TYPE="nature">
	<NAME>V1</NAME>
	<OUTCOME>1</OUTCOME>
	<OUTCOME>0</OUTCOME>
</VARIABLE>

<VARIABLE TYPE="nature">
	<NAME>V2</NAME>
	<OUTCOME>1</OUTCOME>
	<OUTCOME>0</OUTCOME>
</VARIABLE>

<VARIABLE TYPE="nature">
	<NAME>V3</NAME>
	<OUTCOME>0</OUTCOME>
	<OUTCOME>1</OUTCOME>
	<OUTCOME>2</OUTCOME>
</VARIABLE>

<VARIABLE TYPE="nature">
	<NAME>V4</NAME>
	<OUTCOME>1</OUTCOME>
	<OUTCOME>3</OUTCOME>
	<OUTCOME>2</OUTCOME>
	<OUTCOME>0</OUTCOME>
</VARIABLE>

<VARIABLE TYPE="nature">
	<NAME>V5</NAME>
	<OUTCOME>999</OUTCOME>
	<OUTCOME>0</OUTCOME>
</VARIABLE>

<VARIABLE TYPE="nature">
	<NAME>V6</NAME>
	<OUTCOME>1</OUTCOME>
	<OUTCOME>0</OUTCOME>
</VARIABLE>

<VARIABLE TYPE="nature">
	<NAME>V7</NAME>
	<OUTCOME>0</OUTCOME>
	<OUTCOME>1</OUTCOME>
	<OUTCOME>2</OUTCOME>
</VARIABLE>

<VARIABLE TYPE="nature">
	<NAME>V8</NAME>
	<OUTCOME>1</OUTCOME>
	<OUTCOME>0</OUTCOME>
</VARIABLE>

<VARIABLE TYPE="nature">
	<NAME>V9</NAME>
	<OUTCOME>999</OUTCOME>
	<OUTCOME>0</OUTCOME>
</VARIABLE>

<VARIABLE TYPE="nature">
	<NAME>V10</NAME>
	<OUTCOME>0</OUTCOME>
	<OUTCOME>1</OUTCOME>
	<OUTCOME>2</OUTCOME>
</VARIABLE>

<VARIABLE TYPE="nature">
	<NAME>V11</NAME>
	<OUTCOME>999</OUTCOME>
	<OUTCOME>1</OUTCOME>
</VARIABLE>

<VARIABLE TYPE="nature">
	<NAME>V12</NAME>
	<OUTCOME>1</OUTCOME>
	<OUTCOME>0</OUTCOME>
</VARIABLE>

<VARIABLE TYPE="nature">
	<NAME>V13</NAME>
	<OUTCOME>1</OUTCOME>
	<OUTCOME>2</OUTCOME>
	<OUTCOME>0</OUTCOME>
</VARIABLE>

<VARIABLE TYPE="nature">
	<NAME>V14</NAME>
	<OUTCOME>1</OUTCOME>
	<OUTCOME>0</OUTCOME>
</VARIABLE>

<VARIABLE TYPE="nature">
	<NAME>V15</NAME>
	<OUTCOME>1</OUTCOME>
	<OUTCOME>0</OUTCOME>
</VARIABLE>

<VARIABLE TYPE="nature">
	<NAME>V16</NAME>
	<OUTCOME>999</OUTCOME>
	<OUTCOME>1</OUTCOME>
</VARIABLE>

<VARIABLE TYPE="nature">
	<NAME>V17</NAME>
	<OUTCOME>0</OUTCOME>
	<OUTCOME>1</OUTCOME>
</VARIABLE>

<VARIABLE TYPE="nature">
	<NAME>V18</NAME>
	<OUTCOME>3</OUTCOME>
	<OUTCOME>0</OUTCOME>
	<OUTCOME>2</OUTCOME>
	<OUTCOME>1</OUTCOME>
</VARIABLE>

<VARIABLE TYPE="nature">
	<NAME>V19</NAME>
	<OUTCOME>1</OUTCOME>
	<OUTCOME>0</OUTCOME>
</VARIABLE>

<VARIABLE TYPE="nature">
	<NAME>V20</NAME>
	<OUTCOME>0</OUTCOME>
	<OUTCOME>1</OUTCOME>
</VARIABLE>

<VARIABLE TYPE="nature">
	<NAME>V21</NAME>
	<OUTCOME>0</OUTCOME>
	<OUTCOME>1</OUTCOME>
</VARIABLE>

<VARIABLE TYPE="nature">
	<NAME>V22</NAME>
	<OUTCOME>0</OUTCOME>
	<OUTCOME>1</OUTCOME>
</VARIABLE>

<VARIABLE TYPE="nature">
	<NAME>V23</NAME>
	<OUTCOME>999</OUTCOME>
	<OUTCOME>1</OUTCOME>
</VARIABLE>

<VARIABLE TYPE="nature">
	<NAME>V24</NAME>
	<OUTCOME>0</OUTCOME>
	<OUTCOME>1</OUTCOME>
	<OUTCOME>2</OUTCOME>
</VARIABLE>

<VARIABLE TYPE="nature">
	<NAME>V25</NAME>
	<OUTCOME>0</OUTCOME>
	<OUTCOME>1</OUTCOME>
</VARIABLE>

<VARIABLE TYPE="nature">
	<NAME>V26</NAME>
	<OUTCOME>1</OUTCOME>
	<OUTCOME>0</OUTCOME>
</VARIABLE>

<VARIABLE TYPE="nature">
	<NAME>V27</NAME>
	<OUTCOME>1</OUTCOME>
	<OUTCOME>0</OUTCOME>
</VARIABLE>

<DEFINITION>
	<FOR>V1</FOR>
	<TABLE>0.725794355141121 0.274205644858879 </TABLE>
</DEFINITION>

<DEFINITION>
	<FOR>V2</FOR>
	<GIVEN>V22</GIVEN>
	<GIVEN>V21</GIVEN>
	<GIVEN>V1</GIVEN>
	<TABLE>0.406060587638079 0.593939412361921 0.999991723087619 8.27691238060554e-06 0.846094420600858 0.153905579399142 0.0500065027962024 0.949993497203798 0.417157638764219 0.582842361235781 0.999971449780163 2.85502198366927e-05 0.000742942050520059 0.99925705794948 0.116284510996724 0.883715489003276 </TABLE>
</DEFINITION>

<DEFINITION>
	<FOR>V3</FOR>
	<GIVEN>V22</GIVEN>
	<GIVEN>V21</GIVEN>
	<GIVEN>V8</GIVEN>
	<GIVEN>V1</GIVEN>
	<TABLE>0.135974174502776 0.735742031371707 0.128283794125517 0.056693404457183 0.707954326811436 0.235352268731381 2.49858205468397e-06 0.999995002835891 2.49858205468397e-06 4.72297396224455e-06 0.999990554052075 4.72297396224455e-06 2.86147594929465e-05 0.999942770481014 2.86147594929465e-05 2.16773969781709e-05 0.999956645206044 2.16773969781709e-05 0.333333333333333 0.333333333333333 0.333333333333333 0.333333333333333 0.333333333333333 0.333333333333333 0.342887123896331 0.61622388184209 0.0408889942615789 0.239716526695418 0.637991475624827 0.122291997679756 7.14924039320822e-06 0.999985701519214 7.14924039320822e-06 1.52842098827701e-05 0.999969431580234 1.52842098827701e-05 0.000247831474597274 0.999504337050805 0.000247831474597274 7.80092050862002e-05 0.999843981589828 7.80092050862002e-05 0.333333333333333 0.333333333333333 0.333333333333333 0.333333333333333 0.333333333333333 0.333333333333333 </TABLE>
</DEFINITION>

<DEFINITION>
	<FOR>V4</FOR>
	<GIVEN>V17</GIVEN>
	<GIVEN>V10</GIVEN>
	<GIVEN>V2</GIVEN>
	<TABLE>0.361271350669251 0.232018117085042 0.332067691198342 0.0746428410473658 0.438544 0.17512 0.31336 0.072976 0.239025027582603 0.210455258115092 0.528903664131003 0.0216160501713025 0.303480123451103 0.189057533741766 0.491973375097886 0.015488967709245 0.433632196305784 0.226540380207631 0.273459619792369 0.066367803694216 0.464353864094138 0.217560691190501 0.23664263754903 0.081442807166331 0.398375609921006 0.238810132858543 0.305881723217002 0.0569325340034482 0.452903193512864 0.209034938432276 0.289283211532686 0.0487786565221744 0.141101240618778 0.272020099673645 0.57952389928956 0.00735476041801666 0.191553598764867 0.22374033416635 0.576852372790433 0.00785369427834984 0.302298598443742 0.307563093121522 0.359653882564825 0.0304844258699116 0.361812046292646 0.300026671614444 0.302809796599949 0.035351485492961 </TABLE>
</DEFINITION>

<DEFINITION>
	<FOR>V5</FOR>
	<TABLE>1.24996875078123e-05 0.999987500312492 </TABLE>
</DEFINITION>

<DEFINITION>
	<FOR>V6</FOR>
	<GIVEN>V2</GIVEN>
	<GIVEN>V1</GIVEN>
	<TABLE>0.999989720606073 1.02793939269341e-05 1.27300964941314e-05 0.999987269903506 7.40861473721644e-06 0.999992591385263 0.999891233413095 0.000108766586904503 </TABLE>
</DEFINITION>

<DEFINITION>
	<FOR>V7</FOR>
	<GIVEN>V27</GIVEN>
	<GIVEN>V15</GIVEN>
	<GIVEN>V10</GIVEN>
	<GIVEN>V8</GIVEN>
	<GIVEN>V6</GIVEN>
	<TABLE>0.575386652345584 0.407100419837402 0.0175129278170144 0.415092648143934 0.512409403424568 0.0724979484314983 0.333333333333333 0.333333333333333 0.333333333333333 0.464563341261813 0.499995443402502 0.0354412153356845 0.656802866025914 0.30909205687862 0.0341050770954658 0.531240088804313 0.353364381457926 0.11539552973776 0.333333333333333 0.333333333333333 0.333333333333333 0.429859703696721 0.561075238409452 0.00906505789382728 0.944602454710841 2.56232864427191e-05 0.0553719220027161 0.836099015338747 3.92295319916833e-05 0.163861755129261 0.333333333333333 0.333333333333333 0.333333333333333 0.905931926763406 2.96744710525535e-05 0.094038398765542 0.873582563753746 2.90681619329165e-06 0.126414529430061 0.768473671766812 6.75515925287939e-06 0.231519573073935 0.333333333333333 0.333333333333333 0.333333333333333 0.829495315001308 4.43445214560967e-06 0.170500250546546 0.874863581701527 0.0981030036355042 0.0270334146629686 0.817496810432668 0.0986496784744877 0.0838535110928442 0.333333333333333 0.333333333333333 0.333333333333333 0.898716496511763 0.061480335324849 0.0398031681633882 0.159913157327765 0.591872586552644 0.248214256119591 0.120746532524104 0.551169190952667 0.328084276523229 0.333333333333333 0.333333333333333 0.333333333333333 0.155271450667796 0.295749337338185 0.548979211994018 0.617116021681447 0.321400971666045 0.0614830066525078 0.520042582811284 0.341980919624944 0.137976497563772 0.333333333333333 0.333333333333333 0.333333333333333 0.688875171996965 0.174080218098582 0.137044609904453 0.537593191338066 0.46239569792118 1.1110740753086e-05 0.360405137062756 0.639583113022431 1.17499148131176e-05 0.333333333333333 0.333333333333333 0.333333333333333 0.348414867879473 0.651553712256889 3.14198636377918e-05 0.684189153519725 0.137438833729264 0.17837201275101 0.430046593628007 0.269433500638639 0.300519905733355 0.333333333333333 0.333333333333333 0.333333333333333 0.279415894411682 0.13236833371627 0.588215771872048 0.478721508810812 0.4937400864785 0.0275384047106881 0.322727523811778 0.589766656408071 0.0875058197801504 0.333333333333333 0.333333333333333 0.333333333333333 0.542050269333111 0.413882939763951 0.0440667909029381 0.563204116662563 0.370503199192084 0.0662926841453536 0.354099664392168 0.482820378234798 0.163079957373034 0.333333333333333 0.333333333333333 0.333333333333333 0.466332672023941 0.459791720940796 0.0738756070352632 0.818945562383985 0.164008016624883 0.0170464209911329 0.606054669075763 0.340647698659759 0.0532976322644782 0.333333333333333 0.333333333333333 0.333333333333333 0.772406501157768 0.199301586881135 0.0282919119610972 </TABLE>
</DEFINITION>

<DEFINITION>
	<FOR>V8</FOR>
	<GIVEN>V21</GIVEN>
	<GIVEN>V6</GIVEN>
	<GIVEN>V1</GIVEN>
	<TABLE>0.99999458599071 5.41400929043994e-06 0.5 0.5 0.325259165423622 0.674740834576378 0.407188049434684 0.592811950565316 0.999898559545547 0.000101440454453236 0.999945610790819 5.43892091808985e-05 0.99968132568515 0.000318674314850223 0.999210110584518 0.000789889415481833 </TABLE>
</DEFINITION>

<DEFINITION>
	<FOR>V9</FOR>
	<TABLE>1.24996875078123e-05 0.999987500312492 </TABLE>
</DEFINITION>

<DEFINITION>
	<FOR>V10</FOR>
	<GIVEN>V26</GIVEN>
	<GIVEN>V21</GIVEN>
	<GIVEN>V8</GIVEN>
	<GIVEN>V6</GIVEN>
	<TABLE>0.619700980127363 0.244887792522703 0.135411227349935 0.495479453046393 0.326615851230935 0.177904695722672 0.333333333333333 0.333333333333333 0.333333333333333 0.333333333333333 0.333333333333333 0.333333333333333 0.333333333333333 0.333333333333333 0.333333333333333 0.333333333333333 0.333333333333333 0.333333333333333 0.333333333333333 0.333333333333333 0.333333333333333 0.333333333333333 0.333333333333333 0.333333333333333 0.492504651528876 0.342375750631602 0.165119597839523 0.328931246180965 0.462222350189872 0.208846403629163 0.333333333333333 0.333333333333333 0.333333333333333 0.212440241737239 0.509514212891755 0.278045545371006 0.680440966443587 0.224366464832454 0.0951925687239593 0.709005529046429 0.185488146633341 0.10550632432023 0.333333333333333 0.333333333333333 0.333333333333333 0.333333333333333 0.333333333333333 0.333333333333333 </TABLE>
</DEFINITION>

<DEFINITION>
	<FOR>V11</FOR>
	<TABLE>1.24996875078123e-05 0.999987500312492 </TABLE>
</DEFINITION>

<DEFINITION>
	<FOR>V12</FOR>
	<GIVEN>V1</GIVEN>
	<TABLE>0.999991388960648 8.61103935244984e-06 2.27925422801659e-05 0.99997720745772 </TABLE>
</DEFINITION>

<DEFINITION>
	<FOR>V13</FOR>
	<GIVEN>V27</GIVEN>
	<GIVEN>V24</GIVEN>
	<GIVEN>V10</GIVEN>
	<GIVEN>V4</GIVEN>
	<TABLE>0.723149960198748 0.0360050462815285 0.240844993519724 0.222224008316053 0.0358844111516554 0.741891580532292 0.266196073299143 0.0512390565230075 0.682564870177849 0.613695034540446 0.133965012474942 0.252339952984612 0.973591454621007 0.0147881987729462 0.0116203466060473 0.966817913106233 0.0132743702543551 0.0199077166394116 0.988264459668244 0.00586777016587787 0.00586777016587787 0.596083667111705 0.326924788607032 0.0769915442812639 0.535277618930915 0.464695150178362 2.72308907224355e-05 0.645742937035966 0.312506026419825 0.0417510365442098 0.000144613159797542 0.968474331164136 0.0313810556760665 0.53116413593637 0.468691250903832 0.000144613159797542 0.745289364766585 0.0222296083505456 0.232481026882869 0.24161501297168 0.0268599213931739 0.731525065635146 0.284162551129706 0.0326151811195698 0.683222267750724 0.632036333464344 0.188698196427792 0.179265470107865 0.898635386119257 0.0287233626588465 0.0726412512218964 0.81897108317879 0.0267188680541246 0.154310048767086 0.878518316547662 0.0159563288514738 0.105525354600865 0.469668279683007 0.333333333333333 0.196998386983659 0.622363586331925 0.279722883180369 0.0979135304877062 0.541636530208785 0.156275615989199 0.302087853802016 0.201564574586428 0.325582229877633 0.472853195535939 0.565976770587722 0.26416906820365 0.169854161208628 0.749458480175666 0.012852731391297 0.237688788433037 0.226171006290941 0.0280453086195409 0.745783685089518 0.270713747318374 0.0462466159109053 0.68303963677072 0.683880064916061 0.114959959560486 0.201159975523452 0.995494657655982 0.00448467563601794 2.06667080000827e-05 0.993731849679404 0.00623939733747376 2.87529831219989e-05 0.999977194722859 1.14026385705652e-05 1.14026385705652e-05 0.642550379914106 0.357119259993393 0.000330360092500826 0.639793127977284 0.309824088812702 0.0503827832100147 0.559623416153465 0.201840447370284 0.238536136476251 0.36876249008325 0.338394641440464 0.292842868476285 0.602913645801423 0.323530412879948 0.073555941318629 0.955640292341913 0.0253477059959424 0.0190120016621447 0.235187709506786 0.190744408151368 0.574067882341846 0.566748659728792 0.250684326710817 0.182567013560391 0.585664220062157 0.0714805263505918 0.342855253587251 0.999957529039519 2.12354802403856e-05 2.12354802403856e-05 0.990544509591973 1.09185801478376e-05 0.0094445718278795 0.99893088515843 0.00106421064504897 4.90419652096299e-06 0.995402298850575 0.00229885057471264 0.00229885057471264 0.715116878605815 0.282533066306289 0.0023500550878964 0.508248152505513 0.442242560365068 0.0495092871294188 0.386818774734143 0.604580929008866 0.00860029625699189 0.610104338275673 0.254255903349808 0.135639758374519 0.914650528263123 0.0230966956246892 0.0622527761121879 0.176580499320171 0.169373472468991 0.654046028210839 0.267244016974631 0.250003325750622 0.482752657274747 0.609487281223824 0.104792135079134 0.285720583697042 0.996785256623927 0.00160737168803656 0.00160737168803656 0.994549623981654 0.000781196562735124 0.0046691794556104 0.997271134119815 1.57737912149447e-06 0.00272728850106394 0.642550379914106 0.000330360092500826 0.357119259993393 0.638183862587724 0.361808382769183 7.75464309255166e-06 0.404603635089963 0.550981870236273 0.0444144946737632 0.0942816837740731 0.895609748493847 0.0101085677320801 0.749855374291334 0.125072312854333 0.125072312854333 0.938808014673446 0.0170555594251352 0.0441364259014186 0.159685452646947 0.185632837117327 0.654681710235726 0.300255621915162 0.226466881059241 0.473277497025597 0.641922395565461 0.111149208526201 0.246928395908338 0.986093122801216 0.0138976916788375 9.18551994635656e-06 0.966151616630437 0.00423398546893054 0.0296143979006325 0.995793198000973 0.00191234354959975 0.00229445844942727 0.461401636428317 0.230878690857346 0.307719672714337 0.592581479417606 0.407404232214554 1.42883678397417e-05 0.424655052138541 0.55576694842316 0.019577999438299 0.0439414630366776 0.935128957588789 0.0209295793745339 0.817875920084122 0.136487907465825 0.0456361724500526 </TABLE>
</DEFINITION>

<DEFINITION>
	<FOR>V14</FOR>
	<GIVEN>V13</GIVEN>
	<GIVEN>V4</GIVEN>
	<GIVEN>V2</GIVEN>
	<TABLE>0.99523688656572 0.00476311343428014 0.986802034886258 0.0131979651137425 0.917905033361404 0.0820949666385956 0.787718024455042 0.212281975544958 0.986683262028748 0.0133167379712517 0.965950555209672 0.0340494447903286 0.947858395257577 0.052141604742423 0.853758070410525 0.146241929589475 0.992370938414104 0.00762906158589612 0.980091737274638 0.0199082627253615 0.874194224621351 0.125805775378649 0.678250105669947 0.321749894330053 0.970754142495433 0.0292458575045672 0.928553464392002 0.0714465356079976 0.896937212863706 0.103062787136294 0.808583846432452 0.191416153567548 3.90106889287665e-05 0.999960989311071 4.51875282422052e-05 0.999954812471758 1.25498857960393e-05 0.999987450114204 2.31728229132873e-05 0.999976827177087 1.10110330551212e-05 0.999988988966945 1.78208646683537e-05 0.999982179135332 0.000131821776957553 0.999868178223042 0.000189322226429383 0.999810677773571 </TABLE>
</DEFINITION>

<DEFINITION>
	<FOR>V15</FOR>
	<GIVEN>V27</GIVEN>
	<GIVEN>V26</GIVEN>
	<GIVEN>V21</GIVEN>
	<GIVEN>V10</GIVEN>
	<GIVEN>V8</GIVEN>
	<TABLE>0.999994943416834 5.05658316562333e-06 0.5 0.5 0.999985033972882 1.49660271184411e-05 0.5 0.5 0.999969543765609 3.04562343911799e-05 0.5 0.5 0.5 0.5 0.5 0.5 0.5 0.5 0.5 0.5 0.5 0.5 0.5 0.5 0.193297874197659 0.806702125802341 0.327321132936597 0.672678867063403 0.0706783217593934 0.929321678240607 0.135751716371594 0.864248283628406 0.104228592106283 0.895771407893717 0.177816650572274 0.822183349427726 0.370241313459488 0.629758686540512 0.5 0.5 0.190788681517158 0.809211318482842 0.5 0.5 0.220058321183087 0.779941678816913 0.5 0.5 0.999993133471579 6.86652842056113e-06 0.5 0.5 0.999990478548169 9.52145183097519e-06 0.5 0.5 0.999983724488135 1.62755118648482e-05 0.5 0.5 0.5 0.5 0.5 0.5 0.5 0.5 0.5 0.5 0.5 0.5 0.5 0.5 0.17021547301457 0.82978452698543 0.418930712911933 0.581069287088067 0.0208725124019759 0.979127487598024 0.0407841976371808 0.959215802362819 0.0386908376298619 0.961309162370138 0.0795812635236035 0.920418736476397 0.330941586421372 0.669058413578628 0.5 0.5 0.142362959020756 0.857637040979244 0.5 0.5 0.15471333476487 0.84528666523513 0.5 0.5 </TABLE>
</DEFINITION>

<DEFINITION>
	<FOR>V16</FOR>
	<TABLE>1.24996875078123e-05 0.999987500312492 </TABLE>
</DEFINITION>

<DEFINITION>
	<FOR>V17</FOR>
	<GIVEN>V8</GIVEN>
	<GIVEN>V3</GIVEN>
	<GIVEN>V1</GIVEN>
	<TABLE>0.258139299196838 0.741860700803162 0.188898736982052 0.811101263017948 0.200096236309239 0.799903763690761 0.0915118252089574 0.908488174791043 0.111255615984866 0.888744384015134 0.0571867870250967 0.942813212974903 0.5 0.5 0.5 0.5 0.238092945750787 0.761907054249213 0.180988324265035 0.819011675734965 0.5 0.5 0.5 0.5 </TABLE>
</DEFINITION>

<DEFINITION>
	<FOR>V18</FOR>
	<GIVEN>V22</GIVEN>
	<GIVEN>V4</GIVEN>
	<GIVEN>V3</GIVEN>
	<TABLE>0.115125686217856 1.4446691707599e-05 0.0527159780410286 0.832143889049408 0.128998116549068 0.0586976077362044 0.421264723245158 0.39103955246957 0.0787188860813935 0.198712434815332 0.345801301005322 0.376767378097952 0.145619591399768 2.23035061111607e-05 0.0364216254795254 0.817936479614595 0.0408079892559195 0.839468948681138 0.028581966616607 0.0911410954463358 1.91116887088143e-05 0.998107942817827 1.91116887088143e-05 0.00185383380475499 0.112614662838737 1.75057769063791e-05 0.0588369161823402 0.828530915202017 0.114581015698948 0.277762588761469 0.538509184431531 0.0691472111080524 0.104984894259819 0.466440456328629 0.427481174189476 0.00109347522207693 0.33327246165084 0.000182615047479912 0.0352447041636231 0.631300219138057 0.0279121134619856 0.166298535224366 0.0825970704487329 0.723192280864915 0.0318902842035691 0.650528750826173 0.0160277594183741 0.301553205551884 0.141637360672349 1.49013530428563e-05 0.0715413959587531 0.786806342015855 0.126102947308725 0.0248236118292663 0.356683568795557 0.492389872066452 0.0400874635568513 0.210016659725115 0.439920866305706 0.309975010412328 0.146676233682066 2.31460049995371e-05 0.0355754096842885 0.817725210628645 0.0612285027954338 0.695908887991327 0.0362290342467209 0.206633574966519 0.0155349135169763 0.984144778987828 0.000160153747597694 0.000160153747597694 0.122959497302097 1.70753363841268e-05 0.0655863670514309 0.811437060310088 0.120156651800688 0.227787992099084 0.472865448401804 0.179189907698424 0.134494224711236 0.428508925446272 0.436909345467273 8.75043752187609e-05 0.348422712933754 0.000157728706624606 0.0304416403785489 0.620977917981072 0.0337416133562178 0.104891558745514 0.0524652831955063 0.808901544702762 0.000943396226415094 0.634905660377358 0.000943396226415094 0.363207547169811 </TABLE>
</DEFINITION>

<DEFINITION>
	<FOR>V19</FOR>
	<GIVEN>V18</GIVEN>
	<GIVEN>V4</GIVEN>
	<GIVEN>V3</GIVEN>
	<TABLE>0.994448895501889 0.00555110449811148 0.961440115392811 0.0385598846071891 0.707625760974047 0.292374239025953 0.029923830250272 0.970076169749728 0.0132894954964911 0.986710504503509 0.0102040816326531 0.989795918367347 0.852061023910811 0.147938976089189 0.61893200853794 0.38106799146206 0.132811059907834 0.867188940092166 0.880763510163609 0.119236489836391 0.940906307409676 0.0590936925903246 0.994845360824742 0.00515463917525773 0.5 0.5 0.788720291738274 0.211279708261726 0.634269729794072 0.365730270205928 0.5 0.5 0.0022568590661208 0.997743140933879 0.00659585403460682 0.993404145965393 0.5 0.5 0.582832839633666 0.417167160366334 0.112049963262307 0.887950036737693 0.5 0.5 0.881311050959162 0.118688949040838 0.958134490238612 0.0418655097613883 0.999881656804734 0.000118343195266272 0.962619078520441 0.0373809214795587 0.724343994124324 0.275656005875676 0.0911671924290221 0.908832807570978 0.0199601626691012 0.980039837330899 0.5 0.5 0.946542627048042 0.0534573729519578 0.624468870342162 0.375531129657838 0.102926783800158 0.897073216199841 0.99740932642487 0.00259067357512953 0.863550295857988 0.136449704142012 0.989795918367347 0.0102040816326531 0.994773645404974 0.00522635459502545 0.956877539175856 0.0431224608241439 0.773976136730087 0.226023863269913 0.0440126663148246 0.955987333685175 0.0347392164790501 0.96526078352095 0.0102040816326531 0.989795918367347 0.892704269899842 0.107295730100158 0.834427130233055 0.165572869766945 0.0102040816326531 0.989795918367347 0.921963754395456 0.0780362456045442 0.815964603476961 0.184035396523039 0.912669683257919 0.0873303167420814 </TABLE>
</DEFINITION>

<DEFINITION>
	<FOR>V20</FOR>
	<GIVEN>V8</GIVEN>
	<TABLE>0.999989118370367 1.08816296328538e-05 1.46829941561683e-05 0.999985317005844 </TABLE>
</DEFINITION>

<DEFINITION>
	<FOR>V21</FOR>
	<GIVEN>V22</GIVEN>
	<GIVEN>V1</GIVEN>
	<TABLE>0.965798466362131 0.0342015336378689 0.8870891949837 0.1129108050163 0.989135698834469 0.0108643011655313 0.891246819338422 0.108753180661578 </TABLE>
</DEFINITION>

<DEFINITION>
	<FOR>V22</FOR>
	<GIVEN>V1</GIVEN>
	<TABLE>0.733290278136571 0.266709721863429 0.77606327209737 0.22393672790263 </TABLE>
</DEFINITION>

<DEFINITION>
	<FOR>V23</FOR>
	<TABLE>1.24996875078123e-05 0.999987500312492 </TABLE>
</DEFINITION>

<DEFINITION>
	<FOR>V24</FOR>
	<GIVEN>V27</GIVEN>
	<GIVEN>V15</GIVEN>
	<GIVEN>V10</GIVEN>
	<GIVEN>V8</GIVEN>
	<GIVEN>V7</GIVEN>
	<TABLE>0.701433408806341 2.89168611325578e-06 0.298563699507546 3.42171626444392e-06 0.416850583915881 0.583145994367855 0.999915063490041 4.24682549794029e-05 4.24682549794029e-05 0.968901617691292 1.30775367151843e-05 0.0310853047719932 1.21508159272895e-05 0.687651125773096 0.312336723410977 0.999657240788346 0.000171379605826907 0.000171379605826907 0.831358986229496 9.07745794867605e-06 0.168631936312555 1.63583124764849e-05 0.378089676268996 0.621893965418527 7.34699875101021e-05 0.99985306002498 7.34699875101021e-05 0.984162951051336 2.43646906902517e-05 0.0158126842579733 1.86668160011947e-05 0.548375053667096 0.451606279516903 0.00115340253748558 0.997693194925029 0.00115340253748558 1.14590853358085e-05 0.841566686147112 0.158421854767552 0.333333333333333 0.333333333333333 0.333333333333333 0.000105185652676975 0.250026296413169 0.749868517934154 2.18364450267496e-05 0.995239654984169 0.00473850857080467 0.333333333333333 0.333333333333333 0.333333333333333 0.000210304942166141 0.091062039957939 0.908727655099895 0.605490517914183 1.60917875562207e-06 0.394507872907062 0.333333333333333 0.333333333333333 0.333333333333333 8.57316769973337e-06 0.999982853664601 8.57316769973337e-06 0.885290480314484 3.56395699016704e-06 0.114705955728526 0.333333333333333 0.333333333333333 0.333333333333333 1.73385348938015e-05 0.999965322930212 1.73385348938015e-05 0.459985843160289 0.377358092742361 0.162656064097351 0.999947985748095 2.6007125952511e-05 2.6007125952511e-05 0.494713248550407 0.505238025629781 4.87258198119183e-05 0.607353180770576 0.32226182434597 0.0703849948834544 0.999946482566696 2.67587166519494e-05 2.67587166519494e-05 0.49105187022112 0.508906798925398 4.13308534821244e-05 4.09651386669944e-05 4.09651386669944e-05 0.999918069722666 1.01080551091165e-05 1.01080551091165e-05 0.999979783889782 0.349344007115855 2.02154972001536e-05 0.650635777386945 2.75550411947866e-05 2.75550411947866e-05 0.99994488991761 1.44669646861392e-05 1.44669646861392e-05 0.999971066070628 0.340067182616693 7.79380704092528e-06 0.659925023576266 0.999992496632864 3.75168356800114e-06 3.75168356800114e-06 6.58540279616203e-06 0.396869299510705 0.603124115086499 2.36188856609745e-05 0.188785753088169 0.81119062802617 0.99997511044739 1.24447763051459e-05 1.24447763051459e-05 4.92441030186635e-05 0.829713891761462 0.17023686413552 6.25508225433164e-05 0.0135735284918997 0.986363920685557 8.43262752240971e-06 8.43262752240971e-06 0.999983134744955 6.94082942911678e-06 0.419788304702412 0.580204754468159 0.333333333333333 0.333333333333333 0.333333333333333 6.01142170123234e-05 6.01142170123234e-05 0.999879771565975 3.2147105153181e-05 0.729128491979297 0.27083936091555 0.333333333333333 0.333333333333333 0.333333333333333 1.15736722104557e-05 0.999976852655579 1.15736722104557e-05 3.06569790612833e-05 0.2384193261596 0.761550016861338 0.706185432195632 2.61540473388257e-05 0.293788413757029 6.09050490285645e-05 0.999878189901943 6.09050490285645e-05 0.000128551227664224 0.74983931096542 0.250032137806916 0.18751265804473 2.89326736683737e-05 0.812458409281602 4.41331585660254e-06 0.999991173368287 4.41331585660254e-06 0.151378078865682 3.53943461071528e-06 0.848618381699707 3.82570105971919e-05 0.999923485978806 3.82570105971919e-05 1.14026385705652e-05 0.999977194722859 1.14026385705652e-05 0.387094365545152 1.49336200588385e-05 0.612890700834789 0.000140232786425466 0.999719534427149 0.000140232786425466 2.47704399477839e-06 0.521667942344324 0.478329580611681 0.160564732148679 0.215212191871216 0.624223075980105 0.647413686129645 0.352576768515602 9.5453547531094e-06 1.90990227030083e-06 0.869221351943421 0.130776738154309 0.33347280253679 0.271130068591729 0.395397128871481 0.499993972054444 0.499993972054444 1.20558911111915e-05 0.648625367638227 0.17346346954394 0.177911162817833 0.0041761908895383 0.268751868676639 0.727071940433822 0.522348877374784 0.477582037996546 6.90846286701209e-05 0.708228309928117 0.24814863502914 0.0436230550427429 0.055827518735925 0.411481522501569 0.532690958762506 0.505591095854788 0.494356893951214 5.20101939980236e-05 </TABLE>
</DEFINITION>

<DEFINITION>
	<FOR>V25</FOR>
	<GIVEN>V8</GIVEN>
	<TABLE>0.999989118370367 1.08816296328538e-05 1.46829941561683e-05 0.999985317005844 </TABLE>
</DEFINITION>

<DEFINITION>
	<FOR>V26</FOR>
	<GIVEN>V8</GIVEN>
	<GIVEN>V3</GIVEN>
	<TABLE>0.999977263425947 2.27365740530217e-05 0.00491306126113544 0.995086938738865 0.999967975405111 3.20245948888746e-05 0.5 0.5 4.89442720518418e-06 0.999995105572795 0.5 0.5 </TABLE>
</DEFINITION>

<DEFINITION>
	<FOR>V27</FOR>
	<GIVEN>V17</GIVEN>
	<GIVEN>V10</GIVEN>
	<GIVEN>V4</GIVEN>
	<TABLE>0.999983185929986 1.68140700137875e-05 0.99996829221891 3.17077810894794e-05 0.999979615964776 2.03840352236129e-05 0.999910602538888 8.93974611121044e-05 0.999976645336074 2.33546639263861e-05 0.999967652196416 3.23478035841366e-05 0.999987366399677 1.26336003234202e-05 0.999647141848977 0.000352858151023289 0.999967090107286 3.29098927137497e-05 0.999933020763563 6.69792364367046e-05 0.999941321441145 5.86785588545945e-05 0.999801666005553 0.000198333994446648 0.391431282073397 0.608568717926603 0.394538844542796 0.605461155457204 0.680320971328966 0.319679028671034 0.58973759764973 0.41026240235027 0.392698138372814 0.607301861627186 0.136463167323986 0.863536832676014 0.164288432777816 0.835711567222184 0.715598203348305 0.284401796651695 0.258055240916616 0.741944759083384 0.0731342715137204 0.92686572848628 0.111909543351087 0.888090456648913 0.489453330989629 0.510546669010371 </TABLE>
</DEFINITION>

</NETWORK>
</BIF>
