<?xml version="1.0" encoding="UTF-8"?>

<!-- DTD for the XMLBIF 0.3 format -->
<!DOCTYPE BIF [
<!ELEMENT BIF ( NETWORK )*>
<!ATTLIST BIF VERSION CDATA #REQUIRED>
   <!ELEMENT NETWORK ( NAME, ( PROPERTY | VARIABLE | DEFINITION )* )>
      <!ELEMENT NAME (#PCDATA)>
        <!ELEMENT VARIABLE ( NAME, ( OUTCOME |  PROPERTY )* ) >
          <!ATTLIST VARIABLE TYPE (nature|decision|utility) "nature">
           <!ELEMENT OUTCOME (#PCDATA)>
            <!ELEMENT DEFINITION ( FOR | GIVEN | TABLE | PROPERTY )* >
              <!ELEMENT FOR (#PCDATA)>
                <!ELEMENT GIVEN (#PCDATA)>
                  <!ELEMENT TABLE (#PCDATA)>
                    <!ELEMENT PROPERTY (#PCDATA)>
                      ]>
<BIF VERSION="0.3">
<NETWORK>
<NAME>Reco</NAME>
<VARIABLE TYPE="nature">
	<NAME>GoodStudent</NAME>
	<OUTCOME>True</OUTCOME>
	<OUTCOME>False</OUTCOME>
</VARIABLE>

<VARIABLE TYPE="nature">
	<NAME>Age</NAME>
	<OUTCOME>Adult</OUTCOME>
	<OUTCOME>Senior</OUTCOME>
	<OUTCOME>Adolescent</OUTCOME>
</VARIABLE>

<VARIABLE TYPE="nature">
	<NAME>SocioEcon</NAME>
	<OUTCOME>Middle</OUTCOME>
	<OUTCOME>Prole</OUTCOME>
	<OUTCOME>UpperMiddle</OUTCOME>
	<OUTCOME>Wealthy</OUTCOME>
</VARIABLE>

<VARIABLE TYPE="nature">
	<NAME>RiskAversion</NAME>
	<OUTCOME>Normal</OUTCOME>
	<OUTCOME>Psychopath</OUTCOME>
	<OUTCOME>Cautious</OUTCOME>
	<OUTCOME>Adventurous</OUTCOME>
</VARIABLE>

<VARIABLE TYPE="nature">
	<NAME>VehicleYear</NAME>
	<OUTCOME>Older</OUTCOME>
	<OUTCOME>Current</OUTCOME>
</VARIABLE>

<VARIABLE TYPE="nature">
	<NAME>ThisCarDam</NAME>
	<OUTCOME>Mild</OUTCOME>
	<OUTCOME>Severe</OUTCOME>
	<OUTCOME>Moderate</OUTCOME>
	<OUTCOME>None</OUTCOME>
</VARIABLE>

<VARIABLE TYPE="nature">
	<NAME>RuggedAuto</NAME>
	<OUTCOME>Football</OUTCOME>
	<OUTCOME>Tank</OUTCOME>
	<OUTCOME>EggShell</OUTCOME>
</VARIABLE>

<VARIABLE TYPE="nature">
	<NAME>Accident</NAME>
	<OUTCOME>Mild</OUTCOME>
	<OUTCOME>Severe</OUTCOME>
	<OUTCOME>Moderate</OUTCOME>
	<OUTCOME>None</OUTCOME>
</VARIABLE>

<VARIABLE TYPE="nature">
	<NAME>MakeModel</NAME>
	<OUTCOME>FamilySedan</OUTCOME>
	<OUTCOME>Luxury</OUTCOME>
	<OUTCOME>SportsCar</OUTCOME>
	<OUTCOME>Economy</OUTCOME>
	<OUTCOME>SuperLuxury</OUTCOME>
</VARIABLE>

<VARIABLE TYPE="nature">
	<NAME>DrivQuality</NAME>
	<OUTCOME>Normal</OUTCOME>
	<OUTCOME>Poor</OUTCOME>
	<OUTCOME>Excellent</OUTCOME>
</VARIABLE>

<VARIABLE TYPE="nature">
	<NAME>Mileage</NAME>
	<OUTCOME>FiveThou</OUTCOME>
	<OUTCOME>FiftyThou</OUTCOME>
	<OUTCOME>TwentyThou</OUTCOME>
	<OUTCOME>Domino</OUTCOME>
</VARIABLE>

<VARIABLE TYPE="nature">
	<NAME>Antilock</NAME>
	<OUTCOME>True</OUTCOME>
	<OUTCOME>False</OUTCOME>
</VARIABLE>

<VARIABLE TYPE="nature">
	<NAME>DrivingSkill</NAME>
	<OUTCOME>Normal</OUTCOME>
	<OUTCOME>SubStandard</OUTCOME>
	<OUTCOME>Expert</OUTCOME>
</VARIABLE>

<VARIABLE TYPE="nature">
	<NAME>SeniorTrain</NAME>
	<OUTCOME>True</OUTCOME>
	<OUTCOME>False</OUTCOME>
</VARIABLE>

<VARIABLE TYPE="nature">
	<NAME>ThisCarCost</NAME>
	<OUTCOME>HundredThou</OUTCOME>
	<OUTCOME>Million</OUTCOME>
	<OUTCOME>TenThou</OUTCOME>
	<OUTCOME>Thousand</OUTCOME>
</VARIABLE>

<VARIABLE TYPE="nature">
	<NAME>Theft</NAME>
	<OUTCOME>True</OUTCOME>
	<OUTCOME>False</OUTCOME>
</VARIABLE>

<VARIABLE TYPE="nature">
	<NAME>CarValue</NAME>
	<OUTCOME>FiftyThou</OUTCOME>
	<OUTCOME>TenThou</OUTCOME>
	<OUTCOME>Million</OUTCOME>
	<OUTCOME>FiveThou</OUTCOME>
	<OUTCOME>TwentyThou</OUTCOME>
</VARIABLE>

<VARIABLE TYPE="nature">
	<NAME>HomeBase</NAME>
	<OUTCOME>Rural</OUTCOME>
	<OUTCOME>Secure</OUTCOME>
	<OUTCOME>City</OUTCOME>
	<OUTCOME>Suburb</OUTCOME>
</VARIABLE>

<VARIABLE TYPE="nature">
	<NAME>AntiTheft</NAME>
	<OUTCOME>True</OUTCOME>
	<OUTCOME>False</OUTCOME>
</VARIABLE>

<VARIABLE TYPE="nature">
	<NAME>PropCost</NAME>
	<OUTCOME>HundredThou</OUTCOME>
	<OUTCOME>Million</OUTCOME>
	<OUTCOME>TenThou</OUTCOME>
	<OUTCOME>Thousand</OUTCOME>
</VARIABLE>

<VARIABLE TYPE="nature">
	<NAME>OtherCarCost</NAME>
	<OUTCOME>HundredThou</OUTCOME>
	<OUTCOME>TenThou</OUTCOME>
	<OUTCOME>Million</OUTCOME>
	<OUTCOME>Thousand</OUTCOME>
</VARIABLE>

<VARIABLE TYPE="nature">
	<NAME>OtherCar</NAME>
	<OUTCOME>True</OUTCOME>
	<OUTCOME>False</OUTCOME>
</VARIABLE>

<VARIABLE TYPE="nature">
	<NAME>MedCost</NAME>
	<OUTCOME>HundredThou</OUTCOME>
	<OUTCOME>TenThou</OUTCOME>
	<OUTCOME>Thousand</OUTCOME>
	<OUTCOME>Million</OUTCOME>
</VARIABLE>

<VARIABLE TYPE="nature">
	<NAME>Cushioning</NAME>
	<OUTCOME>Fair</OUTCOME>
	<OUTCOME>Poor</OUTCOME>
	<OUTCOME>Good</OUTCOME>
	<OUTCOME>Excellent</OUTCOME>
</VARIABLE>

<VARIABLE TYPE="nature">
	<NAME>Airbag</NAME>
	<OUTCOME>True</OUTCOME>
	<OUTCOME>False</OUTCOME>
</VARIABLE>

<VARIABLE TYPE="nature">
	<NAME>ILiCost</NAME>
	<OUTCOME>HundredThou</OUTCOME>
	<OUTCOME>Million</OUTCOME>
	<OUTCOME>TenThou</OUTCOME>
	<OUTCOME>Thousand</OUTCOME>
</VARIABLE>

<VARIABLE TYPE="nature">
	<NAME>DrivHist</NAME>
	<OUTCOME>Many</OUTCOME>
	<OUTCOME>One</OUTCOME>
	<OUTCOME>Zero</OUTCOME>
</VARIABLE>

<DEFINITION>
	<FOR>GoodStudent</FOR>
	<GIVEN>SocioEcon</GIVEN>
	<GIVEN>Age</GIVEN>
	<TABLE>0.99999806157222 1.9384277799962e-06 0.999995354929813 4.64507018701053e-06 0.898691389940632 0.101308610059368 0.999998073403333 1.92659666698777e-06 0.999988474216823 1.15257831769669e-05 0.80323436148746 0.19676563851254 0.999995949613188 4.05038681194054e-06 0.999991844590517 8.15540948311015e-06 0.506318056718918 0.493681943281082 0.99992256465851 7.7435341489856e-05 0.999778466991582 0.000221533008418254 0.587529411764706 0.412470588235294 </TABLE>
</DEFINITION>

<DEFINITION>
	<FOR>Age</FOR>
	<GIVEN>DrivQuality</GIVEN>
	<GIVEN>SocioEcon</GIVEN>
	<TABLE>0.61470826657264 0.260407322330134 0.124884411097226 0.723274963807205 0.116254022702334 0.160471013490461 0.583310462133764 0.292266823884987 0.124422713981249 0.66003588423434 0.224744519853343 0.115219595912318 0.519733863211978 0.345682200044157 0.134583936743866 0.644514064446754 0.210684947087075 0.144800988466171 0.491130266054704 0.393872905705437 0.11499682823986 0.543757103425881 0.339178438058126 0.117064458515993 0.544190686626957 0.155654798438873 0.30015451493417 0.60411978016144 0.0608295420183876 0.335050677820173 0.528454116115948 0.179220011896635 0.292325871987417 0.558460743038629 0.1330231183987 0.308516138562671 </TABLE>
</DEFINITION>

<DEFINITION>
	<FOR>SocioEcon</FOR>
	<GIVEN>MakeModel</GIVEN>
	<GIVEN>VehicleYear</GIVEN>
	<TABLE>0.822832537962551 0.169880344836468 0.00724940301198391 3.77141889977592e-05 0.589715363460122 0.295160126839092 0.113768203062773 0.00135630663801265 0.292647725080855 0.658052267293468 0.0489400307718532 0.000359976853824726 0.0900136455927202 0.527330231564064 0.376488890350264 0.00616723249295115 1.43258266001948e-05 1.43258266001948e-05 0.977608733023896 0.0223626153229041 3.53902124828358e-06 3.53902124828358e-06 0.951292450559873 0.0487004713976303 0.436670447333954 0.456383926763074 0.102486463860871 0.00445916204210043 0.114406143920782 0.266878903246376 0.575387745916243 0.0433272069165995 0.00130890052356021 0.00130890052356021 0.00130890052356021 0.996073298429319 0.000173490631505899 0.000173490631505899 0.000173490631505899 0.999479528105482 </TABLE>
</DEFINITION>

<DEFINITION>
	<FOR>RiskAversion</FOR>
	<GIVEN>SeniorTrain</GIVEN>
	<GIVEN>DrivQuality</GIVEN>
	<GIVEN>Age</GIVEN>
	<TABLE>0.676966897232137 0.197712404221265 0.120938626214669 0.00438207233192811 0.786437736370387 0.117192222011156 0.0910813891239401 0.00528865249451707 0.585775997407096 0.124340379414773 0.284047057155301 0.00583656602282971 0.321791388399647 0.261307008421647 0.395476294956028 0.0214253082226777 0.493224966187447 0.144279416921304 0.331826378800781 0.0306692380904674 0.151912561484108 0.120902099822726 0.700662904796385 0.0265224338967816 0.462066519615474 0.172931762176514 0.339042825967557 0.0259588922404551 0.592851227549559 0.1242257725022 0.24658390987043 0.0363390900778109 0.348627714432897 0.0901451946106989 0.533217117456811 0.0280099734995937 0.25 0.25 0.25 0.25 0.240423586529927 0.759571066505545 2.67348226411866e-06 2.67348226411866e-06 0.25 0.25 0.25 0.25 0.25 0.25 0.25 0.25 0.147095968123185 0.852897278314311 3.37678125211049e-06 3.37678125211049e-06 0.25 0.25 0.25 0.25 0.25 0.25 0.25 0.25 0.221791407727641 0.77818157254796 1.35098621994056e-05 1.35098621994056e-05 0.25 0.25 0.25 0.25 </TABLE>
</DEFINITION>

<DEFINITION>
	<FOR>VehicleYear</FOR>
	<GIVEN>MakeModel</GIVEN>
	<GIVEN>RuggedAuto</GIVEN>
	<TABLE>0.451232232221125 0.548767767778875 0.5 0.5 0.87934785473487 0.12065214526513 0.62509583920919 0.37490416079081 0.782942755022961 0.21705724497704 0.316448244581267 0.683551755418733 0.196156215815217 0.803843784184783 0.196759900304625 0.803240099695375 0.214224740027937 0.785775259972063 0.575747374091031 0.424252625908968 0.560575466935891 0.439424533064109 0.581867272907423 0.418132727092576 0.138208269525268 0.861791730474732 0.106458123107972 0.893541876892028 0.0033112582781457 0.996688741721854 </TABLE>
</DEFINITION>

<DEFINITION>
	<FOR>ThisCarDam</FOR>
	<TABLE>0.731472428084132 0.12352362751525 0.0818796457817135 0.0631242986189042 </TABLE>
</DEFINITION>

<DEFINITION>
	<FOR>RuggedAuto</FOR>
	<GIVEN>ThisCarDam</GIVEN>
	<TABLE>0.348897909997354 0.172482496813287 0.478619593189358 0.341188993081323 0.0875291401500671 0.57128186676861 0.325824654250206 0.191075527812645 0.483099817937149 0.388309497616428 0.112137880454712 0.49955262192886 </TABLE>
</DEFINITION>

<DEFINITION>
	<FOR>Accident</FOR>
	<GIVEN>RuggedAuto</GIVEN>
	<GIVEN>ThisCarDam</GIVEN>
	<TABLE>0.976095585007383 9.07016315409482e-07 0.0238590641768464 4.44437994550646e-05 5.4924533690709e-06 0.930119515785311 5.4924533690709e-06 0.0698694993079509 8.67663901711033e-06 0.000841633984659702 0.897103737896089 0.102045951480235 9.44358402901069e-06 0.0172345408529445 0.0607505760586258 0.922005439504401 0.91113561473936 0.00713520376336589 0.0769717674169425 0.00475741408033113 2.14096086323542e-05 0.920805857668922 2.14096086323542e-05 0.0791513231138135 1.47955258329881e-05 0.241477777120199 0.276276853879387 0.482230573474581 3.27011118378025e-05 0.499182472204055 0.0172988881621975 0.48348593852191 0.999871068924569 6.61185002208358e-07 0.000127608705426213 6.61185002208358e-07 3.28028026714602e-06 0.829940430110349 0.000318187185913164 0.169738102423471 5.8519229418787e-06 5.8519229418787e-06 0.999139767327544 0.000848528826572412 7.34063481809907e-06 7.34063481809907e-06 0.133195818774408 0.866789499955956 </TABLE>
</DEFINITION>

<DEFINITION>
	<FOR>MakeModel</FOR>
	<GIVEN>Accident</GIVEN>
	<GIVEN>RuggedAuto</GIVEN>
	<TABLE>0.18956292907029 0.616546176976743 0.175156202957914 0.0157009526429057 0.00303373835214707 1.61091556386072e-06 0.790735624592237 0.194278027917167 0.0103436888355497 0.00464104773948273 0.619424378605569 0.0797019528594592 0.0212351974945842 0.279384014748943 0.000254456291445031 0.21720811827078 0.660583413130299 0.105943900787071 0.0154191092323143 0.000845458579536165 1.01931603893787e-05 0.89170786402324 0.0978645328984252 0.00673767901737934 0.00367973090056572 0.698341580636492 0.0679208891277884 0.00948887799788152 0.224245490332474 3.16190536417245e-06 0.176305350689037 0.609649457879117 0.192172303352628 0.0183410219492845 0.00353186612993271 1.3081300281248e-05 0.766054025770162 0.219778926025247 0.00629210543528027 0.00786186146903002 0.604406571797095 0.0786628042204977 0.020556953460343 0.296115704226841 0.000257966295223395 0.189784224485118 0.616096395009987 0.177603876755836 0.0141514685177303 0.00236403523132838 1.49064619512559e-05 0.815696504434672 0.177103674442871 0.00538123276440337 0.00180368189610196 0.634273880403831 0.0776645565151907 0.0166662744452027 0.27110818252418 0.000287106111594851 </TABLE>
</DEFINITION>

<DEFINITION>
	<FOR>DrivQuality</FOR>
	<GIVEN>Antilock</GIVEN>
	<GIVEN>Accident</GIVEN>
	<TABLE>0.599667543069219 0.258823481005106 0.141508975925674 0.0189041520118566 0.00361448448249165 0.977481363505652 0.125687358129972 0.0177246979763901 0.856587943893638 0.0779365387240218 0.00828286746693678 0.913780593809042 0.567309778042558 0.247617738264363 0.185072483693079 0.0256046080403993 0.00288002524953643 0.971515366710064 0.0631380588515458 0.00499057795448427 0.93187136319397 0.031365915902549 0.00359061099735897 0.965043473100092 </TABLE>
</DEFINITION>

<DEFINITION>
	<FOR>Mileage</FOR>
	<GIVEN>DrivQuality</GIVEN>
	<GIVEN>Accident</GIVEN>
	<TABLE>0.398766078814351 0.401731951592407 0.0964570287466563 0.103044940846586 0.365806582689963 0.399939049167005 0.175639983746445 0.0586143843965868 0.503362174362833 0.323920812564657 0.129808144455939 0.0429088686165711 0.44553166470687 0.37296321182597 0.155257853183269 0.0262472702838905 0.394550901231135 0.405168491038249 0.0987145132340673 0.101566094496549 0.620786516853932 0.0814606741573034 0.216292134831461 0.0814606741573034 0.538256227758007 0.290569395017794 0.145373665480427 0.0258007117437722 0.452511773940345 0.264128728414443 0.226452119309262 0.0569073783359498 0.306739113607238 0.437814464732646 0.0391183376480403 0.216328084012075 0.477617379973124 0.346265830516757 0.148358920063526 0.0277578694465936 0.421535996783996 0.420826584059496 0.0594517421994159 0.0981856769570923 0.408112219982219 0.391433240254943 0.155373085736467 0.0450814540263708 </TABLE>
</DEFINITION>

<DEFINITION>
	<FOR>Antilock</FOR>
	<GIVEN>MakeModel</GIVEN>
	<GIVEN>VehicleYear</GIVEN>
	<TABLE>0.999998160283464 1.83971653647606e-06 0.998790219563878 0.00120978043612209 0.999997757153559 2.24284644127555e-06 0.597450904637035 0.402549095362965 0.693971692166638 0.306028307833362 0.00906697243810252 0.990933027561897 0.905206518950595 0.0947934810494052 0.095281408825791 0.904718591174209 0.892670157068063 0.107329842931937 0.00728660652324774 0.992713393476752 </TABLE>
</DEFINITION>

<DEFINITION>
	<FOR>DrivingSkill</FOR>
	<GIVEN>DrivQuality</GIVEN>
	<GIVEN>RiskAversion</GIVEN>
	<GIVEN>Age</GIVEN>
	<TABLE>0.999998939315593 5.30342203306684e-07 5.30342203306684e-07 0.999995099660651 2.45016967424994e-06 2.45016967424994e-06 0.999994236427507 2.88178624638696e-06 2.88178624638696e-06 0.999996368225606 1.81588719708732e-06 1.81588719708732e-06 0.999995716308229 2.14184588562115e-06 2.14184588562115e-06 0.999972847852944 1.35760735280142e-05 1.35760735280142e-05 0.998390999094566 0.0016060322690772 2.96863635688946e-06 0.993111511359686 0.0068568900685689 3.15985717445571e-05 0.997420765806724 0.00257329125734695 5.94293592920775e-06 0.840583271893176 0.159334807897108 8.19202097157369e-05 0.822729744426319 0.176726481783578 0.000543773790103317 0.843307314252674 0.156403584851113 0.000289100896212778 3.11337349585143e-06 0.999993773253008 3.11337349585143e-06 8.03735763830283e-06 0.999983925284723 8.03735763830283e-06 2.73920070123538e-05 0.999945215985975 2.73920070123538e-05 0.53084658944955 0.469149576532744 3.83401770549376e-06 0.303707966992051 0.69628950869248 2.52431546875276e-06 0.661676131474789 0.338289451041129 3.44174840819136e-05 0.642678907542376 0.35731855916381 2.53329381394984e-06 0.597806123732609 0.402168717135884 2.51591315067804e-05 0.730589458054937 0.269404602821084 5.93912397921307e-06 0.792864824426053 0.207088418197971 4.67573759760602e-05 0.911292517006803 0.0884353741496599 0.000272108843537415 0.84721568627451 0.152627450980392 0.000156862745098039 1.05940844751108e-06 1.05940844751108e-06 0.999997881183105 4.33277440543503e-06 4.33277440543503e-06 0.999991334451189 2.53885076381325e-06 2.53885076381325e-06 0.999994922298472 2.83068805534561e-06 2.83068805534561e-06 0.999994338623889 7.71587077459627e-06 7.71587077459627e-06 0.999984568258451 9.81864954294186e-06 9.81864954294186e-06 0.999980362700914 0.381100681916296 0.00171670225683541 0.617182615826869 0.265745437583814 0.0025304646959361 0.73172409772025 0.217641307577516 0.000180934785459483 0.782177757637025 0.476570307933096 0.0326035714959175 0.490826120570987 0.333333333333333 0.0684389587783844 0.598227707888282 0.293519132935191 0.0102695358169811 0.696211331247828 </TABLE>
</DEFINITION>

<DEFINITION>
	<FOR>SeniorTrain</FOR>
	<GIVEN>DrivQuality</GIVEN>
	<GIVEN>Age</GIVEN>
	<TABLE>0.999997845858232 2.15414176837806e-06 0.382431415023313 0.617568584976687 0.999989871571527 1.01284284730381e-05 0.999993988867382 6.01113261760781e-06 0.212376859082108 0.787623140917892 0.999975032457805 2.49675421951463e-05 0.999997062900914 2.93709908597476e-06 0.757997018282635 0.242002981717365 0.999994689325544 5.31067445565587e-06 </TABLE>
</DEFINITION>

<DEFINITION>
	<FOR>ThisCarCost</FOR>
	<GIVEN>CarValue</GIVEN>
	<GIVEN>Theft</GIVEN>
	<GIVEN>ThisCarDam</GIVEN>
	<TABLE>0.999999297042611 2.34319129532552e-07 2.34319129532552e-07 2.34319129532552e-07 0.0497170148072647 0.950280834849325 1.07517170492128e-06 1.07517170492128e-06 0.950043542198963 0.0499523500464176 2.05387730958503e-06 2.05387730958503e-06 0.238886848793498 0.761108319401629 2.41590243619602e-06 2.41590243619602e-06 0.384357005758157 0.61468330134357 0.000479846449136276 0.000479846449136276 0.00308641975308642 0.990740740740741 0.00308641975308642 0.00308641975308642 0.00206611570247934 0.993801652892562 0.00206611570247934 0.00206611570247934 0.00609756097560976 0.981707317073171 0.00609756097560976 0.00609756097560976 0.99999718807293 9.37309023286505e-07 9.37309023286505e-07 9.37309023286505e-07 1.15095990055706e-05 0.00185304543989687 0.998123935362092 1.15095990055706e-05 0.989134853155381 0.0108482097489922 8.46854781342096e-06 8.46854781342096e-06 0.00391826570968214 0.00782432498413163 0.988245202870954 1.22064352326547e-05 0.00206611570247934 0.00206611570247934 0.993801652892562 0.00206611570247934 0.00308641975308642 0.00308641975308642 0.990740740740741 0.00308641975308642 0.981707317073171 0.00609756097560976 0.00609756097560976 0.00609756097560976 0.00609756097560976 0.00609756097560976 0.981707317073171 0.00609756097560976 0.999998866454769 3.77848410240599e-07 3.77848410240599e-07 3.77848410240599e-07 0.00373421485290517 0.00513345226851366 0.991129417800632 2.91507794918436e-06 0.993100912812496 0.00689246300393477 3.31209178468754e-06 3.31209178468754e-06 0.00863218368267289 0.00549499029430795 0.98586792415835 4.90186466932021e-06 0.0589639970609846 0.0295738427626745 0.911278471711977 0.000183688464364438 0.00206611570247934 0.00206611570247934 0.993801652892562 0.00206611570247934 0.00206611570247934 0.00206611570247934 0.993801652892562 0.00206611570247934 0.0015527950310559 0.0015527950310559 0.995341614906832 0.0015527950310559 0.999998801765718 3.994114273207e-07 3.994114273207e-07 3.994114273207e-07 0.00697639503685551 0.993018761925979 2.4215185827336e-06 2.4215185827336e-06 0.944634557241919 0.0553579218122471 3.76047291707405e-06 3.76047291707405e-06 0.156129856950489 0.843860385238383 4.87890556390391e-06 4.87890556390391e-06 0.0372340425531915 0.962303422756707 0.000231267345050879 0.000231267345050879 0.00124378109452736 0.996268656716418 0.00124378109452736 0.00124378109452736 0.200248756218906 0.79726368159204 0.00124378109452736 0.00124378109452736 0.00124378109452736 0.996268656716418 0.00124378109452736 0.00124378109452736 0.999917044574715 2.76518084282712e-05 2.76518084282712e-05 2.76518084282712e-05 0.000260145681581686 0.000260145681581686 0.0418834547346514 0.957596253902185 0.999306197964847 0.000231267345050879 0.000231267345050879 0.000231267345050879 0.000415973377703827 0.000415973377703827 0.000415973377703827 0.998752079866889 0.25 0.25 0.25 0.25 0.25 0.25 0.25 0.25 0.25 0.25 0.25 0.25 0.25 0.25 0.25 0.25 </TABLE>
</DEFINITION>

<DEFINITION>
	<FOR>Theft</FOR>
	<GIVEN>HomeBase</GIVEN>
	<TABLE>0.996922954253862 0.00307704574613829 0.999763533387932 0.000236466612067872 0.999994705465019 5.29453498099262e-06 0.999890021262556 0.000109978737444094 </TABLE>
</DEFINITION>

<DEFINITION>
	<FOR>CarValue</FOR>
	<GIVEN>Mileage</GIVEN>
	<GIVEN>MakeModel</GIVEN>
	<GIVEN>VehicleYear</GIVEN>
	<TABLE>0.989895320776725 4.59220106493143e-07 4.59220106493143e-07 0.0101033015629556 4.59220106493143e-07 0.101842335190387 1.87897520692214e-06 0.111613006266382 0.786540900592817 1.87897520692214e-06 0.691719509424755 5.60913840829479e-07 0.0998432245814882 0.208436144166075 5.60913840829479e-07 1.01173102119071e-06 1.01173102119071e-06 0.893966542055129 0.106030422751807 1.01173102119071e-06 0.113516435255566 0.294591398939225 0.295942704638357 0.295942704638357 6.75652849565893e-06 1.77366287989642e-06 0.99999290534848 1.77366287989642e-06 1.77366287989642e-06 1.77366287989642e-06 0.397127502328244 0.0198238224212028 0.0936441076204065 0.478808280858844 0.0105962867713024 2.33751358679772e-06 0.0967754000070125 0.796626967894251 0.096307897289653 0.0102873972954968 0.000498753117206983 0.000498753117206983 0.000498753117206983 0.000498753117206983 0.998004987531172 9.08677873693776e-05 9.08677873693776e-05 9.08677873693776e-05 9.08677873693776e-05 0.999636528850522 0.696576528634442 4.5875663190056e-07 4.5875663190056e-07 0.303422095095662 4.5875663190056e-07 0.0943830113950244 1.87264164193219e-06 0.0898886714543871 0.815724571867305 1.87264164193219e-06 0.507466851580989 5.61480736999615e-07 0.194160600335204 0.298371425122333 5.61480736999615e-07 1.04057731229286e-06 1.04057731229286e-06 0.896978683773758 0.103018194494305 1.04057731229286e-06 0.0481807233312653 0.512397357760666 0.302186051603956 0.137228568300427 7.29900368599686e-06 1.78889276482321e-06 0.999992844428941 1.78889276482321e-06 1.78889276482321e-06 1.78889276482321e-06 0.144855603932701 0.0286394552159905 0.30502743067407 0.510486925683269 0.0109905844939686 2.35402125681195e-06 0.084747119266487 0.804606819599581 0.100283659561446 0.0103600475512294 0.000711743772241993 0.000711743772241993 0.000711743772241993 0.000711743772241993 0.997153024911032 9.61076405574243e-05 9.61076405574243e-05 9.61076405574243e-05 9.61076405574243e-05 0.99961556943777 0.99999240705764 1.89823559001908e-06 1.89823559001908e-06 1.89823559001908e-06 1.89823559001908e-06 0.0915737073507503 7.26717779150467e-06 0.123549289633371 0.784862468660296 7.26717779150467e-06 0.986231843854374 2.21923857924346e-06 2.21923857924346e-06 0.0137614984298887 2.21923857924346e-06 4.12532744786617e-06 4.12532744786617e-06 0.894375116024835 0.105612507992822 4.12532744786617e-06 0.211918556530376 0.32448270153948 0.304618440655521 0.15894719417315 3.3107101473266e-05 7.19398582784792e-06 0.999971224056689 7.19398582784792e-06 7.19398582784792e-06 7.19398582784792e-06 0.912900921737356 0.00816979014319241 0.0190537736811673 0.0489847284105983 0.0108907860276861 9.41575255402288e-06 0.0772185866955416 0.815413586930935 0.103582693846806 0.00377571677416318 0.00487804878048781 0.00487804878048781 0.00487804878048781 0.00487804878048781 0.980487804878049 0.000293685756240822 0.000293685756240822 0.000293685756240822 0.000293685756240822 0.998825256975037 0.2491834495516 1.81354902476401e-06 0.0569472529266147 0.693865670423736 1.81354902476401e-06 0.0960670839730719 7.87370575961576e-06 0.0850438959096099 0.818873272705799 7.87370575961576e-06 0.207564075145485 2.25121284091804e-06 0.492117378237525 0.300314044191308 2.25121284091804e-06 4.14585103957215e-06 4.14585103957215e-06 0.904628842685682 0.095358719761199 4.14585103957215e-06 0.00594586599615441 0.698151161070847 0.177518118621506 0.118355272888626 2.95814228664399e-05 6.62229727492467e-06 0.9999735108109 6.62229727492467e-06 6.62229727492467e-06 6.62229727492467e-06 0.0148310366901385 0.048522623900812 0.642842222297092 0.2830160708871 0.0107880462248577 9.29324845499744e-06 0.100376376562427 0.769490265322243 0.124538822545421 0.00558524232145346 0.00487804878048781 0.00487804878048781 0.00487804878048781 0.00487804878048781 0.980487804878049 0.000249687890137328 0.000249687890137328 0.000249687890137328 0.000249687890137328 0.999001248439451 </TABLE>
</DEFINITION>

<DEFINITION>
	<FOR>HomeBase</FOR>
	<GIVEN>RiskAversion</GIVEN>
	<GIVEN>SocioEcon</GIVEN>
	<TABLE>0.797036313703862 0.0517384340494332 9.44390509253138e-07 0.151224307856196 8.73145874735e-07 0.596981185452691 0.298854257983173 0.104163683418261 1.80969271417713e-06 0.391706178290926 0.506368308661189 0.10192370335517 4.28008902585174e-05 4.28008902585174e-05 0.843733949666153 0.15618044855333 0.803044283493733 0.0499536991103615 1.6536032013758e-06 0.147000363792704 2.15485661584078e-06 0.0235849056603774 0.952828033822629 0.0235849056603774 3.18418605835976e-06 3.18418605835976e-06 0.999990447441825 3.18418605835976e-06 5.93965312425754e-05 5.93965312425754e-05 0.999821810406272 5.93965312425754e-05 0.797707545007909 0.0487401698032004 1.3973271925461e-06 0.153550887861698 0.251534624976021 0.592367524412412 0.00862541448576361 0.147472436125803 0.403402694444101 0.287410463548303 0.204276100107629 0.104910741899967 5.98515681110845e-05 5.98515681110845e-05 0.923210438113479 0.0766698587502993 0.803075666848122 0.0592542188350572 2.72182906913446e-05 0.13764289602613 0.794108094062622 0.0249772638690399 0.168409770040275 0.0125048720280629 0.645527296645472 0.0456588467441351 0.291219030914273 0.0175948256961193 0.57 0.00111111111111111 0.427777777777778 0.00111111111111111 </TABLE>
</DEFINITION>

<DEFINITION>
	<FOR>AntiTheft</FOR>
	<GIVEN>RiskAversion</GIVEN>
	<GIVEN>SocioEcon</GIVEN>
	<TABLE>0.898578125649268 0.101421874350732 0.70036253016719 0.29963746983281 0.103546997719787 0.896453002280213 0.197312104091765 0.802687895908235 0.0499553527135629 0.950044647286437 4.30971323168156e-06 0.999995690286768 6.36837211671952e-06 0.999993631627883 0.000118793062485151 0.999881206937515 0.999997205345615 2.7946543850922e-06 0.999995432663762 4.56733623815918e-06 0.793741417490381 0.206258582509619 0.482762748384008 0.517237251615992 0.999945563418617 5.44365813826892e-05 0.999935039625828 6.49603741717552e-05 0.94376233282175 0.0562376671782504 0.5 0.5 </TABLE>
</DEFINITION>

<DEFINITION>
	<FOR>PropCost</FOR>
	<GIVEN>OtherCarCost</GIVEN>
	<GIVEN>ThisCarCost</GIVEN>
	<TABLE>0.699249708366446 0.30074985926357 2.16184992091953e-07 2.16184992091953e-07 4.33177966835895e-06 0.953966177464349 0.0460251589763138 4.33177966835895e-06 1.03063033351198e-05 1.03063033351198e-05 0.978861771859669 0.0211176155336604 0.000915750915750916 0.000915750915750916 0.000915750915750916 0.997252747252747 1.84243496204584e-05 1.84243496204584e-05 0.978719876188371 0.0212432751123885 4.14779420304282e-06 4.14779420304282e-06 0.806468070280225 0.193523634131369 1.11046950650735e-05 1.11046950650735e-05 0.599131612845911 0.400846177763959 0.0015527950310559 0.0015527950310559 0.0015527950310559 0.995341614906832 1.77746178457163e-05 0.945343050124422 0.0546214006398862 1.77746178457163e-05 3.80627578751846e-06 0.606328314124328 0.393664073324097 3.80627578751846e-06 1.00542931831892e-05 1.00542931831892e-05 0.955570078423487 0.0444098129901468 0.00141242937853107 0.00141242937853107 0.00141242937853107 0.995762711864407 0.0147058823529412 0.0147058823529412 0.0147058823529412 0.955882352941177 0.0147058823529412 0.0147058823529412 0.0147058823529412 0.955882352941177 0.0147058823529412 0.0147058823529412 0.0147058823529412 0.955882352941177 0.25 0.25 0.25 0.25 </TABLE>
</DEFINITION>

<DEFINITION>
	<FOR>OtherCarCost</FOR>
	<GIVEN>Accident</GIVEN>
	<GIVEN>RuggedAuto</GIVEN>
	<TABLE>0.999997212320799 9.29226400437108e-07 9.29226400437108e-07 9.29226400437108e-07 0.999993959066636 2.0136444548259e-06 2.0136444548259e-06 2.0136444548259e-06 0.999998016193154 6.61268948661724e-07 6.61268948661724e-07 6.61268948661724e-07 0.0958556180956162 0.392093093864587 0.511765186724899 0.000286101314898288 0.00368227919066306 0.447084756128638 0.54860863360685 0.000624331073849447 0.201670276508624 0.396696599370781 0.40143945741704 0.000193666703555563 0.978469426732877 0.0119957100461317 0.00952751740957306 7.34581141832927e-06 0.945009483942704 0.0235626921315979 0.0314114723003467 1.63516253515599e-05 0.98932717315459 0.00431882096716216 0.00634871968367412 5.28619457424989e-06 0.504510330375561 0.289193215677286 0.206288268229593 8.18571756000131e-06 0.394443616307669 0.28264515167325 0.322892598941641 1.86330774390698e-05 0.601799119855035 0.191472713152755 0.206722283670252 5.88332195891088e-06 </TABLE>
</DEFINITION>

<DEFINITION>
	<FOR>OtherCar</FOR>
	<GIVEN>SocioEcon</GIVEN>
	<TABLE>0.496980152449322 0.503019847550679 0.200193259776558 0.799806740223442 0.102293644802882 0.897706355197118 0.0433158040409632 0.956684195959037 </TABLE>
</DEFINITION>

<DEFINITION>
	<FOR>MedCost</FOR>
	<GIVEN>Cushioning</GIVEN>
	<GIVEN>ThisCarDam</GIVEN>
	<TABLE>0.999813750023878 9.55128082675887e-07 9.55128082675887e-07 0.000184339719956446 0.519260908621777 0.178288832399992 0.10397832610233 0.198471932875901 0.974362472261632 0.00233729855578595 0.00117319655134781 0.0221270326312343 0.777382003110158 0.0524629092590258 0.0356512419619216 0.134503845668894 0.999293517924068 0.000264759302242635 1.37180985617945e-06 0.000440350963833605 0.931377996507382 0.0118669630100016 0.0144070487378949 0.0423479917447214 0.984258869723741 0.00300331884261207 0.000759594259804609 0.0119782171738419 0.972750096562379 0.00619930475086906 0.00743530320587099 0.0136152954808806 0.999061534806367 0.000176362008151032 0.000117879269696804 0.000644223915784857 0.862377185147378 0.0249138701033559 0.0118476457828251 0.100861298966441 0.970088649675479 0.00507361089124584 0.00355390216875099 0.0212838372645243 0.943021482140587 0.0237384009152155 0.00950171602898182 0.0237384009152155 0.999902460381045 7.4457724393244e-07 7.4457724393244e-07 9.60504644672848e-05 0.308038030026826 0.210339691432128 0.192317667807864 0.289304610733182 0.951263320958308 0.015818220667183 0.0025707112523704 0.0303477471221388 0.547110696639508 0.173824482183175 0.102622623605249 0.176442197572069 </TABLE>
</DEFINITION>

<DEFINITION>
	<FOR>Cushioning</FOR>
	<GIVEN>Airbag</GIVEN>
	<GIVEN>RuggedAuto</GIVEN>
	<TABLE>0.595681001043828 3.2216910011727e-06 0.307275222618848 0.0970405546463228 5.60550684992937e-06 0.305259086526604 0.694729702459696 5.60550684992937e-06 0.301972155247016 1.36067010281223e-06 1.36067010281223e-06 0.698025123412778 0.099155193143911 0.298762848386776 0.602079698418869 2.26005044432592e-06 6.00369827813933e-06 0.999981988905166 6.00369827813933e-06 6.00369827813933e-06 0.297374017624699 3.05559969199555e-06 0.202332644804869 0.50029028197074 </TABLE>
</DEFINITION>

<DEFINITION>
	<FOR>Airbag</FOR>
	<GIVEN>MakeModel</GIVEN>
	<GIVEN>VehicleYear</GIVEN>
	<TABLE>0.952533473642381 0.0474665263576188 7.51416419951609e-06 0.9999924858358 0.796123015641611 0.203876984358389 4.11011828920436e-06 0.999995889881711 0.383387771474414 0.616612228525586 7.07804249656715e-06 0.999992921957503 0.899940589514049 0.100059410485951 9.37716847020874e-06 0.99999062283153 0.945026178010471 0.0549738219895288 0.000346981263011797 0.999653018736988 </TABLE>
</DEFINITION>

<DEFINITION>
	<FOR>ILiCost</FOR>
	<GIVEN>Accident</GIVEN>
	<TABLE>0.999997082676936 9.72441021452049e-07 9.72441021452049e-07 9.72441021452049e-07 0.805027806286846 0.0954781965295845 0.0583394992481562 0.041154497935413 0.999231485794131 0.000752988666356156 7.76276975624903e-06 7.76276975624903e-06 0.900449387514314 0.051089634590693 0.0299909775479752 0.0184700003470174 </TABLE>
</DEFINITION>

<DEFINITION>
	<FOR>DrivHist</FOR>
	<GIVEN>DrivingSkill</GIVEN>
	<GIVEN>RiskAversion</GIVEN>
	<TABLE>0.901924363723943 0.069650401765884 0.0284252345101728 0.950461316664147 0.0412544833494372 0.00828419998641575 0.498722576385057 0.304004662097634 0.197272761517309 0.105073699367209 0.302868402106779 0.592057898526013 0.98878704723503 0.0112067302606607 6.22250430908423e-06 0.999985295306997 7.35234650138592e-06 7.35234650138592e-06 0.61346848625799 0.277516930682932 0.109014583059078 0.33019114951558 0.24535218643624 0.42445666404818 0.0298833164074229 0.148307313332071 0.821809370260506 0.304211752271596 0.301625903636093 0.394162344092311 0.00213745221936189 0.0103377798580232 0.987524767922615 0.00199536213126247 0.0039367955562746 0.994067842312463 </TABLE>
</DEFINITION>

</NETWORK>
</BIF>
