<?xml version="1.0" encoding="UTF-8"?>

<!-- DTD for the XMLBIF 0.3 format -->
<!DOCTYPE BIF [
<!ELEMENT BIF ( NETWORK )*>
<!ATTLIST BIF VERSION CDATA #REQUIRED>
   <!ELEMENT NETWORK ( NAME, ( PROPERTY | VARIABLE | DEFINITION )* )>
      <!ELEMENT NAME (#PCDATA)>
        <!ELEMENT VARIABLE ( NAME, ( OUTCOME |  PROPERTY )* ) >
          <!ATTLIST VARIABLE TYPE (nature|decision|utility) "nature">
           <!ELEMENT OUTCOME (#PCDATA)>
            <!ELEMENT DEFINITION ( FOR | GIVEN | TABLE | PROPERTY )* >
              <!ELEMENT FOR (#PCDATA)>
                <!ELEMENT GIVEN (#PCDATA)>
                  <!ELEMENT TABLE (#PCDATA)>
                    <!ELEMENT PROPERTY (#PCDATA)>
                      ]>
<BIF VERSION="0.3">
<NETWORK>
<NAME>Reco</NAME>
<VARIABLE TYPE="nature">
	<NAME>GoodStudent</NAME>
	<OUTCOME>True</OUTCOME>
	<OUTCOME>False</OUTCOME>
</VARIABLE>

<VARIABLE TYPE="nature">
	<NAME>Age</NAME>
	<OUTCOME>Senior</OUTCOME>
	<OUTCOME>Adult</OUTCOME>
	<OUTCOME>Adolescent</OUTCOME>
</VARIABLE>

<VARIABLE TYPE="nature">
	<NAME>SocioEcon</NAME>
	<OUTCOME>UpperMiddle</OUTCOME>
	<OUTCOME>Prole</OUTCOME>
	<OUTCOME>Middle</OUTCOME>
	<OUTCOME>Wealthy</OUTCOME>
</VARIABLE>

<VARIABLE TYPE="nature">
	<NAME>RiskAversion</NAME>
	<OUTCOME>Cautious</OUTCOME>
	<OUTCOME>Psychopath</OUTCOME>
	<OUTCOME>Normal</OUTCOME>
	<OUTCOME>Adventurous</OUTCOME>
</VARIABLE>

<VARIABLE TYPE="nature">
	<NAME>VehicleYear</NAME>
	<OUTCOME>Current</OUTCOME>
	<OUTCOME>Older</OUTCOME>
</VARIABLE>

<VARIABLE TYPE="nature">
	<NAME>ThisCarDam</NAME>
	<OUTCOME>Severe</OUTCOME>
	<OUTCOME>Moderate</OUTCOME>
	<OUTCOME>Mild</OUTCOME>
</VARIABLE>

<VARIABLE TYPE="nature">
	<NAME>RuggedAuto</NAME>
	<OUTCOME>EggShell</OUTCOME>
	<OUTCOME>Football</OUTCOME>
	<OUTCOME>Tank</OUTCOME>
</VARIABLE>

<VARIABLE TYPE="nature">
	<NAME>Accident</NAME>
	<OUTCOME>Severe</OUTCOME>
	<OUTCOME>None</OUTCOME>
	<OUTCOME>Moderate</OUTCOME>
	<OUTCOME>Mild</OUTCOME>
</VARIABLE>

<VARIABLE TYPE="nature">
	<NAME>MakeModel</NAME>
	<OUTCOME>Luxury</OUTCOME>
	<OUTCOME>Economy</OUTCOME>
	<OUTCOME>FamilySedan</OUTCOME>
	<OUTCOME>SportsCar</OUTCOME>
	<OUTCOME>SuperLuxury</OUTCOME>
</VARIABLE>

<VARIABLE TYPE="nature">
	<NAME>DrivQuality</NAME>
	<OUTCOME>Excellent</OUTCOME>
	<OUTCOME>Normal</OUTCOME>
	<OUTCOME>Poor</OUTCOME>
</VARIABLE>

<VARIABLE TYPE="nature">
	<NAME>Mileage</NAME>
	<OUTCOME>Domino</OUTCOME>
	<OUTCOME>FiftyThou</OUTCOME>
	<OUTCOME>FiveThou</OUTCOME>
</VARIABLE>

<VARIABLE TYPE="nature">
	<NAME>Antilock</NAME>
	<OUTCOME>False</OUTCOME>
	<OUTCOME>True</OUTCOME>
</VARIABLE>

<VARIABLE TYPE="nature">
	<NAME>DrivingSkill</NAME>
	<OUTCOME>Expert</OUTCOME>
	<OUTCOME>Normal</OUTCOME>
	<OUTCOME>SubStandard</OUTCOME>
</VARIABLE>

<VARIABLE TYPE="nature">
	<NAME>SeniorTrain</NAME>
	<OUTCOME>True</OUTCOME>
	<OUTCOME>False</OUTCOME>
</VARIABLE>

<VARIABLE TYPE="nature">
	<NAME>ThisCarCost</NAME>
	<OUTCOME>Million</OUTCOME>
	<OUTCOME>Thousand</OUTCOME>
	<OUTCOME>TenThou</OUTCOME>
	<OUTCOME>HundredThou</OUTCOME>
</VARIABLE>

<VARIABLE TYPE="nature">
	<NAME>Theft</NAME>
	<OUTCOME>True</OUTCOME>
	<OUTCOME>False</OUTCOME>
</VARIABLE>

<VARIABLE TYPE="nature">
	<NAME>CarValue</NAME>
	<OUTCOME>TenThou</OUTCOME>
	<OUTCOME>Million</OUTCOME>
	<OUTCOME>FiftyThou</OUTCOME>
	<OUTCOME>FiveThou</OUTCOME>
	<OUTCOME>TwentyThou</OUTCOME>
</VARIABLE>

<VARIABLE TYPE="nature">
	<NAME>HomeBase</NAME>
	<OUTCOME>City</OUTCOME>
	<OUTCOME>Secure</OUTCOME>
	<OUTCOME>Suburb</OUTCOME>
	<OUTCOME>Rural</OUTCOME>
</VARIABLE>

<VARIABLE TYPE="nature">
	<NAME>AntiTheft</NAME>
	<OUTCOME>False</OUTCOME>
	<OUTCOME>True</OUTCOME>
</VARIABLE>

<VARIABLE TYPE="nature">
	<NAME>PropCost</NAME>
	<OUTCOME>TenThou</OUTCOME>
	<OUTCOME>Million</OUTCOME>
	<OUTCOME>HundredThou</OUTCOME>
	<OUTCOME>Thousand</OUTCOME>
</VARIABLE>

<VARIABLE TYPE="nature">
	<NAME>OtherCarCost</NAME>
	<OUTCOME>TenThou</OUTCOME>
	<OUTCOME>HundredThou</OUTCOME>
	<OUTCOME>Million</OUTCOME>
	<OUTCOME>Thousand</OUTCOME>
</VARIABLE>

<VARIABLE TYPE="nature">
	<NAME>OtherCar</NAME>
	<OUTCOME>False</OUTCOME>
	<OUTCOME>True</OUTCOME>
</VARIABLE>

<VARIABLE TYPE="nature">
	<NAME>MedCost</NAME>
	<OUTCOME>Thousand</OUTCOME>
	<OUTCOME>HundredThou</OUTCOME>
	<OUTCOME>TenThou</OUTCOME>
	<OUTCOME>Million</OUTCOME>
</VARIABLE>

<VARIABLE TYPE="nature">
	<NAME>Cushioning</NAME>
	<OUTCOME>Excellent</OUTCOME>
	<OUTCOME>Fair</OUTCOME>
	<OUTCOME>Poor</OUTCOME>
</VARIABLE>

<VARIABLE TYPE="nature">
	<NAME>Airbag</NAME>
	<OUTCOME>False</OUTCOME>
	<OUTCOME>True</OUTCOME>
</VARIABLE>

<VARIABLE TYPE="nature">
	<NAME>ILiCost</NAME>
	<OUTCOME>Million</OUTCOME>
	<OUTCOME>Thousand</OUTCOME>
	<OUTCOME>HundredThou</OUTCOME>
	<OUTCOME>TenThou</OUTCOME>
</VARIABLE>

<VARIABLE TYPE="nature">
	<NAME>DrivHist</NAME>
	<OUTCOME>Zero</OUTCOME>
	<OUTCOME>One</OUTCOME>
	<OUTCOME>Many</OUTCOME>
</VARIABLE>

<DEFINITION>
	<FOR>GoodStudent</FOR>
	<GIVEN>OtherCarCost</GIVEN>
	<GIVEN>PropCost</GIVEN>
	<GIVEN>ThisCarDam</GIVEN>
	<TABLE>0.89984990619137 0.10015009380863 0.602930664760543 0.397069335239457 0.416678721249819 0.583321278750181 0.787170396631952 0.212829603368048 0.630727330983659 0.369272669016341 0.414648602878916 0.585351397121084 0.273156899810964 0.726843100189036 0.268410360589132 0.731589639410868 0.375020341741253 0.624979658258747 0.827968417856058 0.172031582143942 0.823133414932681 0.176866585067319 0.832755632582322 0.167244367417678 0.952259112846506 0.0477408871534936 0.769122947537044 0.230877052462956 0.967173226329719 0.0328267736702809 0.86471039163078 0.13528960836922 0.624732497707123 0.375267502292877 0.480460082054884 0.519539917945116 0.698087252718459 0.301912747281541 0.375423904768496 0.624576095231504 0.398469053814594 0.601530946185406 0.590133151246159 0.409866848753841 0.00173010380622837 0.998269896193772 0.0560693641618497 0.94393063583815 0.766303289857894 0.233696710142106 0.535687732342007 0.464312267657993 0.333910034602076 0.666089965397924 0.794057586277313 0.205942413722687 0.449001274968126 0.550998725031874 0.666584035696579 0.333415964303421 0.989795918367347 0.0102040816326531 0.994845360824742 0.00515463917525773 0.273156899810964 0.726843100189036 0.251295336787565 0.748704663212435 0.5 0.5 0.5 0.5 0.841730558598028 0.158269441401971 0.0102040816326531 0.989795918367347 0.908317580340265 0.0916824196597354 0.853478923311326 0.146521076688674 0.649921915668922 0.350078084331078 0.602710413694722 0.397289586305278 0.286350148367952 0.713649851632047 0.154123298638911 0.845876701361089 0.1936513268391 0.8063486731609 0.928252788104089 0.0717472118959108 0.545411542100284 0.454588457899716 0.486494091164885 0.513505908835115 </TABLE>
</DEFINITION>

<DEFINITION>
	<FOR>Age</FOR>
	<TABLE>0.739066029700404 0.133911046920713 0.127022923378884 </TABLE>
</DEFINITION>

<DEFINITION>
	<FOR>SocioEcon</FOR>
	<GIVEN>HomeBase</GIVEN>
	<GIVEN>MakeModel</GIVEN>
	<TABLE>0.369573658980745 0.608453174794462 6.69505369433063e-06 0.0219664711710988 0.42853786882165 0.496194324375117 4.69836496899079e-05 0.0752208231535426 0.0993876199933797 0.893826547500828 8.27540549486925e-05 0.00670307845084409 0.737159380513625 0.0510194079592237 4.90099980396001e-05 0.211772201529112 0.312305295950156 0.187694704049844 0.000778816199376947 0.499221183800623 0.196295597268453 0.755644967571463 0.0480508561820116 8.57897807213205e-06 0.165670039865072 0.815777368905244 0.0184759276295615 7.66636001226618e-05 0.0373331263582738 0.900419124495498 0.0621701334989134 7.76156473144986e-05 0.669989367357788 0.159622541201489 0.00013290802764487 0.170255183413078 0.299751243781095 0.498756218905473 0.00124378109452736 0.200248756218905 0.200206833154589 0.652686277513917 0.136880138910168 0.0102267504213268 0.27939015429831 0.602681851579721 0.0736590742101396 0.0442689199118295 0.000105887335874629 0.677784836933503 0.322003388394748 0.000105887335874629 0.662070084360805 0.0780337443218689 0.0261194029850746 0.233776768332252 0.25 0.25 0.16701244813278 0.33298755186722 0.126322849115988 0.453312139583025 0.412755328362307 0.00760968293867895 0.188247402470104 0.49014899039404 0.29410899823564 0.0274946089002156 0.0189254323787922 0.576528683489273 0.400741895851054 0.00380398828088082 0.661826821541711 0.105684618092221 0.0704857444561774 0.162002815909891 0.230842911877395 0.0775862068965517 0.53735632183908 0.154214559386973 </TABLE>
</DEFINITION>

<DEFINITION>
	<FOR>RiskAversion</FOR>
	<GIVEN>Cushioning</GIVEN>
	<GIVEN>Theft</GIVEN>
	<GIVEN>ThisCarCost</GIVEN>
	<TABLE>0.99992089442042 2.63685265267377e-05 2.63685265267377e-05 2.63685265267377e-05 5.15570220664054e-05 5.15570220664054e-05 0.950350587750052 0.0495462982058156 6.66435635646309e-06 6.66435635646309e-06 0.999980006930931 6.66435635646309e-06 0.140414465144341 4.57063458690605e-06 0.845096623215167 0.0144843410059053 0.999681257968551 0.000106247343816405 0.000106247343816405 0.000106247343816405 0.00257731958762887 0.00257731958762887 0.00257731958762887 0.992268041237113 0.25 0.25 0.25 0.25 0.901694569211923 0.000102082482645978 0.000102082482645978 0.0981012658227848 0.414668646621431 0.58532051421015 5.41958420949945e-06 5.41958420949945e-06 8.39771582129661e-05 0.838511924756466 8.39771582129661e-05 0.161320120927108 8.77531678893608e-06 0.999973674049633 8.77531678893608e-06 8.77531678893608e-06 0.25 0.25 0.25 0.25 0.999883846987765 3.8717670744928e-05 3.8717670744928e-05 3.8717670744928e-05 0.00342465753424658 0.00342465753424658 0.00342465753424658 0.98972602739726 0.25 0.25 0.25 0.25 0.25 0.25 0.25 0.25 1.30527854644181e-05 0.999960841643607 1.30527854644181e-05 1.30527854644181e-05 0.000204081632653061 0.0197959183673469 0.979795918367347 0.000204081632653061 0.25 0.25 0.25 0.25 0.25 0.25 0.25 0.25 0.25 0.25 0.25 0.25 0.00342465753424658 0.00342465753424658 0.00342465753424658 0.98972602739726 0.25 0.25 0.25 0.25 0.25 0.25 0.25 0.25 </TABLE>
</DEFINITION>

<DEFINITION>
	<FOR>VehicleYear</FOR>
	<GIVEN>MakeModel</GIVEN>
	<GIVEN>RuggedAuto</GIVEN>
	<GIVEN>SocioEcon</GIVEN>
	<TABLE>0.876398086515381 0.123601913484619 0.241985592236054 0.758014407763946 0.41363271381289 0.58636728618711 0.5208261020479 0.4791738979521 0.775081989157352 0.224918010842648 0.146912272161052 0.853087727838948 0.336295258461765 0.663704741538235 0.300332778702163 0.699667221297837 0.946471435429669 0.0535285645703313 0.603135159373716 0.396864840626285 0.624979971158468 0.375020028841532 0.545385779122542 0.454614220877458 0.5 0.5 0.5 0.5 0.5 0.5 0.5 0.5 0.674663722144148 0.325336277855852 0.0769501955002884 0.923049804499712 0.210653222270934 0.789346777729066 0.312695109261186 0.687304890738814 0.895947207039061 0.104052792960939 0.23979144332911 0.76020855667089 0.533320992225102 0.466679007774898 0.785374554102259 0.214625445897741 0.000268672756582483 0.999731327243418 1.25310142602942e-05 0.99998746898574 3.20492276136145e-05 0.999967950772386 0.00276243093922652 0.997237569060774 0.5 0.5 0.5 0.5 0.5 0.5 0.5 0.5 0.5 0.5 0.5 0.5 0.5 0.5 0.5 0.5 0.000173550850399167 0.999826449149601 0.5 0.5 0.5 0.5 0.000438212094653812 0.999561787905346 0.000346981263011797 0.999653018736988 0.000438212094653812 0.999561787905346 0.00166112956810631 0.998338870431894 0.00075642965204236 0.999243570347958 2.57188416233733e-05 0.999974281158377 0.000277623542476402 0.999722376457524 0.00118764845605701 0.998812351543943 0.00010285949393129 0.999897140506069 0.999405469678954 0.000594530321046373 0.999306518723994 0.000693481276005548 0.999075785582255 0.000924214417744917 0.999479708636837 0.000520291363163372 0.5 0.5 0.5 0.5 0.5 0.5 0.5 0.5 0.5 0.5 0.5 0.5 0.5 0.5 0.5 0.5 </TABLE>
</DEFINITION>

<DEFINITION>
	<FOR>ThisCarDam</FOR>
	<GIVEN>PropCost</GIVEN>
	<GIVEN>RuggedAuto</GIVEN>
	<TABLE>0.841331893078202 0.0376695300310341 0.120998576890763 0.745227026868988 0.0842323772768471 0.170540595854165 0.612528871612867 0.292096219931271 0.0953749084558616 0.445319063683483 0.14472578748045 0.409955148836067 0.17517959160586 0.177215905877029 0.647604502517111 0.16980378052192 0.335251568556928 0.494944650921153 0.109559043865108 0.164327040545836 0.726113915589056 0.0604731741649071 0.191056250338368 0.748470575496725 0.0447144392098521 0.22026613769733 0.735019423092818 0.796754317452052 0.065694697561399 0.137550984986549 0.860636146350432 0.0465159036587608 0.0928479499908071 0.661981981981982 0.220900900900901 0.117117117117117 </TABLE>
</DEFINITION>

<DEFINITION>
	<FOR>RuggedAuto</FOR>
	<GIVEN>Age</GIVEN>
	<TABLE>0.633929615339647 0.297205658833158 0.0688647258271951 0.893620943952802 0.106286873156342 9.21828908554572e-05 9.71817298347911e-05 9.71817298347911e-05 0.999805636540331 </TABLE>
</DEFINITION>

<DEFINITION>
	<FOR>Accident</FOR>
	<GIVEN>ThisCarDam</GIVEN>
	<GIVEN>VehicleYear</GIVEN>
	<GIVEN>SocioEcon</GIVEN>
	<TABLE>0.955353396079372 1.49871110844674e-05 0.0446166296984593 1.49871110844674e-05 0.811384017141497 0.144770256328863 0.0438258868343782 1.98396952622808e-05 0.0001051745898191 0.0001051745898191 0.0001051745898191 0.999684476230543 0.822827417380661 0.1765605875153 0.000305997552019584 0.000305997552019584 0.979958506224066 4.149377593361e-05 0.0199585062240664 4.149377593361e-05 0.64300732688176 0.350813485869585 0.00617459647060984 4.59077804506308e-06 4.93583415597236e-05 4.93583415597236e-05 4.93583415597236e-05 0.999851924975321 0.593526350032531 0.406148340923878 0.000162654521795706 0.000162654521795706 0.218259216399405 4.13291453132749e-05 0.781658125309969 4.13291453132749e-05 0.191975079040357 0.138413613539148 0.669564813092803 4.64943276920216e-05 0.000226244343891403 0.000226244343891403 0.000226244343891403 0.999321266968326 0.532548476454294 0.46606648199446 0.000692520775623269 0.000692520775623269 0.463027676824154 6.98909700866648e-05 0.536832541235672 6.98909700866648e-05 0.0714425561907745 0.650344584540685 0.278193280601457 1.95786670843449e-05 0.000167897918065816 0.000167897918065816 0.000167897918065816 0.999496306245803 0.0393877551020408 0.960204081632653 0.000204081632653061 0.000204081632653061 0.0736576503835285 2.0185708518369e-05 0.203492127573678 0.722830036334275 0.0727496528216134 0.0303307663173842 0.218185835121828 0.678733745739174 2.67751954589268e-05 2.67751954589268e-05 2.67751954589268e-05 0.999919674413623 0.117970660146699 0.000611246943765281 0.000611246943765281 0.88080684596577 0.124533960123197 4.05252066785541e-05 0.214013616469444 0.661411898200681 0.0579184367034834 0.185972812234494 0.0693372982158029 0.686771452846219 1.41139276237791e-05 1.41139276237791e-05 1.41139276237791e-05 0.999957658217129 0.0834778837814397 0.27081526452732 0.000216825672159584 0.645490026019081 </TABLE>
</DEFINITION>

<DEFINITION>
	<FOR>MakeModel</FOR>
	<GIVEN>RuggedAuto</GIVEN>
	<GIVEN>Age</GIVEN>
	<TABLE>0.999978921852769 5.2695368077146e-06 5.2695368077146e-06 5.2695368077146e-06 5.2695368077146e-06 2.0631318341242e-05 2.0631318341242e-05 0.89036517433464 0.0622240561171859 0.0473695069114917 0.2 0.2 0.2 0.2 0.2 0.834056423513544 0.165909857255255 1.12397437338429e-05 1.12397437338429e-05 1.12397437338429e-05 0.000173460537727667 0.538768430182134 0.000173460537727667 0.460711188204683 0.000173460537727667 0.2 0.2 0.2 0.2 0.2 0.622168324035896 0.377686150861023 4.85083676934271e-05 4.85083676934271e-05 4.85083676934271e-05 0.2 0.2 0.2 0.2 0.2 0.454043545878694 0.159234059097978 1.94401244167963e-05 0.386683514774495 1.94401244167963e-05 </TABLE>
</DEFINITION>

<DEFINITION>
	<FOR>DrivQuality</FOR>
	<GIVEN>OtherCarCost</GIVEN>
	<GIVEN>Age</GIVEN>
	<TABLE>0.773245933479 0.22673978549905 1.42810219499307e-05 0.000100979501161264 0.999798040997678 0.000100979501161264 0.839879393795128 0.160041260017456 7.93461874156947e-05 0.361520196104786 0.638473403608482 6.40028673284563e-06 3.46752661326676e-05 0.999930649467735 3.46752661326676e-05 0.773619841153827 0.226331433026361 4.87258198119183e-05 0.333333333333333 0.333333333333333 0.333333333333333 0.00021519259737465 0.00021519259737465 0.999569614805251 0.999750965010584 0.000124517494708006 0.000124517494708006 0.411426409383277 7.56715853197124e-05 0.588497919031404 0.333333333333333 0.333333333333333 0.333333333333333 0.333333333333333 0.333333333333333 0.333333333333333 </TABLE>
</DEFINITION>

<DEFINITION>
	<FOR>Mileage</FOR>
	<GIVEN>DrivHist</GIVEN>
	<GIVEN>ThisCarCost</GIVEN>
	<TABLE>0.289661362709098 0.710322317421461 1.63198694410445e-05 0.00392156862745098 0.992156862745098 0.00392156862745098 0.361826680405597 0.638158385974344 1.49336200588385e-05 0.333333333333333 0.333333333333333 0.333333333333333 1.56047625735374e-05 0.999968790474853 1.56047625735374e-05 7.30833881458744e-05 0.15004019586348 0.849886720748374 0.333333333333333 0.333333333333333 0.333333333333333 0.333333333333333 0.333333333333333 0.333333333333333 0.333333333333333 0.333333333333333 0.333333333333333 0.333333333333333 0.333333333333333 0.333333333333333 0.999937583871672 3.12080641637799e-05 3.12080641637799e-05 0.999976667949929 1.16660250352897e-05 1.16660250352897e-05 </TABLE>
</DEFINITION>

<DEFINITION>
	<FOR>Antilock</FOR>
	<GIVEN>RuggedAuto</GIVEN>
	<GIVEN>VehicleYear</GIVEN>
	<GIVEN>SocioEcon</GIVEN>
	<TABLE>0.46445123990635 0.53554876009365 0.3771714841779 0.622828515822101 0.282573571840739 0.717426428159261 0.804568527918782 0.195431472081218 0.175067694230369 0.824932305769631 0.00944234614530104 0.990557653854699 0.00529724982159521 0.994702750178405 0.266882516188714 0.733117483811286 8.36540070269366e-05 0.999916345992973 0.000109051254089422 0.999890948745911 0.000247892910262767 0.999752107089737 0.00259067357512953 0.99740932642487 0.000194628260023355 0.999805371739977 1.6639488834903e-05 0.999983360511165 0.00011258725512272 0.999887412744877 0.000717360114777618 0.999282639885222 0.999939091241321 6.09087586794981e-05 0.999932804730547 6.71952694530305e-05 0.999766027140852 0.000233972859148339 0.99877750611247 0.00122249388753056 0.999940483275801 5.95167241995001e-05 0.999938187662257 6.18123377426134e-05 0.999689247980112 0.000310752019888129 0.999766027140852 0.000233972859148339 </TABLE>
</DEFINITION>

<DEFINITION>
	<FOR>DrivingSkill</FOR>
	<GIVEN>DrivQuality</GIVEN>
	<GIVEN>ThisCarDam</GIVEN>
	<TABLE>0.868156875699682 0.115472847730735 0.0163702765695829 0.819980670430846 0.166234294725062 0.0137850348440918 0.568923275306254 0.367685364281109 0.063391360412637 0.279780005255847 0.699928670646094 0.0202913240980591 0.202512496711392 0.765456458826625 0.0320310444619837 0.0697105273220909 0.852319222974265 0.0779702497036442 0.21027817067421 0.413955681282414 0.375766148043376 0.0507848568790397 0.325023084025854 0.624192059095106 0.0340085021255314 0.479619904976244 0.486371592898225 </TABLE>
</DEFINITION>

<DEFINITION>
	<FOR>SeniorTrain</FOR>
	<GIVEN>OtherCarCost</GIVEN>
	<GIVEN>DrivQuality</GIVEN>
	<GIVEN>Age</GIVEN>
	<TABLE>0.999990765536984 9.23446301597562e-06 0.5 0.5 0.999952763344355 4.72366556447803e-05 0.734679095547018 0.265320904452982 5.04999495000505e-05 0.9999495000505 0.999752107089737 0.000247892910262767 0.5 0.5 0.5 0.5 0.5 0.5 0.999991148092414 8.8519075860848e-06 0.5 0.5 0.999968507904516 3.14920954840335e-05 0.137499122868571 0.862500877131429 1.73388355238062e-05 0.999982661164476 0.99989235737352 0.000107642626480086 0.5 0.5 0.5 0.5 0.5 0.5 0.5 0.5 0.5 0.5 0.999937725744177 6.22742558226429e-05 0.5 0.5 0.5 0.5 0.5 0.5 0.5 0.5 0.000107642626480086 0.99989235737352 0.5 0.5 0.999908037520692 9.19624793084422e-05 0.5 0.5 0.5 0.5 0.5 0.5 0.5 0.5 0.5 0.5 6.42921435000643e-05 0.9999357078565 0.5 0.5 0.5 0.5 </TABLE>
</DEFINITION>

<DEFINITION>
	<FOR>ThisCarCost</FOR>
	<GIVEN>PropCost</GIVEN>
	<GIVEN>RuggedAuto</GIVEN>
	<GIVEN>GoodStudent</GIVEN>
	<TABLE>0.489034274136012 7.13449958619902e-06 0.510951456864816 7.13449958619902e-06 0.0500520697734965 0.368719083571986 0.062548815412653 0.518680031241864 1.23268083427839e-05 1.23268083427839e-05 0.999963019574972 1.23268083427839e-05 9.91669972233241e-05 9.91669972233241e-05 0.104819516065054 0.8949821499405 0.999909692956051 3.01023479831427e-05 3.01023479831427e-05 3.01023479831427e-05 0.428520827429867 7.08415981864551e-05 7.08415981864551e-05 0.57133748937376 0.864884168245976 7.07153565468277e-06 0.135101688682714 7.07153565468277e-06 0.0251617873651772 0.173081664098613 1.54083204930663e-05 0.801741140215717 4.10037723470559e-05 4.10037723470559e-05 0.999876988682959 4.10037723470559e-05 4.39444542098787e-05 4.39444542098787e-05 0.00848127966250659 0.991430831429074 0.999921687376005 2.61042079983293e-05 2.61042079983293e-05 2.61042079983293e-05 0.226354679802956 3.51864883884588e-05 3.51864883884588e-05 0.773574947220267 0.492641278714298 2.18359682068303e-05 0.507315049349288 2.18359682068303e-05 0.00276140330796085 0.159345847879586 1.43077891604189e-05 0.837878441023293 4.88949735967143e-05 4.88949735967143e-05 0.99985331507921 4.88949735967143e-05 3.4717400361061e-05 3.4717400361061e-05 0.00670045826968477 0.993230106929593 0.999776852127343 7.43826242189824e-05 7.43826242189824e-05 7.43826242189824e-05 0.127577045696068 5.3134962805526e-05 5.3134962805526e-05 0.872316684378321 0.579643791507345 5.03119339907426e-05 0.420255584624673 5.03119339907426e-05 0.00893844452635459 0.84049023221526 0.0266310357537781 0.123940287504607 7.77121541809139e-05 7.77121541809139e-05 0.999766863537457 7.77121541809139e-05 0.000611246943765281 0.000611246943765281 0.117970660146699 0.88080684596577 0.999488054607509 0.000170648464163823 0.000170648464163823 0.000170648464163823 0.624025974025974 0.000649350649350649 0.000649350649350649 0.374675324675325 </TABLE>
</DEFINITION>

<DEFINITION>
	<FOR>Theft</FOR>
	<GIVEN>ThisCarCost</GIVEN>
	<GIVEN>DrivQuality</GIVEN>
	<GIVEN>ThisCarDam</GIVEN>
	<TABLE>0.99998358341268 1.6416587319828e-05 0.999964571671508 3.54283284914618e-05 0.999953397334327 4.66026656724765e-05 0.999986357062948 1.36429370514884e-05 0.999936876656988 6.31233430122459e-05 0.719396425432171 0.280603574567829 0.000105196717862403 0.999894803282138 0.000815660685154975 0.999184339314845 0.000163345311989546 0.999836654688011 0.999840408554102 0.0001595914458985 0.999306518723994 0.000693481276005548 0.999801666005553 0.000198333994446648 0.999801666005553 0.000198333994446648 0.999339498018494 0.000660501981505944 0.990785155263822 0.00921484473617773 0.00276243093922652 0.997237569060773 0.5 0.5 0.00344827586206896 0.996551724137931 0.999985999495982 1.40005040181447e-05 0.999830680663732 0.000169319336268202 0.999959861925022 4.01380749779241e-05 0.99998118107569 1.88189243102864e-05 0.999812382739212 0.000187617260787992 0.999973188910934 2.68110890664379e-05 0.5 0.5 0.5 0.5 0.5 0.5 0.999850701702001 0.000149298297999403 0.999940652818991 5.93471810089021e-05 0.99998076405186 1.92359481398838e-05 0.999905535613074 9.44643869261289e-05 0.999944002687871 5.59973121290178e-05 0.999983367153455 1.66328465453578e-05 0.000693481276005548 0.999306518723994 0.00060313630880579 0.999396863691194 0.000235294117647059 0.999764705882353 </TABLE>
</DEFINITION>

<DEFINITION>
	<FOR>CarValue</FOR>
	<GIVEN>SeniorTrain</GIVEN>
	<GIVEN>MakeModel</GIVEN>
	<GIVEN>VehicleYear</GIVEN>
	<TABLE>0.0451815943757773 0.946173954975762 5.07601329915484e-06 5.07601329915484e-06 0.00863429862186239 0.0135310741286442 0.974860510615686 4.83080118837709e-06 4.83080118837709e-06 0.0115987536532934 0.395792543220162 0.591585086440325 4.16579879191835e-05 4.16579879191835e-05 0.0125390543636742 0.154292243965148 0.814197971718326 2.85673475217826e-05 2.85673475217826e-05 0.0314526496214826 0.2 0.2 0.2 0.2 0.2 0.2 0.2 0.2 0.2 0.2 0.2 0.2 0.2 0.2 0.2 0.642483881913811 0.357448252460129 2.26218753534668e-05 2.26218753534668e-05 2.26218753534668e-05 0.2 0.2 0.2 0.2 0.2 0.2 0.2 0.2 0.2 0.2 1.18476393578579e-05 0.701392097624548 0.01067472306143 0.281985664356377 0.00593566731828683 5.5989473978892e-06 0.20100781053162 0.51734833851236 0.274913916183757 0.00672433582486493 0.000269905533063428 0.756005398110661 0.000269905533063428 0.216194331983806 0.0272604588394062 7.9968012794882e-05 0.327948820471811 0.247980807676929 0.42391043582567 7.9968012794882e-05 0.2 0.2 0.2 0.2 0.2 1.04269850372765e-05 0.0677858297273344 0.573494604035243 0.356613315259893 0.00209582399249257 0.2 0.2 0.2 0.2 0.2 7.93335977786593e-05 0.547481158270528 0.182546608488695 0.261880206267354 0.00801269337564458 0.00019588638589618 0.333202742409403 0.0589618021547502 0.235259549461312 0.372380019588639 0.2 0.2 0.2 0.2 0.2 </TABLE>
</DEFINITION>

<DEFINITION>
	<FOR>HomeBase</FOR>
	<GIVEN>PropCost</GIVEN>
	<GIVEN>RiskAversion</GIVEN>
	<TABLE>0.0882012564752563 0.289237297476028 0.158740218229913 0.463821227818803 0.480191226096738 0.214544431946007 0.105838020247469 0.199426321709786 0.300179620231511 0.381379369333409 0.105847636425843 0.212593374009238 0.182203389830508 0.182203389830508 0.00141242937853107 0.634180790960452 0.108562324402111 0.316881381484273 1.71315014047831e-05 0.574539162612211 0.540086919426225 0.187716632005546 1.33312003412787e-05 0.272183117367888 0.381722485599225 0.400481725034409 1.27440485293368e-05 0.217783045317837 0.279925187032419 0.120324189526185 0.000623441396508728 0.599127182044888 4.35161009573542e-05 4.35161009573542e-05 0.22006092254134 0.779852045256745 3.62476439031463e-05 3.62476439031463e-05 0.445447295925765 0.554480208786429 1.2671701556085e-05 1.2671701556085e-05 0.509313700643722 0.490660955953165 0.000503018108651912 0.000503018108651912 0.0648893360160966 0.9341046277666 0.165453264443401 0.000117426021606388 0.000117426021606388 0.834311883513387 0.757705239562903 7.00476323900252e-05 7.00476323900252e-05 0.242154665172317 0.596467873624423 8.87468938587149e-05 8.87468938587149e-05 0.403354632587859 0.25 0.000972762645914397 0.000972762645914397 0.748054474708171 </TABLE>
</DEFINITION>

<DEFINITION>
	<FOR>AntiTheft</FOR>
	<GIVEN>HomeBase</GIVEN>
	<GIVEN>RiskAversion</GIVEN>
	<GIVEN>SocioEcon</GIVEN>
	<TABLE>0.46342160411507 0.536578395884931 0.285774058577406 0.714225941422594 0.5 0.5 0.606010411736867 0.393989588263133 0.845035331212522 0.154964668787478 0.752895647918215 0.247104352081785 0.5 0.5 0.846049864824272 0.153950135175728 0.838260686460307 0.161739313539693 0.384150020642129 0.615849979357871 0.5 0.5 0.769122947537044 0.230877052462956 0.5 0.5 0.222703639514731 0.777296360485269 0.5 0.5 0.5 0.5 0.214338850660219 0.785661149339781 0.0287567907331747 0.971243209266825 0.0629268292682927 0.937073170731707 0.400311526479751 0.599688473520249 0.673441734417344 0.326558265582656 0.464001499937503 0.535998500062497 0.34152380952381 0.65847619047619 0.749027237354086 0.250972762645914 0.762355944001856 0.237644055998144 0.240006018379204 0.759993981620796 0.261031907671419 0.738968092328581 0.555459272097054 0.444540727902946 0.00769230769230769 0.992307692307692 0.00769230769230769 0.992307692307692 0.00259067357512953 0.99740932642487 0.5 0.5 0.333441769681197 0.666558230318803 0.0281062928894729 0.971893707110527 0.000244021473889702 0.99975597852611 0.333766233766234 0.666233766233766 0.677918983320095 0.322081016679905 0.551107561974863 0.448892438025137 0.510634762379528 0.489365237620472 0.999025341130604 0.000974658869395711 0.860184796304074 0.139815203695926 0.301156567652024 0.698843432347976 0.127508041047634 0.872491958952366 0.714126394052045 0.285873605947955 0.5 0.5 0.00387596899224806 0.996124031007752 0.5 0.5 0.5 0.5 0.21030152588158 0.78969847411842 0.0356701630289964 0.964329836971004 0.069101094721694 0.930898905278306 0.599895941727367 0.400104058272633 0.439722991689751 0.560277008310249 0.379751592104743 0.620248407895257 0.467067408897413 0.532932591102587 0.631470829909614 0.368529170090386 0.443191904846441 0.556808095153559 0.14832695481198 0.85167304518802 0.201594702512338 0.798405297487662 0.692076830732293 0.307923169267707 0.0914893617021277 0.908510638297872 0.000229673863114378 0.999770326136886 0.000600240096038415 0.999399759903962 0.599688473520249 0.400311526479751 </TABLE>
</DEFINITION>

<DEFINITION>
	<FOR>PropCost</FOR>
	<GIVEN>OtherCarCost</GIVEN>
	<GIVEN>RuggedAuto</GIVEN>
	<TABLE>0.698175083259702 0.0970740161761707 0.0522157275878475 0.152535172976279 0.694571905308166 0.0688549379497341 0.0801178433621858 0.156455313379914 0.596277327625745 0.198173062222902 0.095436477602813 0.11011313254854 0.191015581212869 0.498783768635803 0.290286963344916 0.0199136868064118 0.316689396522332 0.334691442209342 0.340419365837027 0.00819979543129901 0.075148407987048 0.57379924446843 0.349730167296276 0.00132218024824609 0.285690680766689 0.626734963648381 0.063615333773959 0.0239590218109716 0.00675675675675676 0.97972972972973 0.00675675675675676 0.00675675675675676 0.470769518117296 0.497665296974225 0.0269891669779604 0.00457601793051924 0.0800629396519807 0.431044057756386 0.240003702332469 0.248889300259163 0.0989208633093525 0.296248715313464 0.407245632065776 0.197584789311408 0.0821964529331514 0.540586630286494 0.13130968622101 0.245907230559345 </TABLE>
</DEFINITION>

<DEFINITION>
	<FOR>OtherCarCost</FOR>
	<GIVEN>MakeModel</GIVEN>
	<TABLE>0.253972894365986 0.703284759077689 7.49602710563401e-06 0.0427348505292195 0.890787024727466 6.64716830630152e-05 6.64716830630152e-05 0.109080031906408 0.198133861551293 0.680827773144287 0.12098623853211 5.21267723102586e-05 8.79971840901091e-05 0.584389299542415 0.415434706089405 8.79971840901091e-05 0.3134765625 0.6845703125 0.0009765625 0.0009765625 </TABLE>
</DEFINITION>

<DEFINITION>
	<FOR>OtherCar</FOR>
	<GIVEN>AntiTheft</GIVEN>
	<GIVEN>SocioEcon</GIVEN>
	<TABLE>0.999955771782397 4.42282176028306e-05 0.999963216361362 3.6783638637534e-05 0.9998274076631 0.000172592336900242 0.999614494988435 0.00038550501156515 0.784956690825526 0.215043309174474 0.653355101441832 0.346644898558169 0.459006867406233 0.540993132593766 0.760707635009311 0.239292364990689 </TABLE>
</DEFINITION>

<DEFINITION>
	<FOR>MedCost</FOR>
	<GIVEN>DrivQuality</GIVEN>
	<GIVEN>RiskAversion</GIVEN>
	<TABLE>0.999891696750903 3.6101083032491e-05 3.6101083032491e-05 3.6101083032491e-05 1.1776343680814e-05 0.999964670968958 1.1776343680814e-05 1.1776343680814e-05 0.072896056687986 0.927080936824184 1.1503243914784e-05 1.1503243914784e-05 0.997508305647841 0.000830564784053156 0.000830564784053156 0.000830564784053156 0.399801045486463 1.95053444643832e-05 0.600159943824608 1.95053444643832e-05 1.44067308246413e-05 1.44067308246413e-05 0.340243761885553 0.659727424652798 0.235938110325073 1.08502235146044e-05 0.29114404756738 0.472906991884033 0.435501066098081 0.000533049040511727 0.563432835820896 0.000533049040511727 0.99980833120368 6.38895987733197e-05 6.38895987733197e-05 6.38895987733197e-05 0.25 0.25 0.25 0.25 0.25 0.25 0.25 0.25 0.996724890829694 0.00109170305676856 0.00109170305676856 0.00109170305676856 </TABLE>
</DEFINITION>

<DEFINITION>
	<FOR>Cushioning</FOR>
	<GIVEN>DrivHist</GIVEN>
	<GIVEN>Mileage</GIVEN>
	<GIVEN>RuggedAuto</GIVEN>
	<TABLE>0.999969926620955 1.50366895224347e-05 1.50366895224347e-05 0.999908563068623 4.57184656882915e-05 4.57184656882915e-05 0.999670944389602 0.000164527805199079 0.000164527805199079 9.93186738970661e-06 0.999980136265221 9.93186738970661e-06 1.38865744598123e-05 0.99997222685108 1.38865744598123e-05 4.55497859160062e-05 0.999908900428168 4.55497859160062e-05 0.333333333333333 0.333333333333333 0.333333333333333 0.333333333333333 0.333333333333333 0.333333333333333 0.333333333333333 0.333333333333333 0.333333333333333 0.333333333333333 0.333333333333333 0.333333333333333 0.333333333333333 0.333333333333333 0.333333333333333 0.333333333333333 0.333333333333333 0.333333333333333 1.15160937410031e-05 0.846997178557033 0.152991305349226 0.333333333333333 0.333333333333333 0.333333333333333 1.61373612186935e-05 0.10066485928221 0.899319003356571 0.637735993273714 0.362225789192081 3.82175342046931e-05 0.333333333333333 0.333333333333333 0.333333333333333 0.333333333333333 0.333333333333333 0.333333333333333 0.999986544490642 6.72775467915338e-06 6.72775467915338e-06 0.999973900220543 1.30498897284318e-05 1.30498897284318e-05 0.999949613281939 2.51933590305595e-05 2.51933590305595e-05 0.333333333333333 0.333333333333333 0.333333333333333 0.333333333333333 0.333333333333333 0.333333333333333 0.333333333333333 0.333333333333333 0.333333333333333 0.333333333333333 0.333333333333333 0.333333333333333 0.333333333333333 0.333333333333333 0.333333333333333 0.333333333333333 0.333333333333333 0.333333333333333 </TABLE>
</DEFINITION>

<DEFINITION>
	<FOR>Airbag</FOR>
	<GIVEN>Accident</GIVEN>
	<GIVEN>VehicleYear</GIVEN>
	<GIVEN>SocioEcon</GIVEN>
	<TABLE>0.999979360165119 2.0639834881321e-05 0.999968308296888 3.16917031121252e-05 0.5 0.5 0.97329498767461 0.0267050123253903 0.99995497523638 4.5024763619991e-05 0.11863004962433 0.88136995037567 0.5 0.5 0.136621717530163 0.863378282469837 0.5 0.5 0.000133511348464619 0.999866488651535 0.5 0.5 0.00119904076738609 0.998800959232614 0.5 0.5 1.14048493419402e-05 0.999988595150658 0.5 0.5 0.00017749378771743 0.999822506212283 0.999953082480998 4.69175190015952e-05 0.99993623262339 6.37673766101263e-05 0.5 0.5 0.5 0.5 0.999888417763892 0.000111582236108012 0.999936748893106 6.32511068943707e-05 0.5 0.5 0.5 0.5 0.999958113428835 4.18865711652844e-05 0.999930255265727 6.97447342725624e-05 0.999970741412605 2.92585873954005e-05 0.998960498960499 0.00103950103950104 0.999908105127734 9.18948722661275e-05 0.0570235665244016 0.942976433475598 0.999984545482645 1.5454517355423e-05 0.129405840886203 0.870594159113797 </TABLE>
</DEFINITION>

<DEFINITION>
	<FOR>ILiCost</FOR>
	<GIVEN>OtherCarCost</GIVEN>
	<GIVEN>SeniorTrain</GIVEN>
	<GIVEN>Age</GIVEN>
	<TABLE>0.565091286212477 0.130199667221298 5.69826544799763e-06 0.304703348300777 0.25 0.25 0.25 0.25 2.975836209975e-05 0.362843709082252 2.975836209975e-05 0.637096774193548 8.8999644001424e-05 0.307671769312923 8.8999644001424e-05 0.692150231399074 3.78730495379488e-05 0.999886380851386 3.78730495379488e-05 3.78730495379488e-05 0.25 0.25 0.25 0.25 5.34176620157689e-06 0.999983974701395 5.34176620157689e-06 5.34176620157689e-06 0.25 0.25 0.25 0.25 1.82735180176888e-05 0.999945179445947 1.82735180176888e-05 1.82735180176888e-05 4.35836195324349e-06 0.0025147748470215 0.997476508429072 4.35836195324349e-06 1.30039011703511e-05 0.999960988296489 1.30039011703511e-05 1.30039011703511e-05 0.25 0.25 0.25 0.25 0.25 0.25 0.25 0.25 0.25 0.25 0.25 0.25 4.67027834858958e-05 0.313889407808705 4.67027834858958e-05 0.686017186624323 0.25 0.25 0.25 0.25 8.07232805941233e-05 0.999757830158218 8.07232805941233e-05 8.07232805941233e-05 0.25 0.25 0.25 0.25 0.999793103448276 6.89655172413793e-05 6.89655172413793e-05 6.89655172413793e-05 0.25 0.25 0.25 0.25 0.25 0.25 0.25 0.25 4.82160077145612e-05 4.82160077145612e-05 0.999855351976856 4.82160077145612e-05 0.25 0.25 0.25 0.25 0.25 0.25 0.25 0.25 </TABLE>
</DEFINITION>

<DEFINITION>
	<FOR>DrivHist</FOR>
	<GIVEN>ThisCarCost</GIVEN>
	<GIVEN>DrivingSkill</GIVEN>
	<GIVEN>RuggedAuto</GIVEN>
	<TABLE>0.762232740946496 0.237757811097569 9.44795593473352e-06 0.333333333333333 0.333333333333333 0.333333333333333 0.378338607388887 0.621648370251722 1.30223593910745e-05 0.447555506134401 0.55243708069239 7.41317320879202e-06 0.333333333333333 0.333333333333333 0.333333333333333 0.18519690854897 0.814776713882514 2.63775685157342e-05 0.352109003194472 0.647825803507399 6.51932981289523e-05 0.333333333333333 0.333333333333333 0.333333333333333 0.24494806421152 0.754863078375826 0.000188857412653447 0.027519202400936 0.972429930311817 5.08672872475711e-05 0.333333333333333 0.333333333333333 0.333333333333333 0.333333333333333 0.333333333333333 0.333333333333333 0.00545463644097483 0.99449532102287 5.00425361557324e-05 0.333333333333333 0.333333333333333 0.333333333333333 0.333333333333333 0.333333333333333 0.333333333333333 0.0503929727230698 0.94914470642626 0.000462320850670365 0.333333333333333 0.333333333333333 0.333333333333333 0.333333333333333 0.333333333333333 0.333333333333333 0.881764801585541 1.47904926713109e-05 0.118220407921788 0.951198581800526 1.12913970845613e-05 0.0487901268023893 0.333333333333333 0.333333333333333 0.333333333333333 0.227568810742637 1.48378959863491e-05 0.772416351361377 0.597943185223742 1.57731194498336e-05 0.402041041656809 0.333333333333333 0.333333333333333 0.333333333333333 0.189297324331083 0.000250062515628907 0.810452613153288 0.499917369029912 0.000165261940175178 0.499917369029912 0.333333333333333 0.333333333333333 0.333333333333333 3.2147105153181e-05 3.2147105153181e-05 0.999935705789694 5.20101939980236e-05 5.20101939980236e-05 0.999895979612004 4.17031569289795e-05 4.17031569289795e-05 0.999916593686142 1.08545811759853e-05 1.08545811759853e-05 0.999978290837648 2.30888227009305e-05 2.30888227009305e-05 0.999953822354598 3.7943464238285e-05 3.7943464238285e-05 0.999924113071524 8.57118368046627e-05 8.57118368046627e-05 0.999828576326391 0.000146907595122668 0.000146907595122668 0.999706184809755 0.000385356454720617 0.000385356454720617 0.999229287090559 </TABLE>
</DEFINITION>

</NETWORK>
</BIF>
