<?xml version="1.0" encoding="UTF-8"?>

<!-- DTD for the XMLBIF 0.3 format -->
<!DOCTYPE BIF [
<!ELEMENT BIF ( NETWORK )*>
<!ATTLIST BIF VERSION CDATA #REQUIRED>
   <!ELEMENT NETWORK ( NAME, ( PROPERTY | VARIABLE | DEFINITION )* )>
      <!ELEMENT NAME (#PCDATA)>
        <!ELEMENT VARIABLE ( NAME, ( OUTCOME |  PROPERTY )* ) >
          <!ATTLIST VARIABLE TYPE (nature|decision|utility) "nature">
           <!ELEMENT OUTCOME (#PCDATA)>
            <!ELEMENT DEFINITION ( FOR | GIVEN | TABLE | PROPERTY )* >
              <!ELEMENT FOR (#PCDATA)>
                <!ELEMENT GIVEN (#PCDATA)>
                  <!ELEMENT TABLE (#PCDATA)>
                    <!ELEMENT PROPERTY (#PCDATA)>
                      ]>
<BIF VERSION="0.3">
<NETWORK>
<NAME>Reco</NAME>
<VARIABLE TYPE="nature">
	<NAME>GoodStudent</NAME>
	<OUTCOME>True</OUTCOME>
	<OUTCOME>False</OUTCOME>
</VARIABLE>

<VARIABLE TYPE="nature">
	<NAME>Age</NAME>
	<OUTCOME>Senior</OUTCOME>
	<OUTCOME>Adolescent</OUTCOME>
	<OUTCOME>Adult</OUTCOME>
</VARIABLE>

<VARIABLE TYPE="nature">
	<NAME>SocioEcon</NAME>
	<OUTCOME>Prole</OUTCOME>
	<OUTCOME>UpperMiddle</OUTCOME>
	<OUTCOME>Wealthy</OUTCOME>
</VARIABLE>

<VARIABLE TYPE="nature">
	<NAME>RiskAversion</NAME>
	<OUTCOME>Psychopath</OUTCOME>
	<OUTCOME>Normal</OUTCOME>
	<OUTCOME>Cautious</OUTCOME>
	<OUTCOME>Adventurous</OUTCOME>
</VARIABLE>

<VARIABLE TYPE="nature">
	<NAME>VehicleYear</NAME>
	<OUTCOME>Older</OUTCOME>
	<OUTCOME>Current</OUTCOME>
</VARIABLE>

<VARIABLE TYPE="nature">
	<NAME>ThisCarDam</NAME>
	<OUTCOME>Moderate</OUTCOME>
	<OUTCOME>None</OUTCOME>
	<OUTCOME>Mild</OUTCOME>
	<OUTCOME>Severe</OUTCOME>
</VARIABLE>

<VARIABLE TYPE="nature">
	<NAME>RuggedAuto</NAME>
	<OUTCOME>Football</OUTCOME>
	<OUTCOME>Tank</OUTCOME>
</VARIABLE>

<VARIABLE TYPE="nature">
	<NAME>Accident</NAME>
	<OUTCOME>None</OUTCOME>
	<OUTCOME>Mild</OUTCOME>
	<OUTCOME>Severe</OUTCOME>
</VARIABLE>

<VARIABLE TYPE="nature">
	<NAME>MakeModel</NAME>
	<OUTCOME>Luxury</OUTCOME>
	<OUTCOME>FamilySedan</OUTCOME>
	<OUTCOME>SportsCar</OUTCOME>
	<OUTCOME>SuperLuxury</OUTCOME>
</VARIABLE>

<VARIABLE TYPE="nature">
	<NAME>DrivQuality</NAME>
	<OUTCOME>Poor</OUTCOME>
	<OUTCOME>Excellent</OUTCOME>
</VARIABLE>

<VARIABLE TYPE="nature">
	<NAME>Mileage</NAME>
	<OUTCOME>FiftyThou</OUTCOME>
	<OUTCOME>FiveThou</OUTCOME>
	<OUTCOME>TwentyThou</OUTCOME>
	<OUTCOME>Domino</OUTCOME>
</VARIABLE>

<VARIABLE TYPE="nature">
	<NAME>Antilock</NAME>
	<OUTCOME>True</OUTCOME>
	<OUTCOME>False</OUTCOME>
</VARIABLE>

<VARIABLE TYPE="nature">
	<NAME>DrivingSkill</NAME>
	<OUTCOME>Normal</OUTCOME>
	<OUTCOME>Expert</OUTCOME>
	<OUTCOME>SubStandard</OUTCOME>
</VARIABLE>

<VARIABLE TYPE="nature">
	<NAME>SeniorTrain</NAME>
	<OUTCOME>False</OUTCOME>
	<OUTCOME>True</OUTCOME>
</VARIABLE>

<VARIABLE TYPE="nature">
	<NAME>ThisCarCost</NAME>
	<OUTCOME>HundredThou</OUTCOME>
	<OUTCOME>Million</OUTCOME>
	<OUTCOME>TenThou</OUTCOME>
	<OUTCOME>Thousand</OUTCOME>
</VARIABLE>

<VARIABLE TYPE="nature">
	<NAME>Theft</NAME>
	<OUTCOME>True</OUTCOME>
	<OUTCOME>False</OUTCOME>
</VARIABLE>

<VARIABLE TYPE="nature">
	<NAME>CarValue</NAME>
	<OUTCOME>FiveThou</OUTCOME>
	<OUTCOME>Million</OUTCOME>
	<OUTCOME>FiftyThou</OUTCOME>
	<OUTCOME>TenThou</OUTCOME>
	<OUTCOME>TwentyThou</OUTCOME>
</VARIABLE>

<VARIABLE TYPE="nature">
	<NAME>HomeBase</NAME>
	<OUTCOME>Rural</OUTCOME>
	<OUTCOME>Secure</OUTCOME>
	<OUTCOME>City</OUTCOME>
	<OUTCOME>Suburb</OUTCOME>
</VARIABLE>

<VARIABLE TYPE="nature">
	<NAME>AntiTheft</NAME>
	<OUTCOME>False</OUTCOME>
	<OUTCOME>True</OUTCOME>
</VARIABLE>

<VARIABLE TYPE="nature">
	<NAME>PropCost</NAME>
	<OUTCOME>HundredThou</OUTCOME>
	<OUTCOME>Million</OUTCOME>
	<OUTCOME>TenThou</OUTCOME>
	<OUTCOME>Thousand</OUTCOME>
</VARIABLE>

<VARIABLE TYPE="nature">
	<NAME>OtherCarCost</NAME>
	<OUTCOME>HundredThou</OUTCOME>
	<OUTCOME>Million</OUTCOME>
	<OUTCOME>TenThou</OUTCOME>
	<OUTCOME>Thousand</OUTCOME>
</VARIABLE>

<VARIABLE TYPE="nature">
	<NAME>OtherCar</NAME>
	<OUTCOME>False</OUTCOME>
	<OUTCOME>True</OUTCOME>
</VARIABLE>

<VARIABLE TYPE="nature">
	<NAME>MedCost</NAME>
	<OUTCOME>Million</OUTCOME>
	<OUTCOME>HundredThou</OUTCOME>
	<OUTCOME>TenThou</OUTCOME>
	<OUTCOME>Thousand</OUTCOME>
</VARIABLE>

<VARIABLE TYPE="nature">
	<NAME>Cushioning</NAME>
	<OUTCOME>Good</OUTCOME>
	<OUTCOME>Fair</OUTCOME>
	<OUTCOME>Poor</OUTCOME>
	<OUTCOME>Excellent</OUTCOME>
</VARIABLE>

<VARIABLE TYPE="nature">
	<NAME>Airbag</NAME>
	<OUTCOME>True</OUTCOME>
	<OUTCOME>False</OUTCOME>
</VARIABLE>

<VARIABLE TYPE="nature">
	<NAME>ILiCost</NAME>
	<OUTCOME>HundredThou</OUTCOME>
	<OUTCOME>Million</OUTCOME>
	<OUTCOME>TenThou</OUTCOME>
	<OUTCOME>Thousand</OUTCOME>
</VARIABLE>

<VARIABLE TYPE="nature">
	<NAME>DrivHist</NAME>
	<OUTCOME>Zero</OUTCOME>
	<OUTCOME>One</OUTCOME>
	<OUTCOME>Many</OUTCOME>
</VARIABLE>

<DEFINITION>
	<FOR>GoodStudent</FOR>
	<GIVEN>HomeBase</GIVEN>
	<GIVEN>Age</GIVEN>
	<TABLE>0.992922807529549 0.0070771924704509 0.944149377593361 0.055850622406639 0.997495653076584 0.00250434692341629 0.999975140456421 2.48595435787799e-05 0.5 0.5 0.5 0.5 0.00026525198938992 0.99973474801061 0.000303951367781155 0.999696048632219 0.5 0.5 0.5 0.5 0.943810018167662 0.0561899818323384 0.995446891859386 0.00455310814061372 </TABLE>
</DEFINITION>

<DEFINITION>
	<FOR>Age</FOR>
	<GIVEN>DrivHist</GIVEN>
	<GIVEN>SeniorTrain</GIVEN>
	<TABLE>0.943817739438177 0.0002211900022119 0.0559610705596107 0.375403510352387 1.50143386934522e-05 0.62458147530892 0.824812167857797 0.109034267912773 0.0661535642294301 0.229672586685997 0.40321372477951 0.367113688534493 0.000156421085562334 0.000156421085562334 0.999687157828875 2.65540773785815e-05 2.65540773785815e-05 0.999946891845243 </TABLE>
</DEFINITION>

<DEFINITION>
	<FOR>SocioEcon</FOR>
	<GIVEN>OtherCar</GIVEN>
	<TABLE>0.681343744130511 0.308808929673455 0.00984732619603424 0.999880504271972 5.97478640138615e-05 5.97478640138615e-05 </TABLE>
</DEFINITION>

<DEFINITION>
	<FOR>RiskAversion</FOR>
	<GIVEN>DrivQuality</GIVEN>
	<GIVEN>SocioEcon</GIVEN>
	<TABLE>0.375189275852855 0.383740090852409 2.22677473946736e-05 0.241048365547341 0.155017048222114 0.000121773015099854 0.844739405747686 0.000121773015099854 0.127551020408163 0.739795918367347 0.00510204081632653 0.127551020408163 0.151653668166079 0.5918335976182 8.09035306300767e-06 0.256504643862658 0.0888495294490853 2.64354446441789e-05 0.911097599661626 2.64354446441789e-05 0.2641065830721 0.376959247648903 0.000783699059561128 0.358150470219436 </TABLE>
</DEFINITION>

<DEFINITION>
	<FOR>VehicleYear</FOR>
	<GIVEN>CarValue</GIVEN>
	<GIVEN>MakeModel</GIVEN>
	<GIVEN>GoodStudent</GIVEN>
	<TABLE>0.809354039894974 0.190645960105026 0.00089126559714795 0.999108734402852 0.601597486799011 0.398402513200989 0.000137324910738808 0.999862675089261 0.000328731097961867 0.999671268902038 0.00177935943060498 0.998220640569395 0.00617283950617284 0.993827160493827 0.00138504155124654 0.998614958448754 0.472784831479628 0.527215168520372 0.000265816055289739 0.99973418394471 0.494950770007574 0.505049229992426 0.000142005112184039 0.999857994887816 0.000290528762347472 0.999709471237652 0.0020746887966805 0.99792531120332 0.5 0.5 0.000657030223390276 0.99934296977661 0.989659139220247 0.0103408607797534 0.0121951219512195 0.98780487804878 0.952663538504002 0.0473364614959978 0.000328731097961867 0.999671268902038 0.00089126559714795 0.999108734402852 0.00138504155124654 0.998614958448754 0.00413223140495868 0.995867768595041 0.00124688279301746 0.998753117206983 0.512812299807816 0.487187700192184 0.5 0.5 0.5 0.5 0.00617283950617284 0.993827160493827 9.25754489909276e-05 0.999907424551009 0.5 0.5 0.5 0.5 0.0020746887966805 0.99792531120332 0.665289256198347 0.334710743801653 0.5 0.5 0.5 0.5 0.5 0.5 0.000959692898272553 0.999040307101728 0.0121951219512195 0.98780487804878 0.00138504155124654 0.998614958448754 0.000831946755407654 0.999168053244592 </TABLE>
</DEFINITION>

<DEFINITION>
	<FOR>ThisCarDam</FOR>
	<TABLE>0.201894233974003 0.471864237306966 0.266442617486946 0.0597989112320853 </TABLE>
</DEFINITION>

<DEFINITION>
	<FOR>RuggedAuto</FOR>
	<GIVEN>ThisCarDam</GIVEN>
	<TABLE>0.815036456183794 0.184963543816206 0.877773853670022 0.122226146329978 0.999947878661524 5.21213384759721e-05 0.0002322340919647 0.999767765908035 </TABLE>
</DEFINITION>

<DEFINITION>
	<FOR>Accident</FOR>
	<GIVEN>CarValue</GIVEN>
	<GIVEN>ThisCarCost</GIVEN>
	<GIVEN>Age</GIVEN>
	<TABLE>0.999969392283795 1.53038581026277e-05 1.53038581026277e-05 0.487936284844226 0.463842318374996 0.0482213967807784 0.411221693350642 0.560298339405275 0.0284799672440828 0.999947094145967 2.64529270163744e-05 2.64529270163744e-05 0.641343906830632 0.027621346205417 0.33103474696395 0.702160549738536 0.0456625967658177 0.252176853495646 0.994490358126722 0.00275482093663912 0.00275482093663912 0.333333333333333 0.333333333333333 0.333333333333333 0.499308437067773 0.00138312586445367 0.499308437067773 0.333333333333333 0.333333333333333 0.333333333333333 0.333333333333333 0.333333333333333 0.333333333333333 0.333333333333333 0.333333333333333 0.333333333333333 0.999968877892411 1.5561053794563e-05 1.5561053794563e-05 0.478243368353258 0.463752364851266 0.0580042667954756 0.408421888858055 0.568066687343226 0.0235114237987191 0.999075358298659 0.000462320850670365 0.000462320850670365 0.49862258953168 0.00275482093663912 0.49862258953168 0.856520015854142 0.071739992072929 0.071739992072929 0.999964159632995 1.79201835026791e-05 1.79201835026791e-05 0.627701415075214 0.0876211328711025 0.284677452053684 0.73406988962059 0.088022637662162 0.177907472717248 0.333333333333333 0.333333333333333 0.333333333333333 0.333333333333333 0.333333333333333 0.333333333333333 0.333333333333333 0.333333333333333 0.333333333333333 0.99998504594633 7.47702683504931e-06 7.47702683504931e-06 0.999941831719164 2.90841404182299e-05 2.90841404182299e-05 0.999992400147437 3.79992628143014e-06 3.79992628143014e-06 0.999971215980887 1.43920095562943e-05 1.43920095562943e-05 0.999930994030984 3.450298450816e-05 3.450298450816e-05 0.999985475988178 7.26200591127281e-06 7.26200591127281e-06 0.333333333333333 0.333333333333333 0.333333333333333 0.333333333333333 0.333333333333333 0.333333333333333 0.333333333333333 0.333333333333333 0.333333333333333 0.333333333333333 0.333333333333333 0.333333333333333 0.333333333333333 0.333333333333333 0.333333333333333 0.333333333333333 0.333333333333333 0.333333333333333 0.333333333333333 0.333333333333333 0.333333333333333 0.000616142945163278 0.998767714109673 0.000616142945163278 3.93964464405311e-05 0.999921207107119 3.93964464405311e-05 0.333333333333333 0.333333333333333 0.333333333333333 0.00546448087431694 0.989071038251366 0.00546448087431694 0.333333333333333 0.333333333333333 0.333333333333333 0.333333333333333 0.333333333333333 0.333333333333333 0.00546448087431694 0.989071038251366 0.00546448087431694 0.000185082361650935 0.999629835276698 0.000185082361650935 0.333333333333333 0.333333333333333 0.333333333333333 0.333333333333333 0.333333333333333 0.333333333333333 0.333333333333333 0.333333333333333 0.333333333333333 0.998890737659456 0.000554631170271769 0.000554631170271769 0.00138312586445367 0.997233748271093 0.00138312586445367 0.855898653998416 0.143309580364212 0.000791765637371338 0.333333333333333 0.333333333333333 0.333333333333333 0.00546448087431694 0.989071038251366 0.00546448087431694 0.989071038251366 0.00546448087431694 0.00546448087431694 0.997233748271093 0.00138312586445367 0.00138312586445367 0.333333333333333 0.333333333333333 0.333333333333333 0.49862258953168 0.00275482093663912 0.49862258953168 0.998416468725257 0.000791765637371338 0.000791765637371338 0.250345781466113 0.250345781466113 0.499308437067773 0.989071038251366 0.00546448087431694 0.00546448087431694 </TABLE>
</DEFINITION>

<DEFINITION>
	<FOR>MakeModel</FOR>
	<GIVEN>DrivHist</GIVEN>
	<GIVEN>HomeBase</GIVEN>
	<TABLE>0.611576310206293 0.349399629846973 0.0390127747934817 1.12851532523812e-05 0.973232173332344 1.8550122430808e-05 0.0249499146694368 0.00179936187578838 0.000165234633179114 0.698116325181758 0.182584269662921 0.119134170522141 0.952034459262143 2.43356371069795e-05 0.0432444271391025 0.00469677796164704 0.631264330167049 0.368702915165411 1.63773337700622e-05 1.63773337700622e-05 0.998078951333434 3.76676209130631e-05 3.76676209130631e-05 0.00184571342474009 0.000123946455131383 0.737853247397124 0.000123946455131383 0.261898859692613 0.988404706526201 3.42044055274319e-05 3.42044055274319e-05 0.0115268846627446 0.95363753305224 1.78660758950904e-05 0.0463267347959694 1.78660758950904e-05 0.25 0.25 0.25 0.25 0.25 0.25 0.25 0.25 0.959360567228257 1.6262278019905e-05 0.0406069082157029 1.6262278019905e-05 </TABLE>
</DEFINITION>

<DEFINITION>
	<FOR>DrivQuality</FOR>
	<GIVEN>OtherCarCost</GIVEN>
	<GIVEN>ThisCarDam</GIVEN>
	<TABLE>0.396077037420022 0.603922962579978 1.42170661662259e-05 0.999985782933834 0.5 0.5 0.5 0.5 0.211078574914592 0.788921425085408 5.57973440464234e-05 0.999944202655954 0.5 0.5 0.5 0.5 0.175567867036011 0.824432132963989 2.40929022310027e-05 0.999975907097769 0.391219491270965 0.608780508729035 0.999910730226745 8.92697732547759e-05 0.272241992882562 0.727758007117438 0.000162707452001302 0.999837292547999 0.596167895331075 0.403832104668925 0.99983383183782 0.000166168162180126 </TABLE>
</DEFINITION>

<DEFINITION>
	<FOR>Mileage</FOR>
	<GIVEN>Cushioning</GIVEN>
	<GIVEN>Antilock</GIVEN>
	<TABLE>0.722846826748077 1.46773909469853e-05 0.277123818470029 1.46773909469853e-05 0.999755301794453 8.15660685154976e-05 8.15660685154976e-05 8.15660685154976e-05 0.465768185133612 0.534198660566275 1.65771500563623e-05 1.65771500563623e-05 0.999379652605459 0.000206782464846981 0.000206782464846981 0.000206782464846981 0.279921916910055 0.470182392561245 0.145928950348692 0.103966740180008 0.812919708029197 7.2992700729927e-05 7.2992700729927e-05 0.186934306569343 0.353789459514034 0.519098741334051 1.68270848758161e-05 0.127094972067039 0.770499108734403 0.000445632798573975 0.000445632798573975 0.228609625668449 </TABLE>
</DEFINITION>

<DEFINITION>
	<FOR>Antilock</FOR>
	<GIVEN>MakeModel</GIVEN>
	<GIVEN>Accident</GIVEN>
	<GIVEN>VehicleYear</GIVEN>
	<TABLE>0.994283700537305 0.00571629946269531 0.76763972148788 0.23236027851212 0.985084880989318 0.0149151190106822 0.663513381041074 0.336486618958926 0.000119019281123542 0.999880980718876 0.000167954316425932 0.999832045683574 0.998670862040905 0.0013291379590951 0.950086555106751 0.0499134448932487 0.999749121926744 0.000250878073256397 0.940816326530612 0.0591836734693878 0.000770416024653313 0.999229583975347 0.000578034682080925 0.999421965317919 0.5 0.5 0.526775753068055 0.473224246931945 0.5 0.5 0.28175418011147 0.71824581988853 0.5 0.5 0.00173010380622837 0.998269896193772 0.5 0.5 0.555504162812211 0.444495837187789 0.5 0.5 0.434900542495479 0.565099457504521 0.5 0.5 0.00413223140495868 0.995867768595041 </TABLE>
</DEFINITION>

<DEFINITION>
	<FOR>DrivingSkill</FOR>
	<GIVEN>DrivQuality</GIVEN>
	<GIVEN>RiskAversion</GIVEN>
	<GIVEN>SocioEcon</GIVEN>
	<TABLE>0.7806002334461 0.024234870516549 0.195164896037351 0.980623199790521 0.0191149515579995 0.000261848651479445 0.0133333333333333 0.0133333333333333 0.973333333333333 0.416429718176367 0.229811021489777 0.353759260333856 0.333333333333333 0.333333333333333 0.333333333333333 0.00229885057471264 0.00229885057471264 0.995402298850575 0.333333333333333 0.333333333333333 0.333333333333333 0.916870885589352 0.0830810628994282 4.80515112200279e-05 0.333333333333333 0.333333333333333 0.333333333333333 0.915688991531948 0.0155504234026174 0.0687605850654349 0.333333333333333 0.333333333333333 0.333333333333333 0.0133333333333333 0.0133333333333333 0.973333333333333 0.110127145016449 0.846323464034854 0.0435493909486974 0.27144698998314 0.728453833184568 9.91768322919766e-05 0.000989119683481701 0.000989119683481701 0.998021760633036 0.133860994536565 0.85662014317025 0.0095188622931846 0.333333333333333 0.333333333333333 0.333333333333333 0.000693000693000693 0.000693000693000693 0.998613998613999 0.333333333333333 0.333333333333333 0.333333333333333 0.459606363944098 0.540383964408337 9.67164756516272e-06 0.333333333333333 0.333333333333333 0.333333333333333 0.588182726173579 0.388340430005782 0.0234768438206382 0.333333333333333 0.333333333333333 0.333333333333333 0.000729394602479942 0.000729394602479942 0.99854121079504 </TABLE>
</DEFINITION>

<DEFINITION>
	<FOR>SeniorTrain</FOR>
	<GIVEN>DrivHist</GIVEN>
	<GIVEN>DrivingSkill</GIVEN>
	<GIVEN>RiskAversion</GIVEN>
	<TABLE>0.803838823849714 0.196161176150286 0.34070796460177 0.65929203539823 0.0308944084179616 0.969105591582038 0.0598638917464588 0.940136108253541 5.36193029490616e-05 0.999946380697051 7.95001033501344e-06 0.999992049989665 2.08533177628561e-05 0.999979146682237 3.48942703608067e-05 0.999965105729639 0.999677211103938 0.000322788896061976 0.999603489294211 0.000396510705789056 0.5 0.5 0.999566348655681 0.000433651344319167 0.485002083044022 0.514997916955978 0.150345159736715 0.849654840263285 0.0137448872824123 0.986255112717588 0.0162348100045007 0.983765189995499 4.85578323783626e-05 0.999951442167622 1.7041000647558e-05 0.999982958999352 0.000113817436831323 0.999886182563169 0.000122880314573605 0.999877119685426 0.999669530733642 0.000330469266358229 0.999859747545582 0.000140252454417952 0.5 0.5 0.999504459861249 0.000495540138751239 0.123247548212993 0.876752451787007 0.00906012916170293 0.990939870838297 0.00249709242662653 0.997502907573373 3.41227052480721e-05 0.999965877294752 5.8844297987525e-05 0.999941155702012 6.48929266709929e-05 0.999935107073329 0.00115473441108545 0.998845265588915 0.00153846153846154 0.998461538461538 0.99986252405829 0.000137475941710201 0.999920647516267 7.93524837327408e-05 0.5 0.5 0.99936948297604 0.000630517023959647 </TABLE>
</DEFINITION>

<DEFINITION>
	<FOR>ThisCarCost</FOR>
	<GIVEN>PropCost</GIVEN>
	<GIVEN>ThisCarDam</GIVEN>
	<TABLE>0.99993517157922 2.16094735932233e-05 2.16094735932233e-05 2.16094735932233e-05 0.999953775038521 1.54083204930663e-05 1.54083204930663e-05 1.54083204930663e-05 0.999938408474994 2.05305083353864e-05 2.05305083353864e-05 2.05305083353864e-05 0.999485243651338 0.000171585449553878 0.000171585449553878 0.000171585449553878 0.826889224192129 0.173047906450396 3.14346787375833e-05 3.14346787375833e-05 0.408354184042257 0.59161801501251 1.39004726160689e-05 1.39004726160689e-05 0.937557945484888 0.0623493417392917 4.6356387910254e-05 4.6356387910254e-05 0.456630686198921 0.542983808789514 0.000192752505782575 0.000192752505782575 0.759116657815543 0.203974154717649 0.0368649318463445 4.42556204637989e-05 0.176880560798059 0.364100835804799 0.459005122674575 1.34807225667296e-05 0.840317848410758 0.057921760391198 0.101735941320293 2.44498777506112e-05 0.172151088348271 0.643341869398207 0.184443021766965 6.40204865556978e-05 0.725288092189501 0.241805377720871 0.032842509603073 6.40204865556978e-05 0.242105782514308 0.471564370765081 0.275787777119926 0.0105420696006842 0.768483501938168 0.119528221612934 0.110451923986007 0.00153635246289118 0.221326164874552 0.557219662058372 0.213133640552995 0.0083205325140809 </TABLE>
</DEFINITION>

<DEFINITION>
	<FOR>Theft</FOR>
	<GIVEN>ThisCarDam</GIVEN>
	<GIVEN>VehicleYear</GIVEN>
	<GIVEN>SocioEcon</GIVEN>
	<TABLE>0.999982390025711 1.76099742894375e-05 0.999952111866679 4.78881333205632e-05 0.989795918367347 0.0102040816326531 0.999689247980112 0.000310752019888129 0.999830680663732 0.000169319336268202 0.997041420118343 0.0029585798816568 0.999989222512017 1.07774879831009e-05 0.999977006208324 2.29937916762474e-05 0.989795918367347 0.0102040816326531 0.120238418824991 0.879761581175009 0.992910393217366 0.00708960678263412 0.146140503035559 0.853859496964441 0.999986905853084 1.30941469163284e-05 0.5 0.5 0.5 0.5 0.173498889978832 0.826501110021168 0.5 0.5 0.5 0.5 0.999939795304034 6.02046959662854e-05 0.999857346647646 0.00014265335235378 0.98 0.02 0.999009900990099 0.00099009900990099 0.999095840867993 0.000904159132007233 0.98 0.02 </TABLE>
</DEFINITION>

<DEFINITION>
	<FOR>CarValue</FOR>
	<GIVEN>ThisCarCost</GIVEN>
	<GIVEN>MakeModel</GIVEN>
	<TABLE>0.289445684761115 0.294140460547299 0.409876889711042 0.0065344134719653 2.5515085794476e-06 0.398185050051455 0.0479184208064365 0.550865375619796 0.00301244269810085 1.87108242118065e-05 0.159806763285024 0.154653784219002 0.0670531400966183 0.572045088566828 0.0464412238325282 0.177808599167822 0.28876560332871 0.155617198335645 0.11123439667129 0.266574202496533 0.372759829026917 0.0160268011860295 0.611197966806577 7.70149023836112e-06 7.70149023836112e-06 0.39560193812896 2.48478071810163e-05 0.604323518449497 2.48478071810163e-05 2.48478071810163e-05 0.399376947040498 0.0504672897196262 0.499065420560748 0.000623052959501558 0.0504672897196262 0.249740932642487 0.0839378238341969 0.498445595854922 0.0839378238341969 0.0839378238341969 1.53929038713153e-05 0.988855537597168 1.53929038713153e-05 0.0086354190718079 0.00247825752328177 8.06126561870214e-05 0.999677549375252 8.06126561870214e-05 8.06126561870214e-05 8.06126561870214e-05 0.115486194477791 0.345978391356543 0.000240096038415366 0.461224489795918 0.0770708283313325 0.00246913580246914 0.990123456790123 0.00246913580246914 0.00246913580246914 0.00246913580246914 0.0117647058823529 0.0117647058823529 0.0117647058823529 0.0117647058823529 0.952941176470588 0.2 0.2 0.2 0.2 0.2 0.2 0.2 0.2 0.2 0.2 0.00112994350282486 0.00112994350282486 0.00112994350282486 0.00112994350282486 0.9954802259887 </TABLE>
</DEFINITION>

<DEFINITION>
	<FOR>HomeBase</FOR>
	<GIVEN>RiskAversion</GIVEN>
	<GIVEN>Age</GIVEN>
	<TABLE>0.37349812881623 0.444406145361434 0.18204648414418 4.92416781563916e-05 0.240265008112493 0.000135208220659816 0.409004867495944 0.350594916170903 0.442534968958037 1.86999775600269e-05 1.86999775600269e-05 0.557427631086843 0.0998526039960694 0.845872911889944 0.0542581067802162 1.63773337700622e-05 0.287949836423119 5.4525627044711e-05 0.154471101417666 0.55752453653217 0.319454729703395 9.74392953190162e-06 9.74392953190162e-06 0.680525782437541 0.306253624589213 0.693649719698434 4.83278561763e-05 4.83278561763e-05 0.780091478093404 0.000120365912373616 0.000120365912373616 0.219667790081849 0.785865606184494 1.85832156396343e-05 1.85832156396343e-05 0.214097227384227 0.553865747677555 0.406427929277794 0.0396314054540006 7.49175906502847e-05 0.876286093594424 8.29737802854298e-05 0.0598240955857949 0.0638068370394955 0.913653757339843 1.64940291614436e-05 1.64940291614436e-05 0.0863132546018341 </TABLE>
</DEFINITION>

<DEFINITION>
	<FOR>AntiTheft</FOR>
	<GIVEN>SeniorTrain</GIVEN>
	<GIVEN>RiskAversion</GIVEN>
	<TABLE>0.985465987413845 0.0145340125861552 0.351401553529213 0.648598446470787 0.747422680412371 0.252577319587629 0.263904653802497 0.736095346197503 0.984253899735112 0.0157461002648877 0.255707345582058 0.744292654417942 0.193834367019336 0.806165632980664 0.0226276287434049 0.977372371256595 </TABLE>
</DEFINITION>

<DEFINITION>
	<FOR>PropCost</FOR>
	<GIVEN>OtherCarCost</GIVEN>
	<GIVEN>MakeModel</GIVEN>
	<TABLE>0.487648590649338 0.376925951824078 0.130404118342054 0.00502133918452969 4.07896883667809e-05 4.07896883667809e-05 4.07896883667809e-05 0.9998776309349 0.580341113105925 0.275852782764812 8.97666068222621e-05 0.143716337522442 0.374513618677043 0.374513618677043 0.000972762645914397 0.25 0.0359203076594381 0.526466189509668 0.420494605277214 0.0171188975536802 0.000175438596491228 0.000175438596491228 0.000175438596491228 0.999473684210526 0.25 0.25 0.25 0.25 0.143333333333333 0.641111111111111 0.00111111111111111 0.214444444444444 0.195364273690042 0.130244624858829 0.595969443201432 0.0784216582496964 2.45651960302643e-05 2.45651960302643e-05 2.45651960302643e-05 0.999926304411909 0.266652789342215 0.133430474604496 0.000208159866777685 0.599708576186511 0.416233766233766 0.166883116883117 0.000649350649350649 0.416233766233766 0.470192847303709 0.233470231110658 0.0514387021070354 0.244898219478598 7.16537689882488e-05 7.16537689882488e-05 7.16537689882488e-05 0.999785038693035 0.293956043956044 0.176739926739927 0.000915750915750916 0.528388278388278 0.577868852459016 0.315573770491803 0.000819672131147541 0.105737704918033 </TABLE>
</DEFINITION>

<DEFINITION>
	<FOR>OtherCarCost</FOR>
	<GIVEN>RuggedAuto</GIVEN>
	<GIVEN>ThisCarDam</GIVEN>
	<TABLE>0.652903198582159 0.086441893830703 0.217423411258334 0.0432314963288041 0.589580888516345 0.1502179379715 0.24222129086337 0.0179798826487846 1.30310138128746e-05 1.30310138128746e-05 0.60757101902528 0.392402918947094 0.25 0.25 0.25 0.25 9.29713648196355e-05 9.29713648196355e-05 0.720063220528077 0.279750836742283 6.01974476282206e-05 6.01974476282206e-05 0.759029617144233 0.24084998796051 0.25 0.25 0.25 0.25 5.80720092915215e-05 5.80720092915215e-05 0.650464576074332 0.349419279907085 </TABLE>
</DEFINITION>

<DEFINITION>
	<FOR>OtherCar</FOR>
	<GIVEN>OtherCarCost</GIVEN>
	<GIVEN>ThisCarDam</GIVEN>
	<TABLE>0.999967685645964 3.23143540360628e-05 0.999985782933834 1.42170661662259e-05 0.5 0.5 0.5 0.5 0.99975597852611 0.000244021473889702 0.999944202655954 5.57973440464234e-05 0.5 0.5 0.5 0.5 0.654238227146814 0.345761772853186 0.999975907097769 2.40929022310027e-05 2.14472611847467e-05 0.999978552738815 0.774236743438672 0.225763256561328 0.556939501779359 0.443060498220641 0.999837292547999 0.000162707452001302 3.32071461778575e-05 0.999966792853822 0.74991691591891 0.25008308408109 </TABLE>
</DEFINITION>

<DEFINITION>
	<FOR>MedCost</FOR>
	<GIVEN>Cushioning</GIVEN>
	<GIVEN>ThisCarDam</GIVEN>
	<TABLE>0.721732522796353 3.03951367781155e-05 0.278206686930091 3.03951367781155e-05 1.1034117491283e-05 0.971719556869842 0.0190779891424284 0.00919141987023878 0.00632123673522861 0.987324774007599 0.00632123673522861 3.27525219441897e-05 0.0287031528851874 0.951963117192148 0.000148720999405116 0.01918500892326 0.735386010884902 5.03930659141302e-05 0.26451320298327 5.03930659141302e-05 2.1084591380619e-05 0.869043602934975 0.083684743189677 0.0472505692839673 0.0483124099608973 0.93299375728888 0.0186766824449475 1.71503052754339e-05 0.162236286919831 0.810337552742616 0.000210970464135021 0.0272151898734177 0.785628885700622 3.98533397098677e-05 0.214291407619959 3.98533397098677e-05 1.36217512123359e-05 0.977292540729036 0.0122187108374653 0.0104751266822863 0.00756433217079838 0.990880384579131 0.00153171835234235 2.35648977283439e-05 0.0650512671696653 0.916279744631457 4.83652544012381e-05 0.0186206229444767 0.705443485494437 2.59956327337007e-05 0.294504523240096 2.59956327337007e-05 1.65683610577242e-05 0.796358274239512 0.123020080853602 0.0806050765458281 0.0519088780839186 0.930713128038898 0.0173329731676571 4.50207095263821e-05 0.139081455805893 0.804592720970537 0.000433275563258232 0.055892547660312 </TABLE>
</DEFINITION>

<DEFINITION>
	<FOR>Cushioning</FOR>
	<GIVEN>OtherCarCost</GIVEN>
	<GIVEN>RuggedAuto</GIVEN>
	<GIVEN>VehicleYear</GIVEN>
	<TABLE>0.419704968517144 6.87398608705216e-06 0.0673169457505018 0.512971211746267 0.507829468226722 1.75155888740979e-05 0.413665662439571 0.0784873537448329 0.25 0.25 0.25 0.25 0.25 0.25 0.25 0.25 0.48184543637575 3.3311125916056e-05 0.0853097934710193 0.432811459027315 0.511340941512126 7.13266761768902e-05 0.429172610556348 0.0594151212553495 0.25 0.25 0.25 0.25 0.25 0.25 0.25 0.25 8.28884983919631e-06 0.882207154935181 0.11777626736514 8.28884983919631e-06 1.96032306124049e-05 0.375147024229593 0.624813769309182 1.96032306124049e-05 1.93363755897595e-05 0.0866462990177121 0.913315028231108 1.93363755897595e-05 8.77500877500877e-05 0.0225517725517726 0.977272727272727 8.77500877500877e-05 0.414652945587868 2.08315973668861e-05 0.0426839430047496 0.542642279810016 0.63346594216961 4.85154279060741e-05 0.279497380166893 0.0869881622355909 0.677703523693803 4.33952438812706e-05 0.230558930741191 0.0916941503211248 0.170318725099602 0.000332005312084993 0.680278884462151 0.149070385126162 </TABLE>
</DEFINITION>

<DEFINITION>
	<FOR>Airbag</FOR>
	<GIVEN>Theft</GIVEN>
	<TABLE>0.999965970189886 3.40298101136596e-05 0.00317316409791478 0.996826835902085 </TABLE>
</DEFINITION>

<DEFINITION>
	<FOR>ILiCost</FOR>
	<GIVEN>Accident</GIVEN>
	<TABLE>0.940602242238405 0.0366639517056343 0.0227218282866999 1.1977769260253e-05 0.988433807330262 5.00700981373924e-05 0.000650911275786101 0.0108652112958141 0.999340949033392 0.000219683655536028 0.000219683655536028 0.000219683655536028 </TABLE>
</DEFINITION>

<DEFINITION>
	<FOR>DrivHist</FOR>
	<GIVEN>OtherCarCost</GIVEN>
	<GIVEN>DrivingSkill</GIVEN>
	<GIVEN>RiskAversion</GIVEN>
	<TABLE>0.377654662973222 3.69344413665743e-05 0.622308402585411 0.286999844309513 3.11380974622451e-05 0.712969017593025 0.37938885365338 1.62625424858922e-05 0.620594883804134 0.551815391129459 2.11707420345083e-05 0.448163438128506 0.555115511551155 2.64026402640264e-05 0.444858085808581 0.912286565213193 7.42704782276093e-06 0.0877060077389838 0.985749781968373 1.645521712659e-05 0.0142337628145003 0.985154780229177 3.42055755088079e-05 0.0148110141953138 0.454507205217208 0.000105185652676975 0.545387609130115 0.368411436923358 9.13492280990226e-05 0.631497213848543 0.333333333333333 0.333333333333333 0.333333333333333 0.588079199836701 0.000204123290467442 0.411716676872831 0.000495294700346706 0.999009410599307 0.000495294700346706 0.000315357931251971 0.999369284137496 0.000315357931251971 6.42880102860816e-05 0.999871423979428 6.42880102860816e-05 9.51022349025202e-05 0.999809795530195 9.51022349025202e-05 7.46547219111609e-05 0.999850690556178 7.46547219111609e-05 2.6914278024492e-05 0.999946171443951 2.6914278024492e-05 0.000105185652676975 0.999789628694646 0.000105185652676975 0.000169290672083968 0.999661418655832 0.000169290672083968 0.00172711571675302 0.996545768566494 0.00172711571675302 0.000989119683481701 0.998021760633036 0.000989119683481701 0.333333333333333 0.333333333333333 0.333333333333333 0.00343642611683849 0.993127147766323 0.00343642611683849 0.111127703526718 0.333333333333333 0.555538963139949 0.104265529906968 0.33590712887745 0.559827341215582 0.224145774968273 0.434475492660968 0.341378732370759 0.337971974874025 0.3757437702768 0.286284254849175 0.343464404060871 0.401211507207835 0.255324088731294 0.702824137008588 0.243712159675931 0.0534637033154812 0.865013575530407 0.12112256421346 0.013863860256133 0.842508051886653 0.153207457967674 0.00428449014567267 0.194073153041136 0.223914620246607 0.582012226712258 0.0619969278033794 0.433609831029186 0.504393241167435 0.333333333333333 0.333333333333333 0.333333333333333 0.374972890913034 0.499891563652136 0.12513554543483 2.85755107872553e-05 0.382711815973711 0.617259608515502 3.42055755088079e-05 0.315272789464683 0.684693004959808 6.94299798653058e-05 0.5799486218149 0.419981948205235 2.42795056692646e-05 0.594386578289266 0.405589142205065 7.23222680263253e-05 0.635351124611268 0.364576553120706 2.23279076517739e-05 0.794181347265948 0.2057963248264 0.000301659125188537 0.912518853695324 0.0871794871794872 0.000169290672083968 0.877772134755375 0.122058574572541 0.000141663125088539 0.469329933418331 0.53052840345658 6.14439324116743e-05 0.380522273425499 0.619416282642089 0.333333333333333 0.333333333333333 0.333333333333333 0.000495294700346706 0.713719663199604 0.28578504210005 </TABLE>
</DEFINITION>

</NETWORK>
</BIF>
