<?xml version="1.0" encoding="UTF-8"?>

<!-- DTD for the XMLBIF 0.3 format -->
<!DOCTYPE BIF [
<!ELEMENT BIF ( NETWORK )*>
<!ATTLIST BIF VERSION CDATA #REQUIRED>
   <!ELEMENT NETWORK ( NAME, ( PROPERTY | VARIABLE | DEFINITION )* )>
      <!ELEMENT NAME (#PCDATA)>
        <!ELEMENT VARIABLE ( NAME, ( OUTCOME |  PROPERTY )* ) >
          <!ATTLIST VARIABLE TYPE (nature|decision|utility) "nature">
           <!ELEMENT OUTCOME (#PCDATA)>
            <!ELEMENT DEFINITION ( FOR | GIVEN | TABLE | PROPERTY )* >
              <!ELEMENT FOR (#PCDATA)>
                <!ELEMENT GIVEN (#PCDATA)>
                  <!ELEMENT TABLE (#PCDATA)>
                    <!ELEMENT PROPERTY (#PCDATA)>
                      ]>
<BIF VERSION="0.3">
<NETWORK>
<NAME>Reco</NAME>
<VARIABLE TYPE="nature">
	<NAME>GoodStudent</NAME>
	<OUTCOME>True</OUTCOME>
	<OUTCOME>False</OUTCOME>
</VARIABLE>

<VARIABLE TYPE="nature">
	<NAME>Age</NAME>
	<OUTCOME>Adult</OUTCOME>
	<OUTCOME>Adolescent</OUTCOME>
	<OUTCOME>Senior</OUTCOME>
</VARIABLE>

<VARIABLE TYPE="nature">
	<NAME>SocioEcon</NAME>
	<OUTCOME>Prole</OUTCOME>
	<OUTCOME>Wealthy</OUTCOME>
	<OUTCOME>UpperMiddle</OUTCOME>
	<OUTCOME>Middle</OUTCOME>
</VARIABLE>

<VARIABLE TYPE="nature">
	<NAME>RiskAversion</NAME>
	<OUTCOME>Psychopath</OUTCOME>
	<OUTCOME>Normal</OUTCOME>
	<OUTCOME>Cautious</OUTCOME>
	<OUTCOME>Adventurous</OUTCOME>
</VARIABLE>

<VARIABLE TYPE="nature">
	<NAME>VehicleYear</NAME>
	<OUTCOME>Older</OUTCOME>
	<OUTCOME>Current</OUTCOME>
</VARIABLE>

<VARIABLE TYPE="nature">
	<NAME>ThisCarDam</NAME>
	<OUTCOME>Mild</OUTCOME>
	<OUTCOME>Severe</OUTCOME>
	<OUTCOME>Moderate</OUTCOME>
	<OUTCOME>None</OUTCOME>
</VARIABLE>

<VARIABLE TYPE="nature">
	<NAME>RuggedAuto</NAME>
	<OUTCOME>EggShell</OUTCOME>
	<OUTCOME>Tank</OUTCOME>
	<OUTCOME>Football</OUTCOME>
</VARIABLE>

<VARIABLE TYPE="nature">
	<NAME>Accident</NAME>
	<OUTCOME>Mild</OUTCOME>
	<OUTCOME>Severe</OUTCOME>
	<OUTCOME>None</OUTCOME>
	<OUTCOME>Moderate</OUTCOME>
</VARIABLE>

<VARIABLE TYPE="nature">
	<NAME>MakeModel</NAME>
	<OUTCOME>FamilySedan</OUTCOME>
	<OUTCOME>Luxury</OUTCOME>
	<OUTCOME>Economy</OUTCOME>
	<OUTCOME>SportsCar</OUTCOME>
	<OUTCOME>SuperLuxury</OUTCOME>
</VARIABLE>

<VARIABLE TYPE="nature">
	<NAME>DrivQuality</NAME>
	<OUTCOME>Normal</OUTCOME>
	<OUTCOME>Excellent</OUTCOME>
	<OUTCOME>Poor</OUTCOME>
</VARIABLE>

<VARIABLE TYPE="nature">
	<NAME>Mileage</NAME>
	<OUTCOME>FiftyThou</OUTCOME>
	<OUTCOME>FiveThou</OUTCOME>
	<OUTCOME>TwentyThou</OUTCOME>
	<OUTCOME>Domino</OUTCOME>
</VARIABLE>

<VARIABLE TYPE="nature">
	<NAME>Antilock</NAME>
	<OUTCOME>True</OUTCOME>
	<OUTCOME>False</OUTCOME>
</VARIABLE>

<VARIABLE TYPE="nature">
	<NAME>DrivingSkill</NAME>
	<OUTCOME>Normal</OUTCOME>
	<OUTCOME>Expert</OUTCOME>
	<OUTCOME>SubStandard</OUTCOME>
</VARIABLE>

<VARIABLE TYPE="nature">
	<NAME>SeniorTrain</NAME>
	<OUTCOME>True</OUTCOME>
	<OUTCOME>False</OUTCOME>
</VARIABLE>

<VARIABLE TYPE="nature">
	<NAME>ThisCarCost</NAME>
	<OUTCOME>HundredThou</OUTCOME>
	<OUTCOME>Million</OUTCOME>
	<OUTCOME>TenThou</OUTCOME>
	<OUTCOME>Thousand</OUTCOME>
</VARIABLE>

<VARIABLE TYPE="nature">
	<NAME>Theft</NAME>
	<OUTCOME>True</OUTCOME>
	<OUTCOME>False</OUTCOME>
</VARIABLE>

<VARIABLE TYPE="nature">
	<NAME>CarValue</NAME>
	<OUTCOME>FiveThou</OUTCOME>
	<OUTCOME>FiftyThou</OUTCOME>
	<OUTCOME>Million</OUTCOME>
	<OUTCOME>TenThou</OUTCOME>
	<OUTCOME>TwentyThou</OUTCOME>
</VARIABLE>

<VARIABLE TYPE="nature">
	<NAME>HomeBase</NAME>
	<OUTCOME>City</OUTCOME>
	<OUTCOME>Secure</OUTCOME>
	<OUTCOME>Suburb</OUTCOME>
	<OUTCOME>Rural</OUTCOME>
</VARIABLE>

<VARIABLE TYPE="nature">
	<NAME>AntiTheft</NAME>
	<OUTCOME>False</OUTCOME>
	<OUTCOME>True</OUTCOME>
</VARIABLE>

<VARIABLE TYPE="nature">
	<NAME>PropCost</NAME>
	<OUTCOME>Million</OUTCOME>
	<OUTCOME>HundredThou</OUTCOME>
	<OUTCOME>TenThou</OUTCOME>
	<OUTCOME>Thousand</OUTCOME>
</VARIABLE>

<VARIABLE TYPE="nature">
	<NAME>OtherCarCost</NAME>
	<OUTCOME>HundredThou</OUTCOME>
	<OUTCOME>Million</OUTCOME>
	<OUTCOME>TenThou</OUTCOME>
	<OUTCOME>Thousand</OUTCOME>
</VARIABLE>

<VARIABLE TYPE="nature">
	<NAME>OtherCar</NAME>
	<OUTCOME>False</OUTCOME>
	<OUTCOME>True</OUTCOME>
</VARIABLE>

<VARIABLE TYPE="nature">
	<NAME>MedCost</NAME>
	<OUTCOME>HundredThou</OUTCOME>
	<OUTCOME>Million</OUTCOME>
	<OUTCOME>Thousand</OUTCOME>
	<OUTCOME>TenThou</OUTCOME>
</VARIABLE>

<VARIABLE TYPE="nature">
	<NAME>Cushioning</NAME>
	<OUTCOME>Fair</OUTCOME>
	<OUTCOME>Good</OUTCOME>
	<OUTCOME>Excellent</OUTCOME>
	<OUTCOME>Poor</OUTCOME>
</VARIABLE>

<VARIABLE TYPE="nature">
	<NAME>Airbag</NAME>
	<OUTCOME>True</OUTCOME>
	<OUTCOME>False</OUTCOME>
</VARIABLE>

<VARIABLE TYPE="nature">
	<NAME>ILiCost</NAME>
	<OUTCOME>HundredThou</OUTCOME>
	<OUTCOME>TenThou</OUTCOME>
	<OUTCOME>Million</OUTCOME>
	<OUTCOME>Thousand</OUTCOME>
</VARIABLE>

<VARIABLE TYPE="nature">
	<NAME>DrivHist</NAME>
	<OUTCOME>Many</OUTCOME>
	<OUTCOME>Zero</OUTCOME>
	<OUTCOME>One</OUTCOME>
</VARIABLE>

<DEFINITION>
	<FOR>GoodStudent</FOR>
	<GIVEN>SocioEcon</GIVEN>
	<GIVEN>Age</GIVEN>
	<TABLE>0.999998062743852 1.93725614788239e-06 0.795614997977931 0.204385002022069 0.999988480589794 1.15194102061974e-05 0.999917992455306 8.20075446941119e-05 0.618122160524987 0.381877839475013 0.999752107089737 0.000247892910262767 0.999995954332505 4.04566749467995e-06 0.512804923443433 0.487195076556567 0.999991798034809 8.20196519085973e-06 0.999998082005762 1.91799423834531e-06 0.899554519673467 0.100445480326532 0.999995422796305 4.57720369471882e-06 </TABLE>
</DEFINITION>

<DEFINITION>
	<FOR>Age</FOR>
	<GIVEN>DrivQuality</GIVEN>
	<GIVEN>SocioEcon</GIVEN>
	<TABLE>0.723906246822232 0.160943448204457 0.115150304973311 0.659078463584448 0.118360322303059 0.222561214112493 0.585033943385255 0.122757035553675 0.292209021061071 0.618990985313227 0.122469966573995 0.258539048112778 0.60473688739427 0.332300743975981 0.0629623686297493 0.55793505702098 0.30721685383477 0.13484808914425 0.535634721605612 0.278330393603788 0.186034884790599 0.547547347762196 0.297478373338499 0.154974278899305 0.634936648610615 0.153662688126982 0.211400663262403 0.574729842061513 0.149792186201164 0.275477971737323 0.499055173392488 0.116702891244109 0.384241935363403 0.507404977182661 0.137063439987247 0.355531582830091 </TABLE>
</DEFINITION>

<DEFINITION>
	<FOR>SocioEcon</FOR>
	<GIVEN>MakeModel</GIVEN>
	<GIVEN>VehicleYear</GIVEN>
	<TABLE>0.164528974750862 9.16284575998475e-07 0.00641490831656533 0.829055200647996 0.281605378023679 0.000733565933344039 0.116352316024584 0.601308740018394 0.659358107043674 0.000316197883612173 0.0512229318857997 0.289102763186915 0.527076818604807 0.0065412764815855 0.375837308540338 0.0905445963732699 0.464748784440843 0.00395633210789158 0.103441119500336 0.42785376395093 0.276123153363297 0.0398295120517343 0.571016100585993 0.113031233998976 1.50502678947685e-05 0.0192793931731985 0.980690506291012 1.50502678947685e-05 3.55310470288939e-06 0.0450569207373403 0.954935973053254 3.55310470288939e-06 0.00190839694656489 0.994274809160305 0.00190839694656489 0.00190839694656489 0.000167672702883971 0.999496981891348 0.000167672702883971 0.000167672702883971 </TABLE>
</DEFINITION>

<DEFINITION>
	<FOR>RiskAversion</FOR>
	<GIVEN>SeniorTrain</GIVEN>
	<GIVEN>DrivQuality</GIVEN>
	<GIVEN>Age</GIVEN>
	<TABLE>0.199214949634042 0.672272209238427 0.123893734350845 0.00461910677668562 0.11998666843064 0.597358619215778 0.276790348350854 0.00586436400272737 0.113093845073719 0.791953950566167 0.0881429008623018 0.00680930349781274 0.172753482135769 0.464114962671975 0.337408444160862 0.0257231110313944 0.0923416569301416 0.339821481944407 0.539468249870934 0.0283686112545173 0.117355608343592 0.591754373797097 0.250936313352869 0.0399537045064415 0.263887288932004 0.322710461697032 0.394411434807652 0.0189908145633128 0.104720065386187 0.162269525709753 0.708773047429025 0.0242373614750355 0.169920565327281 0.475382988600609 0.322187548357147 0.0325088977149636 0.25 0.25 0.25 0.25 0.25 0.25 0.25 0.25 0.763760845279236 0.236233934369747 2.61017550820117e-06 2.61017550820117e-06 0.25 0.25 0.25 0.25 0.25 0.25 0.25 0.25 0.774672993075147 0.225301359322903 1.28238009746089e-05 1.28238009746089e-05 0.25 0.25 0.25 0.25 0.25 0.25 0.25 0.25 0.843690020781765 0.15630336082174 3.30919824744861e-06 3.30919824744861e-06 </TABLE>
</DEFINITION>

<DEFINITION>
	<FOR>VehicleYear</FOR>
	<GIVEN>MakeModel</GIVEN>
	<GIVEN>RuggedAuto</GIVEN>
	<TABLE>0.877927494003138 0.122072505996862 0.5 0.5 0.443401420767387 0.556598579232613 0.324663939216832 0.675336060783168 0.791980448519979 0.208019551480021 0.628301250855514 0.371698749144486 0.59144553186405 0.40855446813595 0.516120365394949 0.483879634605051 0.572343794989922 0.427656205010078 0.18516739339295 0.81483260660705 0.198715837998024 0.801284162001976 0.188072979882757 0.811927020117243 0.113970588235294 0.886029411764706 0.0708255159474672 0.929174484052533 0.0857026807473599 0.91429731925264 </TABLE>
</DEFINITION>

<DEFINITION>
	<FOR>ThisCarDam</FOR>
	<TABLE>0.732650192775636 0.122679192453417 0.0805352162753747 0.0641353984955723 </TABLE>
</DEFINITION>

<DEFINITION>
	<FOR>RuggedAuto</FOR>
	<GIVEN>ThisCarDam</GIVEN>
	<TABLE>0.483749562412877 0.167640416494475 0.348610021092647 0.572497075361334 0.0884939054303936 0.339009019208272 0.484818174501891 0.190678209682797 0.324503615815312 0.510733827074942 0.110716502807975 0.378549670117083 </TABLE>
</DEFINITION>

<DEFINITION>
	<FOR>Accident</FOR>
	<GIVEN>RuggedAuto</GIVEN>
	<GIVEN>ThisCarDam</GIVEN>
	<TABLE>0.999903991096644 6.53121791539199e-07 6.53121791539199e-07 9.47026597731839e-05 3.29584854916747e-06 0.844162393049715 0.155672814522827 0.000161496578909206 5.92852569423036e-06 5.92852569423036e-06 0.000859636225663402 0.999128506722948 7.0667382762812e-06 7.0667382762812e-06 0.88193600361817 0.118049862905277 0.909710966535745 0.00579160038899652 0.00552020746481315 0.0789772256104456 2.13219616204691e-05 0.941599147121535 0.0583582089552239 2.13219616204691e-05 1.50738619234248e-05 0.243849864335243 0.491302381670184 0.26483268013265 3.25987742860868e-05 0.502314512974312 0.474149171991133 0.0235037162602686 0.974591709112001 9.06306077688557e-07 0.000174917072993891 0.0252324675089271 5.56582140392279e-06 0.930254691987443 0.0697341763697486 5.56582140392279e-06 8.85739592559787e-06 0.00213463241806909 0.100345438441098 0.897511071744907 9.53434270241409e-06 0.0206037145799169 0.913475839975592 0.0659109111017886 </TABLE>
</DEFINITION>

<DEFINITION>
	<FOR>MakeModel</FOR>
	<GIVEN>Accident</GIVEN>
	<GIVEN>RuggedAuto</GIVEN>
	<TABLE>0.618214928633201 0.0802009714140894 0.279792862536284 0.0215712453068785 0.000219992109546665 1.65737157442013e-06 0.788877379364066 0.00865313699004748 0.196996842707151 0.00547098356716084 0.195420273251078 0.613710910328563 0.0150879529231467 0.173280463626659 0.00250039987055353 0.69152155919604 0.0704667905611169 0.224512360813955 0.0134961660393859 3.12338950228788e-06 1.01497081958894e-05 0.884861710225831 0.00670895711748287 0.104146155798021 0.00427302715046942 0.227066179072785 0.655142149345287 0.0144437890763242 0.101927568715347 0.00142031379025599 0.634503426646533 0.0775049366941573 0.27209199674759 0.0153374375653386 0.000562202346381694 1.51503673964094e-05 0.817225967729717 0.00637830467388834 0.174547382774032 0.00183319445496553 0.192230936092107 0.639152344401802 0.0132220924411814 0.152184214917404 0.00321041214750542 0.588912138404125 0.083875142912613 0.304683219362772 0.0225251849774576 4.31434303341459e-06 1.32899195959864e-05 0.749564755133232 0.0151637982590205 0.229663100538242 0.00559505614991029 0.181658387466565 0.608453602186884 0.0144675347579436 0.190829193733282 0.00459128185532465 </TABLE>
</DEFINITION>

<DEFINITION>
	<FOR>DrivQuality</FOR>
	<GIVEN>Antilock</GIVEN>
	<GIVEN>Accident</GIVEN>
	<TABLE>0.601248262324913 0.140327235208591 0.258424502466496 0.0172273365648347 0.978013463121701 0.00475920031346444 0.0814805285764313 0.910793793729408 0.00772567769416036 0.123250424406359 0.857131787860217 0.0196177877334235 0.569022378173447 0.180865157000897 0.250112464825656 0.0277611821404389 0.969331262197793 0.00290755566176763 0.0332625619249823 0.964491215114311 0.00224622296070648 0.0721809740033953 0.919453478145262 0.00836554785134278 </TABLE>
</DEFINITION>

<DEFINITION>
	<FOR>Mileage</FOR>
	<GIVEN>DrivQuality</GIVEN>
	<GIVEN>Accident</GIVEN>
	<TABLE>0.402404268155889 0.398588280649328 0.09981736840615 0.0991900827886331 0.35412147505423 0.369739696312364 0.177114967462039 0.0990238611713666 0.446122416279442 0.367288896010255 0.159629867008492 0.0269588207018106 0.30935508418149 0.511390659183868 0.125582612004185 0.0536716446304575 0.44083384826938 0.30057397237622 0.0468947180616357 0.211697461292765 0.345471474590437 0.473026427893315 0.15316534270251 0.0283367548137389 0.400542239240235 0.393438338392553 0.156137820714673 0.0498816016525386 0.427046701153426 0.42243779780837 0.0547337278106509 0.0957817732275526 0.403413476332928 0.399297025157772 0.0983723370445293 0.0989171614647705 0.166811091854419 0.665944540727903 0.146013864818024 0.0212305025996534 0.229202772963605 0.645147313691508 0.104419410745234 0.0212305025996534 0.293206011271133 0.51111458985598 0.135410144020038 0.0602692548528491 </TABLE>
</DEFINITION>

<DEFINITION>
	<FOR>Antilock</FOR>
	<GIVEN>MakeModel</GIVEN>
	<GIVEN>VehicleYear</GIVEN>
	<TABLE>0.999998167430848 1.83256915199695e-06 0.998970817944264 0.00102918205573641 0.999997749481255 2.25051874457062e-06 0.606806616309387 0.393193383690613 0.895633210789158 0.104366789210842 0.0988128425404411 0.901187157459559 0.707994702305701 0.292005297694299 0.0068290672389534 0.993170932761047 0.690839694656489 0.309160305343511 0.000335345405767941 0.999664654594232 </TABLE>
</DEFINITION>

<DEFINITION>
	<FOR>DrivingSkill</FOR>
	<GIVEN>DrivQuality</GIVEN>
	<GIVEN>RiskAversion</GIVEN>
	<GIVEN>Age</GIVEN>
	<TABLE>0.999996422252872 1.78887356420536e-06 1.78887356420536e-06 0.999971728651598 1.4135674200981e-05 1.4135674200981e-05 0.999995803670529 2.09816473530603e-06 2.09816473530603e-06 0.999998939801393 5.30099303502525e-07 5.30099303502525e-07 0.999994321263178 2.83936841089068e-06 2.83936841089068e-06 0.999994996384888 2.50180755595918e-06 2.50180755595918e-06 0.993781191123384 2.87641483654773e-06 0.00621593246177964 0.998002340815364 6.12778890992763e-06 0.00199153139572648 0.992579733823479 3.40379182409204e-05 0.00738622825827972 0.93319447658721 7.71426367353236e-05 0.0667283807760549 0.936976004625614 0.000289100896212778 0.0627348944781729 0.808894760017613 0.000440334654337296 0.190664905328049 2.83675871948711e-06 0.999994326482561 2.83675871948711e-06 9.80824873718797e-06 0.999980383502526 9.80824873718797e-06 7.62061528847839e-06 0.999984758769423 7.62061528847839e-06 1.05590488408804e-06 0.999997888190232 1.05590488408804e-06 2.66528072069191e-06 0.999994669438559 2.66528072069191e-06 4.32670050146459e-06 0.999991346598997 4.32670050146459e-06 0.370195917810089 0.628077147085779 0.00172693510413172 0.212330618528835 0.786942411558989 0.000726969912175991 0.271146427131917 0.728842056774342 1.15160937410031e-05 0.483530509992189 0.448553085290812 0.0679164047169991 0.29310730134406 0.689621045238323 0.0172716534176164 0.320315325088595 0.640558327909163 0.039126347002242 0.550452427177031 3.82926091435092e-06 0.449543743562055 0.607406557251616 3.82570105971919e-05 0.392555185737786 0.295113067044593 2.48635612078718e-06 0.704884446599286 3.1312723298858e-06 3.1312723298858e-06 0.99999373745534 2.46895291706787e-05 2.46895291706787e-05 0.999950620941659 7.92725946712962e-06 7.92725946712962e-06 0.999984145481066 0.634751418725901 2.56203322957099e-06 0.36524601924087 0.755182101330077 5.6526875703053e-06 0.244812245982352 0.602283945676245 2.66816083673524e-05 0.397689372715387 0.816014897579143 5.32056397978186e-05 0.183931896781059 0.910428028425054 0.000165261940175178 0.0894067096347711 0.8852762357917 0.000264340470526038 0.114459423737774 </TABLE>
</DEFINITION>

<DEFINITION>
	<FOR>SeniorTrain</FOR>
	<GIVEN>DrivQuality</GIVEN>
	<GIVEN>Age</GIVEN>
	<TABLE>0.999997861776693 2.13822330748934e-06 0.999989823333062 1.01766669380445e-05 0.367076813279763 0.632923186720237 0.999997059636453 2.9403635465489e-06 0.99999456568994 5.43431005999478e-06 0.747369375907112 0.252630624092888 0.999993937042247 6.06295775331038e-06 0.999975961538461 2.40384615384615e-05 0.204215560283987 0.795784439716013 </TABLE>
</DEFINITION>

<DEFINITION>
	<FOR>ThisCarCost</FOR>
	<GIVEN>CarValue</GIVEN>
	<GIVEN>Theft</GIVEN>
	<GIVEN>ThisCarDam</GIVEN>
	<TABLE>0.999998797693495 4.00768834932935e-07 4.00768834932935e-07 4.00768834932935e-07 0.010863451673277 0.989131699653805 2.42433645911114e-06 2.42433645911114e-06 0.943137445579809 0.0568550739815383 3.7402193264613e-06 3.7402193264613e-06 0.13932102706991 0.860669298194694 4.83736769799346e-06 4.83736769799346e-06 0.000271444082519001 0.999185667752443 0.000271444082519001 0.000271444082519001 0.00308641975308642 0.990740740740741 0.00308641975308642 0.00308641975308642 0.00206611570247934 0.993801652892562 0.00206611570247934 0.00206611570247934 0.00308641975308642 0.990740740740741 0.00308641975308642 0.00308641975308642 0.999999307428704 2.3085709853258e-07 2.3085709853258e-07 2.3085709853258e-07 0.0498623620915768 0.950135473790366 1.08205902848412e-06 1.08205902848412e-06 0.952112451666796 0.0478832424798271 2.1529266885404e-06 2.1529266885404e-06 0.236397876192531 0.763597433419949 2.34519375990844e-06 2.34519375990844e-06 0.25 0.748960498960499 0.00051975051975052 0.00051975051975052 0.00609756097560976 0.981707317073171 0.00609756097560976 0.00609756097560976 0.25 0.25 0.25 0.25 0.00609756097560976 0.981707317073171 0.00609756097560976 0.00609756097560976 0.999998847857245 3.84047585031976e-07 3.84047585031976e-07 3.84047585031976e-07 0.00334104266758861 0.00572537284963222 0.990930604070052 2.98041272755451e-06 0.992660436381723 0.00733301920131935 3.27220847894661e-06 3.27220847894661e-06 0.00975694379325219 0.0120074642261023 0.978230903396411 4.68858423510437e-06 0.0218631178707224 0.000135795763172189 0.977865290602933 0.000135795763172189 0.00103734439834025 0.00103734439834025 0.996887966804979 0.00103734439834025 0.00124378109452736 0.00124378109452736 0.996268656716418 0.00124378109452736 0.0015527950310559 0.0015527950310559 0.995341614906832 0.0015527950310559 0.999997203589845 9.32136718356755e-07 9.32136718356755e-07 9.32136718356755e-07 0.00178722081612717 1.11007504107278e-05 0.998190577683051 1.11007504107278e-05 0.987560773766422 0.0124219854487776 8.62039240026206e-06 8.62039240026206e-06 1.37053889589387e-05 0.00659229208924949 0.993380297132833 1.37053889589387e-05 0.000692520775623269 0.000692520775623269 0.99792243767313 0.000692520775623269 0.00609756097560976 0.00609756097560976 0.981707317073171 0.00609756097560976 0.496913580246914 0.00308641975308642 0.496913580246914 0.00308641975308642 0.00609756097560976 0.00609756097560976 0.981707317073171 0.00609756097560976 0.999907189704244 3.09367652518253e-05 3.09367652518253e-05 3.09367652518253e-05 0.000367107195301028 0.000367107195301028 0.000367107195301028 0.998898678414097 0.999354005167959 0.000215331610680448 0.000215331610680448 0.000215331610680448 0.000346740638002774 0.000346740638002774 0.0558252427184466 0.943481276005548 0.25 0.25 0.25 0.25 0.25 0.25 0.25 0.25 0.25 0.25 0.25 0.25 0.25 0.25 0.25 0.25 </TABLE>
</DEFINITION>

<DEFINITION>
	<FOR>Theft</FOR>
	<GIVEN>HomeBase</GIVEN>
	<GIVEN>VehicleYear</GIVEN>
	<TABLE>0.999994168756196 5.83124380430346e-06 0.999994991234661 5.00876533934385e-06 0.999995270928506 4.72907149410285e-06 0.99953762324119 0.000462376758810056 0.999991234375274 8.76562472607423e-06 0.99963134839745 0.000368651602550202 0.997903890325405 0.00209610967459533 0.992233916891451 0.00776608310854886 </TABLE>
</DEFINITION>

<DEFINITION>
	<FOR>CarValue</FOR>
	<GIVEN>Mileage</GIVEN>
	<GIVEN>MakeModel</GIVEN>
	<GIVEN>VehicleYear</GIVEN>
	<TABLE>0.300319843804655 0.699587335191278 9.19065114162976e-05 4.57246325454217e-07 4.57246325454217e-07 0.789051046688239 0.10717068706899 0.103774492693465 1.88677465306931e-06 1.88677465306931e-06 0.299542490402335 0.5036235540773 0.196832840323296 5.57598534631051e-07 5.57598534631051e-07 0.103183361850625 1.04014437203884e-06 0.896813517716259 1.04014437203884e-06 1.04014437203884e-06 0.491567838282328 0.17090933132784 0.299833885670366 0.0300840488921579 0.00760489582730721 0.0963529425521217 2.33860689187451e-06 0.802612223898224 0.0916757287683727 0.00935676617438991 0.139055508302208 0.053259864649976 0.258873562368256 0.548803668503384 7.39617617691653e-06 1.77807807540829e-06 1.77807807540829e-06 1.77807807540829e-06 0.999992887687698 1.77807807540829e-06 0.00124223602484472 0.00124223602484472 0.00124223602484472 0.00124223602484472 0.995031055900621 8.47098686997035e-05 8.47098686997035e-05 8.47098686997035e-05 8.47098686997035e-05 0.999661160525201 0.0126609801353667 0.987337643721001 4.58714544232697e-07 4.58714544232697e-07 4.58714544232697e-07 0.794366933920149 0.0974035226955024 0.108225935913276 1.80373553629567e-06 1.80373553629567e-06 0.202456054371185 0.69648350472199 0.101059314276379 5.63315222748922e-07 5.63315222748922e-07 0.101645394109057 1.0544018641825e-06 0.898351442685351 1.0544018641825e-06 1.0544018641825e-06 0.483836709789662 0.387201622677913 0.0976261739266662 0.02308852994286 0.00824696366289856 0.0996657922161929 2.3957547226315e-06 0.804017680669853 0.0896036223811406 0.00671050897809082 0.277774777207669 0.121916592724046 0.300922032329 0.299378881987578 7.71575170711007e-06 1.76365287784058e-06 1.76365287784058e-06 1.76365287784058e-06 0.999992945388489 1.76365287784058e-06 0.00124223602484472 0.00124223602484472 0.00124223602484472 0.00124223602484472 0.995031055900621 7.93335977786593e-05 7.93335977786593e-05 7.93335977786593e-05 7.93335977786593e-05 0.999682665608885 1.82813685432491e-06 0.999992687452583 1.82813685432491e-06 1.82813685432491e-06 1.82813685432491e-06 0.767786047505431 0.108265375164702 0.123934332822905 7.12225348100139e-06 7.12225348100139e-06 0.00886343748961575 0.991129916593746 2.21530554601743e-06 2.21530554601743e-06 2.21530554601743e-06 0.0840023199536009 3.99992000159997e-06 0.915985680286394 3.99992000159997e-06 3.99992000159997e-06 0.0618325997110312 0.896481973051981 0.0241994556634522 0.00941500621618897 0.00807096535734686 0.112814875005975 9.55977247741504e-06 0.793470675397926 0.0803116485827637 0.0133932412408585 0.224715629827271 0.235950007021486 0.297739081589664 0.241567195618593 2.80859429855357e-05 6.80248971123431e-06 6.80248971123431e-06 6.80248971123431e-06 0.999972790041155 6.80248971123431e-06 0.00487804878048781 0.00487804878048781 0.00487804878048781 0.00487804878048781 0.980487804878049 0.000453514739229025 0.000453514739229025 0.000453514739229025 0.000453514739229025 0.998185941043084 0.696016064700952 0.253131419202108 0.0508488315325025 1.84228221921316e-06 1.84228221921316e-06 0.796122723046727 0.0991770255845184 0.10468647773837 6.88681519231431e-06 6.88681519231431e-06 0.307036997673622 0.197449250717398 0.495509027999197 2.36180489129793e-06 2.36180489129793e-06 0.103633666216426 4.4285998981422e-06 0.89635304798388 4.4285998981422e-06 4.4285998981422e-06 0.313448177405539 0.0330002220741728 0.587551156371943 0.0596491228070175 0.006351321341328 0.0819103852197515 9.52335603066521e-06 0.782829389076711 0.127622494166944 0.00762820818056283 0.0943562332966515 0.00631976104386103 0.201257663889326 0.698034900172929 3.14415972331394e-05 7.64496770001147e-06 7.64496770001147e-06 7.64496770001147e-06 0.9999694201292 7.64496770001147e-06 0.00124223602484472 0.00124223602484472 0.00124223602484472 0.00124223602484472 0.995031055900621 0.00031201248049922 0.00031201248049922 0.00031201248049922 0.00031201248049922 0.998751950078003 </TABLE>
</DEFINITION>

<DEFINITION>
	<FOR>HomeBase</FOR>
	<GIVEN>RiskAversion</GIVEN>
	<GIVEN>SocioEcon</GIVEN>
	<TABLE>0.948434698244125 0.0245341776318639 0.0270289585156054 2.16560840602559e-06 0.999820445295667 5.98515681110845e-05 5.98515681110845e-05 5.98515681110845e-05 0.999990285099934 3.23830002202044e-06 3.23830002202044e-06 3.23830002202044e-06 1.60255382978314e-06 0.0498474368754046 0.145026313933885 0.805124646636881 0.296520940394606 0.606529405772615 0.0969487756815332 8.78151245745357e-07 0.84846244825547 0.00320323280110388 0.148285038438794 4.92805046323674e-05 0.493716657004689 0.404014368216741 0.10226714022587 1.83455269936084e-06 9.36466375238331e-07 0.0489668902948371 0.152053108881073 0.798979064357715 0.0104051244951969 0.605417990677741 0.140367304328715 0.243809580498347 0.948033358227533 6.2235499128703e-05 0.0518421707742096 6.2235499128703e-05 0.198086197423845 0.301230083633478 0.104905072950369 0.395778645992308 1.40764973170196e-06 0.0503614844511011 0.146937517243709 0.802699590655458 0.154773713577185 0.0337569745815251 0.00598264104153751 0.805486670799752 0.498704663212435 0.00129533678756477 0.00129533678756477 0.498704663212435 0.398517093049581 0.0362802807335295 0.0036789676250849 0.561523658591804 2.8405862970117e-05 0.0509317123054198 0.145466424269969 0.803573457561641 </TABLE>
</DEFINITION>

<DEFINITION>
	<FOR>AntiTheft</FOR>
	<GIVEN>RiskAversion</GIVEN>
	<GIVEN>SocioEcon</GIVEN>
	<TABLE>0.999995668783188 4.33121681205118e-06 0.999880296863778 0.000119703136222169 0.999993523399956 6.47660004404088e-06 0.954561188710329 0.0454388112896712 0.302141986518622 0.697858013481378 0.845357776463631 0.154642223536369 0.896204677375562 0.103795322624438 0.10164967916662 0.89835032083338 4.57871264915156e-06 0.999995421287351 0.513940751804829 0.486059248195171 0.200238080703254 0.799761919296746 2.81529946340392e-06 0.999997184700537 6.19962802231866e-05 0.999938003719777 0.66580310880829 0.33419689119171 0.043581616481775 0.956418383518225 5.68117259402341e-05 0.99994318827406 </TABLE>
</DEFINITION>

<DEFINITION>
	<FOR>PropCost</FOR>
	<GIVEN>OtherCarCost</GIVEN>
	<GIVEN>ThisCarCost</GIVEN>
	<TABLE>0.298340666187892 0.70165890170518 2.1605346372592e-07 2.1605346372592e-07 0.951791830903489 4.30314818321084e-06 0.0481995628001446 4.30314818321084e-06 1.03335675608647e-05 1.03335675608647e-05 0.972192369693713 0.0277869631711652 0.00172413793103448 0.00172413793103448 0.00172413793103448 0.994827586206897 0.95558261521169 1.87336080929187e-05 0.0443799175721244 1.87336080929187e-05 0.595671430983926 3.83806438736816e-06 0.404320892887299 3.83806438736816e-06 1.04023634169683e-05 1.04023634169683e-05 0.950037448508301 0.049941746764865 0.000972762645914397 0.000972762645914397 0.000972762645914397 0.997081712062257 1.88693486300853e-05 1.88693486300853e-05 0.975790625707601 0.0241716355951393 4.0999065221313e-06 4.0999065221313e-06 0.79820670088722 0.201785099299736 1.0730995407134e-05 1.0730995407134e-05 0.589271150791947 0.410707387217238 0.00172413793103448 0.00172413793103448 0.00172413793103448 0.994827586206897 0.25 0.25 0.25 0.25 0.0147058823529412 0.0147058823529412 0.0147058823529412 0.955882352941177 0.25 0.25 0.25 0.25 0.25 0.25 0.25 0.25 </TABLE>
</DEFINITION>

<DEFINITION>
	<FOR>OtherCarCost</FOR>
	<GIVEN>Accident</GIVEN>
	<GIVEN>RuggedAuto</GIVEN>
	<TABLE>0.999998040450331 6.53183223119551e-07 6.53183223119551e-07 6.53183223119551e-07 0.999993784856596 2.07171446802516e-06 2.07171446802516e-06 2.07171446802516e-06 0.999997210205441 9.29931519842879e-07 9.29931519842879e-07 9.29931519842879e-07 0.201462527134446 0.406107007324348 0.392426561304327 3.90423687785985e-06 0.00366658208576503 0.578546054300939 0.417774676478051 1.26871352448617e-05 0.10391058157367 0.495747316267547 0.4003362038457 5.89831308245842e-06 0.599936113369729 0.200168428388895 0.199889650365896 5.80787547914973e-06 0.400897659268237 0.29181501401409 0.307268388758427 1.89379592455117e-05 0.509803103620891 0.173811112965126 0.316377440347072 8.34306691139663e-06 0.991441422007464 0.00440602282287465 0.0038883016588649 0.000264253510796643 0.948119476377168 0.0319124194298625 0.0199514917934746 1.66123994949831e-05 0.982341788895094 0.00882543135122424 0.00882543135122424 7.34840245730578e-06 </TABLE>
</DEFINITION>

<DEFINITION>
	<FOR>OtherCar</FOR>
	<GIVEN>SocioEcon</GIVEN>
	<TABLE>0.795928070568771 0.204071929431229 0.948736998514116 0.0512630014858841 0.901099414268369 0.0989005857316308 0.505500817245522 0.494499182754478 </TABLE>
</DEFINITION>

<DEFINITION>
	<FOR>MedCost</FOR>
	<GIVEN>Cushioning</GIVEN>
	<GIVEN>ThisCarDam</GIVEN>
	<TABLE>0.999875191024424 0.000122903495032412 9.52740271569087e-07 9.52740271569087e-07 0.503318824809576 0.206395291324562 0.101617370659808 0.188668513206054 0.96894324710015 0.0275257052947418 0.00118006513227707 0.00235098247283106 0.775237806112123 0.150910746812386 0.020087026917628 0.0537644201578628 0.999525175823244 0.000413972923036072 9.21988692730672e-07 5.99292650274937e-05 0.887488649630302 0.0817810351537164 0.010799066026722 0.0199312491892593 0.974937241221922 0.0151354611547615 0.00209467609950119 0.00783262152381573 0.944223407458385 0.0302916254462558 0.00689276958148738 0.0185921975138716 0.999951067030864 4.74722834898701e-05 7.30342822921079e-07 7.30342822921079e-07 0.321377628993523 0.260363146786988 0.202143221017393 0.216116003202096 0.950646164570877 0.0360417727967397 0.0021516475855967 0.0111604150467866 0.512015843692269 0.18437079249773 0.0997041049566334 0.203909258853368 0.999549308195056 0.000358599981023503 9.06964932549716e-05 1.3953306654611e-06 0.948224224754837 0.0305459846276173 0.00934269811820832 0.0118870924993374 0.985258549799255 0.00852561311856044 0.000786049436463019 0.00542978764572147 0.981969514640995 0.0128559967910148 0.00130365022061773 0.00387083834737264 </TABLE>
</DEFINITION>

<DEFINITION>
	<FOR>Cushioning</FOR>
	<GIVEN>Airbag</GIVEN>
	<GIVEN>RuggedAuto</GIVEN>
	<TABLE>0.293846615192595 1.35078913101034e-06 0.706150683229142 1.35078913101034e-06 5.63126478207005e-06 0.694813605135713 5.63126478207005e-06 0.305175132334722 0.603526139298241 0.295327817249753 0.101142831446816 3.21200519060039e-06 0.297361193094891 0.20238582838419 0.50024996687186 3.0116490585585e-06 6.26268193091009e-06 6.26268193091009e-06 6.26268193091009e-06 0.999981211954207 0.0986075557296554 0.598739648905449 2.27746854815935e-06 0.302650517896348 </TABLE>
</DEFINITION>

<DEFINITION>
	<FOR>Airbag</FOR>
	<GIVEN>MakeModel</GIVEN>
	<GIVEN>VehicleYear</GIVEN>
	<TABLE>0.949932378198291 0.0500676218017087 7.29916351586108e-06 0.999992700836484 0.801006882086321 0.198993117913679 4.19178242972477e-06 0.99999580821757 0.901958071444572 0.0980419285554282 9.48208833513493e-06 0.999990517911665 0.388929022936608 0.611070977063392 7.10620940577877e-06 0.999992893790594 0.919847328244275 0.0801526717557252 0.000335345405767941 0.999664654594232 </TABLE>
</DEFINITION>

<DEFINITION>
	<FOR>ILiCost</FOR>
	<GIVEN>Accident</GIVEN>
	<TABLE>0.999997086439513 9.71186829152698e-07 9.71186829152698e-07 9.71186829152698e-07 0.800462643609809 0.0599474322684998 0.100003567945577 0.0395863561761138 0.902538539165536 0.0275689877161847 0.0495615408706546 0.020330932247625 0.999096167751265 7.85941085856204e-06 0.000888113427017511 7.85941085856204e-06 </TABLE>
</DEFINITION>

<DEFINITION>
	<FOR>DrivHist</FOR>
	<GIVEN>DrivingSkill</GIVEN>
	<GIVEN>RiskAversion</GIVEN>
	<TABLE>0.952573777133584 0.00865978130639853 0.0387664415600172 0.902081649036269 0.0290239207138122 0.0688944302499184 0.497993444434789 0.198942018231691 0.303064537333521 0.106208235338037 0.596744689588233 0.29704707507373 0.29946576107278 0.405309607593056 0.295224631334163 0.026630435832218 0.827293251524264 0.146076312643518 0.00190678822830445 0.990923314763145 0.007169897008551 0.00205521302005221 0.997889240682109 5.5546297839249e-05 0.99998540731823 7.29634088504615e-06 7.29634088504615e-06 0.988432312981858 6.17272519644698e-06 0.0115615142929452 0.59609168165928 0.0926909181330174 0.311217400207703 0.29595015576324 0.377513452279807 0.326536391956953 </TABLE>
</DEFINITION>

</NETWORK>
</BIF>
