<?xml version="1.0" encoding="UTF-8"?>

<!-- DTD for the XMLBIF 0.3 format -->
<!DOCTYPE BIF [
<!ELEMENT BIF ( NETWORK )*>
<!ATTLIST BIF VERSION CDATA #REQUIRED>
   <!ELEMENT NETWORK ( NAME, ( PROPERTY | VARIABLE | DEFINITION )* )>
      <!ELEMENT NAME (#PCDATA)>
        <!ELEMENT VARIABLE ( NAME, ( OUTCOME |  PROPERTY )* ) >
          <!ATTLIST VARIABLE TYPE (nature|decision|utility) "nature">
           <!ELEMENT OUTCOME (#PCDATA)>
            <!ELEMENT DEFINITION ( FOR | GIVEN | TABLE | PROPERTY )* >
              <!ELEMENT FOR (#PCDATA)>
                <!ELEMENT GIVEN (#PCDATA)>
                  <!ELEMENT TABLE (#PCDATA)>
                    <!ELEMENT PROPERTY (#PCDATA)>
                      ]>
<BIF VERSION="0.3">
<NETWORK>
<NAME>Reco</NAME>
<VARIABLE TYPE="nature">
	<NAME>GoodStudent</NAME>
	<OUTCOME>True</OUTCOME>
	<OUTCOME>False</OUTCOME>
</VARIABLE>

<VARIABLE TYPE="nature">
	<NAME>Age</NAME>
	<OUTCOME>Adult</OUTCOME>
	<OUTCOME>Senior</OUTCOME>
	<OUTCOME>Adolescent</OUTCOME>
</VARIABLE>

<VARIABLE TYPE="nature">
	<NAME>SocioEcon</NAME>
	<OUTCOME>Middle</OUTCOME>
	<OUTCOME>Prole</OUTCOME>
	<OUTCOME>UpperMiddle</OUTCOME>
	<OUTCOME>Wealthy</OUTCOME>
</VARIABLE>

<VARIABLE TYPE="nature">
	<NAME>RiskAversion</NAME>
	<OUTCOME>Normal</OUTCOME>
	<OUTCOME>Psychopath</OUTCOME>
	<OUTCOME>Cautious</OUTCOME>
	<OUTCOME>Adventurous</OUTCOME>
</VARIABLE>

<VARIABLE TYPE="nature">
	<NAME>VehicleYear</NAME>
	<OUTCOME>Older</OUTCOME>
	<OUTCOME>Current</OUTCOME>
</VARIABLE>

<VARIABLE TYPE="nature">
	<NAME>ThisCarDam</NAME>
	<OUTCOME>Mild</OUTCOME>
	<OUTCOME>None</OUTCOME>
	<OUTCOME>Moderate</OUTCOME>
	<OUTCOME>Severe</OUTCOME>
</VARIABLE>

<VARIABLE TYPE="nature">
	<NAME>RuggedAuto</NAME>
	<OUTCOME>EggShell</OUTCOME>
	<OUTCOME>Football</OUTCOME>
	<OUTCOME>Tank</OUTCOME>
</VARIABLE>

<VARIABLE TYPE="nature">
	<NAME>Accident</NAME>
	<OUTCOME>Mild</OUTCOME>
	<OUTCOME>Moderate</OUTCOME>
	<OUTCOME>Severe</OUTCOME>
	<OUTCOME>None</OUTCOME>
</VARIABLE>

<VARIABLE TYPE="nature">
	<NAME>MakeModel</NAME>
	<OUTCOME>FamilySedan</OUTCOME>
	<OUTCOME>Luxury</OUTCOME>
	<OUTCOME>Economy</OUTCOME>
	<OUTCOME>SportsCar</OUTCOME>
	<OUTCOME>SuperLuxury</OUTCOME>
</VARIABLE>

<VARIABLE TYPE="nature">
	<NAME>DrivQuality</NAME>
	<OUTCOME>Normal</OUTCOME>
	<OUTCOME>Excellent</OUTCOME>
	<OUTCOME>Poor</OUTCOME>
</VARIABLE>

<VARIABLE TYPE="nature">
	<NAME>Mileage</NAME>
	<OUTCOME>FiftyThou</OUTCOME>
	<OUTCOME>Domino</OUTCOME>
	<OUTCOME>FiveThou</OUTCOME>
	<OUTCOME>TwentyThou</OUTCOME>
</VARIABLE>

<VARIABLE TYPE="nature">
	<NAME>Antilock</NAME>
	<OUTCOME>True</OUTCOME>
	<OUTCOME>False</OUTCOME>
</VARIABLE>

<VARIABLE TYPE="nature">
	<NAME>DrivingSkill</NAME>
	<OUTCOME>Normal</OUTCOME>
	<OUTCOME>Expert</OUTCOME>
	<OUTCOME>SubStandard</OUTCOME>
</VARIABLE>

<VARIABLE TYPE="nature">
	<NAME>SeniorTrain</NAME>
	<OUTCOME>True</OUTCOME>
	<OUTCOME>False</OUTCOME>
</VARIABLE>

<VARIABLE TYPE="nature">
	<NAME>ThisCarCost</NAME>
	<OUTCOME>HundredThou</OUTCOME>
	<OUTCOME>Million</OUTCOME>
	<OUTCOME>TenThou</OUTCOME>
	<OUTCOME>Thousand</OUTCOME>
</VARIABLE>

<VARIABLE TYPE="nature">
	<NAME>Theft</NAME>
	<OUTCOME>True</OUTCOME>
	<OUTCOME>False</OUTCOME>
</VARIABLE>

<VARIABLE TYPE="nature">
	<NAME>CarValue</NAME>
	<OUTCOME>FiftyThou</OUTCOME>
	<OUTCOME>FiveThou</OUTCOME>
	<OUTCOME>TenThou</OUTCOME>
	<OUTCOME>Million</OUTCOME>
	<OUTCOME>TwentyThou</OUTCOME>
</VARIABLE>

<VARIABLE TYPE="nature">
	<NAME>HomeBase</NAME>
	<OUTCOME>Suburb</OUTCOME>
	<OUTCOME>Rural</OUTCOME>
	<OUTCOME>City</OUTCOME>
	<OUTCOME>Secure</OUTCOME>
</VARIABLE>

<VARIABLE TYPE="nature">
	<NAME>AntiTheft</NAME>
	<OUTCOME>True</OUTCOME>
	<OUTCOME>False</OUTCOME>
</VARIABLE>

<VARIABLE TYPE="nature">
	<NAME>PropCost</NAME>
	<OUTCOME>Million</OUTCOME>
	<OUTCOME>HundredThou</OUTCOME>
	<OUTCOME>TenThou</OUTCOME>
	<OUTCOME>Thousand</OUTCOME>
</VARIABLE>

<VARIABLE TYPE="nature">
	<NAME>OtherCarCost</NAME>
	<OUTCOME>HundredThou</OUTCOME>
	<OUTCOME>Million</OUTCOME>
	<OUTCOME>TenThou</OUTCOME>
</VARIABLE>

<VARIABLE TYPE="nature">
	<NAME>OtherCar</NAME>
	<OUTCOME>True</OUTCOME>
	<OUTCOME>False</OUTCOME>
</VARIABLE>

<VARIABLE TYPE="nature">
	<NAME>MedCost</NAME>
	<OUTCOME>HundredThou</OUTCOME>
	<OUTCOME>TenThou</OUTCOME>
	<OUTCOME>Million</OUTCOME>
	<OUTCOME>Thousand</OUTCOME>
</VARIABLE>

<VARIABLE TYPE="nature">
	<NAME>Cushioning</NAME>
	<OUTCOME>Excellent</OUTCOME>
	<OUTCOME>Good</OUTCOME>
	<OUTCOME>Fair</OUTCOME>
	<OUTCOME>Poor</OUTCOME>
</VARIABLE>

<VARIABLE TYPE="nature">
	<NAME>Airbag</NAME>
	<OUTCOME>True</OUTCOME>
	<OUTCOME>False</OUTCOME>
</VARIABLE>

<VARIABLE TYPE="nature">
	<NAME>ILiCost</NAME>
	<OUTCOME>HundredThou</OUTCOME>
	<OUTCOME>Million</OUTCOME>
	<OUTCOME>TenThou</OUTCOME>
	<OUTCOME>Thousand</OUTCOME>
</VARIABLE>

<VARIABLE TYPE="nature">
	<NAME>DrivHist</NAME>
	<OUTCOME>Many</OUTCOME>
	<OUTCOME>Zero</OUTCOME>
	<OUTCOME>One</OUTCOME>
</VARIABLE>

<DEFINITION>
	<FOR>GoodStudent</FOR>
	<GIVEN>SocioEcon</GIVEN>
	<GIVEN>Age</GIVEN>
	<TABLE>0.999998067595509 1.93240449090804e-06 0.999995412717781 4.58728221877666e-06 0.901484899230616 0.0985151007693839 0.999998060940754 1.9390592460162e-06 0.999988643848373 1.13561516273365e-05 0.79689078587402 0.20310921412598 0.99999590905 4.0909500004091e-06 0.999991874807027 8.12519297333311e-06 0.508440428220596 0.491559571779404 0.999919419822724 8.058017727639e-05 0.999794829708658 0.000205170291341814 0.647829487680876 0.352170512319124 </TABLE>
</DEFINITION>

<DEFINITION>
	<FOR>Age</FOR>
	<GIVEN>DrivQuality</GIVEN>
	<GIVEN>SocioEcon</GIVEN>
	<TABLE>0.617746822693946 0.259034303809353 0.123218873496701 0.719289091195056 0.118706227390898 0.162004681414046 0.583512885615923 0.287327486504075 0.129159627880002 0.590968903663689 0.254380497264353 0.154650599071958 0.542547419057597 0.161316546010248 0.296136034932154 0.599215542405776 0.0667717441273249 0.334012713466899 0.521254103715968 0.184808236244182 0.29393766003985 0.50666368848187 0.147494602040057 0.345841709478073 0.522464477003287 0.35042485166736 0.127110671329353 0.639841850119464 0.204599756283159 0.155558393597378 0.485902627085151 0.401609210830481 0.112488162084368 0.572201850881788 0.28933123799546 0.138466911122752 </TABLE>
</DEFINITION>

<DEFINITION>
	<FOR>SocioEcon</FOR>
	<GIVEN>MakeModel</GIVEN>
	<GIVEN>VehicleYear</GIVEN>
	<TABLE>0.830433448140238 0.162985065300256 0.00650705198657605 7.44345729293404e-05 0.589396989387368 0.290851970811563 0.118415209958408 0.00133582984266071 0.281731529591522 0.664341623814396 0.0534342874758188 0.000492559118263333 0.0969614716082741 0.528130174395136 0.367409857402938 0.00749849659365192 0.433303433258926 0.460418920584489 0.103124443653196 0.00315320250338944 0.105183966031047 0.283598878089636 0.560375723106289 0.0508414327730274 1.44000921605898e-05 1.44000921605898e-05 0.975188641207304 0.0247825586083751 3.48864793960453e-06 3.48864793960453e-06 0.956172115934748 0.0438209067693725 0.00113122171945701 0.00113122171945701 0.00113122171945701 0.996606334841629 0.000159134309357097 0.000159134309357097 0.000159134309357097 0.999522597071929 </TABLE>
</DEFINITION>

<DEFINITION>
	<FOR>RiskAversion</FOR>
	<GIVEN>SeniorTrain</GIVEN>
	<GIVEN>DrivQuality</GIVEN>
	<GIVEN>Age</GIVEN>
	<TABLE>0.676410609041543 0.195759751809188 0.124546496085545 0.00328314306372333 0.774438758521582 0.115775223006957 0.100948984420182 0.00883703405127846 0.59535876566635 0.115945972936536 0.282401258301293 0.00629400309582064 0.472605368526812 0.169912213887514 0.329314248794497 0.0281681687911775 0.612032147527686 0.105485109834627 0.248510155771491 0.0339725868661954 0.346304857281652 0.0873459245063445 0.543670960406135 0.0226782578058689 0.315373243515103 0.258860913829366 0.402720456000244 0.023045386655287 0.461672885898986 0.166513375729227 0.3405818048037 0.0312319335680874 0.15216648528258 0.105242843765027 0.717072460833692 0.0255182101187011 0.25 0.25 0.25 0.25 0.244901866168742 0.755092888837605 2.62249682677884e-06 2.62249682677884e-06 0.25 0.25 0.25 0.25 0.25 0.25 0.25 0.25 0.215371844199652 0.784601802561535 1.31766194065251e-05 1.31766194065251e-05 0.25 0.25 0.25 0.25 0.25 0.25 0.25 0.25 0.163374653619095 0.83661865303008 3.34667541264508e-06 3.34667541264508e-06 0.25 0.25 0.25 0.25 </TABLE>
</DEFINITION>

<DEFINITION>
	<FOR>VehicleYear</FOR>
	<GIVEN>MakeModel</GIVEN>
	<GIVEN>RuggedAuto</GIVEN>
	<TABLE>0.879372480230188 0.120627519769812 0.440891004220893 0.559108995779107 0.5 0.5 0.313976000438348 0.686023999561652 0.634709271227612 0.365290728772388 0.779987733028232 0.220012266971768 0.587115917852071 0.412884082147929 0.573459393279826 0.426540606720174 0.649487471526196 0.350512528473804 0.186445228597729 0.813554771402271 0.197342611911395 0.802657388088605 0.193185188847143 0.806814811152857 0.00413223140495868 0.995867768595041 0.119063324538259 0.880936675461741 0.143196955280685 0.856803044719315 </TABLE>
</DEFINITION>

<DEFINITION>
	<FOR>ThisCarDam</FOR>
	<TABLE>0.73351684981278 0.0641242875079166 0.081790757880468 0.120568104798836 </TABLE>
</DEFINITION>

<DEFINITION>
	<FOR>RuggedAuto</FOR>
	<GIVEN>ThisCarDam</GIVEN>
	<TABLE>0.477361346213805 0.352848434815648 0.169790218970547 0.50025268933651 0.38364017038481 0.11610714027868 0.476560819607177 0.335959698873606 0.187479481519217 0.584548631110087 0.329831432630649 0.0856199362592635 </TABLE>
</DEFINITION>

<DEFINITION>
	<FOR>Accident</FOR>
	<GIVEN>RuggedAuto</GIVEN>
	<GIVEN>ThisCarDam</GIVEN>
	<TABLE>0.999775893846402 0.000222783993399776 6.61080099109128e-07 6.61080099109128e-07 7.21604849184586e-06 0.142365420695627 0.000699956703709049 0.856927406552172 5.93866546309713e-06 0.998841960234696 5.93866546309713e-06 0.00114616243437775 3.28441741003981e-06 0.000476240524455772 0.833982553174718 0.165537921883416 0.975270007763059 0.0245564860890999 8.94361586812102e-07 0.000172611786254736 9.40946215514321e-06 0.0691124995295269 0.0122040724152207 0.918674018593097 8.42403207871416e-06 0.886755736765846 0.00324325235030495 0.109992586851771 5.82085729586253e-06 5.82085729586253e-06 0.932926261379776 0.0670620969056323 0.910602636254823 0.0761008557048227 0.00803106111858686 0.00526544692176732 3.10906603656262e-05 0.0328628280064669 0.465644820295983 0.501461261037184 1.50957067809915e-05 0.281882132721454 0.223914618682447 0.494188152889318 2.2423535743116e-05 2.2423535743116e-05 0.949345232756301 0.0506099201722128 </TABLE>
</DEFINITION>

<DEFINITION>
	<FOR>MakeModel</FOR>
	<GIVEN>RuggedAuto</GIVEN>
	<TABLE>0.630386344976159 0.0824830329097524 0.267309445076343 0.0196388890981267 0.000182287939619003 0.192173720176171 0.620020912326655 0.0155279306302215 0.169075104825678 0.00320233204127544 4.69869611182897e-06 0.796715611417832 0.00825091037237167 0.190090449900153 0.00493832961353224 </TABLE>
</DEFINITION>

<DEFINITION>
	<FOR>DrivQuality</FOR>
	<GIVEN>Antilock</GIVEN>
	<GIVEN>Accident</GIVEN>
	<TABLE>0.601680574387646 0.144244106546841 0.254075319065513 0.129582110182771 0.855466371057692 0.0149515187595372 0.0168727895294091 0.978797503998558 0.00432970647203262 0.0799848721626385 0.911787582328973 0.0082275455083881 0.568493004183129 0.182092908848127 0.249414086968744 0.0579952513678125 0.931082894601012 0.0109218540311758 0.0336671199571434 0.964313677009931 0.00201920303292537 0.0330429466605533 0.963258444138774 0.00369860920067247 </TABLE>
</DEFINITION>

<DEFINITION>
	<FOR>Mileage</FOR>
	<GIVEN>DrivQuality</GIVEN>
	<GIVEN>Accident</GIVEN>
	<TABLE>0.401330742244677 0.100065574697519 0.39939938796949 0.0992042950883138 0.339947576565805 0.0452726938287501 0.498873356019498 0.115906373585947 0.378890837352039 0.0632398071021482 0.342064883822885 0.215804471722929 0.402318958502848 0.0430024410089504 0.421847030105777 0.132831570382425 0.435982110243712 0.214883070989883 0.308256385861486 0.0408784329049193 0.429879375007348 0.100029979895835 0.412385224026241 0.0577054210705762 0.335293995429046 0.0286245584874299 0.47990234780802 0.156179098275504 0.404849645301023 0.0477650825538326 0.396562872747818 0.150822399397326 0.407247617344201 0.100019163451465 0.396516084523597 0.0962171346807369 0.318533529845247 0.0178703021370671 0.513080324244657 0.150515843773029 0.261881188118812 0.048019801980198 0.642079207920792 0.048019801980198 0.207613814756672 0.000392464678178964 0.565541601255887 0.226452119309262 </TABLE>
</DEFINITION>

<DEFINITION>
	<FOR>Antilock</FOR>
	<GIVEN>MakeModel</GIVEN>
	<GIVEN>Accident</GIVEN>
	<GIVEN>VehicleYear</GIVEN>
	<TABLE>0.999999349907232 6.50092768238028e-07 0.998319182299233 0.00168081770076725 0.999994539159686 5.46084031410754e-06 0.99645702213811 0.00354297786188988 0.999996381033722 3.61896627847222e-06 0.99885854400947 0.00114145599053014 0.999994404717942 5.59528205816855e-06 0.996231449838491 0.00376855016150929 0.999999209962062 7.90037937621765e-07 0.578096316893451 0.421903683106549 0.999993596393489 6.4036065111871e-06 0.541487564423344 0.458512435576656 0.999995546886829 4.45311317141814e-06 0.781842592785329 0.218157407214671 0.999993063359276 6.93664072363036e-06 0.594921448694196 0.405078551305804 0.89322073170143 0.10677926829857 0.0992934115221203 0.90070658847788 0.84522341737171 0.15477658262829 0.0633748555284448 0.936625144471555 0.944316063128594 0.0556839368714057 0.21095631794805 0.78904368205195 0.926225290510698 0.0737747094893015 0.0975210639927582 0.902478936007242 0.671436526719835 0.328563473280165 0.00806972831991053 0.99193027168009 0.715196159576229 0.284803840423771 0.00901320651650011 0.9909867934835 0.871747211895911 0.128252788104089 0.0269860521528199 0.97301394784718 0.774384514189062 0.225615485810938 0.0124550419608366 0.987544958039163 0.888349514563107 0.111650485436893 0.00872656755009696 0.991273432449903 0.0121951219512195 0.98780487804878 0.000462534690101758 0.999537465309898 0.993827160493827 0.00617283950617284 0.0020746887966805 0.99792531120332 0.0121951219512195 0.98780487804878 0.00155763239875389 0.998442367601246 </TABLE>
</DEFINITION>

<DEFINITION>
	<FOR>DrivingSkill</FOR>
	<GIVEN>DrivQuality</GIVEN>
	<GIVEN>RiskAversion</GIVEN>
	<GIVEN>Age</GIVEN>
	<TABLE>0.999998942706871 5.28646564352411e-07 5.28646564352411e-07 0.999995064397276 2.46780136173279e-06 2.46780136173279e-06 0.999994408706762 2.79564661908476e-06 2.79564661908476e-06 0.999996346731695 1.82663415257875e-06 1.82663415257875e-06 0.99999575849732 2.12075133978466e-06 2.12075133978466e-06 0.999971290354995 1.43548225026198e-05 1.43548225026198e-05 0.995963284841072 2.87106341317761e-06 0.00403384409551454 0.996817405896479 2.89326736683737e-05 0.00315366142985273 0.996805582568618 5.89375909849061e-06 0.00318852367228342 0.882173581618208 0.000108896874659697 0.117717521507133 0.785265939874463 0.000330360092500826 0.214403700033036 0.970922548242136 0.000264340470526038 0.0288131112873381 1.04517781087508e-06 0.999997909644378 1.04517781087508e-06 4.05924879541792e-06 0.999991881502409 4.05924879541792e-06 2.56914203501741e-06 0.99999486171593 2.56914203501741e-06 2.90712041002026e-06 0.99999418575918 2.90712041002026e-06 7.8400012544002e-06 0.999984319997491 7.8400012544002e-06 1.01858925388337e-05 0.999979628214922 1.01858925388337e-05 0.386683706146963 0.611694843307279 0.00162145054575835 0.29496530668887 0.70142658895365 0.00360810435747988 0.202015490936346 0.797452652491462 0.000531856572192575 0.458326757500833 0.496203552703106 0.0454696897960615 0.368412505075112 0.605196914332115 0.026390580592773 0.381350280491154 0.614373700521753 0.00427601898709348 3.22170138049904e-06 3.22170138049904e-06 0.999993556597239 7.94085650078217e-06 7.94085650078217e-06 0.999984118286999 2.77200277200277e-05 2.77200277200277e-05 0.99994455994456 0.539209106073987 3.92503189088411e-06 0.460786968894122 0.286732810981073 2.53815481221462e-06 0.713264650864115 0.662298104284398 4.00785539657729e-05 0.337661817161637 0.658580644510209 2.52293983040798e-06 0.341416832549961 0.602756988915464 2.57181801815704e-05 0.397217292904354 0.716003411865055 5.88252595664578e-06 0.283990705608988 0.790415729841732 4.40858792928625e-05 0.209540184278975 0.848051583964116 0.000280347631062517 0.151668068404822 0.892579738886135 0.000165261940175178 0.10725499917369 </TABLE>
</DEFINITION>

<DEFINITION>
	<FOR>SeniorTrain</FOR>
	<GIVEN>DrivQuality</GIVEN>
	<GIVEN>Age</GIVEN>
	<TABLE>0.999997854510035 2.14548996554343e-06 0.374440580090557 0.625559419909443 0.999990013581529 9.9864184708796e-06 0.99999703626427 2.96373572961246e-06 0.760991156685395 0.239008843314605 0.99999466176973 5.33823026990092e-06 0.99999390377722 6.09622278036529e-06 0.203002304540799 0.796997695459201 0.999974691233043 2.53087669568739e-05 </TABLE>
</DEFINITION>

<DEFINITION>
	<FOR>ThisCarCost</FOR>
	<GIVEN>CarValue</GIVEN>
	<GIVEN>Theft</GIVEN>
	<GIVEN>ThisCarDam</GIVEN>
	<TABLE>0.999999303699399 2.32100200441733e-07 2.32100200441733e-07 2.32100200441733e-07 0.242725950172759 0.757269264268144 2.39277954843464e-06 2.39277954843464e-06 0.94657454427914 0.053421202609709 2.12655557540341e-06 2.12655557540341e-06 0.0515037726148154 0.94849403017213 1.09860652748054e-06 1.09860652748054e-06 0.100374064837905 0.898379052369077 0.000623441396508728 0.000623441396508728 0.25 0.25 0.25 0.25 0.00308641975308642 0.990740740740741 0.00308641975308642 0.00308641975308642 0.00308641975308642 0.990740740740741 0.00308641975308642 0.00308641975308642 0.99999879475671 4.01747763470201e-07 4.01747763470201e-07 4.01747763470201e-07 0.158348121136483 0.841642128663638 4.87509993954876e-06 4.87509993954876e-06 0.95399905661768 0.0459935732079421 3.6850871891629e-06 3.6850871891629e-06 0.00750930946948371 0.992485751819915 2.46935530071809e-06 2.46935530071809e-06 0.000178443968593862 0.999464668094219 0.000178443968593862 0.000178443968593862 0.00124378109452736 0.996268656716418 0.00124378109452736 0.00124378109452736 0.0015527950310559 0.995341614906832 0.0015527950310559 0.0015527950310559 0.000889679715302491 0.997330960854093 0.000889679715302491 0.000889679715302491 0.999997234523471 9.21825509492959e-07 9.21825509492959e-07 9.21825509492959e-07 0.00610995376251207 0.00610995376251207 0.987767389868401 1.27026065748692e-05 0.991059201936244 0.00892487500398076 7.9615298875832e-06 7.9615298875832e-06 1.24001785625713e-05 0.00199642874857398 0.997978770894301 1.24001785625713e-05 0.000566893424036281 0.000566893424036281 0.998299319727891 0.000566893424036281 0.00308641975308642 0.00308641975308642 0.990740740740741 0.00308641975308642 0.00206611570247934 0.00206611570247934 0.993801652892562 0.00206611570247934 0.00308641975308642 0.00308641975308642 0.990740740740741 0.00308641975308642 0.999998859004961 3.8033167965119e-07 3.8033167965119e-07 3.8033167965119e-07 0.0102909571830055 0.0139646589886299 0.975739791701108 4.59212725703055e-06 0.989963852719621 0.0100295510613316 3.29810952362106e-06 3.29810952362106e-06 0.00860297894196199 0.00382520514566238 0.987568829803753 2.98610862268726e-06 0.0541863605671843 0.000168804861580014 0.945476029709656 0.000168804861580014 0.0015527950310559 0.0015527950310559 0.995341614906832 0.0015527950310559 0.00308641975308642 0.00308641975308642 0.990740740740741 0.00308641975308642 0.25 0.25 0.25 0.25 0.999917044574715 2.76518084282712e-05 2.76518084282712e-05 2.76518084282712e-05 0.000479846449136276 0.000479846449136276 0.0772552783109405 0.921785028790787 0.970913633119201 0.000178443968593862 0.0287294789436117 0.000178443968593862 0.000271444082519001 0.000271444082519001 0.0437024972855592 0.955754614549403 0.25 0.25 0.25 0.25 0.25 0.25 0.25 0.25 0.25 0.25 0.25 0.25 0.25 0.25 0.25 0.25 </TABLE>
</DEFINITION>

<DEFINITION>
	<FOR>Theft</FOR>
	<GIVEN>HomeBase</GIVEN>
	<GIVEN>VehicleYear</GIVEN>
	<TABLE>0.99985282149845 0.000147178501549703 0.999645730004585 0.000354269995415329 0.997737515322467 0.00226248467753328 0.991762455564177 0.00823754443582294 0.999994126560867 5.87343913355026e-06 0.999995078401071 4.92159892906007e-06 0.999770721618612 0.00022927838138821 0.999763667874586 0.000236332125413581 </TABLE>
</DEFINITION>

<DEFINITION>
	<FOR>CarValue</FOR>
	<GIVEN>Mileage</GIVEN>
	<GIVEN>MakeModel</GIVEN>
	<GIVEN>VehicleYear</GIVEN>
	<TABLE>0.700495720243559 0.299502899560868 4.60065191237598e-07 4.60065191237598e-07 4.60065191237598e-07 0.0983123985703699 0.79886867853022 1.87615500792675e-06 0.102815170589394 1.87615500792675e-06 0.500498666614867 0.302586017909818 5.54999014876749e-07 0.196914205477285 5.54999014876749e-07 1.02374578344705e-06 0.0935713883528442 1.02374578344705e-06 0.906425540409805 1.02374578344705e-06 0.145455013250315 0.512175710328385 0.0295040351283437 0.301885918645638 0.0109793226473186 2.46302385438603e-06 0.100493836282804 0.0935973694905235 0.797529587074051 0.00837674412876689 0.05217926886707 0.136234194413246 0.510133690808304 0.301445599797109 7.24611427122206e-06 1.72352875276842e-06 1.72352875276842e-06 0.999993105884989 1.72352875276842e-06 1.72352875276842e-06 0.000453514739229025 0.000453514739229025 0.000453514739229025 0.000453514739229025 0.998185941043084 8.06126561870214e-05 8.06126561870214e-05 8.06126561870214e-05 8.06126561870214e-05 0.999677549375252 0.244731564403286 0.699810537795399 1.84841175220192e-06 0.0554542009778098 1.84841175220192e-06 0.105425247543391 0.781604608260231 7.5298369790294e-06 0.11295508452242 7.5298369790294e-06 0.189839685386749 0.295899109858402 2.22813916957253e-06 0.51425674847651 2.22813916957253e-06 4.11514166375177e-06 0.102059628402708 4.11514166375177e-06 0.897928026172301 4.11514166375177e-06 0.0250801961579588 0.297931492201615 0.061951992920615 0.601755097525903 0.0132812211939088 9.27600760632624e-06 0.109466165762256 0.094624553592134 0.788469922545337 0.00743008209266732 0.0114555063562348 0.0914440794172261 0.668504499357235 0.228567347521783 2.85673475217826e-05 6.83971136418043e-06 6.83971136418043e-06 0.999972641154543 6.83971136418043e-06 6.83971136418043e-06 0.2 0.2 0.2 0.2 0.2 0.00035650623885918 0.00035650623885918 0.00035650623885918 0.00035650623885918 0.998573975044563 0.991334582178382 0.00866403533632411 4.60828431270896e-07 4.60828431270896e-07 4.60828431270896e-07 0.0897682880653115 0.816765637554142 1.84704611150617e-06 0.0934623802883239 1.84704611150617e-06 0.69541309992999 0.203949559440033 5.57847378535706e-07 0.10063622493522 5.57847378535706e-07 1.03241259336881e-06 0.100970984044063 1.03241259336881e-06 0.899025918718156 1.03241259336881e-06 0.391642394341081 0.47893784869354 0.0237786703577585 0.098166625623084 0.00747446098453648 2.40613082133276e-06 0.0933602819985323 0.0919166035057326 0.804131326620228 0.0105893817446855 0.0772639481068474 0.307576254509675 0.30903392733501 0.306118581684341 7.28836412667177e-06 1.7488479464153e-06 1.7488479464153e-06 0.999993004608214 1.7488479464153e-06 1.7488479464153e-06 0.000498753117206983 0.000498753117206983 0.000498753117206983 0.000498753117206983 0.998004987531172 7.35023888276369e-05 7.35023888276369e-05 7.35023888276369e-05 7.35023888276369e-05 0.99970599044469 0.999992810991993 1.79725200168942e-06 1.79725200168942e-06 1.79725200168942e-06 1.79725200168942e-06 0.111114197423701 0.787479601402729 6.94420332627339e-06 0.101392312766918 6.94420332627339e-06 0.987531292901559 0.0124617851662994 2.3073107139973e-06 2.3073107139973e-06 2.3073107139973e-06 4.177022200873e-06 0.0877216432405338 4.177022200873e-06 0.912265825692864 4.177022200873e-06 0.900630698343191 0.0601352896964152 0.0104637103362635 0.0209208849384007 0.00784941668572922 1.02664134284688e-05 0.123207227555054 0.0780350084697911 0.786417535034136 0.012329962527591 0.172976624780435 0.216214025131739 0.302688825834347 0.30809350087826 2.70233752195649e-05 7.40713306914559e-06 7.40713306914559e-06 0.999970371467723 7.40713306914559e-06 7.40713306914559e-06 0.00487804878048781 0.00487804878048781 0.00487804878048781 0.00487804878048781 0.980487804878049 0.000383877159309021 0.000383877159309021 0.000383877159309021 0.000383877159309021 0.998464491362764 </TABLE>
</DEFINITION>

<DEFINITION>
	<FOR>HomeBase</FOR>
	<GIVEN>RiskAversion</GIVEN>
	<GIVEN>SocioEcon</GIVEN>
	<TABLE>0.152842191553155 0.79487129098307 9.35793346883621e-07 0.0522855816704286 0.103007904108399 8.68583340571528e-07 0.295624945713541 0.601366281594719 0.101423532558022 1.80697202084523e-06 0.501675063063324 0.396899597406634 0.123648068669528 4.29184549356223e-05 0.873519313304721 0.00278969957081545 0.148698370127227 0.806678608837206 1.66790091334254e-06 0.044621353134653 0.0250582853121014 2.1994457396736e-06 0.95114811067611 0.0237914045660494 3.22227234645872e-06 3.22227234645872e-06 0.999990333182961 3.22227234645872e-06 5.74316563289685e-05 5.74316563289685e-05 0.999827705031013 5.74316563289685e-05 0.153867397118938 0.791581388046227 1.40184033599309e-06 0.0545498129944992 0.140768548438193 0.243157194449724 0.0114431440700211 0.604631113042062 0.105150307545699 0.398810039479709 0.189901733889432 0.30613791908516 0.0563806380638064 5.5005500550055e-05 0.943509350935093 5.5005500550055e-05 0.145466424269969 0.816299284172253 2.8405862970117e-05 0.0382058856948074 0.0080302462192226 0.791932258467692 0.164010748656418 0.0360267466566679 0.00769139041259242 0.622048652516098 0.351120915812068 0.0191390412592416 0.00119617224880383 0.383971291866029 0.613636363636364 0.00119617224880383 </TABLE>
</DEFINITION>

<DEFINITION>
	<FOR>AntiTheft</FOR>
	<GIVEN>RiskAversion</GIVEN>
	<GIVEN>SocioEcon</GIVEN>
	<TABLE>0.899980535498385 0.100019464501615 0.703818292365152 0.296181707634848 0.0971464297846812 0.902853570215319 0.200600858369099 0.799399141630901 0.0488928473737232 0.951107152626277 4.3988914793472e-06 0.999995601108521 6.44454469291745e-06 0.999993555455307 0.000114863312657937 0.999885136687342 0.999997196319328 2.80368067198618e-06 0.999995474334954 4.52566504647858e-06 0.800590339228475 0.199409660771525 0.489438943894389 0.510561056105611 0.99994318827406 5.68117259402341e-05 0.999937507811524 6.24921884764404e-05 0.961721917481517 0.0382780825184832 0.461722488038278 0.538277511961722 </TABLE>
</DEFINITION>

<DEFINITION>
	<FOR>PropCost</FOR>
	<GIVEN>OtherCarCost</GIVEN>
	<GIVEN>ThisCarCost</GIVEN>
	<TABLE>0.300496767760641 0.699502657210119 2.87514620118433e-07 2.87514620118433e-07 0.952876426161016 5.73907853355065e-06 0.0471120956819173 5.73907853355065e-06 1.43176221293168e-05 1.43176221293168e-05 0.977965179542981 0.0220061852127599 0.00172413793103448 0.00172413793103448 0.00172413793103448 0.994827586206897 0.952806244612585 2.39440666602816e-05 0.0471458672540944 2.39440666602816e-05 0.592134167823762 5.18102501398877e-06 0.40785547012621 5.18102501398877e-06 1.30527854644181e-05 1.30527854644181e-05 0.945452409544197 0.0545214848848744 0.00172413793103448 0.00172413793103448 0.00172413793103448 0.994827586206897 2.3971617604756e-05 2.3971617604756e-05 0.988421708696903 0.0115303480678876 5.67652868917599e-06 5.67652868917599e-06 0.80352966553893 0.196458981403692 1.49333970491607e-05 1.49333970491607e-05 0.633668836987038 0.366301296218864 0.00206611570247934 0.00206611570247934 0.00206611570247934 0.993801652892562 </TABLE>
</DEFINITION>

<DEFINITION>
	<FOR>OtherCarCost</FOR>
	<GIVEN>Accident</GIVEN>
	<GIVEN>RuggedAuto</GIVEN>
	<TABLE>0.999998236728073 8.81635963694231e-07 8.81635963694231e-07 0.999997554566785 1.22271660730378e-06 1.22271660730378e-06 0.999994557156659 2.72142167068076e-06 2.72142167068076e-06 0.988775892939286 0.00484773854765999 0.00637636851305351 0.982503736280473 0.00857678651321739 0.00891947720630932 0.935086909706199 0.0348298064034105 0.0300832838903905 0.202571975959898 0.408162086974779 0.389265937065323 0.0921814155284974 0.536450229280381 0.371368355191122 0.00880542623493923 0.553660790570347 0.437533783194713 0.594381588996229 0.191329884813126 0.214288526190645 0.48744594403233 0.212160822631069 0.300393233336601 0.407467813279957 0.305162230953617 0.287369955766427 </TABLE>
</DEFINITION>

<DEFINITION>
	<FOR>OtherCar</FOR>
	<GIVEN>SocioEcon</GIVEN>
	<TABLE>0.502502565460624 0.497497434539376 0.20349172647758 0.79650827352242 0.101717331490171 0.89828266850983 0.0569247254219127 0.943075274578087 </TABLE>
</DEFINITION>

<DEFINITION>
	<FOR>MedCost</FOR>
	<GIVEN>Cushioning</GIVEN>
	<GIVEN>ThisCarDam</GIVEN>
	<TABLE>0.999997777389232 7.40870255837317e-07 7.40870255837317e-07 7.40870255837317e-07 0.542056295456692 0.154159188942414 0.191437612165864 0.11234690343503 0.944474036439127 0.0113701548799476 0.0406525717719686 0.00350323690895681 0.315430560644925 0.216463906192745 0.273451813851228 0.194653719311103 0.999350682747448 9.18411955519472e-07 0.000647480428641228 9.18411955519472e-07 0.942344854846502 0.0161733058105319 0.0309302121305284 0.010551627212438 0.969517310360404 0.00620301358371245 0.0206578904914013 0.0036217855644823 0.862299676324307 0.0256901134180679 0.0989513433857004 0.0130588668719244 0.99975668231165 0.000121189118908133 0.000121189118908133 9.39450534171574e-07 0.78665372142371 0.0467730311886936 0.146064379228891 0.020508868158706 0.962134385977115 0.0050168678050986 0.0300577331061107 0.0027910131116753 0.51299632832407 0.183949960875584 0.201606107421601 0.101447603378744 0.99937539124606 0.000267293768315855 0.000267293768315855 9.00212173084487e-05 0.981239772461622 0.0050066235486636 0.00750019481025481 0.00625340917945921 0.973827304550758 0.00897316219369895 0.0134539089848308 0.00374562427071179 0.943442716344784 0.01277559391557 0.0401213467783285 0.00366034296131715 </TABLE>
</DEFINITION>

<DEFINITION>
	<FOR>Cushioning</FOR>
	<GIVEN>Airbag</GIVEN>
	<GIVEN>RuggedAuto</GIVEN>
	<TABLE>0.702810616250007 1.36133694178379e-06 0.29718666107611 1.36133694178379e-06 0.100662834424341 0.295904607553907 0.603429392623356 3.16539839704225e-06 5.70606897496177e-06 0.697606874671901 5.70606897496177e-06 0.302381713190149 0.497688436686983 0.195237019213152 0.307071490515567 3.05358429724811e-06 2.26484150639138e-06 0.603084261163404 0.101974488825272 0.294938985169818 6.05077813006753e-06 6.05077813006753e-06 6.05077813006753e-06 0.99998184766561 </TABLE>
</DEFINITION>

<DEFINITION>
	<FOR>Airbag</FOR>
	<GIVEN>MakeModel</GIVEN>
	<GIVEN>VehicleYear</GIVEN>
	<TABLE>0.950632418186296 0.049367581813704 7.40071934992081e-06 0.99999259928065 0.799489346873311 0.200510653126689 4.11892150159402e-06 0.999995881078498 0.905225893920927 0.0947741060790731 9.73880524337274e-06 0.999990261194757 0.395167329070906 0.604832670929094 6.97729587920905e-06 0.999993022704121 0.861990950226244 0.138009049773756 0.000318268618714195 0.999681731381286 </TABLE>
</DEFINITION>

<DEFINITION>
	<FOR>ILiCost</FOR>
	<GIVEN>Accident</GIVEN>
	<TABLE>0.999997089966593 9.70011135727838e-07 9.70011135727838e-07 9.70011135727838e-07 0.99837336951494 0.00161121218662308 7.70914921829227e-06 7.70914921829227e-06 0.801916563101591 0.0967967931378999 0.0611216706874284 0.0401649730730804 0.900699434204589 0.0484657572286438 0.0326373702662362 0.0181974383005311 </TABLE>
</DEFINITION>

<DEFINITION>
	<FOR>DrivHist</FOR>
	<GIVEN>DrivingSkill</GIVEN>
	<GIVEN>RiskAversion</GIVEN>
	<TABLE>0.898854830270092 0.0318981699661071 0.069246999763801 0.952429958458655 0.0110769544018998 0.0364930871394457 0.496199653934353 0.203736805422721 0.300063540642926 0.0934846293618126 0.594096488300516 0.312418882337672 0.0293695964671328 0.820737885441806 0.149892518091061 0.309384264598242 0.395259685207711 0.295356050194046 0.0022571384743497 0.989738002886382 0.00800485863926795 5.83464612871229e-05 0.997782834471089 0.00215881906762355 0.988327713108143 6.3505369378981e-06 0.0116659363549188 0.999985252368838 7.37381558087232e-06 7.37381558087232e-06 0.579861265178743 0.0969220984751002 0.323216636346157 0.320011101859561 0.389952817096864 0.290036081043575 </TABLE>
</DEFINITION>

</NETWORK>
</BIF>
