<?xml version="1.0" encoding="UTF-8"?>

<!-- DTD for the XMLBIF 0.3 format -->
<!DOCTYPE BIF [
<!ELEMENT BIF ( NETWORK )*>
<!ATTLIST BIF VERSION CDATA #REQUIRED>
   <!ELEMENT NETWORK ( NAME, ( PROPERTY | VARIABLE | DEFINITION )* )>
      <!ELEMENT NAME (#PCDATA)>
        <!ELEMENT VARIABLE ( NAME, ( OUTCOME |  PROPERTY )* ) >
          <!ATTLIST VARIABLE TYPE (nature|decision|utility) "nature">
           <!ELEMENT OUTCOME (#PCDATA)>
            <!ELEMENT DEFINITION ( FOR | GIVEN | TABLE | PROPERTY )* >
              <!ELEMENT FOR (#PCDATA)>
                <!ELEMENT GIVEN (#PCDATA)>
                  <!ELEMENT TABLE (#PCDATA)>
                    <!ELEMENT PROPERTY (#PCDATA)>
                      ]>
<BIF VERSION="0.3">
<NETWORK>
<NAME>Reco</NAME>
<VARIABLE TYPE="nature">
	<NAME>v1</NAME>
	<OUTCOME>1</OUTCOME>
	<OUTCOME>3</OUTCOME>
	<OUTCOME>2</OUTCOME>
	<OUTCOME>0</OUTCOME>
</VARIABLE>

<VARIABLE TYPE="nature">
	<NAME>v2</NAME>
	<OUTCOME>11</OUTCOME>
	<OUTCOME>12</OUTCOME>
	<OUTCOME>9</OUTCOME>
	<OUTCOME>6</OUTCOME>
	<OUTCOME>5</OUTCOME>
	<OUTCOME>8</OUTCOME>
	<OUTCOME>2</OUTCOME>
	<OUTCOME>3</OUTCOME>
	<OUTCOME>10</OUTCOME>
	<OUTCOME>1</OUTCOME>
	<OUTCOME>7</OUTCOME>
	<OUTCOME>0</OUTCOME>
	<OUTCOME>4</OUTCOME>
</VARIABLE>

<VARIABLE TYPE="nature">
	<NAME>v3</NAME>
	<OUTCOME>1</OUTCOME>
	<OUTCOME>0</OUTCOME>
	<OUTCOME>2</OUTCOME>
</VARIABLE>

<VARIABLE TYPE="nature">
	<NAME>v4</NAME>
	<OUTCOME>0</OUTCOME>
	<OUTCOME>1</OUTCOME>
</VARIABLE>

<VARIABLE TYPE="nature">
	<NAME>v5</NAME>
	<OUTCOME>1</OUTCOME>
	<OUTCOME>0</OUTCOME>
</VARIABLE>

<VARIABLE TYPE="nature">
	<NAME>v6</NAME>
	<OUTCOME>0</OUTCOME>
	<OUTCOME>1</OUTCOME>
</VARIABLE>

<VARIABLE TYPE="nature">
	<NAME>v8</NAME>
	<OUTCOME>1</OUTCOME>
	<OUTCOME>2</OUTCOME>
	<OUTCOME>0</OUTCOME>
</VARIABLE>

<VARIABLE TYPE="nature">
	<NAME>v9</NAME>
	<OUTCOME>0</OUTCOME>
	<OUTCOME>1</OUTCOME>
</VARIABLE>

<VARIABLE TYPE="nature">
	<NAME>v10</NAME>
	<OUTCOME>1</OUTCOME>
	<OUTCOME>0</OUTCOME>
</VARIABLE>

<VARIABLE TYPE="nature">
	<NAME>v11</NAME>
	<OUTCOME>4</OUTCOME>
	<OUTCOME>0</OUTCOME>
	<OUTCOME>1</OUTCOME>
	<OUTCOME>3</OUTCOME>
	<OUTCOME>2</OUTCOME>
</VARIABLE>

<VARIABLE TYPE="nature">
	<NAME>v13</NAME>
	<OUTCOME>0</OUTCOME>
	<OUTCOME>1</OUTCOME>
</VARIABLE>

<VARIABLE TYPE="nature">
	<NAME>v14</NAME>
	<OUTCOME>3</OUTCOME>
	<OUTCOME>6</OUTCOME>
	<OUTCOME>2</OUTCOME>
	<OUTCOME>1</OUTCOME>
	<OUTCOME>5</OUTCOME>
	<OUTCOME>0</OUTCOME>
	<OUTCOME>7</OUTCOME>
</VARIABLE>

<VARIABLE TYPE="nature">
	<NAME>v15</NAME>
	<OUTCOME>1</OUTCOME>
	<OUTCOME>0</OUTCOME>
</VARIABLE>

<VARIABLE TYPE="nature">
	<NAME>v16</NAME>
	<OUTCOME>1</OUTCOME>
	<OUTCOME>3</OUTCOME>
	<OUTCOME>2</OUTCOME>
	<OUTCOME>0</OUTCOME>
</VARIABLE>

<VARIABLE TYPE="nature">
	<NAME>v17</NAME>
	<OUTCOME>1</OUTCOME>
	<OUTCOME>0</OUTCOME>
</VARIABLE>

<VARIABLE TYPE="nature">
	<NAME>v18</NAME>
	<OUTCOME>6</OUTCOME>
	<OUTCOME>2</OUTCOME>
	<OUTCOME>11</OUTCOME>
	<OUTCOME>14</OUTCOME>
	<OUTCOME>12</OUTCOME>
	<OUTCOME>4</OUTCOME>
	<OUTCOME>9</OUTCOME>
	<OUTCOME>5</OUTCOME>
	<OUTCOME>1</OUTCOME>
	<OUTCOME>7</OUTCOME>
	<OUTCOME>0</OUTCOME>
	<OUTCOME>10</OUTCOME>
	<OUTCOME>13</OUTCOME>
</VARIABLE>

<VARIABLE TYPE="nature">
	<NAME>v23</NAME>
	<OUTCOME>0</OUTCOME>
	<OUTCOME>1</OUTCOME>
</VARIABLE>

<VARIABLE TYPE="nature">
	<NAME>v24</NAME>
	<OUTCOME>0</OUTCOME>
	<OUTCOME>1</OUTCOME>
</VARIABLE>

<VARIABLE TYPE="nature">
	<NAME>v25</NAME>
	<OUTCOME>1</OUTCOME>
	<OUTCOME>0</OUTCOME>
</VARIABLE>

<VARIABLE TYPE="nature">
	<NAME>v26</NAME>
	<OUTCOME>1</OUTCOME>
	<OUTCOME>0</OUTCOME>
</VARIABLE>

<VARIABLE TYPE="nature">
	<NAME>v27</NAME>
	<OUTCOME>0</OUTCOME>
	<OUTCOME>1</OUTCOME>
</VARIABLE>

<VARIABLE TYPE="nature">
	<NAME>v28</NAME>
	<OUTCOME>1</OUTCOME>
	<OUTCOME>0</OUTCOME>
</VARIABLE>

<VARIABLE TYPE="nature">
	<NAME>v29</NAME>
	<OUTCOME>1</OUTCOME>
	<OUTCOME>0</OUTCOME>
</VARIABLE>

<VARIABLE TYPE="nature">
	<NAME>v30</NAME>
	<OUTCOME>0</OUTCOME>
	<OUTCOME>1</OUTCOME>
</VARIABLE>

<VARIABLE TYPE="nature">
	<NAME>v31</NAME>
	<OUTCOME>0</OUTCOME>
	<OUTCOME>1</OUTCOME>
</VARIABLE>

<VARIABLE TYPE="nature">
	<NAME>v32</NAME>
	<OUTCOME>0</OUTCOME>
	<OUTCOME>1</OUTCOME>
</VARIABLE>

<VARIABLE TYPE="nature">
	<NAME>v33</NAME>
	<OUTCOME>0</OUTCOME>
	<OUTCOME>1</OUTCOME>
</VARIABLE>

<VARIABLE TYPE="nature">
	<NAME>v34</NAME>
	<OUTCOME>3</OUTCOME>
	<OUTCOME>5</OUTCOME>
	<OUTCOME>4</OUTCOME>
	<OUTCOME>1</OUTCOME>
	<OUTCOME>2</OUTCOME>
	<OUTCOME>0</OUTCOME>
</VARIABLE>

<VARIABLE TYPE="nature">
	<NAME>v35</NAME>
	<OUTCOME>1</OUTCOME>
	<OUTCOME>2</OUTCOME>
	<OUTCOME>3</OUTCOME>
	<OUTCOME>0</OUTCOME>
</VARIABLE>

<VARIABLE TYPE="nature">
	<NAME>v36</NAME>
	<OUTCOME>0</OUTCOME>
	<OUTCOME>2</OUTCOME>
	<OUTCOME>4</OUTCOME>
	<OUTCOME>1</OUTCOME>
	<OUTCOME>3</OUTCOME>
</VARIABLE>

<VARIABLE TYPE="nature">
	<NAME>v37</NAME>
	<OUTCOME>1</OUTCOME>
	<OUTCOME>0</OUTCOME>
</VARIABLE>

<VARIABLE TYPE="nature">
	<NAME>v38</NAME>
	<OUTCOME>0</OUTCOME>
	<OUTCOME>1</OUTCOME>
</VARIABLE>

<VARIABLE TYPE="nature">
	<NAME>v39</NAME>
	<OUTCOME>-1</OUTCOME>
	<OUTCOME>0</OUTCOME>
</VARIABLE>

<VARIABLE TYPE="nature">
	<NAME>v40</NAME>
	<OUTCOME>1</OUTCOME>
	<OUTCOME>0</OUTCOME>
</VARIABLE>

<VARIABLE TYPE="nature">
	<NAME>v41</NAME>
	<OUTCOME>-1</OUTCOME>
	<OUTCOME>0</OUTCOME>
</VARIABLE>

<VARIABLE TYPE="nature">
	<NAME>v44</NAME>
	<OUTCOME>0</OUTCOME>
	<OUTCOME>1</OUTCOME>
</VARIABLE>

<VARIABLE TYPE="nature">
	<NAME>v46</NAME>
	<OUTCOME>5</OUTCOME>
	<OUTCOME>8</OUTCOME>
	<OUTCOME>7</OUTCOME>
	<OUTCOME>4</OUTCOME>
	<OUTCOME>6</OUTCOME>
	<OUTCOME>3</OUTCOME>
	<OUTCOME>1</OUTCOME>
	<OUTCOME>0</OUTCOME>
	<OUTCOME>2</OUTCOME>
</VARIABLE>

<VARIABLE TYPE="nature">
	<NAME>v47</NAME>
	<OUTCOME>1</OUTCOME>
	<OUTCOME>0</OUTCOME>
</VARIABLE>

<VARIABLE TYPE="nature">
	<NAME>v48</NAME>
	<OUTCOME>1</OUTCOME>
	<OUTCOME>0</OUTCOME>
</VARIABLE>

<VARIABLE TYPE="nature">
	<NAME>v49</NAME>
	<OUTCOME>0</OUTCOME>
	<OUTCOME>1</OUTCOME>
</VARIABLE>

<VARIABLE TYPE="nature">
	<NAME>v50</NAME>
	<OUTCOME>2</OUTCOME>
	<OUTCOME>0</OUTCOME>
	<OUTCOME>1</OUTCOME>
</VARIABLE>

<VARIABLE TYPE="nature">
	<NAME>v118</NAME>
	<OUTCOME>11</OUTCOME>
	<OUTCOME>17</OUTCOME>
	<OUTCOME>16</OUTCOME>
	<OUTCOME>14</OUTCOME>
	<OUTCOME>7</OUTCOME>
	<OUTCOME>6</OUTCOME>
	<OUTCOME>13</OUTCOME>
	<OUTCOME>9</OUTCOME>
	<OUTCOME>4</OUTCOME>
	<OUTCOME>15</OUTCOME>
	<OUTCOME>0</OUTCOME>
	<OUTCOME>5</OUTCOME>
	<OUTCOME>8</OUTCOME>
	<OUTCOME>1</OUTCOME>
	<OUTCOME>10</OUTCOME>
	<OUTCOME>18</OUTCOME>
	<OUTCOME>19</OUTCOME>
	<OUTCOME>2</OUTCOME>
	<OUTCOME>12</OUTCOME>
	<OUTCOME>3</OUTCOME>
</VARIABLE>

<VARIABLE TYPE="nature">
	<NAME>v53</NAME>
	<OUTCOME>2</OUTCOME>
	<OUTCOME>3</OUTCOME>
	<OUTCOME>4</OUTCOME>
	<OUTCOME>5</OUTCOME>
	<OUTCOME>1</OUTCOME>
	<OUTCOME>0</OUTCOME>
	<OUTCOME>6</OUTCOME>
</VARIABLE>

<VARIABLE TYPE="nature">
	<NAME>v54</NAME>
	<OUTCOME>0</OUTCOME>
	<OUTCOME>-1</OUTCOME>
</VARIABLE>

<DEFINITION>
	<FOR>v1</FOR>
	<GIVEN>v14</GIVEN>
	<TABLE>0.999974300986842 8.56633771929824e-06 8.56633771929824e-06 8.56633771929824e-06 4.03030791552475e-05 0.999879090762534 4.03030791552475e-05 4.03030791552475e-05 1.44877144181734e-05 1.44877144181734e-05 0.999956536856746 1.44877144181734e-05 0.906041069723018 0.000119388729703916 0.000119388729703916 0.093720152817574 0.000118203309692671 0.000118203309692671 0.999645390070922 0.000118203309692671 0.999176728869374 0.000274423710208562 0.000274423710208562 0.000274423710208562 0.90625 0.03125 0.03125 0.03125 </TABLE>
</DEFINITION>

<DEFINITION>
	<FOR>v2</FOR>
	<TABLE>0.462144301838958 0.12590293506324 0.077678047143696 0.0969437686994939 0.0202443866566004 0.0801014083456832 0.107606557988237 0.0193962102359049 0.00521954720428003 0.00170567346139865 0.00194800958159737 0.000857497040703148 0.000251656740206359 </TABLE>
</DEFINITION>

<DEFINITION>
	<FOR>v3</FOR>
	<GIVEN>v53</GIVEN>
	<TABLE>0.999983861076143 8.06946192827862e-06 8.06946192827862e-06 3.29967663169009e-05 0.998548142282056 0.00141886095162674 0.000284900284900285 0.999430199430199 0.000284900284900285 0.999855949294152 7.20253529242293e-05 7.20253529242293e-05 0.0011037527593819 0.997792494481236 0.0011037527593819 0.995495495495496 0.00225225225225225 0.00225225225225225 0.00294985250737463 0.994100294985251 0.00294985250737463 </TABLE>
</DEFINITION>

<DEFINITION>
	<FOR>v4</FOR>
	<GIVEN>v14</GIVEN>
	<TABLE>0.999982867324561 1.71326754385965e-05 8.06061583104949e-05 0.999919393841689 0.999971024571164 2.89754288363468e-05 0.999761222540592 0.000238777459407832 0.000236406619385343 0.999763593380615 0.999451152579583 0.000548847420417124 0.9375 0.0625 </TABLE>
</DEFINITION>

<DEFINITION>
	<FOR>v5</FOR>
	<GIVEN>v49</GIVEN>
	<GIVEN>v11</GIVEN>
	<TABLE>0.995006553321888 0.0049934466781119 0.999972331359637 2.76686403630126e-05 0.999899819675416 0.000100180324584252 0.551337476357741 0.448662523642259 0.677935943060498 0.322064056939502 0.5 0.5 0.5 0.5 0.5 0.5 0.0003813882532418 0.999618611746758 0.5 0.5 </TABLE>
</DEFINITION>

<DEFINITION>
	<FOR>v6</FOR>
	<GIVEN>v33</GIVEN>
	<GIVEN>v8</GIVEN>
	<GIVEN>v5</GIVEN>
	<TABLE>0.994151844418299 0.00584815558170115 0.865482233502538 0.134517766497462 0.999480064386547 0.0005199356134528 0.88479809976247 0.11520190023753 0.920611144397843 0.079388855602157 0.88828967642527 0.11171032357473 0.954115421002838 0.0458845789971618 0.937174721189591 0.0628252788104089 0.999928171239765 7.18287602355983e-05 0.98 0.02 0.603299856527977 0.396700143472023 0.312824956672444 0.687175043327556 </TABLE>
</DEFINITION>

<DEFINITION>
	<FOR>v8</FOR>
	<GIVEN>v54</GIVEN>
	<GIVEN>v14</GIVEN>
	<TABLE>0.212013240517744 0.787975762374495 1.09971077606589e-05 9.71534052268532e-05 0.999805693189546 9.71534052268532e-05 1.16709265548592e-05 0.99997665814689 1.16709265548592e-05 0.000235571260306243 0.000235571260306243 0.999528857479387 7.88208402301568e-05 0.99984235831954 7.88208402301568e-05 0.333333333333333 0.333333333333333 0.333333333333333 0.333333333333333 0.333333333333333 0.333333333333333 0.447101733376103 0.552886386047451 1.18805764455691e-05 3.71402042711235e-05 0.999925719591458 3.71402042711235e-05 5.60129950148434e-05 0.99988797400997 5.60129950148434e-05 0.000120206755619666 0.000120206755619666 0.999759586488761 0.333333333333333 0.333333333333333 0.333333333333333 0.999633900787113 0.000183049606443346 0.000183049606443346 0.955555555555555 0.0222222222222222 0.0222222222222222 </TABLE>
</DEFINITION>

<DEFINITION>
	<FOR>v9</FOR>
	<GIVEN>v14</GIVEN>
	<TABLE>0.977915981359649 0.0220840186403509 0.999919393841689 8.06061583104949e-05 0.999971024571164 2.89754288363468e-05 0.869388729703916 0.130611270296084 0.999763593380615 0.000236406619385343 0.615257958287596 0.384742041712404 0.0625 0.9375 </TABLE>
</DEFINITION>

<DEFINITION>
	<FOR>v10</FOR>
	<GIVEN>v11</GIVEN>
	<GIVEN>v4</GIVEN>
	<TABLE>0.999989413732506 1.0586267493807e-05 0.999927964270278 7.20357297219421e-05 0.999972331359637 2.76686403630126e-05 0.5 0.5 0.990196078431373 0.00980392156862745 0.000101194090265129 0.999898805909735 0.999900219517062 9.97804829375374e-05 0.5 0.5 0.998220640569395 0.00177935943060498 0.5 0.5 </TABLE>
</DEFINITION>

<DEFINITION>
	<FOR>v11</FOR>
	<GIVEN>v14</GIVEN>
	<TABLE>0.976226699561404 6.8530701754386e-06 6.8530701754386e-06 0.0237527412280702 6.8530701754386e-06 0.44239883927132 3.2242463324198e-05 0.557504433338707 3.2242463324198e-05 3.2242463324198e-05 0.264904960593417 0.733031988873435 0.00203987019007881 1.15901715345387e-05 1.15901715345387e-05 9.55109837631328e-05 9.55109837631328e-05 9.55109837631328e-05 0.906017191977077 0.0936962750716333 0.999621749408984 9.45626477541371e-05 9.45626477541371e-05 9.45626477541371e-05 9.45626477541371e-05 0.00021953896816685 0.00021953896816685 0.00021953896816685 0.999121844127333 0.00021953896816685 0.025 0.025 0.025 0.9 0.025 </TABLE>
</DEFINITION>

<DEFINITION>
	<FOR>v13</FOR>
	<TABLE>0.999818247909851 0.000181752090149037 </TABLE>
</DEFINITION>

<DEFINITION>
	<FOR>v14</FOR>
	<GIVEN>v118</GIVEN>
	<TABLE>0.955410137842123 3.15211806573427e-06 3.15211806573427e-06 0.0445741015675483 3.15211806573427e-06 3.15211806573427e-06 3.15211806573427e-06 2.91485702626286e-05 0.999825108578424 2.91485702626286e-05 2.91485702626286e-05 2.91485702626286e-05 2.91485702626286e-05 2.91485702626286e-05 1.11424337303754e-05 0.999933145397618 1.11424337303754e-05 1.11424337303754e-05 1.11424337303754e-05 1.11424337303754e-05 1.11424337303754e-05 4.61409976606514e-06 4.61409976606514e-06 0.999972315401404 4.61409976606514e-06 4.61409976606514e-06 4.61409976606514e-06 4.61409976606514e-06 0.946842972701612 1.89440581961468e-05 1.89440581961468e-05 0.0530623070074071 1.89440581961468e-05 1.89440581961468e-05 1.89440581961468e-05 0.778310250634974 4.79225571476494e-05 4.79225571476494e-05 0.221450136579288 4.79225571476494e-05 4.79225571476494e-05 4.79225571476494e-05 1.68841913316562e-05 1.68841913316562e-05 0.99989869485201 1.68841913316562e-05 1.68841913316562e-05 1.68841913316562e-05 1.68841913316562e-05 0.863570844208968 1.29858324567896e-05 1.29858324567896e-05 0.136364226628748 1.29858324567896e-05 1.29858324567896e-05 1.29858324567896e-05 0.975178360291811 8.04330515495427e-06 8.04330515495427e-06 0.0247814231824141 8.04330515495427e-06 8.04330515495427e-06 8.04330515495427e-06 1.45165270660647e-05 1.45165270660647e-05 0.999912900837604 1.45165270660647e-05 1.45165270660647e-05 1.45165270660647e-05 1.45165270660647e-05 2.36479296237614e-05 2.36479296237614e-05 2.36479296237614e-05 2.36479296237614e-05 0.999858112422257 2.36479296237614e-05 2.36479296237614e-05 0.000395726157499011 0.000395726157499011 0.000395726157499011 0.000395726157499011 0.000395726157499011 0.997625643055006 0.000395726157499011 6.43210908857014e-05 6.43210908857014e-05 6.43210908857014e-05 6.43210908857014e-05 6.43210908857014e-05 0.990609120730688 0.0090692738148839 0.881019324318293 4.4628910608292e-05 4.4628910608292e-05 0.118757531128665 4.4628910608292e-05 4.4628910608292e-05 4.4628910608292e-05 0.975775676124108 0.000165920026547204 0.000165920026547204 0.0233947237431558 0.000165920026547204 0.000165920026547204 0.000165920026547204 0.000592768227622999 0.000592768227622999 0.000592768227622999 0.996443390634262 0.000592768227622999 0.000592768227622999 0.000592768227622999 0.000445037828215398 0.000445037828215398 0.000445037828215398 0.997329773030707 0.000445037828215398 0.000445037828215398 0.000445037828215398 0.993920972644377 0.00101317122593718 0.00101317122593718 0.00101317122593718 0.00101317122593718 0.00101317122593718 0.00101317122593718 0.00348432055749129 0.00348432055749129 0.979094076655052 0.00348432055749129 0.00348432055749129 0.00348432055749129 0.00348432055749129 0.00348432055749129 0.00348432055749129 0.00348432055749129 0.00348432055749129 0.00348432055749129 0.979094076655052 0.00348432055749129 </TABLE>
</DEFINITION>

<DEFINITION>
	<FOR>v15</FOR>
	<GIVEN>v1</GIVEN>
	<TABLE>0.999972655181843 2.73448181569593e-05 0.000141043723554302 0.999858956276446 0.999954828801156 4.51711988436173e-05 0.995575221238938 0.00442477876106195 </TABLE>
</DEFINITION>

<DEFINITION>
	<FOR>v16</FOR>
	<GIVEN>v1</GIVEN>
	<TABLE>0.999740224227509 1.36724090784796e-05 1.36724090784796e-05 0.000232430954334154 7.05218617771509e-05 0.999788434414669 7.05218617771509e-05 7.05218617771509e-05 2.25855994218087e-05 2.25855994218087e-05 0.999932243201735 2.25855994218087e-05 0.993362831858407 0.00221238938053097 0.00221238938053097 0.00221238938053097 </TABLE>
</DEFINITION>

<DEFINITION>
	<FOR>v17</FOR>
	<GIVEN>v13</GIVEN>
	<TABLE>0.999969702478337 3.0297521662728e-05 0.166666666666667 0.833333333333333 </TABLE>
</DEFINITION>

<DEFINITION>
	<FOR>v18</FOR>
	<GIVEN>v14</GIVEN>
	<TABLE>0.151832405533063 0.0513321314102564 0.1223299384278 0.183013874831309 0.0143940831646424 0.0921078989541161 0.17006157219973 0.0899491818488529 0.12209008097166 2.63579622132254e-06 2.63579622132254e-06 0.000962065620782726 0.00192149544534413 0.0959337293369213 0.0270960701397587 0.0677215739282481 0.479619042894877 0.0327385012214933 0.0767494636590235 0.110604050149431 0.0564367117647788 0.0428948771686157 1.24009474323838e-05 1.24009474323838e-05 0.00565483202916703 0.0045263458128201 0.133465282978496 0.0697772903962056 0.0677490103776613 0.429188509682251 4.45775828251489e-06 0.132653970971078 0.167134731286331 4.45775828251489e-06 4.45775828251489e-06 4.45775828251489e-06 4.45775828251489e-06 4.45775828251489e-06 4.45775828251489e-06 0.157152303284108 3.67349937550511e-05 0.0769230769230769 0.491440746455073 3.67349937550511e-05 3.67349937550511e-05 0.0434942326059805 3.67349937550511e-05 3.67349937550511e-05 0.0334655793108515 0.197266916464624 3.67349937550511e-05 3.67349937550511e-05 0.400509183487907 3.63702491362066e-05 3.63702491362066e-05 0.400509183487907 3.63702491362066e-05 3.63702491362066e-05 3.63702491362066e-05 3.63702491362066e-05 0.198617930532824 3.63702491362066e-05 3.63702491362066e-05 3.63702491362066e-05 3.63702491362066e-05 0.253651946297391 0.0769230769230769 0.146077851895635 0.28438740184075 8.44380646795575e-05 0.0231360297221988 0.176813307438994 8.44380646795575e-05 0.0385037574938782 8.44380646795575e-05 8.44380646795575e-05 8.44380646795575e-05 8.44380646795575e-05 0.00961538461538462 0.00961538461538462 0.884615384615385 0.00961538461538462 0.00961538461538462 0.00961538461538462 0.00961538461538462 0.00961538461538462 0.00961538461538462 0.00961538461538462 0.00961538461538462 0.00961538461538462 0.00961538461538462 </TABLE>
</DEFINITION>

<DEFINITION>
	<FOR>v23</FOR>
	<GIVEN>v9</GIVEN>
	<TABLE>0.999969022984945 3.09770150548293e-05 0.00136986301369863 0.998630136986301 </TABLE>
</DEFINITION>

<DEFINITION>
	<FOR>v24</FOR>
	<GIVEN>v118</GIVEN>
	<TABLE>0.99998896758677 1.10324132300699e-05 0.999897980004081 0.0001020199959192 0.999961001481944 3.89985180563139e-05 0.999983850650819 1.6149349181228e-05 0.999933695796314 6.63042036865137e-05 0.999832271049983 0.000167728950016773 0.999940905330339 5.90946696607966e-05 0.999954549586401 4.54504135987638e-05 0.999971848431958 2.815156804234e-05 0.999949192155269 5.08078447312265e-05 0.999917232246317 8.27677536831651e-05 0.00138504155124654 0.998614958448754 0.000225123818099955 0.9997748761819 0.400031240237426 0.599968759762574 0.999419279907085 0.000580720092915215 0.74896265560166 0.25103734439834 0.749221183800623 0.250778816199377 0.99645390070922 0.00354609929078014 0.98780487804878 0.0121951219512195 0.0121951219512195 0.98780487804878 </TABLE>
</DEFINITION>

<DEFINITION>
	<FOR>v25</FOR>
	<GIVEN>v8</GIVEN>
	<GIVEN>v5</GIVEN>
	<TABLE>0.99993550883529 6.44911647104347e-05 0.999570815450644 0.000429184549356223 0.00156812939011431 0.998431870609886 0.13677130044843 0.863228699551569 0.999577345731192 0.000422654268808115 0.999184339314845 0.000815660685154976 </TABLE>
</DEFINITION>

<DEFINITION>
	<FOR>v26</FOR>
	<GIVEN>v4</GIVEN>
	<TABLE>0.999964611791351 3.53882086488782e-05 0.000210349179638199 0.999789650820362 </TABLE>
</DEFINITION>

<DEFINITION>
	<FOR>v27</FOR>
	<GIVEN>v8</GIVEN>
	<GIVEN>v6</GIVEN>
	<TABLE>0.999942811391971 5.71886080292806e-05 0.997142857142857 0.00285714285714286 0.000167694331931581 0.999832305668068 0.0116279069767442 0.988372093023256 0.261238025055269 0.738761974944731 0.711845102505695 0.288154897494305 </TABLE>
</DEFINITION>

<DEFINITION>
	<FOR>v28</FOR>
	<GIVEN>v4</GIVEN>
	<TABLE>0.999964611791351 3.53882086488782e-05 0.000210349179638199 0.999789650820362 </TABLE>
</DEFINITION>

<DEFINITION>
	<FOR>v29</FOR>
	<GIVEN>v15</GIVEN>
	<TABLE>0.999966062580601 3.39374193986289e-05 0.000282007896221094 0.999717992103779 </TABLE>
</DEFINITION>

<DEFINITION>
	<FOR>v30</FOR>
	<GIVEN>v25</GIVEN>
	<TABLE>0.992640933074146 0.00735906692585393 0.998411468423092 0.00158853157690818 </TABLE>
</DEFINITION>

<DEFINITION>
	<FOR>v31</FOR>
	<GIVEN>v13</GIVEN>
	<TABLE>0.999969702478337 3.0297521662728e-05 0.166666666666667 0.833333333333333 </TABLE>
</DEFINITION>

<DEFINITION>
	<FOR>v32</FOR>
	<GIVEN>v9</GIVEN>
	<TABLE>0.999969022984945 3.09770150548293e-05 0.00136986301369863 0.998630136986301 </TABLE>
</DEFINITION>

<DEFINITION>
	<FOR>v33</FOR>
	<GIVEN>v54</GIVEN>
	<GIVEN>v34</GIVEN>
	<GIVEN>v25</GIVEN>
	<TABLE>0.965916142185976 0.0340838578140236 0.971117151968216 0.0288828480317842 0.761386138613861 0.238613861386139 0.945733659822942 0.0542663401770578 0.5 0.5 0.797054487803521 0.202945512196479 0.404856293359762 0.595143706640238 0.980669204783098 0.0193307952169017 0.451677852348993 0.548322147651007 0.135272045028143 0.864727954971857 0.5 0.5 0.5 0.5 0.955771815421375 0.0442281845786251 0.987200580691991 0.0127994193080087 0.618929633300297 0.381070366699703 0.995956271961626 0.00404372803837358 0.5 0.5 0.876112472591255 0.123887527408745 0.433018462859596 0.566981537140404 0.695298372513562 0.304701627486438 0.70536002583145 0.29463997416855 0.909009368148296 0.0909906318517042 0.229093799682035 0.770906200317965 0.5 0.5 </TABLE>
</DEFINITION>

<DEFINITION>
	<FOR>v34</FOR>
	<GIVEN>v118</GIVEN>
	<TABLE>0.559126379971022 0.0317770275736781 3.67747107668998e-06 0.346421452895273 0.062667784617874 3.67747107668998e-06 3.40066653064001e-05 0.999829966673468 3.40066653064001e-05 3.40066653064001e-05 3.40066653064001e-05 3.40066653064001e-05 1.29995060187713e-05 0.999935002469906 1.29995060187713e-05 1.29995060187713e-05 1.29995060187713e-05 1.29995060187713e-05 5.38311639374266e-06 0.284879902673256 0.697657267745443 0.01744668023212 5.38311639374266e-06 5.38311639374266e-06 0.763846527869867 0.0530654643504398 2.21014012288379e-05 0.0185872784334527 0.164456526543783 2.21014012288379e-05 0.69109918371911 0.0268925416526893 5.5909650005591e-05 0.100693279660069 0.18120317566812 5.5909650005591e-05 1.96982232202655e-05 0.203305361856361 0.758795256667849 0.0378402868061301 1.96982232202655e-05 1.96982232202655e-05 0.485425567372663 0.061827712632185 1.51501378662546e-05 0.0727358118958883 0.379980607823531 1.51501378662546e-05 0.996574892554849 9.38385601411332e-06 9.38385601411332e-06 0.00338757202109491 9.38385601411332e-06 9.38385601411332e-06 1.69359482437422e-05 0.136181959827931 0.849524099854351 0.0142431324729872 1.69359482437422e-05 1.69359482437422e-05 2.75892512277217e-05 0.999862053743861 2.75892512277217e-05 2.75892512277217e-05 2.75892512277217e-05 2.75892512277217e-05 0.000461680517082179 0.000461680517082179 0.000461680517082179 0.000461680517082179 0.000461680517082179 0.997691597414589 7.5041272699985e-05 7.5041272699985e-05 7.5041272699985e-05 7.5041272699985e-05 7.5041272699985e-05 0.9996247936365 0.768561907737165 0.00630011454753723 5.20670623763407e-05 0.0687805893991461 0.156253254191399 5.20670623763407e-05 0.58091366627952 0.0234223770809137 0.000193573364305072 0.0466511807975223 0.348625629113434 0.000193573364305072 0.000691562932226833 0.0836791147994468 0.000691562932226833 0.913554633471646 0.000691562932226833 0.000691562932226833 0.000519210799584631 0.0628245067497404 0.000519210799584631 0.935098650051921 0.000519210799584631 0.000519210799584631 0.994089834515366 0.00118203309692671 0.00118203309692671 0.00118203309692671 0.00118203309692671 0.00118203309692671 0.0040650406504065 0.0040650406504065 0.979674796747968 0.0040650406504065 0.0040650406504065 0.0040650406504065 0.0040650406504065 0.0040650406504065 0.0040650406504065 0.0040650406504065 0.0040650406504065 0.979674796747968 </TABLE>
</DEFINITION>

<DEFINITION>
	<FOR>v35</FOR>
	<GIVEN>v2</GIVEN>
	<TABLE>0.999984873847891 5.04205070286187e-06 5.04205070286187e-06 5.04205070286187e-06 1.8507551080841e-05 0.999944477346757 1.8507551080841e-05 1.8507551080841e-05 2.99976001919846e-05 0.999910007199424 2.99976001919846e-05 2.99976001919846e-05 0.99992789154889 2.40361503701567e-05 2.40361503701567e-05 2.40361503701567e-05 0.999654696132597 0.000115101289134438 0.000115101289134438 0.000115101289134438 0.999912729811496 2.90900628345357e-05 2.90900628345357e-05 2.90900628345357e-05 0.999935036812473 2.1654395842356e-05 2.1654395842356e-05 2.1654395842356e-05 0.00012013455069678 0.00012013455069678 0.99963959634791 0.00012013455069678 0.000446428571428571 0.000446428571428571 0.000446428571428571 0.998660714285714 0.995901639344262 0.00136612021857923 0.00136612021857923 0.00136612021857923 0.996411483253589 0.00119617224880383 0.00119617224880383 0.00119617224880383 0.00271739130434783 0.00271739130434783 0.991847826086957 0.00271739130434783 0.972222222222222 0.00925925925925926 0.00925925925925926 0.00925925925925926 </TABLE>
</DEFINITION>

<DEFINITION>
	<FOR>v36</FOR>
	<GIVEN>v39</GIVEN>
	<GIVEN>v11</GIVEN>
	<TABLE>0.999985231950675 3.69201233132119e-06 3.69201233132119e-06 3.69201233132119e-06 3.69201233132119e-06 1.1067456145205e-05 0.999955730175419 1.1067456145205e-05 1.1067456145205e-05 1.1067456145205e-05 0.999839711480665 4.00721298337007e-05 4.00721298337007e-05 4.00721298337007e-05 4.00721298337007e-05 0.430334637114298 8.69187309865276e-05 8.69187309865276e-05 0.569404606692742 8.69187309865276e-05 0.2 0.2 0.2 0.2 0.2 0.2 0.2 0.2 0.2 0.2 0.2 0.2 0.2 0.2 0.2 0.2 0.2 0.2 0.2 0.2 7.37735153080044e-05 7.37735153080044e-05 0.999704905938768 7.37735153080044e-05 7.37735153080044e-05 0.000711743772241993 0.000711743772241993 0.000711743772241993 0.000711743772241993 0.997153024911032 </TABLE>
</DEFINITION>

<DEFINITION>
	<FOR>v37</FOR>
	<GIVEN>v15</GIVEN>
	<TABLE>0.999966062580601 3.39374193986289e-05 0.000282007896221094 0.999717992103779 </TABLE>
</DEFINITION>

<DEFINITION>
	<FOR>v38</FOR>
	<GIVEN>v14</GIVEN>
	<TABLE>0.995905290570176 0.00409470942982456 0.998790907625343 0.00120909237465742 0.999159712563746 0.000840287436254057 0.996418338108883 0.00358166189111748 0.000236406619385343 0.999763593380615 0.984083424807903 0.0159165751920966 0.9375 0.0625 </TABLE>
</DEFINITION>

<DEFINITION>
	<FOR>v39</FOR>
	<GIVEN>v8</GIVEN>
	<TABLE>0.999887867234806 0.00011213276519399 0.99997422946088 2.57705391196784e-05 0.000556792873051225 0.999443207126949 </TABLE>
</DEFINITION>

<DEFINITION>
	<FOR>v40</FOR>
	<GIVEN>v2</GIVEN>
	<TABLE>0.999989915898594 1.00841014057237e-05 0.999962984897838 3.7015102161682e-05 5.99952003839693e-05 0.999940004799616 4.80723007403134e-05 0.99995192769926 0.000230202578268877 0.999769797421731 0.999941819874331 5.81801256690714e-05 4.3308791684712e-05 0.999956691208315 0.999759730898606 0.000240269101393561 0.000892857142857143 0.999107142857143 0.997267759562842 0.00273224043715847 0.00239234449760765 0.997607655502392 0.994565217391304 0.00543478260869565 0.0185185185185185 0.981481481481482 </TABLE>
</DEFINITION>

<DEFINITION>
	<FOR>v41</FOR>
	<GIVEN>v118</GIVEN>
	<TABLE>0.99998896758677 1.10324132300699e-05 0.0001020199959192 0.999897980004081 0.999961001481944 3.89985180563139e-05 0.999983850650819 1.6149349181228e-05 0.999933695796314 6.63042036865137e-05 0.999832271049983 0.000167728950016773 0.999940905330339 5.90946696607966e-05 0.999954549586401 4.54504135987638e-05 0.999971848431958 2.815156804234e-05 0.999949192155269 5.08078447312265e-05 0.999917232246317 8.27677536831651e-05 0.998614958448754 0.00138504155124654 0.9997748761819 0.000225123818099955 0.999843798812871 0.000156201187129022 0.999419279907085 0.000580720092915215 0.99792531120332 0.0020746887966805 0.998442367601246 0.00155763239875389 0.99645390070922 0.00354609929078014 0.98780487804878 0.0121951219512195 0.98780487804878 0.0121951219512195 </TABLE>
</DEFINITION>

<DEFINITION>
	<FOR>v44</FOR>
	<GIVEN>v46</GIVEN>
	<TABLE>0.999988368035361 1.16319646388275e-05 0.999946535500428 5.3464499572284e-05 0.999913344887348 8.66551126516465e-05 0.999932912920971 6.70870790285791e-05 6.25547353934693e-05 0.999937445264607 0.998711340206186 0.00128865979381443 0.996062992125984 0.00393700787401575 0.996551724137931 0.00344827586206896 0.9921875 0.0078125 </TABLE>
</DEFINITION>

<DEFINITION>
	<FOR>v46</FOR>
	<GIVEN>v2</GIVEN>
	<TABLE>0.999982072708612 2.24091142349416e-06 2.24091142349416e-06 2.24091142349416e-06 2.24091142349416e-06 2.24091142349416e-06 2.24091142349416e-06 2.24091142349416e-06 2.24091142349416e-06 8.22557825815155e-06 0.999934195373935 8.22557825815155e-06 8.22557825815155e-06 8.22557825815155e-06 8.22557825815155e-06 8.22557825815155e-06 8.22557825815155e-06 8.22557825815155e-06 1.33322667519932e-05 1.33322667519932e-05 0.999893341865984 1.33322667519932e-05 1.33322667519932e-05 1.33322667519932e-05 1.33322667519932e-05 1.33322667519932e-05 1.33322667519932e-05 0.999914538132017 1.06827334978474e-05 1.06827334978474e-05 1.06827334978474e-05 1.06827334978474e-05 1.06827334978474e-05 1.06827334978474e-05 1.06827334978474e-05 1.06827334978474e-05 5.11561285041948e-05 5.11561285041948e-05 5.11561285041948e-05 0.999590750971966 5.11561285041948e-05 5.11561285041948e-05 5.11561285041948e-05 5.11561285041948e-05 5.11561285041948e-05 1.29289168153492e-05 1.29289168153492e-05 1.29289168153492e-05 0.999896568665477 1.29289168153492e-05 1.29289168153492e-05 1.29289168153492e-05 1.29289168153492e-05 1.29289168153492e-05 9.624175929936e-06 9.624175929936e-06 9.624175929936e-06 9.624175929936e-06 0.999923006592561 9.624175929936e-06 9.624175929936e-06 9.624175929936e-06 9.624175929936e-06 0.999572854930856 5.33931336430135e-05 5.33931336430135e-05 5.33931336430135e-05 5.33931336430135e-05 5.33931336430135e-05 5.33931336430135e-05 5.33931336430135e-05 5.33931336430135e-05 0.000198412698412698 0.000198412698412698 0.000198412698412698 0.000198412698412698 0.000198412698412698 0.998412698412698 0.000198412698412698 0.000198412698412698 0.000198412698412698 0.000607164541590771 0.000607164541590771 0.000607164541590771 0.000607164541590771 0.000607164541590771 0.000607164541590771 0.995142683667274 0.000607164541590771 0.000607164541590771 0.000531632110579479 0.000531632110579479 0.000531632110579479 0.000531632110579479 0.000531632110579479 0.000531632110579479 0.000531632110579479 0.995746943115364 0.000531632110579479 0.00120772946859903 0.00120772946859903 0.00120772946859903 0.00120772946859903 0.00120772946859903 0.00120772946859903 0.00120772946859903 0.00120772946859903 0.990338164251208 0.967078189300411 0.00411522633744856 0.00411522633744856 0.00411522633744856 0.00411522633744856 0.00411522633744856 0.00411522633744856 0.00411522633744856 0.00411522633744856 </TABLE>
</DEFINITION>

<DEFINITION>
	<FOR>v47</FOR>
	<GIVEN>v15</GIVEN>
	<TABLE>0.999966062580601 3.39374193986289e-05 0.000282007896221094 0.999717992103779 </TABLE>
</DEFINITION>

<DEFINITION>
	<FOR>v48</FOR>
	<GIVEN>v39</GIVEN>
	<TABLE>0.999968567297416 3.14327025837682e-05 0.000834724540901503 0.999165275459099 </TABLE>
</DEFINITION>

<DEFINITION>
	<FOR>v49</FOR>
	<GIVEN>v50</GIVEN>
	<TABLE>0.999970534504096 2.94654959042961e-05 0.99993239588967 6.76041103299081e-05 0.00126903553299492 0.998730964467005 </TABLE>
</DEFINITION>

<DEFINITION>
	<FOR>v50</FOR>
	<GIVEN>v14</GIVEN>
	<TABLE>0.999977156432748 1.1421783625731e-05 1.1421783625731e-05 0.999892525122253 5.37374388736633e-05 5.37374388736633e-05 1.93169525575645e-05 0.999961366094885 1.93169525575645e-05 0.999681630054123 0.000159184972938555 0.000159184972938555 0.999684791174153 0.000157604412923562 0.000157604412923562 0.000365898280278083 0.000365898280278083 0.999268203439444 0.0416666666666667 0.0416666666666667 0.916666666666667 </TABLE>
</DEFINITION>

<DEFINITION>
	<FOR>v118</FOR>
	<GIVEN>v2</GIVEN>
	<TABLE>0.59411592682976 1.00841014057237e-06 1.00841014057237e-06 0.40586592178771 1.00841014057237e-06 1.00841014057237e-06 1.00841014057237e-06 1.00841014057237e-06 1.00841014057237e-06 1.00841014057237e-06 1.00841014057237e-06 1.00841014057237e-06 1.00841014057237e-06 1.00841014057237e-06 1.00841014057237e-06 1.00841014057237e-06 1.00841014057237e-06 1.00841014057237e-06 1.00841014057237e-06 1.00841014057237e-06 3.7015102161682e-06 0.23578990228013 3.7015102161682e-06 3.7015102161682e-06 3.7015102161682e-06 3.7015102161682e-06 3.7015102161682e-06 3.7015102161682e-06 3.7015102161682e-06 0.473500888362452 0.290646283683743 3.7015102161682e-06 3.7015102161682e-06 3.7015102161682e-06 3.7015102161682e-06 3.7015102161682e-06 3.7015102161682e-06 3.7015102161682e-06 3.7015102161682e-06 3.7015102161682e-06 5.99952003839693e-06 5.99952003839693e-06 0.999886009119271 5.99952003839693e-06 5.99952003839693e-06 5.99952003839693e-06 5.99952003839693e-06 5.99952003839693e-06 5.99952003839693e-06 5.99952003839693e-06 5.99952003839693e-06 5.99952003839693e-06 5.99952003839693e-06 5.99952003839693e-06 5.99952003839693e-06 5.99952003839693e-06 5.99952003839693e-06 5.99952003839693e-06 5.99952003839693e-06 5.99952003839693e-06 4.80723007403134e-06 4.80723007403134e-06 4.80723007403134e-06 4.80723007403134e-06 0.471209499086626 4.80723007403134e-06 0.528703970772041 4.80723007403134e-06 4.80723007403134e-06 4.80723007403134e-06 4.80723007403134e-06 4.80723007403134e-06 4.80723007403134e-06 4.80723007403134e-06 4.80723007403134e-06 4.80723007403134e-06 4.80723007403134e-06 4.80723007403134e-06 4.80723007403134e-06 4.80723007403134e-06 2.30202578268877e-05 2.30202578268877e-05 2.30202578268877e-05 2.30202578268877e-05 2.30202578268877e-05 0.891827808471455 2.30202578268877e-05 2.30202578268877e-05 2.30202578268877e-05 2.30202578268877e-05 2.30202578268877e-05 0.107757826887661 2.30202578268877e-05 2.30202578268877e-05 2.30202578268877e-05 2.30202578268877e-05 2.30202578268877e-05 2.30202578268877e-05 2.30202578268877e-05 2.30202578268877e-05 5.81801256690715e-06 5.81801256690715e-06 5.81801256690715e-06 5.81801256690715e-06 5.81801256690715e-06 5.81801256690715e-06 5.81801256690715e-06 0.831981615080289 5.81801256690715e-06 5.81801256690715e-06 5.81801256690715e-06 5.81801256690715e-06 0.167913660693507 5.81801256690715e-06 5.81801256690715e-06 5.81801256690715e-06 5.81801256690715e-06 5.81801256690715e-06 5.81801256690715e-06 5.81801256690715e-06 4.3308791684712e-06 4.3308791684712e-06 4.3308791684712e-06 4.3308791684712e-06 4.3308791684712e-06 4.3308791684712e-06 4.3308791684712e-06 4.3308791684712e-06 0.999917713295799 4.3308791684712e-06 4.3308791684712e-06 4.3308791684712e-06 4.3308791684712e-06 4.3308791684712e-06 4.3308791684712e-06 4.3308791684712e-06 4.3308791684712e-06 4.3308791684712e-06 4.3308791684712e-06 4.3308791684712e-06 2.40269101393561e-05 2.40269101393561e-05 2.40269101393561e-05 2.40269101393561e-05 2.40269101393561e-05 2.40269101393561e-05 2.40269101393561e-05 2.40269101393561e-05 2.40269101393561e-05 2.40269101393561e-05 2.40269101393561e-05 2.40269101393561e-05 2.40269101393561e-05 0.999543488707352 2.40269101393561e-05 2.40269101393561e-05 2.40269101393561e-05 2.40269101393561e-05 2.40269101393561e-05 2.40269101393561e-05 8.92857142857143e-05 8.92857142857143e-05 8.92857142857143e-05 8.92857142857143e-05 8.92857142857143e-05 8.92857142857143e-05 8.92857142857143e-05 8.92857142857143e-05 8.92857142857143e-05 8.92857142857143e-05 8.92857142857143e-05 8.92857142857143e-05 8.92857142857143e-05 8.92857142857143e-05 0.998303571428571 8.92857142857143e-05 8.92857142857143e-05 8.92857142857143e-05 8.92857142857143e-05 8.92857142857143e-05 0.000273224043715847 0.000273224043715847 0.000273224043715847 0.000273224043715847 0.000273224043715847 0.000273224043715847 0.000273224043715847 0.000273224043715847 0.000273224043715847 0.000273224043715847 0.000273224043715847 0.000273224043715847 0.000273224043715847 0.000273224043715847 0.000273224043715847 0.852732240437158 0.000273224043715847 0.000273224043715847 0.000273224043715847 0.142349726775956 0.000239234449760766 0.000239234449760766 0.000239234449760766 0.000239234449760766 0.000239234449760766 0.000239234449760766 0.000239234449760766 0.000239234449760766 0.000239234449760766 0.000239234449760766 0.000239234449760766 0.000239234449760766 0.000239234449760766 0.000239234449760766 0.000239234449760766 0.000239234449760766 0.995454545454545 0.000239234449760766 0.000239234449760766 0.000239234449760766 0.000543478260869565 0.000543478260869565 0.000543478260869565 0.000543478260869565 0.000543478260869565 0.000543478260869565 0.000543478260869565 0.000543478260869565 0.000543478260869565 0.000543478260869565 0.000543478260869565 0.000543478260869565 0.000543478260869565 0.000543478260869565 0.000543478260869565 0.000543478260869565 0.000543478260869565 0.989673913043478 0.000543478260869565 0.000543478260869565 0.00185185185185185 0.00185185185185185 0.00185185185185185 0.00185185185185185 0.00185185185185185 0.00185185185185185 0.00185185185185185 0.00185185185185185 0.00185185185185185 0.00185185185185185 0.00185185185185185 0.00185185185185185 0.00185185185185185 0.00185185185185185 0.00185185185185185 0.00185185185185185 0.00185185185185185 0.00185185185185185 0.964814814814815 0.00185185185185185 </TABLE>
</DEFINITION>

<DEFINITION>
	<FOR>v53</FOR>
	<GIVEN>v2</GIVEN>
	<TABLE>0.999982712969019 2.88117183020678e-06 2.88117183020678e-06 2.88117183020678e-06 2.88117183020678e-06 2.88117183020678e-06 2.88117183020678e-06 0.999936545539151 1.05757434747663e-05 1.05757434747663e-05 1.05757434747663e-05 1.05757434747663e-05 1.05757434747663e-05 1.05757434747663e-05 1.71414858239912e-05 0.999897151085056 1.71414858239912e-05 1.71414858239912e-05 1.71414858239912e-05 1.71414858239912e-05 1.71414858239912e-05 1.3734943068661e-05 0.999917590341588 1.3734943068661e-05 1.3734943068661e-05 1.3734943068661e-05 1.3734943068661e-05 1.3734943068661e-05 6.5772165219679e-05 6.5772165219679e-05 0.999605367008682 6.5772165219679e-05 6.5772165219679e-05 6.5772165219679e-05 6.5772165219679e-05 1.66228930483061e-05 1.66228930483061e-05 1.66228930483061e-05 0.99990026264171 1.66228930483061e-05 1.66228930483061e-05 1.66228930483061e-05 0.999925756357112 1.23739404813463e-05 1.23739404813463e-05 1.23739404813463e-05 1.23739404813463e-05 1.23739404813463e-05 1.23739404813463e-05 0.999588110111897 6.86483146838745e-05 6.86483146838745e-05 6.86483146838745e-05 6.86483146838745e-05 6.86483146838745e-05 6.86483146838745e-05 0.000255102040816327 0.000255102040816327 0.000255102040816327 0.000255102040816327 0.998469387755102 0.000255102040816327 0.000255102040816327 0.00078064012490242 0.00078064012490242 0.00078064012490242 0.00078064012490242 0.00078064012490242 0.995316159250585 0.00078064012490242 0.000683526999316473 0.000683526999316473 0.000683526999316473 0.000683526999316473 0.000683526999316473 0.000683526999316473 0.995898838004101 0.0015527950310559 0.0015527950310559 0.0015527950310559 0.0015527950310559 0.0015527950310559 0.990683229813665 0.0015527950310559 0.00529100529100529 0.968253968253968 0.00529100529100529 0.00529100529100529 0.00529100529100529 0.00529100529100529 0.00529100529100529 </TABLE>
</DEFINITION>

<DEFINITION>
	<FOR>v54</FOR>
	<GIVEN>v2</GIVEN>
	<TABLE>0.999989915898594 1.00841014057237e-05 0.999962984897838 3.7015102161682e-05 5.99952003839693e-05 0.999940004799616 4.80723007403134e-05 0.99995192769926 0.000230202578268877 0.999769797421731 5.81801256690714e-05 0.999941819874331 4.3308791684712e-05 0.999956691208315 0.000240269101393561 0.999759730898606 0.000892857142857143 0.999107142857143 0.00273224043715847 0.997267759562842 0.00239234449760765 0.997607655502392 0.00543478260869565 0.994565217391304 0.0185185185185185 0.981481481481482 </TABLE>
</DEFINITION>

</NETWORK>
</BIF>
