<?xml version="1.0" encoding="UTF-8"?>

<!-- DTD for the XMLBIF 0.3 format -->
<!DOCTYPE BIF [
<!ELEMENT BIF ( NETWORK )*>
<!ATTLIST BIF VERSION CDATA #REQUIRED>
   <!ELEMENT NETWORK ( NAME, ( PROPERTY | VARIABLE | DEFINITION )* )>
      <!ELEMENT NAME (#PCDATA)>
        <!ELEMENT VARIABLE ( NAME, ( OUTCOME |  PROPERTY )* ) >
          <!ATTLIST VARIABLE TYPE (nature|decision|utility) "nature">
           <!ELEMENT OUTCOME (#PCDATA)>
            <!ELEMENT DEFINITION ( FOR | GIVEN | TABLE | PROPERTY )* >
              <!ELEMENT FOR (#PCDATA)>
                <!ELEMENT GIVEN (#PCDATA)>
                  <!ELEMENT TABLE (#PCDATA)>
                    <!ELEMENT PROPERTY (#PCDATA)>
                      ]>
<BIF VERSION="0.3">
<NETWORK>
<NAME>Reco</NAME>
<VARIABLE TYPE="nature">
	<NAME>V1</NAME>
	<OUTCOME>3</OUTCOME>
	<OUTCOME>2</OUTCOME>
	<OUTCOME>1</OUTCOME>
	<OUTCOME>0</OUTCOME>
</VARIABLE>

<VARIABLE TYPE="nature">
	<NAME>V2</NAME>
	<OUTCOME>2</OUTCOME>
	<OUTCOME>3</OUTCOME>
	<OUTCOME>0</OUTCOME>
	<OUTCOME>1</OUTCOME>
</VARIABLE>

<VARIABLE TYPE="nature">
	<NAME>V3</NAME>
	<OUTCOME>2</OUTCOME>
	<OUTCOME>0</OUTCOME>
	<OUTCOME>1</OUTCOME>
	<OUTCOME>3</OUTCOME>
</VARIABLE>

<VARIABLE TYPE="nature">
	<NAME>V4</NAME>
	<OUTCOME>2</OUTCOME>
	<OUTCOME>3</OUTCOME>
	<OUTCOME>1</OUTCOME>
	<OUTCOME>0</OUTCOME>
</VARIABLE>

<VARIABLE TYPE="nature">
	<NAME>V5</NAME>
	<OUTCOME>2</OUTCOME>
	<OUTCOME>3</OUTCOME>
	<OUTCOME>1</OUTCOME>
	<OUTCOME>0</OUTCOME>
</VARIABLE>

<VARIABLE TYPE="nature">
	<NAME>V6</NAME>
	<OUTCOME>1</OUTCOME>
	<OUTCOME>2</OUTCOME>
	<OUTCOME>0</OUTCOME>
	<OUTCOME>3</OUTCOME>
</VARIABLE>

<VARIABLE TYPE="nature">
	<NAME>V7</NAME>
	<OUTCOME>2</OUTCOME>
	<OUTCOME>3</OUTCOME>
	<OUTCOME>0</OUTCOME>
	<OUTCOME>1</OUTCOME>
</VARIABLE>

<VARIABLE TYPE="nature">
	<NAME>V8</NAME>
	<OUTCOME>1</OUTCOME>
	<OUTCOME>2</OUTCOME>
	<OUTCOME>0</OUTCOME>
	<OUTCOME>3</OUTCOME>
</VARIABLE>

<VARIABLE TYPE="nature">
	<NAME>V9</NAME>
	<OUTCOME>2</OUTCOME>
	<OUTCOME>0</OUTCOME>
	<OUTCOME>3</OUTCOME>
	<OUTCOME>1</OUTCOME>
</VARIABLE>

<VARIABLE TYPE="nature">
	<NAME>V10</NAME>
	<OUTCOME>1</OUTCOME>
	<OUTCOME>0</OUTCOME>
	<OUTCOME>2</OUTCOME>
</VARIABLE>

<VARIABLE TYPE="nature">
	<NAME>V11</NAME>
	<OUTCOME>1</OUTCOME>
	<OUTCOME>2</OUTCOME>
	<OUTCOME>0</OUTCOME>
</VARIABLE>

<VARIABLE TYPE="nature">
	<NAME>V12</NAME>
	<OUTCOME>1</OUTCOME>
	<OUTCOME>0</OUTCOME>
	<OUTCOME>2</OUTCOME>
</VARIABLE>

<VARIABLE TYPE="nature">
	<NAME>V13</NAME>
	<OUTCOME>1</OUTCOME>
	<OUTCOME>0</OUTCOME>
	<OUTCOME>2</OUTCOME>
</VARIABLE>

<VARIABLE TYPE="nature">
	<NAME>V14</NAME>
	<OUTCOME>2</OUTCOME>
	<OUTCOME>1</OUTCOME>
	<OUTCOME>0</OUTCOME>
</VARIABLE>

<VARIABLE TYPE="nature">
	<NAME>V15</NAME>
	<OUTCOME>2</OUTCOME>
	<OUTCOME>1</OUTCOME>
	<OUTCOME>0</OUTCOME>
</VARIABLE>

<VARIABLE TYPE="nature">
	<NAME>V16</NAME>
	<OUTCOME>3</OUTCOME>
	<OUTCOME>0</OUTCOME>
	<OUTCOME>1</OUTCOME>
	<OUTCOME>2</OUTCOME>
</VARIABLE>

<VARIABLE TYPE="nature">
	<NAME>V17</NAME>
	<OUTCOME>0</OUTCOME>
	<OUTCOME>1</OUTCOME>
	<OUTCOME>2</OUTCOME>
</VARIABLE>

<VARIABLE TYPE="nature">
	<NAME>V18</NAME>
	<OUTCOME>1</OUTCOME>
	<OUTCOME>0</OUTCOME>
	<OUTCOME>2</OUTCOME>
</VARIABLE>

<VARIABLE TYPE="nature">
	<NAME>V19</NAME>
	<OUTCOME>1</OUTCOME>
	<OUTCOME>0</OUTCOME>
	<OUTCOME>2</OUTCOME>
</VARIABLE>

<VARIABLE TYPE="nature">
	<NAME>V20</NAME>
	<OUTCOME>0</OUTCOME>
	<OUTCOME>1</OUTCOME>
	<OUTCOME>2</OUTCOME>
</VARIABLE>

<VARIABLE TYPE="nature">
	<NAME>V21</NAME>
	<OUTCOME>2</OUTCOME>
	<OUTCOME>0</OUTCOME>
	<OUTCOME>1</OUTCOME>
</VARIABLE>

<VARIABLE TYPE="nature">
	<NAME>V22</NAME>
	<OUTCOME>0</OUTCOME>
	<OUTCOME>2</OUTCOME>
	<OUTCOME>1</OUTCOME>
</VARIABLE>

<VARIABLE TYPE="nature">
	<NAME>V23</NAME>
	<OUTCOME>1</OUTCOME>
	<OUTCOME>2</OUTCOME>
	<OUTCOME>0</OUTCOME>
	<OUTCOME>3</OUTCOME>
</VARIABLE>

<VARIABLE TYPE="nature">
	<NAME>V24</NAME>
	<OUTCOME>1</OUTCOME>
	<OUTCOME>0</OUTCOME>
	<OUTCOME>2</OUTCOME>
</VARIABLE>

<VARIABLE TYPE="nature">
	<NAME>V25</NAME>
	<OUTCOME>1</OUTCOME>
	<OUTCOME>0</OUTCOME>
	<OUTCOME>2</OUTCOME>
</VARIABLE>

<VARIABLE TYPE="nature">
	<NAME>V26</NAME>
	<OUTCOME>0</OUTCOME>
	<OUTCOME>3</OUTCOME>
	<OUTCOME>5</OUTCOME>
	<OUTCOME>4</OUTCOME>
	<OUTCOME>1</OUTCOME>
	<OUTCOME>2</OUTCOME>
</VARIABLE>

<VARIABLE TYPE="nature">
	<NAME>V27</NAME>
	<OUTCOME>4</OUTCOME>
	<OUTCOME>3</OUTCOME>
	<OUTCOME>10</OUTCOME>
	<OUTCOME>1</OUTCOME>
	<OUTCOME>9</OUTCOME>
	<OUTCOME>2</OUTCOME>
	<OUTCOME>6</OUTCOME>
	<OUTCOME>7</OUTCOME>
	<OUTCOME>8</OUTCOME>
	<OUTCOME>0</OUTCOME>
	<OUTCOME>5</OUTCOME>
</VARIABLE>

<VARIABLE TYPE="nature">
	<NAME>V28</NAME>
	<OUTCOME>1</OUTCOME>
	<OUTCOME>0</OUTCOME>
</VARIABLE>

<VARIABLE TYPE="nature">
	<NAME>V29</NAME>
	<OUTCOME>2</OUTCOME>
	<OUTCOME>3</OUTCOME>
	<OUTCOME>0</OUTCOME>
	<OUTCOME>1</OUTCOME>
</VARIABLE>

<VARIABLE TYPE="nature">
	<NAME>V30</NAME>
	<OUTCOME>1</OUTCOME>
	<OUTCOME>2</OUTCOME>
	<OUTCOME>0</OUTCOME>
</VARIABLE>

<VARIABLE TYPE="nature">
	<NAME>V31</NAME>
	<OUTCOME>0</OUTCOME>
	<OUTCOME>2</OUTCOME>
	<OUTCOME>1</OUTCOME>
</VARIABLE>

<VARIABLE TYPE="nature">
	<NAME>V32</NAME>
	<OUTCOME>1</OUTCOME>
	<OUTCOME>5</OUTCOME>
	<OUTCOME>0</OUTCOME>
	<OUTCOME>3</OUTCOME>
	<OUTCOME>4</OUTCOME>
	<OUTCOME>2</OUTCOME>
</VARIABLE>

<VARIABLE TYPE="nature">
	<NAME>V33</NAME>
	<OUTCOME>2</OUTCOME>
	<OUTCOME>1</OUTCOME>
	<OUTCOME>0</OUTCOME>
	<OUTCOME>3</OUTCOME>
</VARIABLE>

<VARIABLE TYPE="nature">
	<NAME>V34</NAME>
	<OUTCOME>2</OUTCOME>
	<OUTCOME>0</OUTCOME>
	<OUTCOME>1</OUTCOME>
</VARIABLE>

<VARIABLE TYPE="nature">
	<NAME>V35</NAME>
	<OUTCOME>1</OUTCOME>
	<OUTCOME>2</OUTCOME>
	<OUTCOME>0</OUTCOME>
</VARIABLE>

<VARIABLE TYPE="nature">
	<NAME>V36</NAME>
	<OUTCOME>1</OUTCOME>
	<OUTCOME>0</OUTCOME>
	<OUTCOME>2</OUTCOME>
</VARIABLE>

<VARIABLE TYPE="nature">
	<NAME>V37</NAME>
	<OUTCOME>0</OUTCOME>
	<OUTCOME>2</OUTCOME>
	<OUTCOME>1</OUTCOME>
	<OUTCOME>3</OUTCOME>
	<OUTCOME>4</OUTCOME>
</VARIABLE>

<VARIABLE TYPE="nature">
	<NAME>V38</NAME>
	<OUTCOME>1</OUTCOME>
	<OUTCOME>0</OUTCOME>
	<OUTCOME>3</OUTCOME>
	<OUTCOME>2</OUTCOME>
</VARIABLE>

<VARIABLE TYPE="nature">
	<NAME>V39</NAME>
	<OUTCOME>2</OUTCOME>
	<OUTCOME>1</OUTCOME>
	<OUTCOME>3</OUTCOME>
	<OUTCOME>0</OUTCOME>
</VARIABLE>

<VARIABLE TYPE="nature">
	<NAME>V40</NAME>
	<OUTCOME>2</OUTCOME>
	<OUTCOME>0</OUTCOME>
	<OUTCOME>3</OUTCOME>
	<OUTCOME>1</OUTCOME>
</VARIABLE>

<VARIABLE TYPE="nature">
	<NAME>V41</NAME>
	<OUTCOME>4</OUTCOME>
	<OUTCOME>3</OUTCOME>
	<OUTCOME>10</OUTCOME>
	<OUTCOME>1</OUTCOME>
	<OUTCOME>9</OUTCOME>
	<OUTCOME>2</OUTCOME>
	<OUTCOME>6</OUTCOME>
	<OUTCOME>7</OUTCOME>
	<OUTCOME>8</OUTCOME>
	<OUTCOME>0</OUTCOME>
	<OUTCOME>5</OUTCOME>
</VARIABLE>

<VARIABLE TYPE="nature">
	<NAME>V42</NAME>
	<OUTCOME>2</OUTCOME>
	<OUTCOME>0</OUTCOME>
	<OUTCOME>1</OUTCOME>
</VARIABLE>

<VARIABLE TYPE="nature">
	<NAME>V43</NAME>
	<OUTCOME>2</OUTCOME>
	<OUTCOME>0</OUTCOME>
	<OUTCOME>1</OUTCOME>
</VARIABLE>

<VARIABLE TYPE="nature">
	<NAME>V44</NAME>
	<OUTCOME>2</OUTCOME>
	<OUTCOME>0</OUTCOME>
	<OUTCOME>1</OUTCOME>
</VARIABLE>

<VARIABLE TYPE="nature">
	<NAME>V45</NAME>
	<OUTCOME>1</OUTCOME>
	<OUTCOME>2</OUTCOME>
	<OUTCOME>5</OUTCOME>
	<OUTCOME>4</OUTCOME>
	<OUTCOME>6</OUTCOME>
	<OUTCOME>0</OUTCOME>
	<OUTCOME>3</OUTCOME>
</VARIABLE>

<VARIABLE TYPE="nature">
	<NAME>V46</NAME>
	<OUTCOME>0</OUTCOME>
	<OUTCOME>1</OUTCOME>
	<OUTCOME>3</OUTCOME>
	<OUTCOME>2</OUTCOME>
</VARIABLE>

<VARIABLE TYPE="nature">
	<NAME>V47</NAME>
	<OUTCOME>1</OUTCOME>
	<OUTCOME>2</OUTCOME>
	<OUTCOME>0</OUTCOME>
</VARIABLE>

<VARIABLE TYPE="nature">
	<NAME>V48</NAME>
	<OUTCOME>2</OUTCOME>
	<OUTCOME>0</OUTCOME>
	<OUTCOME>1</OUTCOME>
</VARIABLE>

<VARIABLE TYPE="nature">
	<NAME>V49</NAME>
	<OUTCOME>3</OUTCOME>
	<OUTCOME>1</OUTCOME>
	<OUTCOME>0</OUTCOME>
	<OUTCOME>2</OUTCOME>
</VARIABLE>

<VARIABLE TYPE="nature">
	<NAME>V50</NAME>
	<OUTCOME>0</OUTCOME>
	<OUTCOME>2</OUTCOME>
	<OUTCOME>1</OUTCOME>
</VARIABLE>

<VARIABLE TYPE="nature">
	<NAME>V51</NAME>
	<OUTCOME>5</OUTCOME>
	<OUTCOME>3</OUTCOME>
	<OUTCOME>0</OUTCOME>
	<OUTCOME>4</OUTCOME>
	<OUTCOME>1</OUTCOME>
	<OUTCOME>6</OUTCOME>
	<OUTCOME>2</OUTCOME>
</VARIABLE>

<VARIABLE TYPE="nature">
	<NAME>V52</NAME>
	<OUTCOME>1</OUTCOME>
	<OUTCOME>0</OUTCOME>
	<OUTCOME>4</OUTCOME>
	<OUTCOME>2</OUTCOME>
	<OUTCOME>3</OUTCOME>
</VARIABLE>

<VARIABLE TYPE="nature">
	<NAME>V53</NAME>
	<OUTCOME>2</OUTCOME>
	<OUTCOME>1</OUTCOME>
	<OUTCOME>3</OUTCOME>
	<OUTCOME>0</OUTCOME>
</VARIABLE>

<VARIABLE TYPE="nature">
	<NAME>V54</NAME>
	<OUTCOME>1</OUTCOME>
	<OUTCOME>2</OUTCOME>
	<OUTCOME>3</OUTCOME>
	<OUTCOME>0</OUTCOME>
</VARIABLE>

<VARIABLE TYPE="nature">
	<NAME>V55</NAME>
	<OUTCOME>1</OUTCOME>
	<OUTCOME>0</OUTCOME>
</VARIABLE>

<VARIABLE TYPE="nature">
	<NAME>V56</NAME>
	<OUTCOME>0</OUTCOME>
	<OUTCOME>5</OUTCOME>
	<OUTCOME>2</OUTCOME>
	<OUTCOME>1</OUTCOME>
	<OUTCOME>4</OUTCOME>
	<OUTCOME>3</OUTCOME>
</VARIABLE>

<DEFINITION>
	<FOR>V1</FOR>
	<TABLE>0.256389776357828 0.281948881789137 0.234025559105431 0.227635782747604 </TABLE>
</DEFINITION>

<DEFINITION>
	<FOR>V2</FOR>
	<GIVEN>V4</GIVEN>
	<TABLE>0.657035175879397 0.188023450586265 0.0607202680067002 0.0942211055276382 0.319651741293532 0.51865671641791 0.041044776119403 0.120646766169154 0.404882154882155 0.122053872053872 0.216329966329966 0.256734006734007 0.205414012738854 0.103503184713376 0.587579617834395 0.103503184713376 </TABLE>
</DEFINITION>

<DEFINITION>
	<FOR>V3</FOR>
	<TABLE>0.550319488817891 0.115814696485623 0.163738019169329 0.170127795527157 </TABLE>
</DEFINITION>

<DEFINITION>
	<FOR>V4</FOR>
	<GIVEN>V1</GIVEN>
	<TABLE>0.424454828660436 0.424454828660436 0.088006230529595 0.0630841121495327 0.646600566572238 0.114022662889518 0.170679886685552 0.0686968838526912 0.587883959044369 0.0827645051194539 0.246587030716724 0.0827645051194539 0.21140350877193 0.00087719298245614 0.478070175438596 0.309649122807018 </TABLE>
</DEFINITION>

<DEFINITION>
	<FOR>V5</FOR>
	<GIVEN>V4</GIVEN>
	<TABLE>0.998743718592965 0.000418760469011725 0.000418760469011725 0.000418760469011725 0.00124378109452736 0.996268656716418 0.00124378109452736 0.00124378109452736 0.000841750841750842 0.000841750841750842 0.997474747474748 0.000841750841750842 0.00159235668789809 0.00159235668789809 0.00159235668789809 0.995222929936306 </TABLE>
</DEFINITION>

<DEFINITION>
	<FOR>V6</FOR>
	<TABLE>0.202076677316294 0.432108626198083 0.131789137380192 0.234025559105431 </TABLE>
</DEFINITION>

<DEFINITION>
	<FOR>V7</FOR>
	<TABLE>0.37779552715655 0.253194888178914 0.119009584664537 0.25 </TABLE>
</DEFINITION>

<DEFINITION>
	<FOR>V8</FOR>
	<GIVEN>V6</GIVEN>
	<TABLE>0.538537549407115 0.222332015810277 0.174901185770751 0.0642292490118577 0.200092421441774 0.577171903881701 0.0374306839186691 0.185304990757856 0.413636363636364 0.171212121212121 0.389393939393939 0.0257575757575758 0.205631399317406 0.287542662116041 0.219283276450512 0.287542662116041 </TABLE>
</DEFINITION>

<DEFINITION>
	<FOR>V9</FOR>
	<GIVEN>V8</GIVEN>
	<TABLE>0.140080428954424 0.268766756032172 0.000670241286863271 0.590482573726542 0.607588357588358 0.0254677754677755 0.125259875259875 0.241683991683992 0.00129533678756477 0.643782383419689 0.00129533678756477 0.353626943005181 0.430487804878049 0.00121951219512195 0.528048780487805 0.0402439024390244 </TABLE>
</DEFINITION>

<DEFINITION>
	<FOR>V10</FOR>
	<TABLE>0.457933972310969 0.138445154419595 0.403620873269436 </TABLE>
</DEFINITION>

<DEFINITION>
	<FOR>V11</FOR>
	<TABLE>0.483493077742279 0.381256656017039 0.135250266240682 </TABLE>
</DEFINITION>

<DEFINITION>
	<FOR>V12</FOR>
	<GIVEN>V11</GIVEN>
	<GIVEN>V10</GIVEN>
	<TABLE>0.872395833333333 0.0427083333333333 0.0848958333333333 0.0606060606060606 0.878787878787879 0.0606060606060606 0.349178403755869 0.0322769953051643 0.618544600938967 0.420881971465629 0.105706874189364 0.473411154345006 0.101289134438306 0.747697974217311 0.151012891344383 0.000879507475813544 0.000879507475813544 0.998240985048373 0.267156862745098 0.66421568627451 0.0686274509803921 0.00606060606060606 0.987878787878788 0.00606060606060606 0.333333333333333 0.0964912280701754 0.570175438596491 </TABLE>
</DEFINITION>

<DEFINITION>
	<FOR>V13</FOR>
	<GIVEN>V12</GIVEN>
	<TABLE>0.671207992733878 0.172570390554042 0.15622161671208 0.204119850187266 0.794007490636704 0.00187265917602996 0.153130287648054 0.0236886632825719 0.823181049069374 </TABLE>
</DEFINITION>

<DEFINITION>
	<FOR>V14</FOR>
	<TABLE>0.339723109691161 0.317358892438765 0.342917997870075 </TABLE>
</DEFINITION>

<DEFINITION>
	<FOR>V15</FOR>
	<GIVEN>V14</GIVEN>
	<TABLE>0.99791013584117 0.00104493207941484 0.00104493207941484 0.736017897091723 0.262863534675615 0.00111856823266219 0.10351966873706 0.345755693581781 0.550724637681159 </TABLE>
</DEFINITION>

<DEFINITION>
	<FOR>V16</FOR>
	<GIVEN>V17</GIVEN>
	<TABLE>0.420184696569921 0.190633245382586 0.151055408970976 0.238126649076517 0.180875576036866 0.388248847926267 0.125576036866359 0.305299539170507 0.0269679300291545 0.28935860058309 0.42930029154519 0.254373177842566 </TABLE>
</DEFINITION>

<DEFINITION>
	<FOR>V17</FOR>
	<GIVEN>V20</GIVEN>
	<TABLE>0.790397045244691 0.15881809787627 0.0507848568790397 0.236904761904762 0.29047619047619 0.472619047619048 0.0917225950782998 0.262863534675615 0.645413870246085 </TABLE>
</DEFINITION>

<DEFINITION>
	<FOR>V18</FOR>
	<GIVEN>V19</GIVEN>
	<TABLE>0.359649122807018 0.553429027113238 0.0869218500797448 0.276564774381368 0.708879184861718 0.0145560407569141 0.309360730593607 0.360730593607306 0.329908675799087 </TABLE>
</DEFINITION>

<DEFINITION>
	<FOR>V19</FOR>
	<GIVEN>V17</GIVEN>
	<TABLE>0.396657871591909 0.483729111697449 0.119613016710642 0.568356374807988 0.208909370199693 0.222734254992319 0.420796890184645 0.00097181729834791 0.578231292517007 </TABLE>
</DEFINITION>

<DEFINITION>
	<FOR>V20</FOR>
	<GIVEN>V15</GIVEN>
	<TABLE>0.163455925277291 0.326328079392878 0.510215995329831 0.475438596491228 0.491228070175439 0.0333333333333333 0.99625468164794 0.00187265917602996 0.00187265917602996 </TABLE>
</DEFINITION>

<DEFINITION>
	<FOR>V21</FOR>
	<GIVEN>V24</GIVEN>
	<TABLE>0.291397849462366 0.339784946236559 0.368817204301075 0.301333333333333 0.265333333333333 0.433333333333333 0.143359718557608 0.57080035180299 0.285839929639402 </TABLE>
</DEFINITION>

<DEFINITION>
	<FOR>V22</FOR>
	<GIVEN>V21</GIVEN>
	<TABLE>0.996969696969697 0.00151515151515151 0.00151515151515151 0.000859106529209622 0.998281786941581 0.000859106529209622 0.00100704934541793 0.00100704934541793 0.997985901309164 </TABLE>
</DEFINITION>

<DEFINITION>
	<FOR>V23</FOR>
	<TABLE>0.30111821086262 0.329872204472843 0.106230031948882 0.262779552715655 </TABLE>
</DEFINITION>

<DEFINITION>
	<FOR>V24</FOR>
	<GIVEN>V23</GIVEN>
	<TABLE>0.28735632183908 0.117595048629531 0.595048629531388 0.514124293785311 0.155770782889427 0.330104923325262 0.0325814536340852 0.0025062656641604 0.964912280701754 0.268490374873354 0.681864235055724 0.049645390070922 </TABLE>
</DEFINITION>

<DEFINITION>
	<FOR>V25</FOR>
	<GIVEN>V15</GIVEN>
	<TABLE>0.47343841214244 0.221249270286048 0.305312317571512 0.459649122807018 0.53859649122807 0.00175438596491228 0.00187265917602996 0.99625468164794 0.00187265917602996 </TABLE>
</DEFINITION>

<DEFINITION>
	<FOR>V26</FOR>
	<TABLE>0.227369542066028 0.227369542066028 0.217784877529286 0.102768903088392 0.128328008519702 0.0963791267305644 </TABLE>
</DEFINITION>

<DEFINITION>
	<FOR>V27</FOR>
	<TABLE>0.121696195178623 0.0993319779262271 0.11850130699971 0.144060412431019 0.0801626488527447 0.0865524252105722 0.0737728724949172 0.0673830961370897 0.102526866105141 0.0673830961370897 0.0386291025268661 </TABLE>
</DEFINITION>

<DEFINITION>
	<FOR>V28</FOR>
	<GIVEN>V27</GIVEN>
	<TABLE>0.998806682577566 0.00119331742243437 0.998538011695906 0.00146198830409357 0.998774509803922 0.00122549019607843 0.00100806451612903 0.998991935483871 0.998188405797101 0.00181159420289855 0.998322147651007 0.00167785234899329 0.998031496062992 0.00196850393700787 0.997844827586207 0.0021551724137931 0.998583569405099 0.00141643059490085 0.0021551724137931 0.997844827586207 0.996240601503759 0.0037593984962406 </TABLE>
</DEFINITION>

<DEFINITION>
	<FOR>V29</FOR>
	<TABLE>0.22444089456869 0.0806709265175719 0.125399361022364 0.569488817891374 </TABLE>
</DEFINITION>

<DEFINITION>
	<FOR>V30</FOR>
	<GIVEN>V29</GIVEN>
	<TABLE>0.31435349940688 0.570581257413998 0.115065243179122 0.0429042904290429 0.953795379537954 0.0033003300330033 0.154989384288747 0.00212314225053079 0.842887473460722 0.527816736792894 0.107059373539037 0.365123889668069 </TABLE>
</DEFINITION>

<DEFINITION>
	<FOR>V31</FOR>
	<GIVEN>V30</GIVEN>
	<GIVEN>V21</GIVEN>
	<TABLE>0.810841983852364 0.00115340253748558 0.18800461361015 0.000859106529209622 0.835910652920962 0.163230240549828 0.0215550423402617 0.0423402617397998 0.936104695919938 0.427821522309711 0.427821522309711 0.144356955380577 0.000946969696969697 0.998106060606061 0.000946969696969697 0.001230012300123 0.997539975399754 0.001230012300123 0.997267759562842 0.00136612021857923 0.00136612021857923 0.297955974842767 0.276729559748428 0.425314465408805 0.935409457900807 0.00115340253748558 0.063437139561707 </TABLE>
</DEFINITION>

<DEFINITION>
	<FOR>V32</FOR>
	<GIVEN>V27</GIVEN>
	<TABLE>0.998011137629276 0.000397772474144789 0.000397772474144789 0.000397772474144789 0.000397772474144789 0.000397772474144789 0.997563352826511 0.000487329434697856 0.000487329434697856 0.000487329434697856 0.000487329434697856 0.000487329434697856 0.000408496732026144 0.997957516339869 0.000408496732026144 0.000408496732026144 0.000408496732026144 0.000408496732026144 0.000336021505376344 0.000336021505376344 0.998319892473118 0.000336021505376344 0.000336021505376344 0.000336021505376344 0.996980676328503 0.000603864734299517 0.000603864734299517 0.000603864734299517 0.000603864734299517 0.000603864734299517 0.997203579418345 0.000559284116331096 0.000559284116331096 0.000559284116331096 0.000559284116331096 0.000559284116331096 0.000656167979002625 0.000656167979002625 0.000656167979002625 0.996719160104987 0.000656167979002625 0.000656167979002625 0.000718390804597701 0.000718390804597701 0.000718390804597701 0.000718390804597701 0.996408045977012 0.000718390804597701 0.000472143531633617 0.000472143531633617 0.997639282341832 0.000472143531633617 0.000472143531633617 0.000472143531633617 0.000718390804597701 0.000718390804597701 0.996408045977012 0.000718390804597701 0.000718390804597701 0.000718390804597701 0.0012531328320802 0.0012531328320802 0.0012531328320802 0.0012531328320802 0.0012531328320802 0.993734335839599 </TABLE>
</DEFINITION>

<DEFINITION>
	<FOR>V33</FOR>
	<TABLE>0.265974440894569 0.547124600638978 0.112619808306709 0.0742811501597444 </TABLE>
</DEFINITION>

<DEFINITION>
	<FOR>V34</FOR>
	<TABLE>0.49307774227902 0.317358892438765 0.189563365282215 </TABLE>
</DEFINITION>

<DEFINITION>
	<FOR>V35</FOR>
	<GIVEN>V34</GIVEN>
	<TABLE>0.311735061195104 0.123830093592513 0.564434845212383 0.182326621923937 0.615212527964206 0.202460850111857 0.254681647940075 0.473782771535581 0.271535580524345 </TABLE>
</DEFINITION>

<DEFINITION>
	<FOR>V36</FOR>
	<GIVEN>V35</GIVEN>
	<GIVEN>V24</GIVEN>
	<TABLE>0.725293132328308 0.137353433835846 0.137353433835846 0.227805695142379 0.770519262981575 0.0016750418760469 0.486027944111776 0.000998003992015968 0.512974051896208 0.179924242424242 0.000946969696969697 0.819128787878788 0.413486005089059 0.241730279898219 0.344783715012723 0.000923361034164358 0.000923361034164358 0.998153277931671 0.143359718557608 0.855760773966579 0.000879507475813544 0.00115340253748558 0.997693194925029 0.00115340253748558 0.326546003016591 0.326546003016591 0.346907993966817 </TABLE>
</DEFINITION>

<DEFINITION>
	<FOR>V37</FOR>
	<GIVEN>V27</GIVEN>
	<TABLE>0.998090692124105 0.000477326968973747 0.000477326968973747 0.000477326968973747 0.000477326968973747 0.000584795321637427 0.99766081871345 0.000584795321637427 0.000584795321637427 0.000584795321637427 0.998039215686275 0.000490196078431373 0.000490196078431373 0.000490196078431373 0.000490196078431373 0.000403225806451613 0.000403225806451613 0.998387096774194 0.000403225806451613 0.000403225806451613 0.00072463768115942 0.00072463768115942 0.00072463768115942 0.997101449275362 0.00072463768115942 0.997315436241611 0.000671140939597315 0.000671140939597315 0.000671140939597315 0.000671140939597315 0.000787401574803149 0.000787401574803149 0.000787401574803149 0.996850393700787 0.000787401574803149 0.000862068965517241 0.000862068965517241 0.000862068965517241 0.000862068965517241 0.996551724137931 0.00056657223796034 0.00056657223796034 0.00056657223796034 0.00056657223796034 0.997733711048159 0.996551724137931 0.000862068965517241 0.000862068965517241 0.000862068965517241 0.000862068965517241 0.993984962406015 0.00150375939849624 0.00150375939849624 0.00150375939849624 0.00150375939849624 </TABLE>
</DEFINITION>

<DEFINITION>
	<FOR>V38</FOR>
	<GIVEN>V40</GIVEN>
	<TABLE>0.396520146520146 0.484432234432234 0.0155677655677656 0.103479853479853 0.46680216802168 0.130758807588076 0.19579945799458 0.206639566395664 0.293189368770764 0.665282392026578 0.000830564784053156 0.0406976744186047 0.466828478964401 0.324433656957929 0.0266990291262136 0.182038834951456 </TABLE>
</DEFINITION>

<DEFINITION>
	<FOR>V39</FOR>
	<TABLE>0.416134185303514 0.304313099041534 0.17332268370607 0.106230031948882 </TABLE>
</DEFINITION>

<DEFINITION>
	<FOR>V40</FOR>
	<GIVEN>V39</GIVEN>
	<TABLE>0.338291746641075 0.161708253358925 0.24616122840691 0.25383877159309 0.189632545931759 0.41010498687664 0.0216535433070866 0.378608923884514 0.111751152073733 0.0564516129032258 0.756912442396313 0.0748847926267281 0.0018796992481203 0.87406015037594 0.0018796992481203 0.12218045112782 </TABLE>
</DEFINITION>

<DEFINITION>
	<FOR>V41</FOR>
	<GIVEN>V27</GIVEN>
	<TABLE>0.99783033195921 0.000216966804078976 0.000216966804078976 0.000216966804078976 0.000216966804078976 0.000216966804078976 0.000216966804078976 0.000216966804078976 0.000216966804078976 0.000216966804078976 0.000216966804078976 0.000265816055289739 0.997341839447103 0.000265816055289739 0.000265816055289739 0.000265816055289739 0.000265816055289739 0.000265816055289739 0.000265816055289739 0.000265816055289739 0.000265816055289739 0.000265816055289739 0.000222816399286988 0.000222816399286988 0.99777183600713 0.000222816399286988 0.000222816399286988 0.000222816399286988 0.000222816399286988 0.000222816399286988 0.000222816399286988 0.000222816399286988 0.000222816399286988 0.000183284457478006 0.000183284457478006 0.000183284457478006 0.99816715542522 0.000183284457478006 0.000183284457478006 0.000183284457478006 0.000183284457478006 0.000183284457478006 0.000183284457478006 0.000183284457478006 0.000329380764163373 0.000329380764163373 0.000329380764163373 0.000329380764163373 0.996706192358366 0.000329380764163373 0.000329380764163373 0.000329380764163373 0.000329380764163373 0.000329380764163373 0.000329380764163373 0.000305064063453325 0.000305064063453325 0.000305064063453325 0.000305064063453325 0.000305064063453325 0.996949359365467 0.000305064063453325 0.000305064063453325 0.000305064063453325 0.000305064063453325 0.000305064063453325 0.000357909806728704 0.000357909806728704 0.000357909806728704 0.000357909806728704 0.000357909806728704 0.000357909806728704 0.996420901932713 0.000357909806728704 0.000357909806728704 0.000357909806728704 0.000357909806728704 0.000391849529780564 0.000391849529780564 0.000391849529780564 0.000391849529780564 0.000391849529780564 0.000391849529780564 0.000391849529780564 0.996081504702194 0.000391849529780564 0.000391849529780564 0.000391849529780564 0.000257532835436518 0.000257532835436518 0.000257532835436518 0.000257532835436518 0.000257532835436518 0.000257532835436518 0.000257532835436518 0.000257532835436518 0.997424671645635 0.000257532835436518 0.000257532835436518 0.000391849529780564 0.000391849529780564 0.000391849529780564 0.000391849529780564 0.000391849529780564 0.000391849529780564 0.000391849529780564 0.000391849529780564 0.000391849529780564 0.996081504702194 0.000391849529780564 0.000683526999316473 0.000683526999316473 0.000683526999316473 0.000683526999316473 0.000683526999316473 0.000683526999316473 0.000683526999316473 0.000683526999316473 0.000683526999316473 0.000683526999316473 0.993164730006835 </TABLE>
</DEFINITION>

<DEFINITION>
	<FOR>V42</FOR>
	<GIVEN>V28</GIVEN>
	<TABLE>0.110209601081812 0.641649763353617 0.248140635564571 0.378446115288221 0.273182957393484 0.348370927318296 </TABLE>
</DEFINITION>

<DEFINITION>
	<FOR>V43</FOR>
	<GIVEN>V42</GIVEN>
	<TABLE>0.881104033970276 0.00212314225053079 0.116772823779193 0.0119722747321991 0.942028985507246 0.0459987397605545 0.0606060606060606 0.0368906455862978 0.902503293807642 </TABLE>
</DEFINITION>

<DEFINITION>
	<FOR>V44</FOR>
	<GIVEN>V43</GIVEN>
	<GIVEN>V25</GIVEN>
	<TABLE>0.996316758747698 0.00184162062615101 0.00184162062615101 0.996491228070176 0.00175438596491228 0.00175438596491228 0.99388379204893 0.00305810397553517 0.00305810397553517 0.000560224089635854 0.000560224089635854 0.998879551820728 0.000520833333333333 0.998958333333333 0.000520833333333333 0.997693194925029 0.00115340253748558 0.00115340253748558 0.00111856823266219 0.00111856823266219 0.997762863534676 0.000859106529209622 0.000859106529209622 0.998281786941581 0.994750656167979 0.0026246719160105 0.0026246719160105 </TABLE>
</DEFINITION>

<DEFINITION>
	<FOR>V45</FOR>
	<GIVEN>V37</GIVEN>
	<TABLE>0.155536770921386 0.125950972104818 0.199915469146238 0.0963651732882502 0.17032967032967 0.13334742180896 0.118554522400676 0.289377289377289 0.193223443223443 0.032967032967033 0.289377289377289 0.032967032967033 0.0970695970695971 0.065018315018315 0.133375474083439 0.111251580278129 0.398862199747155 0.243994943109987 0.02275600505689 0.0448798988621997 0.0448798988621997 0.436277415530528 0.125074096028453 0.000592768227622999 0.145820983995258 0.021339656194428 0.249555423829283 0.021339656194428 0.0193340494092374 0.526852846401719 0.150912996777658 0.263694951664876 0.0381310418904404 0.000537056928034372 0.000537056928034372 </TABLE>
</DEFINITION>

<DEFINITION>
	<FOR>V46</FOR>
	<GIVEN>V32</GIVEN>
	<TABLE>0.371733149931224 0.355226960110041 0.0581155433287483 0.214924346629986 0.108744394618834 0.297085201793722 0.162556053811659 0.431614349775785 0.081918505942275 0.326400679117148 0.173599320882852 0.418081494057725 0.778776978417266 0.174460431654676 0.00179856115107914 0.0449640287769784 0.00196850393700787 0.00196850393700787 0.710629921259842 0.285433070866142 0.00342465753424657 0.332191780821918 0.0856164383561644 0.578767123287671 </TABLE>
</DEFINITION>

<DEFINITION>
	<FOR>V47</FOR>
	<GIVEN>V32</GIVEN>
	<TABLE>0.602934433745988 0.33058230169647 0.0664832645575424 0.458893871449925 0.4050822122571 0.136023916292975 0.408036219581211 0.265421618562535 0.326542161856254 0.00239808153477218 0.995203836930456 0.00239808153477218 0.616797900262467 0.0026246719160105 0.380577427821522 0.0045662100456621 0.0045662100456621 0.990867579908676 </TABLE>
</DEFINITION>

<DEFINITION>
	<FOR>V48</FOR>
	<GIVEN>V32</GIVEN>
	<TABLE>0.305823016964695 0.248051352590555 0.44612563044475 0.566517189835575 0.162929745889387 0.270553064275037 0.234861346915676 0.255234861346916 0.509903791737408 0.00239808153477218 0.649880095923261 0.347721822541966 0.522309711286089 0.286089238845144 0.191601049868766 0.908675799086758 0.0045662100456621 0.0867579908675799 </TABLE>
</DEFINITION>

<DEFINITION>
	<FOR>V49</FOR>
	<GIVEN>V27</GIVEN>
	<TABLE>0.893198090692124 0.000596658711217184 0.000596658711217184 0.105608591885442 0.0650584795321637 0.451023391812865 0.129385964912281 0.35453216374269 0.108455882352941 0.378063725490196 0.378063725490196 0.135416666666667 0.710181451612903 0.155745967741935 0.0226814516129032 0.111391129032258 0.877717391304348 0.000905797101449275 0.0806159420289855 0.0407608695652174 0.296140939597315 0.480704697986577 0.111577181208054 0.111577181208054 0.477362204724409 0.260826771653543 0.0442913385826772 0.21751968503937 0.332974137931034 0.570043103448276 0.00107758620689655 0.0959051724137931 0.530453257790368 0.0318696883852691 0.281161473087819 0.156515580736544 0.00107758620689655 0.617456896551724 0.19073275862069 0.19073275862069 0.828947368421053 0.0845864661654135 0.0018796992481203 0.0845864661654135 </TABLE>
</DEFINITION>

<DEFINITION>
	<FOR>V50</FOR>
	<GIVEN>V27</GIVEN>
	<TABLE>0.762132060461416 0.210819411296738 0.0270485282418457 0.161793372319688 0.354775828460039 0.483430799220273 0.108660130718954 0.486111111111111 0.405228758169935 0.0228494623655914 0.355510752688172 0.621639784946237 0.638888888888889 0.0809178743961353 0.280193236714976 0.333333333333333 0.554809843400447 0.111856823266219 0.650918635170604 0.347769028871391 0.00131233595800525 0.0014367816091954 0.238505747126437 0.760057471264368 0.0632672332389046 0.219074598677998 0.717658168083097 0.0014367816091954 0.617816091954023 0.380747126436782 0.0025062656641604 0.994987468671679 0.0025062656641604 </TABLE>
</DEFINITION>

<DEFINITION>
	<FOR>V51</FOR>
	<GIVEN>V37</GIVEN>
	<TABLE>0.222104818258664 0.162933220625528 0.125950972104818 0.118554522400676 0.229501267962806 0.0667793744716822 0.0741758241758242 0.225274725274725 0.065018315018315 0.193223443223443 0.513736263736264 0.000915750915750916 0.000915750915750916 0.000915750915750916 0.0670037926675095 0.199747155499368 0.509481668773704 0.0448798988621997 0.0448798988621997 0.000632111251580278 0.133375474083439 0.249555423829283 0.000592768227622999 0.0628334321280379 0.457024303497333 0.0835803200948429 0.0835803200948429 0.0628334321280379 0.0757250268528464 0.357679914070892 0.000537056928034372 0.000537056928034372 0.113319011815252 0.0381310418904404 0.4140708915145 </TABLE>
</DEFINITION>

<DEFINITION>
	<FOR>V52</FOR>
	<TABLE>0.13482428115016 0.166773162939297 0.34888178913738 0.138019169329073 0.211501597444089 </TABLE>
</DEFINITION>

<DEFINITION>
	<FOR>V53</FOR>
	<GIVEN>V27</GIVEN>
	<TABLE>0.7881861575179 0.0268496420047733 0.105608591885442 0.0793556085918854 0.418859649122807 0.0650584795321637 0.290204678362573 0.225877192982456 0.216299019607843 0.324142156862745 0.216299019607843 0.243259803921569 0.24445564516129 0.133568548387097 0.377520161290323 0.24445564516129 0.319746376811594 0.0407608695652174 0.558876811594203 0.0806159420289855 0.222315436241611 0.185402684563758 0.480704697986577 0.111577181208054 0.997047244094488 0.000984251968503937 0.000984251968503937 0.000984251968503937 0.570043103448276 0.427801724137931 0.00107758620689655 0.00107758620689655 0.000708215297450425 0.0318696883852691 0.000708215297450425 0.96671388101983 0.143318965517241 0.380387931034483 0.380387931034483 0.0959051724137931 0.828947368421053 0.0018796992481203 0.167293233082707 0.0018796992481203 </TABLE>
</DEFINITION>

<DEFINITION>
	<FOR>V54</FOR>
	<GIVEN>V27</GIVEN>
	<TABLE>0.630668257756563 0.0268496420047733 0.263126491646778 0.0793556085918854 0.225877192982456 0.483187134502924 0.225877192982456 0.0650584795321637 0.0545343137254902 0.485906862745098 0.458946078431373 0.000612745098039216 0.310987903225806 0.222278225806452 0.333165322580645 0.133568548387097 0.000905797101449275 0.000905797101449275 0.000905797101449275 0.997282608695652 0.185402684563758 0.443791946308725 0.333053691275168 0.037751677852349 0.260826771653543 0.21751968503937 0.21751968503937 0.304133858267717 0.0484913793103448 0.285560344827586 0.332974137931034 0.332974137931034 0.312322946175637 0.125354107648725 0.468130311614731 0.0941926345609065 0.99676724137931 0.00107758620689655 0.00107758620689655 0.00107758620689655 0.0018796992481203 0.0018796992481203 0.580827067669173 0.415413533834586 </TABLE>
</DEFINITION>

<DEFINITION>
	<FOR>V55</FOR>
	<GIVEN>V27</GIVEN>
	<TABLE>0.289976133651551 0.710023866348449 0.29093567251462 0.70906432748538 0.216911764705882 0.783088235294118 0.644153225806452 0.355846774193548 0.998188405797101 0.00181159420289855 0.149328859060403 0.850671140939597 0.348425196850394 0.651574803149606 0.618534482758621 0.381465517241379 0.406515580736544 0.593484419263456 0.191810344827586 0.808189655172414 0.74812030075188 0.25187969924812 </TABLE>
</DEFINITION>

<DEFINITION>
	<FOR>V56</FOR>
	<GIVEN>V32</GIVEN>
	<TABLE>0.313846859238881 0.124025676295277 0.280834479596515 0.0910132966529115 0.132278771205869 0.0580009170105456 0.054559043348281 0.323617339312407 0.135276532137519 0.000747384155455904 0.350523168908819 0.135276532137519 0.102150537634409 0.000282965478211658 0.020656479909451 0.529994340690436 0.163271080928127 0.183644595359366 0.173860911270983 0.562350119904077 0.217026378896882 0.00119904076738609 0.0443645083932854 0.00119904076738609 0.00131233595800525 0.00131233595800525 0.00131233595800525 0.00131233595800525 0.0958005249343832 0.898950131233596 0.495433789954338 0.00228310502283105 0.00228310502283105 0.00228310502283105 0.331050228310502 0.166666666666667 </TABLE>
</DEFINITION>

</NETWORK>
</BIF>
