<?xml version="1.0" encoding="UTF-8"?>

<!-- DTD for the XMLBIF 0.3 format -->
<!DOCTYPE BIF [
<!ELEMENT BIF ( NETWORK )*>
<!ATTLIST BIF VERSION CDATA #REQUIRED>
   <!ELEMENT NETWORK ( NAME, ( PROPERTY | VARIABLE | DEFINITION )* )>
      <!ELEMENT NAME (#PCDATA)>
        <!ELEMENT VARIABLE ( NAME, ( OUTCOME |  PROPERTY )* ) >
          <!ATTLIST VARIABLE TYPE (nature|decision|utility) "nature">
           <!ELEMENT OUTCOME (#PCDATA)>
            <!ELEMENT DEFINITION ( FOR | GIVEN | TABLE | PROPERTY )* >
              <!ELEMENT FOR (#PCDATA)>
                <!ELEMENT GIVEN (#PCDATA)>
                  <!ELEMENT TABLE (#PCDATA)>
                    <!ELEMENT PROPERTY (#PCDATA)>
                      ]>
<BIF VERSION="0.3">
<NETWORK>
<NAME>Reco</NAME>
<VARIABLE TYPE="nature">
	<NAME>v1</NAME>
	<OUTCOME>999</OUTCOME>
	<OUTCOME>3</OUTCOME>
	<OUTCOME>2</OUTCOME>
	<OUTCOME>0</OUTCOME>
	<OUTCOME>1</OUTCOME>
</VARIABLE>

<VARIABLE TYPE="nature">
	<NAME>v5</NAME>
	<OUTCOME>999</OUTCOME>
	<OUTCOME>3</OUTCOME>
	<OUTCOME>1</OUTCOME>
	<OUTCOME>4</OUTCOME>
	<OUTCOME>0</OUTCOME>
	<OUTCOME>2</OUTCOME>
</VARIABLE>

<VARIABLE TYPE="nature">
	<NAME>v4</NAME>
	<OUTCOME>999</OUTCOME>
	<OUTCOME>0</OUTCOME>
	<OUTCOME>4</OUTCOME>
	<OUTCOME>3</OUTCOME>
	<OUTCOME>1</OUTCOME>
	<OUTCOME>2</OUTCOME>
</VARIABLE>

<VARIABLE TYPE="nature">
	<NAME>v3</NAME>
	<OUTCOME>999</OUTCOME>
	<OUTCOME>0</OUTCOME>
	<OUTCOME>1</OUTCOME>
	<OUTCOME>2</OUTCOME>
</VARIABLE>

<VARIABLE TYPE="nature">
	<NAME>v2</NAME>
	<OUTCOME>999</OUTCOME>
	<OUTCOME>1</OUTCOME>
	<OUTCOME>3</OUTCOME>
	<OUTCOME>2</OUTCOME>
	<OUTCOME>0</OUTCOME>
</VARIABLE>

<VARIABLE TYPE="nature">
	<NAME>v56</NAME>
	<OUTCOME>999</OUTCOME>
	<OUTCOME>1</OUTCOME>
	<OUTCOME>3</OUTCOME>
	<OUTCOME>4</OUTCOME>
	<OUTCOME>2</OUTCOME>
	<OUTCOME>0</OUTCOME>
</VARIABLE>

<VARIABLE TYPE="nature">
	<NAME>v19</NAME>
	<OUTCOME>999</OUTCOME>
	<OUTCOME>1</OUTCOME>
	<OUTCOME>0</OUTCOME>
</VARIABLE>

<VARIABLE TYPE="nature">
	<NAME>v55</NAME>
	<OUTCOME>999</OUTCOME>
	<OUTCOME>0</OUTCOME>
	<OUTCOME>1</OUTCOME>
	<OUTCOME>4</OUTCOME>
	<OUTCOME>2</OUTCOME>
	<OUTCOME>3</OUTCOME>
</VARIABLE>

<VARIABLE TYPE="nature">
	<NAME>v17</NAME>
	<OUTCOME>999</OUTCOME>
	<OUTCOME>0</OUTCOME>
	<OUTCOME>1</OUTCOME>
</VARIABLE>

<VARIABLE TYPE="nature">
	<NAME>v54</NAME>
	<OUTCOME>999</OUTCOME>
	<OUTCOME>0</OUTCOME>
	<OUTCOME>2</OUTCOME>
	<OUTCOME>1</OUTCOME>
</VARIABLE>

<VARIABLE TYPE="nature">
	<NAME>v53</NAME>
	<OUTCOME>999</OUTCOME>
	<OUTCOME>1</OUTCOME>
	<OUTCOME>0</OUTCOME>
</VARIABLE>

<VARIABLE TYPE="nature">
	<NAME>v18</NAME>
	<OUTCOME>999</OUTCOME>
	<OUTCOME>1</OUTCOME>
	<OUTCOME>0</OUTCOME>
</VARIABLE>

<VARIABLE TYPE="nature">
	<NAME>v15</NAME>
	<OUTCOME>999</OUTCOME>
	<OUTCOME>0</OUTCOME>
	<OUTCOME>1</OUTCOME>
</VARIABLE>

<VARIABLE TYPE="nature">
	<NAME>v52</NAME>
	<OUTCOME>999</OUTCOME>
	<OUTCOME>0</OUTCOME>
	<OUTCOME>1</OUTCOME>
</VARIABLE>

<VARIABLE TYPE="nature">
	<NAME>v16</NAME>
	<OUTCOME>999</OUTCOME>
	<OUTCOME>3</OUTCOME>
	<OUTCOME>2</OUTCOME>
	<OUTCOME>1</OUTCOME>
	<OUTCOME>0</OUTCOME>
</VARIABLE>

<VARIABLE TYPE="nature">
	<NAME>v51</NAME>
	<OUTCOME>999</OUTCOME>
	<OUTCOME>1</OUTCOME>
	<OUTCOME>0</OUTCOME>
</VARIABLE>

<VARIABLE TYPE="nature">
	<NAME>v13</NAME>
	<OUTCOME>999</OUTCOME>
	<OUTCOME>1</OUTCOME>
	<OUTCOME>0</OUTCOME>
</VARIABLE>

<VARIABLE TYPE="nature">
	<NAME>v50</NAME>
	<OUTCOME>999</OUTCOME>
	<OUTCOME>1</OUTCOME>
	<OUTCOME>0</OUTCOME>
</VARIABLE>

<VARIABLE TYPE="nature">
	<NAME>v14</NAME>
	<OUTCOME>999</OUTCOME>
	<OUTCOME>1</OUTCOME>
	<OUTCOME>0</OUTCOME>
</VARIABLE>

<VARIABLE TYPE="nature">
	<NAME>v11</NAME>
	<OUTCOME>999</OUTCOME>
	<OUTCOME>0</OUTCOME>
	<OUTCOME>1</OUTCOME>
</VARIABLE>

<VARIABLE TYPE="nature">
	<NAME>v12</NAME>
	<OUTCOME>999</OUTCOME>
	<OUTCOME>2</OUTCOME>
	<OUTCOME>1</OUTCOME>
	<OUTCOME>0</OUTCOME>
</VARIABLE>

<VARIABLE TYPE="nature">
	<NAME>v10</NAME>
	<OUTCOME>999</OUTCOME>
	<OUTCOME>2</OUTCOME>
	<OUTCOME>0</OUTCOME>
	<OUTCOME>1</OUTCOME>
</VARIABLE>

<VARIABLE TYPE="nature">
	<NAME>v59</NAME>
	<OUTCOME>999</OUTCOME>
	<OUTCOME>1</OUTCOME>
	<OUTCOME>2</OUTCOME>
	<OUTCOME>0</OUTCOME>
</VARIABLE>

<VARIABLE TYPE="nature">
	<NAME>v58</NAME>
	<OUTCOME>999</OUTCOME>
	<OUTCOME>1</OUTCOME>
	<OUTCOME>2</OUTCOME>
	<OUTCOME>0</OUTCOME>
</VARIABLE>

<VARIABLE TYPE="nature">
	<NAME>v57</NAME>
	<OUTCOME>999</OUTCOME>
	<OUTCOME>1</OUTCOME>
	<OUTCOME>0</OUTCOME>
</VARIABLE>

<VARIABLE TYPE="nature">
	<NAME>v93</NAME>
	<OUTCOME>999</OUTCOME>
	<OUTCOME>-1</OUTCOME>
	<OUTCOME>0</OUTCOME>
</VARIABLE>

<VARIABLE TYPE="nature">
	<NAME>v94</NAME>
	<OUTCOME>999</OUTCOME>
	<OUTCOME>0</OUTCOME>
	<OUTCOME>1</OUTCOME>
</VARIABLE>

<VARIABLE TYPE="nature">
	<NAME>v95</NAME>
	<OUTCOME>999</OUTCOME>
	<OUTCOME>0</OUTCOME>
	<OUTCOME>1</OUTCOME>
</VARIABLE>

<VARIABLE TYPE="nature">
	<NAME>v96</NAME>
	<OUTCOME>999</OUTCOME>
	<OUTCOME>1</OUTCOME>
	<OUTCOME>0</OUTCOME>
</VARIABLE>

<VARIABLE TYPE="nature">
	<NAME>v97</NAME>
	<OUTCOME>999</OUTCOME>
	<OUTCOME>1</OUTCOME>
	<OUTCOME>0</OUTCOME>
</VARIABLE>

<VARIABLE TYPE="nature">
	<NAME>v99</NAME>
	<OUTCOME>999</OUTCOME>
	<OUTCOME>0</OUTCOME>
	<OUTCOME>-1</OUTCOME>
</VARIABLE>

<VARIABLE TYPE="nature">
	<NAME>v102</NAME>
	<OUTCOME>999</OUTCOME>
	<OUTCOME>-1</OUTCOME>
	<OUTCOME>0</OUTCOME>
	<OUTCOME>1</OUTCOME>
</VARIABLE>

<VARIABLE TYPE="nature">
	<NAME>v65</NAME>
	<OUTCOME>999</OUTCOME>
	<OUTCOME>0</OUTCOME>
</VARIABLE>

<VARIABLE TYPE="nature">
	<NAME>v64</NAME>
	<OUTCOME>999</OUTCOME>
	<OUTCOME>0</OUTCOME>
	<OUTCOME>1</OUTCOME>
</VARIABLE>

<VARIABLE TYPE="nature">
	<NAME>v101</NAME>
	<OUTCOME>999</OUTCOME>
	<OUTCOME>-1</OUTCOME>
	<OUTCOME>0</OUTCOME>
</VARIABLE>

<VARIABLE TYPE="nature">
	<NAME>v67</NAME>
	<OUTCOME>999</OUTCOME>
	<OUTCOME>0</OUTCOME>
	<OUTCOME>1</OUTCOME>
</VARIABLE>

<VARIABLE TYPE="nature">
	<NAME>v66</NAME>
	<OUTCOME>999</OUTCOME>
	<OUTCOME>1</OUTCOME>
	<OUTCOME>2</OUTCOME>
	<OUTCOME>0</OUTCOME>
</VARIABLE>

<VARIABLE TYPE="nature">
	<NAME>v103</NAME>
	<OUTCOME>999</OUTCOME>
	<OUTCOME>-1</OUTCOME>
	<OUTCOME>0</OUTCOME>
</VARIABLE>

<VARIABLE TYPE="nature">
	<NAME>v61</NAME>
	<OUTCOME>999</OUTCOME>
	<OUTCOME>0</OUTCOME>
	<OUTCOME>1</OUTCOME>
	<OUTCOME>2</OUTCOME>
</VARIABLE>

<VARIABLE TYPE="nature">
	<NAME>v24</NAME>
	<OUTCOME>999</OUTCOME>
	<OUTCOME>0</OUTCOME>
	<OUTCOME>1</OUTCOME>
</VARIABLE>

<VARIABLE TYPE="nature">
	<NAME>v60</NAME>
	<OUTCOME>999</OUTCOME>
	<OUTCOME>0</OUTCOME>
	<OUTCOME>1</OUTCOME>
</VARIABLE>

<VARIABLE TYPE="nature">
	<NAME>v25</NAME>
	<OUTCOME>999</OUTCOME>
	<OUTCOME>0</OUTCOME>
	<OUTCOME>6</OUTCOME>
	<OUTCOME>3</OUTCOME>
	<OUTCOME>2</OUTCOME>
	<OUTCOME>5</OUTCOME>
	<OUTCOME>7</OUTCOME>
	<OUTCOME>4</OUTCOME>
	<OUTCOME>1</OUTCOME>
</VARIABLE>

<VARIABLE TYPE="nature">
	<NAME>v100</NAME>
	<OUTCOME>999</OUTCOME>
	<OUTCOME>-1</OUTCOME>
	<OUTCOME>0</OUTCOME>
</VARIABLE>

<VARIABLE TYPE="nature">
	<NAME>v92</NAME>
	<OUTCOME>999</OUTCOME>
	<OUTCOME>0</OUTCOME>
	<OUTCOME>1</OUTCOME>
</VARIABLE>

<VARIABLE TYPE="nature">
	<NAME>v26</NAME>
	<OUTCOME>999</OUTCOME>
	<OUTCOME>0</OUTCOME>
	<OUTCOME>4</OUTCOME>
	<OUTCOME>3</OUTCOME>
	<OUTCOME>5</OUTCOME>
	<OUTCOME>1</OUTCOME>
	<OUTCOME>2</OUTCOME>
	<OUTCOME>6</OUTCOME>
</VARIABLE>

<VARIABLE TYPE="nature">
	<NAME>v63</NAME>
	<OUTCOME>999</OUTCOME>
	<OUTCOME>0</OUTCOME>
	<OUTCOME>1</OUTCOME>
</VARIABLE>

<VARIABLE TYPE="nature">
	<NAME>v62</NAME>
	<OUTCOME>999</OUTCOME>
	<OUTCOME>0</OUTCOME>
	<OUTCOME>2</OUTCOME>
	<OUTCOME>1</OUTCOME>
</VARIABLE>

<VARIABLE TYPE="nature">
	<NAME>v20</NAME>
	<OUTCOME>999</OUTCOME>
	<OUTCOME>1</OUTCOME>
	<OUTCOME>0</OUTCOME>
</VARIABLE>

<VARIABLE TYPE="nature">
	<NAME>v21</NAME>
	<OUTCOME>999</OUTCOME>
	<OUTCOME>1</OUTCOME>
	<OUTCOME>0</OUTCOME>
</VARIABLE>

<VARIABLE TYPE="nature">
	<NAME>v22</NAME>
	<OUTCOME>999</OUTCOME>
	<OUTCOME>1</OUTCOME>
	<OUTCOME>2</OUTCOME>
	<OUTCOME>0</OUTCOME>
</VARIABLE>

<VARIABLE TYPE="nature">
	<NAME>v23</NAME>
	<OUTCOME>999</OUTCOME>
	<OUTCOME>4</OUTCOME>
	<OUTCOME>6</OUTCOME>
	<OUTCOME>9</OUTCOME>
	<OUTCOME>0</OUTCOME>
	<OUTCOME>8</OUTCOME>
	<OUTCOME>1</OUTCOME>
	<OUTCOME>3</OUTCOME>
	<OUTCOME>5</OUTCOME>
	<OUTCOME>2</OUTCOME>
	<OUTCOME>7</OUTCOME>
</VARIABLE>

<VARIABLE TYPE="nature">
	<NAME>v69</NAME>
	<OUTCOME>999</OUTCOME>
	<OUTCOME>1</OUTCOME>
	<OUTCOME>0</OUTCOME>
</VARIABLE>

<VARIABLE TYPE="nature">
	<NAME>v68</NAME>
	<OUTCOME>999</OUTCOME>
	<OUTCOME>1</OUTCOME>
	<OUTCOME>0</OUTCOME>
</VARIABLE>

<VARIABLE TYPE="nature">
	<NAME>v70</NAME>
	<OUTCOME>999</OUTCOME>
	<OUTCOME>-1</OUTCOME>
	<OUTCOME>1</OUTCOME>
	<OUTCOME>0</OUTCOME>
</VARIABLE>

<VARIABLE TYPE="nature">
	<NAME>v37</NAME>
	<OUTCOME>999</OUTCOME>
	<OUTCOME>-1</OUTCOME>
	<OUTCOME>0</OUTCOME>
	<OUTCOME>1</OUTCOME>
</VARIABLE>

<VARIABLE TYPE="nature">
	<NAME>v38</NAME>
	<OUTCOME>999</OUTCOME>
	<OUTCOME>0</OUTCOME>
	<OUTCOME>1</OUTCOME>
</VARIABLE>

<VARIABLE TYPE="nature">
	<NAME>v73</NAME>
	<OUTCOME>999</OUTCOME>
	<OUTCOME>0</OUTCOME>
	<OUTCOME>1</OUTCOME>
</VARIABLE>

<VARIABLE TYPE="nature">
	<NAME>v72</NAME>
	<OUTCOME>999</OUTCOME>
	<OUTCOME>0</OUTCOME>
	<OUTCOME>1</OUTCOME>
</VARIABLE>

<VARIABLE TYPE="nature">
	<NAME>v36</NAME>
	<OUTCOME>999</OUTCOME>
	<OUTCOME>1</OUTCOME>
	<OUTCOME>2</OUTCOME>
	<OUTCOME>0</OUTCOME>
</VARIABLE>

<VARIABLE TYPE="nature">
	<NAME>v71</NAME>
	<OUTCOME>999</OUTCOME>
	<OUTCOME>0</OUTCOME>
	<OUTCOME>1</OUTCOME>
</VARIABLE>

<VARIABLE TYPE="nature">
	<NAME>v39</NAME>
	<OUTCOME>999</OUTCOME>
	<OUTCOME>0</OUTCOME>
	<OUTCOME>1</OUTCOME>
</VARIABLE>

<VARIABLE TYPE="nature">
	<NAME>v79</NAME>
	<OUTCOME>999</OUTCOME>
	<OUTCOME>0</OUTCOME>
	<OUTCOME>1</OUTCOME>
</VARIABLE>

<VARIABLE TYPE="nature">
	<NAME>v33</NAME>
	<OUTCOME>999</OUTCOME>
	<OUTCOME>0</OUTCOME>
	<OUTCOME>1</OUTCOME>
</VARIABLE>

<VARIABLE TYPE="nature">
	<NAME>v32</NAME>
	<OUTCOME>999</OUTCOME>
	<OUTCOME>-1</OUTCOME>
	<OUTCOME>0</OUTCOME>
</VARIABLE>

<VARIABLE TYPE="nature">
	<NAME>v80</NAME>
	<OUTCOME>999</OUTCOME>
	<OUTCOME>1</OUTCOME>
	<OUTCOME>0</OUTCOME>
</VARIABLE>

<VARIABLE TYPE="nature">
	<NAME>v190</NAME>
	<OUTCOME>999</OUTCOME>
	<OUTCOME>303</OUTCOME>
	<OUTCOME>42</OUTCOME>
	<OUTCOME>90</OUTCOME>
	<OUTCOME>290</OUTCOME>
	<OUTCOME>301</OUTCOME>
	<OUTCOME>91</OUTCOME>
	<OUTCOME>185</OUTCOME>
	<OUTCOME>41</OUTCOME>
	<OUTCOME>150</OUTCOME>
	<OUTCOME>74</OUTCOME>
	<OUTCOME>169</OUTCOME>
	<OUTCOME>243</OUTCOME>
	<OUTCOME>212</OUTCOME>
	<OUTCOME>121</OUTCOME>
	<OUTCOME>281</OUTCOME>
	<OUTCOME>204</OUTCOME>
	<OUTCOME>278</OUTCOME>
	<OUTCOME>163</OUTCOME>
	<OUTCOME>92</OUTCOME>
	<OUTCOME>173</OUTCOME>
	<OUTCOME>4</OUTCOME>
	<OUTCOME>224</OUTCOME>
	<OUTCOME>208</OUTCOME>
	<OUTCOME>108</OUTCOME>
	<OUTCOME>10</OUTCOME>
	<OUTCOME>155</OUTCOME>
	<OUTCOME>226</OUTCOME>
	<OUTCOME>178</OUTCOME>
	<OUTCOME>62</OUTCOME>
	<OUTCOME>315</OUTCOME>
	<OUTCOME>310</OUTCOME>
	<OUTCOME>61</OUTCOME>
	<OUTCOME>82</OUTCOME>
	<OUTCOME>157</OUTCOME>
	<OUTCOME>218</OUTCOME>
	<OUTCOME>292</OUTCOME>
	<OUTCOME>175</OUTCOME>
	<OUTCOME>269</OUTCOME>
	<OUTCOME>162</OUTCOME>
	<OUTCOME>51</OUTCOME>
	<OUTCOME>24</OUTCOME>
	<OUTCOME>296</OUTCOME>
	<OUTCOME>11</OUTCOME>
	<OUTCOME>36</OUTCOME>
	<OUTCOME>0</OUTCOME>
	<OUTCOME>182</OUTCOME>
	<OUTCOME>34</OUTCOME>
	<OUTCOME>85</OUTCOME>
	<OUTCOME>88</OUTCOME>
	<OUTCOME>236</OUTCOME>
	<OUTCOME>128</OUTCOME>
	<OUTCOME>154</OUTCOME>
	<OUTCOME>3</OUTCOME>
	<OUTCOME>222</OUTCOME>
	<OUTCOME>257</OUTCOME>
	<OUTCOME>214</OUTCOME>
	<OUTCOME>282</OUTCOME>
	<OUTCOME>5</OUTCOME>
	<OUTCOME>304</OUTCOME>
	<OUTCOME>151</OUTCOME>
	<OUTCOME>15</OUTCOME>
	<OUTCOME>263</OUTCOME>
	<OUTCOME>76</OUTCOME>
	<OUTCOME>60</OUTCOME>
	<OUTCOME>153</OUTCOME>
	<OUTCOME>206</OUTCOME>
	<OUTCOME>270</OUTCOME>
	<OUTCOME>68</OUTCOME>
	<OUTCOME>159</OUTCOME>
	<OUTCOME>44</OUTCOME>
	<OUTCOME>266</OUTCOME>
	<OUTCOME>12</OUTCOME>
	<OUTCOME>67</OUTCOME>
	<OUTCOME>196</OUTCOME>
	<OUTCOME>238</OUTCOME>
	<OUTCOME>228</OUTCOME>
	<OUTCOME>197</OUTCOME>
	<OUTCOME>99</OUTCOME>
	<OUTCOME>237</OUTCOME>
	<OUTCOME>284</OUTCOME>
	<OUTCOME>319</OUTCOME>
	<OUTCOME>93</OUTCOME>
	<OUTCOME>64</OUTCOME>
	<OUTCOME>220</OUTCOME>
	<OUTCOME>189</OUTCOME>
	<OUTCOME>13</OUTCOME>
	<OUTCOME>309</OUTCOME>
	<OUTCOME>8</OUTCOME>
	<OUTCOME>104</OUTCOME>
	<OUTCOME>167</OUTCOME>
	<OUTCOME>69</OUTCOME>
	<OUTCOME>181</OUTCOME>
	<OUTCOME>172</OUTCOME>
	<OUTCOME>83</OUTCOME>
	<OUTCOME>28</OUTCOME>
	<OUTCOME>246</OUTCOME>
	<OUTCOME>133</OUTCOME>
	<OUTCOME>55</OUTCOME>
	<OUTCOME>322</OUTCOME>
	<OUTCOME>156</OUTCOME>
	<OUTCOME>311</OUTCOME>
	<OUTCOME>297</OUTCOME>
	<OUTCOME>87</OUTCOME>
	<OUTCOME>18</OUTCOME>
	<OUTCOME>70</OUTCOME>
	<OUTCOME>221</OUTCOME>
	<OUTCOME>202</OUTCOME>
	<OUTCOME>231</OUTCOME>
	<OUTCOME>317</OUTCOME>
	<OUTCOME>320</OUTCOME>
	<OUTCOME>298</OUTCOME>
	<OUTCOME>288</OUTCOME>
	<OUTCOME>50</OUTCOME>
	<OUTCOME>84</OUTCOME>
	<OUTCOME>56</OUTCOME>
	<OUTCOME>149</OUTCOME>
	<OUTCOME>165</OUTCOME>
	<OUTCOME>78</OUTCOME>
	<OUTCOME>179</OUTCOME>
	<OUTCOME>72</OUTCOME>
	<OUTCOME>249</OUTCOME>
	<OUTCOME>255</OUTCOME>
	<OUTCOME>80</OUTCOME>
	<OUTCOME>86</OUTCOME>
	<OUTCOME>318</OUTCOME>
	<OUTCOME>57</OUTCOME>
	<OUTCOME>183</OUTCOME>
	<OUTCOME>170</OUTCOME>
	<OUTCOME>129</OUTCOME>
	<OUTCOME>289</OUTCOME>
	<OUTCOME>240</OUTCOME>
	<OUTCOME>302</OUTCOME>
	<OUTCOME>103</OUTCOME>
	<OUTCOME>79</OUTCOME>
	<OUTCOME>7</OUTCOME>
	<OUTCOME>31</OUTCOME>
	<OUTCOME>139</OUTCOME>
	<OUTCOME>280</OUTCOME>
	<OUTCOME>321</OUTCOME>
	<OUTCOME>109</OUTCOME>
	<OUTCOME>22</OUTCOME>
	<OUTCOME>210</OUTCOME>
	<OUTCOME>293</OUTCOME>
	<OUTCOME>38</OUTCOME>
	<OUTCOME>285</OUTCOME>
	<OUTCOME>30</OUTCOME>
	<OUTCOME>58</OUTCOME>
	<OUTCOME>132</OUTCOME>
	<OUTCOME>267</OUTCOME>
	<OUTCOME>145</OUTCOME>
	<OUTCOME>205</OUTCOME>
	<OUTCOME>230</OUTCOME>
	<OUTCOME>125</OUTCOME>
	<OUTCOME>168</OUTCOME>
	<OUTCOME>134</OUTCOME>
	<OUTCOME>2</OUTCOME>
	<OUTCOME>29</OUTCOME>
	<OUTCOME>59</OUTCOME>
	<OUTCOME>94</OUTCOME>
	<OUTCOME>81</OUTCOME>
	<OUTCOME>48</OUTCOME>
	<OUTCOME>89</OUTCOME>
	<OUTCOME>124</OUTCOME>
	<OUTCOME>312</OUTCOME>
	<OUTCOME>260</OUTCOME>
	<OUTCOME>201</OUTCOME>
	<OUTCOME>305</OUTCOME>
	<OUTCOME>9</OUTCOME>
	<OUTCOME>77</OUTCOME>
	<OUTCOME>192</OUTCOME>
	<OUTCOME>65</OUTCOME>
	<OUTCOME>35</OUTCOME>
	<OUTCOME>66</OUTCOME>
	<OUTCOME>116</OUTCOME>
	<OUTCOME>198</OUTCOME>
	<OUTCOME>251</OUTCOME>
	<OUTCOME>113</OUTCOME>
	<OUTCOME>45</OUTCOME>
	<OUTCOME>75</OUTCOME>
	<OUTCOME>291</OUTCOME>
	<OUTCOME>194</OUTCOME>
	<OUTCOME>40</OUTCOME>
	<OUTCOME>46</OUTCOME>
	<OUTCOME>232</OUTCOME>
	<OUTCOME>271</OUTCOME>
	<OUTCOME>294</OUTCOME>
	<OUTCOME>39</OUTCOME>
	<OUTCOME>137</OUTCOME>
	<OUTCOME>131</OUTCOME>
	<OUTCOME>143</OUTCOME>
	<OUTCOME>300</OUTCOME>
	<OUTCOME>63</OUTCOME>
	<OUTCOME>130</OUTCOME>
	<OUTCOME>1</OUTCOME>
	<OUTCOME>287</OUTCOME>
	<OUTCOME>27</OUTCOME>
	<OUTCOME>105</OUTCOME>
	<OUTCOME>306</OUTCOME>
	<OUTCOME>33</OUTCOME>
	<OUTCOME>141</OUTCOME>
	<OUTCOME>186</OUTCOME>
	<OUTCOME>43</OUTCOME>
	<OUTCOME>71</OUTCOME>
	<OUTCOME>147</OUTCOME>
	<OUTCOME>253</OUTCOME>
	<OUTCOME>200</OUTCOME>
	<OUTCOME>102</OUTCOME>
	<OUTCOME>247</OUTCOME>
	<OUTCOME>180</OUTCOME>
	<OUTCOME>239</OUTCOME>
	<OUTCOME>299</OUTCOME>
	<OUTCOME>174</OUTCOME>
	<OUTCOME>73</OUTCOME>
	<OUTCOME>53</OUTCOME>
	<OUTCOME>23</OUTCOME>
	<OUTCOME>177</OUTCOME>
	<OUTCOME>265</OUTCOME>
	<OUTCOME>32</OUTCOME>
	<OUTCOME>295</OUTCOME>
	<OUTCOME>127</OUTCOME>
	<OUTCOME>233</OUTCOME>
	<OUTCOME>211</OUTCOME>
	<OUTCOME>16</OUTCOME>
	<OUTCOME>207</OUTCOME>
	<OUTCOME>110</OUTCOME>
	<OUTCOME>213</OUTCOME>
	<OUTCOME>264</OUTCOME>
	<OUTCOME>112</OUTCOME>
	<OUTCOME>275</OUTCOME>
	<OUTCOME>120</OUTCOME>
	<OUTCOME>100</OUTCOME>
	<OUTCOME>135</OUTCOME>
	<OUTCOME>283</OUTCOME>
	<OUTCOME>6</OUTCOME>
	<OUTCOME>314</OUTCOME>
	<OUTCOME>235</OUTCOME>
	<OUTCOME>244</OUTCOME>
	<OUTCOME>21</OUTCOME>
	<OUTCOME>122</OUTCOME>
	<OUTCOME>146</OUTCOME>
	<OUTCOME>171</OUTCOME>
	<OUTCOME>117</OUTCOME>
	<OUTCOME>323</OUTCOME>
	<OUTCOME>245</OUTCOME>
	<OUTCOME>256</OUTCOME>
	<OUTCOME>160</OUTCOME>
	<OUTCOME>307</OUTCOME>
	<OUTCOME>316</OUTCOME>
	<OUTCOME>166</OUTCOME>
	<OUTCOME>308</OUTCOME>
	<OUTCOME>215</OUTCOME>
	<OUTCOME>158</OUTCOME>
	<OUTCOME>286</OUTCOME>
	<OUTCOME>195</OUTCOME>
	<OUTCOME>193</OUTCOME>
	<OUTCOME>19</OUTCOME>
	<OUTCOME>223</OUTCOME>
	<OUTCOME>52</OUTCOME>
	<OUTCOME>259</OUTCOME>
	<OUTCOME>313</OUTCOME>
	<OUTCOME>187</OUTCOME>
	<OUTCOME>191</OUTCOME>
	<OUTCOME>225</OUTCOME>
	<OUTCOME>111</OUTCOME>
	<OUTCOME>216</OUTCOME>
	<OUTCOME>161</OUTCOME>
	<OUTCOME>258</OUTCOME>
	<OUTCOME>142</OUTCOME>
	<OUTCOME>229</OUTCOME>
	<OUTCOME>14</OUTCOME>
	<OUTCOME>37</OUTCOME>
	<OUTCOME>279</OUTCOME>
	<OUTCOME>49</OUTCOME>
	<OUTCOME>25</OUTCOME>
	<OUTCOME>273</OUTCOME>
	<OUTCOME>190</OUTCOME>
	<OUTCOME>144</OUTCOME>
	<OUTCOME>20</OUTCOME>
	<OUTCOME>217</OUTCOME>
	<OUTCOME>242</OUTCOME>
	<OUTCOME>268</OUTCOME>
	<OUTCOME>119</OUTCOME>
	<OUTCOME>272</OUTCOME>
	<OUTCOME>199</OUTCOME>
	<OUTCOME>126</OUTCOME>
	<OUTCOME>250</OUTCOME>
	<OUTCOME>101</OUTCOME>
	<OUTCOME>136</OUTCOME>
	<OUTCOME>209</OUTCOME>
	<OUTCOME>164</OUTCOME>
	<OUTCOME>234</OUTCOME>
	<OUTCOME>98</OUTCOME>
	<OUTCOME>241</OUTCOME>
	<OUTCOME>277</OUTCOME>
	<OUTCOME>254</OUTCOME>
	<OUTCOME>152</OUTCOME>
	<OUTCOME>138</OUTCOME>
	<OUTCOME>274</OUTCOME>
	<OUTCOME>184</OUTCOME>
	<OUTCOME>248</OUTCOME>
	<OUTCOME>252</OUTCOME>
	<OUTCOME>118</OUTCOME>
	<OUTCOME>107</OUTCOME>
	<OUTCOME>140</OUTCOME>
	<OUTCOME>115</OUTCOME>
	<OUTCOME>203</OUTCOME>
	<OUTCOME>17</OUTCOME>
	<OUTCOME>47</OUTCOME>
	<OUTCOME>97</OUTCOME>
</VARIABLE>

<VARIABLE TYPE="nature">
	<NAME>v83</NAME>
	<OUTCOME>999</OUTCOME>
	<OUTCOME>0</OUTCOME>
	<OUTCOME>1</OUTCOME>
</VARIABLE>

<VARIABLE TYPE="nature">
	<NAME>v46</NAME>
	<OUTCOME>999</OUTCOME>
	<OUTCOME>0</OUTCOME>
	<OUTCOME>1</OUTCOME>
</VARIABLE>

<VARIABLE TYPE="nature">
	<NAME>v47</NAME>
	<OUTCOME>999</OUTCOME>
	<OUTCOME>0</OUTCOME>
	<OUTCOME>1</OUTCOME>
	<OUTCOME>2</OUTCOME>
</VARIABLE>

<VARIABLE TYPE="nature">
	<NAME>v82</NAME>
	<OUTCOME>999</OUTCOME>
	<OUTCOME>1</OUTCOME>
	<OUTCOME>0</OUTCOME>
</VARIABLE>

<VARIABLE TYPE="nature">
	<NAME>v48</NAME>
	<OUTCOME>999</OUTCOME>
	<OUTCOME>1</OUTCOME>
	<OUTCOME>0</OUTCOME>
	<OUTCOME>2</OUTCOME>
</VARIABLE>

<VARIABLE TYPE="nature">
	<NAME>v85</NAME>
	<OUTCOME>999</OUTCOME>
	<OUTCOME>1</OUTCOME>
	<OUTCOME>0</OUTCOME>
</VARIABLE>

<VARIABLE TYPE="nature">
	<NAME>v49</NAME>
	<OUTCOME>999</OUTCOME>
	<OUTCOME>1</OUTCOME>
	<OUTCOME>4</OUTCOME>
	<OUTCOME>2</OUTCOME>
	<OUTCOME>3</OUTCOME>
	<OUTCOME>0</OUTCOME>
</VARIABLE>

<VARIABLE TYPE="nature">
	<NAME>v84</NAME>
	<OUTCOME>999</OUTCOME>
	<OUTCOME>2</OUTCOME>
	<OUTCOME>1</OUTCOME>
	<OUTCOME>0</OUTCOME>
</VARIABLE>

<VARIABLE TYPE="nature">
	<NAME>v87</NAME>
	<OUTCOME>999</OUTCOME>
	<OUTCOME>0</OUTCOME>
	<OUTCOME>1</OUTCOME>
</VARIABLE>

<VARIABLE TYPE="nature">
	<NAME>v7</NAME>
	<OUTCOME>999</OUTCOME>
	<OUTCOME>0</OUTCOME>
	<OUTCOME>1</OUTCOME>
</VARIABLE>

<VARIABLE TYPE="nature">
	<NAME>v6</NAME>
	<OUTCOME>999</OUTCOME>
	<OUTCOME>0</OUTCOME>
	<OUTCOME>1</OUTCOME>
</VARIABLE>

<VARIABLE TYPE="nature">
	<NAME>v86</NAME>
	<OUTCOME>999</OUTCOME>
	<OUTCOME>1</OUTCOME>
	<OUTCOME>0</OUTCOME>
</VARIABLE>

<VARIABLE TYPE="nature">
	<NAME>v89</NAME>
	<OUTCOME>999</OUTCOME>
	<OUTCOME>0</OUTCOME>
	<OUTCOME>1</OUTCOME>
</VARIABLE>

<VARIABLE TYPE="nature">
	<NAME>v9</NAME>
	<OUTCOME>999</OUTCOME>
	<OUTCOME>0</OUTCOME>
	<OUTCOME>1</OUTCOME>
	<OUTCOME>3</OUTCOME>
	<OUTCOME>2</OUTCOME>
</VARIABLE>

<VARIABLE TYPE="nature">
	<NAME>v8</NAME>
	<OUTCOME>999</OUTCOME>
	<OUTCOME>1</OUTCOME>
	<OUTCOME>0</OUTCOME>
</VARIABLE>

<VARIABLE TYPE="nature">
	<NAME>v88</NAME>
	<OUTCOME>999</OUTCOME>
	<OUTCOME>0</OUTCOME>
	<OUTCOME>3</OUTCOME>
	<OUTCOME>2</OUTCOME>
	<OUTCOME>4</OUTCOME>
	<OUTCOME>1</OUTCOME>
	<OUTCOME>5</OUTCOME>
</VARIABLE>

<VARIABLE TYPE="nature">
	<NAME>v40</NAME>
	<OUTCOME>999</OUTCOME>
	<OUTCOME>0</OUTCOME>
	<OUTCOME>1</OUTCOME>
</VARIABLE>

<VARIABLE TYPE="nature">
	<NAME>v41</NAME>
	<OUTCOME>999</OUTCOME>
	<OUTCOME>1</OUTCOME>
	<OUTCOME>0</OUTCOME>
</VARIABLE>

<VARIABLE TYPE="nature">
	<NAME>v42</NAME>
	<OUTCOME>999</OUTCOME>
	<OUTCOME>1</OUTCOME>
	<OUTCOME>2</OUTCOME>
	<OUTCOME>3</OUTCOME>
	<OUTCOME>0</OUTCOME>
</VARIABLE>

<VARIABLE TYPE="nature">
	<NAME>v44</NAME>
	<OUTCOME>999</OUTCOME>
	<OUTCOME>1</OUTCOME>
	<OUTCOME>0</OUTCOME>
</VARIABLE>

<VARIABLE TYPE="nature">
	<NAME>v45</NAME>
	<OUTCOME>999</OUTCOME>
	<OUTCOME>2</OUTCOME>
	<OUTCOME>1</OUTCOME>
	<OUTCOME>0</OUTCOME>
</VARIABLE>

<DEFINITION>
	<FOR>v1</FOR>
	<GIVEN>v79</GIVEN>
	<GIVEN>v26</GIVEN>
	<TABLE>0.2 0.2 0.2 0.2 0.2 0.2 0.2 0.2 0.2 0.2 0.2 0.2 0.2 0.2 0.2 0.2 0.2 0.2 0.2 0.2 0.2 0.2 0.2 0.2 0.2 0.2 0.2 0.2 0.2 0.2 0.2 0.2 0.2 0.2 0.2 0.2 0.2 0.2 0.2 0.2 0.2 0.2 0.2 0.2 0.2 4.83080118837709e-06 0.390140334774522 4.83080118837709e-06 0.609845172821913 4.83080118837709e-06 3.14697968624613e-06 3.14697968624613e-06 0.999987412081255 3.14697968624613e-06 3.14697968624613e-06 5.44647476920563e-06 5.44647476920563e-06 0.999978214100923 5.44647476920563e-06 5.44647476920563e-06 2.75900124155056e-05 2.75900124155056e-05 2.75900124155056e-05 2.75900124155056e-05 0.999889639950338 3.16806589577063e-05 3.16806589577063e-05 0.999873277364169 3.16806589577063e-05 3.16806589577063e-05 4.98877525567473e-05 4.98877525567473e-05 0.999800448989773 4.98877525567473e-05 4.98877525567473e-05 8.95656068069861e-05 8.95656068069861e-05 8.95656068069861e-05 0.999641737572772 8.95656068069861e-05 0.2 0.2 0.2 0.2 0.2 1.06969032465101e-05 1.06969032465101e-05 1.06969032465101e-05 0.999957212387014 1.06969032465101e-05 1.2182493756472e-05 1.2182493756472e-05 0.999951270024974 1.2182493756472e-05 1.2182493756472e-05 1.74687745654642e-05 1.74687745654642e-05 0.999930124901738 1.74687745654642e-05 1.74687745654642e-05 4.73372781065089e-05 4.73372781065089e-05 4.73372781065089e-05 4.73372781065089e-05 0.999810650887574 9.68523002421307e-05 9.68523002421307e-05 0.999612590799032 9.68523002421307e-05 9.68523002421307e-05 0.000189214758751183 0.000189214758751183 0.999243140964995 0.000189214758751183 0.000189214758751183 0.000332778702163062 0.000332778702163062 0.000332778702163062 0.998668885191348 0.000332778702163062 </TABLE>
</DEFINITION>

<DEFINITION>
	<FOR>v5</FOR>
	<TABLE>1.85185185185185e-05 0.353685185185185 0.28012962962963 0.249351851851852 0.0811296296296296 0.0356851851851852 </TABLE>
</DEFINITION>

<DEFINITION>
	<FOR>v4</FOR>
	<GIVEN>v89</GIVEN>
	<GIVEN>v26</GIVEN>
	<TABLE>0.166666666666667 0.166666666666667 0.166666666666667 0.166666666666667 0.166666666666667 0.166666666666667 0.166666666666667 0.166666666666667 0.166666666666667 0.166666666666667 0.166666666666667 0.166666666666667 0.166666666666667 0.166666666666667 0.166666666666667 0.166666666666667 0.166666666666667 0.166666666666667 0.166666666666667 0.166666666666667 0.166666666666667 0.166666666666667 0.166666666666667 0.166666666666667 0.166666666666667 0.166666666666667 0.166666666666667 0.166666666666667 0.166666666666667 0.166666666666667 0.166666666666667 0.166666666666667 0.166666666666667 0.166666666666667 0.166666666666667 0.166666666666667 0.166666666666667 0.166666666666667 0.166666666666667 0.166666666666667 0.166666666666667 0.166666666666667 0.166666666666667 0.166666666666667 0.166666666666667 0.166666666666667 0.166666666666667 0.166666666666667 0.166666666666667 0.166666666666667 0.166666666666667 0.166666666666667 0.166666666666667 0.166666666666667 1.03180007841681e-05 0.999948409996079 1.03180007841681e-05 1.03180007841681e-05 1.03180007841681e-05 1.03180007841681e-05 6.7288411589756e-06 0.999966355794205 6.7288411589756e-06 6.7288411589756e-06 6.7288411589756e-06 6.7288411589756e-06 1.76684688504894e-05 0.21373546768437 1.76684688504894e-05 0.786193858440228 1.76684688504894e-05 1.76684688504894e-05 0.166666666666667 0.166666666666667 0.166666666666667 0.166666666666667 0.166666666666667 0.166666666666667 0.000138773244518457 0.999306133777408 0.000138773244518457 0.000138773244518457 0.000138773244518457 0.000138773244518457 0.000364697301239971 0.9981765134938 0.000364697301239971 0.000364697301239971 0.000364697301239971 0.000364697301239971 0.166666666666667 0.166666666666667 0.166666666666667 0.166666666666667 0.166666666666667 0.166666666666667 0.166666666666667 0.166666666666667 0.166666666666667 0.166666666666667 0.166666666666667 0.166666666666667 3.7926195623317e-06 0.677760078886487 0.170944741532977 3.7926195623317e-06 0.0202108696476656 0.131076724693746 3.01926897459587e-06 0.999984903655127 3.01926897459587e-06 3.01926897459587e-06 3.01926897459587e-06 3.01926897459587e-06 4.30251869444373e-06 0.999978487406528 4.30251869444373e-06 4.30251869444373e-06 4.30251869444373e-06 4.30251869444373e-06 1.45268601644441e-05 0.832577936604782 0.16736395595456 1.45268601644441e-05 1.45268601644441e-05 1.45268601644441e-05 2.32223305930983e-05 0.999883888347034 2.32223305930983e-05 2.32223305930983e-05 2.32223305930983e-05 2.32223305930983e-05 3.61611340131626e-05 0.999819194329934 3.61611340131626e-05 3.61611340131626e-05 3.61611340131626e-05 3.61611340131626e-05 5.88304506412519e-05 5.88304506412519e-05 5.88304506412519e-05 5.88304506412519e-05 0.161018943405106 0.838745734792329 </TABLE>
</DEFINITION>

<DEFINITION>
	<FOR>v3</FOR>
	<GIVEN>v190</GIVEN>
	<TABLE>0.25 0.25 0.25 0.25 1.91997542431457e-05 0.999942400737271 1.91997542431457e-05 1.91997542431457e-05 7.6078025623079e-06 7.6078025623079e-06 0.999977176592313 7.6078025623079e-06 2.12206094559036e-05 2.12206094559036e-05 0.999936338171632 2.12206094559036e-05 2.8099043508559e-06 2.8099043508559e-06 2.8099043508559e-06 0.999991570286947 3.66515173728192e-05 0.999890045447882 3.66515173728192e-05 3.66515173728192e-05 1.49333970491607e-05 1.49333970491607e-05 0.999955199808853 1.49333970491607e-05 1.16871581506241e-05 0.999964938525548 1.16871581506241e-05 1.16871581506241e-05 5.37518813158461e-05 5.37518813158461e-05 0.999838744356052 5.37518813158461e-05 2.23994265746797e-05 0.999932801720276 2.23994265746797e-05 2.23994265746797e-05 1.64571127641367e-05 1.64571127641367e-05 0.999950628661708 1.64571127641367e-05 1.07522257107221e-05 0.999967743322868 1.07522257107221e-05 1.07522257107221e-05 1.6799946240172e-05 0.99994960016128 1.6799946240172e-05 1.6799946240172e-05 2.99792543559857e-06 2.99792543559857e-06 0.999991006223693 2.99792543559857e-06 2.30393512118699e-05 2.30393512118699e-05 0.999930881946364 2.30393512118699e-05 1.845413409512e-06 1.845413409512e-06 1.845413409512e-06 0.999994463759772 9.60024576629162e-06 9.60024576629162e-06 0.999971199262701 9.60024576629162e-06 8.95736295234683e-05 8.95736295234683e-05 0.99973127911143 8.95736295234683e-05 4.50523508316664e-06 0.999986484294751 4.50523508316664e-06 4.50523508316664e-06 7.0124260189055e-06 7.0124260189055e-06 0.999978962721943 7.0124260189055e-06 3.6163226338401e-06 0.999989151032099 3.6163226338401e-06 3.6163226338401e-06 2.06765362666446e-05 0.9999379703912 2.06765362666446e-05 2.06765362666446e-05 7.26511871203975e-06 7.26511871203975e-06 0.999978204643864 7.26511871203975e-06 7.3984196975526e-06 7.3984196975526e-06 0.999977804740907 7.3984196975526e-06 3.66515173728192e-05 0.999890045447882 3.66515173728192e-05 3.66515173728192e-05 2.68788302333082e-05 2.68788302333082e-05 0.9999193635093 2.68788302333082e-05 5.75904169546188e-05 0.999827228749136 5.75904169546188e-05 5.75904169546188e-05 2.0159664543182e-05 2.0159664543182e-05 0.999939521006371 2.0159664543182e-05 8.06191551112544e-05 0.999758142534666 8.06191551112544e-05 8.06191551112544e-05 1.55077228459773e-05 0.999953476831462 1.55077228459773e-05 1.55077228459773e-05 1.87532818243193e-05 1.87532818243193e-05 0.999943740154527 1.87532818243193e-05 3.10135218955465e-05 3.10135218955465e-05 0.999906959434313 3.10135218955465e-05 1.49333970491607e-05 0.999955199808853 1.49333970491607e-05 1.49333970491607e-05 3.83965596682537e-05 3.83965596682537e-05 0.999884810320995 3.83965596682537e-05 5.00891587024904e-06 0.999984973252389 5.00891587024904e-06 5.00891587024904e-06 6.95197575150858e-06 6.95197575150858e-06 0.999979144072745 6.95197575150858e-06 1.55077228459773e-05 0.999953476831462 1.55077228459773e-05 1.55077228459773e-05 4.26686692495434e-06 0.999987199399225 4.26686692495434e-06 4.26686692495434e-06 7.13653621078473e-06 7.13653621078473e-06 0.999978590391368 7.13653621078473e-06 2.68788302333082e-05 0.9999193635093 2.68788302333082e-05 2.68788302333082e-05 0.000201450443190975 0.000201450443190975 0.999395648670427 0.000201450443190975 0.000134336378291241 0.999596990865126 0.000134336378291241 0.000134336378291241 4.74293302978562e-05 0.999857712009106 4.74293302978562e-05 4.74293302978562e-05 1.16871581506241e-05 1.16871581506241e-05 0.999964938525548 1.16871581506241e-05 1.71573673735502e-05 0.999948527897879 1.71573673735502e-05 1.71573673735502e-05 0.000115154306771073 0.999654537079687 0.000115154306771073 0.000115154306771073 6.20193500372116e-05 0.999813941949888 6.20193500372116e-05 6.20193500372116e-05 7.0124260189055e-06 0.999978962721943 7.0124260189055e-06 7.0124260189055e-06 9.16388695429053e-06 9.16388695429053e-06 0.999972508339137 9.16388695429053e-06 8.06191551112544e-05 8.06191551112544e-05 0.999758142534666 8.06191551112544e-05 7.32922896511287e-05 7.32922896511287e-05 0.999780123131047 7.32922896511287e-05 7.32922896511287e-05 7.32922896511287e-05 0.999780123131047 7.32922896511287e-05 6.71862402579952e-05 0.999798441279226 6.71862402579952e-05 6.71862402579952e-05 1.44000921605898e-05 0.999956799723518 1.44000921605898e-05 1.44000921605898e-05 6.55634523091448e-06 6.55634523091448e-06 0.999980330964307 6.55634523091448e-06 0.000134336378291241 0.999596990865126 0.000134336378291241 0.000134336378291241 4.68858423510437e-06 4.68858423510437e-06 0.999985934247295 4.68858423510437e-06 4.24376167034459e-05 0.99987268714989 4.24376167034459e-05 4.24376167034459e-05 1.49333970491607e-05 0.999955199808853 1.49333970491607e-05 1.49333970491607e-05 8.95736295234683e-05 0.99973127911143 8.95736295234683e-05 8.95736295234683e-05 4.43097428262526e-06 0.999986707077152 4.43097428262526e-06 4.43097428262526e-06 3.35976347265153e-05 3.35976347265153e-05 0.99989920709582 3.35976347265153e-05 1.7919862375457e-05 1.7919862375457e-05 0.999946240412874 1.7919862375457e-05 4.24376167034459e-05 4.24376167034459e-05 0.99987268714989 4.24376167034459e-05 3.66515173728192e-05 0.999890045447882 3.66515173728192e-05 3.66515173728192e-05 8.40025536776318e-06 0.999974799233897 8.40025536776318e-06 8.40025536776318e-06 1.46618966629523e-05 1.46618966629523e-05 0.999956014310011 1.46618966629523e-05 0.000115154306771073 0.000115154306771073 0.999654537079687 0.000115154306771073 0.000134336378291241 0.999596990865126 0.000134336378291241 0.000134336378291241 6.95197575150858e-06 0.999979144072745 6.95197575150858e-06 6.95197575150858e-06 6.40024576943755e-06 6.40024576943755e-06 0.999980799262692 6.40024576943755e-06 7.46692153758848e-06 7.46692153758848e-06 0.999977599235387 7.46692153758848e-06 5.37518813158461e-05 5.37518813158461e-05 0.999838744356052 5.37518813158461e-05 0.000201450443190975 0.999395648670427 0.000201450443190975 0.000201450443190975 2.78055833611389e-05 0.999916583249917 2.78055833611389e-05 2.78055833611389e-05 0.000268528464017186 0.999194414607948 0.000268528464017186 0.000268528464017186 4.03160780519271e-05 4.03160780519271e-05 0.999879051765844 4.03160780519271e-05 0.000134336378291241 0.999596990865126 0.000134336378291241 0.000134336378291241 3.66515173728192e-05 3.66515173728192e-05 0.999890045447882 3.66515173728192e-05 1.24063321919508e-05 0.999962781003424 1.24063321919508e-05 1.24063321919508e-05 4.47948396344741e-05 0.999865615481097 4.47948396344741e-05 4.47948396344741e-05 2.30393512118699e-05 2.30393512118699e-05 0.999930881946364 2.30393512118699e-05 1.7919862375457e-05 1.7919862375457e-05 0.999946240412874 1.7919862375457e-05 3.66515173728192e-05 0.999890045447882 3.66515173728192e-05 3.66515173728192e-05 4.24376167034459e-05 4.24376167034459e-05 0.99987268714989 4.24376167034459e-05 3.83965596682537e-05 0.999884810320995 3.83965596682537e-05 3.83965596682537e-05 2.44355390479914e-05 2.44355390479914e-05 0.999926693382856 2.44355390479914e-05 0.000201450443190975 0.999395648670427 0.000201450443190975 0.000201450443190975 1.49333970491607e-05 1.49333970491607e-05 0.999955199808853 1.49333970491607e-05 7.32922896511287e-05 0.999780123131047 7.32922896511287e-05 7.32922896511287e-05 6.89255879352651e-06 0.999979322323619 6.89255879352651e-06 6.89255879352651e-06 2.06765362666446e-05 2.06765362666446e-05 0.9999379703912 2.06765362666446e-05 5.37518813158461e-05 0.999838744356052 5.37518813158461e-05 5.37518813158461e-05 2.23994265746797e-05 0.999932801720276 2.23994265746797e-05 2.23994265746797e-05 1.6799946240172e-05 1.6799946240172e-05 0.99994960016128 1.6799946240172e-05 8.95736295234683e-05 8.95736295234683e-05 0.99973127911143 8.95736295234683e-05 5.8016755238913e-06 0.999982594973428 5.8016755238913e-06 5.8016755238913e-06 0.000268528464017186 0.000268528464017186 0.999194414607948 0.000268528464017186 1.20360117471475e-05 0.999963891964759 1.20360117471475e-05 1.20360117471475e-05 2.51990726741256e-05 2.51990726741256e-05 0.999924402781978 2.51990726741256e-05 0.000100765820233777 0.999697702539299 0.000100765820233777 0.000100765820233777 3.35976347265153e-05 3.35976347265153e-05 0.99989920709582 3.35976347265153e-05 1.49333970491607e-05 0.999955199808853 1.49333970491607e-05 1.49333970491607e-05 1.44000921605898e-05 1.44000921605898e-05 0.999956799723518 1.44000921605898e-05 0.000201450443190975 0.000201450443190975 0.999395648670427 0.000201450443190975 2.37169149037093e-05 2.37169149037093e-05 0.999928849255289 2.37169149037093e-05 5.37518813158461e-05 5.37518813158461e-05 0.999838744356052 5.37518813158461e-05 6.72024945565979e-06 6.72024945565979e-06 0.999979839251633 6.72024945565979e-06 0.000100765820233777 0.000100765820233777 0.999697702539299 0.000100765820233777 2.68788302333082e-05 2.68788302333082e-05 0.9999193635093 2.68788302333082e-05 5.03930659141302e-05 5.03930659141302e-05 0.999848820802258 5.03930659141302e-05 4.24376167034459e-05 0.99987268714989 4.24376167034459e-05 4.24376167034459e-05 5.37518813158461e-05 5.37518813158461e-05 0.999838744356052 5.37518813158461e-05 8.06191551112544e-05 0.999758142534666 8.06191551112544e-05 8.06191551112544e-05 1.44000921605898e-05 1.44000921605898e-05 0.999956799723518 1.44000921605898e-05 1.55077228459773e-05 0.999953476831462 1.55077228459773e-05 1.55077228459773e-05 0.000115154306771073 0.000115154306771073 0.999654537079687 0.000115154306771073 4.47948396344741e-05 0.999865615481097 4.47948396344741e-05 4.47948396344741e-05 2.23994265746797e-05 2.23994265746797e-05 0.999932801720276 2.23994265746797e-05 1.71573673735502e-05 0.999948527897879 1.71573673735502e-05 1.71573673735502e-05 5.03930659141302e-05 5.03930659141302e-05 0.999848820802258 5.03930659141302e-05 1.22183666487464e-05 0.999963344900054 1.22183666487464e-05 1.22183666487464e-05 0.000201450443190975 0.999395648670427 0.000201450443190975 0.000201450443190975 5.03930659141302e-05 5.03930659141302e-05 0.999848820802258 5.03930659141302e-05 1.91997542431457e-05 1.91997542431457e-05 0.999942400737271 1.91997542431457e-05 4.47948396344741e-05 4.47948396344741e-05 0.999865615481097 4.47948396344741e-05 1.96680040909449e-05 0.999940995987727 1.96680040909449e-05 1.96680040909449e-05 9.26921508286678e-06 0.999972192354751 9.26921508286678e-06 9.26921508286678e-06 5.37518813158461e-05 0.999838744356052 5.37518813158461e-05 5.37518813158461e-05 0.000115154306771073 0.000115154306771073 0.999654537079687 0.000115154306771073 4.47948396344741e-05 4.47948396344741e-05 0.999865615481097 4.47948396344741e-05 1.02078314482871e-05 0.999969376505655 1.02078314482871e-05 1.02078314482871e-05 3.50581966063666e-05 0.999894825410181 3.50581966063666e-05 3.50581966063666e-05 4.47948396344741e-05 0.999865615481097 4.47948396344741e-05 4.47948396344741e-05 4.74293302978562e-05 4.74293302978562e-05 0.999857712009106 4.74293302978562e-05 5.75904169546188e-05 0.999827228749136 5.75904169546188e-05 5.75904169546188e-05 8.06191551112544e-05 8.06191551112544e-05 0.999758142534666 8.06191551112544e-05 1.91997542431457e-05 0.999942400737271 1.91997542431457e-05 1.91997542431457e-05 0.000161186331399097 0.000161186331399097 0.999516441005803 0.000161186331399097 3.83965596682537e-05 3.83965596682537e-05 0.999884810320995 3.83965596682537e-05 6.71862402579952e-05 0.999798441279226 6.71862402579952e-05 6.71862402579952e-05 0.000134336378291241 0.999596990865126 0.000134336378291241 0.000134336378291241 7.32922896511287e-05 7.32922896511287e-05 0.999780123131047 7.32922896511287e-05 4.74293302978562e-05 0.999857712009106 4.74293302978562e-05 4.74293302978562e-05 1.24063321919508e-05 0.999962781003424 1.24063321919508e-05 1.24063321919508e-05 8.95736295234683e-05 0.99973127911143 8.95736295234683e-05 8.95736295234683e-05 5.03930659141302e-05 5.03930659141302e-05 0.999848820802258 5.03930659141302e-05 2.98650101541035e-05 0.999910404969538 2.98650101541035e-05 2.98650101541035e-05 3.22539027222294e-05 3.22539027222294e-05 0.999903238291833 3.22539027222294e-05 6.71862402579952e-05 6.71862402579952e-05 0.999798441279226 6.71862402579952e-05 4.24376167034459e-05 4.24376167034459e-05 0.99987268714989 4.24376167034459e-05 0.000115154306771073 0.000115154306771073 0.999654537079687 0.000115154306771073 8.06191551112544e-05 8.06191551112544e-05 0.999758142534666 8.06191551112544e-05 2.98650101541035e-05 2.98650101541035e-05 0.999910404969538 2.98650101541035e-05 8.06191551112544e-05 0.999758142534666 8.06191551112544e-05 8.06191551112544e-05 0.000402576489533011 0.998792270531401 0.000402576489533011 0.000402576489533011 1.12002150441288e-05 0.999966399354868 1.12002150441288e-05 1.12002150441288e-05 6.71862402579952e-05 6.71862402579952e-05 0.999798441279226 6.71862402579952e-05 4.03160780519271e-05 0.999879051765844 4.03160780519271e-05 4.03160780519271e-05 2.60118614088024e-05 2.60118614088024e-05 0.999921964415774 2.60118614088024e-05 2.30393512118699e-05 2.30393512118699e-05 0.999930881946364 2.30393512118699e-05 5.75904169546188e-05 5.75904169546188e-05 0.999827228749136 5.75904169546188e-05 3.83965596682537e-05 3.83965596682537e-05 0.999884810320995 3.83965596682537e-05 3.35976347265153e-05 3.35976347265153e-05 0.99989920709582 3.35976347265153e-05 3.66515173728192e-05 3.66515173728192e-05 0.999890045447882 3.66515173728192e-05 0.000134336378291241 0.999596990865126 0.000134336378291241 0.000134336378291241 4.03160780519271e-05 4.03160780519271e-05 0.999879051765844 4.03160780519271e-05 0.000100765820233777 0.999697702539299 0.000100765820233777 0.000100765820233777 2.44355390479914e-05 2.44355390479914e-05 0.999926693382856 2.44355390479914e-05 3.22539027222294e-05 3.22539027222294e-05 0.999903238291833 3.22539027222294e-05 4.24376167034459e-05 0.99987268714989 4.24376167034459e-05 4.24376167034459e-05 4.47948396344741e-05 0.999865615481097 4.47948396344741e-05 4.47948396344741e-05 4.47948396344741e-05 0.999865615481097 4.47948396344741e-05 4.47948396344741e-05 3.66515173728192e-05 0.999890045447882 3.66515173728192e-05 3.66515173728192e-05 5.37518813158461e-05 5.37518813158461e-05 0.999838744356052 5.37518813158461e-05 5.75904169546188e-05 0.999827228749136 5.75904169546188e-05 5.75904169546188e-05 8.06191551112544e-05 0.999758142534666 8.06191551112544e-05 8.06191551112544e-05 0.000115154306771073 0.999654537079687 0.000115154306771073 0.000115154306771073 0.000803858520900322 0.000803858520900322 0.997588424437299 0.000803858520900322 5.37518813158461e-05 5.37518813158461e-05 0.999838744356052 5.37518813158461e-05 3.35976347265153e-05 0.99989920709582 3.35976347265153e-05 3.35976347265153e-05 8.06191551112544e-05 0.999758142534666 8.06191551112544e-05 8.06191551112544e-05 7.32922896511287e-05 0.999780123131047 7.32922896511287e-05 7.32922896511287e-05 1.75303274665171e-05 1.75303274665171e-05 0.9999474090176 1.75303274665171e-05 3.10135218955465e-05 3.10135218955465e-05 0.999906959434313 3.10135218955465e-05 5.37518813158461e-05 5.37518813158461e-05 0.999838744356052 5.37518813158461e-05 6.20193500372116e-05 0.999813941949888 6.20193500372116e-05 6.20193500372116e-05 8.95736295234683e-05 0.99973127911143 8.95736295234683e-05 8.95736295234683e-05 1.96680040909449e-05 0.999940995987727 1.96680040909449e-05 1.96680040909449e-05 3.83965596682537e-05 3.83965596682537e-05 0.999884810320995 3.83965596682537e-05 3.66515173728192e-05 3.66515173728192e-05 0.999890045447882 3.66515173728192e-05 0.000268528464017186 0.999194414607948 0.000268528464017186 0.000268528464017186 0.000115154306771073 0.999654537079687 0.000115154306771073 0.000115154306771073 6.20193500372116e-05 6.20193500372116e-05 0.999813941949888 6.20193500372116e-05 0.000100765820233777 0.999697702539299 0.000100765820233777 0.000100765820233777 6.20193500372116e-05 6.20193500372116e-05 0.999813941949888 6.20193500372116e-05 2.87985255154936e-05 2.87985255154936e-05 0.999913604423453 2.87985255154936e-05 0.000268528464017186 0.999194414607948 0.000268528464017186 0.000268528464017186 8.06191551112544e-05 0.999758142534666 8.06191551112544e-05 8.06191551112544e-05 8.06191551112544e-05 0.999758142534666 8.06191551112544e-05 8.06191551112544e-05 7.32922896511287e-05 0.999780123131047 7.32922896511287e-05 7.32922896511287e-05 0.000268528464017186 0.999194414607948 0.000268528464017186 0.000268528464017186 7.32922896511287e-05 7.32922896511287e-05 0.999780123131047 7.32922896511287e-05 0.000402576489533011 0.000402576489533011 0.998792270531401 0.000402576489533011 6.71862402579952e-05 6.71862402579952e-05 0.999798441279226 6.71862402579952e-05 0.000100765820233777 0.999697702539299 0.000100765820233777 0.000100765820233777 0.000161186331399097 0.999516441005803 0.000161186331399097 0.000161186331399097 4.74293302978562e-05 0.999857712009106 4.74293302978562e-05 4.74293302978562e-05 8.06191551112544e-05 0.999758142534666 8.06191551112544e-05 8.06191551112544e-05 0.000268528464017186 0.999194414607948 0.000268528464017186 0.000268528464017186 0.000115154306771073 0.999654537079687 0.000115154306771073 0.000115154306771073 8.95736295234683e-05 0.99973127911143 8.95736295234683e-05 8.95736295234683e-05 5.03930659141302e-05 0.999848820802258 5.03930659141302e-05 5.03930659141302e-05 1.87532818243193e-05 1.87532818243193e-05 0.999943740154527 1.87532818243193e-05 8.06191551112544e-05 8.06191551112544e-05 0.999758142534666 8.06191551112544e-05 0.000268528464017186 0.999194414607948 0.000268528464017186 0.000268528464017186 4.24376167034459e-05 0.99987268714989 4.24376167034459e-05 4.24376167034459e-05 0.000134336378291241 0.000134336378291241 0.999596990865126 0.000134336378291241 0.000201450443190975 0.000201450443190975 0.999395648670427 0.000201450443190975 6.71862402579952e-05 0.999798441279226 6.71862402579952e-05 6.71862402579952e-05 0.000201450443190975 0.000201450443190975 0.999395648670427 0.000201450443190975 0.000115154306771073 0.000115154306771073 0.999654537079687 0.000115154306771073 2.98650101541035e-05 2.98650101541035e-05 0.999910404969538 2.98650101541035e-05 0.000115154306771073 0.000115154306771073 0.999654537079687 0.000115154306771073 0.000134336378291241 0.000134336378291241 0.999596990865126 0.000134336378291241 0.000268528464017186 0.999194414607948 0.000268528464017186 0.000268528464017186 4.74293302978562e-05 4.74293302978562e-05 0.999857712009106 4.74293302978562e-05 0.000201450443190975 0.000201450443190975 0.999395648670427 0.000201450443190975 0.000268528464017186 0.999194414607948 0.000268528464017186 0.000268528464017186 4.74293302978562e-05 4.74293302978562e-05 0.999857712009106 4.74293302978562e-05 3.35976347265153e-05 3.35976347265153e-05 0.99989920709582 3.35976347265153e-05 0.000402576489533011 0.000402576489533011 0.998792270531401 0.000402576489533011 3.50581966063666e-05 0.999894825410181 3.50581966063666e-05 3.50581966063666e-05 0.000100765820233777 0.999697702539299 0.000100765820233777 0.000100765820233777 0.000201450443190975 0.999395648670427 0.000201450443190975 0.000201450443190975 0.000134336378291241 0.000134336378291241 0.999596990865126 0.000134336378291241 6.71862402579952e-05 6.71862402579952e-05 0.999798441279226 6.71862402579952e-05 0.000115154306771073 0.999654537079687 0.000115154306771073 0.000115154306771073 6.71862402579952e-05 0.999798441279226 6.71862402579952e-05 6.71862402579952e-05 0.000268528464017186 0.000268528464017186 0.999194414607948 0.000268528464017186 0.000134336378291241 0.000134336378291241 0.999596990865126 0.000134336378291241 7.32922896511287e-05 0.999780123131047 7.32922896511287e-05 7.32922896511287e-05 5.37518813158461e-05 5.37518813158461e-05 0.999838744356052 5.37518813158461e-05 0.000115154306771073 0.000115154306771073 0.999654537079687 0.000115154306771073 0.000161186331399097 0.999516441005803 0.000161186331399097 0.000161186331399097 0.000402576489533011 0.998792270531401 0.000402576489533011 0.000402576489533011 0.000268528464017186 0.999194414607948 0.000268528464017186 0.000268528464017186 6.71862402579952e-05 0.999798441279226 6.71862402579952e-05 6.71862402579952e-05 3.22539027222294e-05 3.22539027222294e-05 0.999903238291833 3.22539027222294e-05 0.000134336378291241 0.999596990865126 0.000134336378291241 0.000134336378291241 0.000134336378291241 0.999596990865126 0.000134336378291241 0.000134336378291241 0.000134336378291241 0.000134336378291241 0.999596990865126 0.000134336378291241 0.000161186331399097 0.999516441005803 0.000161186331399097 0.000161186331399097 8.95736295234683e-05 0.99973127911143 8.95736295234683e-05 8.95736295234683e-05 0.000115154306771073 0.999654537079687 0.000115154306771073 0.000115154306771073 0.000161186331399097 0.999516441005803 0.000161186331399097 0.000161186331399097 0.000201450443190975 0.000201450443190975 0.999395648670427 0.000201450443190975 6.71862402579952e-05 6.71862402579952e-05 0.999798441279226 6.71862402579952e-05 0.000402576489533011 0.000402576489533011 0.998792270531401 0.000402576489533011 0.000402576489533011 0.998792270531401 0.000402576489533011 0.000402576489533011 6.71862402579952e-05 6.71862402579952e-05 0.999798441279226 6.71862402579952e-05 0.000161186331399097 0.999516441005803 0.000161186331399097 0.000161186331399097 8.95736295234683e-05 0.99973127911143 8.95736295234683e-05 8.95736295234683e-05 0.000134336378291241 0.000134336378291241 0.999596990865126 0.000134336378291241 0.000803858520900322 0.997588424437299 0.000803858520900322 0.000803858520900322 0.000134336378291241 0.000134336378291241 0.999596990865126 0.000134336378291241 8.06191551112544e-05 0.999758142534666 8.06191551112544e-05 8.06191551112544e-05 0.000803858520900322 0.997588424437299 0.000803858520900322 0.000803858520900322 0.000803858520900322 0.000803858520900322 0.997588424437299 0.000803858520900322 0.000201450443190975 0.000201450443190975 0.999395648670427 0.000201450443190975 0.000100765820233777 0.000100765820233777 0.999697702539299 0.000100765820233777 0.000268528464017186 0.999194414607948 0.000268528464017186 0.000268528464017186 0.000803858520900322 0.000803858520900322 0.997588424437299 0.000803858520900322 0.000402576489533011 0.998792270531401 0.000402576489533011 0.000402576489533011 0.000268528464017186 0.999194414607948 0.000268528464017186 0.000268528464017186 0.000803858520900322 0.000803858520900322 0.997588424437299 0.000803858520900322 8.06191551112544e-05 0.999758142534666 8.06191551112544e-05 8.06191551112544e-05 0.000803858520900322 0.000803858520900322 0.997588424437299 0.000803858520900322 0.000402576489533011 0.000402576489533011 0.998792270531401 0.000402576489533011 0.000161186331399097 0.000161186331399097 0.999516441005803 0.000161186331399097 0.000402576489533011 0.998792270531401 0.000402576489533011 0.000402576489533011 0.000161186331399097 0.000161186331399097 0.999516441005803 0.000161186331399097 0.000268528464017186 0.000268528464017186 0.999194414607948 0.000268528464017186 0.000402576489533011 0.000402576489533011 0.998792270531401 0.000402576489533011 0.000115154306771073 0.999654537079687 0.000115154306771073 0.000115154306771073 0.000402576489533011 0.000402576489533011 0.998792270531401 0.000402576489533011 0.000803858520900322 0.997588424437299 0.000803858520900322 0.000803858520900322 0.000115154306771073 0.000115154306771073 0.999654537079687 0.000115154306771073 0.000402576489533011 0.998792270531401 0.000402576489533011 0.000402576489533011 0.000803858520900322 0.000803858520900322 0.997588424437299 0.000803858520900322 0.000402576489533011 0.998792270531401 0.000402576489533011 0.000402576489533011 0.000161186331399097 0.000161186331399097 0.999516441005803 0.000161186331399097 0.000402576489533011 0.998792270531401 0.000402576489533011 0.000402576489533011 0.000803858520900322 0.997588424437299 0.000803858520900322 0.000803858520900322 0.000402576489533011 0.000402576489533011 0.998792270531401 0.000402576489533011 0.000803858520900322 0.997588424437299 0.000803858520900322 0.000803858520900322 0.000268528464017186 0.999194414607948 0.000268528464017186 0.000268528464017186 0.000803858520900322 0.997588424437299 0.000803858520900322 0.000803858520900322 0.000803858520900322 0.000803858520900322 0.997588424437299 0.000803858520900322 0.000803858520900322 0.997588424437299 0.000803858520900322 0.000803858520900322 0.000803858520900322 0.997588424437299 0.000803858520900322 0.000803858520900322 0.000402576489533011 0.998792270531401 0.000402576489533011 0.000402576489533011 0.000402576489533011 0.000402576489533011 0.998792270531401 0.000402576489533011 0.000803858520900322 0.997588424437299 0.000803858520900322 0.000803858520900322 0.000803858520900322 0.997588424437299 0.000803858520900322 0.000803858520900322 0.000803858520900322 0.997588424437299 0.000803858520900322 0.000803858520900322 0.000803858520900322 0.000803858520900322 0.997588424437299 0.000803858520900322 0.000803858520900322 0.000803858520900322 0.997588424437299 0.000803858520900322 0.000803858520900322 0.000803858520900322 0.997588424437299 0.000803858520900322 0.000803858520900322 0.997588424437299 0.000803858520900322 0.000803858520900322 </TABLE>
</DEFINITION>

<DEFINITION>
	<FOR>v2</FOR>
	<GIVEN>v69</GIVEN>
	<GIVEN>v59</GIVEN>
	<GIVEN>v53</GIVEN>
	<TABLE>0.2 0.2 0.2 0.2 0.2 0.2 0.2 0.2 0.2 0.2 0.2 0.2 0.2 0.2 0.2 0.2 0.2 0.2 0.2 0.2 0.2 0.2 0.2 0.2 0.2 0.2 0.2 0.2 0.2 0.2 0.2 0.2 0.2 0.2 0.2 0.2 0.2 0.2 0.2 0.2 0.2 0.2 0.2 0.2 0.2 0.2 0.2 0.2 0.2 0.2 0.2 0.2 0.2 0.2 0.2 0.2 0.2 0.2 0.2 0.2 0.2 0.2 0.2 0.2 0.2 0.2 0.2 0.2 0.2 0.2 0.2 0.2 0.2 0.2 0.2 0.2 0.2 0.2 0.2 0.2 1.89413669984563e-06 0.939645228196119 1.89413669984563e-06 1.89413669984563e-06 0.0603490893937816 0.2 0.2 0.2 0.2 0.2 0.2 0.2 0.2 0.2 0.2 2.3470597209346e-06 0.966615422529426 2.3470597209346e-06 2.3470597209346e-06 0.0333775362914109 0.00540540540540541 0.978378378378378 0.00540540540540541 0.00540540540540541 0.00540540540540541 0.2 0.2 0.2 0.2 0.2 1.91552533282253e-05 0.951652140599559 1.91552533282253e-05 1.91552533282253e-05 0.0482903936404559 0.2 0.2 0.2 0.2 0.2 0.2 0.2 0.2 0.2 0.2 0.2 0.2 0.2 0.2 0.2 0.2 0.2 0.2 0.2 0.2 0.2 0.2 0.2 0.2 0.2 2.95661172296548e-06 0.593394929410895 2.95661172296548e-06 0.406596200753936 2.95661172296548e-06 1.27121337316469e-05 1.27121337316469e-05 1.27121337316469e-05 0.999949151465073 1.27121337316469e-05 0.2 0.2 0.2 0.2 0.2 7.50722570474081e-06 0.764843662024699 0.147299275552719 0.0878420479711723 7.50722570474081e-06 1.93554630794542e-05 1.93554630794542e-05 0.999922578147682 1.93554630794542e-05 1.93554630794542e-05 0.2 0.2 0.2 0.2 0.2 8.54335753951303e-05 0.999658265698419 8.54335753951303e-05 8.54335753951303e-05 8.54335753951303e-05 0.2 0.2 0.2 0.2 0.2 </TABLE>
</DEFINITION>

<DEFINITION>
	<FOR>v56</FOR>
	<GIVEN>v3</GIVEN>
	<TABLE>0.166666666666667 0.166666666666667 0.166666666666667 0.166666666666667 0.166666666666667 0.166666666666667 1.01743890279389e-05 0.191939849012067 0.383136967625094 1.01743890279389e-05 0.424892660195755 1.01743890279389e-05 9.96750593066603e-06 0.116988617108227 0.251191116958715 0.398311504495345 0.233488826425852 9.96750593066603e-06 5.75307789667472e-05 5.75307789667472e-05 0.263778621562536 0.385283626740306 5.75307789667472e-05 0.350765159360258 </TABLE>
</DEFINITION>

<DEFINITION>
	<FOR>v19</FOR>
	<GIVEN>v3</GIVEN>
	<TABLE>0.333333333333333 0.333333333333333 0.333333333333333 2.03487780558777e-05 0.999959302443888 2.03487780558777e-05 1.99350118613321e-05 0.999960129976277 1.99350118613321e-05 0.000115061557933494 0.000115061557933494 0.999769876884133 </TABLE>
</DEFINITION>

<DEFINITION>
	<FOR>v55</FOR>
	<GIVEN>v26</GIVEN>
	<GIVEN>v19</GIVEN>
	<TABLE>0.166666666666667 0.166666666666667 0.166666666666667 0.166666666666667 0.166666666666667 0.166666666666667 0.166666666666667 0.166666666666667 0.166666666666667 0.166666666666667 0.166666666666667 0.166666666666667 0.166666666666667 0.166666666666667 0.166666666666667 0.166666666666667 0.166666666666667 0.166666666666667 0.166666666666667 0.166666666666667 0.166666666666667 0.166666666666667 0.166666666666667 0.166666666666667 2.7732942853498e-06 0.999986133528573 2.7732942853498e-06 2.7732942853498e-06 2.7732942853498e-06 2.7732942853498e-06 0.166666666666667 0.166666666666667 0.166666666666667 0.166666666666667 0.166666666666667 0.166666666666667 0.166666666666667 0.166666666666667 0.166666666666667 0.166666666666667 0.166666666666667 0.166666666666667 2.662704562278e-06 0.0345113138316851 0.111197205225291 0.471620894775241 0.173312777254113 0.209355146209108 9.5912221135217e-06 0.027632310909056 9.5912221135217e-06 0.97232932420249 9.5912221135217e-06 9.5912221135217e-06 0.166666666666667 0.166666666666667 0.166666666666667 0.166666666666667 0.166666666666667 0.166666666666667 3.46003999806238e-06 0.0408596123371186 0.174389475942342 0.319877237780869 0.359238652798826 0.105631561100846 0.166666666666667 0.166666666666667 0.166666666666667 0.166666666666667 0.166666666666667 0.166666666666667 0.166666666666667 0.166666666666667 0.166666666666667 0.166666666666667 0.166666666666667 0.166666666666667 1.45268601644441e-05 0.999927365699178 1.45268601644441e-05 1.45268601644441e-05 1.45268601644441e-05 1.45268601644441e-05 0.166666666666667 0.166666666666667 0.166666666666667 0.166666666666667 0.166666666666667 0.166666666666667 0.166666666666667 0.166666666666667 0.166666666666667 0.166666666666667 0.166666666666667 0.166666666666667 1.98957462894433e-05 0.060184632525566 0.060184632525566 0.509987664637301 0.191974055946839 0.177649118618439 0.166666666666667 0.166666666666667 0.166666666666667 0.166666666666667 0.166666666666667 0.166666666666667 0.166666666666667 0.166666666666667 0.166666666666667 0.166666666666667 0.166666666666667 0.166666666666667 3.29055610398157e-05 0.165876933201711 0.00950970714050675 0.459657782165186 0.336459361632116 0.0284633102994406 0.166666666666667 0.166666666666667 0.166666666666667 0.166666666666667 0.166666666666667 0.166666666666667 0.166666666666667 0.166666666666667 0.166666666666667 0.166666666666667 0.166666666666667 0.166666666666667 5.88304506412519e-05 0.999705847746794 5.88304506412519e-05 5.88304506412519e-05 5.88304506412519e-05 5.88304506412519e-05 0.166666666666667 0.166666666666667 0.166666666666667 0.166666666666667 0.166666666666667 0.166666666666667 </TABLE>
</DEFINITION>

<DEFINITION>
	<FOR>v17</FOR>
	<GIVEN>v53</GIVEN>
	<GIVEN>v2</GIVEN>
	<TABLE>0.333333333333333 0.333333333333333 0.333333333333333 0.333333333333333 0.333333333333333 0.333333333333333 0.333333333333333 0.333333333333333 0.333333333333333 0.333333333333333 0.333333333333333 0.333333333333333 0.333333333333333 0.333333333333333 0.333333333333333 0.333333333333333 0.333333333333333 0.333333333333333 3.14492110965396e-06 0.600620178442824 0.399376676636067 0.000203748981255094 0.596169519152404 0.403626731866341 2.68039026482256e-05 0.622413423394446 0.377559772702906 8.22842096601662e-05 8.22842096601662e-05 0.99983543158068 0.333333333333333 0.333333333333333 0.333333333333333 0.0208333333333333 0.0208333333333333 0.958333333333333 7.74113639882335e-05 0.999845177272024 7.74113639882335e-05 5.08440105755542e-05 0.999898311978849 5.08440105755542e-05 0.333333333333333 0.333333333333333 0.333333333333333 </TABLE>
</DEFINITION>

<DEFINITION>
	<FOR>v54</FOR>
	<GIVEN>v53</GIVEN>
	<GIVEN>v1</GIVEN>
	<TABLE>0.25 0.25 0.25 0.25 0.25 0.25 0.25 0.25 0.25 0.25 0.25 0.25 0.25 0.25 0.25 0.25 0.25 0.25 0.25 0.25 0.25 0.25 0.25 0.25 2.47622820919176e-05 0.714664223454833 0.285286251980983 2.47622820919176e-05 3.22057042743411e-06 0.62840092237137 0.371592636487775 3.22057042743411e-06 8.55110138185798e-06 0.542319400738815 0.240636543986866 0.217035504172937 3.49357182783678e-05 0.496820849636669 0.255764393515931 0.247379821129122 0.25 0.25 0.25 0.25 0.25 0.25 0.25 0.25 2.30181382929749e-05 0.999930945585121 2.30181382929749e-05 2.30181382929749e-05 0.25 0.25 0.25 0.25 0.015625 0.015625 0.015625 0.953125 </TABLE>
</DEFINITION>

<DEFINITION>
	<FOR>v53</FOR>
	<GIVEN>v19</GIVEN>
	<TABLE>0.333333333333333 0.333333333333333 0.333333333333333 1.3426783748221e-05 0.99985230537877 0.00013426783748221 0.000153397760392698 0.000153397760392698 0.999693204479215 </TABLE>
</DEFINITION>

<DEFINITION>
	<FOR>v18</FOR>
	<GIVEN>v70</GIVEN>
	<GIVEN>v3</GIVEN>
	<TABLE>0.333333333333333 0.333333333333333 0.333333333333333 0.333333333333333 0.333333333333333 0.333333333333333 0.333333333333333 0.333333333333333 0.333333333333333 0.333333333333333 0.333333333333333 0.333333333333333 0.333333333333333 0.333333333333333 0.333333333333333 5.08742744056613e-06 0.999989825145119 5.08742744056613e-06 5.50409229261956e-06 0.450724613750323 0.549269882157384 2.87728384405122e-05 2.87728384405122e-05 0.999942454323119 0.333333333333333 0.333333333333333 0.333333333333333 0.333333333333333 0.333333333333333 0.333333333333333 7.83024038837992e-05 0.999843395192232 7.83024038837992e-05 0.333333333333333 0.333333333333333 0.333333333333333 0.333333333333333 0.333333333333333 0.333333333333333 0.333333333333333 0.333333333333333 0.333333333333333 0.000161420500403551 0.999677158999193 0.000161420500403551 0.333333333333333 0.333333333333333 0.333333333333333 </TABLE>
</DEFINITION>

<DEFINITION>
	<FOR>v15</FOR>
	<GIVEN>v6</GIVEN>
	<GIVEN>v19</GIVEN>
	<TABLE>0.333333333333333 0.333333333333333 0.333333333333333 0.333333333333333 0.333333333333333 0.333333333333333 0.333333333333333 0.333333333333333 0.333333333333333 0.333333333333333 0.333333333333333 0.333333333333333 6.65761231391974e-06 0.68128012569572 0.318713216691966 5.11482788604163e-05 0.999897703442279 5.11482788604163e-05 0.333333333333333 0.333333333333333 0.333333333333333 1.36561650757234e-05 0.999972687669849 1.36561650757234e-05 0.333333333333333 0.333333333333333 0.333333333333333 </TABLE>
</DEFINITION>

<DEFINITION>
	<FOR>v52</FOR>
	<GIVEN>v56</GIVEN>
	<TABLE>0.333333333333333 0.333333333333333 0.333333333333333 4.35672896789091e-05 0.490959787391626 0.508996645318695 1.97694877725718e-05 0.628452246802285 0.371527983709942 2.85755107872553e-05 0.964966423774825 0.0350050007143878 2.0453662228222e-05 0.521711562455258 0.478267983882514 0.000218579234972678 0.999562841530055 0.000218579234972678 </TABLE>
</DEFINITION>

<DEFINITION>
	<FOR>v16</FOR>
	<GIVEN>v3</GIVEN>
	<GIVEN>v1</GIVEN>
	<TABLE>0.2 0.2 0.2 0.2 0.2 0.2 0.2 0.2 0.2 0.2 0.2 0.2 0.2 0.2 0.2 0.2 0.2 0.2 0.2 0.2 0.2 0.2 0.2 0.2 0.2 0.2 0.2 0.2 0.2 0.2 2.80859429855357e-05 0.345485184665075 0.20786406403595 2.80859429855357e-05 0.446594579413004 3.41640901248698e-06 0.564735826173109 0.376150048683828 3.41640901248698e-06 0.0591072923250371 1.47048011175649e-05 1.47048011175649e-05 0.99994118079553 1.47048011175649e-05 1.47048011175649e-05 7.57288905717531e-05 7.57288905717531e-05 0.999697084437713 7.57288905717531e-05 7.57288905717531e-05 0.2 0.2 0.2 0.2 0.2 3.15407664406245e-05 0.00318561741050308 0.0631130736476896 3.15407664406245e-05 0.933638227408926 4.44829963746358e-06 0.412806654656258 0.321616512088254 4.44829963746358e-06 0.265567936656213 7.87991016902407e-06 7.87991016902407e-06 0.999968480359324 7.87991016902407e-06 7.87991016902407e-06 2.88975581563358e-05 2.88975581563358e-05 0.999884409767375 2.88975581563358e-05 2.88975581563358e-05 0.2 0.2 0.2 0.2 0.2 0.2 0.2 0.2 0.2 0.2 1.38112008839169e-05 0.34943719356398 1.38112008839169e-05 0.650521372833368 1.38112008839169e-05 0.2 0.2 0.2 0.2 0.2 0.2 0.2 0.2 0.2 0.2 </TABLE>
</DEFINITION>

<DEFINITION>
	<FOR>v51</FOR>
	<GIVEN>v39</GIVEN>
	<TABLE>0.333333333333333 0.333333333333333 0.333333333333333 2.18278654530373e-05 0.999956344269094 2.18278654530373e-05 2.84220100045475e-05 0.721634834015462 0.278336743974534 </TABLE>
</DEFINITION>

<DEFINITION>
	<FOR>v13</FOR>
	<GIVEN>v19</GIVEN>
	<TABLE>0.333333333333333 0.333333333333333 0.333333333333333 1.3426783748221e-05 0.999973146432503 1.3426783748221e-05 0.000153397760392698 0.000153397760392698 0.999693204479215 </TABLE>
</DEFINITION>

<DEFINITION>
	<FOR>v50</FOR>
	<GIVEN>v49</GIVEN>
	<TABLE>0.333333333333333 0.333333333333333 0.333333333333333 6.07053967097675e-05 0.99987858920658 6.07053967097675e-05 1.61820153081865e-05 0.0204055213036232 0.979578296681069 7.67165324127349e-05 7.67165324127349e-05 0.999846566935175 1.68545954054373e-05 0.999966290809189 1.68545954054373e-05 8.80204207376111e-05 0.0333597394595546 0.966552240119708 </TABLE>
</DEFINITION>

<DEFINITION>
	<FOR>v14</FOR>
	<GIVEN>v41</GIVEN>
	<GIVEN>v53</GIVEN>
	<TABLE>0.333333333333333 0.333333333333333 0.333333333333333 0.333333333333333 0.333333333333333 0.333333333333333 0.333333333333333 0.333333333333333 0.333333333333333 0.333333333333333 0.333333333333333 0.333333333333333 1.70984012994785e-05 0.999965803197401 1.70984012994785e-05 0.333333333333333 0.333333333333333 0.333333333333333 0.333333333333333 0.333333333333333 0.333333333333333 6.06358272849096e-06 0.3649306629315 0.635063273485772 5.10777403207682e-05 5.10777403207682e-05 0.999897844519359 </TABLE>
</DEFINITION>

<DEFINITION>
	<FOR>v11</FOR>
	<GIVEN>v55</GIVEN>
	<TABLE>0.333333333333333 0.333333333333333 0.333333333333333 1.65928285794879e-05 0.998772130685118 0.00121127648630262 8.37731423305688e-05 0.56404456731172 0.43587165954595 1.94852009898482e-05 0.99996102959802 1.94852009898482e-05 4.23710859709334e-05 0.582729545358248 0.417228083555782 6.72449734382355e-05 0.999865510053124 6.72449734382355e-05 </TABLE>
</DEFINITION>

<DEFINITION>
	<FOR>v12</FOR>
	<GIVEN>v42</GIVEN>
	<GIVEN>v63</GIVEN>
	<TABLE>0.25 0.25 0.25 0.25 0.25 0.25 0.25 0.25 0.25 0.25 0.25 0.25 0.25 0.25 0.25 0.25 4.43490447215767e-06 0.999986695286583 4.43490447215767e-06 4.43490447215767e-06 3.09176354192431e-05 0.999907247093742 3.09176354192431e-05 3.09176354192431e-05 0.25 0.25 0.25 0.25 2.04482250940618e-05 0.999938655324718 2.04482250940618e-05 2.04482250940618e-05 2.24901043540842e-05 0.724653652392947 2.24901043540842e-05 0.275301367398345 0.25 0.25 0.25 0.25 2.30181382929749e-05 2.30181382929749e-05 0.999930945585121 2.30181382929749e-05 0.25 0.25 0.25 0.25 0.25 0.25 0.25 0.25 0.000168236877523553 0.999495289367429 0.000168236877523553 0.000168236877523553 7.17442461114619e-06 0.64484445847443 7.17442461114619e-06 0.355141192676347 </TABLE>
</DEFINITION>

<DEFINITION>
	<FOR>v10</FOR>
	<GIVEN>v63</GIVEN>
	<GIVEN>v3</GIVEN>
	<TABLE>0.25 0.25 0.25 0.25 0.25 0.25 0.25 0.25 0.25 0.25 0.25 0.25 0.25 0.25 0.25 0.25 0.25 0.25 0.25 0.25 1.78354854819148e-05 0.793625597488764 1.78354854819148e-05 0.206338731540273 5.94544460034721e-06 0.272545125924517 0.619568836357583 0.1078800922733 2.87720105880999e-05 2.87720105880999e-05 0.999913683968236 2.87720105880999e-05 0.25 0.25 0.25 0.25 7.11743772241993e-06 0.606071174377224 0.11753024911032 0.276391459074733 3.08147417724639e-05 0.25887464563047 0.680420313077776 0.0606742265499815 0.25 0.25 0.25 0.25 </TABLE>
</DEFINITION>

<DEFINITION>
	<FOR>v59</FOR>
	<GIVEN>v58</GIVEN>
	<GIVEN>v1</GIVEN>
	<TABLE>0.25 0.25 0.25 0.25 0.25 0.25 0.25 0.25 0.25 0.25 0.25 0.25 0.25 0.25 0.25 0.25 0.25 0.25 0.25 0.25 0.25 0.25 0.25 0.25 5.20724848989794e-05 0.699906269527182 0.29998958550302 5.20724848989794e-05 4.1444936257688e-06 0.955890154340943 4.1444936257688e-06 0.0441015566718058 1.30337312965956e-05 1.30337312965956e-05 0.99996089880611 1.30337312965956e-05 6.0960741282614e-05 6.0960741282614e-05 0.999817117776152 6.0960741282614e-05 0.25 0.25 0.25 0.25 0.000195160031225605 0.000195160031225605 0.999414519906323 0.000195160031225605 1.73118205110449e-05 0.139896821549754 0.860068554809224 1.73118205110449e-05 0.25 0.25 0.25 0.25 0.25 0.25 0.25 0.25 0.25 0.25 0.25 0.25 3.38707492209728e-05 0.428160140902317 0.571772117599241 3.38707492209728e-05 5.78422526086856e-06 0.897254806691192 5.78422526086856e-06 0.102733624858286 1.26256249684359e-05 1.26256249684359e-05 0.999962123125095 1.26256249684359e-05 4.57791613257645e-05 4.57791613257645e-05 0.999862662516023 4.57791613257645e-05 </TABLE>
</DEFINITION>

<DEFINITION>
	<FOR>v58</FOR>
	<GIVEN>v190</GIVEN>
	<TABLE>0.25 0.25 0.25 0.25 1.91997542431457e-05 0.999942400737271 1.91997542431457e-05 1.91997542431457e-05 7.6078025623079e-06 0.999977176592313 7.6078025623079e-06 7.6078025623079e-06 2.12206094559036e-05 0.999936338171632 2.12206094559036e-05 2.12206094559036e-05 2.8099043508559e-06 2.8099043508559e-06 0.999991570286947 2.8099043508559e-06 3.66515173728192e-05 3.66515173728192e-05 3.66515173728192e-05 0.999890045447882 1.49333970491607e-05 0.999955199808853 1.49333970491607e-05 1.49333970491607e-05 1.16871581506241e-05 0.999964938525548 1.16871581506241e-05 1.16871581506241e-05 5.37518813158461e-05 0.999838744356052 5.37518813158461e-05 5.37518813158461e-05 2.23994265746797e-05 2.23994265746797e-05 2.23994265746797e-05 0.999932801720276 1.64571127641367e-05 0.999950628661708 1.64571127641367e-05 1.64571127641367e-05 1.07522257107221e-05 0.999967743322868 1.07522257107221e-05 1.07522257107221e-05 1.6799946240172e-05 0.99994960016128 1.6799946240172e-05 1.6799946240172e-05 2.99792543559857e-06 2.99792543559857e-06 2.99792543559857e-06 0.999991006223693 2.30393512118699e-05 0.999930881946364 2.30393512118699e-05 2.30393512118699e-05 1.845413409512e-06 0.999994463759772 1.845413409512e-06 1.845413409512e-06 9.60024576629162e-06 0.999971199262701 9.60024576629162e-06 9.60024576629162e-06 8.95736295234683e-05 0.99973127911143 8.95736295234683e-05 8.95736295234683e-05 4.50523508316664e-06 4.50523508316664e-06 4.50523508316664e-06 0.999986484294751 7.0124260189055e-06 0.999978962721943 7.0124260189055e-06 7.0124260189055e-06 3.6163226338401e-06 3.6163226338401e-06 3.6163226338401e-06 0.999989151032099 2.06765362666446e-05 2.06765362666446e-05 2.06765362666446e-05 0.9999379703912 7.26511871203975e-06 0.999978204643864 7.26511871203975e-06 7.26511871203975e-06 7.3984196975526e-06 7.3984196975526e-06 7.3984196975526e-06 0.999977804740907 3.66515173728192e-05 3.66515173728192e-05 3.66515173728192e-05 0.999890045447882 2.68788302333082e-05 2.68788302333082e-05 2.68788302333082e-05 0.9999193635093 5.75904169546188e-05 5.75904169546188e-05 0.999827228749136 5.75904169546188e-05 2.0159664543182e-05 2.0159664543182e-05 0.999939521006371 2.0159664543182e-05 8.06191551112544e-05 8.06191551112544e-05 8.06191551112544e-05 0.999758142534666 1.55077228459773e-05 0.999953476831462 1.55077228459773e-05 1.55077228459773e-05 1.87532818243193e-05 1.87532818243193e-05 1.87532818243193e-05 0.999943740154527 3.10135218955465e-05 3.10135218955465e-05 3.10135218955465e-05 0.999906959434313 1.49333970491607e-05 1.49333970491607e-05 1.49333970491607e-05 0.999955199808853 3.83965596682537e-05 3.83965596682537e-05 3.83965596682537e-05 0.999884810320995 5.00891587024904e-06 5.00891587024904e-06 5.00891587024904e-06 0.999984973252389 6.95197575150858e-06 6.95197575150858e-06 6.95197575150858e-06 0.999979144072745 1.55077228459773e-05 1.55077228459773e-05 1.55077228459773e-05 0.999953476831462 4.26686692495434e-06 0.999987199399225 4.26686692495434e-06 4.26686692495434e-06 7.13653621078473e-06 0.999978590391368 7.13653621078473e-06 7.13653621078473e-06 2.68788302333082e-05 2.68788302333082e-05 2.68788302333082e-05 0.9999193635093 0.000201450443190975 0.000201450443190975 0.000201450443190975 0.999395648670427 0.000134336378291241 0.999596990865126 0.000134336378291241 0.000134336378291241 4.74293302978562e-05 4.74293302978562e-05 4.74293302978562e-05 0.999857712009106 1.16871581506241e-05 0.999964938525548 1.16871581506241e-05 1.16871581506241e-05 1.71573673735502e-05 0.999948527897879 1.71573673735502e-05 1.71573673735502e-05 0.000115154306771073 0.000115154306771073 0.000115154306771073 0.999654537079687 6.20193500372116e-05 6.20193500372116e-05 6.20193500372116e-05 0.999813941949888 7.0124260189055e-06 0.999978962721943 7.0124260189055e-06 7.0124260189055e-06 9.16388695429053e-06 9.16388695429053e-06 9.16388695429053e-06 0.999972508339137 8.06191551112544e-05 8.06191551112544e-05 8.06191551112544e-05 0.999758142534666 7.32922896511287e-05 0.999780123131047 7.32922896511287e-05 7.32922896511287e-05 7.32922896511287e-05 7.32922896511287e-05 7.32922896511287e-05 0.999780123131047 6.71862402579952e-05 6.71862402579952e-05 0.999798441279226 6.71862402579952e-05 1.44000921605898e-05 0.999956799723518 1.44000921605898e-05 1.44000921605898e-05 6.55634523091448e-06 6.55634523091448e-06 6.55634523091448e-06 0.999980330964307 0.000134336378291241 0.999596990865126 0.000134336378291241 0.000134336378291241 4.68858423510437e-06 0.999985934247295 4.68858423510437e-06 4.68858423510437e-06 4.24376167034459e-05 4.24376167034459e-05 0.99987268714989 4.24376167034459e-05 1.49333970491607e-05 0.999955199808853 1.49333970491607e-05 1.49333970491607e-05 8.95736295234683e-05 0.99973127911143 8.95736295234683e-05 8.95736295234683e-05 4.43097428262526e-06 4.43097428262526e-06 4.43097428262526e-06 0.999986707077152 3.35976347265153e-05 3.35976347265153e-05 3.35976347265153e-05 0.99989920709582 1.7919862375457e-05 0.999946240412874 1.7919862375457e-05 1.7919862375457e-05 4.24376167034459e-05 0.99987268714989 4.24376167034459e-05 4.24376167034459e-05 3.66515173728192e-05 0.999890045447882 3.66515173728192e-05 3.66515173728192e-05 8.40025536776318e-06 0.999974799233897 8.40025536776318e-06 8.40025536776318e-06 1.46618966629523e-05 1.46618966629523e-05 0.999956014310011 1.46618966629523e-05 0.000115154306771073 0.000115154306771073 0.999654537079687 0.000115154306771073 0.000134336378291241 0.999596990865126 0.000134336378291241 0.000134336378291241 6.95197575150858e-06 0.999979144072745 6.95197575150858e-06 6.95197575150858e-06 6.40024576943755e-06 0.999980799262692 6.40024576943755e-06 6.40024576943755e-06 7.46692153758848e-06 0.999977599235387 7.46692153758848e-06 7.46692153758848e-06 5.37518813158461e-05 5.37518813158461e-05 5.37518813158461e-05 0.999838744356052 0.000201450443190975 0.000201450443190975 0.000201450443190975 0.999395648670427 2.78055833611389e-05 2.78055833611389e-05 2.78055833611389e-05 0.999916583249917 0.000268528464017186 0.000268528464017186 0.999194414607948 0.000268528464017186 4.03160780519271e-05 0.999879051765844 4.03160780519271e-05 4.03160780519271e-05 0.000134336378291241 0.999596990865126 0.000134336378291241 0.000134336378291241 3.66515173728192e-05 3.66515173728192e-05 3.66515173728192e-05 0.999890045447882 1.24063321919508e-05 0.999962781003424 1.24063321919508e-05 1.24063321919508e-05 4.47948396344741e-05 4.47948396344741e-05 0.999865615481097 4.47948396344741e-05 2.30393512118699e-05 2.30393512118699e-05 0.999930881946364 2.30393512118699e-05 1.7919862375457e-05 0.999946240412874 1.7919862375457e-05 1.7919862375457e-05 3.66515173728192e-05 0.999890045447882 3.66515173728192e-05 3.66515173728192e-05 4.24376167034459e-05 0.99987268714989 4.24376167034459e-05 4.24376167034459e-05 3.83965596682537e-05 0.999884810320995 3.83965596682537e-05 3.83965596682537e-05 2.44355390479914e-05 0.999926693382856 2.44355390479914e-05 2.44355390479914e-05 0.000201450443190975 0.999395648670427 0.000201450443190975 0.000201450443190975 1.49333970491607e-05 1.49333970491607e-05 1.49333970491607e-05 0.999955199808853 7.32922896511287e-05 7.32922896511287e-05 7.32922896511287e-05 0.999780123131047 6.89255879352651e-06 6.89255879352651e-06 6.89255879352651e-06 0.999979322323619 2.06765362666446e-05 2.06765362666446e-05 2.06765362666446e-05 0.9999379703912 5.37518813158461e-05 0.999838744356052 5.37518813158461e-05 5.37518813158461e-05 2.23994265746797e-05 2.23994265746797e-05 2.23994265746797e-05 0.999932801720276 1.6799946240172e-05 1.6799946240172e-05 1.6799946240172e-05 0.99994960016128 8.95736295234683e-05 0.99973127911143 8.95736295234683e-05 8.95736295234683e-05 5.8016755238913e-06 0.999982594973428 5.8016755238913e-06 5.8016755238913e-06 0.000268528464017186 0.999194414607948 0.000268528464017186 0.000268528464017186 1.20360117471475e-05 1.20360117471475e-05 1.20360117471475e-05 0.999963891964759 2.51990726741256e-05 0.999924402781978 2.51990726741256e-05 2.51990726741256e-05 0.000100765820233777 0.000100765820233777 0.000100765820233777 0.999697702539299 3.35976347265153e-05 3.35976347265153e-05 3.35976347265153e-05 0.99989920709582 1.49333970491607e-05 1.49333970491607e-05 1.49333970491607e-05 0.999955199808853 1.44000921605898e-05 1.44000921605898e-05 1.44000921605898e-05 0.999956799723518 0.000201450443190975 0.999395648670427 0.000201450443190975 0.000201450443190975 2.37169149037093e-05 0.999928849255289 2.37169149037093e-05 2.37169149037093e-05 5.37518813158461e-05 5.37518813158461e-05 5.37518813158461e-05 0.999838744356052 6.72024945565979e-06 6.72024945565979e-06 6.72024945565979e-06 0.999979839251633 0.000100765820233777 0.999697702539299 0.000100765820233777 0.000100765820233777 2.68788302333082e-05 0.9999193635093 2.68788302333082e-05 2.68788302333082e-05 5.03930659141302e-05 5.03930659141302e-05 5.03930659141302e-05 0.999848820802258 4.24376167034459e-05 0.99987268714989 4.24376167034459e-05 4.24376167034459e-05 5.37518813158461e-05 5.37518813158461e-05 0.999838744356052 5.37518813158461e-05 8.06191551112544e-05 0.999758142534666 8.06191551112544e-05 8.06191551112544e-05 1.44000921605898e-05 1.44000921605898e-05 1.44000921605898e-05 0.999956799723518 1.55077228459773e-05 0.999953476831462 1.55077228459773e-05 1.55077228459773e-05 0.000115154306771073 0.999654537079687 0.000115154306771073 0.000115154306771073 4.47948396344741e-05 0.999865615481097 4.47948396344741e-05 4.47948396344741e-05 2.23994265746797e-05 0.999932801720276 2.23994265746797e-05 2.23994265746797e-05 1.71573673735502e-05 1.71573673735502e-05 1.71573673735502e-05 0.999948527897879 5.03930659141302e-05 0.999848820802258 5.03930659141302e-05 5.03930659141302e-05 1.22183666487464e-05 0.999963344900054 1.22183666487464e-05 1.22183666487464e-05 0.000201450443190975 0.000201450443190975 0.999395648670427 0.000201450443190975 5.03930659141302e-05 0.999848820802258 5.03930659141302e-05 5.03930659141302e-05 1.91997542431457e-05 1.91997542431457e-05 1.91997542431457e-05 0.999942400737271 4.47948396344741e-05 0.999865615481097 4.47948396344741e-05 4.47948396344741e-05 1.96680040909449e-05 1.96680040909449e-05 1.96680040909449e-05 0.999940995987727 9.26921508286678e-06 9.26921508286678e-06 9.26921508286678e-06 0.999972192354751 5.37518813158461e-05 5.37518813158461e-05 0.999838744356052 5.37518813158461e-05 0.000115154306771073 0.999654537079687 0.000115154306771073 0.000115154306771073 4.47948396344741e-05 4.47948396344741e-05 0.999865615481097 4.47948396344741e-05 1.02078314482871e-05 0.999969376505655 1.02078314482871e-05 1.02078314482871e-05 3.50581966063666e-05 3.50581966063666e-05 3.50581966063666e-05 0.999894825410181 4.47948396344741e-05 0.999865615481097 4.47948396344741e-05 4.47948396344741e-05 4.74293302978562e-05 4.74293302978562e-05 4.74293302978562e-05 0.999857712009106 5.75904169546188e-05 0.999827228749136 5.75904169546188e-05 5.75904169546188e-05 8.06191551112544e-05 8.06191551112544e-05 8.06191551112544e-05 0.999758142534666 1.91997542431457e-05 1.91997542431457e-05 1.91997542431457e-05 0.999942400737271 0.000161186331399097 0.000161186331399097 0.999516441005803 0.000161186331399097 3.83965596682537e-05 3.83965596682537e-05 3.83965596682537e-05 0.999884810320995 6.71862402579952e-05 0.999798441279226 6.71862402579952e-05 6.71862402579952e-05 0.000134336378291241 0.999596990865126 0.000134336378291241 0.000134336378291241 7.32922896511287e-05 0.999780123131047 7.32922896511287e-05 7.32922896511287e-05 4.74293302978562e-05 0.999857712009106 4.74293302978562e-05 4.74293302978562e-05 1.24063321919508e-05 0.999962781003424 1.24063321919508e-05 1.24063321919508e-05 8.95736295234683e-05 8.95736295234683e-05 0.99973127911143 8.95736295234683e-05 5.03930659141302e-05 0.999848820802258 5.03930659141302e-05 5.03930659141302e-05 2.98650101541035e-05 0.999910404969538 2.98650101541035e-05 2.98650101541035e-05 3.22539027222294e-05 3.22539027222294e-05 3.22539027222294e-05 0.999903238291833 6.71862402579952e-05 6.71862402579952e-05 0.999798441279226 6.71862402579952e-05 4.24376167034459e-05 0.99987268714989 4.24376167034459e-05 4.24376167034459e-05 0.000115154306771073 0.000115154306771073 0.999654537079687 0.000115154306771073 8.06191551112544e-05 0.999758142534666 8.06191551112544e-05 8.06191551112544e-05 2.98650101541035e-05 0.999910404969538 2.98650101541035e-05 2.98650101541035e-05 8.06191551112544e-05 0.999758142534666 8.06191551112544e-05 8.06191551112544e-05 0.000402576489533011 0.000402576489533011 0.000402576489533011 0.998792270531401 1.12002150441288e-05 1.12002150441288e-05 1.12002150441288e-05 0.999966399354868 6.71862402579952e-05 6.71862402579952e-05 6.71862402579952e-05 0.999798441279226 4.03160780519271e-05 4.03160780519271e-05 4.03160780519271e-05 0.999879051765844 2.60118614088024e-05 0.999921964415774 2.60118614088024e-05 2.60118614088024e-05 2.30393512118699e-05 2.30393512118699e-05 2.30393512118699e-05 0.999930881946364 5.75904169546188e-05 0.999827228749136 5.75904169546188e-05 5.75904169546188e-05 3.83965596682537e-05 0.999884810320995 3.83965596682537e-05 3.83965596682537e-05 3.35976347265153e-05 3.35976347265153e-05 3.35976347265153e-05 0.99989920709582 3.66515173728192e-05 0.999890045447882 3.66515173728192e-05 3.66515173728192e-05 0.000134336378291241 0.999596990865126 0.000134336378291241 0.000134336378291241 4.03160780519271e-05 4.03160780519271e-05 4.03160780519271e-05 0.999879051765844 0.000100765820233777 0.000100765820233777 0.999697702539299 0.000100765820233777 2.44355390479914e-05 0.999926693382856 2.44355390479914e-05 2.44355390479914e-05 3.22539027222294e-05 3.22539027222294e-05 3.22539027222294e-05 0.999903238291833 4.24376167034459e-05 4.24376167034459e-05 4.24376167034459e-05 0.99987268714989 4.47948396344741e-05 4.47948396344741e-05 4.47948396344741e-05 0.999865615481097 4.47948396344741e-05 0.999865615481097 4.47948396344741e-05 4.47948396344741e-05 3.66515173728192e-05 0.999890045447882 3.66515173728192e-05 3.66515173728192e-05 5.37518813158461e-05 5.37518813158461e-05 5.37518813158461e-05 0.999838744356052 5.75904169546188e-05 0.999827228749136 5.75904169546188e-05 5.75904169546188e-05 8.06191551112544e-05 8.06191551112544e-05 0.999758142534666 8.06191551112544e-05 0.000115154306771073 0.999654537079687 0.000115154306771073 0.000115154306771073 0.000803858520900322 0.997588424437299 0.000803858520900322 0.000803858520900322 5.37518813158461e-05 5.37518813158461e-05 5.37518813158461e-05 0.999838744356052 3.35976347265153e-05 3.35976347265153e-05 3.35976347265153e-05 0.99989920709582 8.06191551112544e-05 0.999758142534666 8.06191551112544e-05 8.06191551112544e-05 7.32922896511287e-05 0.999780123131047 7.32922896511287e-05 7.32922896511287e-05 1.75303274665171e-05 0.9999474090176 1.75303274665171e-05 1.75303274665171e-05 3.10135218955465e-05 3.10135218955465e-05 3.10135218955465e-05 0.999906959434313 5.37518813158461e-05 5.37518813158461e-05 0.999838744356052 5.37518813158461e-05 6.20193500372116e-05 0.999813941949888 6.20193500372116e-05 6.20193500372116e-05 8.95736295234683e-05 0.99973127911143 8.95736295234683e-05 8.95736295234683e-05 1.96680040909449e-05 0.999940995987727 1.96680040909449e-05 1.96680040909449e-05 3.83965596682537e-05 0.999884810320995 3.83965596682537e-05 3.83965596682537e-05 3.66515173728192e-05 3.66515173728192e-05 3.66515173728192e-05 0.999890045447882 0.000268528464017186 0.000268528464017186 0.999194414607948 0.000268528464017186 0.000115154306771073 0.000115154306771073 0.000115154306771073 0.999654537079687 6.20193500372116e-05 6.20193500372116e-05 6.20193500372116e-05 0.999813941949888 0.000100765820233777 0.000100765820233777 0.000100765820233777 0.999697702539299 6.20193500372116e-05 6.20193500372116e-05 0.999813941949888 6.20193500372116e-05 2.87985255154936e-05 2.87985255154936e-05 2.87985255154936e-05 0.999913604423453 0.000268528464017186 0.999194414607948 0.000268528464017186 0.000268528464017186 8.06191551112544e-05 8.06191551112544e-05 8.06191551112544e-05 0.999758142534666 8.06191551112544e-05 0.999758142534666 8.06191551112544e-05 8.06191551112544e-05 7.32922896511287e-05 0.999780123131047 7.32922896511287e-05 7.32922896511287e-05 0.000268528464017186 0.000268528464017186 0.999194414607948 0.000268528464017186 7.32922896511287e-05 0.999780123131047 7.32922896511287e-05 7.32922896511287e-05 0.000402576489533011 0.000402576489533011 0.000402576489533011 0.998792270531401 6.71862402579952e-05 6.71862402579952e-05 6.71862402579952e-05 0.999798441279226 0.000100765820233777 0.999697702539299 0.000100765820233777 0.000100765820233777 0.000161186331399097 0.999516441005803 0.000161186331399097 0.000161186331399097 4.74293302978562e-05 4.74293302978562e-05 4.74293302978562e-05 0.999857712009106 8.06191551112544e-05 8.06191551112544e-05 0.999758142534666 8.06191551112544e-05 0.000268528464017186 0.999194414607948 0.000268528464017186 0.000268528464017186 0.000115154306771073 0.000115154306771073 0.999654537079687 0.000115154306771073 8.95736295234683e-05 0.99973127911143 8.95736295234683e-05 8.95736295234683e-05 5.03930659141302e-05 0.999848820802258 5.03930659141302e-05 5.03930659141302e-05 1.87532818243193e-05 1.87532818243193e-05 1.87532818243193e-05 0.999943740154527 8.06191551112544e-05 8.06191551112544e-05 8.06191551112544e-05 0.999758142534666 0.000268528464017186 0.000268528464017186 0.000268528464017186 0.999194414607948 4.24376167034459e-05 4.24376167034459e-05 0.99987268714989 4.24376167034459e-05 0.000134336378291241 0.000134336378291241 0.999596990865126 0.000134336378291241 0.000201450443190975 0.999395648670427 0.000201450443190975 0.000201450443190975 6.71862402579952e-05 6.71862402579952e-05 0.999798441279226 6.71862402579952e-05 0.000201450443190975 0.999395648670427 0.000201450443190975 0.000201450443190975 0.000115154306771073 0.999654537079687 0.000115154306771073 0.000115154306771073 2.98650101541035e-05 2.98650101541035e-05 2.98650101541035e-05 0.999910404969538 0.000115154306771073 0.000115154306771073 0.000115154306771073 0.999654537079687 0.000134336378291241 0.000134336378291241 0.000134336378291241 0.999596990865126 0.000268528464017186 0.000268528464017186 0.000268528464017186 0.999194414607948 4.74293302978562e-05 0.999857712009106 4.74293302978562e-05 4.74293302978562e-05 0.000201450443190975 0.000201450443190975 0.999395648670427 0.000201450443190975 0.000268528464017186 0.000268528464017186 0.000268528464017186 0.999194414607948 4.74293302978562e-05 0.999857712009106 4.74293302978562e-05 4.74293302978562e-05 3.35976347265153e-05 3.35976347265153e-05 3.35976347265153e-05 0.99989920709582 0.000402576489533011 0.998792270531401 0.000402576489533011 0.000402576489533011 3.50581966063666e-05 3.50581966063666e-05 3.50581966063666e-05 0.999894825410181 0.000100765820233777 0.000100765820233777 0.999697702539299 0.000100765820233777 0.000201450443190975 0.000201450443190975 0.000201450443190975 0.999395648670427 0.000134336378291241 0.000134336378291241 0.999596990865126 0.000134336378291241 6.71862402579952e-05 6.71862402579952e-05 6.71862402579952e-05 0.999798441279226 0.000115154306771073 0.000115154306771073 0.999654537079687 0.000115154306771073 6.71862402579952e-05 6.71862402579952e-05 6.71862402579952e-05 0.999798441279226 0.000268528464017186 0.000268528464017186 0.000268528464017186 0.999194414607948 0.000134336378291241 0.000134336378291241 0.000134336378291241 0.999596990865126 7.32922896511287e-05 7.32922896511287e-05 0.999780123131047 7.32922896511287e-05 5.37518813158461e-05 0.999838744356052 5.37518813158461e-05 5.37518813158461e-05 0.000115154306771073 0.999654537079687 0.000115154306771073 0.000115154306771073 0.000161186331399097 0.000161186331399097 0.999516441005803 0.000161186331399097 0.000402576489533011 0.998792270531401 0.000402576489533011 0.000402576489533011 0.000268528464017186 0.000268528464017186 0.999194414607948 0.000268528464017186 6.71862402579952e-05 6.71862402579952e-05 6.71862402579952e-05 0.999798441279226 3.22539027222294e-05 3.22539027222294e-05 3.22539027222294e-05 0.999903238291833 0.000134336378291241 0.000134336378291241 0.000134336378291241 0.999596990865126 0.000134336378291241 0.999596990865126 0.000134336378291241 0.000134336378291241 0.000134336378291241 0.000134336378291241 0.999596990865126 0.000134336378291241 0.000161186331399097 0.999516441005803 0.000161186331399097 0.000161186331399097 8.95736295234683e-05 8.95736295234683e-05 0.99973127911143 8.95736295234683e-05 0.000115154306771073 0.999654537079687 0.000115154306771073 0.000115154306771073 0.000161186331399097 0.999516441005803 0.000161186331399097 0.000161186331399097 0.000201450443190975 0.999395648670427 0.000201450443190975 0.000201450443190975 6.71862402579952e-05 0.999798441279226 6.71862402579952e-05 6.71862402579952e-05 0.000402576489533011 0.998792270531401 0.000402576489533011 0.000402576489533011 0.000402576489533011 0.000402576489533011 0.998792270531401 0.000402576489533011 6.71862402579952e-05 0.999798441279226 6.71862402579952e-05 6.71862402579952e-05 0.000161186331399097 0.000161186331399097 0.999516441005803 0.000161186331399097 8.95736295234683e-05 0.99973127911143 8.95736295234683e-05 8.95736295234683e-05 0.000134336378291241 0.000134336378291241 0.999596990865126 0.000134336378291241 0.000803858520900322 0.997588424437299 0.000803858520900322 0.000803858520900322 0.000134336378291241 0.000134336378291241 0.999596990865126 0.000134336378291241 8.06191551112544e-05 8.06191551112544e-05 0.999758142534666 8.06191551112544e-05 0.000803858520900322 0.000803858520900322 0.997588424437299 0.000803858520900322 0.000803858520900322 0.000803858520900322 0.000803858520900322 0.997588424437299 0.000201450443190975 0.000201450443190975 0.000201450443190975 0.999395648670427 0.000100765820233777 0.000100765820233777 0.000100765820233777 0.999697702539299 0.000268528464017186 0.999194414607948 0.000268528464017186 0.000268528464017186 0.000803858520900322 0.000803858520900322 0.997588424437299 0.000803858520900322 0.000402576489533011 0.998792270531401 0.000402576489533011 0.000402576489533011 0.000268528464017186 0.000268528464017186 0.000268528464017186 0.999194414607948 0.000803858520900322 0.000803858520900322 0.997588424437299 0.000803858520900322 8.06191551112544e-05 8.06191551112544e-05 8.06191551112544e-05 0.999758142534666 0.000803858520900322 0.997588424437299 0.000803858520900322 0.000803858520900322 0.000402576489533011 0.998792270531401 0.000402576489533011 0.000402576489533011 0.000161186331399097 0.000161186331399097 0.000161186331399097 0.999516441005803 0.000402576489533011 0.000402576489533011 0.998792270531401 0.000402576489533011 0.000161186331399097 0.000161186331399097 0.999516441005803 0.000161186331399097 0.000268528464017186 0.999194414607948 0.000268528464017186 0.000268528464017186 0.000402576489533011 0.998792270531401 0.000402576489533011 0.000402576489533011 0.000115154306771073 0.000115154306771073 0.000115154306771073 0.999654537079687 0.000402576489533011 0.000402576489533011 0.000402576489533011 0.998792270531401 0.000803858520900322 0.000803858520900322 0.997588424437299 0.000803858520900322 0.000115154306771073 0.000115154306771073 0.000115154306771073 0.999654537079687 0.000402576489533011 0.998792270531401 0.000402576489533011 0.000402576489533011 0.000803858520900322 0.997588424437299 0.000803858520900322 0.000803858520900322 0.000402576489533011 0.998792270531401 0.000402576489533011 0.000402576489533011 0.000161186331399097 0.999516441005803 0.000161186331399097 0.000161186331399097 0.000402576489533011 0.998792270531401 0.000402576489533011 0.000402576489533011 0.000803858520900322 0.000803858520900322 0.997588424437299 0.000803858520900322 0.000402576489533011 0.000402576489533011 0.998792270531401 0.000402576489533011 0.000803858520900322 0.000803858520900322 0.997588424437299 0.000803858520900322 0.000268528464017186 0.999194414607948 0.000268528464017186 0.000268528464017186 0.000803858520900322 0.000803858520900322 0.000803858520900322 0.997588424437299 0.000803858520900322 0.000803858520900322 0.997588424437299 0.000803858520900322 0.000803858520900322 0.997588424437299 0.000803858520900322 0.000803858520900322 0.000803858520900322 0.000803858520900322 0.997588424437299 0.000803858520900322 0.000402576489533011 0.998792270531401 0.000402576489533011 0.000402576489533011 0.000402576489533011 0.000402576489533011 0.000402576489533011 0.998792270531401 0.000803858520900322 0.997588424437299 0.000803858520900322 0.000803858520900322 0.000803858520900322 0.997588424437299 0.000803858520900322 0.000803858520900322 0.000803858520900322 0.997588424437299 0.000803858520900322 0.000803858520900322 0.000803858520900322 0.997588424437299 0.000803858520900322 0.000803858520900322 0.000803858520900322 0.997588424437299 0.000803858520900322 0.000803858520900322 0.000803858520900322 0.997588424437299 0.000803858520900322 0.000803858520900322 0.000803858520900322 0.000803858520900322 0.000803858520900322 0.997588424437299 </TABLE>
</DEFINITION>

<DEFINITION>
	<FOR>v57</FOR>
	<GIVEN>v5</GIVEN>
	<TABLE>0.333333333333333 0.333333333333333 0.333333333333333 1.74529207462869e-05 0.999965094158507 1.74529207462869e-05 2.20356536876666e-05 0.999955928692625 2.20356536876666e-05 2.47555390518628e-05 0.999950488921896 2.47555390518628e-05 7.60861294985924e-05 7.60861294985924e-05 0.999847827741003 0.000172980453208787 0.000172980453208787 0.999654039093583 </TABLE>
</DEFINITION>

<DEFINITION>
	<FOR>v93</FOR>
	<GIVEN>v4</GIVEN>
	<TABLE>0.333333333333333 0.333333333333333 0.333333333333333 7.0304206300663e-06 0.99998593915874 7.0304206300663e-06 0.000141302811925957 0.999717394376148 0.000141302811925957 0.000179694519317161 0.000179694519317161 0.999640610961366 0.000989119683481701 0.998021760633036 0.000989119683481701 0.000163800163800164 0.9996723996724 0.000163800163800164 </TABLE>
</DEFINITION>

<DEFINITION>
	<FOR>v94</FOR>
	<GIVEN>v22</GIVEN>
	<GIVEN>v1</GIVEN>
	<TABLE>0.333333333333333 0.333333333333333 0.333333333333333 0.333333333333333 0.333333333333333 0.333333333333333 0.333333333333333 0.333333333333333 0.333333333333333 0.333333333333333 0.333333333333333 0.333333333333333 0.333333333333333 0.333333333333333 0.333333333333333 0.333333333333333 0.333333333333333 0.333333333333333 4.68099049758929e-05 0.59266020689978 0.407292983195244 6.05169356644457e-06 6.05169356644457e-06 0.999987896612867 2.45080018626081e-05 2.45080018626081e-05 0.999950983996275 0.000126214817619589 0.999747570364761 0.000126214817619589 0.333333333333333 0.333333333333333 0.333333333333333 7.09068992412962e-05 0.999858186201517 7.09068992412962e-05 6.50774747336704e-06 0.999986984505053 6.50774747336704e-06 1.71106890474479e-05 0.999965778621905 1.71106890474479e-05 6.08161527701758e-05 0.99987836769446 6.08161527701758e-05 0.333333333333333 0.333333333333333 0.333333333333333 0.000203128173877717 0.999593743652245 0.000203128173877717 2.85363696030591e-05 0.999942927260794 2.85363696030591e-05 5.64876009715867e-05 0.999887024798057 5.64876009715867e-05 0.000231320842007865 0.999537358315984 0.000231320842007865 </TABLE>
</DEFINITION>

<DEFINITION>
	<FOR>v95</FOR>
	<GIVEN>v20</GIVEN>
	<GIVEN>v97</GIVEN>
	<TABLE>0.333333333333333 0.333333333333333 0.333333333333333 0.333333333333333 0.333333333333333 0.333333333333333 0.333333333333333 0.333333333333333 0.333333333333333 0.333333333333333 0.333333333333333 0.333333333333333 1.20873674922339e-05 0.852135233467503 0.147852679165005 1.06394297265667e-05 0.000585168634961166 0.999404191935312 0.333333333333333 0.333333333333333 0.333333333333333 2.93453062182704e-05 2.93453062182704e-05 0.999941309387563 3.1068443781651e-05 3.1068443781651e-05 0.999937863112437 </TABLE>
</DEFINITION>

<DEFINITION>
	<FOR>v96</FOR>
	<GIVEN>v26</GIVEN>
	<TABLE>0.333333333333333 0.333333333333333 0.333333333333333 1.66392119669212e-05 0.539526448027421 0.460456912760612 1.25045328931738e-05 1.25045328931738e-05 0.999974990934214 2.07593780490336e-05 2.07593780490336e-05 0.999958481243902 8.71459694989107e-05 0.257342047930283 0.742570806100218 0.000119345984007638 0.000119345984007638 0.999761308031985 0.000197355437142293 0.000197355437142293 0.999605289125715 0.000352733686067019 0.999294532627866 0.000352733686067019 </TABLE>
</DEFINITION>

<DEFINITION>
	<FOR>v97</FOR>
	<GIVEN>v50</GIVEN>
	<TABLE>0.333333333333333 0.333333333333333 0.333333333333333 2.58257792928902e-05 0.999948348441414 2.58257792928902e-05 2.36540826946731e-05 0.00513293594474406 0.994843409972561 </TABLE>
</DEFINITION>

<DEFINITION>
	<FOR>v99</FOR>
	<GIVEN>v97</GIVEN>
	<TABLE>0.333333333333333 0.333333333333333 0.333333333333333 2.56825127770501e-05 0.999024064514472 0.000950252972750854 2.377555872563e-05 0.0105087969567285 0.989467427484546 </TABLE>
</DEFINITION>

<DEFINITION>
	<FOR>v102</FOR>
	<GIVEN>v4</GIVEN>
	<TABLE>0.25 0.25 0.25 0.25 5.27281547254972e-06 0.999984181553582 5.27281547254972e-06 5.27281547254972e-06 0.000105977108944468 0.000105977108944468 0.760597710894447 0.239190334887664 0.000134770889487871 0.999595687331536 0.000134770889487871 0.000134770889487871 0.000741839762611276 0.997774480712166 0.000741839762611276 0.000741839762611276 0.000122850122850123 0.99963144963145 0.000122850122850123 0.000122850122850123 </TABLE>
</DEFINITION>

<DEFINITION>
	<FOR>v65</FOR>
	<TABLE>5.55555555555556e-05 0.999944444444444 </TABLE>
</DEFINITION>

<DEFINITION>
	<FOR>v64</FOR>
	<GIVEN>v4</GIVEN>
	<TABLE>0.333333333333333 0.333333333333333 0.333333333333333 7.0304206300663e-06 0.644260716118645 0.355732253460725 0.000141302811925957 0.999717394376148 0.000141302811925957 0.000179694519317161 0.588858939802336 0.410961365678347 0.000989119683481701 0.998021760633036 0.000989119683481701 0.000163800163800164 0.9996723996724 0.000163800163800164 </TABLE>
</DEFINITION>

<DEFINITION>
	<FOR>v101</FOR>
	<GIVEN>v52</GIVEN>
	<TABLE>0.333333333333333 0.333333333333333 0.333333333333333 1.87076738878288e-05 0.999962584652224 1.87076738878288e-05 3.63068656282903e-05 0.498674799404567 0.501288893729804 </TABLE>
</DEFINITION>

<DEFINITION>
	<FOR>v67</FOR>
	<GIVEN>v70</GIVEN>
	<TABLE>0.333333333333333 0.333333333333333 0.333333333333333 9.68513622144095e-06 0.999980629727557 9.68513622144095e-06 0.000312989045383412 0.638810641627543 0.360876369327074 0.000644745325596389 0.658284977433914 0.34107027724049 </TABLE>
</DEFINITION>

<DEFINITION>
	<FOR>v66</FOR>
	<GIVEN>v3</GIVEN>
	<TABLE>0.25 0.25 0.25 0.25 1.52615835419083e-05 0.248107563640803 0.233212258103901 0.518664916671754 1.4951258895999e-05 0.230383948328449 0.189716524131332 0.579884576281323 8.62961684501208e-05 0.419830859509838 8.62961684501208e-05 0.579996548153262 </TABLE>
</DEFINITION>

<DEFINITION>
	<FOR>v103</FOR>
	<GIVEN>v102</GIVEN>
	<TABLE>0.333333333333333 0.333333333333333 0.333333333333333 9.68288549987896e-06 0.999980634229 9.68288549987896e-06 0.000278473962684489 0.424672793093846 0.57504873294347 0.000884173297966401 0.977011494252873 0.02210433244916 </TABLE>
</DEFINITION>

<DEFINITION>
	<FOR>v61</FOR>
	<GIVEN>v62</GIVEN>
	<GIVEN>v19</GIVEN>
	<TABLE>0.25 0.25 0.25 0.25 0.25 0.25 0.25 0.25 0.25 0.25 0.25 0.25 0.25 0.25 0.25 0.25 6.72024945565979e-06 0.999979839251633 6.72024945565979e-06 6.72024945565979e-06 0.25 0.25 0.25 0.25 0.25 0.25 0.25 0.25 4.43915691531864e-06 4.43915691531864e-06 0.784350196210736 0.215640925475434 2.87720105880999e-05 2.87720105880999e-05 0.986103118885948 0.0138393370928761 0.25 0.25 0.25 0.25 4.32152117545376e-05 4.32152117545376e-05 0.686646499567848 0.313267070008643 0.25 0.25 0.25 0.25 </TABLE>
</DEFINITION>

<DEFINITION>
	<FOR>v24</FOR>
	<GIVEN>v61</GIVEN>
	<TABLE>0.333333333333333 0.333333333333333 0.333333333333333 2.68795527242427e-05 0.999946240894552 2.68795527242427e-05 1.76320197478621e-05 0.403085603455876 0.596896764524376 7.10277718587968e-05 0.346118332267917 0.653810639960224 </TABLE>
</DEFINITION>

<DEFINITION>
	<FOR>v60</FOR>
	<GIVEN>v68</GIVEN>
	<GIVEN>v50</GIVEN>
	<TABLE>0.333333333333333 0.333333333333333 0.333333333333333 0.333333333333333 0.333333333333333 0.333333333333333 0.333333333333333 0.333333333333333 0.333333333333333 0.333333333333333 0.333333333333333 0.333333333333333 1.84437189914974e-05 0.976558033161807 0.0234235231192018 1.51288219186372e-05 0.787152604426693 0.212832266751388 0.333333333333333 0.333333333333333 0.333333333333333 1.61443954731115e-05 0.999967711209054 1.61443954731115e-05 1.64674109936436e-05 0.999967065178013 1.64674109936436e-05 </TABLE>
</DEFINITION>

<DEFINITION>
	<FOR>v25</FOR>
	<GIVEN>v42</GIVEN>
	<GIVEN>v50</GIVEN>
	<TABLE>0.111111111111111 0.111111111111111 0.111111111111111 0.111111111111111 0.111111111111111 0.111111111111111 0.111111111111111 0.111111111111111 0.111111111111111 0.111111111111111 0.111111111111111 0.111111111111111 0.111111111111111 0.111111111111111 0.111111111111111 0.111111111111111 0.111111111111111 0.111111111111111 0.111111111111111 0.111111111111111 0.111111111111111 0.111111111111111 0.111111111111111 0.111111111111111 0.111111111111111 0.111111111111111 0.111111111111111 0.111111111111111 0.111111111111111 0.111111111111111 0.111111111111111 0.111111111111111 0.111111111111111 0.111111111111111 0.111111111111111 0.111111111111111 7.21922624333124e-06 0.87519401670529 0.000981814769093048 0.00195641031194277 7.21922624333124e-06 7.21922624333124e-06 0.121831662082458 7.21922624333124e-06 7.21922624333124e-06 2.26452352160582e-06 0.368077917725331 0.0794870401318859 0.293790223599053 0.115560899831067 0.0382160989506198 0.0886583603943894 0.0128421128910266 0.00336508195310625 0.111111111111111 0.111111111111111 0.111111111111111 0.111111111111111 0.111111111111111 0.111111111111111 0.111111111111111 0.111111111111111 0.111111111111111 7.37740595651757e-06 0.302776117861438 0.12748895233458 0.345601959439022 0.0776914621280865 0.104582106839593 0.0278939719215929 0.00299522681834613 0.0109628252513851 1.34175958351783e-05 0.391270512149633 0.150357578929008 0.262662856069449 0.0561660561660562 0.0706570596680487 0.0634115579170524 0.00182479303358424 0.00363616847133331 0.111111111111111 0.111111111111111 0.111111111111111 0.111111111111111 0.111111111111111 0.111111111111111 0.111111111111111 0.111111111111111 0.111111111111111 0.111111111111111 0.111111111111111 0.111111111111111 0.111111111111111 0.111111111111111 0.111111111111111 0.111111111111111 0.111111111111111 0.111111111111111 1.02302836857666e-05 1.02302836857666e-05 1.02302836857666e-05 0.999918157730514 1.02302836857666e-05 1.02302836857666e-05 1.02302836857666e-05 1.02302836857666e-05 1.02302836857666e-05 0.111111111111111 0.111111111111111 0.111111111111111 0.111111111111111 0.111111111111111 0.111111111111111 0.111111111111111 0.111111111111111 0.111111111111111 3.26020689272941e-06 3.26020689272941e-06 0.126760104196212 0.490305774804469 0.202021980314871 0.146125733139025 3.26020689272941e-06 0.0202491450107424 0.0145274819140023 4.93607779258601e-05 4.93607779258601e-05 0.100004936077793 0.653092452737055 0.133323461177748 0.066686410977837 4.93607779258601e-05 0.0200404758378992 0.0267041808578903 </TABLE>
</DEFINITION>

<DEFINITION>
	<FOR>v100</FOR>
