<?xml version="1.0" encoding="UTF-8"?>

<!-- DTD for the XMLBIF 0.3 format -->
<!DOCTYPE BIF [
<!ELEMENT BIF ( NETWORK )*>
<!ATTLIST BIF VERSION CDATA #REQUIRED>
   <!ELEMENT NETWORK ( NAME, ( PROPERTY | VARIABLE | DEFINITION )* )>
      <!ELEMENT NAME (#PCDATA)>
        <!ELEMENT VARIABLE ( NAME, ( OUTCOME |  PROPERTY )* ) >
          <!ATTLIST VARIABLE TYPE (nature|decision|utility) "nature">
           <!ELEMENT OUTCOME (#PCDATA)>
            <!ELEMENT DEFINITION ( FOR | GIVEN | TABLE | PROPERTY )* >
              <!ELEMENT FOR (#PCDATA)>
                <!ELEMENT GIVEN (#PCDATA)>
                  <!ELEMENT TABLE (#PCDATA)>
                    <!ELEMENT PROPERTY (#PCDATA)>
                      ]>
<BIF VERSION="0.3">
<NETWORK>
<NAME>Reco</NAME>
<VARIABLE TYPE="nature">
	<NAME>v1</NAME>
	<OUTCOME>2</OUTCOME>
	<OUTCOME>0</OUTCOME>
	<OUTCOME>1</OUTCOME>
</VARIABLE>

<VARIABLE TYPE="nature">
	<NAME>v2</NAME>
	<OUTCOME>3</OUTCOME>
	<OUTCOME>2</OUTCOME>
	<OUTCOME>1</OUTCOME>
	<OUTCOME>0</OUTCOME>
	<OUTCOME>8</OUTCOME>
</VARIABLE>

<VARIABLE TYPE="nature">
	<NAME>v3</NAME>
	<OUTCOME>0</OUTCOME>
	<OUTCOME>1</OUTCOME>
</VARIABLE>

<VARIABLE TYPE="nature">
	<NAME>v4</NAME>
	<OUTCOME>1</OUTCOME>
	<OUTCOME>0</OUTCOME>
</VARIABLE>

<VARIABLE TYPE="nature">
	<NAME>v5</NAME>
	<OUTCOME>0</OUTCOME>
	<OUTCOME>1</OUTCOME>
</VARIABLE>

<VARIABLE TYPE="nature">
	<NAME>v6</NAME>
	<OUTCOME>0</OUTCOME>
	<OUTCOME>1</OUTCOME>
</VARIABLE>

<VARIABLE TYPE="nature">
	<NAME>v7</NAME>
	<OUTCOME>3</OUTCOME>
	<OUTCOME>0</OUTCOME>
	<OUTCOME>1</OUTCOME>
</VARIABLE>

<VARIABLE TYPE="nature">
	<NAME>v8</NAME>
	<OUTCOME>1</OUTCOME>
	<OUTCOME>0</OUTCOME>
</VARIABLE>

<VARIABLE TYPE="nature">
	<NAME>v9</NAME>
	<OUTCOME>0</OUTCOME>
	<OUTCOME>1</OUTCOME>
</VARIABLE>

<VARIABLE TYPE="nature">
	<NAME>v10</NAME>
	<OUTCOME>0</OUTCOME>
	<OUTCOME>1</OUTCOME>
</VARIABLE>

<VARIABLE TYPE="nature">
	<NAME>v11</NAME>
	<OUTCOME>0</OUTCOME>
	<OUTCOME>1</OUTCOME>
</VARIABLE>

<VARIABLE TYPE="nature">
	<NAME>v12</NAME>
	<OUTCOME>0</OUTCOME>
	<OUTCOME>1</OUTCOME>
</VARIABLE>

<VARIABLE TYPE="nature">
	<NAME>v13</NAME>
	<OUTCOME>1</OUTCOME>
	<OUTCOME>0</OUTCOME>
</VARIABLE>

<VARIABLE TYPE="nature">
	<NAME>v14</NAME>
	<OUTCOME>1</OUTCOME>
	<OUTCOME>0</OUTCOME>
</VARIABLE>

<VARIABLE TYPE="nature">
	<NAME>v15</NAME>
	<OUTCOME>0</OUTCOME>
	<OUTCOME>1</OUTCOME>
</VARIABLE>

<VARIABLE TYPE="nature">
	<NAME>v16</NAME>
	<OUTCOME>0</OUTCOME>
	<OUTCOME>1</OUTCOME>
</VARIABLE>

<VARIABLE TYPE="nature">
	<NAME>v17</NAME>
	<OUTCOME>2</OUTCOME>
	<OUTCOME>0</OUTCOME>
	<OUTCOME>1</OUTCOME>
	<OUTCOME>-1</OUTCOME>
</VARIABLE>

<VARIABLE TYPE="nature">
	<NAME>v18</NAME>
	<OUTCOME>1</OUTCOME>
	<OUTCOME>0</OUTCOME>
</VARIABLE>

<VARIABLE TYPE="nature">
	<NAME>v19</NAME>
	<OUTCOME>9</OUTCOME>
	<OUTCOME>1</OUTCOME>
	<OUTCOME>3</OUTCOME>
	<OUTCOME>8</OUTCOME>
	<OUTCOME>7</OUTCOME>
	<OUTCOME>12</OUTCOME>
	<OUTCOME>6</OUTCOME>
	<OUTCOME>4</OUTCOME>
	<OUTCOME>5</OUTCOME>
	<OUTCOME>11</OUTCOME>
	<OUTCOME>2</OUTCOME>
	<OUTCOME>13</OUTCOME>
	<OUTCOME>0</OUTCOME>
	<OUTCOME>10</OUTCOME>
</VARIABLE>

<VARIABLE TYPE="nature">
	<NAME>v21</NAME>
	<OUTCOME>0</OUTCOME>
	<OUTCOME>1</OUTCOME>
</VARIABLE>

<VARIABLE TYPE="nature">
	<NAME>v23</NAME>
	<OUTCOME>0</OUTCOME>
	<OUTCOME>1</OUTCOME>
	<OUTCOME>2</OUTCOME>
</VARIABLE>

<VARIABLE TYPE="nature">
	<NAME>v24</NAME>
	<OUTCOME>8</OUTCOME>
	<OUTCOME>1</OUTCOME>
	<OUTCOME>2</OUTCOME>
	<OUTCOME>0</OUTCOME>
	<OUTCOME>3</OUTCOME>
</VARIABLE>

<VARIABLE TYPE="nature">
	<NAME>v25</NAME>
	<OUTCOME>0</OUTCOME>
	<OUTCOME>1</OUTCOME>
</VARIABLE>

<VARIABLE TYPE="nature">
	<NAME>v26</NAME>
	<OUTCOME>0</OUTCOME>
	<OUTCOME>1</OUTCOME>
</VARIABLE>

<VARIABLE TYPE="nature">
	<NAME>v27</NAME>
	<OUTCOME>2</OUTCOME>
	<OUTCOME>0</OUTCOME>
	<OUTCOME>1</OUTCOME>
</VARIABLE>

<VARIABLE TYPE="nature">
	<NAME>v28</NAME>
	<OUTCOME>2</OUTCOME>
	<OUTCOME>0</OUTCOME>
	<OUTCOME>1</OUTCOME>
</VARIABLE>

<VARIABLE TYPE="nature">
	<NAME>v29</NAME>
	<OUTCOME>-1</OUTCOME>
	<OUTCOME>0</OUTCOME>
</VARIABLE>

<VARIABLE TYPE="nature">
	<NAME>v30</NAME>
	<OUTCOME>-1</OUTCOME>
	<OUTCOME>0</OUTCOME>
</VARIABLE>

<VARIABLE TYPE="nature">
	<NAME>v31</NAME>
	<OUTCOME>1</OUTCOME>
	<OUTCOME>0</OUTCOME>
</VARIABLE>

<VARIABLE TYPE="nature">
	<NAME>v32</NAME>
	<OUTCOME>0</OUTCOME>
	<OUTCOME>1</OUTCOME>
</VARIABLE>

<VARIABLE TYPE="nature">
	<NAME>v33</NAME>
	<OUTCOME>0</OUTCOME>
	<OUTCOME>1</OUTCOME>
</VARIABLE>

<VARIABLE TYPE="nature">
	<NAME>v34</NAME>
	<OUTCOME>-1</OUTCOME>
	<OUTCOME>0</OUTCOME>
</VARIABLE>

<VARIABLE TYPE="nature">
	<NAME>v35</NAME>
	<OUTCOME>1</OUTCOME>
	<OUTCOME>0</OUTCOME>
</VARIABLE>

<VARIABLE TYPE="nature">
	<NAME>v36</NAME>
	<OUTCOME>0</OUTCOME>
	<OUTCOME>1</OUTCOME>
	<OUTCOME>-1</OUTCOME>
</VARIABLE>

<VARIABLE TYPE="nature">
	<NAME>v37</NAME>
	<OUTCOME>1</OUTCOME>
	<OUTCOME>0</OUTCOME>
</VARIABLE>

<VARIABLE TYPE="nature">
	<NAME>v38</NAME>
	<OUTCOME>0</OUTCOME>
	<OUTCOME>2</OUTCOME>
	<OUTCOME>1</OUTCOME>
</VARIABLE>

<VARIABLE TYPE="nature">
	<NAME>v39</NAME>
	<OUTCOME>0</OUTCOME>
	<OUTCOME>1</OUTCOME>
</VARIABLE>

<VARIABLE TYPE="nature">
	<NAME>v40</NAME>
	<OUTCOME>-1</OUTCOME>
	<OUTCOME>0</OUTCOME>
</VARIABLE>

<VARIABLE TYPE="nature">
	<NAME>v41</NAME>
	<OUTCOME>0</OUTCOME>
	<OUTCOME>1</OUTCOME>
</VARIABLE>

<VARIABLE TYPE="nature">
	<NAME>v42</NAME>
	<OUTCOME>0</OUTCOME>
	<OUTCOME>1</OUTCOME>
</VARIABLE>

<VARIABLE TYPE="nature">
	<NAME>v43</NAME>
	<OUTCOME>0</OUTCOME>
	<OUTCOME>1</OUTCOME>
</VARIABLE>

<VARIABLE TYPE="nature">
	<NAME>v44</NAME>
	<OUTCOME>0</OUTCOME>
	<OUTCOME>1</OUTCOME>
</VARIABLE>

<VARIABLE TYPE="nature">
	<NAME>v45</NAME>
	<OUTCOME>-1</OUTCOME>
	<OUTCOME>0</OUTCOME>
</VARIABLE>

<VARIABLE TYPE="nature">
	<NAME>v46</NAME>
	<OUTCOME>3</OUTCOME>
	<OUTCOME>2</OUTCOME>
	<OUTCOME>1</OUTCOME>
	<OUTCOME>0</OUTCOME>
	<OUTCOME>7</OUTCOME>
</VARIABLE>

<VARIABLE TYPE="nature">
	<NAME>v93</NAME>
	<OUTCOME>15</OUTCOME>
	<OUTCOME>9</OUTCOME>
	<OUTCOME>14</OUTCOME>
	<OUTCOME>7</OUTCOME>
	<OUTCOME>5</OUTCOME>
	<OUTCOME>13</OUTCOME>
	<OUTCOME>6</OUTCOME>
	<OUTCOME>4</OUTCOME>
	<OUTCOME>12</OUTCOME>
	<OUTCOME>10</OUTCOME>
	<OUTCOME>11</OUTCOME>
	<OUTCOME>8</OUTCOME>
	<OUTCOME>0</OUTCOME>
	<OUTCOME>1</OUTCOME>
	<OUTCOME>3</OUTCOME>
	<OUTCOME>32</OUTCOME>
	<OUTCOME>21</OUTCOME>
	<OUTCOME>2</OUTCOME>
	<OUTCOME>20</OUTCOME>
	<OUTCOME>31</OUTCOME>
</VARIABLE>

<VARIABLE TYPE="nature">
	<NAME>v51</NAME>
	<OUTCOME>0</OUTCOME>
	<OUTCOME>3</OUTCOME>
	<OUTCOME>2</OUTCOME>
	<OUTCOME>1</OUTCOME>
</VARIABLE>

<VARIABLE TYPE="nature">
	<NAME>v52</NAME>
	<OUTCOME>1</OUTCOME>
	<OUTCOME>0</OUTCOME>
</VARIABLE>

<VARIABLE TYPE="nature">
	<NAME>v53</NAME>
	<OUTCOME>1</OUTCOME>
	<OUTCOME>0</OUTCOME>
</VARIABLE>

<DEFINITION>
	<FOR>v1</FOR>
	<GIVEN>v93</GIVEN>
	<TABLE>0.999991082694631 4.45865268433185e-06 4.45865268433185e-06 5.57777368741041e-06 0.999988844452625 5.57777368741041e-06 2.52983305631661e-06 2.52983305631661e-06 0.999994940333887 5.01094892339762e-06 0.999989978102153 5.01094892339762e-06 1.21561333770954e-05 0.999975687733246 1.21561333770954e-05 7.4636334460342e-06 7.4636334460342e-06 0.999985072733108 1.47878680330657e-05 0.999970424263934 1.47878680330657e-05 3.4791079567199e-05 0.999930417840866 3.4791079567199e-05 2.48737656393801e-05 2.48737656393801e-05 0.999950252468721 0.000129148908691722 0.000129148908691722 0.999741702182617 2.8882534731248e-05 2.8882534731248e-05 0.999942234930538 2.84875936529641e-05 0.999943024812694 2.84875936529641e-05 0.000177210703526493 0.999645578592947 0.000177210703526493 6.08161527701758e-05 0.99987836769446 6.08161527701758e-05 0.000141183114499506 0.000141183114499506 0.999717633771001 0.000616142945163278 0.000616142945163278 0.998767714109673 0.00150829562594268 0.996983408748115 0.00150829562594268 0.000475511174512601 0.000475511174512601 0.999048977650975 0.00813008130081301 0.983739837398374 0.00813008130081301 0.00236406619385343 0.00236406619385343 0.995271867612293 </TABLE>
</DEFINITION>

<DEFINITION>
	<FOR>v2</FOR>
	<TABLE>0.423552091878589 0.287005742411813 0.182657916324856 0.104848236259229 0.00193601312551272 </TABLE>
</DEFINITION>

<DEFINITION>
	<FOR>v3</FOR>
	<GIVEN>v2</GIVEN>
	<TABLE>0.999990315895489 9.68410451085588e-06 0.999985708569142 1.42914308580575e-05 0.999977544237851 2.24557621485673e-05 3.91205695954933e-05 0.999960879430405 0.00211864406779661 0.997881355932203 </TABLE>
</DEFINITION>

<DEFINITION>
	<FOR>v4</FOR>
	<GIVEN>v27</GIVEN>
	<TABLE>0.999992157354833 7.84264516736205e-06 7.28650539201399e-05 0.99992713494608 0.000198098256735341 0.999801901743265 </TABLE>
</DEFINITION>

<DEFINITION>
	<FOR>v5</FOR>
	<GIVEN>v1</GIVEN>
	<TABLE>0.99995541685243 4.45831475702185e-05 1.62485376316132e-05 0.999983751462368 1.60498186370494e-05 0.999983950181363 </TABLE>
</DEFINITION>

<DEFINITION>
	<FOR>v6</FOR>
	<GIVEN>v38</GIVEN>
	<GIVEN>v34</GIVEN>
	<GIVEN>v32</GIVEN>
	<GIVEN>v1</GIVEN>
	<TABLE>0.999995817894394 4.18210560653078e-06 0.5 0.5 0.703291505741059 0.296708494258941 0.5 0.5 4.5837496905969e-06 0.99999541625031 0.608089014482515 0.391910985517485 0.99996669553054 3.33044694598015e-05 0.5 0.5 0.734231759656652 0.265768240343348 0.5 0.5 3.55189315905378e-05 0.999964481068409 0.706847019391908 0.293152980608092 0.5 0.5 0.5 0.5 0.734223821330699 0.265776178669301 0.5 0.5 4.22407893958722e-06 0.99999577592106 0.544624335947382 0.455375664052618 0.5 0.5 0.5 0.5 0.365248723151193 0.634751276848807 0.5 0.5 1.82741858850188e-05 0.999981725814115 0.317487141807494 0.682512858192506 0.5 0.5 0.5 0.5 0.666652509980464 0.333347490019536 0.5 0.5 5.87509547030139e-06 0.99999412490453 0.699480093035983 0.300519906964017 0.5 0.5 0.5 0.5 0.619671490027376 0.380328509972624 0.5 0.5 3.27546675401245e-05 0.99996724533246 0.509429020429544 0.490570979570456 </TABLE>
</DEFINITION>

<DEFINITION>
	<FOR>v7</FOR>
	<GIVEN>v93</GIVEN>
	<GIVEN>v30</GIVEN>
	<TABLE>0.999993989716405 3.00514179761572e-06 3.00514179761572e-06 8.63535486990838e-06 0.99998272929026 8.63535486990838e-06 4.05115802352102e-06 0.44822417488039 0.551771773961587 8.9507084485737e-06 0.303975009622012 0.69601603966954 1.82267886403362e-06 0.782149776812973 0.217848400508163 4.13354662433915e-06 0.697416120005126 0.30257974644825 3.53553031186913e-06 0.360627627340963 0.639368837128725 8.59970932982465e-06 0.309598135583017 0.690393264707653 6.07817751925263e-06 0.366155491937298 0.633838429885183 0.333333333333333 0.333333333333333 0.333333333333333 5.16948144931582e-06 0.664386925347518 0.335607905171032 1.34186761134147e-05 0.500798411228748 0.499188170095138 1.05082857833402e-05 0.258514338555951 0.741475153158265 2.49482324177332e-05 0.176658433749969 0.823316618017613 1.73964476453908e-05 0.300628011759999 0.699354591792356 0.333333333333333 0.333333333333333 0.333333333333333 1.87255397636837e-05 0.689867610433871 0.310113664026366 3.70329222678962e-05 0.546642965596415 0.453320001481317 6.45869663501905e-05 0.658851643738294 0.341083769295356 0.333333333333333 0.333333333333333 0.333333333333333 1.44418930433401e-05 0.682827144982164 0.317158413124792 0.333333333333333 0.333333333333333 0.333333333333333 1.96993873490534e-05 0.446801804463881 0.55317849614877 5.14323921205575e-05 0.395052203878002 0.604896363729877 0.333333333333333 0.333333333333333 0.333333333333333 8.86289107506869e-05 0.265975361162811 0.733936009926438 0.333333333333333 0.333333333333333 0.333333333333333 3.0410850591491e-05 0.302922482741842 0.697047106407566 0.333333333333333 0.333333333333333 0.333333333333333 7.06065099202146e-05 0.601638071030149 0.398291322459931 0.000308356460067838 0.629355534998458 0.370336108541474 0.333333333333333 0.333333333333333 0.333333333333333 0.000755857898715041 0.182161753590325 0.81708238851096 0.333333333333333 0.333333333333333 0.333333333333333 0.333333333333333 0.333333333333333 0.333333333333333 0.000237925291458482 0.51415655484178 0.485605519866762 0.00411522633744856 0.00411522633744856 0.991769547325103 0.333333333333333 0.333333333333333 0.333333333333333 0.00118623962040332 0.570581257413998 0.428232502965599 0.333333333333333 0.333333333333333 0.333333333333333 </TABLE>
</DEFINITION>

<DEFINITION>
	<FOR>v8</FOR>
	<GIVEN>v5</GIVEN>
	<TABLE>0.999933128259997 6.68717400026749e-05 1.21115229028898e-05 0.999987888477097 </TABLE>
</DEFINITION>

<DEFINITION>
	<FOR>v9</FOR>
	<GIVEN>v5</GIVEN>
	<TABLE>0.999933128259997 6.68717400026749e-05 1.21115229028898e-05 0.999987888477097 </TABLE>
</DEFINITION>

<DEFINITION>
	<FOR>v10</FOR>
	<GIVEN>v1</GIVEN>
	<TABLE>0.99995541685243 4.45831475702185e-05 1.62485376316132e-05 0.999983751462368 0.999983950181363 1.60498186370494e-05 </TABLE>
</DEFINITION>

<DEFINITION>
	<FOR>v11</FOR>
	<GIVEN>v32</GIVEN>
	<GIVEN>v26</GIVEN>
	<GIVEN>v25</GIVEN>
	<GIVEN>v1</GIVEN>
	<TABLE>0.99999442667172 5.57332828018236e-06 0.5 0.5 0.974647507660485 0.0253524923395149 0.5 0.5 0.5 0.5 0.931835150067194 0.0681648499328057 0.5 0.5 0.5 0.5 0.879966669590387 0.120033330409613 0.5 0.5 0.5 0.5 0.888688946015424 0.111311053984576 0.5 0.5 3.00147072065312e-06 0.999996998529279 0.947572132301196 0.0524278676988037 0.5 0.5 3.19509233816857e-05 0.999968049076618 0.850406893250359 0.149593106749641 0.5 0.5 1.00496452475228e-05 0.999989950354752 0.854965288258376 0.145034711741624 0.5 0.5 3.52485019386676e-05 0.999964751498061 0.878310214375788 0.121689785624212 </TABLE>
</DEFINITION>

<DEFINITION>
	<FOR>v12</FOR>
	<GIVEN>v24</GIVEN>
	<TABLE>0.999973234837536 2.67651624645362e-05 0.99999014797738 9.85202262024394e-06 0.999990368130069 9.63186993122845e-06 0.000915750915750916 0.999084249084249 0.954545454545454 0.0454545454545455 </TABLE>
</DEFINITION>

<DEFINITION>
	<FOR>v13</FOR>
	<GIVEN>v4</GIVEN>
	<TABLE>0.999988236124509 1.17638754911418e-05 7.99105002397315e-05 0.99992008949976 </TABLE>
</DEFINITION>

<DEFINITION>
	<FOR>v14</FOR>
	<GIVEN>v5</GIVEN>
	<TABLE>0.999933128259997 6.68717400026749e-05 1.21115229028898e-05 0.999987888477097 </TABLE>
</DEFINITION>

<DEFINITION>
	<FOR>v15</FOR>
	<GIVEN>v93</GIVEN>
	<TABLE>0.999993312020974 6.68797902649777e-06 8.36666053111561e-06 0.999991633339469 0.999996205250416 3.79474958447492e-06 7.51642338509644e-06 0.999992483576615 1.82342000656431e-05 0.999981765799934 0.999988804549831 1.11954501690513e-05 2.21818020495985e-05 0.99997781819795 5.21866193507985e-05 0.999947813380649 0.999962689351541 3.73106484590702e-05 0.999806276636962 0.000193723363037582 0.999956676197903 4.3323802096872e-05 4.27313904794462e-05 0.999957268609521 0.99973418394471 0.000265816055289739 0.999908775770845 9.12242291552637e-05 0.999788225328251 0.000211774671749259 0.999075785582255 0.000924214417744917 0.00226244343891403 0.997737556561086 0.999286733238231 0.000713266761768902 0.0121951219512195 0.98780487804878 0.99645390070922 0.00354609929078014 </TABLE>
</DEFINITION>

<DEFINITION>
	<FOR>v16</FOR>
	<GIVEN>v93</GIVEN>
	<TABLE>0.999993312020974 6.68797902649777e-06 8.36666053111561e-06 0.999991633339469 3.79474958447492e-06 0.999996205250416 7.51642338509644e-06 0.999992483576615 1.82342000656431e-05 0.999981765799934 1.11954501690513e-05 0.999988804549831 0.99997781819795 2.21818020495985e-05 0.999947813380649 5.21866193507985e-05 0.999962689351541 3.73106484590702e-05 0.999806276636962 0.000193723363037582 4.3323802096872e-05 0.999956676197903 0.999957268609521 4.27313904794462e-05 0.99973418394471 0.000265816055289739 9.12242291552637e-05 0.999908775770845 0.000211774671749259 0.999788225328251 0.000924214417744917 0.999075785582255 0.00226244343891403 0.997737556561086 0.999286733238231 0.000713266761768902 0.98780487804878 0.0121951219512195 0.99645390070922 0.00354609929078014 </TABLE>
</DEFINITION>

<DEFINITION>
	<FOR>v17</FOR>
	<GIVEN>v1</GIVEN>
	<TABLE>0.999933125278645 2.22915737851092e-05 2.22915737851092e-05 2.22915737851092e-05 8.12426881580658e-06 0.999878135967763 8.12426881580658e-06 0.000105615494605485 8.0249093185247e-06 8.0249093185247e-06 0.999975925272044 8.0249093185247e-06 </TABLE>
</DEFINITION>

<DEFINITION>
	<FOR>v18</FOR>
	<GIVEN>v5</GIVEN>
	<TABLE>0.999933128259997 6.68717400026749e-05 1.21115229028898e-05 0.999987888477097 </TABLE>
</DEFINITION>

<DEFINITION>
	<FOR>v19</FOR>
	<GIVEN>v93</GIVEN>
	<GIVEN>v34</GIVEN>
	<TABLE>0.513095139516952 0.00391499182158692 0.00391499182158692 0.000903873266321607 0.00481832738816652 0.248116706653604 0.0213794794421258 0.0195728083089666 0.000602761410795075 0.169225400505653 0.00421610367711346 0.00632388666579918 0.00331276811053386 0.000602761410795075 0.393266076888162 0.00719809535228275 0.00480015757876797 0.0503609752755487 0.00959603312579753 0.290154752627026 0.0119939708993123 0.00480015757876797 4.28203173841924e-06 0.215818681648068 4.28203173841924e-06 0.0119939708993123 4.28203173841924e-06 4.28203173841924e-06 0.291780266457969 0.073044843030254 0.0504170406066973 7.08891053369572e-07 0.0377137129303146 0.136958460402055 0.122667216766124 0.127033985654881 0.00794028868879257 0.0619294313134192 0.0408895448494103 0.0262013222235927 0.0230254903044971 0.00039768788094033 0.14711750059013 0.0362492099872836 0.0447775400336564 0.0874191902655204 0.0234567149177245 0.151381665613316 0.144985418078537 0.115136262916232 3.80729019927357e-06 0.117268345427825 0.0575700351032156 0.0469096225452496 0.0277208799409109 3.80729019927357e-06 0.476361144119848 0.0175695248100282 0.0132225059140804 0.000543700800899419 0.0155771411493854 0.220430406620924 0.0585039527468696 0.0534324307015972 0.00217383288687983 0.107951292688275 0.0126791285520869 0.0130413801267492 0.00851323544347032 3.23438905948494e-07 0.268036630551567 0.00843634002416599 0.0121850806816014 0.144328188856199 0.0112478955172425 0.243669816278237 0.0656046350500557 0.0224941174895487 1.67354493635509e-06 0.186501521252347 0.0112478955172425 0.0234313026539076 0.0028132290380129 1.67354493635509e-06 0.266475947489581 0.0542170199464164 0.0386253791919936 0.000354988249319448 0.0506734652295021 0.122607625982862 0.13465571202037 0.14457766522773 0.00744209768314799 0.068036883342382 0.0552800863614907 0.0308295588147822 0.0262229376827936 6.32777628020406e-07 0.144837628518994 0.0337320285983547 0.0396841143083889 0.0317480000283433 0.0436521714484117 0.105157057118765 0.176582085639176 0.150789714229028 3.54290816073466e-06 0.06944454285856 0.0377000857383775 0.152773742799039 0.0138917428982406 3.54290816073466e-06 0.273880744946007 0.0509558797245611 0.036397521179487 1.62481680190558e-06 0.0454964952701583 0.143765415449408 0.132846646540603 0.148314902494744 0.00910059890747318 0.0782528019965749 0.0400371108157555 0.0209292652253458 0.0200193678162787 1.62481680190558e-06 0.12499507660798 0.0625008205653367 0.073529218690509 0.0477962897317736 0.025739493481429 0.113966678482808 0.110290545774417 0.128671209316371 6.56452269355495e-06 0.136023474733152 0.0625008205653367 0.0845576168156813 0.0294156261898197 6.56452269355495e-06 0.438889911512486 0.0292247901671262 0.0159412259211677 9.48826017568463e-07 0.0228486793290661 0.199785755085233 0.0797023343017684 0.0733262234637084 0.00372034681488594 0.0866097877096668 0.0255053921782578 0.013284513071976 0.0111591427926227 9.48826017568463e-07 0.233606682470723 0.0199466867439234 0.0256442866299714 0.116805884806739 0.0313418865160194 0.253548282071892 0.102561885091619 0.0512834861171874 5.0871427554e-06 0.0541322860602114 0.0142490868578754 0.0826202854904514 0.0142490868578754 5.0871427554e-06 0.256458504913819 0.069286508326347 0.0310248294659246 0.00103594603478267 0.0413658237525252 0.144775766618532 0.0941048946141886 0.165457755191733 0.006206443178083 0.0568773151824262 0.0672183094690269 0.0320589288945846 0.0341271277519048 1.84660612260726e-06 0.112493583591849 0.056252371281273 0.0125092061508246 0.0312562769210168 0.0250072533309528 0.112493583591849 0.0625013948713371 0.218726984622938 1.1158970696543e-05 0.056252371281273 0.0437543241011449 0.243723078983195 0.0250072533309528 1.1158970696543e-05 0.260297108985982 0.0618562868740048 0.0231989838651781 4.60205988200318e-06 0.0283532909330216 0.180405349434407 0.0902049757471444 0.144325199959502 0.00258175559380379 0.115976511086362 0.036084751534787 0.0309304444669434 0.0257761373990998 4.60205988200318e-06 0.131851532153647 0.0329775964217052 0.0439635892808098 0.0110056107034959 0.0329775964217052 0.164809510730961 0.131851532153647 0.131851532153647 1.96178443912583e-05 0.208753482167379 0.0439635892808098 0.0659355749990191 1.96178443912583e-05 1.96178443912583e-05 0.500839219097441 0.0205853706346824 0.00514863979123659 3.06284342131862e-06 0.0102942167390519 0.221262871599478 0.0668955631650199 0.0394524861100051 3.06284342131862e-06 0.106344986431604 0.0120094090549903 0.0120094090549903 0.00514863979123659 3.06284342131862e-06 0.298785242335946 2.05195551360446e-05 0.011511470431321 0.0804571756884311 0.011511470431321 0.264312389707391 0.0344933721836911 0.0574752739360611 2.05195551360446e-05 0.160893831821726 0.0344933721836911 0.0344933721836911 0.011511470431321 2.05195551360446e-05 0.397978992616217 0.019430096717163 1.73328249038028e-05 1.73328249038028e-05 0.00972371477103338 0.262089645370402 0.116493916178459 0.019430096717163 1.73328249038028e-05 0.135906680070718 1.73328249038028e-05 0.0291364786632925 0.00972371477103338 1.73328249038028e-05 0.192191574035954 6.86153423905585e-05 6.86153423905585e-05 0.115342390558529 0.0384932070811033 0.192191574035954 6.86153423905585e-05 0.0384932070811033 6.86153423905585e-05 0.345889940990806 6.86153423905585e-05 0.0769177988198161 6.86153423905585e-05 6.86153423905585e-05 0.374191185908326 0.0232583599477527 0.0105740409371296 3.77509494363783e-06 0.0190302536108783 0.24311988946522 0.095136167674617 0.0465129448005617 0.0063459346002552 0.154329656390858 0.00845998776869238 0.00845998776869238 0.0105740409371296 3.77509494363783e-06 0.23073093693137 0.00963023998352045 0.00963023998352045 0.0384694613245442 1.71662031791808e-05 0.201891715590346 0.105760977786933 0.0480825351048855 1.71662031791808e-05 0.259570158272393 0.0576956088852268 0.0384694613245442 1.71662031791808e-05 1.71662031791808e-05 0.359669553311172 0.0494082025873933 0.0217415853254004 0.00197971585254822 0.0355748939563968 0.193669849739214 0.114622371847805 0.104741437111379 0.00395590279983344 0.0533605764819638 0.0256939592199708 0.0158130244835447 0.0197653983781151 3.52890526300931e-06 0.265761287115289 0.0379852668685317 0.0126768201744475 0.0506394902155737 0.0126768201744475 0.265761287115289 0.0632937135626158 0.0759479369096579 2.25968274054323e-05 0.101256383603742 0.0253310435214896 0.0886021602567 2.25968274054323e-05 2.25968274054323e-05 0.202092908421013 0.0531963383598587 0.0212899304896114 0.010654461199529 0.0425608690697763 0.127644623390436 0.106373684810271 0.127644623390436 1.89919094465758e-05 0.106373684810271 0.0531963383598587 0.117009154100353 0.0319253997796939 1.89919094465758e-05 0.0714285714285714 0.0714285714285714 0.0714285714285714 0.0714285714285714 0.0714285714285714 0.0714285714285714 0.0714285714285714 0.0714285714285714 0.0714285714285714 0.0714285714285714 0.0714285714285714 0.0714285714285714 0.0714285714285714 0.0714285714285714 0.145978599449998 0.0656939538884617 0.0364995373206303 0.0292009331786724 0.0255516311076935 0.142329297379019 0.156926505662935 0.145978599449998 6.51661084103379e-06 0.0875897663143352 0.0401488393916092 0.116784182882167 0.00730512075279888 6.51661084103379e-06 0.0714285714285714 0.0714285714285714 0.0714285714285714 0.0714285714285714 0.0714285714285714 0.0714285714285714 0.0714285714285714 0.0714285714285714 0.0714285714285714 0.0714285714285714 0.0714285714285714 0.0714285714285714 0.0714285714285714 0.0714285714285714 0.355871939964293 0.016960692347263 0.016960692347263 0.0593245982993918 0.0423790359185403 0.245725784488758 0.050851817108966 0.0254334735376887 1.51299664114746e-05 0.127106847822798 0.016960692347263 0.016960692347263 0.0254334735376887 1.51299664114746e-05 0.0714285714285714 0.0714285714285714 0.0714285714285714 0.0714285714285714 0.0714285714285714 0.0714285714285714 0.0714285714285714 0.0714285714285714 0.0714285714285714 0.0714285714285714 0.0714285714285714 0.0714285714285714 0.0714285714285714 0.0714285714285714 0.555107704506409 6.60763843002511e-05 6.60763843002511e-05 6.60763843002511e-05 6.60763843002511e-05 6.60763843002511e-05 0.111074402008722 0.0370688515924409 6.60763843002511e-05 0.222082727633144 6.60763843002511e-05 6.60763843002511e-05 0.0740716268005815 6.60763843002511e-05 0.0714285714285714 0.0714285714285714 0.0714285714285714 0.0714285714285714 0.0714285714285714 0.0714285714285714 0.0714285714285714 0.0714285714285714 0.0714285714285714 0.0714285714285714 0.0714285714285714 0.0714285714285714 0.0714285714285714 0.0714285714285714 0.181567865241335 0.000161969549724652 0.0908649173955296 0.000161969549724652 0.000161969549724652 0.181567865241335 0.0908649173955296 0.000161969549724652 0.0908649173955296 0.27227081308714 0.0908649173955296 0.000161969549724652 0.000161969549724652 0.000161969549724652 0.0714285714285714 0.0714285714285714 0.0714285714285714 0.0714285714285714 0.0714285714285714 0.0714285714285714 0.0714285714285714 0.0714285714285714 0.0714285714285714 0.0714285714285714 0.0714285714285714 0.0714285714285714 0.0714285714285714 0.0714285714285714 0.22845926379117 5.09839910268176e-05 5.09839910268176e-05 0.0571530539410625 0.0571530539410625 0.314112368716223 0.0286020189660447 0.142806158866116 5.09839910268176e-05 0.0857040889160804 0.0286020189660447 0.0571530539410625 5.09839910268176e-05 5.09839910268176e-05 0.0714285714285714 0.0714285714285714 0.0714285714285714 0.0714285714285714 0.0714285714285714 0.0714285714285714 0.0714285714285714 0.0714285714285714 0.0714285714285714 0.0714285714285714 0.0714285714285714 0.0714285714285714 0.0714285714285714 0.0714285714285714 0.988536155202822 0.000881834215167548 0.000881834215167548 0.000881834215167548 0.000881834215167548 0.000881834215167548 0.000881834215167548 0.000881834215167548 0.000881834215167548 0.000881834215167548 0.000881834215167548 0.000881834215167548 0.000881834215167548 0.000881834215167548 0.0714285714285714 0.0714285714285714 0.0714285714285714 0.0714285714285714 0.0714285714285714 0.0714285714285714 0.0714285714285714 0.0714285714285714 0.0714285714285714 0.0714285714285714 0.0714285714285714 0.0714285714285714 0.0714285714285714 0.0714285714285714 0.284951703101169 0.00025419420437214 0.00025419420437214 0.00025419420437214 0.00025419420437214 0.284951703101169 0.00025419420437214 0.00025419420437214 0.00025419420437214 0.427300457549568 0.00025419420437214 0.00025419420437214 0.00025419420437214 0.00025419420437214 0.0714285714285714 0.0714285714285714 0.0714285714285714 0.0714285714285714 0.0714285714285714 0.0714285714285714 0.0714285714285714 0.0714285714285714 0.0714285714285714 0.0714285714285714 0.0714285714285714 0.0714285714285714 0.0714285714285714 0.0714285714285714 </TABLE>
</DEFINITION>

<DEFINITION>
	<FOR>v21</FOR>
	<GIVEN>v93</GIVEN>
	<GIVEN>v26</GIVEN>
	<GIVEN>v25</GIVEN>
	<TABLE>0.99999832798847 1.67201153019151e-06 0.5 0.5 0.5 0.5 0.5 0.5 0.967449317723139 0.0325506822768615 0.911917302098892 0.0880826979011084 0.899497564412855 0.100502435587145 0.790655427990118 0.209344572009882 0.999998959376125 1.04062387482544e-06 0.999972468476406 2.75315235945157e-05 0.999979441634801 2.05583651987994e-05 0.999877481009556 0.000122518990443519 0.92606744851989 0.0739325514801102 0.873545328288875 0.126454671711125 0.882497086572692 0.117502913427308 0.769896576516786 0.230103423483214 0.936940860884114 0.0630591391158861 0.821010393369294 0.178989606630707 0.843956384912016 0.156043615087984 0.688862657964172 0.311137342035828 0.999996814495321 3.18550467950637e-06 0.999924710134016 7.52898659840386e-05 0.999959939107443 4.00608925566862e-05 0.999804763764155 0.000195236235845373 0.840637049761518 0.159362950238482 0.699964292090698 0.300035707909302 0.760857751007654 0.239142248992346 0.618541425074088 0.381458574925912 0.8448127235895 0.1551872764105 0.882072005878031 0.117927994121969 0.742401287756841 0.257598712243159 0.549984379881287 0.450015620118713 0.999989205759807 1.07942401934328e-05 0.999716070414537 0.000283929585462805 0.999890374917781 0.000109625082218812 0.999479708636837 0.000520291363163372 0.99994370003378 5.62999662200203e-05 0.998753117206983 0.00124688279301746 0.999375780274657 0.000624219725343321 0.99792531120332 0.0020746887966805 0.999986979505742 1.3020494257962e-05 0.999687695190506 0.000312304809494066 0.999902362819762 9.76371802382347e-05 0.999519692603266 0.00048030739673391 0.945688753146121 0.0543112468538786 0.962748727440999 0.0372512725590005 0.734011434649648 0.265988565350352 0.636286201022147 0.363713798977853 0.874916313322919 0.125083686677081 0.5 0.5 0.7776492364646 0.2223507635354 0.666435506241332 0.333564493758669 0.957796852646638 0.0422031473533619 0.841880341880342 0.158119658119658 0.896985848189671 0.103014151810329 0.618976799524093 0.381023200475907 0.999934904309335 6.5095690665278e-05 0.999219968798752 0.00078003120124805 0.999519692603266 0.00048030739673391 0.993827160493827 0.00617283950617284 0.999759730898606 0.000240269101393561 0.5 0.5 0.5 0.5 0.993827160493827 0.00617283950617284 0.250390015600624 0.749609984399376 0.996894409937888 0.0031055900621118 0.993827160493827 0.00617283950617284 0.5 0.5 0.999750124937531 0.000249875062468766 0.993827160493827 0.00617283950617284 0.999219968798752 0.00078003120124805 0.993827160493827 0.00617283950617284 0.5 0.5 0.5 0.5 0.996894409937888 0.0031055900621118 0.5 0.5 0.998960498960499 0.00103950103950104 0.5 0.5 0.993827160493827 0.00617283950617284 0.5 0.5 </TABLE>
</DEFINITION>

<DEFINITION>
	<FOR>v23</FOR>
	<GIVEN>v93</GIVEN>
	<GIVEN>v30</GIVEN>
	<TABLE>0.999993989716405 3.00514179761572e-06 3.00514179761572e-06 0.99998272929026 8.63535486990838e-06 8.63535486990838e-06 0.725323383689228 0.274672565152749 4.05115802352102e-06 8.9507084485737e-06 0.999982098583103 8.9507084485737e-06 0.71478356599829 1.82267886403362e-06 0.285214611322846 4.13354662433915e-06 4.13354662433915e-06 0.999991732906751 0.740343582835707 0.259652881633981 3.53553031186913e-06 8.59970932982465e-06 0.99998280058134 8.59970932982465e-06 0.401895175750503 0.598098746071978 6.07817751925263e-06 0.333333333333333 0.333333333333333 0.333333333333333 0.738207120443748 5.16948144931582e-06 0.261787710074802 1.34186761134147e-05 1.34186761134147e-05 0.999973162647773 0.738953164570264 0.261036327143953 1.05082857833402e-05 2.49482324177332e-05 0.999950103535165 2.49482324177332e-05 0.40709427134979 0.592888332202564 1.73964476453908e-05 0.333333333333333 0.333333333333333 0.333333333333333 0.716832387693575 1.87255397636837e-05 0.283148886766661 3.70329222678962e-05 3.70329222678962e-05 0.999925934155464 0.395336821029516 6.45869663501905e-05 0.604598592004134 0.333333333333333 0.333333333333333 0.333333333333333 0.39687766272403 1.44418930433401e-05 0.603107895382927 0.333333333333333 0.333333333333333 0.333333333333333 0.725745129326478 0.274235171286173 1.96993873490534e-05 5.14323921205575e-05 0.999897135215759 5.14323921205575e-05 0.333333333333333 0.333333333333333 0.333333333333333 8.86289107506869e-05 0.999822742178499 8.86289107506869e-05 0.333333333333333 0.333333333333333 0.333333333333333 3.0410850591491e-05 0.999939178298817 3.0410850591491e-05 0.333333333333333 0.333333333333333 0.333333333333333 7.06065099202146e-05 7.06065099202146e-05 0.99985878698016 0.999383287079864 0.000308356460067838 0.000308356460067838 0.333333333333333 0.333333333333333 0.333333333333333 0.99848828420257 0.000755857898715041 0.000755857898715041 0.333333333333333 0.333333333333333 0.333333333333333 0.333333333333333 0.333333333333333 0.333333333333333 0.000237925291458482 0.000237925291458482 0.999524149417083 0.991769547325103 0.00411522633744856 0.00411522633744856 0.333333333333333 0.333333333333333 0.333333333333333 0.997627520759193 0.00118623962040332 0.00118623962040332 0.333333333333333 0.333333333333333 0.333333333333333 </TABLE>
</DEFINITION>

<DEFINITION>
	<FOR>v24</FOR>
	<GIVEN>v33</GIVEN>
	<GIVEN>v1</GIVEN>
	<TABLE>0.999429310267957 8.91702706317714e-06 8.91702706317714e-06 8.91702706317714e-06 0.000543938650853805 3.48304627226973e-06 0.992253705090472 3.48304627226973e-06 0.00773584577071106 3.48304627226973e-06 3.21001524757243e-06 3.21001524757243e-06 0.999794559024155 0.000195810930101918 3.21001524757243e-06 0.2 0.2 0.2 0.2 0.2 4.85083676934271e-05 0.951782682512733 4.85083676934271e-05 0.0480717923841863 4.85083676934271e-05 0.2 0.2 0.2 0.2 0.2 </TABLE>
</DEFINITION>

<DEFINITION>
	<FOR>v25</FOR>
	<GIVEN>v93</GIVEN>
	<GIVEN>v38</GIVEN>
	<TABLE>0.999997770653778 2.22934622192696e-06 0.5 0.5 0.5 0.5 0.943224989447024 0.0567750105529759 0.90908506167722 0.0909149383227798 0.890684621255016 0.109315378744984 0.964706716812965 0.0352932831870349 0.946661442556227 0.0533385574437726 0.907494822022061 0.0925051779779394 0.911186999892077 0.0888130001079231 0.85628298050174 0.14371701949826 0.781072954291267 0.218927045708733 0.899567658031449 0.100432341968551 0.871075166508088 0.128924833491912 0.808556735393553 0.191443264606447 0.947323208888777 0.0526767911112226 0.956106912524102 0.0438930874758981 0.921006468588971 0.0789935314110295 0.867194523200332 0.132805476799668 0.866345378441688 0.133654621558312 0.829633863058147 0.170366136941853 0.932781992289516 0.0672180077104838 0.902666426448068 0.0973335735519323 0.812467451307156 0.187532548692844 0.953183366856861 0.0468166331431386 0.963310356862403 0.0366896431375971 0.890321844327779 0.109678155672221 0.949906269527182 0.0500937304728182 0.940960313571779 0.0590396864282215 0.866259711431743 0.133740288568258 0.958656627335751 0.0413433726642487 0.93784287340855 0.0621571265914502 0.848946872052814 0.151053127947186 0.924656579039119 0.0753434209608814 0.921916917323795 0.0780830826762052 0.893570499940905 0.106429500059095 0.817940953822861 0.182059046177139 0.948526270824434 0.051473729175566 0.848308934881373 0.151691065118627 0.822716726429023 0.177283273570977 0.899948724522497 0.100051275477503 0.799923096641887 0.200076903358113 0.971720253461629 0.0282797465383713 0.833201110670369 0.166798889329631 0.998338870431894 0.00166112956810631 0.940744368266406 0.0592556317335945 0.999075785582255 0.000924214417744917 0.991803278688525 0.00819672131147541 0.995867768595041 0.00413223140495868 0.874220374220374 0.125779625779626 0.00819672131147541 0.991803278688525 0.944033302497687 0.0559666975023127 0.998960498960499 0.00103950103950104 0.888170055452865 0.111829944547135 0.5 0.5 0.995867768595041 0.00413223140495868 0.5 0.5 0.997925311203319 0.0020746887966805 0.997237569060774 0.00276243093922652 0.5 0.5 </TABLE>
</DEFINITION>

<DEFINITION>
	<FOR>v26</FOR>
	<GIVEN>v93</GIVEN>
	<GIVEN>v38</GIVEN>
	<GIVEN>v25</GIVEN>
	<TABLE>0.999998885324404 1.11467559596131e-06 0.5 0.5 0.5 0.5 0.5 0.5 0.5 0.5 0.5 0.5 0.891663644570644 0.108336355429356 0.692283040635816 0.307716959364184 0.805657974386994 0.194342025613006 0.660364751198805 0.339635248801195 0.859033180857091 0.140966819142908 0.594583943249634 0.405416056750366 0.960403736454099 0.0395962635459014 0.870570070094603 0.129429929905397 0.938470234307918 0.0615297656920825 0.723659686437891 0.276340313562109 0.88215546296542 0.11784453703458 0.749934912783129 0.250065087216871 0.840606255446231 0.159393744553769 0.708315250412291 0.291684749587709 0.685313335421508 0.314686664578492 0.526040536435051 0.473959463564949 0.625350641424396 0.374649358575604 0.462313135965831 0.537686864034169 0.797668649832368 0.202331350167632 0.604148585315049 0.395851414684951 0.807605574249925 0.192394425750075 0.47143197238424 0.52856802761576 0.632504932128029 0.367495067871971 0.49253824151225 0.50746175848775 0.934071789305075 0.0659282106949252 0.7142602071182 0.2857397928818 0.924890763899352 0.0751092361006479 0.757510729613734 0.242489270386266 0.864264031902863 0.135735968097137 0.666551006245663 0.333448993754337 0.822953630238029 0.177046369761971 0.593725592293673 0.406274407706327 0.731377850668203 0.268622149331797 0.379327682804195 0.620672317195805 0.63199706673185 0.36800293326815 0.37663672762688 0.62336327237312 0.735984267715486 0.264015732284514 0.444495837187789 0.555504162812211 0.748490594281722 0.251509405718278 0.33341045812124 0.66658954187876 0.56153451701814 0.43846548298186 0.23340738683699 0.76659261316301 0.914719751943326 0.0852802480566741 0.684129767645769 0.315870232354231 0.929328381866763 0.0706716181332367 0.571343638525565 0.428656361474435 0.830726829893603 0.169273170106397 0.624869927159209 0.375130072840791 0.934162920732376 0.0658370792676242 0.5 0.5 0.843660505076803 0.156339494923197 0.5 0.5 0.999679692504805 0.000320307495195388 0.997925311203319 0.0020746887966805 0.896542228394914 0.103457771605086 0.799833425874514 0.200166574125486 0.867529385795486 0.132470614204514 0.599916736053289 0.400083263946711 0.822162562488428 0.177837437511572 0.250260145681582 0.749739854318418 0.882338524188379 0.117661475811621 0.66658954187876 0.33341045812124 0.804219390679423 0.195780609320577 0.5 0.5 0.753951458236889 0.246048541763111 0.466685174902832 0.533314825097168 0.94423877834336 0.0557612216566404 0.00103950103950104 0.998960498960499 0.594573294303085 0.405426705696915 0.5 0.5 0.607110978875335 0.392889021124665 0.200499168053245 0.799500831946755 0.769196256890142 0.230803743109858 0.642772159428911 0.357227840571089 0.709386795812264 0.290613204187736 0.230941704035874 0.769058295964126 0.634593815093735 0.365406184906265 0.538436899423447 0.461563100576553 0.884011592802802 0.115988407197198 0.997925311203319 0.0020746887966805 0.914187098309926 0.0858129016900738 0.856718192627824 0.143281807372176 0.599833610648918 0.400166389351082 0.5 0.5 0.999739718896408 0.000260281103591879 0.00413223140495868 0.995867768595041 0.999537465309898 0.000462534690101758 0.5 0.5 0.995867768595041 0.00413223140495868 0.5 0.5 0.997925311203319 0.0020746887966805 0.5 0.5 0.856718192627824 0.143281807372176 0.995867768595041 0.00413223140495868 0.5 0.5 0.995867768595041 0.00413223140495868 0.882165605095541 0.117834394904459 0.995867768595041 0.00413223140495868 0.624869927159209 0.375130072840791 0.5 0.5 0.624869927159209 0.375130072840791 0.00413223140495868 0.995867768595041 0.5 0.5 0.5 0.5 0.0020746887966805 0.997925311203319 0.5 0.5 0.5 0.5 0.5 0.5 0.749480249480249 0.250519750519751 0.5 0.5 0.998614958448753 0.00138504155124654 0.5 0.5 0.5 0.5 0.5 0.5 </TABLE>
</DEFINITION>

<DEFINITION>
	<FOR>v27</FOR>
	<GIVEN>v93</GIVEN>
	<TABLE>0.999991082694631 4.45865268433185e-06 4.45865268433185e-06 0.999988844452625 5.57777368741041e-06 5.57777368741041e-06 0.999994940333887 2.52983305631661e-06 2.52983305631661e-06 0.999989978102153 5.01094892339762e-06 5.01094892339762e-06 0.999975687733246 1.21561333770954e-05 1.21561333770954e-05 0.999985072733108 7.4636334460342e-06 7.4636334460342e-06 1.47878680330657e-05 0.999970424263934 1.47878680330657e-05 3.4791079567199e-05 0.999930417840866 3.4791079567199e-05 2.48737656393801e-05 2.48737656393801e-05 0.999950252468721 0.000129148908691722 0.000129148908691722 0.999741702182617 0.999942234930538 2.8882534731248e-05 2.8882534731248e-05 2.84875936529641e-05 0.999943024812694 2.84875936529641e-05 0.000177210703526493 0.999645578592947 0.000177210703526493 0.99987836769446 6.08161527701758e-05 6.08161527701758e-05 0.999717633771001 0.000141183114499506 0.000141183114499506 0.998767714109673 0.000616142945163278 0.000616142945163278 0.996983408748115 0.00150829562594268 0.00150829562594268 0.000475511174512601 0.000475511174512601 0.999048977650975 0.00813008130081301 0.983739837398374 0.00813008130081301 0.00236406619385343 0.00236406619385343 0.995271867612293 </TABLE>
</DEFINITION>

<DEFINITION>
	<FOR>v28</FOR>
	<GIVEN>v93</GIVEN>
	<GIVEN>v38</GIVEN>
	<TABLE>0.999997027538371 1.48623081461797e-06 1.48623081461797e-06 0.333333333333333 0.333333333333333 0.333333333333333 0.333333333333333 0.333333333333333 0.333333333333333 4.85194296055856e-06 0.999990296114079 4.85194296055856e-06 4.76455930208735e-06 0.999990470881396 4.76455930208735e-06 8.20593617422844e-06 0.999983588127652 8.20593617422844e-06 1.15331873231818e-06 0.14179015826993 0.858208688411338 3.89858988004039e-06 0.243509822497203 0.756486278912917 1.60557455485445e-05 0.456641459146156 0.543342485108296 5.13919509926355e-06 0.999989721609801 5.13919509926355e-06 4.15829809175701e-06 0.999991683403816 4.15829809175701e-06 6.11161022594623e-06 0.999987776779548 6.11161022594623e-06 1.16220959287798e-05 0.999976755808142 1.16220959287798e-05 1.02309116765395e-05 0.999979538176647 1.02309116765395e-05 1.58722600511087e-05 0.999968255479898 1.58722600511087e-05 4.18020006437508e-06 0.161025486679792 0.838970333120143 7.38754312478299e-06 0.371009803269727 0.628982809187149 3.65457003983481e-05 0.361838979644045 0.638124474655557 2.30505036535048e-05 0.999953898992693 2.30505036535048e-05 1.28003276883888e-05 0.999974399344623 1.28003276883888e-05 1.22905989208854e-05 0.999975418802158 1.22905989208854e-05 4.14542138208349e-05 0.999917091572358 4.14542138208349e-05 3.00273248656277e-05 0.999939945350269 3.00273248656277e-05 3.47186057007951e-05 0.999930562788598 3.47186057007951e-05 1.3683072670799e-05 0.0960688532216795 0.90391746370565 2.90841404182299e-05 0.361254108134834 0.638716807724748 7.60861294985924e-05 0.301377158943925 0.698546754926577 6.94299798653058e-05 0.100048600985906 0.899881969034229 0.000163318634656214 0.0883553813490119 0.911481300016332 0.000369959304476508 0.333333333333333 0.66629670736219 1.53038581026277e-05 0.0743920542368731 0.925592641905024 3.450298450816e-05 0.186350619328572 0.81361487768692 0.00010478885046631 0.283034685109504 0.716860526040029 2.32433814471329e-05 0.999953513237106 2.32433814471329e-05 2.70980679077582e-05 0.999945803864184 2.70980679077582e-05 3.93964464405311e-05 0.999921207107119 3.93964464405311e-05 0.000252334090335604 0.999495331819329 0.000252334090335604 0.000142389292325217 0.99971522141535 0.000142389292325217 0.00016826518593303 0.999663469628134 0.00016826518593303 7.03086549954299e-05 0.999859382690009 7.03086549954299e-05 4.27295645857369e-05 0.999914540870828 4.27295645857369e-05 8.54481756814492e-05 0.999829103648637 8.54481756814492e-05 7.82288977548306e-05 0.0986466400688414 0.901275131033404 0.000132222662964432 0.214332936665344 0.785534840671691 0.00110741971207087 0.00110741971207087 0.997785160575858 0.000326477309826967 0.000326477309826967 0.999347045380346 0.000616142945163278 0.000616142945163278 0.998767714109673 0.00546448087431694 0.00546448087431694 0.989071038251366 0.00275482093663912 0.994490358126722 0.00275482093663912 0.000693000693000693 0.998613998613999 0.000693000693000693 0.00546448087431694 0.989071038251366 0.00546448087431694 0.000308356460067838 0.166820844896701 0.832870798643232 0.000693000693000693 0.125433125433125 0.873873873873874 0.000616142945163278 0.111521873074553 0.887861983980283 0.333333333333333 0.333333333333333 0.333333333333333 0.00275482093663912 0.994490358126722 0.00275482093663912 0.333333333333333 0.333333333333333 0.333333333333333 0.00138312586445367 0.00138312586445367 0.997233748271093 0.00184162062615101 0.00184162062615101 0.996316758747698 0.333333333333333 0.333333333333333 0.333333333333333 </TABLE>
</DEFINITION>

<DEFINITION>
	<FOR>v29</FOR>
	<GIVEN>v93</GIVEN>
	<TABLE>0.999993312020974 6.68797902649777e-06 0.999991633339469 8.36666053111561e-06 0.999996205250416 3.79474958447492e-06 0.999992483576615 7.51642338509644e-06 0.999981765799934 1.82342000656431e-05 0.999988804549831 1.11954501690513e-05 0.99997781819795 2.21818020495985e-05 0.999947813380649 5.21866193507985e-05 0.999962689351541 3.73106484590702e-05 0.999806276636962 0.000193723363037582 0.999956676197903 4.3323802096872e-05 0.999957268609521 4.27313904794462e-05 0.000265816055289739 0.99973418394471 9.12242291552637e-05 0.999908775770845 0.000211774671749259 0.999788225328251 0.999075785582255 0.000924214417744917 0.997737556561086 0.00226244343891403 0.000713266761768902 0.999286733238231 0.98780487804878 0.0121951219512195 0.99645390070922 0.00354609929078014 </TABLE>
</DEFINITION>

<DEFINITION>
	<FOR>v30</FOR>
	<GIVEN>v52</GIVEN>
	<GIVEN>v51</GIVEN>
	<GIVEN>v93</GIVEN>
	<TABLE>0.502487484841889 0.497512515158111 0.724764198274132 0.275235801725868 0.724943697445397 0.275056302554604 0.712613717673515 0.287386282326485 0.999979575997712 2.04240022874883e-05 0.786355501264169 0.213644498735831 0.632174412757704 0.367825587242296 0.99995192769926 4.80723007403134e-05 0.593740845620545 0.406259154379455 0.999609679937549 0.00039032006245121 0.999934904309335 6.5095690665278e-05 0.594578618476609 0.405421381523391 0.000312304809494066 0.999687695190506 8.44451950684006e-05 0.999915554804932 0.00039032006245121 0.999609679937549 0.998960498960499 0.00103950103950104 0.998442367601246 0.00155763239875389 0.00103950103950104 0.998960498960499 0.5 0.5 0.996894409937888 0.0031055900621118 0.8096863488585 0.1903136511415 0.693677130499083 0.306322869500917 0.642399015728685 0.357600984271315 0.730822803701124 0.269177196298876 0.999989984174996 1.00158250035055e-05 0.711997350033125 0.288002649966875 0.738685970917999 0.261314029082001 0.999969061320463 3.09386795371574e-05 0.644289249612013 0.355710750387987 0.999879836577746 0.000120163422254266 0.999976504863493 2.34951365067431e-05 0.66916498284855 0.33083501715145 0.000135832654170062 0.99986416734583 6.79255535932618e-05 0.999932074446407 0.000111582236108012 0.999888417763892 0.998960498960499 0.00103950103950104 0.5 0.5 0.000283929585462805 0.999716070414537 0.998442367601246 0.00155763239875389 0.998442367601246 0.00155763239875389 0.5 0.5 0.5 0.5 0.5 0.5 0.5 0.5 0.5 0.5 0.5 0.5 0.5 0.5 0.5 0.5 0.5 0.5 0.5 0.5 0.5 0.5 0.5 0.5 0.5 0.5 0.5 0.5 0.5 0.5 0.5 0.5 0.5 0.5 0.5 0.5 0.5 0.5 0.5 0.5 0.554381900858627 0.445618099141373 0.663314873169251 0.336685126830749 0.708808070921335 0.291191929078665 0.700466064098439 0.299533935901561 0.999990079561913 9.9204380865459e-06 0.71276124199375 0.28723875800625 0.721305806716017 0.278694193283983 0.999965280188876 3.47198111242275e-05 0.677676772893962 0.322323227106038 0.999888417763892 0.000111582236108012 0.999968114278426 3.18857215738792e-05 0.737215455499293 0.262784544500707 0.000183755972069092 0.999816244027931 7.26638569975294e-05 0.999927336143003 0.000173550850399167 0.999826449149601 0.998442367601246 0.00155763239875389 0.998960498960499 0.00103950103950104 0.000520291363163372 0.999479708636837 0.5 0.5 0.998960498960499 0.00103950103950104 0.655721749820715 0.344278250179285 0.662324486648811 0.337675513351189 0.637093319220786 0.362906680779214 0.846756715891336 0.153243284108664 0.99994612649499 5.3873505010236e-05 0.73194381805296 0.26805618194704 0.792418346893055 0.207581653106945 0.999902362819762 9.76371802382347e-05 0.639965008747813 0.360034991252187 0.999479708636837 0.000520291363163372 0.999804763764155 0.000195236235845373 0.866513952519783 0.133486047480217 0.00078003120124805 0.999219968798752 0.000446030330062444 0.999553969669938 0.000520291363163372 0.999479708636837 0.5 0.5 0.5 0.5 0.5 0.5 0.5 0.5 0.5 0.5 0.5 0.5 0.5 0.5 0.5 0.5 0.5 0.5 0.5 0.5 0.5 0.5 0.5 0.5 0.5 0.5 0.5 0.5 0.5 0.5 0.5 0.5 0.5 0.5 0.5 0.5 0.5 0.5 0.5 0.5 0.5 0.5 0.5 0.5 0.5 0.5 0.5 0.5 0.5 0.5 0.799210757807838 0.200789242192162 0.714947684843983 0.285052315156017 0.716821413611258 0.283178586388742 0.659186971240844 0.340813028759156 0.999990699577761 9.30042223916966e-06 0.711755596115707 0.288244403884293 0.657057689883107 0.342942310116893 0.999976146176232 2.385382376795e-05 0.658286485977199 0.341713514022801 0.999932074446407 6.79255535932618e-05 0.999984375488266 1.56245117340083e-05 0.734930913745717 0.265069086254283 0.000164419598816179 0.999835580401184 3.32424705804135e-05 0.99996675752942 9.18948722661276e-05 0.999908105127734 0.999804763764155 0.000195236235845373 0.999219968798752 0.00078003120124805 0.000446030330062444 0.999553969669938 0.5 0.5 0.5 0.5 0.917952612687571 0.0820473873124293 0.631838746288149 0.368161253711851 0.721479430746012 0.278520569253988 0.743080001482195 0.256919998517805 0.999984137559088 1.58624409124076e-05 0.723028006049452 0.276971993950548 0.736033120776625 0.263966879223375 0.999947922091449 5.20779085511926e-05 0.732129903465208 0.267870096534792 0.999791753436068 0.000208246563931695 0.999961893148388 3.81068516119198e-05 0.783486888731396 0.216513111268604 0.000148765248437965 0.999851234751562 6.64805212072863e-05 0.999933519478793 0.000130174433741213 0.999869825566259 0.998960498960499 0.00103950103950104 0.998442367601246 0.00155763239875389 0.00039032006245121 0.999609679937549 0.5 0.5 0.996894409937888 0.0031055900621118 </TABLE>
</DEFINITION>

<DEFINITION>
	<FOR>v31</FOR>
	<GIVEN>v10</GIVEN>
	<TABLE>0.999982297751814 1.77022481855196e-05 2.43724104313917e-05 0.999975627589569 </TABLE>
</DEFINITION>

<DEFINITION>
	<FOR>v32</FOR>
	<GIVEN>v28</GIVEN>
	<TABLE>0.99995541685243 4.45831475702185e-05 1.36250919693708e-05 0.999986374908031 0.999980180751546 1.98192484540986e-05 </TABLE>
</DEFINITION>

<DEFINITION>
	<FOR>v33</FOR>
	<GIVEN>v93</GIVEN>
	<GIVEN>v26</GIVEN>
	<GIVEN>v21</GIVEN>
	<TABLE>0.99999832798847 1.67201153019151e-06 0.5 0.5 0.5 0.5 0.5 0.5 0.985022436447398 0.0149775635526022 0.922163588390501 0.0778364116094987 0.94711358868998 0.0528864113100198 0.915166278330862 0.0848337216691379 0.999998997274592 1.00272540765801e-06 0.5 0.5 0.999982394986092 1.7605013907961e-05 0.5 0.5 0.958721513124337 0.0412784868756633 0.864840213499088 0.135159786500912 0.88323145619283 0.11676854380717 0.826360558979255 0.173639441020745 0.945939919730814 0.0540600802691856 0.864803242695491 0.135196757304509 0.87665097287613 0.12334902712387 0.749956604756119 0.250043395243881 0.999996943783962 3.05621603779928e-06 0.5 0.5 0.99996675752942 3.32424705804135e-05 0.5 0.5 0.931081108150878 0.0689188918491216 0.807662724738006 0.192337275261994 0.833317901948984 0.166682098051016 0.737835214173037 0.262164785826963 0.923056583818086 0.0769434161819143 0.80842860941239 0.19157139058761 0.816633683991251 0.183366316008749 0.73071377072819 0.26928622927181 0.999989600881845 1.03991181547805e-05 0.5 0.5 0.999909436696251 9.05633037493208e-05 0.5 0.5 0.99994612649499 5.3873505010236e-05 0.5 0.5 0.999519692603266 0.00048030739673391 0.5 0.5 0.999987500312492 1.24996875078123e-05 0.5 0.5 0.999918844343451 8.11556565492615e-05 0.5 0.5 0.966203091129191 0.0337969088708088 0.879810094952524 0.120189905047476 0.915600060231893 0.0843999397681072 0.878644452858766 0.121355547141234 0.899900024993752 0.100099975006248 0.749609984399376 0.250390015600624 0.81466913465988 0.18533086534012 0.999306518723994 0.000693481276005548 0.977108777944433 0.0228912220555675 0.899500624219725 0.100499375780275 0.891825705117379 0.108174294882621 0.799750208159867 0.200249791840133 0.999939911068381 6.00889316187958e-05 0.5 0.5 0.999553969669938 0.000446030330062444 0.5 0.5 0.999759730898606 0.000240269101393561 0.5 0.5 0.993827160493827 0.00617283950617284 0.5 0.5 0.998442367601246 0.00155763239875389 0.998960498960499 0.00103950103950104 0.993827160493827 0.00617283950617284 0.5 0.5 0.999759730898606 0.000240269101393561 0.5 0.5 0.999306518723994 0.000693481276005548 0.5 0.5 0.5 0.5 0.5 0.5 0.996894409937888 0.0031055900621118 0.5 0.5 0.998960498960499 0.00103950103950104 0.5 0.5 0.993827160493827 0.00617283950617284 0.5 0.5 </TABLE>
</DEFINITION>

<DEFINITION>
	<FOR>v34</FOR>
	<GIVEN>v93</GIVEN>
	<GIVEN>v30</GIVEN>
	<GIVEN>v23</GIVEN>
	<TABLE>0.99999849742007 1.50257992973936e-06 0.5 0.5 0.5 0.5 0.567875061527966 0.432124938472034 0.5 0.5 0.5 0.5 0.999997207343569 2.79265643064996e-06 0.9999926254775 7.37452249966815e-06 0.5 0.5 0.5 0.5 0.496240635153642 0.503759364846358 0.5 0.5 0.999998725013451 1.27498654889191e-06 0.5 0.5 0.999996804723896 3.19527610380813e-06 0.5 0.5 0.5 0.5 0.470734247956978 0.529265752043022 0.999997612236809 2.38776319119775e-06 0.999993191813837 6.80818616304244e-06 0.5 0.5 0.5 0.5 0.479876334052855 0.520123665947145 0.5 0.5 0.999992438105897 7.56189410323498e-06 0.668290972652717 0.331709027347283 0.5 0.5 0.5 0.5 0.5 0.5 0.5 0.5 0.999996498623959 3.50137604078403e-06 0.5 0.5 0.999990126577279 9.87342272072036e-06 0.5 0.5 0.5 0.5 0.43478348385019 0.56521651614981 0.999992889748439 7.11025156070022e-06 0.99997987198583 2.0128014170122e-05 0.5 0.5 0.5 0.5 0.520957560939098 0.479042439060902 0.5 0.5 0.999978633391735 2.13666082646041e-05 0.679572195651536 0.320427804348464 0.5 0.5 0.5 0.5 0.5 0.5 0.5 0.5 0.999986938690212 1.30613097881456e-05 0.5 0.5 0.999966933403875 3.30665961245949e-05 0.5 0.5 0.5 0.5 0.613329135957927 0.386670864042073 0.99991831400098 8.1685999019768e-05 0.5 0.5 0.666648862301036 0.333351137698964 0.5 0.5 0.5 0.5 0.5 0.5 0.99998180561115 1.81943888504785e-05 0.5 0.5 0.701144608606116 0.298855391393884 0.5 0.5 0.5 0.5 0.5 0.5 0.999986428164274 1.35718357265004e-05 0.999964083040011 3.59169599885066e-05 0.5 0.5 0.5 0.5 0.512345043979219 0.487654956020781 0.5 0.5 0.5 0.5 0.5 0.5 0.5 0.5 0.5 0.5 0.999955677688148 4.43223118517862e-05 0.5 0.5 0.5 0.5 0.5 0.5 0.5 0.5 0.5 0.5 0.999984793649828 1.52063501718318e-05 0.5 0.5 0.5 0.5 0.5 0.5 0.5 0.5 0.5 0.5 0.5 0.5 0.999964691759057 3.53082409434362e-05 0.999845726627584 0.000154273372415921 0.5 0.5 0.5 0.5 0.5 0.5 0.5 0.5 0.5 0.5 0.999621498864497 0.000378501135503407 0.5 0.5 0.5 0.5 0.5 0.5 0.5 0.5 0.5 0.5 0.5 0.5 0.5 0.5 0.5 0.5 0.5 0.5 0.5 0.5 0.999880980718876 0.000119019281123542 0.997925311203319 0.0020746887966805 0.5 0.5 0.5 0.5 0.5 0.5 0.5 0.5 0.5 0.5 0.999405469678954 0.000594530321046373 0.5 0.5 0.5 0.5 0.5 0.5 0.5 0.5 0.5 0.5 </TABLE>
</DEFINITION>

<DEFINITION>
	<FOR>v35</FOR>
	<GIVEN>v10</GIVEN>
	<TABLE>0.999982297751814 1.77022481855196e-05 2.43724104313917e-05 0.999975627589569 </TABLE>
</DEFINITION>

<DEFINITION>
	<FOR>v36</FOR>
	<GIVEN>v93</GIVEN>
	<TABLE>0.999991082694631 4.45865268433185e-06 4.45865268433185e-06 0.999654178031381 5.57777368741041e-06 0.000340244194932035 0.999994940333887 2.52983305631661e-06 2.52983305631661e-06 0.999989978102153 5.01094892339762e-06 5.01094892339762e-06 1.21561333770954e-05 0.999975687733246 1.21561333770954e-05 0.999985072733108 7.4636334460342e-06 7.4636334460342e-06 1.47878680330657e-05 0.999970424263934 1.47878680330657e-05 3.4791079567199e-05 0.999930417840866 3.4791079567199e-05 2.48737656393801e-05 0.999950252468721 2.48737656393801e-05 0.000129148908691722 0.999741702182617 0.000129148908691722 2.8882534731248e-05 0.999942234930538 2.8882534731248e-05 2.84875936529641e-05 0.999943024812694 2.84875936529641e-05 0.000177210703526493 0.999645578592947 0.000177210703526493 0.99987836769446 6.08161527701758e-05 6.08161527701758e-05 0.999717633771001 0.000141183114499506 0.000141183114499506 0.000616142945163278 0.998767714109673 0.000616142945163278 0.00150829562594268 0.996983408748115 0.00150829562594268 0.000475511174512601 0.999048977650975 0.000475511174512601 0.00813008130081301 0.983739837398374 0.00813008130081301 0.00236406619385343 0.995271867612293 0.00236406619385343 </TABLE>
</DEFINITION>

<DEFINITION>
	<FOR>v37</FOR>
	<GIVEN>v10</GIVEN>
	<TABLE>0.999982297751814 1.77022481855196e-05 2.43724104313917e-05 0.999975627589569 </TABLE>
</DEFINITION>

<DEFINITION>
	<FOR>v38</FOR>
	<GIVEN>v34</GIVEN>
	<GIVEN>v7</GIVEN>
	<GIVEN>v4</GIVEN>
	<GIVEN>v1</GIVEN>
	<TABLE>0.999993321913806 3.33904309702925e-06 3.33904309702925e-06 0.333333333333333 0.333333333333333 0.333333333333333 0.333333333333333 0.333333333333333 0.333333333333333 0.333333333333333 0.333333333333333 0.333333333333333 0.333333333333333 0.333333333333333 0.333333333333333 0.333333333333333 0.333333333333333 0.333333333333333 0.999966208795851 1.68956020747799e-05 1.68956020747799e-05 0.945670616155713 0.05317818748561 0.00115119635867736 0.962109393796869 0.0378890539456058 1.55225752573255e-06 0.333333333333333 0.333333333333333 0.333333333333333 0.923813903579367 0.0745152142254925 0.00167088219514065 0.94631539210427 0.0493731497486638 0.00431145814706642 0.333333333333333 0.333333333333333 0.333333333333333 2.25229790693956e-06 0.578203161775802 0.421794585926291 4.50346992357611e-06 0.780635980022607 0.219359516507469 0.333333333333333 0.333333333333333 0.333333333333333 6.84336228075578e-06 0.537320276198102 0.462672880439618 3.53369377009788e-05 0.706067352203258 0.293897310859041 0.333333333333333 0.333333333333333 0.333333333333333 0.333333333333333 0.333333333333333 0.333333333333333 0.333333333333333 0.333333333333333 0.333333333333333 0.333333333333333 0.333333333333333 0.333333333333333 0.333333333333333 0.333333333333333 0.333333333333333 0.333333333333333 0.333333333333333 0.333333333333333 0.99995559404072 2.22029796398677e-05 2.22029796398677e-05 0.954215711180738 0.0457560617608039 2.82270584582381e-05 0.973873106956312 0.0261163834326492 1.05096110392954e-05 0.333333333333333 0.333333333333333 0.333333333333333 0.951010272039734 0.0488768484027543 0.000112879557512135 0.943423282492504 0.0564463564072481 0.000130361100247686 0.333333333333333 0.333333333333333 0.333333333333333 1.00970324821535e-05 0.711002736295803 0.288987166671715 1.44443962964568e-05 0.83461166240557 0.165373893198134 0.333333333333333 0.333333333333333 0.333333333333333 3.73315414193452e-05 0.358868107664165 0.641094560794415 0.000220312844238819 0.571271205111258 0.428508482044503 </TABLE>
</DEFINITION>

<DEFINITION>
	<FOR>v39</FOR>
	<GIVEN>v10</GIVEN>
	<TABLE>0.999982297751814 1.77022481855196e-05 2.43724104313917e-05 0.999975627589569 </TABLE>
</DEFINITION>

<DEFINITION>
	<FOR>v40</FOR>
	<GIVEN>v29</GIVEN>
	<TABLE>0.999989521554163 1.04784458369135e-05 0.000479386385426654 0.999520613614573 </TABLE>
</DEFINITION>

<DEFINITION>
	<FOR>v41</FOR>
	<GIVEN>v5</GIVEN>
	<TABLE>0.999933128259997 6.68717400026749e-05 1.21115229028898e-05 0.999987888477097 </TABLE>
</DEFINITION>

<DEFINITION>
	<FOR>v42</FOR>
	<GIVEN>v3</GIVEN>
	<TABLE>0.999988519734576 1.14802654237366e-05 9.6024582293067e-05 0.999903975417707 </TABLE>
</DEFINITION>

<DEFINITION>
	<FOR>v43</FOR>
	<GIVEN>v16</GIVEN>
	<TABLE>0.999963591349305 3.64086506954052e-05 1.42747023724555e-05 0.999985725297628 </TABLE>
</DEFINITION>

<DEFINITION>
	<FOR>v44</FOR>
	<GIVEN>v93</GIVEN>
	<GIVEN>v23</GIVEN>
	<TABLE>0.999997770653778 2.22934622192696e-06 0.5 0.5 0.5 0.5 0.0375386780755353 0.962461321924465 5.57034792393133e-06 0.999994429652076 0.5 0.5 0.0257062132486064 0.974293786751394 0.5 0.5 2.51002756010261e-06 0.99999748997244 0.0561646975673585 0.943835302432641 5.27087000980382e-06 0.99999472912999 0.5 0.5 0.0490154562777895 0.95098454372221 1.01623950732709e-05 0.999989837604927 0.5 0.5 0.0243764092939875 0.975623590706012 0.5 0.5 7.98964541953628e-06 0.99999201035458 0.0597394840874833 0.940260515912517 1.54030991035396e-05 0.999984596900896 0.5 0.5 0.0513203999658149 0.948679600034185 2.9341001114958e-05 0.999970658998885 0.5 0.5 0.0188339167232642 0.981166083276736 0.5 0.5 2.37405631261574e-05 0.999976259436874 0.0393662201894806 0.960633779810519 0.5 0.5 0.00010681478316599 0.999893185216834 0.0349683429153628 0.965031657084637 0.5 0.5 2.3945213351851e-05 0.999976054786648 0.0391129688941968 0.960887031105803 2.99742221689347e-05 0.999970025777831 0.5 0.5 0.5 0.5 8.86367665307569e-05 0.999911363233469 0.5 0.5 0.5 0.5 3.04117754394502e-05 0.999969588224561 0.5 0.5 0.5 0.5 0.5 0.5 7.06114955514758e-05 0.999929388504448 0.185379395434917 0.814620604565083 0.5 0.5 0.5 0.5 0.273071104387292 0.726928895612708 0.5 0.5 0.5 0.5 0.5 0.5 0.5 0.5 0.000237981913374584 0.999762018086625 0.00413223140495868 0.995867768595041 0.5 0.5 0.5 0.5 0.143705463182898 0.856294536817102 0.5 0.5 0.5 0.5 </TABLE>
</DEFINITION>

<DEFINITION>
	<FOR>v45</FOR>
	<GIVEN>v30</GIVEN>
	<GIVEN>v28</GIVEN>
	<GIVEN>v23</GIVEN>
	<TABLE>0.999989982971051 1.00170289492137e-05 0.5 0.5 0.5 0.5 0.99999524357645 4.75642355000428e-06 0.999989332878203 1.06671217971967e-05 0.115127073504794 0.884872926495206 0.999993290481878 6.70951812240845e-06 0.5 0.5 0.999985479889647 1.45201103528387e-05 0.999971216395141 2.87836048586725e-05 0.5 0.5 0.5 0.5 0.5 0.5 0.999989950354752 1.00496452475228e-05 4.21478546741971e-05 0.999957852145326 0.5 0.5 0.5 0.5 0.999988210049754 1.178995024641e-05 </TABLE>
</DEFINITION>

<DEFINITION>
	<FOR>v46</FOR>
	<GIVEN>v2</GIVEN>
	<TABLE>0.999984505432783 3.87364180434235e-06 3.87364180434235e-06 3.87364180434235e-06 3.87364180434235e-06 5.716572343223e-06 0.999977133710627 5.716572343223e-06 5.716572343223e-06 5.716572343223e-06 8.98230485942693e-06 8.98230485942693e-06 0.999964070780562 8.98230485942693e-06 8.98230485942693e-06 1.56482278381973e-05 1.56482278381973e-05 1.56482278381973e-05 0.999937407088647 1.56482278381973e-05 0.000847457627118644 0.000847457627118644 0.000847457627118644 0.000847457627118644 0.996610169491525 </TABLE>
</DEFINITION>

<DEFINITION>
	<FOR>v93</FOR>
	<GIVEN>v2</GIVEN>
	<TABLE>0.361992795026244 9.68410451085588e-07 0.637989773585636 9.68410451085588e-07 9.68410451085588e-07 9.68410451085588e-07 9.68410451085588e-07 9.68410451085588e-07 9.68410451085588e-07 9.68410451085588e-07 9.68410451085588e-07 9.68410451085588e-07 9.68410451085588e-07 9.68410451085588e-07 9.68410451085588e-07 9.68410451085588e-07 9.68410451085588e-07 9.68410451085588e-07 9.68410451085588e-07 9.68410451085588e-07 1.42914308580575e-06 0.427029383181844 1.42914308580575e-06 1.42914308580575e-06 1.42914308580575e-06 0.31912908020351 1.42914308580575e-06 1.42914308580575e-06 0.0957540158920711 1.42914308580575e-06 1.42914308580575e-06 0.0836062996627222 0.0134353741496599 0.0391599496941634 0.0168653175555937 1.42914308580575e-06 1.42914308580575e-06 0.00500342994340593 1.42914308580575e-06 1.42914308580575e-06 2.24557621485673e-06 2.24557621485673e-06 2.24557621485673e-06 0.746880894637564 2.24557621485673e-06 2.24557621485673e-06 0.253078684990569 2.24557621485673e-06 2.24557621485673e-06 2.24557621485673e-06 2.24557621485673e-06 2.24557621485673e-06 2.24557621485673e-06 2.24557621485673e-06 2.24557621485673e-06 2.24557621485673e-06 2.24557621485673e-06 2.24557621485673e-06 2.24557621485673e-06 2.24557621485673e-06 3.91205695954933e-06 3.91205695954933e-06 3.91205695954933e-06 3.91205695954933e-06 0.536346921211173 3.91205695954933e-06 3.91205695954933e-06 0.187391440419373 3.91205695954933e-06 0.0504694468351459 0.225729598622956 3.91205695954933e-06 3.91205695954933e-06 3.91205695954933e-06 3.91205695954933e-06 3.91205695954933e-06 3.91205695954933e-06 3.91205695954933e-06 3.91205695954933e-06 3.91205695954933e-06 0.000211864406779661 0.000211864406779661 0.000211864406779661 0.000211864406779661 0.000211864406779661 0.000211864406779661 0.000211864406779661 0.000211864406779661 0.000211864406779661 0.000211864406779661 0.000211864406779661 0.000211864406779661 0.000211864406779661 0.000211864406779661 0.000211864406779661 0.572245762711864 0.233262711864407 0.000211864406779661 0.0425847457627119 0.148516949152542 </TABLE>
</DEFINITION>

<DEFINITION>
	<FOR>v51</FOR>
	<GIVEN>v93</GIVEN>
	<TABLE>0.0700933641872099 0.231942456628456 0.271802811626383 0.426161367557951 0.0987307775974298 0.206493365238199 0.360439919010726 0.334335938153645 0.108835315457533 0.26062529883653 0.341984729927672 0.288554655778265 0.165966386554622 0.207757700575758 0.281418649749703 0.344857263119917 0.153905765654061 0.227571933919259 0.245076765982276 0.373445534444404 0.141963905868655 0.22391460110611 0.354229641073868 0.279891851951367 0.124229182378776 0.176578235215829 0.307894503349452 0.391298079055942 0.202510176390773 0.210860035486901 0.273483978707859 0.313145809414466 0.13284456383852 0.222390120140288 0.297011417058428 0.347753898962764 0.108581944982565 0.201569159240604 0.35654784967067 0.33330104610616 0.110930595269041 0.230504289056408 0.346612078676025 0.311953036998527 0.0889026578924878 0.227352363045894 0.283757798478762 0.399987180582856 0.148989898989899 0.244683678894205 0.202153110047847 0.404173312068049 0.160600255427842 0.167898193760263 0.343048713738369 0.328452837073527 0.11869970351546 0.237293519695044 0.288119440914867 0.355887335874629 0.111367837338262 0.111367837338262 0.591959334565619 0.185304990757856 0.182126696832579 0.00113122171945701 0.363122171945701 0.453619909502262 0.0859486447931526 0.314194008559201 0.200071326676177 0.399786019971469 0.00609756097560976 0.981707317073171 0.00609756097560976 0.00609756097560976 0.143617021276596 0.285460992907801 0.00177304964539007 0.569148936170213 </TABLE>
</DEFINITION>

<DEFINITION>
	<FOR>v52</FOR>
	<GIVEN>v51</GIVEN>
	<GIVEN>v2</GIVEN>
	<TABLE>0.684362392114805 0.315637607885195 0.721001147273715 0.278998852726285 0.744202008525396 0.255797991474604 0.709817381168242 0.290182618831758 0.995867768595041 0.00413223140495868 0.999990325264604 9.67473539598692e-06 0.999983411300222 1.65886997777114e-05 0.999971911690354 2.80883096455255e-05 0.99995629752644 4.37024735600035e-05 0.99645390070922 0.00354609929078014 7.64748168428137e-06 0.999992352518316 1.04731781906537e-05 0.999989526821809 1.94848213241885e-05 0.999980515178676 3.50606549330342e-05 0.999964939345067 0.00124688279301746 0.998753117206983 0.621921552353286 0.378078447646714 0.536702490055164 0.463297509944836 0.557302981644155 0.442697018355845 0.599994350601661 0.400005649398339 0.571174377224199 0.428825622775801 </TABLE>
</DEFINITION>

<DEFINITION>
	<FOR>v53</FOR>
	<GIVEN>v52</GIVEN>
	<TABLE>0.999979904344681 2.009565531932e-05 2.09389002889568e-05 0.999979061099711 </TABLE>
</DEFINITION>

</NETWORK>
</BIF>
