<?xml version="1.0" encoding="UTF-8"?>

<!-- DTD for the XMLBIF 0.3 format -->
<!DOCTYPE BIF [
<!ELEMENT BIF ( NETWORK )*>
<!ATTLIST BIF VERSION CDATA #REQUIRED>
   <!ELEMENT NETWORK ( NAME, ( PROPERTY | VARIABLE | DEFINITION )* )>
      <!ELEMENT NAME (#PCDATA)>
        <!ELEMENT VARIABLE ( NAME, ( OUTCOME |  PROPERTY )* ) >
          <!ATTLIST VARIABLE TYPE (nature|decision|utility) "nature">
           <!ELEMENT OUTCOME (#PCDATA)>
            <!ELEMENT DEFINITION ( FOR | GIVEN | TABLE | PROPERTY )* >
              <!ELEMENT FOR (#PCDATA)>
                <!ELEMENT GIVEN (#PCDATA)>
                  <!ELEMENT TABLE (#PCDATA)>
                    <!ELEMENT PROPERTY (#PCDATA)>
                      ]>
<BIF VERSION="0.3">
<NETWORK>
<NAME>Reco</NAME>
<VARIABLE TYPE="nature">
	<NAME>v1</NAME>
	<OUTCOME>2</OUTCOME>
	<OUTCOME>0</OUTCOME>
	<OUTCOME>1</OUTCOME>
</VARIABLE>

<VARIABLE TYPE="nature">
	<NAME>v2</NAME>
	<OUTCOME>3</OUTCOME>
	<OUTCOME>2</OUTCOME>
	<OUTCOME>1</OUTCOME>
	<OUTCOME>0</OUTCOME>
	<OUTCOME>8</OUTCOME>
</VARIABLE>

<VARIABLE TYPE="nature">
	<NAME>v3</NAME>
	<OUTCOME>0</OUTCOME>
	<OUTCOME>1</OUTCOME>
</VARIABLE>

<VARIABLE TYPE="nature">
	<NAME>v4</NAME>
	<OUTCOME>1</OUTCOME>
	<OUTCOME>0</OUTCOME>
</VARIABLE>

<VARIABLE TYPE="nature">
	<NAME>v5</NAME>
	<OUTCOME>0</OUTCOME>
	<OUTCOME>1</OUTCOME>
</VARIABLE>

<VARIABLE TYPE="nature">
	<NAME>v6</NAME>
	<OUTCOME>0</OUTCOME>
	<OUTCOME>1</OUTCOME>
</VARIABLE>

<VARIABLE TYPE="nature">
	<NAME>v7</NAME>
	<OUTCOME>3</OUTCOME>
	<OUTCOME>0</OUTCOME>
	<OUTCOME>1</OUTCOME>
</VARIABLE>

<VARIABLE TYPE="nature">
	<NAME>v8</NAME>
	<OUTCOME>1</OUTCOME>
	<OUTCOME>0</OUTCOME>
</VARIABLE>

<VARIABLE TYPE="nature">
	<NAME>v9</NAME>
	<OUTCOME>0</OUTCOME>
	<OUTCOME>1</OUTCOME>
</VARIABLE>

<VARIABLE TYPE="nature">
	<NAME>v10</NAME>
	<OUTCOME>0</OUTCOME>
	<OUTCOME>1</OUTCOME>
</VARIABLE>

<VARIABLE TYPE="nature">
	<NAME>v11</NAME>
	<OUTCOME>0</OUTCOME>
	<OUTCOME>1</OUTCOME>
</VARIABLE>

<VARIABLE TYPE="nature">
	<NAME>v12</NAME>
	<OUTCOME>0</OUTCOME>
	<OUTCOME>1</OUTCOME>
</VARIABLE>

<VARIABLE TYPE="nature">
	<NAME>v13</NAME>
	<OUTCOME>1</OUTCOME>
	<OUTCOME>0</OUTCOME>
</VARIABLE>

<VARIABLE TYPE="nature">
	<NAME>v14</NAME>
	<OUTCOME>1</OUTCOME>
	<OUTCOME>0</OUTCOME>
</VARIABLE>

<VARIABLE TYPE="nature">
	<NAME>v15</NAME>
	<OUTCOME>0</OUTCOME>
	<OUTCOME>1</OUTCOME>
</VARIABLE>

<VARIABLE TYPE="nature">
	<NAME>v16</NAME>
	<OUTCOME>0</OUTCOME>
	<OUTCOME>1</OUTCOME>
</VARIABLE>

<VARIABLE TYPE="nature">
	<NAME>v17</NAME>
	<OUTCOME>2</OUTCOME>
	<OUTCOME>0</OUTCOME>
	<OUTCOME>1</OUTCOME>
	<OUTCOME>-1</OUTCOME>
</VARIABLE>

<VARIABLE TYPE="nature">
	<NAME>v18</NAME>
	<OUTCOME>1</OUTCOME>
	<OUTCOME>0</OUTCOME>
</VARIABLE>

<VARIABLE TYPE="nature">
	<NAME>v19</NAME>
	<OUTCOME>9</OUTCOME>
	<OUTCOME>1</OUTCOME>
	<OUTCOME>3</OUTCOME>
	<OUTCOME>8</OUTCOME>
	<OUTCOME>7</OUTCOME>
	<OUTCOME>12</OUTCOME>
	<OUTCOME>6</OUTCOME>
	<OUTCOME>4</OUTCOME>
	<OUTCOME>5</OUTCOME>
	<OUTCOME>11</OUTCOME>
	<OUTCOME>2</OUTCOME>
	<OUTCOME>13</OUTCOME>
	<OUTCOME>0</OUTCOME>
	<OUTCOME>10</OUTCOME>
</VARIABLE>

<VARIABLE TYPE="nature">
	<NAME>v21</NAME>
	<OUTCOME>0</OUTCOME>
	<OUTCOME>1</OUTCOME>
</VARIABLE>

<VARIABLE TYPE="nature">
	<NAME>v23</NAME>
	<OUTCOME>0</OUTCOME>
	<OUTCOME>1</OUTCOME>
	<OUTCOME>2</OUTCOME>
</VARIABLE>

<VARIABLE TYPE="nature">
	<NAME>v24</NAME>
	<OUTCOME>8</OUTCOME>
	<OUTCOME>1</OUTCOME>
	<OUTCOME>2</OUTCOME>
	<OUTCOME>0</OUTCOME>
	<OUTCOME>3</OUTCOME>
</VARIABLE>

<VARIABLE TYPE="nature">
	<NAME>v25</NAME>
	<OUTCOME>0</OUTCOME>
	<OUTCOME>1</OUTCOME>
</VARIABLE>

<VARIABLE TYPE="nature">
	<NAME>v26</NAME>
	<OUTCOME>0</OUTCOME>
	<OUTCOME>1</OUTCOME>
</VARIABLE>

<VARIABLE TYPE="nature">
	<NAME>v27</NAME>
	<OUTCOME>2</OUTCOME>
	<OUTCOME>0</OUTCOME>
	<OUTCOME>1</OUTCOME>
</VARIABLE>

<VARIABLE TYPE="nature">
	<NAME>v28</NAME>
	<OUTCOME>2</OUTCOME>
	<OUTCOME>0</OUTCOME>
	<OUTCOME>1</OUTCOME>
</VARIABLE>

<VARIABLE TYPE="nature">
	<NAME>v29</NAME>
	<OUTCOME>-1</OUTCOME>
	<OUTCOME>0</OUTCOME>
</VARIABLE>

<VARIABLE TYPE="nature">
	<NAME>v30</NAME>
	<OUTCOME>-1</OUTCOME>
	<OUTCOME>0</OUTCOME>
</VARIABLE>

<VARIABLE TYPE="nature">
	<NAME>v31</NAME>
	<OUTCOME>1</OUTCOME>
	<OUTCOME>0</OUTCOME>
</VARIABLE>

<VARIABLE TYPE="nature">
	<NAME>v32</NAME>
	<OUTCOME>0</OUTCOME>
	<OUTCOME>1</OUTCOME>
</VARIABLE>

<VARIABLE TYPE="nature">
	<NAME>v33</NAME>
	<OUTCOME>0</OUTCOME>
	<OUTCOME>1</OUTCOME>
</VARIABLE>

<VARIABLE TYPE="nature">
	<NAME>v34</NAME>
	<OUTCOME>-1</OUTCOME>
	<OUTCOME>0</OUTCOME>
</VARIABLE>

<VARIABLE TYPE="nature">
	<NAME>v35</NAME>
	<OUTCOME>1</OUTCOME>
	<OUTCOME>0</OUTCOME>
</VARIABLE>

<VARIABLE TYPE="nature">
	<NAME>v36</NAME>
	<OUTCOME>0</OUTCOME>
	<OUTCOME>1</OUTCOME>
	<OUTCOME>-1</OUTCOME>
</VARIABLE>

<VARIABLE TYPE="nature">
	<NAME>v37</NAME>
	<OUTCOME>1</OUTCOME>
	<OUTCOME>0</OUTCOME>
</VARIABLE>

<VARIABLE TYPE="nature">
	<NAME>v38</NAME>
	<OUTCOME>0</OUTCOME>
	<OUTCOME>2</OUTCOME>
	<OUTCOME>1</OUTCOME>
</VARIABLE>

<VARIABLE TYPE="nature">
	<NAME>v39</NAME>
	<OUTCOME>0</OUTCOME>
	<OUTCOME>1</OUTCOME>
</VARIABLE>

<VARIABLE TYPE="nature">
	<NAME>v40</NAME>
	<OUTCOME>-1</OUTCOME>
	<OUTCOME>0</OUTCOME>
</VARIABLE>

<VARIABLE TYPE="nature">
	<NAME>v41</NAME>
	<OUTCOME>0</OUTCOME>
	<OUTCOME>1</OUTCOME>
</VARIABLE>

<VARIABLE TYPE="nature">
	<NAME>v42</NAME>
	<OUTCOME>0</OUTCOME>
	<OUTCOME>1</OUTCOME>
</VARIABLE>

<VARIABLE TYPE="nature">
	<NAME>v43</NAME>
	<OUTCOME>0</OUTCOME>
	<OUTCOME>1</OUTCOME>
</VARIABLE>

<VARIABLE TYPE="nature">
	<NAME>v44</NAME>
	<OUTCOME>0</OUTCOME>
	<OUTCOME>1</OUTCOME>
</VARIABLE>

<VARIABLE TYPE="nature">
	<NAME>v45</NAME>
	<OUTCOME>-1</OUTCOME>
	<OUTCOME>0</OUTCOME>
</VARIABLE>

<VARIABLE TYPE="nature">
	<NAME>v46</NAME>
	<OUTCOME>3</OUTCOME>
	<OUTCOME>2</OUTCOME>
	<OUTCOME>1</OUTCOME>
	<OUTCOME>0</OUTCOME>
	<OUTCOME>7</OUTCOME>
</VARIABLE>

<VARIABLE TYPE="nature">
	<NAME>v93</NAME>
	<OUTCOME>15</OUTCOME>
	<OUTCOME>9</OUTCOME>
	<OUTCOME>14</OUTCOME>
	<OUTCOME>7</OUTCOME>
	<OUTCOME>5</OUTCOME>
	<OUTCOME>13</OUTCOME>
	<OUTCOME>6</OUTCOME>
	<OUTCOME>4</OUTCOME>
	<OUTCOME>12</OUTCOME>
	<OUTCOME>10</OUTCOME>
	<OUTCOME>11</OUTCOME>
	<OUTCOME>8</OUTCOME>
	<OUTCOME>0</OUTCOME>
	<OUTCOME>1</OUTCOME>
	<OUTCOME>3</OUTCOME>
	<OUTCOME>32</OUTCOME>
	<OUTCOME>21</OUTCOME>
	<OUTCOME>2</OUTCOME>
	<OUTCOME>20</OUTCOME>
	<OUTCOME>31</OUTCOME>
</VARIABLE>

<VARIABLE TYPE="nature">
	<NAME>v51</NAME>
	<OUTCOME>0</OUTCOME>
	<OUTCOME>3</OUTCOME>
	<OUTCOME>2</OUTCOME>
	<OUTCOME>1</OUTCOME>
</VARIABLE>

<VARIABLE TYPE="nature">
	<NAME>v52</NAME>
	<OUTCOME>1</OUTCOME>
	<OUTCOME>0</OUTCOME>
</VARIABLE>

<VARIABLE TYPE="nature">
	<NAME>v53</NAME>
	<OUTCOME>1</OUTCOME>
	<OUTCOME>0</OUTCOME>
</VARIABLE>

<DEFINITION>
	<FOR>v1</FOR>
	<GIVEN>v93</GIVEN>
	<TABLE>0.999990976480196 4.51175990218504e-06 4.51175990218504e-06 5.58337939621335e-06 0.999988833241208 5.58337939621335e-06 2.51304900696868e-06 2.51304900696868e-06 0.999994973901986 4.98099749455826e-06 0.999990038005011 4.98099749455826e-06 1.24280725302313e-05 0.99997514385494 1.24280725302313e-05 7.52428462863893e-06 7.52428462863893e-06 0.999984951430743 1.45936400916481e-05 0.999970812719817 1.45936400916481e-05 3.38031977825102e-05 0.999932393604435 3.38031977825102e-05 2.51363647789257e-05 2.51363647789257e-05 0.999949727270442 0.000125266190655142 0.000125266190655142 0.99974946761869 2.91349823733357e-05 2.91349823733357e-05 0.999941730035253 2.81984039703353e-05 0.999943603192059 2.81984039703353e-05 0.000205634382068682 0.999588731235863 0.000205634382068682 5.99412575675838e-05 0.999880117484865 5.99412575675838e-05 0.000133280021324803 0.000133280021324803 0.99973343995735 0.000520020800832033 0.000520020800832033 0.998959958398336 0.00138312586445367 0.997233748271093 0.00138312586445367 0.000504286434694907 0.000504286434694907 0.99899142713061 0.00813008130081301 0.983739837398374 0.00813008130081301 0.00184162062615101 0.00184162062615101 0.996316758747698 </TABLE>
</DEFINITION>

<DEFINITION>
	<FOR>v2</FOR>
	<TABLE>0.423552091878589 0.285939294503692 0.184093519278097 0.104150943396226 0.00226415094339623 </TABLE>
</DEFINITION>

<DEFINITION>
	<FOR>v3</FOR>
	<GIVEN>v2</GIVEN>
	<TABLE>0.999990315895489 9.68410451085588e-06 0.999985655267386 1.43447326141841e-05 0.99997771935297 2.22806470299897e-05 3.93824826717076e-05 0.999960617517328 0.00181159420289855 0.998188405797101 </TABLE>
</DEFINITION>

<DEFINITION>
	<FOR>v4</FOR>
	<GIVEN>v27</GIVEN>
	<TABLE>0.99999215033675 7.8496632494466e-06 7.21709006928406e-05 0.999927829099307 0.000198807157057654 0.999801192842942 </TABLE>
</DEFINITION>

<DEFINITION>
	<FOR>v5</FOR>
	<GIVEN>v1</GIVEN>
	<TABLE>0.999954885861229 4.51141387710909e-05 1.62263906016746e-05 0.999983773609398 1.60035848029959e-05 0.999983996415197 </TABLE>
</DEFINITION>

<DEFINITION>
	<FOR>v6</FOR>
	<GIVEN>v38</GIVEN>
	<GIVEN>v34</GIVEN>
	<GIVEN>v32</GIVEN>
	<GIVEN>v1</GIVEN>
	<TABLE>0.999995773350127 4.22664987277784e-06 0.5 0.5 0.703369728621886 0.296630271378114 0.5 0.5 4.5122688590277e-06 0.999995487731141 0.610781855482106 0.389218144517894 0.99996596092314 3.40390768602355e-05 0.5 0.5 0.735840816183921 0.264159183816079 0.5 0.5 3.58860259814828e-05 0.999964113974018 0.710695432637136 0.289304567362864 0.5 0.5 0.5 0.5 0.734473901476929 0.265526098523071 0.5 0.5 4.23825790647012e-06 0.999995761742094 0.556166555834058 0.443833444165942 0.5 0.5 0.5 0.5 0.364773588806947 0.635226411193053 0.5 0.5 1.89214758751183e-05 0.999981078524125 0.327710654322925 0.672289345677075 0.5 0.5 0.5 0.5 0.661617856843165 0.338382143156835 0.5 0.5 5.87509547030139e-06 0.99999412490453 0.704734823436053 0.295265176563947 0.5 0.5 0.5 0.5 0.594559099437148 0.405440900562852 0.5 0.5 3.22227234645872e-05 0.999967777276535 0.528287061288633 0.471712938711367 </TABLE>
</DEFINITION>

<DEFINITION>
	<FOR>v7</FOR>
	<GIVEN>v93</GIVEN>
	<GIVEN>v30</GIVEN>
	<TABLE>0.999993921767064 3.03911646806041e-06 3.03911646806041e-06 8.75327153523629e-06 0.99998249345693 8.75327153523629e-06 4.02960957112865e-06 0.441488054222426 0.558507916168003 9.08735676053906e-06 0.319520551057314 0.680470361585926 1.81197826350875e-06 0.784950795730255 0.215047392291482 4.0989822227141e-06 0.697486913999254 0.302508987018523 3.49255910283142e-06 0.372589697649158 0.627406809791739 8.68032950530802e-06 0.304167426195498 0.695823893474996 6.21415211001535e-06 0.366889754727416 0.633104031120474 0.333333333333333 0.333333333333333 0.333333333333333 5.18879427987319e-06 0.660019821194149 0.339974990011571 1.3683072670799e-05 0.490962330500937 0.509023986426392 1.04163411560055e-05 0.261252252533775 0.738737331125069 2.43646906902517e-05 0.187145189191823 0.812830446117487 1.69024559268462e-05 0.288034751449386 0.711948346094688 0.333333333333333 0.333333333333333 0.333333333333333 1.8895376301419e-05 0.687054777695898 0.312926326927801 3.75333108133468e-05 0.527005217130203 0.472957249558984 6.26448662532105e-05 0.654075048549771 0.345862306583975 0.333333333333333 0.333333333333333 0.333333333333333 1.456812784989e-05 0.687047477528663 0.312937954343487 0.333333333333333 0.333333333333333 0.333333333333333 1.96066898025606e-05 0.439993725859263 0.559986667450934 5.0193243989359e-05 0.373487928524821 0.62646187823119 0.333333333333333 0.333333333333333 0.333333333333333 0.000102848914943947 0.246940244780418 0.752956906304638 0.333333333333333 0.333333333333333 0.333333333333333 2.99733237418697e-05 0.327338668584959 0.672631358091299 0.333333333333333 0.333333333333333 0.333333333333333 6.66533359994668e-05 0.535959474771712 0.463973871892288 0.000260213374967473 0.687223523289097 0.312516263335935 0.333333333333333 0.333333333333333 0.333333333333333 0.000693000693000693 0.167013167013167 0.832293832293832 0.333333333333333 0.333333333333333 0.333333333333333 0.333333333333333 0.333333333333333 0.333333333333333 0.000252334090335604 0.515013878374968 0.484733787534696 0.00411522633744856 0.00411522633744856 0.991769547325103 0.333333333333333 0.333333333333333 0.333333333333333 0.000923361034164358 0.665743305632502 0.333333333333333 0.333333333333333 0.333333333333333 0.333333333333333 </TABLE>
</DEFINITION>

<DEFINITION>
	<FOR>v8</FOR>
	<GIVEN>v5</GIVEN>
	<TABLE>0.999932331844634 6.76681553660847e-05 1.20857605569118e-05 0.999987914239443 </TABLE>
</DEFINITION>

<DEFINITION>
	<FOR>v9</FOR>
	<GIVEN>v5</GIVEN>
	<TABLE>0.999932331844634 6.76681553660847e-05 1.20857605569118e-05 0.999987914239443 </TABLE>
</DEFINITION>

<DEFINITION>
	<FOR>v10</FOR>
	<GIVEN>v1</GIVEN>
	<TABLE>0.999954885861229 4.51141387710909e-05 1.62263906016746e-05 0.999983773609398 0.999983996415197 1.60035848029959e-05 </TABLE>
</DEFINITION>

<DEFINITION>
	<FOR>v11</FOR>
	<GIVEN>v32</GIVEN>
	<GIVEN>v26</GIVEN>
	<GIVEN>v1</GIVEN>
	<TABLE>0.999988720702023 1.12792979764939e-05 0.5 0.5 0.973675885993863 0.0263241140061368 0.5 0.5 0.5 0.5 0.891637840276733 0.108362159723267 0.5 0.5 5.48167476127306e-06 0.999994518325239 0.943554769331037 0.0564452306689633 0.5 0.5 1.56050060859524e-05 0.999984394993914 0.874064837905237 0.125935162094763 </TABLE>
</DEFINITION>

<DEFINITION>
	<FOR>v12</FOR>
	<GIVEN>v24</GIVEN>
	<TABLE>0.999972915876713 2.70841232869292e-05 0.999990168318389 9.83168161082271e-06 0.999990394959275 9.60504072537267e-06 0.000968992248062016 0.999031007751938 0.954545454545454 0.0454545454545455 </TABLE>
</DEFINITION>

<DEFINITION>
	<FOR>v13</FOR>
	<GIVEN>v4</GIVEN>
	<TABLE>0.999988225597551 1.17744024490757e-05 7.9428117553614e-05 0.999920571882446 </TABLE>
</DEFINITION>

<DEFINITION>
	<FOR>v14</FOR>
	<GIVEN>v5</GIVEN>
	<TABLE>0.999932331844634 6.76681553660847e-05 1.20857605569118e-05 0.999987914239443 </TABLE>
</DEFINITION>

<DEFINITION>
	<FOR>v15</FOR>
	<GIVEN>v93</GIVEN>
	<TABLE>0.999993232360147 6.76763985327757e-06 8.37506909432003e-06 0.999991624930906 0.99999623042649 3.76957351045303e-06 7.47149624183739e-06 0.999992528503758 1.86421087953469e-05 0.999981357891205 0.999988713573057 1.12864269429584e-05 2.18904601374721e-05 0.999978109539862 5.07047966737653e-05 0.999949295203326 0.999962295452832 3.77045471683885e-05 0.999812100714017 0.000187899285982713 0.99995629752644 4.37024735600035e-05 4.22976059555029e-05 0.999957702394045 0.999691548426897 0.000308451573103023 0.999910088113649 8.99118863513757e-05 0.999800079968013 0.000199920031987205 0.999219968798752 0.00078003120124805 0.0020746887966805 0.99792531120332 0.999243570347958 0.00075642965204236 0.0121951219512195 0.98780487804878 0.997237569060773 0.00276243093922652 </TABLE>
</DEFINITION>

<DEFINITION>
	<FOR>v16</FOR>
	<GIVEN>v93</GIVEN>
	<TABLE>0.999993232360147 6.76763985327757e-06 8.37506909432003e-06 0.999991624930906 3.76957351045303e-06 0.99999623042649 7.47149624183739e-06 0.999992528503758 1.86421087953469e-05 0.999981357891205 1.12864269429584e-05 0.999988713573057 0.999978109539862 2.18904601374721e-05 0.999949295203326 5.07047966737653e-05 0.999962295452832 3.77045471683885e-05 0.999812100714017 0.000187899285982713 4.37024735600035e-05 0.99995629752644 0.999957702394045 4.22976059555029e-05 0.999691548426897 0.000308451573103023 8.99118863513757e-05 0.999910088113649 0.000199920031987205 0.999800079968013 0.00078003120124805 0.999219968798752 0.0020746887966805 0.99792531120332 0.999243570347958 0.00075642965204236 0.98780487804878 0.0121951219512195 0.997237569060773 0.00276243093922652 </TABLE>
</DEFINITION>

<DEFINITION>
	<FOR>v17</FOR>
	<GIVEN>v1</GIVEN>
	<TABLE>0.999932328791843 2.25570693855454e-05 2.25570693855454e-05 2.25570693855454e-05 8.11319530083728e-06 0.999878302070487 8.11319530083728e-06 0.000105471538910885 8.00179240149794e-06 8.00179240149794e-06 0.999975994622796 8.00179240149794e-06 </TABLE>
</DEFINITION>

<DEFINITION>
	<FOR>v18</FOR>
	<GIVEN>v5</GIVEN>
	<TABLE>0.999932331844634 6.76681553660847e-05 1.20857605569118e-05 0.999987914239443 </TABLE>
</DEFINITION>

<DEFINITION>
	<FOR>v19</FOR>
	<GIVEN>v93</GIVEN>
	<GIVEN>v34</GIVEN>
	<TABLE>0.510952225170011 0.0036523720039518 0.0036523720039518 0.000913500571141642 0.0036523720039518 0.249846481908776 0.0219115148893529 0.0182596863122726 0.000609181523051625 0.171940805597732 0.00426101010013184 0.00699988153294199 0.00273941485968175 0.000609181523051625 0.411743853230282 0.00735686713874325 0.00490603692000665 0.0490209808572654 0.00980769735747984 0.279399021418505 0.014709357794953 0.00735686713874325 4.37648253345821e-06 0.200972454418934 4.37648253345821e-06 0.014709357794953 4.37648253345821e-06 4.37648253345821e-06 0.295183269981269 0.0749802333103603 0.0497239710398618 7.04694817815249e-07 0.0402528726884248 0.136937001692677 0.119967950479686 0.125098128753381 0.00670939936041898 0.0588004402933222 0.0430152763742606 0.0240730796713867 0.0248623378673398 0.000395333792794355 0.1618575150253 0.0376958831867096 0.042130227180945 0.0909080111175339 0.0221756792068859 0.14190296705124 0.148554483042593 0.113079731088711 3.95923570913871e-06 0.115296903085828 0.0532160871665334 0.0509989151694157 0.0221756792068859 3.95923570913871e-06 0.472385316798231 0.0165499859623379 0.0136717833998382 0.000539984208433262 0.0156505476615568 0.228277761966224 0.0555856082162404 0.0536068439545218 0.00233886080999559 0.107932917321704 0.0120527944584321 0.0129522327592133 0.00845504125530749 3.21227964564701e-07 0.277721195418826 0.00838916680812256 0.0121169457508313 0.145385042952667 0.0102530562794769 0.237647571784707 0.0680336298914617 0.0260961167859889 1.66418702799495e-06 0.179866998172723 0.00838916680812256 0.0233002825789573 0.00279749839405952 1.66418702799495e-06 0.2668759190634 0.0516879372418617 0.0355136771703082 0.000352242232148351 0.0513363228924801 0.125878564961379 0.132559237599629 0.146975425924275 0.00773614356916191 0.067158968614652 0.0552040807356777 0.031294304977729 0.0274265471345314 6.27882766752854e-07 0.145414642127953 0.0318744797854404 0.039842210476143 0.0258986817674134 0.0498018738395214 0.107567921347116 0.177285564890764 0.153382372818656 3.55702262977797e-06 0.0737050659116293 0.039842210476143 0.141430776782602 0.0139470857313594 3.55702262977797e-06 0.267770167553183 0.0517086731278463 0.0360118978918176 1.64882092815428e-06 0.0470919745290143 0.141272625945187 0.134809247906822 0.147736003983551 0.0092350460185921 0.0831022235999037 0.0406285964906495 0.0212384623755552 0.0193917829360224 1.64882092815428e-06 0.124025911110496 0.069767602807037 0.069767602807037 0.0503896355558016 0.0271360748543192 0.120150317660249 0.108523537309508 0.143403878361731 6.92070258972691e-06 0.120150317660249 0.0620164159065428 0.0813943831577782 0.0232604814040721 6.92070258972691e-06 0.446452117427464 0.02876988090957 0.015983689995757 9.51353490611092e-07 0.0218440274979213 0.198719668472336 0.0767180968363691 0.0719232752436892 0.00373025703668609 0.0831111922932757 0.0245078172716324 0.015983689995757 0.0122543843125615 9.51353490611092e-07 0.242590890361026 0.0207138102633998 0.0177554491954314 0.130173169778229 0.0295888934673048 0.236674168225089 0.0917144758946401 0.0562141430790199 5.28278762137205e-06 0.0621308652149566 0.0147970881274631 0.0828393926907351 0.0147970881274631 5.28278762137205e-06 0.251793926892203 0.0678315415475303 0.0328889655602741 0.00102955804248166 0.0441939166149747 0.151077090223053 0.0924968893032406 0.167520655393526 0.00616817215825463 0.0575543133159844 0.0606374817854482 0.0308335199139649 0.0359721340297379 1.83521932706178e-06 0.106503687113064 0.0532571259534727 0.0118431339404568 0.0295919876603207 0.0236757030870328 0.106503687113064 0.0650896951000486 0.201164240285672 1.05647938808714e-05 0.0769222642466245 0.0532571259534727 0.254410801445264 0.0177594185137448 1.05647938808714e-05 0.263669636749669 0.0696518517860474 0.0223911092949088 4.44179910631002e-06 0.0223911092949088 0.169148151767392 0.109450371778585 0.15422370677019 4.44179910631002e-06 0.101988149279984 0.0323407392930432 0.0323407392930432 0.0223911092949088 4.44179910631002e-06 0.131851532153647 0.0329775964217052 0.0439635892808098 0.0110056107034959 0.0329775964217052 0.153823517871856 0.131851532153647 0.120865539294542 1.96178443912583e-05 0.230725467885589 0.0439635892808098 0.0659355749990191 1.96178443912583e-05 1.96178443912583e-05 0.49825143499725 0.0224934660512706 0.010383263205373 3.08933746068818e-06 0.010383263205373 0.223176827497575 0.0640141615229198 0.0397937558311245 3.08933746068818e-06 0.0986147410826274 0.0138433211613437 0.010383263205373 0.00865323422738759 3.08933746068818e-06 0.282290922837821 2.1002226235981e-05 0.0235434956105347 0.0823497290712816 2.1002226235981e-05 0.247007182761373 0.0470659889948335 0.0470659889948335 2.1002226235981e-05 0.188200949300626 0.0353047423026841 0.0353047423026841 0.0117822489183854 2.1002226235981e-05 0.396149829891872 0.0188803179843029 1.6842388924445e-05 1.6842388924445e-05 1.6842388924445e-05 0.254673762926533 0.0943342203658167 0.0471755313773706 1.6842388924445e-05 0.150924647151952 1.6842388924445e-05 0.0283120557819921 0.00944858018661367 1.6842388924445e-05 0.185079952425003 6.60763843002511e-05 6.60763843002511e-05 0.111074402008722 0.0370688515924409 0.222082727633144 6.60763843002511e-05 0.0370688515924409 6.60763843002511e-05 0.333091053257566 6.60763843002511e-05 0.0740716268005815 6.60763843002511e-05 6.60763843002511e-05 0.374983921856439 0.027544697239099 0.0105964423797166 3.78309260254072e-06 0.016952037951985 0.237279351123957 0.093219184819206 0.0423744202410587 0.00424084680744815 0.163130736114159 0.00635937866487096 0.00847791052229376 0.0148335060945622 3.78309260254072e-06 0.209965365801407 0.010015353304531 0.010015353304531 0.0500053558039062 1.78526796872211e-05 0.189970364551719 0.129985360802656 0.0500053558039062 1.78526796872211e-05 0.259952868925626 0.06000285642875 0.0300103545542186 1.78526796872211e-05 1.78526796872211e-05 0.366652194920417 0.0529420826710175 0.0215710714460776 0.0019641894304901 0.0274531360507538 0.198033009586365 0.113723416919339 0.105880664113104 0.0019641894304901 0.0529420826710175 0.0235317596476363 0.0137283186398426 0.0196103832445188 3.50122893135491e-06 0.222175695332128 0.0370476484330233 0.012363908846476 0.0617313880195707 2.20390532022744e-05 0.283885044298497 0.0617313880195707 0.086415127606118 2.20390532022744e-05 0.111098867192665 0.0247057786397496 0.0987569973993917 2.20390532022744e-05 2.20390532022744e-05 0.185150085952307 0.049389518226297 0.0370476484330233 0.012363908846476 0.049389518226297 0.111098867192665 0.111098867192665 0.16046634636576 2.20390532022744e-05 0.0987569973993917 0.0370476484330233 0.111098867192665 0.0370476484330233 2.20390532022744e-05 0.0714285714285714 0.0714285714285714 0.0714285714285714 0.0714285714285714 0.0714285714285714 0.0714285714285714 0.0714285714285714 0.0714285714285714 0.0714285714285714 0.0714285714285714 0.0714285714285714 0.0714285714285714 0.0714285714285714 0.0714285714285714 0.15826557221216 0.0647488021375262 0.0359744113453312 0.0287808136472825 0.0215872159492338 0.147475175665087 0.154668773363135 0.140281577967038 6.42285508754351e-06 0.10071679062777 0.0395712101943556 0.0971199917787455 0.0107968194021606 6.42285508754351e-06 0.0714285714285714 0.0714285714285714 0.0714285714285714 0.0714285714285714 0.0714285714285714 0.0714285714285714 0.0714285714285714 0.0714285714285714 0.0714285714285714 0.0714285714285714 0.0714285714285714 0.0714285714285714 0.0714285714285714 0.0714285714285714 0.343945496614963 0.0240094838175222 0.0240094838175222 0.0480046847773302 0.0480046847773302 0.231967892135859 0.0480046847773302 0.0240094838175222 1.42828577141715e-05 0.12798868797669 0.0240094838175222 0.0240094838175222 0.0320078841374582 1.42828577141715e-05 0.0714285714285714 0.0714285714285714 0.0714285714285714 0.0714285714285714 0.0714285714285714 0.0714285714285714 0.0714285714285714 0.0714285714285714 0.0714285714285714 0.0714285714285714 0.0714285714285714 0.0714285714285714 0.0714285714285714 0.0714285714285714 0.49966543994647 5.57600089216014e-05 0.0312813650050184 5.57600089216014e-05 5.57600089216014e-05 5.57600089216014e-05 0.093732574997212 0.0312813650050184 5.57600089216014e-05 0.187409389985502 0.0312813650050184 5.57600089216014e-05 0.124958179993309 5.57600089216014e-05 0.0714285714285714 0.0714285714285714 0.0714285714285714 0.0714285714285714 0.0714285714285714 0.0714285714285714 0.0714285714285714 0.0714285714285714 0.0714285714285714 0.0714285714285714 0.0714285714285714 0.0714285714285714 0.0714285714285714 0.0714285714285714 0.166468666468666 0.000148500148500148 0.0833085833085833 0.000148500148500148 0.000148500148500148 0.166468666468666 0.0833085833085833 0.0833085833085833 0.0833085833085833 0.24962874962875 0.0833085833085833 0.000148500148500148 0.000148500148500148 0.000148500148500148 0.0714285714285714 0.0714285714285714 0.0714285714285714 0.0714285714285714 0.0714285714285714 0.0714285714285714 0.0714285714285714 0.0714285714285714 0.0714285714285714 0.0714285714285714 0.0714285714285714 0.0714285714285714 0.0714285714285714 0.0714285714285714 0.272574889153239 5.40715907862009e-05 5.40715907862009e-05 0.0303341624310587 0.0606142532713312 0.302854979993511 0.0303341624310587 0.151454525792149 5.40715907862009e-05 0.0908943441116038 5.40715907862009e-05 0.0606142532713312 5.40715907862009e-05 5.40715907862009e-05 0.0714285714285714 0.0714285714285714 0.0714285714285714 0.0714285714285714 0.0714285714285714 0.0714285714285714 0.0714285714285714 0.0714285714285714 0.0714285714285714 0.0714285714285714 0.0714285714285714 0.0714285714285714 0.0714285714285714 0.0714285714285714 0.988536155202822 0.000881834215167548 0.000881834215167548 0.000881834215167548 0.000881834215167548 0.000881834215167548 0.000881834215167548 0.000881834215167548 0.000881834215167548 0.000881834215167548 0.000881834215167548 0.000881834215167548 0.000881834215167548 0.000881834215167548 0.0714285714285714 0.0714285714285714 0.0714285714285714 0.0714285714285714 0.0714285714285714 0.0714285714285714 0.0714285714285714 0.0714285714285714 0.0714285714285714 0.0714285714285714 0.0714285714285714 0.0714285714285714 0.0714285714285714 0.0714285714285714 0.221804511278196 0.000197863078749505 0.000197863078749505 0.000197863078749505 0.000197863078749505 0.221804511278196 0.000197863078749505 0.000197863078749505 0.000197863078749505 0.554214483577364 0.000197863078749505 0.000197863078749505 0.000197863078749505 0.000197863078749505 0.0714285714285714 0.0714285714285714 0.0714285714285714 0.0714285714285714 0.0714285714285714 0.0714285714285714 0.0714285714285714 0.0714285714285714 0.0714285714285714 0.0714285714285714 0.0714285714285714 0.0714285714285714 0.0714285714285714 0.0714285714285714 </TABLE>
</DEFINITION>

<DEFINITION>
	<FOR>v21</FOR>
	<GIVEN>v93</GIVEN>
	<GIVEN>v26</GIVEN>
	<TABLE>0.999996616157173 3.38384282726836e-06 0.5 0.5 0.963507783602811 0.0364922163971893 0.881854284405071 0.118145715594929 0.999998007340956 1.9926590440816e-06 0.999965183483044 3.48165169556438e-05 0.921648497110449 0.0783515028895514 0.855318784975929 0.144681215024071 0.9273919378339 0.0726080621661001 0.807141381447559 0.192858618552441 0.999993854549477 6.14545052297784e-06 0.999930948763983 6.90512360171247e-05 0.833105179101072 0.166894820898928 0.727984801013266 0.272015198986734 0.849812315310279 0.150187684689721 0.72219136231079 0.27780863768921 0.999979132757397 2.08672426025625e-05 0.999804763764155 0.000195236235845373 0.999894980046209 0.00010501995379122 0.999108734402852 0.00089126559714795 0.999974799657275 2.52003427246611e-05 0.999835580401184 0.000164419598816179 0.9516569507904 0.0483430492096003 0.739078461204086 0.260921538795914 0.895627277459656 0.104372722540344 0.696820590461771 0.303179409538229 0.952820311477555 0.0471796885224447 0.850474001723643 0.149525998276357 0.999887412744877 0.00011258725512272 0.999108734402852 0.00089126559714795 0.999597099113618 0.00040290088638195 0.98780487804878 0.0121951219512195 0.545351473922903 0.454648526077097 0.98780487804878 0.0121951219512195 0.999432463110102 0.000567536889897843 0.998866213151927 0.00113378684807256 0.5 0.5 0.993827160493827 0.00617283950617284 0.998442367601246 0.00155763239875389 0.98780487804878 0.0121951219512195 </TABLE>
</DEFINITION>

<DEFINITION>
	<FOR>v23</FOR>
	<GIVEN>v93</GIVEN>
	<GIVEN>v30</GIVEN>
	<TABLE>0.999993921767064 3.03911646806041e-06 3.03911646806041e-06 0.99998249345693 8.75327153523629e-06 8.75327153523629e-06 0.725333752412729 0.2746622179777 4.02960957112865e-06 9.08735676053906e-06 0.999981825286479 9.08735676053906e-06 0.718414953894213 1.81197826350875e-06 0.281583234127523 4.0989822227141e-06 4.0989822227141e-06 0.999991802035555 0.73511733252306 0.264879174917838 3.49255910283142e-06 8.68032950530802e-06 0.999982639340989 8.68032950530802e-06 0.398954779615095 0.601039006232794 6.21415211001535e-06 0.333333333333333 0.333333333333333 0.333333333333333 0.734738458824323 5.18879427987319e-06 0.265256352381397 1.3683072670799e-05 1.3683072670799e-05 0.999972633854658 0.743737174879952 0.256252408778892 1.04163411560055e-05 2.43646906902517e-05 0.99995127061862 2.43646906902517e-05 0.4117607288339 0.588222368710174 1.69024559268462e-05 0.333333333333333 0.333333333333333 0.333333333333333 0.714264119569941 1.8895376301419e-05 0.285716985053757 3.75333108133468e-05 3.75333108133468e-05 0.999924933378373 0.413518762137443 6.26448662532105e-05 0.586418592996304 0.333333333333333 0.333333333333333 0.333333333333333 0.410835773494748 1.456812784989e-05 0.589149658377402 0.333333333333333 0.333333333333333 0.333333333333333 0.73644687567398 0.263533517636218 1.96066898025606e-05 5.0193243989359e-05 0.999899613512021 5.0193243989359e-05 0.333333333333333 0.333333333333333 0.333333333333333 0.000102848914943947 0.999794302170112 0.000102848914943947 0.333333333333333 0.333333333333333 0.333333333333333 2.99733237418697e-05 0.999940053352516 2.99733237418697e-05 0.333333333333333 0.333333333333333 0.333333333333333 6.66533359994668e-05 6.66533359994668e-05 0.999866693328001 0.999479573250065 0.000260213374967473 0.000260213374967473 0.333333333333333 0.333333333333333 0.333333333333333 0.998613998613999 0.000693000693000693 0.000693000693000693 0.333333333333333 0.333333333333333 0.333333333333333 0.333333333333333 0.333333333333333 0.333333333333333 0.000252334090335604 0.000252334090335604 0.999495331819329 0.991769547325103 0.00411522633744856 0.00411522633744856 0.333333333333333 0.333333333333333 0.333333333333333 0.998153277931671 0.000923361034164358 0.000923361034164358 0.333333333333333 0.333333333333333 0.333333333333333 </TABLE>
</DEFINITION>

<DEFINITION>
	<FOR>v24</FOR>
	<GIVEN>v33</GIVEN>
	<GIVEN>v1</GIVEN>
	<TABLE>0.9994225129709 9.02323482968644e-06 9.02323482968644e-06 9.02323482968644e-06 0.000550417324610873 3.48268236195518e-06 0.992672436310446 3.48268236195518e-06 0.00731711564246783 3.48268236195518e-06 3.20076818436425e-06 3.20076818436425e-06 0.99969912779067 0.000291269904777147 3.20076818436425e-06 0.2 0.2 0.2 0.2 0.2 4.76077124494168e-05 0.956962627945727 4.76077124494168e-05 0.0428945489169245 4.76077124494168e-05 0.2 0.2 0.2 0.2 0.2 </TABLE>
</DEFINITION>

<DEFINITION>
	<FOR>v25</FOR>
	<GIVEN>v93</GIVEN>
	<GIVEN>v26</GIVEN>
	<GIVEN>v21</GIVEN>
	<TABLE>0.999998308072861 1.69192713884969e-06 0.5 0.5 0.5 0.5 0.5 0.5 0.937575751270541 0.0624242487294594 0.824131300645516 0.175868699354484 0.85218382841142 0.14781617158858 0.672376642964878 0.327623357035122 0.962855765073001 0.0371442349269988 0.5 0.5 0.855140837714564 0.144859162285436 0.5 0.5 0.894906615444795 0.105093384555205 0.829647689032347 0.170352310967653 0.801138555163498 0.198861444836502 0.682417025589055 0.317582974410945 0.915099020134783 0.0849009798652168 0.732353458898081 0.267646541101919 0.795209248752186 0.204790751247814 0.585698982324585 0.414301017675415 0.958699245948587 0.0413007540514132 0.5 0.5 0.834231061390788 0.165768938609212 0.5 0.5 0.923309403180689 0.076690596819311 0.859339908212089 0.140660091787911 0.794858294034156 0.205141705965844 0.62743536331332 0.372564636686681 0.936069733565152 0.063930266434848 0.957325179473544 0.0426748205264557 0.807662724738006 0.192337275261994 0.619970007498125 0.380029992501875 0.959923624298324 0.0400763757016757 0.5 0.5 0.828060925600469 0.171939074399531 0.5 0.5 0.957935090851801 0.0420649091481987 0.5 0.5 0.714094558429973 0.285905441570027 0.5 0.5 0.955633678586729 0.0443663214132708 0.5 0.5 0.828893274132544 0.171106725867456 0.5 0.5 0.94038519908391 0.0596148009160895 0.956273764258555 0.0437262357414449 0.811718864872813 0.188281135127187 0.76655560183257 0.23344439816743 0.97660563789596 0.0233943621040395 0.79925187032419 0.200748129675811 0.739000543183053 0.260999456816947 0.699750312109863 0.300249687890137 0.895577226838816 0.104422773161184 0.666435506241332 0.333564493758669 0.837780780273602 0.162219219726398 0.384726224783862 0.615273775216138 0.918871748676951 0.0811282513230492 0.5 0.5 0.856824264049955 0.143175735950045 0.5 0.5 0.999798468359532 0.000201531640467553 0.5 0.5 0.00617283950617284 0.993827160493827 0.5 0.5 0.5 0.5 0.998753117206983 0.00124688279301746 0.993827160493827 0.00617283950617284 0.5 0.5 0.954287336740488 0.0457126632595116 0.5 0.5 0.908626560726447 0.0913734392735528 0.5 0.5 0.5 0.5 0.5 0.5 0.996894409937888 0.0031055900621118 0.5 0.5 0.999219968798752 0.00078003120124805 0.5 0.5 0.993827160493827 0.00617283950617284 0.5 0.5 </TABLE>
</DEFINITION>

<DEFINITION>
	<FOR>v26</FOR>
	<GIVEN>v93</GIVEN>
	<GIVEN>v38</GIVEN>
	<GIVEN>v34</GIVEN>
	<TABLE>0.999998731997535 1.26800246499679e-06 0.999989787790282 1.02122097179388e-05 0.5 0.5 0.5 0.5 0.5 0.5 0.5 0.5 0.877903925194402 0.122096074805597 0.895623505543077 0.104376494456923 0.833142304187296 0.166857695812704 0.671581439685127 0.328418560314873 0.83088982534112 0.16911017465888 0.815344186642738 0.184655813357262 0.956126895312956 0.0438731046870436 0.964066067040082 0.0359339329599182 0.913360880484789 0.0866391195152111 0.955741009316389 0.0442589906836115 0.871417517335794 0.128582482664206 0.909039262719354 0.0909607372806464 0.818269461523821 0.181730538476179 0.788968733277272 0.211031266722728 0.710524666943398 0.289475333056602 0.477733544752201 0.522266455247799 0.610606828300687 0.389393171699313 0.45890645511101 0.54109354488899 0.753241271833943 0.246758728166057 0.839047983909587 0.160952016090413 0.751214406211256 0.248785593788744 0.836182745492422 0.163817254507578 0.614580017939296 0.385419982060704 0.599984850780185 0.400015149219815 0.924509298068292 0.0754907019317081 0.900798843054886 0.099201156945114 0.914029034663236 0.0859709653367641 0.966645062728577 0.0333549372714226 0.859351604713235 0.140648395286765 0.810740824138708 0.189259175861293 0.781649139405407 0.218350860594593 0.912893879029337 0.0871061209706628 0.686072023796966 0.313927976203034 0.733290131457138 0.266709868542862 0.530085241517633 0.469914758482367 0.772254764458378 0.227745235541622 0.709075070070449 0.290924929929551 0.739043824701195 0.260956175298805 0.69425720503158 0.30574279496842 0.666624589750063 0.333375410249937 0.51111042528239 0.48888957471761 0.514282313734825 0.485717686265175 0.913534737398237 0.0864652626017627 0.897891515048461 0.102108484951539 0.923955947565908 0.0760440524340919 0.857001190003967 0.142998809996033 0.849951395639495 0.150048604360505 0.733203775680178 0.266796224319822 0.939338467365232 0.0606615326347683 0.799833425874514 0.200166574125486 0.892740255876227 0.107259744123773 0.624869927159209 0.375130072840791 0.916377515614157 0.0836224843858432 0.998960498960499 0.00103950103950104 0.888502575940993 0.111497424059007 0.920579288453908 0.0794207115460918 0.840887570229152 0.159112429770848 0.843660505076803 0.156339494923197 0.727229691346336 0.272770308653664 0.999168053244592 0.000831946755407654 0.889407475662033 0.110592524337967 0.799916689808387 0.200083310191613 0.776029686211536 0.223970313788464 0.727186671715259 0.272813328284741 0.709075070070449 0.290924929929551 0.827492099971273 0.172507900028727 0.70578147966683 0.29421852033317 0.5 0.5 0.588213673119333 0.411786326880667 0.5 0.5 0.533324076645376 0.466675923354624 0.5 0.5 0.738613767635641 0.261386232364359 0.5 0.5 0.669280230955974 0.330719769044026 0.5 0.5 0.65077370718159 0.34922629281841 0.5 0.5 0.878740058073476 0.121259941926524 0.5 0.5 0.921499754942003 0.078500245057997 0.5 0.5 0.749739854318418 0.250260145681582 0.5 0.5 0.954373343430519 0.0456266565694813 0.5 0.5 0.999583680266445 0.000416319733555371 0.5 0.5 0.5 0.5 0.5 0.5 0.997925311203319 0.0020746887966805 0.5 0.5 0.888529139685476 0.111470860314524 0.5 0.5 0.995867768595041 0.00413223140495868 0.5 0.5 0.823370896619304 0.176629103380696 0.5 0.5 0.571343638525565 0.428656361474435 0.5 0.5 0.444495837187789 0.555504162812211 0.5 0.5 0.5 0.5 0.5 0.5 0.0020746887966805 0.997925311203319 0.5 0.5 0.5 0.5 0.5 0.5 0.832871012482663 0.167128987517337 0.5 0.5 0.998614958448753 0.00138504155124654 0.5 0.5 0.5 0.5 0.5 0.5 </TABLE>
</DEFINITION>

<DEFINITION>
	<FOR>v27</FOR>
	<GIVEN>v93</GIVEN>
	<TABLE>0.999990976480196 4.51175990218504e-06 4.51175990218504e-06 0.999988833241208 5.58337939621335e-06 5.58337939621335e-06 0.999994973901986 2.51304900696868e-06 2.51304900696868e-06 0.999990038005011 4.98099749455826e-06 4.98099749455826e-06 0.99997514385494 1.24280725302313e-05 1.24280725302313e-05 0.999984951430743 7.52428462863893e-06 7.52428462863893e-06 1.45936400916481e-05 0.999970812719817 1.45936400916481e-05 3.38031977825102e-05 0.999932393604435 3.38031977825102e-05 2.51363647789257e-05 2.51363647789257e-05 0.999949727270442 0.000125266190655142 0.000125266190655142 0.99974946761869 0.999941730035253 2.91349823733357e-05 2.91349823733357e-05 2.81984039703353e-05 0.999943603192059 2.81984039703353e-05 0.000205634382068682 0.999588731235863 0.000205634382068682 0.999880117484865 5.99412575675838e-05 5.99412575675838e-05 0.99973343995735 0.000133280021324803 0.000133280021324803 0.998959958398336 0.000520020800832033 0.000520020800832033 0.997233748271093 0.00138312586445367 0.00138312586445367 0.000504286434694907 0.000504286434694907 0.99899142713061 0.00813008130081301 0.983739837398374 0.00813008130081301 0.00184162062615101 0.00184162062615101 0.996316758747698 </TABLE>
</DEFINITION>

<DEFINITION>
	<FOR>v28</FOR>
	<GIVEN>v93</GIVEN>
	<GIVEN>v38</GIVEN>
	<TABLE>0.999996992132924 1.50393353816908e-06 1.50393353816908e-06 0.333333333333333 0.333333333333333 0.333333333333333 0.333333333333333 0.333333333333333 0.333333333333333 4.84348285164896e-06 0.999990313034297 4.84348285164896e-06 4.79747460936563e-06 0.999990405050781 4.79747460936563e-06 8.16973440193459e-06 0.999983660531196 8.16973440193459e-06 1.14264428455042e-06 0.140683506958132 0.859315350397583 3.9013276217897e-06 0.24157410766884 0.758421991003538 1.60557455485445e-05 0.456641459146156 0.543342485108296 4.97802203272552e-06 0.999990043955934 4.97802203272552e-06 4.23759338596424e-06 0.999991524813228 4.23759338596424e-06 6.04510860037601e-06 0.999987909782799 6.04510860037601e-06 1.1769829219778e-05 0.99997646034156 1.1769829219778e-05 1.05615580410422e-05 0.999978876883918 1.05615580410422e-05 1.61961679866544e-05 0.999967607664027 1.61961679866544e-05 4.27344948569036e-06 0.159233001286308 0.840762725264206 7.40724280201181e-06 0.358666103716214 0.641326489040984 3.36666330000337e-05 0.375753290913376 0.624213042453624 2.20443974163966e-05 0.999955911205167 2.20443974163966e-05 1.26257843768544e-05 0.999974748431246 1.26257843768544e-05 1.23452217819093e-05 0.999975309556436 1.23452217819093e-05 4.17658605855574e-05 0.999916468278829 4.17658605855574e-05 2.92372014150805e-05 0.99994152559717 2.92372014150805e-05 3.26765349802307e-05 0.99993464693004 3.26765349802307e-05 1.40285902669641e-05 0.0909192935201941 0.909066677889539 2.89326736683737e-05 0.322917570812719 0.677053496513613 7.40576168258905e-05 0.280011849218692 0.719914093164482 6.85729959541932e-05 0.0988136871699925 0.901117739834053 0.000154249575813667 0.111213944161654 0.888631806262533 0.000346860908775581 0.312521678806798 0.687131460284426 1.54743667115423e-05 0.0863624406171177 0.913622085016171 3.38718964874843e-05 0.182942112928903 0.81702401517461 0.000113340133741358 0.285730477161963 0.714156182704296 2.33410358751721e-05 0.99995331792825 2.33410358751721e-05 2.59585182877761e-05 0.999948082963424 2.59585182877761e-05 3.99632338248811e-05 0.99992007353235 3.99632338248811e-05 0.000326477309826967 0.999347045380346 0.000326477309826967 0.000163318634656214 0.999673362730688 0.000163318634656214 0.000185082361650935 0.999629835276698 0.000185082361650935 6.31193587073155e-05 0.999873761282585 6.31193587073155e-05 4.37387919345668e-05 0.999912522416131 4.37387919345668e-05 8.81600987393106e-05 0.999823679802521 8.81600987393106e-05 8.41538332071026e-05 0.0758226037195994 0.924093242447193 0.000108896874659697 0.196123271262115 0.803767831863226 0.000693000693000693 0.25017325017325 0.749133749133749 0.000252334090335604 0.000252334090335604 0.999495331819329 0.000554631170271769 0.000554631170271769 0.998890737659456 0.333333333333333 0.333333333333333 0.333333333333333 0.00275482093663912 0.994490358126722 0.00275482093663912 0.000616142945163278 0.998767714109673 0.000616142945163278 0.00546448087431694 0.989071038251366 0.00546448087431694 0.000326477309826967 0.176624224616389 0.823049298073784 0.000791765637371338 0.143309580364212 0.855898653998416 0.000616142945163278 0.111521873074553 0.887861983980283 0.333333333333333 0.333333333333333 0.333333333333333 0.00275482093663912 0.994490358126722 0.00275482093663912 0.333333333333333 0.333333333333333 0.333333333333333 0.000923361034164358 0.000923361034164358 0.998153277931671 0.00184162062615101 0.00184162062615101 0.996316758747698 0.333333333333333 0.333333333333333 0.333333333333333 </TABLE>
</DEFINITION>

<DEFINITION>
	<FOR>v29</FOR>
	<GIVEN>v93</GIVEN>
	<TABLE>0.999993232360147 6.76763985327757e-06 0.999991624930906 8.37506909432003e-06 0.99999623042649 3.76957351045303e-06 0.999992528503758 7.47149624183739e-06 0.999981357891205 1.86421087953469e-05 0.999988713573057 1.12864269429584e-05 0.999978109539862 2.18904601374721e-05 0.999949295203326 5.07047966737653e-05 0.999962295452832 3.77045471683885e-05 0.999812100714017 0.000187899285982713 0.99995629752644 4.37024735600035e-05 0.999957702394045 4.22976059555029e-05 0.000308451573103023 0.999691548426897 8.99118863513757e-05 0.999910088113649 0.000199920031987205 0.999800079968013 0.999219968798752 0.00078003120124805 0.99792531120332 0.0020746887966805 0.00075642965204236 0.999243570347958 0.98780487804878 0.0121951219512195 0.997237569060773 0.00276243093922652 </TABLE>
</DEFINITION>

<DEFINITION>
	<FOR>v30</FOR>
	<GIVEN>v52</GIVEN>
	<GIVEN>v51</GIVEN>
	<GIVEN>v93</GIVEN>
	<TABLE>0.502590589682977 0.497409410317023 0.729351222728706 0.270648777271294 0.714890759431391 0.285109240568609 0.72157451313061 0.27842548686939 0.999979968751252 2.0031248748047e-05 0.785706313997935 0.214293686002065 0.614575873966539 0.385424126033461 0.99995192769926 4.80723007403134e-05 0.599988637654812 0.400011362345188 0.999716070414537 0.000283929585462805 0.999934904309335 6.5095690665278e-05 0.58331886825204 0.41668113174796 0.000446030330062444 0.999553969669938 8.9269773254776e-05 0.999910730226745 0.000260281103591879 0.999739718896408 0.998960498960499 0.00103950103950104 0.998442367601246 0.00155763239875389 0.00155763239875389 0.998442367601246 0.5 0.5 0.996894409937888 0.0031055900621118 0.814504202554975 0.185495797445025 0.707991354084889 0.292008645915111 0.641310191229552 0.358689808770448 0.734574654101021 0.265425345898979 0.999989886935944 1.01130640561477e-05 0.709275653664257 0.290724346335743 0.701024451531845 0.298975548468155 0.999970520606096 2.94793939036613e-05 0.636980437481272 0.363019562518728 0.999884286044897 0.000115713955102985 0.999975587129535 2.44128704653093e-05 0.63565234242527 0.36434765757473 0.000148765248437965 0.999851234751562 6.12670015929421e-05 0.999938732998407 0.000111582236108012 0.999888417763892 0.998960498960499 0.00103950103950104 0.996894409937888 0.0031055900621118 0.000312304809494066 0.999687695190506 0.998442367601246 0.00155763239875389 0.998960498960499 0.00103950103950104 0.5 0.5 0.5 0.5 0.5 0.5 0.5 0.5 0.5 0.5 0.5 0.5 0.5 0.5 0.5 0.5 0.5 0.5 0.5 0.5 0.5 0.5 0.5 0.5 0.5 0.5 0.5 0.5 0.5 0.5 0.5 0.5 0.5 0.5 0.5 0.5 0.5 0.5 0.5 0.5 0.55310164891135 0.44689835108865 0.672786177105832 0.327213822894168 0.708942027733599 0.291057972266401 0.704223354622901 0.295776645377099 0.999989583550343 1.04164496572988e-05 0.727910160994678 0.272089839005322 0.731994200144996 0.268005799855004 0.999966034916106 3.39650838937572e-05 0.634139525430618 0.365860474569382 0.999879836577746 0.000120163422254266 0.999969061320463 3.09386795371574e-05 0.749989149776485 0.250010850223515 0.000240269101393561 0.999759730898606 7.10126402499645e-05 0.99992898735975 0.000130174433741213 0.999869825566259 0.999219968798752 0.00078003120124805 0.998960498960499 0.00103950103950104 0.000446030330062444 0.999553969669938 0.5 0.5 0.999219968798752 0.00078003120124805 0.660999894079017 0.339000105920983 0.658811852069701 0.341188147930299 0.618674156756888 0.381325843243112 0.85085795734883 0.14914204265117 0.99994318827406 5.68117259402341e-05 0.734678910783751 0.265321089216249 0.823489768410734 0.176510231589266 0.999905320961939 9.46790380609733e-05 0.599975006248438 0.400024993751562 0.999479708636837 0.000520291363163372 0.999804763764155 0.000195236235845373 0.882212421903712 0.117787578096288 0.00078003120124805 0.999219968798752 0.000520291363163372 0.999479708636837 0.000520291363163372 0.999479708636837 0.5 0.5 0.5 0.5 0.0031055900621118 0.996894409937888 0.5 0.5 0.5 0.5 0.5 0.5 0.5 0.5 0.5 0.5 0.5 0.5 0.5 0.5 0.5 0.5 0.5 0.5 0.5 0.5 0.5 0.5 0.5 0.5 0.5 0.5 0.5 0.5 0.5 0.5 0.5 0.5 0.5 0.5 0.5 0.5 0.5 0.5 0.5 0.5 0.5 0.5 0.5 0.5 0.799003115652266 0.200996884347734 0.71242919509975 0.28757080490025 0.719011306210559 0.280988693789441 0.669850253116686 0.330149746883314 0.999990414294204 9.58570579551772e-06 0.718707913645858 0.281292086354142 0.665703067307865 0.334296932692134 0.999975962694101 2.40373058987549e-05 0.686268803039123 0.313731196960877 0.999934904309335 6.5095690665278e-05 0.999984296975597 1.57030244024999e-05 0.734930913745717 0.265069086254283 0.000173550850399167 0.999826449149601 3.28925728570489e-05 0.999967107427143 0.000107735401853049 0.999892264598147 0.999826449149601 0.000173550850399167 0.998960498960499 0.00103950103950104 0.000520291363163372 0.999479708636837 0.5 0.5 0.5 0.5 0.917825408668521 0.0821745913314793 0.632650946254046 0.367349053745954 0.723889271376329 0.276110728623671 0.736134845424887 0.263865154575113 0.9999839748726 1.60251273997628e-05 0.717138979661077 0.282861020338923 0.730385098495757 0.269614901504243 0.999953362559463 4.66374405372633e-05 0.745440599965911 0.254559400034089 0.999791753436068 0.000208246563931695 0.999960940551519 3.90594484805875e-05 0.777760242408939 0.222239757591061 0.000173550850399167 0.999826449149601 6.64805212072863e-05 0.999933519478793 0.000120163422254266 0.999879836577746 0.999219968798752 0.00078003120124805 0.998960498960499 0.00103950103950104 0.000446030330062444 0.999553969669938 0.5 0.5 0.996894409937888 0.0031055900621118 </TABLE>
</DEFINITION>

<DEFINITION>
	<FOR>v31</FOR>
	<GIVEN>v10</GIVEN>
	<TABLE>0.999982280185704 1.77198142963462e-05 2.43391909652923e-05 0.999975660809035 </TABLE>
</DEFINITION>

<DEFINITION>
	<FOR>v32</FOR>
	<GIVEN>v28</GIVEN>
	<TABLE>0.999954885861229 4.51141387710909e-05 1.36295488619327e-05 0.999986370451138 0.999980293236639 1.97067633611856e-05 </TABLE>
</DEFINITION>

<DEFINITION>
	<FOR>v33</FOR>
	<GIVEN>v93</GIVEN>
	<GIVEN>v26</GIVEN>
	<GIVEN>v21</GIVEN>
	<TABLE>0.999998308072861 1.69192713884969e-06 0.5 0.5 0.5 0.5 0.5 0.5 0.985016203619415 0.0149837963805848 0.901043812663096 0.0989561873369043 0.94455991455212 0.0554400854478797 0.913703943115708 0.0862960568842922 0.999999003668493 9.96331507389791e-07 0.5 0.5 0.999982591135406 1.74088645938512e-05 0.5 0.5 0.957960894670162 0.0420391053298381 0.884588970537738 0.115411029462262 0.878851730689562 0.121148269310438 0.783759817582974 0.216240182417026 0.945969597993412 0.0540304020065876 0.873173737018131 0.126826262981869 0.870291369822107 0.129708630177893 0.785663274415283 0.214336725584717 0.999996927255855 3.07274414488603e-06 0.5 0.5 0.99996547199779 3.45280022097921e-05 0.5 0.5 0.926439232409382 0.0735607675906183 0.781222536861635 0.218777463138365 0.846137997344444 0.153862002655556 0.754870726626639 0.245129273373361 0.921032846200836 0.0789671537991636 0.80842860941239 0.19157139058761 0.823045860974906 0.176954139025094 0.699950012496876 0.300049987503124 0.999989566160973 1.04338390267315e-05 0.5 0.5 0.999902362819762 9.76371802382347e-05 0.5 0.5 0.99994748450793 5.25154920701607e-05 0.5 0.5 0.999553969669938 0.000446030330062444 0.5 0.5 0.999987399511101 1.26004888989693e-05 0.5 0.5 0.999917776681467 8.2223318533136e-05 0.5 0.5 0.96908197897409 0.0309180210259099 0.869364475828354 0.130635524171646 0.91758564916924 0.0824143508307602 0.866513952519783 0.133486047480217 0.88360941586748 0.11639058413252 0.599750623441397 0.400249376558603 0.782455187398153 0.217544812601847 0.999375780274657 0.000624219725343321 0.972495020946364 0.0275049790536364 0.888349514563107 0.111650485436893 0.891825705117379 0.108174294882621 0.845821325648415 0.154178674351585 0.99994370003378 5.62999662200203e-05 0.5 0.5 0.999553969669938 0.000446030330062444 0.5 0.5 0.999798468359532 0.000201531640467553 0.5 0.5 0.993827160493827 0.00617283950617284 0.5 0.5 0.998960498960499 0.00103950103950104 0.998753117206983 0.00124688279301746 0.993827160493827 0.00617283950617284 0.5 0.5 0.999716070414537 0.000283929585462805 0.5 0.5 0.999432463110102 0.000567536889897843 0.5 0.5 0.5 0.5 0.5 0.5 0.996894409937888 0.0031055900621118 0.5 0.5 0.999219968798752 0.00078003120124805 0.5 0.5 0.993827160493827 0.00617283950617284 0.5 0.5 </TABLE>
</DEFINITION>

<DEFINITION>
	<FOR>v34</FOR>
	<GIVEN>v93</GIVEN>
	<GIVEN>v30</GIVEN>
	<GIVEN>v23</GIVEN>
	<TABLE>0.99999848043253 1.51956747031525e-06 0.5 0.5 0.5 0.5 0.571427946183944 0.428572053816055 0.5 0.5 0.5 0.5 0.999997222237654 2.77776234576475e-06 0.999992664426872 7.33557312832851e-06 0.5 0.5 0.5 0.5 0.508178769731282 0.491821230268718 0.5 0.5 0.999998738905521 1.26109447867615e-06 0.5 0.5 0.999996782517487 3.21748251298254e-06 0.5 0.5 0.5 0.5 0.472208672697685 0.527791327302315 0.999997624488671 2.37551132881353e-06 0.999993407259925 6.59274007462982e-06 0.5 0.5 0.5 0.5 0.477083532261005 0.522916467738995 0.5 0.5 0.999992211959315 7.78804068472453e-06 0.679898884420136 0.320101115579864 0.5 0.5 0.5 0.5 0.5 0.5 0.5 0.5 0.999996468951491 3.53104850954442e-06 0.5 0.5 0.99999021928366 9.78071633966472e-06 0.5 0.5 0.5 0.5 0.444992542521312 0.555007457478688 0.999992997296957 7.00270304337474e-06 0.999979675622942 2.03243770578432e-05 0.5 0.5 0.5 0.5 0.505847810725859 0.494152189274141 0.5 0.5 0.999979475390994 2.05246090061984e-05 0.686201545932588 0.313798454067412 0.5 0.5 0.5 0.5 0.5 0.5 0.5 0.5 0.999986772836697 1.32271633025581e-05 0.5 0.5 0.999966933403875 3.30665961245949e-05 0.5 0.5 0.5 0.5 0.617112720993957 0.382887279006043 0.999924253900924 7.57460990758976e-05 0.5 0.5 0.65382971904711 0.34617028095289 0.5 0.5 0.5 0.5 0.5 0.5 0.999982270132265 1.77298677351867e-05 0.5 0.5 0.703259068766846 0.296740931233154 0.5 0.5 0.5 0.5 0.5 0.5 0.999986688320332 1.33116796677405e-05 0.999962800386876 3.71996131240235e-05 0.5 0.5 0.5 0.5 0.512047587972491 0.487952412027509 0.5 0.5 0.5 0.5 0.5 0.5 0.5 0.5 0.5 0.5 0.999948564962452 5.14350375475774e-05 0.5 0.5 0.5 0.5 0.5 0.5 0.5 0.5 0.5 0.5 0.999985012439675 1.49875603249303e-05 0.5 0.5 0.5 0.5 0.5 0.5 0.5 0.5 0.5 0.5 0.5 0.5 0.999966668888741 3.33311112592494e-05 0.999869825566259 0.000130174433741213 0.5 0.5 0.5 0.5 0.5 0.5 0.5 0.5 0.5 0.5 0.999653018736988 0.000346981263011797 0.5 0.5 0.5 0.5 0.5 0.5 0.5 0.5 0.5 0.5 0.5 0.5 0.5 0.5 0.5 0.5 0.5 0.5 0.5 0.5 0.999873769250189 0.000126230749810654 0.997925311203319 0.0020746887966805 0.5 0.5 0.5 0.5 0.5 0.5 0.5 0.5 0.5 0.5 0.999537465309898 0.000462534690101758 0.5 0.5 0.5 0.5 0.5 0.5 0.5 0.5 0.5 0.5 </TABLE>
</DEFINITION>

<DEFINITION>
	<FOR>v35</FOR>
	<GIVEN>v10</GIVEN>
	<TABLE>0.999982280185704 1.77198142963462e-05 2.43391909652923e-05 0.999975660809035 </TABLE>
</DEFINITION>

<DEFINITION>
	<FOR>v36</FOR>
	<GIVEN>v93</GIVEN>
	<TABLE>0.999990976480196 4.51175990218504e-06 4.51175990218504e-06 0.999653830477435 5.58337939621335e-06 0.000340586143169014 0.999994973901986 2.51304900696868e-06 2.51304900696868e-06 0.999990038005011 4.98099749455826e-06 4.98099749455826e-06 1.24280725302313e-05 0.99997514385494 1.24280725302313e-05 0.999984951430743 7.52428462863893e-06 7.52428462863893e-06 1.45936400916481e-05 0.999970812719817 1.45936400916481e-05 3.38031977825102e-05 0.999932393604435 3.38031977825102e-05 2.51363647789257e-05 0.999949727270442 2.51363647789257e-05 0.000125266190655142 0.99974946761869 0.000125266190655142 2.91349823733357e-05 0.999941730035253 2.91349823733357e-05 2.81984039703353e-05 0.999943603192059 2.81984039703353e-05 0.000205634382068682 0.999588731235863 0.000205634382068682 0.999880117484865 5.99412575675838e-05 5.99412575675838e-05 0.99973343995735 0.000133280021324803 0.000133280021324803 0.000520020800832033 0.998959958398336 0.000520020800832033 0.00138312586445367 0.997233748271093 0.00138312586445367 0.000504286434694907 0.99899142713061 0.000504286434694907 0.00813008130081301 0.983739837398374 0.00813008130081301 0.00184162062615101 0.996316758747698 0.00184162062615101 </TABLE>
</DEFINITION>

<DEFINITION>
	<FOR>v37</FOR>
	<GIVEN>v10</GIVEN>
	<TABLE>0.999982280185704 1.77198142963462e-05 2.43391909652923e-05 0.999975660809035 </TABLE>
</DEFINITION>

<DEFINITION>
	<FOR>v38</FOR>
	<GIVEN>v34</GIVEN>
	<GIVEN>v7</GIVEN>
	<GIVEN>v4</GIVEN>
	<GIVEN>v1</GIVEN>
	<TABLE>0.99999324641469 3.37679265480062e-06 3.37679265480062e-06 0.333333333333333 0.333333333333333 0.333333333333333 0.333333333333333 0.333333333333333 0.333333333333333 0.333333333333333 0.333333333333333 0.333333333333333 0.333333333333333 0.333333333333333 0.333333333333333 0.333333333333333 0.333333333333333 0.333333333333333 0.999965960343801 1.70198280997362e-05 1.70198280997362e-05 0.949030916304025 0.0498330973977175 0.00113598629825757 0.960297345176481 0.0397011103337179 1.5444898009616e-06 0.333333333333333 0.333333333333333 0.333333333333333 0.93220390860536 0.0661279708614542 0.00166812053318642 0.943686246217359 0.0519649692378605 0.00434878454478046 0.333333333333333 0.333333333333333 0.333333333333333 2.25723953148736e-06 0.576546378372034 0.423451364388435 4.47301208160563e-06 0.777771813761669 0.222223713226249 0.333333333333333 0.333333333333333 0.333333333333333 6.79315521680355e-06 0.542915758082156 0.457077448762627 3.50692617920393e-05 0.700718919866737 0.299246010871471 0.333333333333333 0.333333333333333 0.333333333333333 0.333333333333333 0.333333333333333 0.333333333333333 0.333333333333333 0.333333333333333 0.333333333333333 0.333333333333333 0.333333333333333 0.333333333333333 0.333333333333333 0.333333333333333 0.333333333333333 0.333333333333333 0.333333333333333 0.333333333333333 0.999954614564186 2.26927179068237e-05 2.26927179068237e-05 0.962794164015249 0.0371771720124975 2.86639722532749e-05 0.974807987711214 0.0251814185073362 1.05937814502887e-05 0.333333333333333 0.333333333333333 0.333333333333333 0.961804335090803 0.0380785002929115 0.000117164616285882 0.940928270042194 0.0589356199809446 0.000136109976861304 0.333333333333333 0.333333333333333 0.333333333333333 1.0426767597777e-05 0.700438966915866 0.299550606316536 1.45350949868457e-05 0.830433581883458 0.169551883021556 0.333333333333333 0.333333333333333 0.333333333333333 3.53369377009788e-05 0.370225096293155 0.629739566769144 0.000210304942166141 0.568033648790747 0.431756046267087 </TABLE>
</DEFINITION>

<DEFINITION>
	<FOR>v39</FOR>
	<GIVEN>v10</GIVEN>
	<TABLE>0.999982280185704 1.77198142963462e-05 2.43391909652923e-05 0.999975660809035 </TABLE>
</DEFINITION>

<DEFINITION>
	<FOR>v40</FOR>
	<GIVEN>v29</GIVEN>
	<TABLE>0.999989523310634 1.04766893661603e-05 0.000483091787439614 0.99951690821256 </TABLE>
</DEFINITION>

<DEFINITION>
	<FOR>v41</FOR>
	<GIVEN>v5</GIVEN>
	<TABLE>0.999932331844634 6.76681553660847e-05 1.20857605569118e-05 0.999987914239443 </TABLE>
</DEFINITION>

<DEFINITION>
	<FOR>v42</FOR>
	<GIVEN>v3</GIVEN>
	<TABLE>0.99998852447729 1.14755227100594e-05 9.63576797070726e-05 0.999903642320293 </TABLE>
</DEFINITION>

<DEFINITION>
	<FOR>v43</FOR>
	<GIVEN>v16</GIVEN>
	<TABLE>0.999963458305927 3.65416940729372e-05 1.42543547053625e-05 0.999985745645295 </TABLE>
</DEFINITION>

<DEFINITION>
	<FOR>v44</FOR>
	<GIVEN>v93</GIVEN>
	<GIVEN>v23</GIVEN>
	<TABLE>0.999997744099693 2.25590030725362e-06 0.5 0.5 0.5 0.5 0.0386717925356385 0.961328207464361 5.61160929731428e-06 0.999994388390703 0.5 0.5 0.0230048274574886 0.976995172542511 0.5 0.5 2.50399387022301e-06 0.99999749600613 0.0570167520263015 0.942983247973698 5.23445106311701e-06 0.999994765548937 0.5 0.5 0.0579576960219308 0.942042303978069 1.0338909451831e-05 0.999989661090548 0.5 0.5 0.0245829861160153 0.975417013883985 0.5 0.5 8.05140013848408e-06 0.999991948599861 0.0588358869499454 0.941164113050055 1.52341488681027e-05 0.999984765851132 0.5 0.5 0.0591494951153436 0.940850504884656 2.87339808057008e-05 0.999971266019194 0.5 0.5 0.0285963705624041 0.971403629437596 0.5 0.5 2.3945213351851e-05 0.999976054786648 0.0546803998788246 0.945319600121175 0.5 0.5 0.00010681478316599 0.999893185216834 0.0298205801007021 0.970179419899298 0.5 0.5 2.47267692003363e-05 0.9999752732308 0.0383632394441191 0.961636760555881 2.99742221689347e-05 0.999970025777831 0.5 0.5 0.5 0.5 0.00010285949393129 0.999897140506069 0.5 0.5 0.5 0.5 2.99742221689347e-05 0.999970025777831 0.5 0.5 0.5 0.5 0.5 0.5 6.6657778962805e-05 0.999933342221037 0.250130140551796 0.749869859448204 0.5 0.5 0.5 0.5 0.416782246879334 0.583217753120666 0.5 0.5 0.5 0.5 0.5 0.5 0.5 0.5 0.000252397778899546 0.9997476022211 0.00413223140495868 0.995867768595041 0.5 0.5 0.5 0.5 0.111829944547135 0.888170055452865 0.5 0.5 0.5 0.5 </TABLE>
</DEFINITION>

<DEFINITION>
	<FOR>v45</FOR>
	<GIVEN>v30</GIVEN>
	<GIVEN>v28</GIVEN>
	<GIVEN>v23</GIVEN>
	<TABLE>0.999989869724659 1.01302753408838e-05 0.5 0.5 0.5 0.5 0.999995251707011 4.74829298867057e-06 0.999989369618369 1.06303816307005e-05 0.111169652265543 0.888830347734457 0.999993376869379 6.62313062138212e-06 0.5 0.5 0.999985326485693 1.46735143066764e-05 0.999970823364649 2.91766353504114e-05 0.5 0.5 0.5 0.5 0.5 0.5 0.999989877108092 1.01228919077602e-05 4.26003237624606e-05 0.999957399676237 0.5 0.5 0.5 0.5 0.999988279693397 1.17203066032207e-05 </TABLE>
</DEFINITION>

<DEFINITION>
	<FOR>v46</FOR>
	<GIVEN>v2</GIVEN>
	<TABLE>0.999984505432783 3.87364180434235e-06 3.87364180434235e-06 3.87364180434235e-06 3.87364180434235e-06 5.73789304567363e-06 0.999977048427817 5.73789304567363e-06 5.73789304567363e-06 5.73789304567363e-06 8.9122588119959e-06 8.9122588119959e-06 0.999964350964752 8.9122588119959e-06 8.9122588119959e-06 1.57529930686831e-05 1.57529930686831e-05 1.57529930686831e-05 0.999936988027725 1.57529930686831e-05 0.00072463768115942 0.00072463768115942 0.00072463768115942 0.00072463768115942 0.997101449275362 </TABLE>
</DEFINITION>

<DEFINITION>
	<FOR>v93</FOR>
	<GIVEN>v2</GIVEN>
	<TABLE>0.357731789041467 9.68410451085588e-07 0.642250779570413 9.68410451085588e-07 9.68410451085588e-07 9.68410451085588e-07 9.68410451085588e-07 9.68410451085588e-07 9.68410451085588e-07 9.68410451085588e-07 9.68410451085588e-07 9.68410451085588e-07 9.68410451085588e-07 9.68410451085588e-07 9.68410451085588e-07 9.68410451085588e-07 9.68410451085588e-07 9.68410451085588e-07 9.68410451085588e-07 9.68410451085588e-07 1.43447326141841e-06 0.428191703006656 1.43447326141841e-06 1.43447326141841e-06 1.43447326141841e-06 0.317737261877439 1.43447326141841e-06 1.43447326141841e-06 0.0951070117053018 1.43447326141841e-06 1.43447326141841e-06 0.0847788042230893 0.0116206678907505 0.0398797911406931 0.0179323502409915 1.43447326141841e-06 1.43447326141841e-06 0.00473519623594216 1.43447326141841e-06 1.43447326141841e-06 2.22806470299898e-06 2.22806470299898e-06 2.22806470299898e-06 0.74551267768816 2.22806470299898e-06 2.22806470299898e-06 0.254447217147186 2.22806470299898e-06 2.22806470299898e-06 2.22806470299898e-06 2.22806470299898e-06 2.22806470299898e-06 2.22806470299898e-06 2.22806470299898e-06 2.22806470299898e-06 2.22806470299898e-06 2.22806470299898e-06 2.22806470299898e-06 2.22806470299898e-06 2.22806470299898e-06 3.93824826717076e-06 3.93824826717076e-06 3.93824826717076e-06 3.93824826717076e-06 0.528123030875866 3.93824826717076e-06 3.93824826717076e-06 0.194159577819786 3.93824826717076e-06 0.0523826402016383 0.225271739130435 3.93824826717076e-06 3.93824826717076e-06 3.93824826717076e-06 3.93824826717076e-06 3.93824826717076e-06 3.93824826717076e-06 3.93824826717076e-06 3.93824826717076e-06 3.93824826717076e-06 0.000181159420289855 0.000181159420289855 0.000181159420289855 0.000181159420289855 0.000181159420289855 0.000181159420289855 0.000181159420289855 0.000181159420289855 0.000181159420289855 0.000181159420289855 0.000181159420289855 0.000181159420289855 0.000181159420289855 0.000181159420289855 0.000181159420289855 0.579891304347826 0.217572463768116 0.000181159420289855 0.0364130434782609 0.163224637681159 </TABLE>
</DEFINITION>

<DEFINITION>
	<FOR>v51</FOR>
	<GIVEN>v93</GIVEN>
	<TABLE>0.0682211935409645 0.227666788484184 0.272062505921685 0.432049512053167 0.101510024957706 0.205360881727274 0.361137166881627 0.331991926433393 0.109621082470729 0.257689929961324 0.341826810714636 0.290862176853311 0.162882353820176 0.208309050970547 0.281529714140554 0.347278881068723 0.157348719287126 0.230425785764886 0.243102419745722 0.369123075202267 0.145374822238776 0.218962325906864 0.349884878445182 0.285777973409178 0.128726850838405 0.169880915896852 0.303850531938181 0.397541701326562 0.198788155359497 0.215013690295102 0.263690295101917 0.322507859243484 0.120673403212427 0.220213407736973 0.307687957167634 0.351425231882965 0.127865464111236 0.203025178504322 0.360860578729801 0.308248778654641 0.111900183550389 0.223778515863998 0.347893540774408 0.316427759811205 0.089692073428644 0.218276795533373 0.280877252347517 0.411153878690466 0.135872917951882 0.259253547193091 0.222239358420728 0.3826341764343 0.147500449559432 0.183465204099982 0.341710124078403 0.327324222262183 0.144042383046781 0.224010395841663 0.232007197121152 0.399940023990404 0.09399375975039 0.09399375975039 0.56201248049922 0.25 0.16701244813278 0.0840248962655602 0.25 0.49896265560166 0.0911497730711044 0.302950075642965 0.181921331316188 0.423978819969743 0.00609756097560976 0.981707317073171 0.00609756097560976 0.00609756097560976 0.111878453038674 0.332872928176796 0.00138121546961326 0.553867403314917 </TABLE>
</DEFINITION>

<DEFINITION>
	<FOR>v52</FOR>
	<GIVEN>v51</GIVEN>
	<GIVEN>v15</GIVEN>
	<GIVEN>v2</GIVEN>
	<TABLE>0.67721712928679 0.32278287071321 0.705252355139203 0.294747644860797 0.5 0.5 0.728324591175563 0.271675408824437 0.996894409937888 0.0031055900621118 0.5 0.5 0.713468155326171 0.286531844673829 0.761551244535963 0.238448755464037 0.715192945554567 0.284807054445433 0.993827160493827 0.00617283950617284 0.999995098087274 4.90191272634582e-06 0.999983131473297 1.68685267028778e-05 0.5 0.5 0.999919367843896 8.06321561038542e-05 0.99792531120332 0.0020746887966805 0.5 0.5 0.999983154206395 1.68457936053367e-05 0.999985971212929 1.40287870710698e-05 0.99996988133245 3.01186675501476e-05 0.995867768595041 0.00413223140495868 3.82026420947273e-06 0.999996179735791 1.10911470464275e-05 0.999988908852954 0.5 0.5 5.06021657726951e-05 0.999949397834227 0.000693481276005548 0.999306518723994 0.5 0.5 1.00480295813991e-05 0.999989951970419 9.69725179884021e-06 0.999990302748201 2.74107779178773e-05 0.999972589222082 0.00413223140495868 0.995867768595041 0.618722562251332 0.381277437748669 0.469582471899432 0.530417528100568 0.5 0.5 0.572063956761626 0.427936043238374 0.615163147792706 0.384836852207294 0.5 0.5 0.602104900630052 0.397895099369948 0.550122986958741 0.449877013041259 0.599384580100149 0.400615419899851 0.5 0.5 </TABLE>
</DEFINITION>

<DEFINITION>
	<FOR>v53</FOR>
	<GIVEN>v52</GIVEN>
	<TABLE>0.999979847648221 2.01523517794527e-05 2.08776984425237e-05 0.999979122301557 </TABLE>
</DEFINITION>

</NETWORK>
</BIF>
