<?xml version="1.0" encoding="UTF-8"?>

<!-- DTD for the XMLBIF 0.3 format -->
<!DOCTYPE BIF [
<!ELEMENT BIF ( NETWORK )*>
<!ATTLIST BIF VERSION CDATA #REQUIRED>
   <!ELEMENT NETWORK ( NAME, ( PROPERTY | VARIABLE | DEFINITION )* )>
      <!ELEMENT NAME (#PCDATA)>
        <!ELEMENT VARIABLE ( NAME, ( OUTCOME |  PROPERTY )* ) >
          <!ATTLIST VARIABLE TYPE (nature|decision|utility) "nature">
           <!ELEMENT OUTCOME (#PCDATA)>
            <!ELEMENT DEFINITION ( FOR | GIVEN | TABLE | PROPERTY )* >
              <!ELEMENT FOR (#PCDATA)>
                <!ELEMENT GIVEN (#PCDATA)>
                  <!ELEMENT TABLE (#PCDATA)>
                    <!ELEMENT PROPERTY (#PCDATA)>
                      ]>
<BIF VERSION="0.3">
<NETWORK>
<NAME>Reco</NAME>
<VARIABLE TYPE="nature">
	<NAME>v1</NAME>
	<OUTCOME>2</OUTCOME>
	<OUTCOME>0</OUTCOME>
	<OUTCOME>3</OUTCOME>
	<OUTCOME>1</OUTCOME>
</VARIABLE>

<VARIABLE TYPE="nature">
	<NAME>v2</NAME>
	<OUTCOME>2</OUTCOME>
	<OUTCOME>1</OUTCOME>
	<OUTCOME>3</OUTCOME>
	<OUTCOME>0</OUTCOME>
	<OUTCOME>12</OUTCOME>
</VARIABLE>

<VARIABLE TYPE="nature">
	<NAME>v3</NAME>
	<OUTCOME>0</OUTCOME>
	<OUTCOME>1</OUTCOME>
	<OUTCOME>2</OUTCOME>
	<OUTCOME>3</OUTCOME>
</VARIABLE>

<VARIABLE TYPE="nature">
	<NAME>v4</NAME>
	<OUTCOME>0</OUTCOME>
	<OUTCOME>3</OUTCOME>
	<OUTCOME>4</OUTCOME>
	<OUTCOME>2</OUTCOME>
	<OUTCOME>1</OUTCOME>
</VARIABLE>

<VARIABLE TYPE="nature">
	<NAME>v5</NAME>
	<OUTCOME>10</OUTCOME>
	<OUTCOME>0</OUTCOME>
	<OUTCOME>4</OUTCOME>
	<OUTCOME>3</OUTCOME>
	<OUTCOME>1</OUTCOME>
	<OUTCOME>2</OUTCOME>
	<OUTCOME>7</OUTCOME>
</VARIABLE>

<VARIABLE TYPE="nature">
	<NAME>v6</NAME>
	<OUTCOME>0</OUTCOME>
	<OUTCOME>1</OUTCOME>
</VARIABLE>

<VARIABLE TYPE="nature">
	<NAME>v7</NAME>
	<OUTCOME>0</OUTCOME>
	<OUTCOME>1</OUTCOME>
	<OUTCOME>4</OUTCOME>
</VARIABLE>

<VARIABLE TYPE="nature">
	<NAME>v8</NAME>
	<OUTCOME>0</OUTCOME>
	<OUTCOME>1</OUTCOME>
</VARIABLE>

<VARIABLE TYPE="nature">
	<NAME>v9</NAME>
	<OUTCOME>0</OUTCOME>
	<OUTCOME>2</OUTCOME>
	<OUTCOME>1</OUTCOME>
	<OUTCOME>3</OUTCOME>
</VARIABLE>

<VARIABLE TYPE="nature">
	<NAME>v10</NAME>
	<OUTCOME>2</OUTCOME>
	<OUTCOME>1</OUTCOME>
	<OUTCOME>0</OUTCOME>
</VARIABLE>

<VARIABLE TYPE="nature">
	<NAME>v11</NAME>
	<OUTCOME>0</OUTCOME>
	<OUTCOME>1</OUTCOME>
	<OUTCOME>2</OUTCOME>
</VARIABLE>

<VARIABLE TYPE="nature">
	<NAME>v12</NAME>
	<OUTCOME>2</OUTCOME>
	<OUTCOME>0</OUTCOME>
	<OUTCOME>1</OUTCOME>
</VARIABLE>

<VARIABLE TYPE="nature">
	<NAME>v13</NAME>
	<OUTCOME>1</OUTCOME>
	<OUTCOME>0</OUTCOME>
</VARIABLE>

<VARIABLE TYPE="nature">
	<NAME>v14</NAME>
	<OUTCOME>0</OUTCOME>
	<OUTCOME>1</OUTCOME>
	<OUTCOME>2</OUTCOME>
</VARIABLE>

<VARIABLE TYPE="nature">
	<NAME>v15</NAME>
	<OUTCOME>0</OUTCOME>
	<OUTCOME>1</OUTCOME>
	<OUTCOME>3</OUTCOME>
</VARIABLE>

<VARIABLE TYPE="nature">
	<NAME>v16</NAME>
	<OUTCOME>3</OUTCOME>
	<OUTCOME>2</OUTCOME>
	<OUTCOME>0</OUTCOME>
	<OUTCOME>1</OUTCOME>
	<OUTCOME>4</OUTCOME>
</VARIABLE>

<VARIABLE TYPE="nature">
	<NAME>v17</NAME>
	<OUTCOME>0</OUTCOME>
	<OUTCOME>1</OUTCOME>
</VARIABLE>

<VARIABLE TYPE="nature">
	<NAME>v18</NAME>
	<OUTCOME>1</OUTCOME>
	<OUTCOME>0</OUTCOME>
</VARIABLE>

<VARIABLE TYPE="nature">
	<NAME>v19</NAME>
	<OUTCOME>1</OUTCOME>
	<OUTCOME>0</OUTCOME>
</VARIABLE>

<VARIABLE TYPE="nature">
	<NAME>v20</NAME>
	<OUTCOME>1</OUTCOME>
	<OUTCOME>0</OUTCOME>
</VARIABLE>

<VARIABLE TYPE="nature">
	<NAME>v21</NAME>
	<OUTCOME>1</OUTCOME>
	<OUTCOME>0</OUTCOME>
	<OUTCOME>2</OUTCOME>
</VARIABLE>

<VARIABLE TYPE="nature">
	<NAME>v22</NAME>
	<OUTCOME>1</OUTCOME>
	<OUTCOME>2</OUTCOME>
	<OUTCOME>0</OUTCOME>
	<OUTCOME>8</OUTCOME>
</VARIABLE>

<VARIABLE TYPE="nature">
	<NAME>v23</NAME>
	<OUTCOME>8</OUTCOME>
	<OUTCOME>-1</OUTCOME>
	<OUTCOME>0</OUTCOME>
	<OUTCOME>7</OUTCOME>
	<OUTCOME>6</OUTCOME>
	<OUTCOME>4</OUTCOME>
	<OUTCOME>2</OUTCOME>
	<OUTCOME>9</OUTCOME>
	<OUTCOME>5</OUTCOME>
	<OUTCOME>1</OUTCOME>
	<OUTCOME>3</OUTCOME>
</VARIABLE>

<VARIABLE TYPE="nature">
	<NAME>v24</NAME>
	<OUTCOME>1</OUTCOME>
	<OUTCOME>0</OUTCOME>
	<OUTCOME>2</OUTCOME>
	<OUTCOME>3</OUTCOME>
</VARIABLE>

<VARIABLE TYPE="nature">
	<NAME>v25</NAME>
	<OUTCOME>3</OUTCOME>
	<OUTCOME>0</OUTCOME>
	<OUTCOME>2</OUTCOME>
	<OUTCOME>6</OUTCOME>
	<OUTCOME>5</OUTCOME>
	<OUTCOME>7</OUTCOME>
	<OUTCOME>8</OUTCOME>
	<OUTCOME>1</OUTCOME>
	<OUTCOME>4</OUTCOME>
</VARIABLE>

<VARIABLE TYPE="nature">
	<NAME>v26</NAME>
	<OUTCOME>4</OUTCOME>
	<OUTCOME>0</OUTCOME>
	<OUTCOME>3</OUTCOME>
	<OUTCOME>5</OUTCOME>
	<OUTCOME>1</OUTCOME>
	<OUTCOME>6</OUTCOME>
	<OUTCOME>2</OUTCOME>
	<OUTCOME>-1</OUTCOME>
</VARIABLE>

<VARIABLE TYPE="nature">
	<NAME>v32</NAME>
	<OUTCOME>-1</OUTCOME>
	<OUTCOME>0</OUTCOME>
</VARIABLE>

<VARIABLE TYPE="nature">
	<NAME>v33</NAME>
	<OUTCOME>0</OUTCOME>
	<OUTCOME>1</OUTCOME>
	<OUTCOME>2</OUTCOME>
</VARIABLE>

<VARIABLE TYPE="nature">
	<NAME>v36</NAME>
	<OUTCOME>1</OUTCOME>
	<OUTCOME>2</OUTCOME>
	<OUTCOME>0</OUTCOME>
	<OUTCOME>-1</OUTCOME>
</VARIABLE>

<VARIABLE TYPE="nature">
	<NAME>v37</NAME>
	<OUTCOME>-1</OUTCOME>
	<OUTCOME>0</OUTCOME>
	<OUTCOME>1</OUTCOME>
</VARIABLE>

<VARIABLE TYPE="nature">
	<NAME>v38</NAME>
	<OUTCOME>0</OUTCOME>
	<OUTCOME>1</OUTCOME>
	<OUTCOME>2</OUTCOME>
</VARIABLE>

<VARIABLE TYPE="nature">
	<NAME>v39</NAME>
	<OUTCOME>0</OUTCOME>
	<OUTCOME>1</OUTCOME>
	<OUTCOME>-1</OUTCOME>
</VARIABLE>

<VARIABLE TYPE="nature">
	<NAME>v40</NAME>
	<OUTCOME>0</OUTCOME>
	<OUTCOME>1</OUTCOME>
</VARIABLE>

<VARIABLE TYPE="nature">
	<NAME>v41</NAME>
	<OUTCOME>0</OUTCOME>
	<OUTCOME>1</OUTCOME>
</VARIABLE>

<VARIABLE TYPE="nature">
	<NAME>v42</NAME>
	<OUTCOME>0</OUTCOME>
	<OUTCOME>1</OUTCOME>
	<OUTCOME>3</OUTCOME>
	<OUTCOME>2</OUTCOME>
</VARIABLE>

<VARIABLE TYPE="nature">
	<NAME>v44</NAME>
	<OUTCOME>1</OUTCOME>
	<OUTCOME>0</OUTCOME>
</VARIABLE>

<VARIABLE TYPE="nature">
	<NAME>v45</NAME>
	<OUTCOME>2</OUTCOME>
	<OUTCOME>1</OUTCOME>
	<OUTCOME>0</OUTCOME>
</VARIABLE>

<VARIABLE TYPE="nature">
	<NAME>v46</NAME>
	<OUTCOME>0</OUTCOME>
	<OUTCOME>1</OUTCOME>
</VARIABLE>

<VARIABLE TYPE="nature">
	<NAME>v47</NAME>
	<OUTCOME>0</OUTCOME>
	<OUTCOME>2</OUTCOME>
	<OUTCOME>1</OUTCOME>
</VARIABLE>

<VARIABLE TYPE="nature">
	<NAME>v48</NAME>
	<OUTCOME>2</OUTCOME>
	<OUTCOME>1</OUTCOME>
	<OUTCOME>0</OUTCOME>
	<OUTCOME>4</OUTCOME>
</VARIABLE>

<VARIABLE TYPE="nature">
	<NAME>v49</NAME>
	<OUTCOME>3</OUTCOME>
	<OUTCOME>4</OUTCOME>
	<OUTCOME>0</OUTCOME>
	<OUTCOME>1</OUTCOME>
	<OUTCOME>2</OUTCOME>
</VARIABLE>

<VARIABLE TYPE="nature">
	<NAME>v50</NAME>
	<OUTCOME>1</OUTCOME>
	<OUTCOME>0</OUTCOME>
</VARIABLE>

<VARIABLE TYPE="nature">
	<NAME>v51</NAME>
	<OUTCOME>1</OUTCOME>
	<OUTCOME>0</OUTCOME>
</VARIABLE>

<VARIABLE TYPE="nature">
	<NAME>v52</NAME>
	<OUTCOME>0</OUTCOME>
	<OUTCOME>1</OUTCOME>
</VARIABLE>

<VARIABLE TYPE="nature">
	<NAME>v53</NAME>
	<OUTCOME>1</OUTCOME>
	<OUTCOME>0</OUTCOME>
</VARIABLE>

<VARIABLE TYPE="nature">
	<NAME>v54</NAME>
	<OUTCOME>0</OUTCOME>
	<OUTCOME>2</OUTCOME>
	<OUTCOME>1</OUTCOME>
	<OUTCOME>4</OUTCOME>
</VARIABLE>

<VARIABLE TYPE="nature">
	<NAME>v55</NAME>
	<OUTCOME>3</OUTCOME>
	<OUTCOME>0</OUTCOME>
	<OUTCOME>4</OUTCOME>
	<OUTCOME>2</OUTCOME>
	<OUTCOME>1</OUTCOME>
</VARIABLE>

<VARIABLE TYPE="nature">
	<NAME>v56</NAME>
	<OUTCOME>2</OUTCOME>
	<OUTCOME>3</OUTCOME>
	<OUTCOME>4</OUTCOME>
	<OUTCOME>1</OUTCOME>
	<OUTCOME>0</OUTCOME>
</VARIABLE>

<VARIABLE TYPE="nature">
	<NAME>v57</NAME>
	<OUTCOME>1</OUTCOME>
	<OUTCOME>0</OUTCOME>
</VARIABLE>

<VARIABLE TYPE="nature">
	<NAME>v58</NAME>
	<OUTCOME>1</OUTCOME>
	<OUTCOME>0</OUTCOME>
	<OUTCOME>2</OUTCOME>
	<OUTCOME>3</OUTCOME>
</VARIABLE>

<VARIABLE TYPE="nature">
	<NAME>v59</NAME>
	<OUTCOME>1</OUTCOME>
	<OUTCOME>2</OUTCOME>
	<OUTCOME>0</OUTCOME>
</VARIABLE>

<VARIABLE TYPE="nature">
	<NAME>v60</NAME>
	<OUTCOME>0</OUTCOME>
	<OUTCOME>1</OUTCOME>
</VARIABLE>

<VARIABLE TYPE="nature">
	<NAME>v61</NAME>
	<OUTCOME>1</OUTCOME>
	<OUTCOME>0</OUTCOME>
	<OUTCOME>2</OUTCOME>
</VARIABLE>

<VARIABLE TYPE="nature">
	<NAME>v62</NAME>
	<OUTCOME>2</OUTCOME>
	<OUTCOME>0</OUTCOME>
	<OUTCOME>1</OUTCOME>
</VARIABLE>

<VARIABLE TYPE="nature">
	<NAME>v63</NAME>
	<OUTCOME>1</OUTCOME>
	<OUTCOME>0</OUTCOME>
</VARIABLE>

<VARIABLE TYPE="nature">
	<NAME>v64</NAME>
	<OUTCOME>0</OUTCOME>
	<OUTCOME>1</OUTCOME>
</VARIABLE>

<VARIABLE TYPE="nature">
	<NAME>v65</NAME>
	<OUTCOME>999</OUTCOME>
	<OUTCOME>0</OUTCOME>
</VARIABLE>

<VARIABLE TYPE="nature">
	<NAME>v66</NAME>
	<OUTCOME>0</OUTCOME>
	<OUTCOME>1</OUTCOME>
	<OUTCOME>2</OUTCOME>
</VARIABLE>

<VARIABLE TYPE="nature">
	<NAME>v67</NAME>
	<OUTCOME>-1</OUTCOME>
	<OUTCOME>0</OUTCOME>
	<OUTCOME>1</OUTCOME>
</VARIABLE>

<VARIABLE TYPE="nature">
	<NAME>v68</NAME>
	<OUTCOME>0</OUTCOME>
	<OUTCOME>1</OUTCOME>
	<OUTCOME>2</OUTCOME>
</VARIABLE>

<VARIABLE TYPE="nature">
	<NAME>v69</NAME>
	<OUTCOME>0</OUTCOME>
	<OUTCOME>1</OUTCOME>
	<OUTCOME>-1</OUTCOME>
</VARIABLE>

<VARIABLE TYPE="nature">
	<NAME>v70</NAME>
	<OUTCOME>-1</OUTCOME>
	<OUTCOME>1</OUTCOME>
	<OUTCOME>0</OUTCOME>
</VARIABLE>

<VARIABLE TYPE="nature">
	<NAME>v71</NAME>
	<OUTCOME>0</OUTCOME>
	<OUTCOME>1</OUTCOME>
</VARIABLE>

<VARIABLE TYPE="nature">
	<NAME>v72</NAME>
	<OUTCOME>0</OUTCOME>
	<OUTCOME>1</OUTCOME>
	<OUTCOME>-1</OUTCOME>
</VARIABLE>

<VARIABLE TYPE="nature">
	<NAME>v73</NAME>
	<OUTCOME>1</OUTCOME>
	<OUTCOME>0</OUTCOME>
</VARIABLE>

<VARIABLE TYPE="nature">
	<NAME>v79</NAME>
	<OUTCOME>0</OUTCOME>
	<OUTCOME>1</OUTCOME>
</VARIABLE>

<VARIABLE TYPE="nature">
	<NAME>v80</NAME>
	<OUTCOME>0</OUTCOME>
	<OUTCOME>1</OUTCOME>
</VARIABLE>

<VARIABLE TYPE="nature">
	<NAME>v82</NAME>
	<OUTCOME>1</OUTCOME>
	<OUTCOME>0</OUTCOME>
</VARIABLE>

<VARIABLE TYPE="nature">
	<NAME>v83</NAME>
	<OUTCOME>0</OUTCOME>
	<OUTCOME>1</OUTCOME>
	<OUTCOME>2</OUTCOME>
</VARIABLE>

<VARIABLE TYPE="nature">
	<NAME>v84</NAME>
	<OUTCOME>2</OUTCOME>
	<OUTCOME>1</OUTCOME>
	<OUTCOME>0</OUTCOME>
</VARIABLE>

<VARIABLE TYPE="nature">
	<NAME>v85</NAME>
	<OUTCOME>0</OUTCOME>
	<OUTCOME>1</OUTCOME>
</VARIABLE>

<VARIABLE TYPE="nature">
	<NAME>v86</NAME>
	<OUTCOME>0</OUTCOME>
	<OUTCOME>1</OUTCOME>
	<OUTCOME>2</OUTCOME>
</VARIABLE>

<VARIABLE TYPE="nature">
	<NAME>v87</NAME>
	<OUTCOME>0</OUTCOME>
	<OUTCOME>1</OUTCOME>
</VARIABLE>

<VARIABLE TYPE="nature">
	<NAME>v88</NAME>
	<OUTCOME>0</OUTCOME>
	<OUTCOME>3</OUTCOME>
	<OUTCOME>2</OUTCOME>
	<OUTCOME>1</OUTCOME>
	<OUTCOME>4</OUTCOME>
</VARIABLE>

<VARIABLE TYPE="nature">
	<NAME>v89</NAME>
	<OUTCOME>1</OUTCOME>
	<OUTCOME>0</OUTCOME>
</VARIABLE>

<VARIABLE TYPE="nature">
	<NAME>v92</NAME>
	<OUTCOME>0</OUTCOME>
	<OUTCOME>1</OUTCOME>
	<OUTCOME>-1</OUTCOME>
</VARIABLE>

<VARIABLE TYPE="nature">
	<NAME>v93</NAME>
	<OUTCOME>-1</OUTCOME>
	<OUTCOME>0</OUTCOME>
</VARIABLE>

<VARIABLE TYPE="nature">
	<NAME>v94</NAME>
	<OUTCOME>1</OUTCOME>
	<OUTCOME>0</OUTCOME>
</VARIABLE>

<VARIABLE TYPE="nature">
	<NAME>v95</NAME>
	<OUTCOME>0</OUTCOME>
	<OUTCOME>1</OUTCOME>
	<OUTCOME>-1</OUTCOME>
</VARIABLE>

<VARIABLE TYPE="nature">
	<NAME>v96</NAME>
	<OUTCOME>0</OUTCOME>
	<OUTCOME>1</OUTCOME>
</VARIABLE>

<VARIABLE TYPE="nature">
	<NAME>v97</NAME>
	<OUTCOME>1</OUTCOME>
	<OUTCOME>0</OUTCOME>
	<OUTCOME>-1</OUTCOME>
</VARIABLE>

<VARIABLE TYPE="nature">
	<NAME>v99</NAME>
	<OUTCOME>0</OUTCOME>
	<OUTCOME>-1</OUTCOME>
	<OUTCOME>1</OUTCOME>
</VARIABLE>

<VARIABLE TYPE="nature">
	<NAME>v100</NAME>
	<OUTCOME>-1</OUTCOME>
	<OUTCOME>0</OUTCOME>
</VARIABLE>

<VARIABLE TYPE="nature">
	<NAME>v101</NAME>
	<OUTCOME>-1</OUTCOME>
	<OUTCOME>0</OUTCOME>
</VARIABLE>

<VARIABLE TYPE="nature">
	<NAME>v102</NAME>
	<OUTCOME>-1</OUTCOME>
	<OUTCOME>0</OUTCOME>
	<OUTCOME>1</OUTCOME>
</VARIABLE>

<VARIABLE TYPE="nature">
	<NAME>v103</NAME>
	<OUTCOME>-1</OUTCOME>
	<OUTCOME>0</OUTCOME>
	<OUTCOME>212</OUTCOME>
</VARIABLE>

<VARIABLE TYPE="nature">
	<NAME>v190</NAME>
	<OUTCOME>598</OUTCOME>
	<OUTCOME>56</OUTCOME>
	<OUTCOME>249</OUTCOME>
	<OUTCOME>246</OUTCOME>
	<OUTCOME>257</OUTCOME>
	<OUTCOME>173</OUTCOME>
	<OUTCOME>175</OUTCOME>
	<OUTCOME>214</OUTCOME>
	<OUTCOME>224</OUTCOME>
	<OUTCOME>165</OUTCOME>
	<OUTCOME>61</OUTCOME>
	<OUTCOME>269</OUTCOME>
	<OUTCOME>243</OUTCOME>
	<OUTCOME>44</OUTCOME>
	<OUTCOME>302</OUTCOME>
	<OUTCOME>34</OUTCOME>
	<OUTCOME>183</OUTCOME>
	<OUTCOME>62</OUTCOME>
	<OUTCOME>212</OUTCOME>
	<OUTCOME>266</OUTCOME>
	<OUTCOME>587</OUTCOME>
	<OUTCOME>182</OUTCOME>
	<OUTCOME>73</OUTCOME>
	<OUTCOME>11</OUTCOME>
	<OUTCOME>159</OUTCOME>
	<OUTCOME>163</OUTCOME>
	<OUTCOME>292</OUTCOME>
	<OUTCOME>157</OUTCOME>
	<OUTCOME>5</OUTCOME>
	<OUTCOME>316</OUTCOME>
	<OUTCOME>323</OUTCOME>
	<OUTCOME>13</OUTCOME>
	<OUTCOME>57</OUTCOME>
	<OUTCOME>3</OUTCOME>
	<OUTCOME>124</OUTCOME>
	<OUTCOME>222</OUTCOME>
	<OUTCOME>290</OUTCOME>
	<OUTCOME>236</OUTCOME>
	<OUTCOME>9</OUTCOME>
	<OUTCOME>10</OUTCOME>
	<OUTCOME>93</OUTCOME>
	<OUTCOME>185</OUTCOME>
	<OUTCOME>120</OUTCOME>
	<OUTCOME>402</OUTCOME>
	<OUTCOME>468</OUTCOME>
	<OUTCOME>172</OUTCOME>
	<OUTCOME>24</OUTCOME>
	<OUTCOME>21</OUTCOME>
	<OUTCOME>281</OUTCOME>
	<OUTCOME>98</OUTCOME>
	<OUTCOME>153</OUTCOME>
	<OUTCOME>614</OUTCOME>
	<OUTCOME>76</OUTCOME>
	<OUTCOME>210</OUTCOME>
	<OUTCOME>297</OUTCOME>
	<OUTCOME>223</OUTCOME>
	<OUTCOME>237</OUTCOME>
	<OUTCOME>137</OUTCOME>
	<OUTCOME>192</OUTCOME>
	<OUTCOME>8</OUTCOME>
	<OUTCOME>278</OUTCOME>
	<OUTCOME>86</OUTCOME>
	<OUTCOME>218</OUTCOME>
	<OUTCOME>2</OUTCOME>
	<OUTCOME>74</OUTCOME>
	<OUTCOME>221</OUTCOME>
	<OUTCOME>240</OUTCOME>
	<OUTCOME>79</OUTCOME>
	<OUTCOME>106</OUTCOME>
	<OUTCOME>541</OUTCOME>
	<OUTCOME>211</OUTCOME>
	<OUTCOME>615</OUTCOME>
	<OUTCOME>303</OUTCOME>
	<OUTCOME>310</OUTCOME>
	<OUTCOME>22</OUTCOME>
	<OUTCOME>312</OUTCOME>
	<OUTCOME>531</OUTCOME>
	<OUTCOME>220</OUTCOME>
	<OUTCOME>315</OUTCOME>
	<OUTCOME>579</OUTCOME>
	<OUTCOME>577</OUTCOME>
	<OUTCOME>29</OUTCOME>
	<OUTCOME>208</OUTCOME>
	<OUTCOME>181</OUTCOME>
	<OUTCOME>533</OUTCOME>
	<OUTCOME>60</OUTCOME>
	<OUTCOME>69</OUTCOME>
	<OUTCOME>197</OUTCOME>
	<OUTCOME>517</OUTCOME>
	<OUTCOME>251</OUTCOME>
	<OUTCOME>311</OUTCOME>
	<OUTCOME>156</OUTCOME>
	<OUTCOME>304</OUTCOME>
	<OUTCOME>270</OUTCOME>
	<OUTCOME>539</OUTCOME>
	<OUTCOME>400</OUTCOME>
	<OUTCOME>71</OUTCOME>
	<OUTCOME>204</OUTCOME>
	<OUTCOME>174</OUTCOME>
	<OUTCOME>301</OUTCOME>
	<OUTCOME>121</OUTCOME>
	<OUTCOME>169</OUTCOME>
	<OUTCOME>167</OUTCOME>
	<OUTCOME>85</OUTCOME>
	<OUTCOME>202</OUTCOME>
	<OUTCOME>431</OUTCOME>
	<OUTCOME>78</OUTCOME>
	<OUTCOME>164</OUTCOME>
	<OUTCOME>320</OUTCOME>
	<OUTCOME>64</OUTCOME>
	<OUTCOME>527</OUTCOME>
	<OUTCOME>317</OUTCOME>
	<OUTCOME>232</OUTCOME>
	<OUTCOME>184</OUTCOME>
	<OUTCOME>99</OUTCOME>
	<OUTCOME>139</OUTCOME>
	<OUTCOME>513</OUTCOME>
	<OUTCOME>296</OUTCOME>
	<OUTCOME>450</OUTCOME>
	<OUTCOME>179</OUTCOME>
	<OUTCOME>537</OUTCOME>
	<OUTCOME>557</OUTCOME>
	<OUTCOME>70</OUTCOME>
	<OUTCOME>90</OUTCOME>
	<OUTCOME>58</OUTCOME>
	<OUTCOME>318</OUTCOME>
	<OUTCOME>135</OUTCOME>
	<OUTCOME>27</OUTCOME>
	<OUTCOME>132</OUTCOME>
	<OUTCOME>42</OUTCOME>
	<OUTCOME>81</OUTCOME>
	<OUTCOME>201</OUTCOME>
	<OUTCOME>65</OUTCOME>
	<OUTCOME>585</OUTCOME>
	<OUTCOME>298</OUTCOME>
	<OUTCOME>595</OUTCOME>
	<OUTCOME>41</OUTCOME>
	<OUTCOME>196</OUTCOME>
	<OUTCOME>178</OUTCOME>
	<OUTCOME>4</OUTCOME>
	<OUTCOME>519</OUTCOME>
	<OUTCOME>87</OUTCOME>
	<OUTCOME>31</OUTCOME>
	<OUTCOME>77</OUTCOME>
	<OUTCOME>313</OUTCOME>
	<OUTCOME>35</OUTCOME>
	<OUTCOME>306</OUTCOME>
	<OUTCOME>72</OUTCOME>
	<OUTCOME>162</OUTCOME>
	<OUTCOME>36</OUTCOME>
	<OUTCOME>30</OUTCOME>
	<OUTCOME>623</OUTCOME>
	<OUTCOME>151</OUTCOME>
	<OUTCOME>583</OUTCOME>
	<OUTCOME>59</OUTCOME>
	<OUTCOME>28</OUTCOME>
	<OUTCOME>91</OUTCOME>
	<OUTCOME>268</OUTCOME>
	<OUTCOME>574</OUTCOME>
	<OUTCOME>116</OUTCOME>
	<OUTCOME>613</OUTCOME>
	<OUTCOME>84</OUTCOME>
	<OUTCOME>573</OUTCOME>
	<OUTCOME>108</OUTCOME>
	<OUTCOME>611</OUTCOME>
	<OUTCOME>43</OUTCOME>
	<OUTCOME>63</OUTCOME>
	<OUTCOME>112</OUTCOME>
	<OUTCOME>260</OUTCOME>
	<OUTCOME>125</OUTCOME>
	<OUTCOME>235</OUTCOME>
	<OUTCOME>643</OUTCOME>
	<OUTCOME>128</OUTCOME>
	<OUTCOME>321</OUTCOME>
	<OUTCOME>12</OUTCOME>
	<OUTCOME>7</OUTCOME>
	<OUTCOME>02/01/14</OUTCOME>
	<OUTCOME>275</OUTCOME>
	<OUTCOME>267</OUTCOME>
	<OUTCOME>130</OUTCOME>
	<OUTCOME>200</OUTCOME>
	<OUTCOME>591</OUTCOME>
	<OUTCOME>228</OUTCOME>
	<OUTCOME>158</OUTCOME>
	<OUTCOME>75</OUTCOME>
	<OUTCOME>233</OUTCOME>
	<OUTCOME>92</OUTCOME>
	<OUTCOME>55</OUTCOME>
	<OUTCOME>80</OUTCOME>
	<OUTCOME>213</OUTCOME>
	<OUTCOME>429</OUTCOME>
	<OUTCOME>293</OUTCOME>
	<OUTCOME>526</OUTCOME>
	<OUTCOME>66</OUTCOME>
	<OUTCOME>253</OUTCOME>
	<OUTCOME>553</OUTCOME>
	<OUTCOME>83</OUTCOME>
	<OUTCOME>322</OUTCOME>
	<OUTCOME>507</OUTCOME>
	<OUTCOME></OUTCOME>
	<OUTCOME>534</OUTCOME>
	<OUTCOME>307</OUTCOME>
	<OUTCOME>354</OUTCOME>
	<OUTCOME>263</OUTCOME>
	<OUTCOME>33</OUTCOME>
	<OUTCOME>410</OUTCOME>
	<OUTCOME>01/01/14</OUTCOME>
	<OUTCOME>612</OUTCOME>
	<OUTCOME>575</OUTCOME>
	<OUTCOME>150</OUTCOME>
	<OUTCOME>180</OUTCOME>
	<OUTCOME>198</OUTCOME>
	<OUTCOME>483</OUTCOME>
	<OUTCOME>247</OUTCOME>
	<OUTCOME>551</OUTCOME>
	<OUTCOME>291</OUTCOME>
	<OUTCOME>582</OUTCOME>
	<OUTCOME>25</OUTCOME>
	<OUTCOME>113</OUTCOME>
	<OUTCOME>38</OUTCOME>
	<OUTCOME>217</OUTCOME>
	<OUTCOME>122</OUTCOME>
	<OUTCOME>525</OUTCOME>
	<OUTCOME>578</OUTCOME>
	<OUTCOME>628</OUTCOME>
	<OUTCOME>327</OUTCOME>
	<OUTCOME>15</OUTCOME>
	<OUTCOME>616</OUTCOME>
	<OUTCOME>6</OUTCOME>
	<OUTCOME>463</OUTCOME>
	<OUTCOME>104</OUTCOME>
	<OUTCOME>427</OUTCOME>
	<OUTCOME>89</OUTCOME>
	<OUTCOME>168</OUTCOME>
	<OUTCOME>581</OUTCOME>
	<OUTCOME>580</OUTCOME>
	<OUTCOME>271</OUTCOME>
	<OUTCOME>440</OUTCOME>
</VARIABLE>

<DEFINITION>
	<FOR>v1</FOR>
	<GIVEN>v26</GIVEN>
	<GIVEN>v6</GIVEN>
	<TABLE>0.999992344517143 2.55182761894069e-06 2.55182761894069e-06 2.55182761894069e-06 0.999861342207432 4.62192641893141e-05 4.62192641893141e-05 4.62192641893141e-05 2.10561778825908e-05 0.378695359218395 0.62126252842584 2.10561778825908e-05 2.92021960051396e-05 0.999912393411985 2.92021960051396e-05 2.92021960051396e-05 0.999942839722582 1.90534258059599e-05 1.90534258059599e-05 1.90534258059599e-05 0.998700173310225 0.000433275563258232 0.000433275563258232 0.000433275563258232 0.000185873605947955 0.000185873605947955 0.000185873605947955 0.999442379182156 0.000213857998289136 0.000213857998289136 0.000213857998289136 0.999358426005133 0.999521988527725 0.000159337157425112 0.000159337157425112 0.000159337157425112 0.98469387755102 0.00510204081632653 0.00510204081632653 0.00510204081632653 0.00757575757575758 0.977272727272727 0.00757575757575758 0.00757575757575758 0.00757575757575758 0.977272727272727 0.00757575757575758 0.00757575757575758 0.98469387755102 0.00510204081632653 0.00510204081632653 0.00510204081632653 0.25 0.25 0.25 0.25 0.00510204081632653 0.00510204081632653 0.00510204081632653 0.98469387755102 0.25 0.25 0.25 0.25 </TABLE>
</DEFINITION>

<DEFINITION>
	<FOR>v2</FOR>
	<GIVEN>v69</GIVEN>
	<GIVEN>v55</GIVEN>
	<TABLE>0.223682133146215 0.776265239891238 1.75423208490483e-05 1.75423208490483e-05 1.75423208490483e-05 6.14250614250614e-05 0.9997542997543 6.14250614250614e-05 6.14250614250614e-05 6.14250614250614e-05 0.561695714614989 0.434038403574405 0.00425878973777061 3.54603641779401e-06 3.54603641779401e-06 0.503038598412264 0.49482617027101 0.00208048179578429 2.73747604708459e-05 2.73747604708459e-05 0.30948036493455 0.684331614438715 7.93335977786593e-05 7.93335977786593e-05 0.0060293534311781 1.95484312383931e-05 0.996989541589288 1.95484312383931e-05 0.00295181311699736 1.95484312383931e-05 1.09283645702421e-05 0.998317031856183 1.09283645702421e-05 0.00165018305010655 1.09283645702421e-05 1.03193849646561e-05 0.998410814715443 1.03193849646561e-05 0.00155822712966307 1.03193849646561e-05 7.36377025036819e-05 0.999705449189985 7.36377025036819e-05 7.36377025036819e-05 7.36377025036819e-05 0.000144822592324403 0.999420709630703 0.000144822592324403 0.000144822592324403 0.000144822592324403 0.2 0.2 0.2 0.2 0.2 0.2 0.2 0.2 0.2 0.2 0.00434782608695652 0.982608695652174 0.00434782608695652 0.00434782608695652 0.00434782608695652 0.2 0.2 0.2 0.2 0.2 0.2 0.2 0.2 0.2 0.2 </TABLE>
</DEFINITION>

<DEFINITION>
	<FOR>v3</FOR>
	<TABLE>0.624196096129979 0.367398172176464 0.00826469592688706 0.000141035766670428 </TABLE>
</DEFINITION>

<DEFINITION>
	<FOR>v4</FOR>
	<GIVEN>v94</GIVEN>
	<GIVEN>v25</GIVEN>
	<TABLE>0.999989813458967 2.54663525816515e-06 2.54663525816515e-06 2.54663525816515e-06 2.54663525816515e-06 0.999939205106771 1.51987233072422e-05 1.51987233072422e-05 1.51987233072422e-05 1.51987233072422e-05 0.999658265698419 8.54335753951303e-05 8.54335753951303e-05 8.54335753951303e-05 8.54335753951303e-05 0.999658265698419 8.54335753951303e-05 8.54335753951303e-05 8.54335753951303e-05 8.54335753951303e-05 0.999259944495837 0.000185013876040703 0.000185013876040703 0.000185013876040703 0.000185013876040703 0.2 0.2 0.2 0.2 0.2 0.2 0.2 0.2 0.2 0.2 0.397802197802198 0.595604395604396 0.0021978021978022 0.0021978021978022 0.0021978021978022 0.957894736842105 0.0105263157894737 0.0105263157894737 0.0105263157894737 0.0105263157894737 0.999981481910141 4.62952246475776e-06 4.62952246475776e-06 4.62952246475776e-06 4.62952246475776e-06 0.839643832844278 2.02367702114743e-05 0.094728321359911 0.0583021349792573 0.0073054740463422 0.391036568600495 0.608798460269453 5.49903766840803e-05 5.49903766840803e-05 5.49903766840803e-05 0.9993371996686 0.000165700082850041 0.000165700082850041 0.000165700082850041 0.000165700082850041 0.938772077375946 0.0607232968881413 0.000168208578637511 0.000168208578637511 0.000168208578637511 0.936045277679519 7.07463742483198e-05 0.0637424831977361 7.07463742483198e-05 7.07463742483198e-05 0.0105263157894737 0.0105263157894737 0.0105263157894737 0.0105263157894737 0.957894736842105 0.2 0.2 0.2 0.2 0.2 0.2 0.2 0.2 0.2 0.2 </TABLE>
</DEFINITION>

<DEFINITION>
	<FOR>v5</FOR>
	<GIVEN>v190</GIVEN>
	<TABLE>0.999600026664889 6.66622225184988e-05 6.66622225184988e-05 6.66622225184988e-05 6.66622225184988e-05 6.66622225184988e-05 6.66622225184988e-05 0.000299490865528601 0.998203054806828 0.000299490865528601 0.000299490865528601 0.000299490865528601 0.000299490865528601 0.000299490865528601 1.00710715519421e-06 1.00710715519421e-06 0.999993957357069 1.00710715519421e-06 1.00710715519421e-06 1.00710715519421e-06 1.00710715519421e-06 7.00393410978947e-07 7.00393410978947e-07 7.00393410978947e-07 0.999995797639534 7.00393410978947e-07 7.00393410978947e-07 7.00393410978947e-07 5.99988000239995e-05 5.99988000239995e-05 5.99988000239995e-05 0.999640007199856 5.99988000239995e-05 5.99988000239995e-05 5.99988000239995e-05 9.06701338925867e-07 9.06701338925867e-07 9.06701338925867e-07 0.999994559791966 9.06701338925867e-07 9.06701338925867e-07 9.06701338925867e-07 5.07815534991283e-07 5.07815534991283e-07 5.07815534991283e-07 0.99999695310679 5.07815534991283e-07 5.07815534991283e-07 5.07815534991283e-07 1.63998143541015e-06 1.63998143541015e-06 1.63998143541015e-06 0.999990160111388 1.63998143541015e-06 1.63998143541015e-06 1.63998143541015e-06 1.493118961267e-06 1.493118961267e-06 0.999991041286232 1.493118961267e-06 1.493118961267e-06 1.493118961267e-06 1.493118961267e-06 1.09126226305968e-05 1.09126226305968e-05 1.09126226305968e-05 1.09126226305968e-05 0.999934524264216 1.09126226305968e-05 1.09126226305968e-05 1.17684440940063e-05 1.17684440940063e-05 1.17684440940063e-05 0.999929389335436 1.17684440940063e-05 1.17684440940063e-05 1.17684440940063e-05 1.03488922028341e-06 1.03488922028341e-06 0.999993790664678 1.03488922028341e-06 1.03488922028341e-06 1.03488922028341e-06 1.03488922028341e-06 8.56971462850287e-05 8.56971462850287e-05 8.56971462850287e-05 8.56971462850287e-05 8.56971462850287e-05 0.99948581712229 8.56971462850287e-05 5.45464462990236e-05 5.45464462990236e-05 5.45464462990236e-05 0.999672721322206 5.45464462990236e-05 5.45464462990236e-05 5.45464462990236e-05 8.45358558832729e-06 8.45358558832729e-06 8.45358558832729e-06 0.99994927848647 8.45358558832729e-06 8.45358558832729e-06 8.45358558832729e-06 1.76519390655063e-05 1.76519390655063e-05 1.76519390655063e-05 1.76519390655063e-05 0.999894088365607 1.76519390655063e-05 1.76519390655063e-05 3.1099846055762e-06 3.1099846055762e-06 0.999981340092366 3.1099846055762e-06 3.1099846055762e-06 3.1099846055762e-06 3.1099846055762e-06 2.06949359491732e-05 2.06949359491732e-05 2.06949359491732e-05 0.999875830384305 2.06949359491732e-05 2.06949359491732e-05 2.06949359491732e-05 1.81888622321008e-06 1.81888622321008e-06 1.81888622321008e-06 0.999989086682661 1.81888622321008e-06 1.81888622321008e-06 1.81888622321008e-06 2.18265790984313e-06 2.18265790984313e-06 2.18265790984313e-06 0.999986904052541 2.18265790984313e-06 2.18265790984313e-06 2.18265790984313e-06 0.999924976555173 1.25039074710847e-05 1.25039074710847e-05 1.25039074710847e-05 1.25039074710847e-05 1.25039074710847e-05 1.25039074710847e-05 5.45464462990236e-05 5.45464462990236e-05 0.999672721322206 5.45464462990236e-05 5.45464462990236e-05 5.45464462990236e-05 5.45464462990236e-05 1.46385021884561e-05 1.46385021884561e-05 1.46385021884561e-05 0.999912168986869 1.46385021884561e-05 1.46385021884561e-05 1.46385021884561e-05 8.574343848337e-06 8.574343848337e-06 8.574343848337e-06 0.99994855393691 8.574343848337e-06 8.574343848337e-06 8.574343848337e-06 5.1300730009388e-06 5.1300730009388e-06 5.1300730009388e-06 5.1300730009388e-06 0.999969219561994 5.1300730009388e-06 5.1300730009388e-06 8.69860213463696e-06 8.69860213463696e-06 8.69860213463696e-06 8.69860213463696e-06 0.999947808387192 8.69860213463696e-06 8.69860213463696e-06 1.71476584872336e-05 0.999897114049077 1.71476584872336e-05 1.71476584872336e-05 1.71476584872336e-05 1.71476584872336e-05 1.71476584872336e-05 4.41339376740532e-06 4.41339376740532e-06 4.41339376740532e-06 4.41339376740532e-06 0.999973519637396 4.41339376740532e-06 4.41339376740532e-06 3.65990681877239e-06 3.65990681877239e-06 3.65990681877239e-06 0.999978040559087 3.65990681877239e-06 3.65990681877239e-06 3.65990681877239e-06 1.81867782122397e-05 1.81867782122397e-05 1.81867782122397e-05 0.999890879330727 1.81867782122397e-05 1.81867782122397e-05 1.81867782122397e-05 2.85771440002286e-05 2.85771440002286e-05 0.999828537135999 2.85771440002286e-05 2.85771440002286e-05 2.85771440002286e-05 2.85771440002286e-05 2.22276556491587e-05 2.22276556491587e-05 0.999866634066105 2.22276556491587e-05 2.22276556491587e-05 2.22276556491587e-05 2.22276556491587e-05 3.75051569590819e-05 3.75051569590819e-05 3.75051569590819e-05 3.75051569590819e-05 0.999774969058246 3.75051569590819e-05 3.75051569590819e-05 1.87550404171121e-05 1.87550404171121e-05 1.87550404171121e-05 1.87550404171121e-05 0.999887469757497 1.87550404171121e-05 1.87550404171121e-05 1.71476584872336e-05 1.71476584872336e-05 0.999897114049077 1.71476584872336e-05 1.71476584872336e-05 1.71476584872336e-05 1.71476584872336e-05 2.57609129667555e-06 2.57609129667555e-06 0.99998454345222 2.57609129667555e-06 2.57609129667555e-06 2.57609129667555e-06 2.57609129667555e-06 4.28614290000429e-05 4.28614290000429e-05 0.999742831426 4.28614290000429e-05 4.28614290000429e-05 4.28614290000429e-05 4.28614290000429e-05 3.52995163966254e-05 3.52995163966254e-05 0.99978820290162 3.52995163966254e-05 3.52995163966254e-05 3.52995163966254e-05 3.52995163966254e-05 2.50056262659098e-05 2.50056262659098e-05 2.50056262659098e-05 2.50056262659098e-05 0.999849966242405 2.50056262659098e-05 2.50056262659098e-05 2.85771440002286e-05 2.85771440002286e-05 2.85771440002286e-05 0.999828537135999 2.85771440002286e-05 2.85771440002286e-05 2.85771440002286e-05 2.85771440002286e-05 2.85771440002286e-05 0.999828537135999 2.85771440002286e-05 2.85771440002286e-05 2.85771440002286e-05 2.85771440002286e-05 1.9551527072022e-06 1.9551527072022e-06 0.999988269083757 1.9551527072022e-06 1.9551527072022e-06 1.9551527072022e-06 1.9551527072022e-06 4.00048005760691e-05 4.00048005760691e-05 4.00048005760691e-05 0.999759971196544 4.00048005760691e-05 4.00048005760691e-05 4.00048005760691e-05 6.66622225184988e-05 0.999600026664889 6.66622225184988e-05 6.66622225184988e-05 6.66622225184988e-05 6.66622225184988e-05 6.66622225184988e-05 5.00025001250062e-05 5.00025001250062e-05 5.00025001250062e-05 5.00025001250062e-05 5.00025001250062e-05 5.00025001250062e-05 0.99969998499925 1.20037931986508e-05 1.20037931986508e-05 1.20037931986508e-05 0.999927977240808 1.20037931986508e-05 1.20037931986508e-05 1.20037931986508e-05 3.75051569590819e-05 3.75051569590819e-05 3.75051569590819e-05 0.999774969058246 3.75051569590819e-05 3.75051569590819e-05 3.75051569590819e-05 6.66622225184988e-05 6.66622225184988e-05 6.66622225184988e-05 6.66622225184988e-05 0.999600026664889 6.66622225184988e-05 6.66622225184988e-05 1.01728364919991e-05 1.01728364919991e-05 0.999938962981048 1.01728364919991e-05 1.01728364919991e-05 1.01728364919991e-05 1.01728364919991e-05 0.000597728631201434 0.000597728631201434 0.000597728631201434 0.996413628212791 0.000597728631201434 0.000597728631201434 0.000597728631201434 3.75051569590819e-05 0.999774969058246 3.75051569590819e-05 3.75051569590819e-05 3.75051569590819e-05 3.75051569590819e-05 3.75051569590819e-05 0.999861505435912 2.30824273480599e-05 2.30824273480599e-05 2.30824273480599e-05 2.30824273480599e-05 2.30824273480599e-05 2.30824273480599e-05 9.99700089973008e-05 9.99700089973008e-05 9.99700089973008e-05 0.999400179946016 9.99700089973008e-05 9.99700089973008e-05 9.99700089973008e-05 3.00057010832058e-05 3.00057010832058e-05 3.00057010832058e-05 3.00057010832058e-05 0.999819965793501 3.00057010832058e-05 3.00057010832058e-05 7.8974593873151e-06 7.8974593873151e-06 7.8974593873151e-06 7.8974593873151e-06 0.999952615243676 7.8974593873151e-06 7.8974593873151e-06 0.000149902563333833 0.000149902563333833 0.999100584619997 0.000149902563333833 0.000149902563333833 0.000149902563333833 0.000149902563333833 5.45464462990236e-05 0.999672721322206 5.45464462990236e-05 5.45464462990236e-05 5.45464462990236e-05 5.45464462990236e-05 5.45464462990236e-05 0.000597728631201434 0.000597728631201434 0.000597728631201434 0.000597728631201434 0.996413628212791 0.000597728631201434 0.000597728631201434 0.000119947223221782 0.000119947223221782 0.000119947223221782 0.000119947223221782 0.999280316660669 0.000119947223221782 0.000119947223221782 4.61573967228248e-05 4.61573967228248e-05 4.61573967228248e-05 4.61573967228248e-05 0.999723055619663 4.61573967228248e-05 4.61573967228248e-05 9.99700089973008e-05 9.99700089973008e-05 0.999400179946016 9.99700089973008e-05 9.99700089973008e-05 9.99700089973008e-05 9.99700089973008e-05 0.000119947223221782 0.000119947223221782 0.000119947223221782 0.999280316660669 0.000119947223221782 0.000119947223221782 0.000119947223221782 3.33388898149692e-05 3.33388898149692e-05 3.33388898149692e-05 0.99979996666111 3.33388898149692e-05 3.33388898149692e-05 3.33388898149692e-05 7.50260715598671e-06 7.50260715598671e-06 7.50260715598671e-06 7.50260715598671e-06 0.999954984357064 7.50260715598671e-06 7.50260715598671e-06 2.40055692920758e-05 2.40055692920758e-05 2.40055692920758e-05 0.999855966584248 2.40055692920758e-05 2.40055692920758e-05 2.40055692920758e-05 4.28614290000429e-05 4.28614290000429e-05 0.999742831426 4.28614290000429e-05 4.28614290000429e-05 4.28614290000429e-05 4.28614290000429e-05 7.23144231116896e-06 7.23144231116896e-06 7.23144231116896e-06 7.23144231116896e-06 0.999956611346133 7.23144231116896e-06 7.23144231116896e-06 0.000299490865528601 0.000299490865528601 0.998203054806828 0.000299490865528601 0.000299490865528601 0.000299490865528601 0.000299490865528601 0.000597728631201434 0.000597728631201434 0.000597728631201434 0.000597728631201434 0.996413628212791 0.000597728631201434 0.000597728631201434 0.999100584619997 0.000149902563333833 0.000149902563333833 0.000149902563333833 0.000149902563333833 0.000149902563333833 0.000149902563333833 3.15845993493573e-05 3.15845993493573e-05 3.15845993493573e-05 0.999810492403904 3.15845993493573e-05 3.15845993493573e-05 3.15845993493573e-05 0.998203054806828 0.000299490865528601 0.000299490865528601 0.000299490865528601 0.000299490865528601 0.000299490865528601 0.000299490865528601 3.75051569590819e-05 3.75051569590819e-05 3.75051569590819e-05 0.999774969058246 3.75051569590819e-05 3.75051569590819e-05 3.75051569590819e-05 8.56971462850287e-05 8.56971462850287e-05 8.56971462850287e-05 8.56971462850287e-05 0.99948581712229 8.56971462850287e-05 8.56971462850287e-05 0.000299490865528601 0.000299490865528601 0.000299490865528601 0.000299490865528601 0.998203054806828 0.000299490865528601 0.000299490865528601 0.000299490865528601 0.000299490865528601 0.000299490865528601 0.000299490865528601 0.998203054806828 0.000299490865528601 0.000299490865528601 1.46385021884561e-05 1.46385021884561e-05 1.46385021884561e-05 1.46385021884561e-05 1.46385021884561e-05 0.999912168986869 1.46385021884561e-05 5.00025001250062e-05 5.00025001250062e-05 5.00025001250062e-05 0.99969998499925 5.00025001250062e-05 5.00025001250062e-05 5.00025001250062e-05 1.71476584872336e-05 1.71476584872336e-05 1.71476584872336e-05 0.999897114049077 1.71476584872336e-05 1.71476584872336e-05 1.71476584872336e-05 3.00057010832058e-05 3.00057010832058e-05 3.00057010832058e-05 3.00057010832058e-05 3.00057010832058e-05 0.999819965793501 3.00057010832058e-05 3.15845993493573e-05 3.15845993493573e-05 3.15845993493573e-05 3.15845993493573e-05 3.15845993493573e-05 0.999810492403904 3.15845993493573e-05 4.28614290000429e-05 4.28614290000429e-05 4.28614290000429e-05 0.999742831426 4.28614290000429e-05 4.28614290000429e-05 4.28614290000429e-05 6.66622225184988e-05 6.66622225184988e-05 6.66622225184988e-05 6.66622225184988e-05 0.999600026664889 6.66622225184988e-05 6.66622225184988e-05 2.50056262659098e-05 2.50056262659098e-05 2.50056262659098e-05 0.999849966242405 2.50056262659098e-05 2.50056262659098e-05 2.50056262659098e-05 4.00048005760691e-05 4.00048005760691e-05 4.00048005760691e-05 4.00048005760691e-05 4.00048005760691e-05 0.999759971196544 4.00048005760691e-05 0.000149902563333833 0.000149902563333833 0.000149902563333833 0.000149902563333833 0.999100584619997 0.000149902563333833 0.000149902563333833 9.99700089973008e-05 9.99700089973008e-05 9.99700089973008e-05 9.99700089973008e-05 0.999400179946016 9.99700089973008e-05 9.99700089973008e-05 9.99700089973008e-05 9.99700089973008e-05 9.99700089973008e-05 0.999400179946016 9.99700089973008e-05 9.99700089973008e-05 9.99700089973008e-05 8.56971462850287e-05 0.99948581712229 8.56971462850287e-05 8.56971462850287e-05 8.56971462850287e-05 8.56971462850287e-05 8.56971462850287e-05 0.000149902563333833 0.000149902563333833 0.999100584619997 0.000149902563333833 0.000149902563333833 0.000149902563333833 0.000149902563333833 6.66622225184988e-05 6.66622225184988e-05 6.66622225184988e-05 6.66622225184988e-05 0.999600026664889 6.66622225184988e-05 6.66622225184988e-05 4.00048005760691e-05 4.00048005760691e-05 4.00048005760691e-05 4.00048005760691e-05 0.999759971196544 4.00048005760691e-05 4.00048005760691e-05 8.56971462850287e-05 8.56971462850287e-05 8.56971462850287e-05 0.99948581712229 8.56971462850287e-05 8.56971462850287e-05 8.56971462850287e-05 0.000149902563333833 0.000149902563333833 0.999100584619997 0.000149902563333833 0.000149902563333833 0.000149902563333833 0.000149902563333833 0.99948581712229 8.56971462850287e-05 8.56971462850287e-05 8.56971462850287e-05 8.56971462850287e-05 8.56971462850287e-05 8.56971462850287e-05 5.45464462990236e-05 0.999672721322206 5.45464462990236e-05 5.45464462990236e-05 5.45464462990236e-05 5.45464462990236e-05 5.45464462990236e-05 0.000299490865528601 0.000299490865528601 0.000299490865528601 0.000299490865528601 0.998203054806828 0.000299490865528601 0.000299490865528601 3.75051569590819e-05 3.75051569590819e-05 3.75051569590819e-05 3.75051569590819e-05 0.999774969058246 3.75051569590819e-05 3.75051569590819e-05 7.49906261717285e-05 7.49906261717285e-05 7.49906261717285e-05 0.99955005624297 7.49906261717285e-05 7.49906261717285e-05 7.49906261717285e-05 1.3047505969234e-05 1.3047505969234e-05 1.3047505969234e-05 0.999921714964185 1.3047505969234e-05 1.3047505969234e-05 1.3047505969234e-05 0.000597728631201434 0.000597728631201434 0.000597728631201434 0.996413628212791 0.000597728631201434 0.000597728631201434 0.000597728631201434 7.49906261717285e-05 7.49906261717285e-05 7.49906261717285e-05 7.49906261717285e-05 7.49906261717285e-05 0.99955005624297 7.49906261717285e-05 7.49906261717285e-05 7.49906261717285e-05 7.49906261717285e-05 7.49906261717285e-05 7.49906261717285e-05 0.99955005624297 7.49906261717285e-05 8.56971462850287e-05 8.56971462850287e-05 8.56971462850287e-05 0.99948581712229 8.56971462850287e-05 8.56971462850287e-05 8.56971462850287e-05 1.62208632743435e-05 1.62208632743435e-05 1.62208632743435e-05 1.62208632743435e-05 0.999902674820354 1.62208632743435e-05 1.62208632743435e-05 5.99988000239995e-05 0.999640007199856 5.99988000239995e-05 5.99988000239995e-05 5.99988000239995e-05 5.99988000239995e-05 5.99988000239995e-05 2.30824273480599e-05 2.30824273480599e-05 0.999861505435912 2.30824273480599e-05 2.30824273480599e-05 2.30824273480599e-05 2.30824273480599e-05 0.000597728631201434 0.000597728631201434 0.000597728631201434 0.000597728631201434 0.996413628212791 0.000597728631201434 0.000597728631201434 5.99988000239995e-05 5.99988000239995e-05 0.999640007199856 5.99988000239995e-05 5.99988000239995e-05 5.99988000239995e-05 5.99988000239995e-05 0.000299490865528601 0.000299490865528601 0.000299490865528601 0.998203054806828 0.000299490865528601 0.000299490865528601 0.000299490865528601 9.99700089973008e-05 0.999400179946016 9.99700089973008e-05 9.99700089973008e-05 9.99700089973008e-05 9.99700089973008e-05 9.99700089973008e-05 2.50056262659098e-05 2.50056262659098e-05 2.50056262659098e-05 0.999849966242405 2.50056262659098e-05 2.50056262659098e-05 2.50056262659098e-05 3.33388898149692e-05 3.33388898149692e-05 3.33388898149692e-05 0.99979996666111 3.33388898149692e-05 3.33388898149692e-05 3.33388898149692e-05 9.99700089973008e-05 9.99700089973008e-05 0.999400179946016 9.99700089973008e-05 9.99700089973008e-05 9.99700089973008e-05 9.99700089973008e-05 0.000597728631201434 0.000597728631201434 0.000597728631201434 0.000597728631201434 0.996413628212791 0.000597728631201434 0.000597728631201434 0.000597728631201434 0.000597728631201434 0.000597728631201434 0.996413628212791 0.000597728631201434 0.000597728631201434 0.000597728631201434 0.000299490865528601 0.000299490865528601 0.000299490865528601 0.000299490865528601 0.000299490865528601 0.000299490865528601 0.998203054806828 3.75051569590819e-05 3.75051569590819e-05 3.75051569590819e-05 3.75051569590819e-05 0.999774969058246 3.75051569590819e-05 3.75051569590819e-05 0.0001998001998002 0.998801198801199 0.0001998001998002 0.0001998001998002 0.0001998001998002 0.0001998001998002 0.0001998001998002 1.87550404171121e-05 1.87550404171121e-05 1.87550404171121e-05 0.999887469757497 1.87550404171121e-05 1.87550404171121e-05 1.87550404171121e-05 0.000119947223221782 0.000119947223221782 0.000119947223221782 0.000119947223221782 0.000119947223221782 0.999280316660669 0.000119947223221782 0.000119947223221782 0.999280316660669 0.000119947223221782 0.000119947223221782 0.000119947223221782 0.000119947223221782 0.000119947223221782 0.0001998001998002 0.0001998001998002 0.0001998001998002 0.0001998001998002 0.998801198801199 0.0001998001998002 0.0001998001998002 0.000119947223221782 0.000119947223221782 0.000119947223221782 0.000119947223221782 0.999280316660669 0.000119947223221782 0.000119947223221782 9.99700089973008e-05 9.99700089973008e-05 9.99700089973008e-05 9.99700089973008e-05 0.999400179946016 9.99700089973008e-05 9.99700089973008e-05 3.75051569590819e-05 3.75051569590819e-05 3.75051569590819e-05 0.999774969058246 3.75051569590819e-05 3.75051569590819e-05 3.75051569590819e-05 0.000597728631201434 0.000597728631201434 0.000597728631201434 0.000597728631201434 0.996413628212791 0.000597728631201434 0.000597728631201434 7.49906261717285e-05 7.49906261717285e-05 7.49906261717285e-05 7.49906261717285e-05 0.99955005624297 7.49906261717285e-05 7.49906261717285e-05 0.000119947223221782 0.000119947223221782 0.999280316660669 0.000119947223221782 0.000119947223221782 0.000119947223221782 0.000119947223221782 8.56971462850287e-05 8.56971462850287e-05 8.56971462850287e-05 8.56971462850287e-05 0.99948581712229 8.56971462850287e-05 8.56971462850287e-05 0.000149902563333833 0.000149902563333833 0.000149902563333833 0.000149902563333833 0.999100584619997 0.000149902563333833 0.000149902563333833 0.000597728631201434 0.000597728631201434 0.000597728631201434 0.000597728631201434 0.996413628212791 0.000597728631201434 0.000597728631201434 0.000299490865528601 0.000299490865528601 0.998203054806828 0.000299490865528601 0.000299490865528601 0.000299490865528601 0.000299490865528601 0.999600026664889 6.66622225184988e-05 6.66622225184988e-05 6.66622225184988e-05 6.66622225184988e-05 6.66622225184988e-05 6.66622225184988e-05 5.99988000239995e-05 5.99988000239995e-05 5.99988000239995e-05 5.99988000239995e-05 0.999640007199856 5.99988000239995e-05 5.99988000239995e-05 2.50056262659098e-05 2.50056262659098e-05 2.50056262659098e-05 2.50056262659098e-05 2.50056262659098e-05 0.999849966242405 2.50056262659098e-05 0.000149902563333833 0.000149902563333833 0.000149902563333833 0.000149902563333833 0.999100584619997 0.000149902563333833 0.000149902563333833 2.60926288323549e-05 2.60926288323549e-05 2.60926288323549e-05 0.999843444227006 2.60926288323549e-05 2.60926288323549e-05 2.60926288323549e-05 8.56971462850287e-05 8.56971462850287e-05 8.56971462850287e-05 0.99948581712229 8.56971462850287e-05 8.56971462850287e-05 8.56971462850287e-05 3.75051569590819e-05 3.75051569590819e-05 3.75051569590819e-05 0.999774969058246 3.75051569590819e-05 3.75051569590819e-05 3.75051569590819e-05 0.0001998001998002 0.998801198801199 0.0001998001998002 0.0001998001998002 0.0001998001998002 0.0001998001998002 0.0001998001998002 0.0001998001998002 0.0001998001998002 0.998801198801199 0.0001998001998002 0.0001998001998002 0.0001998001998002 0.0001998001998002 0.000597728631201434 0.000597728631201434 0.996413628212791 0.000597728631201434 0.000597728631201434 0.000597728631201434 0.000597728631201434 5.99988000239995e-05 5.99988000239995e-05 0.999640007199856 5.99988000239995e-05 5.99988000239995e-05 5.99988000239995e-05 5.99988000239995e-05 0.000119947223221782 0.000119947223221782 0.000119947223221782 0.000119947223221782 0.999280316660669 0.000119947223221782 0.000119947223221782 0.000299490865528601 0.000299490865528601 0.000299490865528601 0.998203054806828 0.000299490865528601 0.000299490865528601 0.000299490865528601 0.000299490865528601 0.000299490865528601 0.998203054806828 0.000299490865528601 0.000299490865528601 0.000299490865528601 0.000299490865528601 0.000299490865528601 0.000299490865528601 0.000299490865528601 0.000299490865528601 0.998203054806828 0.000299490865528601 0.000299490865528601 0.000119947223221782 0.000119947223221782 0.000119947223221782 0.000119947223221782 0.999280316660669 0.000119947223221782 0.000119947223221782 4.28614290000429e-05 4.28614290000429e-05 4.28614290000429e-05 0.999742831426 4.28614290000429e-05 4.28614290000429e-05 4.28614290000429e-05 4.00048005760691e-05 4.00048005760691e-05 4.00048005760691e-05 0.999759971196544 4.00048005760691e-05 4.00048005760691e-05 4.00048005760691e-05 0.998203054806828 0.000299490865528601 0.000299490865528601 0.000299490865528601 0.000299490865528601 0.000299490865528601 0.000299490865528601 6.66622225184988e-05 0.999600026664889 6.66622225184988e-05 6.66622225184988e-05 6.66622225184988e-05 6.66622225184988e-05 6.66622225184988e-05 0.000299490865528601 0.000299490865528601 0.000299490865528601 0.000299490865528601 0.000299490865528601 0.998203054806828 0.000299490865528601 0.000149902563333833 0.000149902563333833 0.000149902563333833 0.000149902563333833 0.999100584619997 0.000149902563333833 0.000149902563333833 0.0001998001998002 0.0001998001998002 0.0001998001998002 0.0001998001998002 0.998801198801199 0.0001998001998002 0.0001998001998002 5.00025001250062e-05 5.00025001250062e-05 5.00025001250062e-05 0.99969998499925 5.00025001250062e-05 5.00025001250062e-05 5.00025001250062e-05 0.000597728631201434 0.000597728631201434 0.000597728631201434 0.996413628212791 0.000597728631201434 0.000597728631201434 0.000597728631201434 0.000597728631201434 0.000597728631201434 0.000597728631201434 0.000597728631201434 0.000597728631201434 0.996413628212791 0.000597728631201434 0.0001998001998002 0.0001998001998002 0.0001998001998002 0.0001998001998002 0.998801198801199 0.0001998001998002 0.0001998001998002 0.000299490865528601 0.000299490865528601 0.000299490865528601 0.000299490865528601 0.000299490865528601 0.998203054806828 0.000299490865528601 0.000299490865528601 0.000299490865528601 0.000299490865528601 0.000299490865528601 0.998203054806828 0.000299490865528601 0.000299490865528601 0.000299490865528601 0.000299490865528601 0.000299490865528601 0.000299490865528601 0.000299490865528601 0.998203054806828 0.000299490865528601 6.66622225184988e-05 6.66622225184988e-05 6.66622225184988e-05 0.999600026664889 6.66622225184988e-05 6.66622225184988e-05 6.66622225184988e-05 0.000149902563333833 0.000149902563333833 0.000149902563333833 0.000149902563333833 0.000149902563333833 0.999100584619997 0.000149902563333833 0.000597728631201434 0.000597728631201434 0.000597728631201434 0.996413628212791 0.000597728631201434 0.000597728631201434 0.000597728631201434 0.000149902563333833 0.000149902563333833 0.000149902563333833 0.999100584619997 0.000149902563333833 0.000149902563333833 0.000149902563333833 0.000597728631201434 0.000597728631201434 0.996413628212791 0.000597728631201434 0.000597728631201434 0.000597728631201434 0.000597728631201434 0.0001998001998002 0.0001998001998002 0.998801198801199 0.0001998001998002 0.0001998001998002 0.0001998001998002 0.0001998001998002 8.56971462850287e-05 8.56971462850287e-05 0.99948581712229 8.56971462850287e-05 8.56971462850287e-05 8.56971462850287e-05 8.56971462850287e-05 7.49906261717285e-05 7.49906261717285e-05 0.99955005624297 7.49906261717285e-05 7.49906261717285e-05 7.49906261717285e-05 7.49906261717285e-05 0.000597728631201434 0.996413628212791 0.000597728631201434 0.000597728631201434 0.000597728631201434 0.000597728631201434 0.000597728631201434 0.000149902563333833 0.000149902563333833 0.000149902563333833 0.000149902563333833 0.999100584619997 0.000149902563333833 0.000149902563333833 0.000119947223221782 0.000119947223221782 0.999280316660669 0.000119947223221782 0.000119947223221782 0.000119947223221782 0.000119947223221782 0.000597728631201434 0.000597728631201434 0.996413628212791 0.000597728631201434 0.000597728631201434 0.000597728631201434 0.000597728631201434 0.0001998001998002 0.0001998001998002 0.998801198801199 0.0001998001998002 0.0001998001998002 0.0001998001998002 0.0001998001998002 0.000299490865528601 0.000299490865528601 0.000299490865528601 0.000299490865528601 0.998203054806828 0.000299490865528601 0.000299490865528601 0.000149902563333833 0.000149902563333833 0.000149902563333833 0.999100584619997 0.000149902563333833 0.000149902563333833 0.000149902563333833 0.0001998001998002 0.0001998001998002 0.0001998001998002 0.998801198801199 0.0001998001998002 0.0001998001998002 0.0001998001998002 0.000597728631201434 0.000597728631201434 0.000597728631201434 0.996413628212791 0.000597728631201434 0.000597728631201434 0.000597728631201434 3.33388898149692e-05 3.33388898149692e-05 0.99979996666111 3.33388898149692e-05 3.33388898149692e-05 3.33388898149692e-05 3.33388898149692e-05 0.996413628212791 0.000597728631201434 0.000597728631201434 0.000597728631201434 0.000597728631201434 0.000597728631201434 0.000597728631201434 9.99700089973008e-05 9.99700089973008e-05 0.999400179946016 9.99700089973008e-05 9.99700089973008e-05 9.99700089973008e-05 9.99700089973008e-05 0.000299490865528601 0.000299490865528601 0.000299490865528601 0.000299490865528601 0.998203054806828 0.000299490865528601 0.000299490865528601 0.000149902563333833 0.000149902563333833 0.000149902563333833 0.999100584619997 0.000149902563333833 0.000149902563333833 0.000149902563333833 0.000149902563333833 0.000149902563333833 0.000149902563333833 0.999100584619997 0.000149902563333833 0.000149902563333833 0.000149902563333833 4.61573967228248e-05 4.61573967228248e-05 4.61573967228248e-05 0.999723055619663 4.61573967228248e-05 4.61573967228248e-05 4.61573967228248e-05 0.000299490865528601 0.998203054806828 0.000299490865528601 0.000299490865528601 0.000299490865528601 0.000299490865528601 0.000299490865528601 0.000597728631201434 0.000597728631201434 0.996413628212791 0.000597728631201434 0.000597728631201434 0.000597728631201434 0.000597728631201434 0.0001998001998002 0.0001998001998002 0.0001998001998002 0.998801198801199 0.0001998001998002 0.0001998001998002 0.0001998001998002 0.000149902563333833 0.999100584619997 0.000149902563333833 0.000149902563333833 0.000149902563333833 0.000149902563333833 0.000149902563333833 0.000299490865528601 0.998203054806828 0.000299490865528601 0.000299490865528601 0.000299490865528601 0.000299490865528601 0.000299490865528601 0.000597728631201434 0.996413628212791 0.000597728631201434 0.000597728631201434 0.000597728631201434 0.000597728631201434 0.000597728631201434 0.000299490865528601 0.000299490865528601 0.998203054806828 0.000299490865528601 0.000299490865528601 0.000299490865528601 0.000299490865528601 0.000299490865528601 0.000299490865528601 0.000299490865528601 0.000299490865528601 0.998203054806828 0.000299490865528601 0.000299490865528601 0.0001998001998002 0.998801198801199 0.0001998001998002 0.0001998001998002 0.0001998001998002 0.0001998001998002 0.0001998001998002 0.000299490865528601 0.000299490865528601 0.000299490865528601 0.000299490865528601 0.998203054806828 0.000299490865528601 0.000299490865528601 0.000119947223221782 0.000119947223221782 0.999280316660669 0.000119947223221782 0.000119947223221782 0.000119947223221782 0.000119947223221782 0.000597728631201434 0.996413628212791 0.000597728631201434 0.000597728631201434 0.000597728631201434 0.000597728631201434 0.000597728631201434 0.0001998001998002 0.998801198801199 0.0001998001998002 0.0001998001998002 0.0001998001998002 0.0001998001998002 0.0001998001998002 0.000597728631201434 0.000597728631201434 0.000597728631201434 0.000597728631201434 0.000597728631201434 0.996413628212791 0.000597728631201434 0.0001998001998002 0.0001998001998002 0.998801198801199 0.0001998001998002 0.0001998001998002 0.0001998001998002 0.0001998001998002 0.000597728631201434 0.000597728631201434 0.000597728631201434 0.000597728631201434 0.000597728631201434 0.996413628212791 0.000597728631201434 0.0001998001998002 0.0001998001998002 0.0001998001998002 0.0001998001998002 0.998801198801199 0.0001998001998002 0.0001998001998002 0.000299490865528601 0.000299490865528601 0.000299490865528601 0.000299490865528601 0.998203054806828 0.000299490865528601 0.000299490865528601 0.0001998001998002 0.998801198801199 0.0001998001998002 0.0001998001998002 0.0001998001998002 0.0001998001998002 0.0001998001998002 0.000299490865528601 0.000299490865528601 0.998203054806828 0.000299490865528601 0.000299490865528601 0.000299490865528601 0.000299490865528601 0.000597728631201434 0.000597728631201434 0.000597728631201434 0.000597728631201434 0.000597728631201434 0.996413628212791 0.000597728631201434 0.000597728631201434 0.000597728631201434 0.000597728631201434 0.000597728631201434 0.000597728631201434 0.996413628212791 0.000597728631201434 0.000597728631201434 0.996413628212791 0.000597728631201434 0.000597728631201434 0.000597728631201434 0.000597728631201434 0.000597728631201434 0.000597728631201434 0.000597728631201434 0.000597728631201434 0.996413628212791 0.000597728631201434 0.000597728631201434 0.000597728631201434 0.000597728631201434 0.000597728631201434 0.000597728631201434 0.996413628212791 0.000597728631201434 0.000597728631201434 0.000597728631201434 0.000597728631201434 0.996413628212791 0.000597728631201434 0.000597728631201434 0.000597728631201434 0.000597728631201434 0.000597728631201434 0.000597728631201434 0.000597728631201434 0.000597728631201434 0.996413628212791 0.000597728631201434 0.000597728631201434 0.000597728631201434 0.000597728631201434 0.996413628212791 0.000597728631201434 0.000597728631201434 0.000597728631201434 0.000597728631201434 0.000597728631201434 0.000597728631201434 0.996413628212791 0.000597728631201434 0.000597728631201434 0.000597728631201434 0.000597728631201434 0.000597728631201434 0.000597728631201434 0.000597728631201434 0.000597728631201434 0.000597728631201434 0.000597728631201434 0.996413628212791 0.000597728631201434 0.000597728631201434 0.000597728631201434 0.996413628212791 0.000597728631201434 0.000597728631201434 0.000597728631201434 0.000597728631201434 0.000597728631201434 0.000597728631201434 0.996413628212791 0.000597728631201434 0.000597728631201434 0.000597728631201434 0.000597728631201434 0.000597728631201434 0.000597728631201434 0.996413628212791 0.000597728631201434 0.000597728631201434 0.000597728631201434 0.000597728631201434 0.000597728631201434 0.000597728631201434 0.000597728631201434 0.996413628212791 0.000597728631201434 0.000597728631201434 0.000597728631201434 0.000597728631201434 0.000597728631201434 0.000597728631201434 0.996413628212791 0.000597728631201434 0.000597728631201434 0.000597728631201434 0.000597728631201434 0.996413628212791 0.000597728631201434 0.000597728631201434 0.000597728631201434 0.000597728631201434 0.000597728631201434 0.000597728631201434 0.000597728631201434 0.000597728631201434 0.000597728631201434 0.000597728631201434 0.996413628212791 0.000597728631201434 0.996413628212791 0.000597728631201434 0.000597728631201434 0.000597728631201434 0.000597728631201434 0.000597728631201434 0.000597728631201434 0.000597728631201434 0.000597728631201434 0.000597728631201434 0.000597728631201434 0.000597728631201434 0.996413628212791 0.000597728631201434 0.000597728631201434 0.000597728631201434 0.000597728631201434 0.996413628212791 0.000597728631201434 0.000597728631201434 0.000597728631201434 0.996413628212791 0.000597728631201434 0.000597728631201434 0.000597728631201434 0.000597728631201434 0.000597728631201434 0.000597728631201434 0.000597728631201434 0.000597728631201434 0.996413628212791 0.000597728631201434 0.000597728631201434 0.000597728631201434 0.000597728631201434 0.000597728631201434 0.996413628212791 0.000597728631201434 0.000597728631201434 0.000597728631201434 0.000597728631201434 0.000597728631201434 0.000597728631201434 0.000597728631201434 0.000597728631201434 0.000597728631201434 0.996413628212791 0.000597728631201434 0.000597728631201434 0.000299490865528601 0.000299490865528601 0.000299490865528601 0.000299490865528601 0.000299490865528601 0.000299490865528601 0.998203054806828 0.000597728631201434 0.000597728631201434 0.000597728631201434 0.000597728631201434 0.996413628212791 0.000597728631201434 0.000597728631201434 0.000597728631201434 0.000597728631201434 0.000597728631201434 0.000597728631201434 0.000597728631201434 0.996413628212791 0.000597728631201434 0.000597728631201434 0.000597728631201434 0.000597728631201434 0.000597728631201434 0.000597728631201434 0.996413628212791 0.000597728631201434 0.000597728631201434 0.000597728631201434 0.000597728631201434 0.000597728631201434 0.000597728631201434 0.996413628212791 0.000597728631201434 0.000597728631201434 0.000597728631201434 0.996413628212791 0.000597728631201434 0.000597728631201434 0.000597728631201434 0.000597728631201434 0.000597728631201434 0.996413628212791 0.000597728631201434 0.000597728631201434 0.000597728631201434 0.000597728631201434 0.000597728631201434 </TABLE>
</DEFINITION>

<DEFINITION>
	<FOR>v6</FOR>
	<GIVEN>v190</GIVEN>
	<TABLE>0.999766682221185 0.000233317778814746 0.99895178197065 0.0010482180293501 0.999996475124957 3.52487504317972e-06 0.999997548623062 2.45137693842631e-06 0.999790004199916 0.000209995800083998 0.999996826545314 3.17345468624054e-06 0.999998222645627 1.77735437246949e-06 0.999994260064976 5.73993502393553e-06 0.999994774083636 5.2259163644345e-06 3.81941792070888e-05 0.999961805820793 0.999958810445671 4.11895543290222e-05 0.999996377887729 3.62211227099195e-06 0.999700059988002 0.0002999400119976 0.000190912562046583 0.999809087437953 0.999970412450441 2.95875495591455e-05 6.17817867292722e-05 0.999938218213271 0.99998911505388 1.08849461195167e-05 0.999927567724178 7.24322758221063e-05 0.999993633898219 6.36610178123528e-06 0.999992360697316 7.63930268445096e-06 0.999956236323851 4.37636761487965e-05 0.999809087437953 0.000190912562046583 0.99994876524234 5.12347576595963e-05 3.00102034691795e-05 0.999969989796531 0.999982044744497 1.79552555032858e-05 3.04451074712294e-05 0.999969554892529 0.999939983195295 6.00168047053175e-05 0.999984553121814 1.54468781859186e-05 1.28096738657034e-05 0.999987190326134 0.999936346276257 6.3653723742839e-05 0.999899979995999 0.0001000200040008 7.77967947720554e-05 0.999922203205228 0.999868731950643 0.000131268049356787 6.56426414598923e-05 0.99993435735854 0.999939983195295 6.00168047053175e-05 0.999990983680462 9.01631953836444e-06 0.9998499849985 0.00015001500150015 0.999876451692612 0.000123548307388189 8.75196919306844e-05 0.999912480308069 0.0001000200040008 0.999899979995999 0.999899979995999 0.0001000200040008 0.999993156965525 6.84303447520769e-06 0.999859983197984 0.000140016802016242 0.000233317778814746 0.999766682221185 0.999824991249562 0.000175008750437522 0.999957986723805 4.20132761952777e-05 0.000131268049356787 0.999868731950643 0.000233317778814746 0.999766682221185 0.999964395072278 3.56049277219967e-05 0.00209205020920502 0.997907949790795 0.999868731950643 0.000131268049356787 0.999919211504282 8.07884957182097e-05 0.000349895031490553 0.999650104968509 0.00010501995379122 0.999894980046209 0.999972358892144 2.76411078556028e-05 0.999475341028332 0.000524658971668416 0.999809087437953 0.000190912562046583 0.00209205020920502 0.997907949790795 0.999580184718724 0.000419815281276238 0.000161550888529887 0.99983844911147 0.999650104968509 0.000349895031490553 0.000419815281276238 0.999580184718724 0.000116686114352392 0.999883313885648 2.62591250459535e-05 0.999973740874954 0.999915980507478 8.40194925222652e-05 0.9998499849985 0.00015001500150015 0.999974689951911 2.53100480890914e-05 0.0010482180293501 0.99895178197065 0.00209205020920502 0.997907949790795 0.999475341028332 0.000524658971668416 0.999889453902277 0.00011054609772275 0.99895178197065 0.0010482180293501 0.999868731950643 0.000131268049356787 0.999700059988002 0.0002999400119976 0.0010482180293501 0.99895178197065 0.99895178197065 0.0010482180293501 0.99994876524234 5.12347576595963e-05 0.000175008750437522 0.999824991249562 0.999939983195295 6.00168047053175e-05 0.999894980046209 0.00010501995379122 0.999889453902277 0.00011054609772275 0.00015001500150015 0.9998499849985 0.000233317778814746 0.999766682221185 8.75196919306844e-05 0.999912480308069 0.999859983197984 0.000140016802016242 0.000524658971668416 0.999475341028332 0.999650104968509 0.000349895031490553 0.999650104968509 0.000349895031490553 0.999700059988002 0.0002999400119976 0.999475341028332 0.000524658971668416 0.999766682221185 0.000233317778814746 0.999859983197984 0.000140016802016242 0.999700059988002 0.0002999400119976 0.999475341028332 0.000524658971668416 0.999700059988002 0.0002999400119976 0.000190912562046583 0.999809087437953 0.0010482180293501 0.99895178197065 0.999868731950643 0.000131268049356787 0.999737532808399 0.00026246719160105 0.999954333729108 4.56662708923189e-05 0.997907949790795 0.00209205020920502 0.999737532808399 0.00026246719160105 0.999737532808399 0.00026246719160105 0.999700059988002 0.0002999400119976 0.99994322697854 5.67730214602021e-05 0.000209995800083998 0.999790004199916 0.999919211504282 8.07884957182097e-05 0.00209205020920502 0.997907949790795 0.999790004199916 0.000209995800083998 0.0010482180293501 0.99895178197065 0.000349895031490553 0.999650104968509 0.999912480308069 8.75196919306844e-05 0.999883313885648 0.000116686114352392 0.999650104968509 0.000349895031490553 0.997907949790795 0.00209205020920502 0.00209205020920502 0.997907949790795 0.0010482180293501 0.99895178197065 0.999868731950643 0.000131268049356787 0.999300699300699 0.000699300699300699 6.56426414598923e-05 0.99993435735854 0.000419815281276238 0.999580184718724 0.999580184718724 0.000419815281276238 0.999300699300699 0.000699300699300699 0.000419815281276238 0.999580184718724 0.999650104968509 0.000349895031490553 0.999868731950643 0.000131268049356787 0.00209205020920502 0.997907949790795 0.00026246719160105 0.999737532808399 0.999580184718724 0.000419815281276238 0.0002999400119976 0.999700059988002 0.000524658971668416 0.999475341028332 0.997907949790795 0.00209205020920502 0.99895178197065 0.0010482180293501 0.999766682221185 0.000233317778814746 0.999790004199916 0.000209995800083998 0.999912480308069 8.75196919306844e-05 0.000524658971668416 0.999475341028332 0.999908675799087 9.1324200913242e-05 0.0002999400119976 0.999700059988002 0.000131268049356787 0.999868731950643 0.999300699300699 0.000699300699300699 0.999300699300699 0.000699300699300699 0.00209205020920502 0.997907949790795 0.999790004199916 0.000209995800083998 0.999580184718724 0.000419815281276238 0.0010482180293501 0.99895178197065 0.99895178197065 0.0010482180293501 0.0010482180293501 0.99895178197065 0.000419815281276238 0.999580184718724 0.00015001500150015 0.9998499849985 0.000140016802016242 0.999859983197984 0.99895178197065 0.0010482180293501 0.999766682221185 0.000233317778814746 0.0010482180293501 0.99895178197065 0.000524658971668416 0.999475341028332 0.000699300699300699 0.999300699300699 0.999824991249562 0.000175008750437522 0.997907949790795 0.00209205020920502 0.997907949790795 0.00209205020920502 0.999300699300699 0.000699300699300699 0.99895178197065 0.0010482180293501 0.0010482180293501 0.99895178197065 0.99895178197065 0.0010482180293501 0.999766682221185 0.000233317778814746 0.999475341028332 0.000524658971668416 0.00209205020920502 0.997907949790795 0.000524658971668416 0.999475341028332 0.997907949790795 0.00209205020920502 0.999300699300699 0.000699300699300699 0.999700059988002 0.0002999400119976 0.999737532808399 0.00026246719160105 0.997907949790795 0.00209205020920502 0.999475341028332 0.000524658971668416 0.999580184718724 0.000419815281276238 0.00209205020920502 0.997907949790795 0.000699300699300699 0.999300699300699 0.99895178197065 0.0010482180293501 0.999475341028332 0.000524658971668416 0.999300699300699 0.000699300699300699 0.997907949790795 0.00209205020920502 0.999883313885648 0.000116686114352392 0.00209205020920502 0.997907949790795 0.000349895031490553 0.999650104968509 0.99895178197065 0.0010482180293501 0.000524658971668416 0.999475341028332 0.999475341028332 0.000524658971668416 0.000161550888529887 0.99983844911147 0.99895178197065 0.0010482180293501 0.00209205020920502 0.997907949790795 0.999300699300699 0.000699300699300699 0.000524658971668416 0.999475341028332 0.99895178197065 0.0010482180293501 0.00209205020920502 0.997907949790795 0.99895178197065 0.0010482180293501 0.99895178197065 0.0010482180293501 0.999300699300699 0.000699300699300699 0.99895178197065 0.0010482180293501 0.999580184718724 0.000419815281276238 0.00209205020920502 0.997907949790795 0.999300699300699 0.000699300699300699 0.997907949790795 0.00209205020920502 0.999300699300699 0.000699300699300699 0.997907949790795 0.00209205020920502 0.999300699300699 0.000699300699300699 0.0010482180293501 0.99895178197065 0.000699300699300699 0.999300699300699 0.99895178197065 0.0010482180293501 0.997907949790795 0.00209205020920502 0.997907949790795 0.00209205020920502 0.997907949790795 0.00209205020920502 0.00209205020920502 0.997907949790795 0.00209205020920502 0.997907949790795 0.00209205020920502 0.997907949790795 0.997907949790795 0.00209205020920502 0.997907949790795 0.00209205020920502 0.997907949790795 0.00209205020920502 0.00209205020920502 0.997907949790795 0.00209205020920502 0.997907949790795 0.997907949790795 0.00209205020920502 0.00209205020920502 0.997907949790795 0.00209205020920502 0.997907949790795 0.00209205020920502 0.997907949790795 0.00209205020920502 0.997907949790795 0.997907949790795 0.00209205020920502 0.997907949790795 0.00209205020920502 0.997907949790795 0.00209205020920502 0.00209205020920502 0.997907949790795 0.997907949790795 0.00209205020920502 0.00209205020920502 0.997907949790795 0.00209205020920502 0.997907949790795 0.997907949790795 0.00209205020920502 0.0010482180293501 0.99895178197065 0.997907949790795 0.00209205020920502 0.997907949790795 0.00209205020920502 0.997907949790795 0.00209205020920502 0.997907949790795 0.00209205020920502 0.997907949790795 0.00209205020920502 0.00209205020920502 0.997907949790795 </TABLE>
</DEFINITION>

<DEFINITION>
	<FOR>v7</FOR>
	<GIVEN>v6</GIVEN>
	<TABLE>0.999830698579984 2.11626775019575e-05 0.000148138742513703 0.98548523206751 0.0143459915611814 0.000168776371308017 </TABLE>
</DEFINITION>

<DEFINITION>
	<FOR>v8</FOR>
	<GIVEN>v62</GIVEN>
	<GIVEN>v18</GIVEN>
	<GIVEN>v10</GIVEN>
	<TABLE>0.444060399860542 0.555939600139458 0.26072650697552 0.73927349302448 0.124690951046646 0.875309048953354 0.999665551839465 0.000334448160535117 0.986486486486487 0.0135135135135135 0.999986450231701 1.35497682989621e-05 0.63843052340775 0.36156947659225 0.111377655928718 0.888622344071282 0.395006999533364 0.604993000466636 0.998542274052478 0.00145772594752187 0.993150684931507 0.00684931506849315 0.999941403961092 5.85960389077698e-05 0.896680022896394 0.103319977103606 0.401098901098901 0.598901098901099 0.00909090909090909 0.990909090909091 0.995412844036697 0.00458715596330275 0.973684210526316 0.0263157894736842 0.994505494505495 0.00549450549450549 </TABLE>
</DEFINITION>

<DEFINITION>
	<FOR>v9</FOR>
	<TABLE>0.991340403926436 0.00566963782015119 0.00284892248674264 0.000141035766670428 </TABLE>
</DEFINITION>

<DEFINITION>
	<FOR>v10</FOR>
	<GIVEN>v73</GIVEN>
	<GIVEN>v49</GIVEN>
	<TABLE>0.846895222359906 0.136444995181055 0.016659782459039 0.203357703763878 0.024641213105876 0.772001083130246 0.99825021872266 0.000874890638670166 0.000874890638670166 0.499604117181314 0.499604117181314 0.000791765637371338 0.333333333333333 0.333333333333333 0.333333333333333 0.958088093480444 0.0411071872734649 0.000804719246091126 0.0839315605585701 0.00540370507678654 0.910664734364643 0.0510866497318656 0.0172170476996895 0.931696302568445 0.906650478888439 0.0932146229596655 0.000134898151895319 0.000455996352029184 0.000455996352029184 0.999088007295942 </TABLE>
</DEFINITION>

<DEFINITION>
	<FOR>v11</FOR>
	<GIVEN>v55</GIVEN>
	<TABLE>0.999907548652522 4.62256737391947e-05 4.62256737391947e-05 0.999907227015493 4.63864922534558e-05 4.63864922534558e-05 0.999380176188216 1.31877406762673e-05 0.000606636071108298 0.866606804349995 0.133293425122219 9.9770527786092e-05 0.891878042531386 0.107865744299257 0.000256213169356905 </TABLE>
</DEFINITION>

<DEFINITION>
	<FOR>v12</FOR>
	<GIVEN>v71</GIVEN>
	<GIVEN>v13</GIVEN>
	<TABLE>0.994900070244316 0.00509030724671151 9.62250897298962e-06 0.00109289617486339 0.00109289617486339 0.997814207650273 0.926813040585496 0.072521623419827 0.000665335994677312 0.0666666666666667 0.866666666666667 0.0666666666666667 </TABLE>
</DEFINITION>

<DEFINITION>
	<FOR>v13</FOR>
	<GIVEN>v36</GIVEN>
	<TABLE>0.999977392955645 2.2607044355021e-05 0.999961612284069 3.83877159309021e-05 0.00170648464163823 0.998293515358362 0.0294117647058824 0.970588235294118 </TABLE>
</DEFINITION>

<DEFINITION>
	<FOR>v14</FOR>
	<GIVEN>v55</GIVEN>
	<GIVEN>v10</GIVEN>
	<TABLE>0.857506988982075 0.142472455188291 2.0555829633284e-05 0.000396353547364249 0.999207292905272 0.000396353547364249 0.911349067599068 0.0885780885780886 7.28438228438228e-05 0.881996621818394 0.117974255926379 2.91222552274448e-05 0.000264340470526038 0.999471319058948 0.000264340470526038 0.942304071103077 0.0576582683689225 3.76605280006026e-05 0.920025564849736 0.0799674118398966 7.02331036710843e-06 0.000231320842007865 0.999537358315984 0.000231320842007865 0.977691945826834 0.0222956745648568 1.23796083091931e-05 0.57662192393736 0.423327232052064 5.08440105755542e-05 0.000886524822695036 0.99822695035461 0.000886524822695036 0.863905963550092 0.135986196484417 0.000107839965491211 0.607853589196873 0.391968727789623 0.000177683013503909 0.000515995872033024 0.975748194014448 0.0237358101135191 0.956070480328264 0.0436881486845281 0.000241370987207338 </TABLE>
</DEFINITION>

<DEFINITION>
	<FOR>v15</FOR>
	<GIVEN>v41</GIVEN>
	<GIVEN>v14</GIVEN>
	<TABLE>0.999725514840257 0.000267261866065689 7.22329367745104e-06 0.988904674920506 0.0110276706582775 6.76544212164265e-05 0.0476190476190476 0.904761904761905 0.0476190476190476 0.0175438596491228 0.0175438596491228 0.964912280701754 0.962124859573102 0.0377146525437329 0.000160487883164821 0.333333333333333 0.333333333333333 0.333333333333333 </TABLE>
</DEFINITION>

<DEFINITION>
	<FOR>v16</FOR>
	<GIVEN>v93</GIVEN>
	<GIVEN>v55</GIVEN>
	<GIVEN>v1</GIVEN>
	<TABLE>0.877524885848743 0.0944735046622697 0.0265950560696979 3.49888910270989e-06 0.00140305453018667 0.2 0.2 0.2 0.2 0.2 0.2 0.2 0.2 0.2 0.2 0.2 0.2 0.2 0.2 0.2 0.2 0.2 0.2 0.2 0.2 6.09737508002805e-06 0.99997561049968 6.09737508002805e-06 6.09737508002805e-06 6.09737508002805e-06 0.00218466387696321 1.08689745122548e-05 0.9977827291995 1.08689745122548e-05 1.08689745122548e-05 3.18420633657061e-05 0.999872631746537 3.18420633657061e-05 3.18420633657061e-05 3.18420633657061e-05 0.868481472315796 0.0860611815091843 0.0361624436240221 0.00909187327336731 0.000203029277629911 0.2 0.2 0.2 0.2 0.2 0.2 0.2 0.2 0.2 0.2 0.2 0.2 0.2 0.2 0.2 0.271490516948833 0.594253610346518 0.131224312808718 7.54119377097395e-06 0.00302401870216055 0.2 0.2 0.2 0.2 0.2 0.2 0.2 0.2 0.2 0.2 0.2 0.2 0.2 0.2 0.2 0.256803812858671 0.712012450150764 0.0272541581558214 1.94533605680381e-05 0.00391012547417566 0.2 0.2 0.2 0.2 0.2 0.2 0.2 0.2 0.2 0.2 0.2 0.2 0.2 0.2 0.2 0.000383877159309021 0.000383877159309021 0.998464491362764 0.000383877159309021 0.000383877159309021 0.2 0.2 0.2 0.2 0.2 0.2 0.2 0.2 0.2 0.2 0.2 0.2 0.2 0.2 0.2 0.2 0.2 0.2 0.2 0.2 0.2 0.2 0.2 0.2 0.2 0.2 0.2 0.2 0.2 0.2 0.2 0.2 0.2 0.2 0.2 4.90075961774075e-05 4.90075961774075e-05 0.99980396961529 4.90075961774075e-05 4.90075961774075e-05 0.2 0.2 0.2 0.2 0.2 0.2 0.2 0.2 0.2 0.2 0.00165289256198347 0.00165289256198347 0.993388429752066 0.00165289256198347 0.00165289256198347 0.000995024875621891 0.000995024875621891 0.996019900497513 0.000995024875621891 0.000995024875621891 0.2 0.2 0.2 0.2 0.2 0.2 0.2 0.2 0.2 0.2 0.2 0.2 0.2 0.2 0.2 0.00246913580246914 0.00246913580246914 0.990123456790123 0.00246913580246914 0.00246913580246914 0.2 0.2 0.2 0.2 0.2 0.00487804878048781 0.00487804878048781 0.980487804878049 0.00487804878048781 0.00487804878048781 0.2 0.2 0.2 0.2 0.2 </TABLE>
</DEFINITION>

<DEFINITION>
	<FOR>v17</FOR>
	<GIVEN>v85</GIVEN>
	<GIVEN>v64</GIVEN>
	<GIVEN>v6</GIVEN>
	<TABLE>0.996472873188339 0.00352712681166059 0.987291849255039 0.0127081507449606 0.990351872871737 0.00964812712826334 0.0876288659793814 0.912371134020619 0.991368928141309 0.00863107185869129 0.980463096960926 0.0195369030390738 0.445205479452055 0.554794520547945 0.98 0.02 </TABLE>
</DEFINITION>

<DEFINITION>
	<FOR>v18</FOR>
	<GIVEN>v49</GIVEN>
	<GIVEN>v10</GIVEN>
	<TABLE>0.999993342742257 6.65725774239075e-06 0.999860568878974 0.000139431121026213 0.871900826446281 0.128099173553719 0.613111165166626 0.386888834833374 0.683566433566434 0.316433566433566 0.148381637906378 0.851618362093622 0.953857791225416 0.046142208774584 0.5 0.5 0.336462749848577 0.663537250151423 0.999863982589771 0.000136017410228509 0.999243570347958 0.00075642965204236 0.5 0.5 0.5 0.5 0.5 0.5 0.000456204379562044 0.999543795620438 </TABLE>
</DEFINITION>

<DEFINITION>
	<FOR>v19</FOR>
	<GIVEN>v3</GIVEN>
	<TABLE>0.999977405214876 2.25947851235935e-05 0.999961612284069 3.83877159309021e-05 0.00170648464163823 0.998293515358362 0.1 0.9 </TABLE>
</DEFINITION>

<DEFINITION>
	<FOR>v20</FOR>
	<GIVEN>v67</GIVEN>
	<GIVEN>v26</GIVEN>
	<TABLE>0.977244684465585 0.0227553155344146 0.988909008601177 0.011090991398823 0.886399459581175 0.113600540418825 0.66551724137931 0.33448275862069 0.998701298701299 0.0012987012987013 0.5 0.5 0.98 0.02 0.5 0.5 0.89251601190176 0.10748398809824 0.923326753992464 0.0766732460075363 0.675100900341509 0.324899099658491 0.708551724137931 0.291448275862069 0.646986771190593 0.353013228809407 0.5 0.5 0.989795918367347 0.0102040816326531 0.993150684931507 0.00684931506849315 0.5 0.5 0.999133448873484 0.000866551126516465 0.5 0.5 0.5 0.5 0.5 0.5 0.994845360824742 0.00515463917525773 0.5 0.5 0.5 0.5 </TABLE>
</DEFINITION>

<DEFINITION>
	<FOR>v21</FOR>
	<GIVEN>v22</GIVEN>
	<TABLE>0.999968772932378 1.56135338111075e-05 1.56135338111075e-05 0.999947888168009 2.60559159957268e-05 2.60559159957268e-05 0.000257003341043434 0.999485993317913 0.000257003341043434 0.0256410256410256 0.0256410256410256 0.948717948717949 </TABLE>
</DEFINITION>

<DEFINITION>
	<FOR>v22</FOR>
	<GIVEN>v95</GIVEN>
	<GIVEN>v94</GIVEN>
	<TABLE>0.985355825521979 0.00203884809312714 0.01198774999154 0.000617576393353863 0.321635311143271 0.634225759768452 0.0437771345875543 0.000361794500723589 0.8846348030966 0.0182598451699764 0.0970212049814877 8.41467519353753e-05 0.00241769805080924 0.933820213458937 0.0637495615573483 1.25269329057474e-05 0.25 0.25 0.25 0.25 0.892857142857143 0.0357142857142857 0.0357142857142857 0.0357142857142857 </TABLE>
</DEFINITION>

<DEFINITION>
	<FOR>v23</FOR>
	<GIVEN>v41</GIVEN>
	<GIVEN>v20</GIVEN>
	<TABLE>0.873524227117188 0.0389796613684507 0.0384582339609226 0.00652080524982594 0.00782437376864622 0.00704223265735405 0.00482616617535959 0.0053475935828877 0.00300117024901121 0.00847615802805635 0.00599937784229784 0.692220513235651 0.23392428290024 0.00833805553306889 0.00121427993200032 0.00358887179902318 0.0273347904692517 0.00477616773253461 0.0166491270676489 0.00121427993200032 0.00477616773253461 0.00596346366604603 0.53940441580891 0.0381079594562741 0.228254891176239 0.01045022393337 0.017364657814096 0.01045022393337 0.017364657814096 0.00699300699300699 0.01045022393337 0.0726801288599041 0.0484796102773631 0.531497548095058 0.299132402866843 0.0999622783855149 0.000377216144851 0.000377216144851 0.000377216144851 0.000377216144851 0.016974726518295 0.000377216144851 0.050169747265183 0.000377216144851 </TABLE>
</DEFINITION>

<DEFINITION>
	<FOR>v24</FOR>
	<GIVEN>v88</GIVEN>
	<TABLE>0.962994661367935 0.036993368605013 5.98501352613057e-06 5.98501352613057e-06 0.769376456876457 0.230332167832168 0.000145687645687646 0.000145687645687646 0.976351351351351 0.0228978978978979 0.000375375375375375 0.000375375375375375 0.726973684210526 0.00328947368421053 0.069078947368421 0.200657894736842 0.816860465116279 0.177325581395349 0.00290697674418605 0.00290697674418605 </TABLE>
</DEFINITION>

<DEFINITION>
	<FOR>v25</FOR>
	<GIVEN>v94</GIVEN>
	<GIVEN>v79</GIVEN>
	<GIVEN>v69</GIVEN>
	<TABLE>0.929645863772351 0.0192388506226953 0.0213427955193766 0.0162332150560078 0.0126264523759827 2.78299589508106e-06 2.78299589508106e-06 0.000603910109232589 0.000303346552563835 0.694079429579984 0.222286722840842 0.0354694765481614 0.0411689857570907 0.00697193050351528 5.86369260177904e-06 5.86369260177904e-06 5.86369260177904e-06 5.86369260177904e-06 0.111111111111111 0.111111111111111 0.111111111111111 0.111111111111111 0.111111111111111 0.111111111111111 0.111111111111111 0.111111111111111 0.111111111111111 0.111111111111111 0.111111111111111 0.111111111111111 0.111111111111111 0.111111111111111 0.111111111111111 0.111111111111111 0.111111111111111 0.111111111111111 0.340471402431292 0.618312589452325 0.00588800115948331 0.0215410257803866 0.013714513469935 1.8116926644564e-05 1.8116926644564e-05 1.8116926644564e-05 1.8116926644564e-05 0.003003003003003 0.003003003003003 0.003003003003003 0.003003003003003 0.003003003003003 0.003003003003003 0.003003003003003 0.975975975975976 0.003003003003003 0.824184298902833 0.0692510839397567 0.061503212586704 0.0179214362257823 0.0217953719023087 0.00484690331750579 0.000488725681413628 4.48372184783145e-06 4.48372184783145e-06 0.613766895539146 0.208947618430712 0.0662348318003196 0.0261260094140001 0.0140000863669733 0.0708986483568683 8.63669732694218e-06 8.63669732694218e-06 8.63669732694218e-06 0.111111111111111 0.111111111111111 0.111111111111111 0.111111111111111 0.111111111111111 0.111111111111111 0.111111111111111 0.111111111111111 0.111111111111111 0.111111111111111 0.111111111111111 0.111111111111111 0.111111111111111 0.111111111111111 0.111111111111111 0.111111111111111 0.111111111111111 0.111111111111111 0.131142068044554 0.596588667334365 0.0131415217457282 0.00658593584023794 0.0196971076512186 0.232753649579653 3.03499347476403e-05 3.03499347476403e-05 3.03499347476403e-05 0.111111111111111 0.111111111111111 0.111111111111111 0.111111111111111 0.111111111111111 0.111111111111111 0.111111111111111 0.111111111111111 0.111111111111111 </TABLE>
</DEFINITION>

<DEFINITION>
	<FOR>v26</FOR>
	<GIVEN>v25</GIVEN>
	<TABLE>0.926203013077479 2.05362423605178e-06 0.058850709732536 2.05362423605178e-06 0.0149360090688046 2.05362423605178e-06 2.05362423605178e-06 2.05362423605178e-06 1.08497526256401e-05 0.996799322975436 1.08497526256401e-05 1.08497526256401e-05 1.08497526256401e-05 0.00313557850881 1.08497526256401e-05 1.08497526256401e-05 4.18200066912011e-05 4.18200066912011e-05 0.999707259953162 4.18200066912011e-05 4.18200066912011e-05 4.18200066912011e-05 4.18200066912011e-05 4.18200066912011e-05 0.999506764374295 7.04622322435175e-05 7.04622322435175e-05 7.04622322435175e-05 7.04622322435175e-05 7.04622322435175e-05 7.04622322435175e-05 7.04622322435175e-05 0.000110132158590308 0.000110132158590308 0.999229074889868 0.000110132158590308 0.000110132158590308 0.000110132158590308 0.000110132158590308 0.000110132158590308 8.84016973125884e-05 8.84016973125884e-05 8.84016973125884e-05 0.999381188118812 8.84016973125884e-05 8.84016973125884e-05 8.84016973125884e-05 8.84016973125884e-05 0.0125 0.9125 0.0125 0.0125 0.0125 0.0125 0.0125 0.0125 0.00271739130434783 0.00271739130434783 0.00271739130434783 0.00271739130434783 0.00271739130434783 0.00271739130434783 0.394021739130435 0.589673913043478 0.0125 0.0125 0.0125 0.0125 0.0125 0.0125 0.9125 0.0125 </TABLE>
</DEFINITION>

<DEFINITION>
	<FOR>v32</FOR>
	<GIVEN>v70</GIVEN>
	<TABLE>0.99998110855027 1.88914497298523e-05 0.778350515463918 0.221649484536082 0.38 0.62 </TABLE>
</DEFINITION>

<DEFINITION>
	<FOR>v33</FOR>
	<GIVEN>v61</GIVEN>
	<GIVEN>v40</GIVEN>
	<GIVEN>v18</GIVEN>
	<TABLE>0.754156925379814 0.245835358749412 7.71587077459627e-06 0.920408191107655 0.0795781661414207 1.36427509242964e-05 0.862173811951137 0.137808302480728 1.78855681350718e-05 0.685705066150371 0.313972249112617 0.000322684737011939 0.999940966380354 2.95168098231943e-05 2.95168098231943e-05 0.999888011646789 5.5994176605633e-05 5.5994176605633e-05 0.333333333333333 0.333333333333333 0.333333333333333 0.333333333333333 0.333333333333333 0.333333333333333 0.338975082275505 0.609779031499765 0.0512458862247297 0.651022864019254 0.34777376654633 0.00120336943441637 0.276995305164319 0.722577891591976 0.000426803243704652 0.657657657657658 0.333333333333333 0.00900900900900901 </TABLE>
</DEFINITION>

<DEFINITION>
	<FOR>v36</FOR>
	<GIVEN>v3</GIVEN>
	<TABLE>0.999423832979348 1.12973925617967e-05 1.12973925617967e-05 0.00055357223552804 1.91938579654511e-05 0.999942418426104 1.91938579654511e-05 1.91938579654511e-05 0.000853242320819113 0.000853242320819113 0.997440273037543 0.000853242320819113 0.05 0.05 0.05 0.85 </TABLE>
</DEFINITION>

<DEFINITION>
	<FOR>v37</FOR>
	<GIVEN>v1</GIVEN>
	<TABLE>0.999977541968446 1.12290157767672e-05 1.12290157767672e-05 0.969318297267093 0.0208269836431982 0.00985471908970842 0.99747064137308 0.0023486901535682 0.0001806684733514 0.811752470098804 0.187727509100364 0.000520020800832033 </TABLE>
</DEFINITION>

<DEFINITION>
	<FOR>v38</FOR>
	<GIVEN>v20</GIVEN>
	<TABLE>0.999832506333354 2.09367083307162e-05 0.000146556958315014 0.991874422899354 0.00794090489381348 0.000184672206832872 </TABLE>
</DEFINITION>

<DEFINITION>
	<FOR>v39</FOR>
	<GIVEN>v80</GIVEN>
	<GIVEN>v62</GIVEN>
	<GIVEN>v6</GIVEN>
	<TABLE>0.971238718635327 0.0286621045323812 9.91768322919766e-05 0.000893655049151028 0.998212689901698 0.000893655049151028 0.982719417917235 0.00045475216007276 0.0168258299226921 0.00110741971207087 0.997785160575858 0.00110741971207087 0.139909735654417 0.859445519019987 0.000644745325596389 0.0045662100456621 0.990867579908676 0.0045662100456621 0.996389184230825 0.00360664623595389 4.16953322075594e-06 8.38996560114104e-05 0.999832200687977 8.38996560114104e-05 0.996032175449987 0.00393175341773978 3.6071132272842e-05 4.74766177657504e-05 0.999905046764469 4.74766177657504e-05 0.999059708509638 0.000470145745181006 0.000470145745181006 0.00305810397553517 0.99388379204893 0.00305810397553517 </TABLE>
</DEFINITION>

<DEFINITION>
	<FOR>v40</FOR>
	<GIVEN>v56</GIVEN>
	<GIVEN>v55</GIVEN>
	<GIVEN>v8</GIVEN>
	<TABLE>0.859586037537274 0.140413962462726 0.575640174156889 0.424359825843111 0.999923675774691 7.63242253091131e-05 0.999927546732358 7.24532676423707e-05 0.740405071908774 0.259594928091226 0.301237839706342 0.698762160293658 0.820348539210661 0.179651460789339 0.278396206967636 0.721603793032364 0.936953807740325 0.0630461922596754 0.5 0.5 0.752538135809398 0.247461864190603 0.816264359797219 0.183735640202781 0.99997854169349 2.14583065104502e-05 0.999944450616598 5.55493834018442e-05 0.946072183862971 0.0539278161370289 0.845625985705178 0.154374014294822 0.918767626698573 0.0812323733014272 0.78221254636349 0.21778745363651 0.96144972120746 0.0385502787925399 0.894321766561514 0.105678233438486 0.886027085179091 0.113972914820909 0.646886016451234 0.353113983548766 0.999974748750063 2.52512499368719e-05 0.999743721168632 0.000256278831368529 0.96427880537492 0.03572119462508 0.887675984492961 0.112324015507039 0.959121207998912 0.0408787920010883 0.545372050816697 0.454627949183303 0.968603561387067 0.0313964386129335 0.665562913907285 0.334437086092715 0.599866844207723 0.400133155792277 0.622167925366504 0.377832074633496 0.999677627337202 0.000322372662798195 0.99982149232417 0.000178507675830061 0.678443968593861 0.321556031406138 0.547152018106375 0.452847981893625 0.998338870431894 0.00166112956810631 0.5 0.5 0.832225913621263 0.167774086378738 0.0531019978969506 0.946898002103049 0.5 0.5 0.5 0.5 0.5 0.5 0.5 0.5 0.999827645639435 0.000172354360565322 0.5 0.5 0.5 0.5 0.5 0.5 0.990196078431373 0.00980392156862745 0.5 0.5 </TABLE>
</DEFINITION>

<DEFINITION>
	<FOR>v41</FOR>
	<GIVEN>v14</GIVEN>
	<GIVEN>v10</GIVEN>
	<TABLE>0.999988519470977 1.14805290227774e-05 0.5 0.5 0.998929794520548 0.00107020547945205 0.947948328267477 0.0520516717325228 0.000183284457478006 0.999816715542522 0.962020033388982 0.0379799666110184 0.5 0.5 0.95 0.05 0.5 0.5 </TABLE>
</DEFINITION>

<DEFINITION>
	<FOR>v42</FOR>
	<GIVEN>v61</GIVEN>
	<GIVEN>v49</GIVEN>
	<TABLE>0.987956952511103 3.71355149210499e-06 3.71355149210499e-06 0.0120356203859123 0.000414954695110337 0.998346983755544 6.80253598541536e-06 0.00123125901336018 0.0094077729796422 0.981030228254164 0.000154225786551511 0.0094077729796422 0.986948217317487 0.000106112054329372 0.000106112054329372 0.012839558573854 0.000231267345050879 0.000231267345050879 0.999306197964847 0.000231267345050879 2.52882864657091e-05 0.975647380133522 2.52882864657091e-05 0.0243020432935464 2.75451740855002e-05 0.996611943587484 2.75451740855002e-05 0.00333296606434553 0.000369822485207101 0.976701183431953 0.000369822485207101 0.0225591715976331 0.00013014055179594 0.999609578344612 0.00013014055179594 0.00013014055179594 0.25 0.25 0.25 0.25 0.859433374844334 0.000155666251556663 0.000155666251556663 0.140255292652553 0.000475285171102662 0.913022813688213 0.000475285171102662 0.0860266159695818 0.00543478260869565 0.983695652173913 0.00543478260869565 0.00543478260869565 0.987704918032787 0.00409836065573771 0.00409836065573771 0.00409836065573771 0.015625 0.015625 0.953125 0.015625 </TABLE>
</DEFINITION>

<DEFINITION>
	<FOR>v44</FOR>
	<GIVEN>v19</GIVEN>
	<TABLE>0.999971553734995 2.84462650054048e-05 0.00335570469798658 0.996644295302013 </TABLE>
</DEFINITION>

<DEFINITION>
	<FOR>v45</FOR>
	<GIVEN>v36</GIVEN>
	<TABLE>0.999969857274193 1.50713629033473e-05 1.50713629033473e-05 2.55918106206014e-05 0.999948816378759 2.55918106206014e-05 0.00113765642775882 0.00113765642775882 0.997724687144482 0.0196078431372549 0.254901960784314 0.725490196078431 </TABLE>
</DEFINITION>

<DEFINITION>
	<FOR>v46</FOR>
	<GIVEN>v82</GIVEN>
	<GIVEN>v49</GIVEN>
	<TABLE>0.997698229260186 0.00230177073981395 0.997307782348416 0.00269221765158356 0.979947403024326 0.0200525969756739 0.946076675026872 0.0539233249731279 0.5 0.5 0.945026178010471 0.0549738219895288 0.9995004995005 0.0004995004995005 0.74390243902439 0.25609756097561 0.103960396039604 0.896039603960396 0.999316005471956 0.000683994528043776 </TABLE>
</DEFINITION>

<DEFINITION>
	<FOR>v47</FOR>
	<GIVEN>v33</GIVEN>
	<GIVEN>v8</GIVEN>
	<TABLE>0.99893366714188 1.15905745447802e-05 0.001054742283575 0.998841802651445 2.06820955099171e-05 0.00113751525304544 0.324151588801872 0.401926366009542 0.273922045188586 0.17696731455194 0.782339666593871 0.0406930188541894 0.964912280701754 0.0175438596491228 0.0175438596491228 0.333333333333333 0.333333333333333 0.333333333333333 </TABLE>
</DEFINITION>

<DEFINITION>
	<FOR>v48</FOR>
	<GIVEN>v79</GIVEN>
	<GIVEN>v63</GIVEN>
	<GIVEN>v45</GIVEN>
	<TABLE>0.969291834907643 0.0306990298357481 4.56762830467908e-06 4.56762830467908e-06 0.00027027027027027 0.0910810810810811 0.908378378378378 0.00027027027027027 0.25 0.25 0.25 0.25 0.841006423982869 0.158896242943352 4.8666536889235e-05 4.8666536889235e-05 7.17380699589658e-06 0.0144695687107234 0.985516083675285 7.17380699589658e-06 0.000285062713797035 0.000285062713797035 0.999144811858609 0.000285062713797035 0.866403246475865 0.133383169585647 0.000106791969243913 0.000106791969243913 0.0192307692307692 0.0192307692307692 0.942307692307692 0.0192307692307692 0.25 0.25 0.25 0.25 0.35939386621589 0.640485390002415 6.03718908476213e-05 6.03718908476213e-05 7.57346258709482e-05 0.359966676764617 0.639881853983641 7.57346258709482e-05 0.00675675675675676 0.00675675675675676 0.00675675675675676 0.97972972972973 </TABLE>
</DEFINITION>

<DEFINITION>
	<FOR>v49</FOR>
	<GIVEN>v62</GIVEN>
	<GIVEN>v45</GIVEN>
	<TABLE>0.972049939589207 4.73810144275189e-06 4.73810144275189e-06 0.0279358461064651 4.73810144275189e-06 8.74508089199825e-06 0.972418014866637 0.0275557498906865 8.74508089199825e-06 8.74508089199825e-06 0.000303951367781155 0.000303951367781155 0.000303951367781155 0.000303951367781155 0.998784194528875 0.834320206956022 2.87438919229664e-05 2.87438919229664e-05 0.165593561368209 2.87438919229664e-05 0.0210825258937521 0.909655863681925 0.0691947878382893 3.34112930170398e-05 3.34112930170398e-05 0.00714285714285714 0.00714285714285714 0.971428571428571 0.00714285714285714 0.00714285714285714 0.544873949579832 0.000336134453781513 0.000336134453781513 0.454117647058824 0.000336134453781513 0.000434782608695652 0.274347826086957 0.724347826086957 0.000434782608695652 0.000434782608695652 0.2 0.2 0.2 0.2 0.2 </TABLE>
</DEFINITION>

<DEFINITION>
	<FOR>v50</FOR>
	<GIVEN>v49</GIVEN>
	<TABLE>0.999980967606867 1.90323931331126e-05 3.23603650249175e-05 0.999967639634975 0.0198463508322663 0.980153649167734 0.999654218533886 0.000345781466113416 0.00136612021857924 0.998633879781421 </TABLE>
</DEFINITION>

<DEFINITION>
	<FOR>v51</FOR>
	<GIVEN>v41</GIVEN>
	<GIVEN>v39</GIVEN>
	<TABLE>0.999988915737436 1.10842625640116e-05 0.996898575020956 0.00310142497904443 0.0714285714285714 0.928571428571429 0.989149560117302 0.0108504398826979 0.645780051150895 0.354219948849105 0.5 0.5 </TABLE>
</DEFINITION>

<DEFINITION>
	<FOR>v52</FOR>
	<GIVEN>v56</GIVEN>
	<GIVEN>v41</GIVEN>
	<TABLE>0.832048903477475 0.167951096522525 0.467051070840198 0.532948929159802 0.947830220189615 0.0521697798103851 0.740443896424168 0.259556103575832 0.999977886869223 2.21131307770554e-05 0.996894409937888 0.0031055900621118 0.668257157207433 0.331742842792566 0.35734664764622 0.64265335235378 0.999153976311337 0.000846023688663283 0.5 0.5 </TABLE>
</DEFINITION>

<DEFINITION>
	<FOR>v53</FOR>
	<GIVEN>v12</GIVEN>
	<TABLE>0.999980913845097 1.90861549032332e-05 0.996932515337423 0.00306748466257669 0.00218340611353712 0.997816593886463 </TABLE>
</DEFINITION>

<DEFINITION>
	<FOR>v54</FOR>
	<GIVEN>v62</GIVEN>
	<GIVEN>v41</GIVEN>
	<TABLE>0.986087809258253 0.0139003757177627 5.90751199224934e-06 5.90751199224934e-06 0.888022561380226 0.111645653616457 0.000165892501658925 0.000165892501658925 0.960740238945683 0.0347641335139795 0.00446483557088311 3.07919694543663e-05 0.94187145557656 0.0118147448015123 0.0118147448015123 0.0344990548204159 0.466951788491446 0.532270606531882 0.000388802488335925 0.000388802488335925 0.790983606557377 0.200819672131148 0.00409836065573771 0.00409836065573771 </TABLE>
</DEFINITION>

<DEFINITION>
	<FOR>v55</FOR>
	<GIVEN>v26</GIVEN>
	<TABLE>0.20461219988779 3.86929520787788e-06 0.721704811468591 0.0541740022054983 0.0195051171429124 1.95752177742977e-05 0.999138690417931 1.95752177742977e-05 1.95752177742977e-05 0.000802583928746207 0.113330413199007 2.920134326179e-05 0.39950357716455 0.345773105562856 0.141363702730326 0.000159108989657916 0.999363564041368 0.000159108989657916 0.000159108989657916 0.000159108989657916 0.227688504326329 0.000247218788627936 0.445241038318912 0.207911001236094 0.118912237330037 0.00606060606060606 0.975757575757576 0.00606060606060606 0.00606060606060606 0.00606060606060606 0.008 0.008 0.648 0.328 0.008 0.008 0.008 0.968 0.008 0.008 </TABLE>
</DEFINITION>

<DEFINITION>
	<FOR>v56</FOR>
	<GIVEN>v49</GIVEN>
	<GIVEN>v8</GIVEN>
	<TABLE>0.136875285139563 0.835726431919041 0.000423043424163245 0.0269669445481316 8.2949691012401e-06 0.545186592100172 0.408012380851887 7.0345749358095e-06 0.046786957898069 7.0345749358095e-06 0.0724250497167086 0.151971783422761 0.770335071854715 0.00526059059697572 7.50440884019361e-06 0.279981180898612 0.315266996000941 0.378781463185133 0.0259233121618443 4.70477534697718e-05 0.033195706028076 0.536911643270025 0.388274153592073 0.033195706028076 0.00842279108175062 0.598860398860399 0.2 0.2 0.00056980056980057 0.00056980056980057 0.0560447239692523 0.922571628232006 0.000139762403913347 0.0211041229909154 0.000139762403913347 0.403969883641342 0.328678986995209 0.000136892539356605 0.267077344284736 0.000136892539356605 0.00027359781121751 0.0960328317373461 0.109712722298222 0.00027359781121751 0.793707250341997 0.2 0.2 0.2 0.2 0.2 </TABLE>
</DEFINITION>

<DEFINITION>
	<FOR>v57</FOR>
	<GIVEN>v6</GIVEN>
	<GIVEN>v5</GIVEN>
	<TABLE>0.999672560576293 0.000327439423706614 0.181169272603671 0.818830727396329 0.999986477349561 1.35226504394861e-05 0.999991618472886 8.38152711424021e-06 0.998235795108894 0.00176420489110597 0.824854975457385 0.175145024542615 0.997041420118343 0.0029585798816568 0.966666666666667 0.0333333333333333 0.897379912663755 0.102620087336245 0.999189627228525 0.000810372771474878 0.999925295084417 7.47049155834454e-05 0.999911394648237 8.86053517632465e-05 0.995575221238938 0.00442477876106195 0.991228070175439 0.0087719298245614 </TABLE>
</DEFINITION>

<DEFINITION>
	<FOR>v58</FOR>
	<GIVEN>v190</GIVEN>
